svm_type c_svc
kernel_type polynomial
degree 3
gamma 0.03125
coef0 0.5
nr_class 10
total_sv 904
rho 1.7518907104909254 3.3502901553340485 -0.2239995305179863 -0.7285228463711637 -2.024619407506852 0.70535617023909 -2.736052241093266 -1.0569336296577467 -0.14883680724814727 4.664781922974051 1.275068703632239 0.2142852369827373 -2.2569029557983105 3.1235113425321233 -2.8611466899950098 -2.1034510129424913 -0.7515344700768148 -1.7359320608825435 -4.601348304065806 -5.499824571764035 -3.3740353091398108 -4.206926419973617 -5.493484095166088 -3.112040034263809 -0.9554948183317274 -4.789342148713427 -0.010780549073088877 -1.246643313997596 -1.60586267172018 -1.4465448866240609 1.5685634543083689 0.6997848803921504 -1.5364475073273636 -0.913901365375716 -0.7752581379836224 3.704711099071591 -2.3554804922864365 0.5173739382690208 -0.21585630395030947 -2.5339916847723325 -2.3078630464361307 -0.7207035526647827 1.6885361860122101 0.7322881607083787 -0.08807305893533218
label 14 8 9 16 4 5 10 15 13 11
nr_sv 102 102 477 17 89 29 37 15 26 10
SV
92.73978798808548 0.0 0.0 0.0 0.0 0.0 0.0 23.415962920818483 0.0 0:1.0 1:0.0 2:1.0 3:0.0 4:1.0 5:0.25 6:0.0 7:0.0 8:0.0 9:0.0 10:1.0 11:0.0 12:0.0 13:0.0 14:0.05172413793103448 15:0.0 16:0.0029585798816568047 17:0.0 18:1.0 19:0.0 20:0.0 21:6.644415651638168E-16 22:0.0 23:0.010033444816053512 24:0.012552301255230124 25:0.0 26:1.0 27:0.0 28:1.0 29:0.02997565429093122 30:0.0 31:1.0 32:0.5 33:0.0 34:0.9999999999999998 35:0.75 36:0.018556701030927835 37:0.025 38:0.0 39:0.0 40:0.22022916666666648 41:0.075 42:0.9 43:0.019222984914653192 44:0.035044325708911174 45:0.0027276645329120963 46:0.13011572830859333 47:0.5984639939632083 48:0.1172828080361818 49:0.014591624092999415 50:0.5871015473955317 51:0.001205560639908548 52:0.004868040559824644 
0.0 225.62642521668667 0.0 0.0 0.0 0.0 116.68982497971493 0.0 0.0 0:1.0 1:0.0 2:1.0 3:0.0 4:1.0 5:0.0 6:0.0 7:0.0 8:0.0 9:0.0 10:1.0 11:0.0 12:0.0018404907975460125 13:0.0 14:0.028735632183908046 15:0.0 16:0.0 17:0.0 18:1.0 19:0.0 20:0.0 21:6.644415651638168E-16 22:0.0 23:0.010033444816053512 24:0.008368200836820083 25:0.0 26:1.0 27:0.0 28:1.0 29:0.022700471698113206 30:0.09047619047619047 31:1.0 32:0.5 33:0.0 34:0.9999999999999998 35:0.3333333333333333 36:0.013917525773195877 37:0.0 38:0.075 39:0.0 40:0.17549999999999977 41:0.08571428571428572 42:0.7714285714285715 43:0.015525763674302463 44:0.024060597059260353 45:9.249456044338162E-4 46:0.0760007092512973 47:0.6361194748586989 48:0.22093776562191753 49:0.025246817183200664 50:0.47236394854578323 51:0.0010811835012478992 52:0.004868040559824644 
0.0 512.0 0.0 0.0 0.0 103.21834428637673 0.0 0.0 0.0 0:1.0 1:0.0 2:0.0 3:0.0 4:1.0 5:0.0 6:0.0 7:0.0 8:0.0 9:0.0 10:1.0 11:0.0 12:0.0 13:0.0 14:0.05172413793103448 15:0.0 16:0.0 17:0.0 18:0.0 19:0.0 20:0.0 21:6.644415651638168E-16 22:0.0 23:0.013377926421404682 24:0.016736401673640166 25:0.0 26:0.0 27:0.0019455252918287938 28:1.0 29:0.08117138364779873 30:0.0 31:1.0 32:0.6666666666666666 33:0.0 34:0.9999999999999998 35:0.6666666666666666 36:0.032474226804123714 37:0.0 38:0.0136986301369863 39:0.03612420777993488 40:0.2222222222222222 41:0.058823529411764705 42:0.9264705882352942 43:0.01901204091173419 44:0.07123818852619923 45:0.005771985334645985 46:0.14539397610263685 47:0.5695695559036199 48:0.21522894934886858 49:0.026270570518918797 50:0.5347162410223839 51:0.002572084571718359 52:0.00504161711472852 
0.0 512.0 96.74130802908125 329.2235868245112 59.43916505418582 148.60218059187045 0.0 0.0 0.0 0:0.0 1:0.0 2:0.0 3:0.0 4:1.0 5:0.0 6:0.0 7:0.0 8:0.0 9:0.0 10:1.0 11:0.0 12:0.0 13:0.0 14:0.034482758620689655 15:0.0 16:0.047337278106508875 17:0.26666666666666666 18:0.0 19:0.0 20:0.046511627906976744 21:6.644415651638168E-16 22:0.0 23:0.04013377926421405 24:0.02092050209205021 25:0.0 26:0.0 27:0.0019455252918287938 28:1.0 29:0.12293632075471697 30:0.0 31:1.0 32:0.6428571428571429 33:0.04918032786885246 34:0.9999999999999998 35:0.35714285714285715 36:0.0443298969072165 37:0.13114754098360656 38:0.02962962962962963 39:0.11213213768450893 40:0.15277777777777776 41:0.09836065573770492 42:0.7049180327868853 43:0.01901204091173419 44:0.07569057530908667 45:0.009471965512009418 46:0.2458717860006808 47:0.5668390991478494 48:0.27433736084151455 49:0.033207278511830245 50:0.45034793715494204 51:0.002992199287682701 52:0.005608482217069002 
0.0 375.4321994338715 0.0 0.0 0.0 0.0 0.0 0.0 0.0 0:1.0 1:0.0 2:0.0 3:0.0 4:1.0 5:0.0 6:0.0 7:0.0 8:0.0 9:0.0 10:1.0 11:0.0 12:0.0 13:0.0 14:0.040229885057471264 15:0.0 16:0.0 17:0.0 18:0.0 19:0.0 20:0.0 21:0.2281455044184348 22:0.0 23:0.020066889632107024 24:0.025104602510460247 25:0.0 26:1.0 27:0.0 28:1.0 29:0.13685796645702306 30:0.0 31:1.0 32:0.6153846153846154 33:0.0 34:0.9999999999999998 35:0.46153846153846156 36:0.061855670103092786 37:0.0 38:0.006944444444444444 39:0.13014699084773967 40:0.17375000000000007 41:0.045454545454545456 42:0.9090909090909091 43:0.022094959008449138 44:0.1255019147780858 45:0.030502615697025365 46:0.402438627945026 47:0.6076420520127189 48:0.26967337485052106 49:0.028625322757882425 50:0.3655773244086464 51:0.005367779620781804 52:0.0033638365846540897 
19.628183821700933 0.0 0.0 0.0 0.0 0.0 0.0 0.0 0.0 0:0.0 1:0.0 2:0.0 3:0.0 4:1.0 5:0.0 6:0.0 7:0.0 8:0.0 9:0.0 10:1.0 11:0.0 12:0.0 13:0.0 14:0.040229885057471264 15:0.0 16:0.0 17:0.0 18:0.0 19:0.5 20:0.023255813953488372 21:6.644415651638168E-16 22:0.0 23:0.016722408026755852 24:0.016736401673640166 25:0.0 26:1.0 27:0.0 28:1.0 29:0.04904450895016932 30:0.0 31:1.0 32:0.42857142857142855 33:0.047619047619047616 34:0.9999999999999998 35:0.5714285714285714 36:0.0288659793814433 37:0.0 38:0.028985507246376812 39:0.45104516553162205 40:0.19444444444444442 41:0.07936507936507936 42:0.8888888888888888 43:0.009682044674519115 44:0.049490838726280253 45:0.01716460716202197 46:0.39587685771253556 47:0.7151215177367989 48:0.10709266840886228 49:0.010755052994436734 50:0.47894194998359774 51:0.0017107101450111865 52:0.003289358654181084 
512.0 394.5963590211025 0.0 0.0 0.0 0.0 0.0 41.183872772136475 0.0 0:0.0 1:0.0 2:0.0 3:0.0 4:1.0 5:0.25 6:0.0 7:0.0 8:0.0 9:0.0 10:1.0 11:0.0 12:0.0 13:0.0 14:0.08045977011494254 15:0.0 16:0.0029585798816568047 17:0.0 18:0.0 19:0.5 20:0.023255813953488372 21:6.644415651638168E-16 22:0.0 23:0.013377926421404682 24:0.016736401673640166 25:0.0 26:1.0 27:0.0 28:1.0 29:0.05839050886220697 30:0.0 31:1.0 32:0.6 33:0.046875 34:0.9999999999999998 35:0.8 36:0.029896907216494847 37:0.015625 38:0.014705882352941176 39:0.33209454254106185 40:0.16536458333333331 41:0.0625 42:0.90625 43:0.01846045085004732 44:0.040783193803301795 45:0.010122272262013274 46:0.3367134707720778 47:0.7303574664339986 48:0.23430867063003993 49:0.02263151830963231 50:0.42003308369336856 51:0.0017160732064305671 52:0.0034699215426534477 
0.0 512.0 0.0 512.0 0.0 0.0 0.0 36.37621527937576 1.9678643245043748 0:0.0 1:0.0 2:0.0 3:0.0 4:1.0 5:0.0 6:0.0 7:0.0 8:0.0 9:0.0 10:1.0 11:0.0 12:0.0 13:0.0 14:0.028735632183908046 15:0.0 16:0.0 17:0.0 18:0.0 19:0.0 20:0.023255813953488372 21:6.644415651638168E-16 22:0.0 23:0.006688963210702341 24:0.008368200836820083 25:0.0 26:1.0 27:0.0 28:1.0 29:0.05839050886220697 30:0.0 31:1.0 32:0.6923076923076923 33:0.03409090909090909 34:0.9999999999999998 35:0.15384615384615385 36:0.04329896907216495 37:0.0 38:0.02 39:0.3705258184134028 40:0.125 41:0.022727272727272728 42:0.9545454545454546 43:0.015692523460393827 44:0.03100305140442842 45:0.00913143863140339 46:0.4022019623832719 47:0.7378041666770092 48:0.5656818309128503 49:0.05395320767901421 50:0.3965991498747147 51:0.0013131209451050562 52:0.009292214057609586 
512.0 512.0 0.0 92.48226029205897 91.76969861299429 0.0 244.73951705172004 0.0 25.01276477095472 0:0.0 1:0.0 2:0.0 3:0.0 4:1.0 5:0.0 6:0.0 7:0.0 8:0.0 9:0.0 10:1.0 11:0.0 12:0.0 13:0.0 14:0.06896551724137931 15:0.0 16:0.0 17:0.0 18:0.0 19:1.0 20:0.0 21:6.644415651638168E-16 22:0.0 23:0.006688963210702341 24:0.008368200836820083 25:0.0 26:1.0 27:0.0 28:1.0 29:0.02208927749654855 30:0.0 31:1.0 32:1.0 33:0.0 34:0.9999999999999998 35:1.0 36:0.007216494845360825 37:0.0 38:0.0 39:0.0 40:0.16647222222222208 41:0.125 42:0.875 43:0.00977611429744246 44:0.020864812171430543 45:1.5413395667979342E-4 46:0.033920446866975866 47:0.6980958787478623 48:0.19657665863762896 49:0.020475816699802866 50:0.18593035673155442 51:0.00260549658113661 52:0.004868040559824644 
373.55586190328506 512.0 0.0 0.0 0.0 0.0 0.0 0.0 0.0 0:1.0 1:0.0 2:0.0 3:0.0 4:1.0 5:0.0 6:0.0 7:0.0 8:0.0 9:0.0 10:1.0 11:0.0 12:0.0 13:0.0 14:0.040229885057471264 15:0.0 16:0.0 17:0.0 18:0.0 19:0.0 20:0.0 21:0.06101647366862583 22:0.0 23:0.013377926421404682 24:0.016736401673640166 25:0.0 26:1.0 27:0.0 28:1.0 29:0.14083557951482478 30:0.0 31:1.0 32:0.5714285714285714 33:0.0 34:0.9999999999999998 35:0.5714285714285714 36:0.025773195876288662 37:0.0 38:0.0 39:0.042474294577465536 40:0.15416666666666654 41:0.07142857142857142 42:0.8928571428571429 43:0.01240008665807686 44:0.04817108171348693 45:0.0054715101582208225 46:0.2467303222705003 47:0.61946741199862 48:0.28905022735409514 49:0.03281962423298856 50:0.38705932031855267 51:0.0023711592982767447 52:0.0043761536926093005 
0.0 512.0 0.0 0.0 0.0 0.0 0.0 0.0 0.0 0:1.0 1:0.0 2:0.0 3:0.0 4:1.0 5:0.0 6:0.0 7:0.0 8:0.0 9:0.0 10:1.0 11:0.0 12:0.0 13:0.0 14:0.06321839080459771 15:0.0 16:0.0 17:0.0 18:1.0 19:0.0 20:0.0 21:6.644415651638168E-16 22:0.0 23:0.006688963210702341 24:0.0 25:0.0 26:0.0 27:0.0038910505836575876 28:1.0 29:0.056603773584905655 30:0.0 31:1.0 32:0.3333333333333333 33:0.0 34:0.9999999999999998 35:0.0 36:0.011855670103092783 37:0.0 38:0.0 39:0.0 40:0.22249999999999992 41:0.06666666666666667 42:0.7666666666666667 43:0.031216861837379282 44:0.02188306357426105 45:6.013388702546447E-4 46:0.03370932987753973 47:0.8887053415180844 48:0.06708589771379442 49:0.005444438401371941 50:0.5461280213299086 51:0.001185590165609568 52:0.004868040559824644 
194.21555066815858 512.0 0.0 0.0 0.0 180.04252763974517 0.0 0.0 0.0 0:0.0 1:0.0 2:0.0 3:0.0 4:1.0 5:0.0 6:0.0 7:0.0 8:0.0 9:0.0 10:1.0 11:0.0 12:0.0 13:0.0 14:0.0574712643678161 15:0.0 16:0.0 17:0.0 18:0.0 19:0.0 20:0.0 21:0.09766434705359844 22:0.0 23:0.016722408026755852 24:0.02092050209205021 25:0.0 26:0.0 27:0.0038910505836575876 28:1.0 29:0.11556603773584904 30:0.0 31:1.0 32:0.5 33:0.0 34:0.9999999999999998 35:0.625 36:0.031958762886597936 37:0.0 38:0.013333333333333334 39:0.068688176019229 40:0.1941666666666668 41:0.07352941176470588 42:0.9117647058823529 43:0.031216861837379282 44:0.0436841681089181 45:0.010807594932919572 46:0.25143680847039557 47:0.8688971188716761 48:0.11326544777918765 49:0.009102316500479825 50:0.5891933581344705 51:0.0019608096619041417 52:0.004351134142891995 
0.0 512.0 74.46161492963438 0.0 48.553749241957384 0.0 113.2539182379144 11.866279511376577 0.0 0:1.0 1:0.0 2:1.0 3:0.0 4:1.0 5:0.0 6:0.0 7:0.0 8:0.0 9:0.0 10:1.0 11:0.0 12:0.0 13:0.0 14:0.09195402298850575 15:0.0 16:0.0 17:0.0 18:1.0 19:0.0 20:0.0 21:6.644415651638168E-16 22:0.0 23:0.016722408026755852 24:0.02092050209205021 25:0.0 26:0.0 27:0.0019455252918287938 28:1.0 29:0.12293632075471697 30:0.0 31:1.0 32:1.0 33:0.0 34:0.9999999999999998 35:0.625 36:0.052061855670103095 37:0.0 38:0.0 39:0.04247634895688894 40:0.18082861635220115 41:0.04716981132075472 42:0.9528301886792453 43:0.019386894106110584 44:0.11131917901535424 45:0.0027478897413945194 46:0.07094736107512689 47:0.38696901924475563 48:0.24327618834222695 49:0.042328168344687875 50:0.4624290689801986 51:0.003245571571472779 52:0.0049167377370810126 
0.0 72.60417572820235 0.0 0.0 0.0 0.0 36.2458674346064 0.0 0.0 0:1.0 1:0.0 2:1.0 3:0.0 4:1.0 5:0.0 6:0.0 7:0.0 8:0.0 9:0.0 10:1.0 11:0.0 12:0.0 13:0.0 14:0.034482758620689655 15:0.0 16:0.0 17:0.0 18:1.0 19:0.0 20:0.0 21:6.644415651638168E-16 22:1.0 23:0.010033444816053512 24:0.012552301255230124 25:1.0 26:1.0 27:0.0 28:1.0 29:0.022700471698113206 30:0.0 31:1.0 32:0.8 33:0.0 34:0.9999999999999998 35:0.6 36:0.015463917525773196 37:0.0 38:0.0 39:0.0 40:0.19416666666666665 41:0.09090909090909091 42:0.9090909090909091 43:0.013880970570461006 44:0.02655986989843413 45:8.52562250365964E-4 46:0.06655980317235415 47:0.6359208961855518 48:0.21964086090118437 49:0.025043325544388692 50:0.44936031213138555 51:0.0012574160389736866 52:0.004868040559824644 
0.0 512.0 0.0 0.0 0.0 0.0 0.0 0.0 0.0 0:0.0 1:0.0 2:1.0 3:0.0 4:1.0 5:0.0 6:0.0 7:0.0 8:0.0 9:0.0 10:1.0 11:0.0 12:0.0 13:0.0 14:0.028735632183908046 15:0.0 16:0.0 17:0.0 18:0.0 19:0.0 20:0.0 21:6.644415651638168E-16 22:0.0 23:0.020066889632107024 24:0.016736401673640166 25:0.0 26:1.0 27:0.0 28:1.0 29:0.022700471698113206 30:0.0 31:1.0 32:0.4444444444444444 33:0.0 34:0.9999999999999998 35:0.4444444444444444 36:0.028350515463917526 37:0.0 38:0.013888888888888888 39:0.0 40:0.1525000000000001 41:0.09375 42:0.859375 43:0.013880970570461006 44:0.02086032700177444 45:0.0010584640933026912 46:0.06552215460779241 47:0.6396442463070572 48:0.248524694770734 49:0.028225379439387254 50:0.7215616340831839 51:6.15028786578456E-4 52:0.004868040559824644 
0.0 512.0 0.0 0.0 0.0 0.0 0.0 0.0 0.0 0:1.0 1:0.0 2:1.0 3:0.0 4:1.0 5:0.0 6:0.0 7:0.0 8:0.0 9:0.0 10:1.0 11:0.0 12:6.134969325153375E-4 13:0.0 14:0.022988505747126436 15:0.0 16:0.0 17:0.0 18:1.0 19:0.0 20:0.0 21:0.33490972211399134 22:0.0 23:0.023411371237458192 24:0.02928870292887029 25:0.0 26:0.0 27:0.0019455252918287938 28:1.0 29:0.05839050886220697 30:0.018199233716475097 31:1.0 32:0.7272727272727273 33:0.0 34:0.9999999999999998 35:0.6363636363636364 36:0.024742268041237116 37:0.0 38:0.014705882352941176 39:0.23565786365083763 40:0.22249999999999978 41:0.1206896551724138 42:0.8275862068965517 43:0.04476431283565754 44:0.05500173769670322 45:0.02168817782129874 46:0.38251937022558435 47:0.7255679970610357 48:0.11786123971913792 49:0.011513939228370565 50:0.5771502655769056 51:0.0016827937293937964 52:0.0034379261108258077 
0.0 512.0 0.0 0.0 8.548488249536634 0.0 0.0 0.0 0.0 0:0.0 1:0.0 2:1.0 3:0.0 4:1.0 5:0.25 6:0.0 7:0.0 8:0.0 9:0.0 10:1.0 11:0.0 12:0.0 13:0.0 14:0.034482758620689655 15:0.0 16:0.0029585798816568047 17:0.0 18:0.0 19:0.0 20:0.0 21:0.19023814347832924 22:0.0 23:0.016722408026755852 24:0.02092050209205021 25:0.0 26:0.0 27:0.0019455252918287938 28:1.0 29:0.05839050886220697 30:0.0 31:1.0 32:0.7777777777777778 33:0.0 34:0.9999999999999998 35:0.5555555555555556 36:0.027835051546391754 37:0.016666666666666666 38:0.0 39:0.13370106725011044 40:0.1797916666666664 41:0.08333333333333333 42:0.9 43:0.04476431283565754 44:0.04529165016528321 45:0.011127400955032014 46:0.32818254403738134 47:0.7330233851209964 48:0.1975423351104378 49:0.01898280628927982 50:0.4571967502599931 51:0.0019081201835509135 52:0.006935582411753873 
0.0 512.0 0.0 0.0 0.0 0.0 0.0 0.0 0.0 0:1.0 1:0.0 2:0.0 3:0.0 4:1.0 5:0.0 6:0.0 7:0.0 8:0.0 9:0.0 10:1.0 11:0.0 12:0.0 13:0.0 14:0.040229885057471264 15:0.0 16:0.0 17:0.0 18:0.0 19:0.0 20:0.0 21:0.040063977681842305 22:0.0 23:0.023411371237458192 24:0.02928870292887029 25:0.0 26:1.0 27:0.0 28:1.0 29:0.10901467505241089 30:0.0 31:1.0 32:0.5625 33:0.0 34:0.9999999999999998 35:0.4375 36:0.06907216494845361 37:0.0 38:0.018867924528301886 39:0.046568672768173565 40:0.16666666666666666 41:0.04861111111111111 42:0.9305555555555556 43:0.020276279631931224 44:0.10077615774079074 45:0.011497841980805881 46:0.20109555519612954 47:0.6013322146734746 48:0.29361070451761234 49:0.03238613560996513 50:0.48768923663216374 51:0.004249604583083413 52:0.004757193452723038 
0.0 130.00699629694805 0.0 0.0 0.0 0.0 0.0 0.0 0.0 0:1.0 1:0.0 2:0.0 3:0.0 4:1.0 5:0.0 6:0.0 7:0.0 8:0.0 9:0.0 10:1.0 11:0.0 12:0.0 13:0.0 14:0.05172413793103448 15:0.0 16:0.0 17:0.0 18:1.0 19:0.0 20:0.0 21:6.644415651638168E-16 22:0.0 23:0.010033444816053512 24:0.012552301255230124 25:0.0 26:1.0 27:0.0 28:1.0 29:0.06446540880503145 30:0.0 31:1.0 32:0.6 33:0.0 34:0.9999999999999998 35:0.6 36:0.025257731958762887 37:0.0 38:0.017543859649122806 39:0.6159440387045083 40:0.22168055555555571 41:0.05660377358490566 42:0.9245283018867925 43:0.08574161069999205 44:0.06265586090083843 45:0.026818690920274228 46:0.48418460379217027 47:0.6573028548166499 48:0.1866726904745088 49:0.0198303807315992 50:0.45346227132816375 51:0.0018645892819033943 52:0.0028767125211333557 
0.0 293.27813931182055 0.0 0.0 0.0 0.0 0.0 0.0 5.041211305138614 0:1.0 1:0.0 2:0.0 3:0.0 4:1.0 5:0.0 6:0.0 7:0.0 8:0.0 9:0.0 10:1.0 11:0.0 12:6.134969325153375E-4 13:0.0 14:0.022988505747126436 15:0.0 16:0.023668639053254437 17:0.4 18:0.0 19:0.5 20:0.023255813953488372 21:6.644415651638168E-16 22:0.0 23:0.020066889632107024 24:0.025104602510460247 25:0.0 26:1.0 27:0.0 28:1.0 29:0.031053459119496855 30:0.015993265993265993 31:1.0 32:0.5714285714285714 33:0.045454545454545456 34:0.9999999999999998 35:0.42857142857142855 36:0.025773195876288662 37:0.12121212121212122 38:0.02531645569620253 39:0.0 40:0.1499999999999995 41:0.09090909090909091 42:0.7575757575757576 43:0.014538032633607376 44:0.014893264934635091 45:0.0017915485322361681 46:0.08925634263555952 47:0.8866041309328482 48:0.14240866259288393 49:0.011535735562146382 50:0.9114934425886244 51:4.7889107546627023E-4 52:0.004868040559824644 
0.0 332.06003712916896 0.0 0.0 0.0 0.0 0.0 0.0 0.0 0:1.0 1:0.0 2:0.0 3:0.0 4:1.0 5:0.25 6:0.0 7:0.0 8:0.0 9:0.0 10:1.0 11:0.0 12:0.0 13:0.0 14:0.0574712643678161 15:0.0 16:0.0029585798816568047 17:0.0 18:0.0 19:0.0 20:0.0 21:6.644415651638168E-16 22:0.0 23:0.013377926421404682 24:0.016736401673640166 25:0.0 26:1.0 27:0.0 28:1.0 29:0.015073831009023788 30:0.0 31:1.0 32:0.5714285714285714 33:0.0 34:0.6551423975778218 35:0.5714285714285714 36:0.03556701030927835 37:0.013157894736842105 38:0.024390243902439025 39:2.054379423336163E-4 40:0.16573903508771956 41:0.05263157894736842 42:0.9078947368421053 43:0.008938039475034494 44:0.035143259571273 45:0.0038819150476608537 46:0.1518005462823567 47:0.8995067802205712 48:0.046656908422695945 49:0.0036858754157108866 50:0.4750001744920536 51:0.0022456810770328586 52:0.00486696782689946 
0.0 199.30555452132785 0.0 0.0 0.0 0.0 0.0 0.0 0.0 0:1.0 1:0.0 2:0.0 3:0.0 4:1.0 5:0.0 6:0.0 7:0.0 8:0.0 9:0.0 10:1.0 11:0.0 12:0.0 13:0.0 14:0.017241379310344827 15:0.0 16:0.0 17:0.0 18:1.0 19:0.0 20:0.0 21:6.644415651638168E-16 22:0.0 23:0.020066889632107024 24:0.02092050209205021 25:0.0 26:0.0 27:0.0019455252918287938 28:1.0 29:0.1981132075471698 30:0.0 31:1.0 32:0.6363636363636364 33:0.0 34:0.9999999999999998 35:0.45454545454545453 36:0.03350515463917526 37:0.0 38:0.012195121951219513 39:0.7188479040193932 40:0.3050000000000002 41:0.08333333333333333 42:0.9027777777777778 43:0.05005644177375402 44:0.12244199991116772 45:0.0699095543509404 46:0.4818420429576575 47:0.7356458647232433 48:0.12355544298124904 49:0.010891661776863066 50:0.5947938550878392 51:0.0038847976537896897 52:0.003636505588937019 
512.0 512.0 0.0 145.2689909094947 0.0 0.0 0.0 0.0 0.0 0:0.0 1:0.0 2:0.0 3:0.0 4:1.0 5:0.0 6:0.0 7:0.0 8:0.0 9:0.0 10:1.0 11:0.0 12:0.0 13:0.0 14:0.011494252873563218 15:0.0 16:0.0 17:0.0 18:0.0 19:0.0 20:0.0 21:6.644415651638168E-16 22:0.0 23:0.013377926421404682 24:0.012552301255230124 25:0.0 26:0.0 27:0.0019455252918287938 28:1.0 29:0.06446540880503145 30:0.0 31:1.0 32:0.7142857142857143 33:0.0 34:0.9999999999999998 35:0.42857142857142855 36:0.015979381443298968 37:0.0 38:0.046511627906976744 39:0.0 40:0.20833333333333331 41:0.10810810810810811 42:0.8378378378378378 43:0.05005644177375402 44:0.02220807485601765 45:0.001604235325853624 46:0.08487066117802532 47:0.819670706915254 48:0.26703207312350674 49:0.02320950698159356 50:0.6180264250766019 51:9.809587630937395E-4 52:0.004868040559824644 
512.0 512.0 0.0 0.0 157.13926153717657 0.0 0.0 58.863547424277044 0.0 0:0.0 1:0.0 2:0.0 3:0.0 4:1.0 5:0.0 6:0.0 7:0.0 8:0.0 9:0.0 10:1.0 11:0.0 12:0.0 13:0.0 14:0.017241379310344827 15:0.0 16:0.0 17:0.0 18:0.0 19:0.0 20:0.0 21:6.644415651638168E-16 22:0.0 23:0.016722408026755852 24:0.008368200836820083 25:0.0 26:1.0 27:0.0 28:1.0 29:0.06923854447439352 30:0.0 31:1.0 32:1.0 33:0.0 34:0.8307340425307859 35:0.6666666666666666 36:0.005154639175257732 37:0.0 38:0.0 39:0.0 40:0.3055555555555555 41:0.3333333333333333 42:0.6666666666666666 43:0.024844357532981358 44:0.0388290568422093 45:9.326040082736251E-4 46:0.06346477126731424 47:0.6758947830900331 48:0.48388063118465247 49:0.050188226193490816 50:0.3275892875838434 51:0.002714310496012766 52:0.004868040559824644 
0.0 0.0 0.0 0.0 68.27342825681357 0.0 6.234949464041942 0.0 0.0 0:0.0 1:0.0 2:1.0 3:0.0 4:1.0 5:0.0 6:0.0 7:0.0 8:0.0 9:0.0 10:1.0 11:0.0 12:0.0 13:0.0 14:0.0574712643678161 15:0.0 16:0.0029585798816568047 17:0.0 18:1.0 19:0.0 20:0.0 21:6.644415651638168E-16 22:0.0 23:0.023411371237458192 24:0.016736401673640166 25:0.0 26:1.0 27:0.0 28:1.0 29:0.4272237196765498 30:0.0 31:1.0 32:0.7 33:0.0 34:0.20595650040331995 35:0.4 36:0.03350515463917526 37:0.013333333333333334 38:0.011904761904761904 39:0.17339578646780265 40:0.2777777777777778 41:0.09333333333333334 42:0.8666666666666667 43:0.011688863296883763 44:0.2559187837327431 45:0.03433789399070976 46:0.35277772294924836 47:0.5232374281083148 48:0.26998511908386164 49:0.028297016855084605 50:0.26752633085089306 51:0.017800910826829167 52:0.008540266065684738 
0.0 512.0 61.53965417390802 386.7148291654737 102.68238476085587 14.128883864800994 0.0 56.340445276069204 6.617730094492573 0:0.0 1:0.0 2:1.0 3:0.0 4:1.0 5:0.0 6:0.0 7:0.0 8:0.0 9:0.0 10:1.0 11:0.0 12:0.0 13:0.0 14:0.017241379310344827 15:0.0 16:0.011834319526627219 17:0.0 18:0.0 19:0.0 20:0.0 21:3.896326543796506E-6 22:0.0 23:0.023411371237458192 24:0.012552301255230124 25:0.0 26:1.0 27:0.0 28:1.0 29:0.21243261455525603 30:0.0 31:1.0 32:0.42857142857142855 33:0.0 34:0.20595650040331995 35:0.42857142857142855 36:0.01958762886597938 37:0.0784313725490196 38:0.0 39:0.10248271753310116 40:0.16666666666666666 41:0.13725490196078433 42:0.7450980392156863 43:0.011688863296883763 44:0.07059828516765328 45:0.007273523983112847 46:0.3171979265967586 47:0.6535546823610011 48:0.45654577647451366 49:0.04739063113963763 50:0.22500540925366258 51:0.0057502161527036195 52:0.003895901997581483 
0.0 315.0996392361677 0.0 117.42784321751975 0.0 0.0 0.0 0.0 0.0 0:0.0 1:0.0 2:1.0 3:0.0 4:1.0 5:0.0 6:0.0 7:0.0 8:0.0 9:0.0 10:1.0 11:0.0 12:0.0 13:0.0 14:0.04597701149425287 15:0.0 16:0.0 17:0.0 18:0.0 19:0.0 20:0.0 21:0.45700793292084263 22:0.0 23:0.013377926421404682 24:0.016736401673640166 25:0.0 26:1.0 27:0.0 28:1.0 29:0.03387133439418049 30:0.0 31:1.0 32:0.6666666666666666 33:0.0 34:0.7376612683425169 35:0.4444444444444444 36:0.03556701030927835 37:0.0 38:0.012195121951219513 39:0.2572986964962559 40:0.19444444444444442 41:0.05405405405405406 42:0.9324324324324325 43:0.023913638384967136 44:0.03929924846567052 45:0.012526159744962719 46:0.31522311369427364 47:0.934474002328335 48:0.40030638612933 49:0.029628190120376496 50:0.3318810941349731 51:0.0019673438164961804 52:0.0033409741669472234 
0.0 313.530228989109 0.0 0.0 0.0 0.0 30.135466030860705 0.0 0.0 0:0.0 1:0.0 2:1.0 3:0.0 4:1.0 5:0.0 6:0.0 7:0.0 8:0.0 9:0.0 10:1.0 11:0.0 12:0.0 13:0.0 14:0.017241379310344827 15:0.0 16:0.0 17:0.0 18:0.0 19:0.5 20:0.023255813953488372 21:2.3377959260619603E-5 22:0.0 23:0.03678929765886287 24:0.03347280334728033 25:1.0 26:1.0 27:0.0 28:1.0 29:0.49882075471698106 30:0.0 31:1.0 32:0.6923076923076923 33:0.0410958904109589 34:0.9999999999999998 35:0.6153846153846154 36:0.030927835051546393 37:0.0 38:0.011764705882352941 39:0.370116996908159 40:0.18022831050228322 41:0.1506849315068493 42:0.821917808219178 43:0.2251670448455548 44:0.09637981537154919 45:0.03279908698101576 46:0.5470531860817449 47:0.46480937688494595 48:0.582922748317677 49:0.08309197157573868 50:0.5475079044900295 51:0.0021931653264976618 52:0.007426331476836591 
14.426404548618015 416.774746646451 0.0 12.661051286976738 0.0 0.0 0.0 0.0 0.0 0:1.0 1:0.0 2:0.0 3:0.0 4:1.0 5:0.0 6:0.0 7:0.0 8:0.0 9:0.0 10:1.0 11:0.0 12:0.0 13:0.0 14:0.017241379310344827 15:0.0 16:0.0 17:0.0 18:1.0 19:0.5 20:0.023255813953488372 21:6.644415651638168E-16 22:0.0 23:0.03678929765886287 24:0.03347280334728033 25:1.0 26:0.0 27:0.0038910505836575876 28:1.0 29:0.06230979914790018 30:0.0 31:1.0 32:0.6923076923076923 33:0.0410958904109589 34:0.9999999999999998 35:0.6153846153846154 36:0.030927835051546393 37:0.0 38:0.011764705882352941 39:0.5546886074389078 40:0.18037499999999962 41:0.1506849315068493 42:0.821917808219178 43:0.042925679296701304 44:0.03972187716514772 45:0.022785650321469206 46:0.4402473155654753 47:0.8721277456604355 48:0.06675466946587008 49:0.0054212174416746715 50:0.5905973211979925 51:0.0013452854110455482 52:0.009337098032842491 
0.0 512.0 0.0 512.0 -0.0 0.0 0.0 144.14512722933748 0.0 0:0.0 1:0.0 2:0.0 3:0.0 4:1.0 5:0.0 6:0.0 7:0.0 8:0.0 9:0.0 10:1.0 11:0.0 12:0.0 13:0.0 14:0.05172413793103448 15:0.0 16:0.0 17:0.0 18:0.0 19:0.0 20:0.0 21:0.01069541636145515 22:0.0 23:0.026755852842809364 24:0.03347280334728033 25:0.0 26:1.0 27:0.0 28:1.0 29:0.1981132075471698 30:0.0 31:1.0 32:0.875 33:0.0 34:0.9999999999999998 35:0.5 36:0.0711340206185567 37:0.0 38:0.006172839506172839 39:0.0073505695766953 40:0.16666666666666666 41:0.05442176870748299 42:0.9387755102040817 43:0.02223463814551719 44:0.048438696886405536 45:0.006197889213698758 46:0.12629094571638805 47:0.6290376629275959 48:0.603042428877258 49:0.06646908618613301 50:0.9253320583780615 51:0.0011177547942253898 52:0.004828498438007315 
0.0 317.5892160256615 0.0 0.0 0.0 0.0 0.0 0.0 0.0 0:1.0 1:0.0 2:1.0 3:0.0 4:1.0 5:0.0 6:0.0 7:0.0 8:0.0 9:0.0 10:1.0 11:0.0 12:0.0 13:0.0 14:0.04597701149425287 15:0.0 16:0.0 17:0.0 18:0.0 19:1.0 20:0.0 21:6.644415651638168E-16 22:0.0 23:0.0802675585284281 24:0.016736401673640166 25:0.0 26:1.0 27:0.0 28:1.0 29:0.02997565429093122 30:0.0 31:1.0 32:0.75 33:0.0 34:0.9999999999999998 35:1.0 36:0.0 37:0.0 38:0.03571428571428571 39:0.0 40:0.17166666666666666 41:0.96 42:0.0 43:0.012827675853182955 44:0.030550333711478573 45:0.0027129060290118044 46:0.1981421455132248 47:0.5907628647952282 48:0.14347663014225762 49:0.01797441870869502 50:0.4476663432747272 51:0.0013542640553845162 52:0.004868040559824644 
79.41314492170498 207.76748316338458 0.0 0.0 0.0 0.0 249.22914085621255 0.0 0.0 0:1.0 1:0.0 2:1.0 3:0.0 4:1.0 5:0.0 6:0.0 7:0.0 8:0.0 9:0.0 10:1.0 11:0.0 12:0.0 13:0.0 14:0.040229885057471264 15:0.0 16:0.0 17:0.0 18:0.0 19:1.0 20:0.0 21:6.644415651638168E-16 22:0.0 23:0.08695652173913043 24:0.016736401673640166 25:0.0 26:1.0 27:0.0 28:1.0 29:0.02997565429093122 30:0.0 31:1.0 32:1.0 33:0.0 34:0.9999999999999998 35:1.0 36:0.0 37:0.0 38:0.0 39:0.0 40:0.17147435897435898 41:1.0 42:0.0 43:0.012827675853182976 44:0.030550333711478573 45:0.0025314641317978927 46:0.19558544115900664 47:0.5907628647952282 48:0.172702652017935 49:0.021426081216783296 50:0.4231865040866039 51:0.0014326034305156387 52:0.004868040559824644 
0.0 0.0 0.0 0.0 0.0 0.0 0.6569742741147863 0.0 0.0 0:1.0 1:0.0 2:1.0 3:0.0 4:1.0 5:0.0 6:0.0 7:0.0 8:0.0 9:0.0 10:1.0 11:0.0 12:0.0 13:0.0 14:0.028735632183908046 15:0.0 16:0.0 17:0.0 18:1.0 19:0.3333333333333333 20:0.023255813953488372 21:6.644415651638168E-16 22:0.0 23:0.026755852842809364 24:0.03347280334728033 25:0.0 26:1.0 27:0.0 28:1.0 29:0.10503706199460915 30:0.0 31:1.0 32:0.7142857142857143 33:0.026785714285714284 34:0.9999999999999998 35:0.5714285714285714 36:0.05309278350515464 37:0.0 38:0.008 39:0.26786436987047135 40:0.1804166666666667 41:0.07142857142857142 42:0.9196428571428571 43:0.020696742340452202 44:0.09563702164734268 45:0.01858904565020093 46:0.3335151498203464 47:0.5024288653959287 48:0.21627865063456997 49:0.029311355905663382 50:0.49273554682319765 51:0.002709740179963016 52:0.005058788569890284 
0.0 512.0 62.63316547858418 35.014567175370736 0.0 135.7749224652682 199.70506935985546 67.86758269323028 0.0 0:1.0 1:0.0 2:1.0 3:0.0 4:1.0 5:0.0 6:0.0 7:0.0 8:0.0 9:0.0 10:1.0 11:0.0 12:0.0 13:0.0 14:0.028735632183908046 15:0.0 16:0.0 17:0.0 18:0.0 19:0.0 20:0.023255813953488372 21:6.644415651638168E-16 22:0.0 23:0.043478260869565216 24:0.05439330543933054 25:0.0 26:0.0 27:0.05642023346303502 28:1.0 29:0.11792452830188678 30:0.0 31:1.0 32:0.7058823529411765 33:0.03296703296703297 34:0.9999999999999998 35:0.7647058823529411 36:0.039690721649484534 37:0.0 38:0.009345794392523364 39:0.5357718817088328 40:0.15291666666666653 41:0.14285714285714285 42:0.8461538461538461 43:0.029954048414499296 44:0.07614542890309757 45:0.023368234444766958 46:0.5112946403930017 47:0.5560984751640137 48:0.42677298443957884 49:0.052089710032402835 50:0.3582615007712549 51:0.0024591367352518917 52:0.004285766702914454 
293.01909719161546 110.58498686720264 0.0 0.0 0.0 0.0 0.0 0.0 0.0 0:1.0 1:0.0 2:1.0 3:0.0 4:1.0 5:0.0 6:0.0 7:0.0 8:0.0 9:0.0 10:1.0 11:0.0 12:0.0 13:0.0 14:0.028735632183908046 15:0.0 16:0.005917159763313609 17:0.0 18:0.0 19:0.0 20:0.0 21:6.644415651638168E-16 22:0.0 23:0.010033444816053512 24:0.012552301255230124 25:0.0 26:1.0 27:0.0 28:1.0 29:0.07474600870827286 30:0.0 31:1.0 32:0.2 33:0.0 34:0.9999999999999998 35:0.6 36:0.01443298969072165 37:0.05405405405405406 38:0.024390243902439025 39:0.0 40:0.1525 41:0.08108108108108109 42:0.7567567567567568 43:0.002385947708692043 44:0.02222627072326469 45:5.301930508549177E-4 46:0.054122083341307456 47:0.5994966030635724 48:0.28713105191759236 49:0.03471657684118799 50:0.43756744117872864 51:0.001014200633978344 52:0.004868040559824644 
98.48166458772624 0.0 0.0 0.0 0.0 0.0 0.0 0.0 0.0 0:1.0 1:0.0 2:1.0 3:0.0 4:1.0 5:0.0 6:0.0 7:0.0 8:0.0 9:0.0 10:1.0 11:0.0 12:0.0 13:0.0 14:0.06896551724137931 15:0.0 16:0.0 17:0.0 18:0.0 19:0.0 20:0.0 21:6.644415651638168E-16 22:0.0 23:0.006688963210702341 24:0.008368200836820083 25:0.0 26:1.0 27:0.0 28:1.0 29:0.07474600870827286 30:0.0 31:1.0 32:1.0 33:0.0 34:0.9999999999999998 35:0.6666666666666666 36:0.015979381443298968 37:0.0 38:0.0 39:0.0 40:0.15250000000000025 41:0.06060606060606061 42:0.9393939393939394 43:0.0023602923569856758 44:0.02222627072326475 45:2.760660368244626E-4 46:0.03168701472700926 47:0.5994966030635724 48:0.30254777845701214 49:0.03652620918362504 50:0.3891500841051699 51:0.0011403856619283561 52:0.004868040559824644 
0.0 403.2414998091064 0.0 0.0 0.0 0.0 0.0 0.0 0.0 0:1.0 1:0.0 2:0.0 3:0.0 4:1.0 5:0.0 6:0.0 7:0.0 8:0.0 9:0.0 10:1.0 11:0.0 12:0.0 13:0.0 14:0.040229885057471264 15:0.0 16:0.0 17:0.0 18:1.0 19:0.0 20:0.0 21:6.644415651638168E-16 22:0.0 23:0.013377926421404682 24:0.016736401673640166 25:0.0 26:1.0 27:0.0 28:1.0 29:0.003537735849056604 30:0.0 31:1.0 32:0.6666666666666666 33:0.0 34:0.9999999999999998 35:0.6666666666666666 36:0.018041237113402064 37:0.0 38:0.0 39:0.0 40:0.2777777777777778 41:0.10256410256410256 42:0.8974358974358975 43:0.005572912509549488 44:0.026299041136960147 45:9.628400550539164E-4 46:0.028495183414367936 47:0.9190270637909166 48:0.07862895860377551 49:0.006057687549864734 50:0.8285915699399049 51:9.755645756752575E-4 52:0.004868040559824644 
369.31254046976915 512.0 0.0 0.0 0.0 0.0 0.0 0.0 0.0 0:0.0 1:0.0 2:0.0 3:0.0 4:1.0 5:0.0 6:0.0 7:0.0 8:0.0 9:0.0 10:1.0 11:0.0 12:0.0 13:0.0 14:0.017241379310344827 15:0.0 16:0.011834319526627219 17:0.2 18:0.0 19:0.0 20:0.0 21:6.644415651638168E-16 22:0.0 23:0.010033444816053512 24:0.012552301255230124 25:0.0 26:1.0 27:0.0 28:1.0 29:0.003537735849056604 30:0.0 31:1.0 32:0.7142857142857143 33:0.0 34:0.9999999999999998 35:0.42857142857142855 36:0.023195876288659795 37:0.07547169811320754 38:0.01694915254237288 39:0.0 40:0.16666666666666666 41:0.05660377358490566 42:0.8490566037735849 43:0.005572912509549488 44:0.015779424682176087 45:9.348497242587202E-4 46:0.06160302225163184 47:0.9289559974482641 48:0.10774538289741908 49:0.008277835306881203 50:0.6202208371430765 51:7.81990415278529E-4 52:0.004868040559824644 
166.30530749699375 512.0 0.0 12.042547262211839 128.5561939962237 24.026316975455316 61.84784230285841 111.38061369166468 16.274871323166174 0:0.0 1:0.0 2:1.0 3:0.0 4:1.0 5:0.0 6:0.0 7:0.0 8:0.0 9:0.0 10:1.0 11:0.0 12:0.0 13:0.0 14:0.14942528735632185 15:0.0 16:0.0 17:0.0 18:0.0 19:1.0 20:0.0 21:6.644415651638168E-16 22:0.0 23:0.0033444816053511705 24:0.0041841004184100415 25:0.0 26:1.0 27:0.0 28:1.0 29:0.10901467505241089 30:0.0 31:1.0 32:0.0 33:0.0 34:0.9999999999999998 35:1.0 36:0.013402061855670104 37:0.0 38:0.0 39:0.0 40:0.25 41:0.037037037037037035 42:0.9629629629629629 43:0.04790566812237032 44:0.024035893601110993 45:0.0 46:0.0 47:0.9071073789352708 48:0.4787161495690379 49:0.03715753492367705 50:0.5257040754364046 51:0.001383877658545706 52:0.004868040559824644 
0.0 0.0 0.0 277.8072626830518 0.0 0.0 0.0 0.0 0.0 0:0.0 1:0.0 2:1.0 3:0.0 4:1.0 5:0.0 6:0.0 7:0.0 8:0.0 9:0.0 10:1.0 11:0.0 12:0.0 13:0.0 14:0.08045977011494254 15:0.0 16:0.0 17:0.0 18:0.0 19:0.0 20:0.0 21:6.644415651638168E-16 22:0.0 23:0.0033444816053511705 24:0.0041841004184100415 25:0.0 26:1.0 27:0.0 28:1.0 29:0.10901467505241089 30:0.0 31:1.0 32:1.0 33:0.0 34:0.9999999999999998 35:0.3333333333333333 36:0.020103092783505156 37:0.0 38:0.0 39:0.0 40:0.19445833333333298 41:0.025 42:0.975 43:0.009995610084263626 44:0.01869591923939747 45:4.6535754394357184E-4 46:0.02718862303681372 47:0.9120706046472374 48:0.5415654918617706 49:0.042024098773629184 50:0.5995539983109168 51:9.438376312374685E-4 52:0.004868040559824644 
50.489297779235 512.0 0.0 0.0 0.0 0.0 0.0 291.49374601979054 0.0 0:0.0 1:0.0 2:1.0 3:0.0 4:1.0 5:0.0 6:0.0 7:0.0 8:0.0 9:0.0 10:1.0 11:0.0 12:0.0 13:0.0 14:0.011494252873563218 15:0.0 16:0.0 17:0.0 18:0.0 19:0.0 20:0.0 21:6.644415651638168E-16 22:0.0 23:0.026755852842809364 24:0.016736401673640166 25:0.0 26:1.0 27:0.0 28:1.0 29:0.10901467505241089 30:0.0 31:1.0 32:1.0 33:0.0 34:0.9999999999999998 35:0.5714285714285714 36:0.018041237113402064 37:0.0 38:0.0 39:0.0 40:0.19445833333333298 41:0.18604651162790697 42:0.813953488372093 43:0.009995610084263626 44:0.01869591923939747 45:0.0013958933032974057 46:0.07078465726185346 47:0.9120706046472374 48:0.5671553095157491 49:0.04400557506246091 50:0.6907833297271642 51:8.191883058154181E-4 52:0.004868040559824644 
0.0 113.49026012911779 2.993055476799585 0.0 0.0 21.903002219198942 18.960452317791347 0.0 0.0 0:1.0 1:0.0 2:1.0 3:0.0 4:1.0 5:0.0 6:0.0 7:1.0 8:0.0 9:0.0 10:1.0 11:0.0 12:0.0 13:0.0 14:0.05172413793103448 15:0.0 16:0.0 17:0.0 18:1.0 19:0.25 20:0.046511627906976744 21:0.2726454498698632 22:0.0 23:0.026755852842809364 24:0.02928870292887029 25:0.0 26:0.0 27:0.0038910505836575876 28:1.0 29:0.9999999999999999 30:0.0 31:1.0 32:0.5 33:0.06593406593406594 34:0.9999999999999998 35:0.7 36:0.041237113402061855 37:0.0 38:0.03 39:0.1916427845058703 40:0.1835897435897437 41:0.08791208791208792 42:0.8791208791208791 43:0.0 44:1.0 45:0.02442308180393677 46:0.4486433723376093 47:0.0 48:0.0449946784285168 49:0.11342542724253846 50:0.5829231606792626 51:0.0017815350152408714 52:0.003646161501790134 
512.0 367.5641909824489 0.0 0.0 16.933318603960878 15.323725213692676 0.0 81.77006011260664 0.0 0:0.0 1:0.0 2:0.0 3:0.0 4:1.0 5:0.0 6:0.0 7:0.0 8:0.0 9:0.0 10:1.0 11:0.0 12:0.0 13:0.0 14:0.06321839080459771 15:0.0 16:0.0 17:0.0 18:0.0 19:0.3333333333333333 20:0.046511627906976744 21:6.644415651638168E-16 22:0.0 23:0.010033444816053512 24:0.012552301255230124 25:1.0 26:0.0 27:0.007782101167315175 28:1.0 29:0.12293632075471697 30:0.0 31:1.0 32:0.3333333333333333 33:0.17142857142857143 34:0.9999999999999998 35:1.0 36:0.015463917525773196 37:0.0 38:0.05405405405405406 39:0.0 40:0.2774999999999996 41:0.08571428571428572 42:0.8571428571428571 43:0.022860343667689145 44:0.029027196652719613 45:9.081362922027127E-4 46:0.03453051666034159 47:0.8294879400689563 48:0.33118684439335305 49:0.028147740182178405 50:0.6455654589489995 51:0.0012508975310851894 52:0.004868040559824644 
0.0 375.0176618323086 0.0 0.0 0.0 0.0 0.0 0.0 0.0 0:1.0 1:0.0 2:0.0 3:0.0 4:1.0 5:0.0 6:0.0 7:0.0 8:0.0 9:0.0 10:1.0 11:0.0 12:0.0 13:0.0 14:0.05172413793103448 15:0.0 16:0.0 17:0.0 18:0.0 19:0.0 20:0.0 21:6.644415651638168E-16 22:0.0 23:0.020066889632107024 24:0.02092050209205021 25:1.0 26:0.0 27:0.017509727626459144 28:1.0 29:0.04219077568134172 30:0.0 31:1.0 32:0.2222222222222222 33:0.0 34:0.9999999999999998 35:0.5555555555555556 36:0.040721649484536084 37:0.0 38:0.020833333333333332 39:0.023754789272030626 40:0.23583333333333353 41:0.06818181818181818 42:0.8977272727272727 43:0.02954213748988038 44:0.047940137906745395 45:0.0071796256452465275 46:0.12052782556349294 47:0.899150579725614 48:0.10534763135270203 49:0.008089019425693914 50:0.7887372359062768 51:0.001841085271317845 52:0.004943922200738597 
0.0 316.5956984656346 0.0 0.0 0.0 0.0 0.0 0.0 0.0 0:1.0 1:0.0 2:1.0 3:0.0 4:1.0 5:0.0 6:0.0 7:0.0 8:0.0 9:0.0 10:1.0 11:0.0 12:0.0 13:0.0 14:0.040229885057471264 15:0.0 16:0.0 17:0.0 18:0.0 19:0.0 20:0.0 21:6.644415651638168E-16 22:0.0 23:0.020066889632107024 24:0.02092050209205021 25:1.0 26:0.0 27:0.048638132295719845 28:1.0 29:0.03773584905660377 30:0.0 31:1.0 32:0.5714285714285714 33:0.0 34:0.9999999999999998 35:0.7142857142857143 36:0.031443298969072164 37:0.0 38:0.013513513513513514 39:0.4475013610263679 40:0.23583333333333353 41:0.08823529411764706 42:0.8970588235294118 43:0.02954213748988038 44:0.047940137906745395 45:0.021798125463042654 46:0.3413681726184947 47:0.899150579725614 48:0.10534763135270203 49:0.008089019425693914 50:0.6304223405666105 51:0.0017174822671079185 52:0.003574840572671961 
0.0 512.0 0.0 0.0 0.0 0.0 0.0 0.0 0.0 0:1.0 1:0.0 2:0.0 3:0.0 4:1.0 5:0.0 6:0.0 7:0.0 8:0.0 9:0.0 10:1.0 11:0.0 12:0.0 13:0.0 14:0.0574712643678161 15:0.0 16:0.0 17:0.0 18:0.0 19:0.0 20:0.0 21:6.644415651638168E-16 22:0.0 23:0.023411371237458192 24:0.025104602510460247 25:0.0 26:0.0 27:0.10116731517509728 28:1.0 29:0.05778301886792452 30:0.0 31:1.0 32:0.6666666666666666 33:0.0 34:0.9999999999999998 35:0.5 36:0.05309278350515464 37:0.0 38:0.00819672131147541 39:0.02257557548303603 40:0.23583333333333353 41:0.06306306306306306 42:0.9279279279279279 43:0.02954213748988038 44:0.0736369980116933 45:0.01089619831651294 46:0.13874514656178763 47:0.8748817836336423 48:0.10534763135270203 49:0.008089019425693914 50:0.678624723430095 51:0.0032947675162453196 52:0.004828830270888401 
0.0 512.0 0.0 0.0 0.0 0.0 0.0 0.0 0.0 0:1.0 1:0.0 2:0.0 3:0.0 4:1.0 5:0.0 6:0.0 7:0.0 8:0.0 9:0.0 10:1.0 11:0.0 12:0.0 13:0.0 14:0.06321839080459771 15:0.0 16:0.0 17:0.0 18:0.0 19:0.0 20:0.0 21:6.644415651638168E-16 22:0.0 23:0.010033444816053512 24:0.012552301255230124 25:0.0 26:0.0 27:0.14785992217898833 28:1.0 29:0.0394064465408805 30:0.0 31:1.0 32:1.0 33:0.0 34:0.9999999999999998 35:0.5 36:0.023711340206185566 37:0.0 38:0.0 39:0.13017986091851297 40:0.23583333333333353 41:0.061224489795918366 42:0.9387755102040817 43:0.02954213748988038 44:0.047940137906745395 45:0.00847255119701395 46:0.22405288845582305 47:0.899150579725614 48:0.10534763135270203 49:0.008089019425693914 50:0.44204735016367347 51:0.0029001784930056565 52:0.004232786279146689 
0.0 133.15515151315816 0.0 0.0 0.0 0.0 0.0 0.0 0.0 0:1.0 1:0.0 2:0.0 3:0.0 4:1.0 5:0.0 6:0.0 7:0.0 8:0.0 9:0.0 10:1.0 11:0.0 12:0.0 13:0.0 14:0.017241379310344827 15:0.0 16:0.0 17:0.0 18:0.0 19:0.0 20:0.0 21:6.644415651638168E-16 22:1.0 23:0.010033444816053512 24:0.012552301255230124 25:1.0 26:0.0 27:0.17315175097276264 28:1.0 29:0.01896828582898434 30:0.0 31:1.0 32:1.0 33:0.0 34:0.9999999999999998 35:0.6 36:0.017010309278350517 37:0.0 38:0.0 39:0.0 40:0.23583333333333353 41:0.08333333333333333 42:0.9166666666666666 43:0.02954213748988038 44:0.022314241821725242 45:0.0012568421045818456 46:0.05700522802748865 47:0.9233523555153986 48:0.10534763135270203 49:0.008089019425693914 50:0.6368192192527552 51:0.0010776756267783377 52:0.004868040559824644 
0.0 512.0 0.0 0.0 0.0 0.0 0.0 0.0 0.0 0:1.0 1:0.0 2:0.0 3:0.0 4:1.0 5:0.0 6:0.0 7:0.0 8:0.0 9:0.0 10:1.0 11:0.0 12:0.0 13:0.0 14:0.05172413793103448 15:0.0 16:0.0 17:0.0 18:0.0 19:0.0 20:0.0 21:6.644415651638168E-16 22:0.0 23:0.016722408026755852 24:0.008368200836820083 25:1.0 26:0.0 27:0.18093385214007782 28:1.0 29:0.036949685534591194 30:0.0 31:1.0 32:0.4 33:0.0 34:0.9999999999999998 35:0.4 36:0.020103092783505156 37:0.0 38:0.018867924528301886 39:0.28238472363460804 40:0.23583333333333353 41:0.10204081632653061 42:0.7959183673469388 43:0.02954213748988038 44:0.04793093886712512 45:0.013923397045235897 46:0.31929400868219193 47:0.8991592675425643 48:0.10534763135270203 49:0.008089019425693914 50:0.44245984937845934 51:0.002514011487559594 52:0.003673307534158843 
0.0 285.793713773532 0.0 0.0 0.0 0.0 0.0 0.0 0.0 0:1.0 1:0.0 2:0.0 3:0.0 4:1.0 5:0.0 6:0.0 7:0.0 8:0.0 9:0.0 10:1.0 11:0.0 12:0.0 13:0.0 14:0.05172413793103448 15:0.0 16:0.0 17:0.0 18:0.0 19:0.0 20:0.0 21:6.644415651638168E-16 22:1.0 23:0.010033444816053512 24:0.0041841004184100415 25:1.0 26:0.0 27:0.21595330739299612 28:1.0 29:0.018097805159799765 30:0.0 31:1.0 32:0.3333333333333333 33:0.0 34:0.9999999999999998 35:0.3333333333333333 36:0.015979381443298968 37:0.0 38:0.0 39:0.0 40:0.23583333333333353 41:0.07894736842105263 42:0.8157894736842105 43:0.02954213748988038 44:0.022314241821725242 45:6.447686265300146E-4 46:0.028106522900148232 47:0.9233523555153986 48:0.10534763135270203 49:0.008089019425693914 50:0.6625930915106125 51:0.0010357556697249577 52:0.004868040559824644 
0.0 512.0 0.0 0.0 0.0 0.0 0.0 0.0 0.0 0:1.0 1:0.0 2:0.0 3:0.0 4:1.0 5:0.0 6:0.0 7:0.0 8:0.0 9:0.0 10:1.0 11:0.0 12:0.0 13:0.0 14:0.05172413793103448 15:0.0 16:0.0 17:0.0 18:0.0 19:0.0 20:0.0 21:6.644415651638168E-16 22:0.0 23:0.013377926421404682 24:0.012552301255230124 25:0.0 26:0.0 27:0.29961089494163423 28:1.0 29:0.03773584905660377 30:0.0 31:1.0 32:0.5 33:0.0 34:0.9999999999999998 35:0.5 36:0.026288659793814433 37:0.0 38:0.0 39:0.4890224235514057 40:0.23583333333333353 41:0.07017543859649122 42:0.8947368421052632 43:0.02954213748988038 44:0.047940137906745395 45:0.022300599120624112 46:0.4070334607231008 47:0.899150579725614 48:0.10534763135270203 49:0.008089019425693914 50:0.4873636344600866 51:0.002001713710857025 52:0.0032209790928841757 
0.0 512.0 0.0 0.0 0.0 0.0 0.0 0.0 0.0 0:1.0 1:0.0 2:1.0 3:0.0 4:1.0 5:0.0 6:0.0 7:0.0 8:0.0 9:0.0 10:1.0 11:0.0 12:0.0 13:0.0 14:0.05172413793103448 15:0.0 16:0.0 17:0.0 18:0.0 19:0.3333333333333333 20:0.023255813953488372 21:6.644415651638168E-16 22:0.0 23:0.026755852842809364 24:0.02928870292887029 25:1.0 26:0.0 27:0.3404669260700389 28:1.0 29:0.06162183861902849 30:0.0 31:1.0 32:0.45454545454545453 33:0.02654867256637168 34:0.9999999999999998 35:0.6363636363636364 36:0.05309278350515464 37:0.0 38:0.016260162601626018 39:0.5251897732992308 40:0.23583333333333353 41:0.07079646017699115 42:0.911504424778761 43:0.0295421374898804 44:0.07364356875427917 45:0.03164279085809212 46:0.3192745732786743 47:0.8748755780501064 48:0.13895755650973102 49:0.010650233711157009 50:0.6740160393095699 51:0.0026112534629907434 52:0.003988796383965291 
0.0 512.0 0.0 0.0 0.0 0.0 0.0 0.0 0.0 0:1.0 1:0.0 2:1.0 3:0.0 4:1.0 5:0.0 6:0.0 7:0.0 8:0.0 9:0.0 10:1.0 11:0.0 12:0.0 13:0.0 14:0.06896551724137931 15:0.0 16:0.0 17:0.0 18:1.0 19:0.0 20:0.0 21:0.16306418808347542 22:0.0 23:0.010033444816053512 24:0.012552301255230124 25:0.0 26:0.0 27:0.0019455252918287938 28:1.0 29:0.05839050886220697 30:0.0 31:1.0 32:0.6666666666666666 33:0.0 34:0.9999999999999998 35:0.5 36:0.026288659793814433 37:0.0 38:0.0 39:0.11474325393156863 40:0.21638348765432092 41:0.05555555555555555 42:0.9444444444444444 43:0.04626942680243103 44:0.0606876219252827 45:0.011017543107772138 46:0.26199041237611326 47:0.6358439469497075 48:0.15858404795015985 49:0.017617422584771683 50:0.5062056353953641 51:0.0021470163443797824 52:0.00395477685394039 
0.0 512.0 0.0 77.5515173906059 0.0 0.0 0.0 0.0 0.0 0:0.0 1:0.0 2:1.0 3:0.0 4:1.0 5:0.0 6:0.0 7:0.0 8:0.0 9:0.0 10:1.0 11:0.0 12:0.0 13:0.0 14:0.0574712643678161 15:0.0 16:0.0 17:0.0 18:0.0 19:0.0 20:0.0 21:0.008413143088696692 22:0.0 23:0.013377926421404682 24:0.016736401673640166 25:0.0 26:0.0 27:0.0019455252918287938 28:1.0 29:0.05839050886220697 30:0.0 31:1.0 32:1.0 33:0.0 34:0.9999999999999998 35:0.5 36:0.03865979381443299 37:0.0 38:0.0 39:0.005686522243793149 40:0.1758544303797471 41:0.05063291139240506 42:0.9493670886075949 43:0.0443609536949408 44:0.04994719626853629 45:0.0034788620545580444 46:0.11763523555346919 47:0.6431144086203003 48:0.23842345095995301 49:0.02610577354519247 50:0.5265008061532878 51:0.0020680303989820833 52:0.0049233251597605495 
0.0 504.85726315703835 0.0 79.00319605101308 131.06191805772409 0.0 0.0 38.840400404822546 0.0 0:0.0 1:0.0 2:1.0 3:0.0 4:1.0 5:0.0 6:0.0 7:0.0 8:0.0 9:0.0 10:1.0 11:0.0 12:0.0 13:0.0 14:0.06896551724137931 15:0.0 16:0.0 17:0.0 18:0.0 19:0.0 20:0.0 21:6.644415651638168E-16 22:0.0 23:0.020066889632107024 24:0.025104602510460247 25:0.0 26:1.0 27:0.0 28:1.0 29:0.1981132075471698 30:0.0 31:1.0 32:0.7 33:0.0 34:0.9999999999999998 35:0.6 36:0.058762886597938144 37:0.0 38:0.0 39:0.33622179080254333 40:0.16666666666666666 41:0.05 42:0.95 43:0.06726833217409156 44:0.06438945645322926 45:0.021608095623425732 46:0.390776564658902 47:0.7682500006205584 48:0.45589062648413387 49:0.04028321752182131 50:0.47352606562297156 51:0.0027046429397827457 52:0.004703703683897798 
0.0 226.0891165157373 0.0 0.0 0.0 0.0 0.0 0.0 0.0 0:0.0 1:0.0 2:1.0 3:0.0 4:1.0 5:0.0 6:0.0 7:0.0 8:0.0 9:0.0 10:1.0 11:0.0 12:0.0 13:0.0 14:0.011494252873563218 15:0.0 16:0.0 17:0.0 18:0.0 19:0.0 20:0.0 21:6.644415651638168E-16 22:0.0 23:0.016722408026755852 24:0.012552301255230124 25:1.0 26:1.0 27:0.0 28:1.0 29:0.011960916442048516 30:0.0 31:1.0 32:0.6 33:0.0 34:0.9999999999999998 35:0.6 36:0.014948453608247423 37:0.0 38:0.05 39:0.0 40:0.19444444444444436 41:0.1388888888888889 42:0.8055555555555556 43:0.005058380178105163 44:0.022414883482632448 45:9.305290691695199E-4 46:0.05482694014396991 47:0.757807244646443 48:0.12082524543769618 49:0.011663239901439503 50:0.5945600357359725 51:9.516973464843454E-4 52:0.004868040559824644 
0.0 512.0 0.0 0.0 0.0 0.0 0.0 0.0 0.0 0:0.0 1:0.0 2:0.0 3:0.0 4:1.0 5:0.0 6:0.0 7:0.0 8:0.0 9:0.0 10:1.0 11:0.0 12:0.0 13:0.0 14:0.028735632183908046 15:0.0 16:0.0 17:0.0 18:0.0 19:0.0 20:0.0 21:6.644415651638168E-16 22:0.0 23:0.020066889632107024 24:0.02092050209205021 25:0.0 26:0.0 27:0.0038910505836575876 28:1.0 29:0.28402964959568733 30:0.0 31:1.0 32:0.7777777777777778 33:0.0 34:0.9999999999999998 35:0.5555555555555556 36:0.03814432989690722 37:0.0 38:0.011235955056179775 39:0.23007816913705786 40:0.25 41:0.07407407407407407 42:0.9135802469135802 43:0.06189353599160787 44:0.05594765496922155 45:0.016103152816766067 46:0.23364042374161223 47:0.8104715498817217 48:0.2939346262600678 49:0.024878222845983115 50:0.7562010986019696 51:0.0017907613972254132 52:0.00421455488656668 
0.0 512.0 0.0 328.3126970436848 0.0 0.0 0.0 0.0 0.0 0:0.0 1:0.0 2:0.0 3:0.0 4:1.0 5:0.0 6:0.0 7:0.0 8:0.0 9:0.0 10:1.0 11:0.0 12:0.0 13:0.0 14:0.028735632183908046 15:0.0 16:0.0 17:0.0 18:0.0 19:0.0 20:0.0 21:6.644415651638168E-16 22:0.0 23:0.010033444816053512 24:0.012552301255230124 25:0.0 26:1.0 27:0.0 28:1.0 29:0.06028891509433962 30:0.0 31:1.0 32:1.0 33:0.0 34:0.9999999999999998 35:0.5 36:0.021134020618556702 37:0.0 38:0.0 39:0.0 40:0.22249999999999973 41:0.06818181818181818 42:0.9318181818181818 43:0.008638727038460274 44:0.02157064453409021 45:0.0014850854060326363 46:0.05884824075931158 47:0.9018649019641913 48:0.535409761004206 49:0.041908719385069966 50:0.7725796207240723 51:8.380806248108382E-4 52:0.004868040559824644 
0.0 512.0 0.0 445.35013598243864 0.0 0.0 0.0 0.0 0.0 0:0.0 1:0.0 2:0.0 3:0.0 4:1.0 5:0.0 6:0.0 7:0.0 8:0.0 9:0.0 10:1.0 11:0.0 12:0.0 13:0.0 14:0.0574712643678161 15:0.0 16:0.0 17:0.0 18:0.0 19:0.0 20:0.0 21:6.644415651638168E-16 22:0.0 23:0.010033444816053512 24:0.012552301255230124 25:0.0 26:1.0 27:0.0 28:1.0 29:0.06028891509433962 30:0.0 31:1.0 32:0.8333333333333334 33:0.0 34:0.9999999999999998 35:0.5 36:0.024742268041237116 37:0.0 38:0.0 39:0.0 40:0.22249999999999973 41:0.058823529411764705 42:0.9411764705882353 43:0.008638727038460274 44:0.02157064453409021 45:0.0014801608838922238 46:0.051244710601528916 47:0.9018649019641913 48:0.5622989188807407 49:0.044008199338242675 50:0.884270588317408 51:7.32223846192357E-4 52:0.004868040559824644 
0.0 512.0 0.0 0.0 0.0 0.0 0.0 0.0 0.0 0:1.0 1:0.0 2:0.0 3:0.0 4:1.0 5:0.0 6:0.0 7:0.0 8:0.0 9:0.0 10:1.0 11:0.0 12:0.0 13:0.0 14:0.06321839080459771 15:0.0 16:0.0 17:0.0 18:0.0 19:0.0 20:0.0 21:6.644415651638168E-16 22:0.0 23:0.010033444816053512 24:0.012552301255230124 25:0.0 26:0.0 27:0.0019455252918287938 28:1.0 29:0.06923854447439352 30:0.0 31:1.0 32:0.5 33:0.0 34:0.9999999999999998 35:0.75 36:0.018556701030927835 37:0.0 38:0.0 39:0.0 40:0.1941666666666667 41:0.07692307692307693 42:0.9230769230769231 43:0.030070922794494956 44:0.019377454234971718 45:7.20774414409093E-4 46:0.04206522269209075 47:0.8780615246374077 48:0.2346752136543974 49:0.019019637691422047 50:0.6011139572703859 51:9.399762838946525E-4 52:0.004868040559824644 
0.0 512.0 16.794113763726 512.0 100.32867831031018 0.0 0.0 0.0 0.0 0:0.0 1:0.0 2:0.0 3:0.0 4:1.0 5:0.0 6:0.0 7:0.0 8:0.0 9:0.0 10:1.0 11:0.0 12:0.0 13:0.0 14:0.034482758620689655 15:0.0 16:0.0 17:0.0 18:0.0 19:0.0 20:0.0 21:6.644415651638168E-16 22:0.0 23:0.020066889632107024 24:0.025104602510460247 25:0.0 26:0.0 27:0.0019455252918287938 28:1.0 29:0.14083557951482478 30:0.0 31:1.0 32:0.9166666666666666 33:0.0 34:0.9999999999999998 35:0.5 36:0.04587628865979382 37:0.0 38:0.0 39:0.23040070670652163 40:0.16666666666666655 41:0.06315789473684211 42:0.9368421052631579 43:0.030070922794494956 44:0.03958655886629414 45:0.014325668529175883 46:0.3329377387123725 47:0.859966043046892 48:0.2773914801275229 49:0.02245297724078244 50:0.6214761329769042 51:0.0015622238241110391 52:0.004094464965958076 
0.0 365.3320564827653 0.0 0.0 0.0 0.0 0.0 0.0 0.0 0:0.0 1:0.0 2:0.0 3:0.0 4:1.0 5:0.0 6:0.0 7:0.0 8:0.0 9:0.0 10:1.0 11:0.0 12:0.0 13:0.0 14:0.05172413793103448 15:0.0 16:0.011834319526627219 17:0.1 18:0.0 19:0.0 20:0.0 21:6.644415651638168E-16 22:0.0 23:0.030100334448160536 24:0.012552301255230124 25:0.0 26:1.0 27:0.0 28:1.0 29:0.24823113207547168 30:0.0 31:1.0 32:0.6 33:0.0 34:0.9999999999999998 35:0.6 36:0.018556701030927835 37:0.0784313725490196 38:0.03636363636363636 39:0.06267500744712537 40:0.2775054466230937 41:0.17647058823529413 42:0.7058823529411765 43:0.10303759364203374 44:0.10362216700144791 45:0.016126899256680097 46:0.28449350515337996 47:0.579325974338671 48:0.3197071065507692 49:0.036474954945833686 50:0.48328156735742256 51:0.004232959255021586 52:0.005212541096589037 
0.0 512.0 0.0 0.0 0.0 0.0 34.90776497781692 0.0 6.615164300181026 0:1.0 1:0.0 2:0.0 3:0.0 4:1.0 5:0.0 6:0.0 7:0.0 8:0.0 9:0.0 10:1.0 11:0.0 12:0.0 13:0.0 14:0.08045977011494254 15:0.0 16:0.011834319526627219 17:0.2 18:1.0 19:1.0 20:0.0 21:6.644415651638168E-16 22:0.0 23:0.0033444816053511705 24:0.0041841004184100415 25:1.0 26:0.0 27:0.0019455252918287938 28:1.0 29:0.08117138364779873 30:0.0 31:1.0 32:0.5 33:0.0 34:0.9999999999999998 35:0.5 36:0.007216494845360825 37:0.21052631578947367 38:0.0 39:0.0 40:0.3058194444444445 41:0.05263157894736842 42:0.7368421052631579 43:0.012693697905383073 44:0.03176836033478044 45:5.794677995815751E-4 46:0.029104851123303233 47:0.832903493247084 48:0.12386596946367812 49:0.010596427539029977 50:0.44345968884577 51:0.002006827207543217 52:0.004868040559824644 
512.0 512.0 0.0 0.0 0.0 0.0 0.0 0.0 0.0 0:0.0 1:0.0 2:0.0 3:0.0 4:1.0 5:0.0 6:0.0 7:0.0 8:0.0 9:0.0 10:1.0 11:0.0 12:0.0 13:0.0 14:0.05172413793103448 15:0.0 16:0.0 17:0.0 18:0.0 19:0.0 20:0.0 21:6.644415651638168E-16 22:0.0 23:0.026755852842809364 24:0.008368200836820083 25:0.0 26:0.0 27:0.0019455252918287938 28:1.0 29:0.08117138364779873 30:0.0 31:1.0 32:0.6666666666666666 33:0.0 34:0.9999999999999998 35:0.6666666666666666 36:0.01134020618556701 37:0.0 38:0.058823529411764705 39:0.0 40:0.20833333333333331 41:0.25 42:0.6875 43:0.012693697905383073 44:0.021641555248726393 45:5.216806772217081E-4 46:0.033722331005419444 47:0.8416148914146993 48:0.16152491640139993 49:0.01374707130106268 50:0.5058056996084398 51:0.0011985994581945457 52:0.004868040559824644 
0.0 53.77969786668271 0.0 0.0 0.0 0.0 0.0 0.0 0.0 0:1.0 1:0.0 2:0.0 3:0.0 4:1.0 5:0.0 6:0.0 7:0.0 8:0.0 9:0.0 10:1.0 11:0.0 12:0.0 13:0.0 14:0.034482758620689655 15:0.0 16:0.0 17:0.0 18:0.0 19:1.0 20:0.0 21:0.21706435172919022 22:0.0 23:0.15384615384615385 24:0.025104602510460247 25:0.0 26:1.0 27:0.0 28:1.0 29:0.06028891509433962 30:0.0 31:1.0 32:1.0 33:0.0 34:0.9999999999999998 35:1.0 36:0.0 37:0.0 38:0.0 39:0.15284582909617583 40:0.18362318840579697 41:1.0 42:0.0 43:0.019855816923410242 44:0.06845614855548655 45:0.01851621349448985 46:0.43778374114477403 47:0.5735498171835091 48:0.07797989736795317 49:0.010116573629594906 50:0.45515833408946554 51:0.002247095524519618 52:0.003627471455200016 
395.67335566359213 512.0 0.0 0.0 0.0 0.0 49.360722873011014 0.0 2.2470692594159933 0:0.0 1:0.0 2:0.0 3:0.0 4:1.0 5:0.0 6:0.0 7:0.0 8:0.0 9:0.0 10:1.0 11:0.0 12:0.0 13:0.0 14:0.028735632183908046 15:0.0 16:0.0 17:0.0 18:0.0 19:1.0 20:0.0 21:0.1760331109829658 22:0.0 23:0.14381270903010032 24:0.03347280334728033 25:0.0 26:1.0 27:0.0 28:1.0 29:0.06028891509433962 30:0.0 31:1.0 32:0.75 33:0.0 34:0.9999999999999998 35:1.0 36:0.0 37:0.0 38:0.0 39:0.12395509126580585 40:0.15914728682170537 41:1.0 42:0.0 43:0.018242380360543223 44:0.06047564525362635 45:0.01353311474302453 46:0.45991852812197154 47:0.578463398227189 48:0.1362992062699559 49:0.01693353871177437 50:0.3547891089039805 51:0.0025207706093208293 52:0.003590504922869875 
0.0 0.0 0.0 0.0 29.895090383513843 9.667209281466443 32.77528394012736 0.0 0.0 0:1.0 1:0.0 2:1.0 3:0.0 4:1.0 5:0.0 6:0.0 7:0.0 8:0.0 9:0.0 10:1.0 11:0.0 12:6.134969325153375E-4 13:0.0 14:0.028735632183908046 15:0.0 16:0.0 17:0.0 18:0.0 19:0.0 20:0.0 21:0.43011646120038033 22:0.0 23:0.020066889632107024 24:0.012552301255230124 25:0.0 26:1.0 27:0.0 28:1.0 29:0.28402964959568733 30:0.042222222222222223 31:1.0 32:0.75 33:0.0 34:0.9999999999999998 35:0.75 36:0.009278350515463918 37:0.0 38:0.03571428571428571 39:1.6435035386647264E-5 40:0.23618055555555548 41:0.24 42:0.72 43:0.020196462982178188 44:0.17775310339701164 45:0.015267919992430521 46:0.46124702946809565 47:0.21966152265162112 48:0.5939178212974892 49:0.1645268082442797 50:0.27019850216021163 51:0.0036445596535189507 52:0.011330093751421308 
0.0 512.0 0.0 0.0 0.0 0.0 0.0 0.0 0.0 0:1.0 1:0.0 2:0.0 3:0.0 4:1.0 5:0.0 6:0.0 7:0.0 8:0.0 9:0.0 10:1.0 11:0.0 12:6.134969325153375E-4 13:0.0 14:0.028735632183908046 15:0.0 16:0.0 17:0.0 18:0.0 19:0.0 20:0.0 21:6.644415651638168E-16 22:0.0 23:0.020066889632107024 24:0.012552301255230124 25:0.0 26:0.0 27:0.0019455252918287938 28:1.0 29:0.14083557951482478 30:0.042222222222222223 31:1.0 32:0.75 33:0.0 34:0.9999999999999998 35:0.75 36:0.009278350515463918 37:0.0 38:0.03571428571428571 39:0.0 40:0.3139305555555557 41:0.24 42:0.72 43:0.07787111891540575 44:0.059135016626245686 45:0.0016312655148684656 46:0.05187074047138974 47:0.4463353546987437 48:0.33172874354896453 49:0.052132621753641355 50:0.6823763025831804 51:0.0013387783652501722 52:0.004868040559824644 
0.0 512.0 0.0 58.123032709013934 0.0 0.0 0.0 0.0 0.0 0:1.0 1:0.0 2:1.0 3:0.0 4:1.0 5:0.0 6:0.0 7:0.0 8:0.0 9:0.0 10:1.0 11:0.0 12:0.0 13:0.0 14:0.034482758620689655 15:0.0 16:0.0 17:0.0 18:1.0 19:0.0 20:0.0 21:1.7533469445755397E-5 22:0.0 23:0.020066889632107024 24:0.02092050209205021 25:0.0 26:1.0 27:0.0 28:1.0 29:0.08355795148247978 30:0.0 31:1.0 32:0.5833333333333334 33:0.0 34:0.5121344837197677 35:0.4166666666666667 36:0.04639175257731959 37:0.0 38:0.0 39:0.11793370517600896 40:0.19416666666666682 41:0.06060606060606061 42:0.9090909090909091 43:0.025488591920274545 44:0.09273370555293163 45:0.009534681169766452 46:0.20703908921127462 47:0.5340413490442161 48:0.20977707851814326 49:0.02677437413244454 50:0.4496192583389752 51:0.0034614263520376903 52:0.004952235395850043 
87.2046520285371 512.0 0.0 0.0 0.0 0.0 0.0 0.0 0.0 0:1.0 1:0.0 2:0.0 3:0.0 4:1.0 5:0.0 6:0.0 7:0.0 8:0.0 9:0.0 10:1.0 11:0.0 12:0.0 13:0.0 14:0.040229885057471264 15:0.0 16:0.0 17:0.0 18:1.0 19:0.5 20:0.0 21:6.644415651638168E-16 22:0.0 23:0.013377926421404682 24:0.016736401673640166 25:0.0 26:1.0 27:0.0 28:1.0 29:0.004414201937786843 30:0.0 31:1.0 32:0.5 33:0.0 34:0.9999999999999998 35:0.6666666666666666 36:0.018041237113402064 37:0.0 38:0.0 39:0.0 40:0.2777777777777778 41:0.10256410256410256 42:0.8974358974358975 43:0.005739672295640873 44:0.026396751087876102 45:9.309047783077171E-4 46:0.026380359191021784 47:0.9155333202602375 48:0.042577442869215984 49:0.003327344122863343 50:0.865331220816204 51:9.341447111709042E-4 52:0.004868040559824644 
512.0 512.0 0.0 0.0 0.0 0.0 0.0 0.0 0.0 0:0.0 1:0.0 2:0.0 3:0.0 4:1.0 5:0.0 6:0.0 7:0.0 8:0.0 9:0.0 10:1.0 11:0.0 12:0.0 13:0.0 14:0.05172413793103448 15:0.0 16:0.0 17:0.0 18:0.0 19:0.0 20:0.0 21:6.644415651638168E-16 22:0.0 23:0.006688963210702341 24:0.008368200836820083 25:0.0 26:1.0 27:0.0 28:1.0 29:0.004414201937786843 30:0.0 31:1.0 32:1.0 33:0.0 34:0.9999999999999998 35:0.6666666666666666 36:0.011855670103092783 37:0.0 38:0.0 39:0.0 40:0.16666666666666666 41:0.08 42:0.92 43:0.005739672295640873 44:0.01583805065272566 45:3.070397543422201E-4 46:0.04239380327520966 47:0.925462253917585 48:0.07183634401950349 49:0.005566644813177783 50:0.29600482994004457 51:0.0016385095814151036 52:0.004868040559824644 
512.0 512.0 0.0 0.0 0.0 0.0 0.0 0.0 0.0 0:0.0 1:0.0 2:0.0 3:0.0 4:1.0 5:0.0 6:0.0 7:0.0 8:0.0 9:0.0 10:1.0 11:0.0 12:0.0 13:0.0 14:0.04597701149425287 15:0.0 16:0.0 17:0.0 18:0.0 19:0.0 20:0.0 21:0.003150180010286973 22:0.0 23:0.046822742474916385 24:0.03347280334728033 25:0.0 26:1.0 27:0.0 28:1.0 29:0.013303360849056603 30:0.0 31:1.0 32:0.6428571428571429 33:0.0 34:0.9999999999999998 35:0.5714285714285714 36:0.04690721649484536 37:0.0 38:0.024793388429752067 39:0.30179860918513046 40:0.15277777777777776 41:0.12962962962962962 42:0.8425925925925926 43:0.01564691394624916 44:0.03306741178693882 45:0.012235008708727532 46:0.3170310602215674 47:0.8890404430290199 48:0.1559074314467124 49:0.012312556177525512 50:0.6177091985230994 51:0.001281451157244532 52:0.00389189285299321 
0.0 512.0 0.0 0.0 0.0 0.0 0.0 0.0 0.0 0:1.0 1:0.0 2:0.0 3:0.0 4:1.0 5:0.0 6:0.0 7:0.0 8:0.0 9:0.0 10:1.0 11:0.0 12:0.0 13:0.0 14:0.028735632183908046 15:0.0 16:0.0 17:0.0 18:0.0 19:0.0 20:0.0 21:6.644415651638168E-16 22:0.0 23:0.006688963210702341 24:0.008368200836820083 25:0.0 26:0.0 27:0.019455252918287938 28:1.0 29:0.03619375907111756 30:0.0 31:1.0 32:0.6666666666666666 33:0.0 34:0.9999999999999998 35:0.6666666666666666 36:0.006701030927835052 37:0.0 38:0.0 39:0.0 40:0.3333333333333333 41:0.125 42:0.8125 43:0.004220305355697176 44:0.03709204545630171 45:0.001264739425278174 46:0.06581529273754992 47:0.7732641121175189 48:0.1635451651635561 49:0.015028038596567046 50:0.3926908768574679 51:0.002470170704668296 52:0.004868040559824644 
0.0 512.0 0.0 0.0 0.0 0.0 0.0 0.0 0.0 0:0.0 1:0.0 2:0.0 3:0.0 4:1.0 5:0.0 6:0.0 7:0.0 8:0.0 9:0.0 10:1.0 11:0.0 12:0.0 13:0.0 14:0.022988505747126436 15:0.0 16:0.0 17:0.0 18:0.0 19:0.0 20:0.0 21:6.644415651638168E-16 22:0.0 23:0.010033444816053512 24:0.012552301255230124 25:0.0 26:0.0 27:0.019455252918287938 28:1.0 29:0.03619375907111756 30:0.0 31:1.0 32:0.6 33:0.0 34:0.9999999999999998 35:0.6 36:0.01134020618556701 37:0.0 38:0.0 39:0.0 40:0.2783333333333336 41:0.11538461538461539 42:0.8461538461538461 43:0.004220305355697176 44:0.03097185795601196 45:0.0016885967141891632 46:0.07382690926502214 47:0.778178934277906 48:0.19637694748814516 49:0.01797041292037447 50:0.5597593405596308 51:0.0014469812539321225 52:0.004868040559824644 
0.0 512.0 0.0 0.0 0.0 0.0 0.0 0.0 0.0 0:1.0 1:0.0 2:0.0 3:0.0 4:1.0 5:0.0 6:0.0 7:0.0 8:0.0 9:0.0 10:1.0 11:0.0 12:0.0 13:0.0 14:0.034482758620689655 15:0.0 16:0.0 17:0.0 18:0.0 19:0.0 20:0.0 21:6.644415651638168E-16 22:0.0 23:0.006688963210702341 24:0.008368200836820083 25:0.0 26:0.0 27:0.04669260700389105 28:1.0 29:0.022700471698113206 30:0.0 31:1.0 32:0.6666666666666666 33:0.0 34:0.9999999999999998 35:0.6666666666666666 36:0.009278350515463918 37:0.0 38:0.0 39:0.0 40:0.3333333333333333 41:0.1 42:0.9 43:0.07249204684097105 44:0.03319098090412232 45:0.0012826709977827168 46:0.053367325622540755 47:0.8676497965809716 48:0.1635451651635561 49:0.01326868714279256 50:0.4911525549126493 51:0.0019749739470994667 52:0.004868040559824644 
0.0 512.0 0.0 0.0 0.0 0.0 0.0 0.0 0.0 0:1.0 1:0.0 2:0.0 3:0.0 4:1.0 5:0.0 6:0.0 7:0.0 8:0.0 9:0.0 10:1.0 11:0.0 12:0.0 13:0.0 14:0.028735632183908046 15:0.0 16:0.0 17:0.0 18:0.0 19:0.0 20:0.023255813953488372 21:9.370665336726794E-4 22:0.0 23:0.023411371237458192 24:0.025104602510460247 25:0.0 26:0.0 27:0.11284046692607004 28:1.0 29:0.08355795148247978 30:0.0 31:1.0 32:0.7777777777777778 33:0.030303030303030304 34:0.9999999999999998 35:0.3333333333333333 36:0.04536082474226804 37:0.0 38:0.008620689655172414 39:0.4381724240650005 40:0.30611111111111083 41:0.0707070707070707 42:0.8888888888888888 43:0.07249204684097105 44:0.10804243887154612 45:0.05578438348580459 46:0.38807306480143194 47:0.7631465287206817 48:0.1635451651635561 49:0.014000880864996366 50:0.7022453637461349 51:0.0031803182662635803 52:0.005173735488628943 
0.0 367.123274539488 0.0 0.0 0.0 0.0 0.0 0.0 0.0 0:1.0 1:0.0 2:0.0 3:0.0 4:1.0 5:0.0 6:0.0 7:0.0 8:0.0 9:0.0 10:1.0 11:0.0 12:0.0 13:0.0 14:0.028735632183908046 15:0.0 16:0.0 17:0.0 18:0.0 19:0.0 20:0.0 21:6.644415651638168E-16 22:0.0 23:0.010033444816053512 24:0.012552301255230124 25:0.0 26:0.0 27:0.17509727626459143 28:1.0 29:0.03773584905660377 30:0.0 31:1.0 32:0.8 33:0.0 34:0.9999999999999998 35:0.6 36:0.013402061855670104 37:0.0 38:0.0 39:0.0 40:0.3333333333333333 41:0.10344827586206896 42:0.896551724137931 43:0.07249204684097105 44:0.03380667371911444 45:0.0025231259505832785 46:0.07172024908689481 47:0.8513055306642705 48:0.1635451651635561 49:0.0135463600791529 50:0.7189086568997649 51:0.0013492861585321936 52:0.004868040559824644 
0.0 512.0 0.0 0.0 0.0 0.0 0.0 0.0 0.0 0:1.0 1:0.0 2:0.0 3:0.0 4:1.0 5:0.0 6:0.0 7:0.0 8:0.0 9:0.0 10:1.0 11:0.0 12:0.0 13:0.0 14:0.034482758620689655 15:0.0 16:0.0 17:0.0 18:0.0 19:0.5 20:0.023255813953488372 21:7.013387778008973E-4 22:0.0 23:0.023411371237458192 24:0.02928870292887029 25:0.0 26:0.0 27:0.19455252918287938 28:1.0 29:0.06230979914790018 30:0.0 31:1.0 32:0.7 33:0.05084745762711865 34:0.9999999999999998 35:0.7 36:0.026288659793814433 37:0.0 38:0.014705882352941176 39:0.09501504832927593 40:0.3062994350282483 41:0.11864406779661017 42:0.864406779661017 43:0.07249204684097105 44:0.0660973044123934 45:0.01225856671343099 46:0.18187820486838294 47:0.824209470713369 48:0.1635451651635561 49:0.01352129534683153 50:0.6546257843417811 51:0.0027010578352655882 52:0.004534380666073423 
0.0 512.0 0.0 28.501598258621005 0.0 0.0 0.0 0.0 0.0 0:1.0 1:0.0 2:0.0 3:0.0 4:1.0 5:0.0 6:0.0 7:0.0 8:0.0 9:0.0 10:1.0 11:0.0 12:0.0 13:0.0 14:0.028735632183908046 15:0.0 16:0.0 17:0.0 18:0.0 19:0.0 20:0.0 21:4.6755918520084743E-4 22:0.0 23:0.026755852842809364 24:0.03347280334728033 25:0.0 26:0.0 27:0.33852140077821014 28:1.0 29:0.07474600870827286 30:0.0 31:1.0 32:0.6923076923076923 33:0.0 34:0.9999999999999998 35:0.6153846153846154 36:0.04845360824742268 37:0.0 38:0.008695652173913044 39:0.5871478023276118 40:0.2681715210355991 41:0.07766990291262135 42:0.912621359223301 43:0.07249204684097105 44:0.08845570204858094 45:0.05705275341410159 46:0.45957859877369955 47:0.8230763311597242 48:0.1635451651635561 49:0.013177334143100928 50:0.5788410935765984 51:0.002749242210990327 52:0.006363613151615742 
294.23168013572894 512.0 0.0 0.0 0.0 16.51506401279138 0.0 0.0 0.0 0:1.0 1:0.0 2:0.0 3:0.0 4:1.0 5:0.0 6:0.0 7:0.0 8:0.0 9:0.0 10:1.0 11:0.0 12:0.0 13:0.0 14:0.06896551724137931 15:0.0 16:0.0 17:0.0 18:0.0 19:1.0 20:0.0 21:6.644415651638168E-16 22:0.0 23:0.0033444816053511705 24:0.0041841004184100415 25:0.0 26:0.0 27:0.36575875486381326 28:1.0 29:0.041222313371616075 30:0.0 31:1.0 32:1.0 33:0.0 34:0.9999999999999998 35:1.0 36:0.006185567010309279 37:0.0 38:0.0 39:0.0 40:0.3333333333333333 41:0.07692307692307693 42:0.9230769230769231 43:0.07249204684097105 44:0.032982980781916534 45:3.699027242367366E-5 46:0.0023738755326423665 47:0.8733092887656597 48:0.1635451651635561 49:0.013174880615755323 50:0.3184242669588827 51:0.0030462926373921056 52:0.004868040559824644 
0.0 512.0 0.0 0.0 0.0 0.0 0.0 0.0 0.0 0:1.0 1:0.0 2:0.0 3:0.0 4:1.0 5:0.0 6:0.0 7:0.0 8:0.0 9:0.0 10:1.0 11:0.0 12:0.0 13:0.0 14:0.034482758620689655 15:0.0 16:0.0 17:0.0 18:0.0 19:0.0 20:0.023255813953488372 21:7.013387778008973E-4 22:0.0 23:0.016722408026755852 24:0.016736401673640166 25:0.0 26:0.0 27:0.38910505836575876 28:1.0 29:0.05839050886220697 30:0.0 31:1.0 32:0.5 33:0.04285714285714286 34:0.9999999999999998 35:0.4 36:0.031443298969072164 37:0.0 38:0.012658227848101266 39:0.44921676784485315 40:0.2932619047619044 41:0.07142857142857142 42:0.8714285714285714 43:0.07249204684097105 44:0.07097190176489776 45:0.03202741766614873 46:0.35960697452921037 47:0.7635933307352623 48:0.1635451651635561 49:0.01464386257457925 50:0.700158787768805 51:0.002044085709766038 52:0.007236862322049208 
0.0 512.0 0.0 0.0 0.0 0.0 0.0 0.0 0.0 0:1.0 1:0.0 2:0.0 3:0.0 4:1.0 5:0.0 6:0.0 7:0.0 8:0.0 9:0.0 10:1.0 11:0.0 12:0.0 13:0.0 14:0.022988505747126436 15:0.0 16:0.0 17:0.0 18:0.0 19:0.0 20:0.0 21:7.013387778008973E-4 22:0.0 23:0.030100334448160536 24:0.03765690376569037 25:0.0 26:0.0 27:0.4163424124513619 28:1.0 29:0.051823049464558894 30:0.0 31:1.0 32:0.7692307692307693 33:0.0 34:0.9999999999999998 35:0.6923076923076923 36:0.042268041237113405 37:0.0 38:0.0 39:0.0037718406212443635 40:0.30492673992673963 41:0.0989010989010989 42:0.9010989010989011 43:0.07249204684097105 44:0.06685318783354764 45:0.00681952604765664 46:0.07495015693674638 47:0.8142308923877348 48:0.1635451651635561 49:0.013695367151172384 50:0.9472552399963706 51:0.002000834988479176 52:0.004859468571857831 
0.0 274.347542382892 0.0 0.0 0.0 0.0 0.0 0.0 0.0 0:1.0 1:0.0 2:0.0 3:0.0 4:1.0 5:0.0 6:0.0 7:0.0 8:0.0 9:0.0 10:1.0 11:0.0 12:0.0 13:0.0 14:0.0574712643678161 15:0.0 16:0.0 17:0.0 18:0.0 19:0.0 20:0.0 21:6.644415651638168E-16 22:1.0 23:0.013377926421404682 24:0.008368200836820083 25:1.0 26:0.0 27:0.0019455252918287938 28:1.0 29:0.03773584905660377 30:0.0 31:1.0 32:0.3333333333333333 33:0.0 34:0.9999999999999998 35:0.3333333333333333 36:0.024742268041237116 37:0.0 38:0.0 39:0.245017616303555 40:0.19444444444444448 41:0.07142857142857142 42:0.8571428571428571 43:0.016673128014503817 44:0.04588939761226141 45:0.011040493099815642 46:0.3189433020842898 47:0.7947850758198196 48:0.12413631016602814 49:0.011021598813367015 50:0.42633783057519553 51:0.0022584223942493284 52:0.0037652687274269906 
0.0 0.0 0.0 0.0 0.0 0.0 60.165098987447855 0.0 0.0 0:1.0 1:0.0 2:1.0 3:0.0 4:1.0 5:0.0 6:0.0 7:0.0 8:0.0 9:0.0 10:1.0 11:0.0 12:0.0 13:0.0 14:0.034482758620689655 15:0.0 16:0.0 17:0.0 18:1.0 19:0.0 20:0.0 21:6.644415651638168E-16 22:0.0 23:0.013377926421404682 24:0.016736401673640166 25:0.0 26:1.0 27:0.0 28:1.0 29:0.033440026954177894 30:0.0 31:1.0 32:0.8333333333333334 33:0.0 34:0.9999999999999998 35:0.6666666666666666 36:0.015463917525773196 37:0.0 38:0.0 39:0.0 40:0.21999999999999975 41:0.11764705882352941 42:0.8823529411764706 43:0.019114662318559655 44:0.03270058526615673 45:0.0014021239611790332 46:0.07881681638301029 47:0.5815314387273093 48:0.11881839193556634 49:0.015290545187559151 50:0.5508078982083155 51:0.0011623088777140147 52:0.004868040559824644 
0.0 512.0 0.0 42.399871201676824 0.0 0.0 0.0 0.0 0.0 0:0.0 1:0.0 2:0.0 3:0.0 4:1.0 5:0.0 6:0.0 7:0.0 8:0.0 9:0.0 10:1.0 11:0.0 12:0.0 13:0.0 14:0.022988505747126436 15:0.0 16:0.0 17:0.0 18:0.0 19:0.0 20:0.0 21:6.644415651638168E-16 22:0.0 23:0.013377926421404682 24:0.016736401673640166 25:0.0 26:1.0 27:0.0 28:1.0 29:0.10901467505241089 30:0.0 31:1.0 32:0.8181818181818182 33:0.0 34:0.9999999999999998 35:0.36363636363636365 36:0.03917525773195876 37:0.0 38:0.0 39:0.21546331391944776 40:0.19270833333333331 41:0.05 42:0.95 43:0.02914020364648065 44:0.04912140195820847 45:0.013787462178775358 46:0.28566169905513966 47:0.7456219608154631 48:0.30503320806735623 49:0.028417387317331587 50:0.6529213459619049 51:0.0016445606830796963 52:0.004167222333949707 
0.0 512.0 0.0 0.0 0.0 0.0 0.0 0.0 0.0 0:0.0 1:0.0 2:0.0 3:0.0 4:1.0 5:0.0 6:0.0 7:0.0 8:0.0 9:0.0 10:1.0 11:0.0 12:0.0 13:0.0 14:0.034482758620689655 15:0.0 16:0.0 17:0.0 18:0.0 19:0.0 20:0.0 21:6.644415651638168E-16 22:0.0 23:0.03678929765886287 24:0.04184100418410042 25:0.0 26:1.0 27:0.0 28:1.0 29:0.06676968119713728 30:0.0 31:1.0 32:0.7647058823529411 33:0.0 34:0.9999999999999998 35:0.5882352941176471 36:0.06494845360824743 37:0.0 38:0.012903225806451613 39:0.42691647920454423 40:0.2361111111111111 41:0.07913669064748201 42:0.9064748201438849 43:0.011899807299802766 44:0.12556701858616673 45:0.043585628604087386 46:0.34841381919198106 47:0.6758811308062543 48:0.15162216598919123 49:0.014569622379991227 50:0.6150017798189471 51:0.004028508528290397 52:0.004158906506704294 
0.0 0.0 0.0 0.0 0.0 26.02622011526742 0.0 0.0 0.0 0:1.0 1:0.0 2:1.0 3:0.0 4:1.0 5:0.0 6:0.0 7:1.0 8:0.0 9:0.0 10:1.0 11:0.0 12:0.0 13:0.0 14:0.04597701149425287 15:0.0 16:0.0 17:0.0 18:0.0 19:0.0 20:0.0 21:0.1841014291725767 22:0.0 23:0.020066889632107024 24:0.025104602510460247 25:0.0 26:1.0 27:0.0 28:1.0 29:0.665880503144654 30:0.0 31:1.0 32:0.75 33:0.0 34:0.9999999999999998 35:0.5 36:0.0443298969072165 37:0.0 38:0.01904761904761905 39:0.12942590367014883 40:0.16666666666666666 41:0.06382978723404255 42:0.9148936170212766 43:0.07867641189952232 44:0.3707865168539322 45:0.032703981058476675 46:0.5254859328174765 47:0.08340304272171935 48:0.39988747981577866 49:0.22796935840267013 50:0.638867057994179 51:0.0020764886745826268 52:0.004034897690696691 
0.0 0.0 0.0 0.0 0.0 0.0 15.053683595431714 0.0 0.0 0:1.0 1:0.0 2:1.0 3:0.0 4:1.0 5:0.0 6:0.0 7:0.0 8:0.0 9:0.0 10:1.0 11:0.0 12:6.134969325153375E-4 13:0.0 14:0.011494252873563218 15:0.0 16:0.0 17:0.0 18:1.0 19:0.0 20:0.0 21:0.33647020089459706 22:0.0 23:0.016722408026755852 24:0.02092050209205021 25:0.0 26:1.0 27:0.0 28:1.0 29:0.1981132075471698 30:0.02852852852852853 31:1.0 32:0.7777777777777778 33:0.0 34:0.9999999999999998 35:0.5555555555555556 36:0.015463917525773196 37:0.0 38:0.022222222222222223 39:0.23679188109251897 40:0.22249999999999973 41:0.13513513513513514 42:0.8108108108108109 43:0.01688407201742284 44:0.0862325707323676 45:0.0258573946668774 46:0.5308021215896442 47:0.502652266403219 48:0.3188047531253577 49:0.04303363146511416 50:0.38387867916495083 51:0.0024712004492667 52:0.0029895025939962808 
0.0 149.34633519474133 0.0 0.0 0.0 0.0 0.0 0.0 0.0 0:0.0 1:0.0 2:1.0 3:0.0 4:1.0 5:0.0 6:0.0 7:0.0 8:0.0 9:0.0 10:1.0 11:0.0 12:0.0 13:0.0 14:0.040229885057471264 15:0.0 16:0.0 17:0.0 18:0.0 19:0.0 20:0.0 21:6.644415651638168E-16 22:0.0 23:0.010033444816053512 24:0.012552301255230124 25:0.0 26:1.0 27:0.0 28:1.0 29:0.09787735849056603 30:0.0 31:1.0 32:0.8333333333333334 33:0.0 34:0.9999999999999998 35:0.5 36:0.015979381443298968 37:0.0 38:0.0 39:0.0 40:0.1941666666666669 41:0.08571428571428572 42:0.8857142857142857 43:0.01688407201742284 44:0.03154189792879387 45:0.0012433298962036868 46:0.0668903731295353 47:0.532736935384982 48:0.3797726702598437 49:0.05101019685328278 50:0.6520837841044718 51:8.66503473212734E-4 52:0.004868040559824644 
0.0 0.0 0.0 288.8594471902234 0.0 0.0 0.0 0.0 0.0 0:0.0 1:0.0 2:0.0 3:0.0 4:1.0 5:0.0 6:0.0 7:0.0 8:0.0 9:0.0 10:1.0 11:0.0 12:0.0 13:0.0 14:0.034482758620689655 15:0.0 16:0.0 17:0.0 18:0.0 19:0.5 20:0.0 21:6.644415651638168E-16 22:0.0 23:0.026755852842809364 24:0.03347280334728033 25:0.0 26:1.0 27:0.0 28:1.0 29:0.0394064465408805 30:0.0 31:1.0 32:0.8461538461538461 33:0.0 34:0.9999999999999998 35:0.6153846153846154 36:0.042783505154639176 37:0.0 38:0.0 39:0.5417768327632431 40:0.19444444444444442 41:0.08791208791208792 42:0.9120879120879121 43:0.02295013739866135 44:0.07368421052631577 45:0.0243478755122955 46:0.3749402078622124 47:0.717782471956968 48:0.11437603661046339 49:0.011069494420564496 50:0.5011439699036105 51:0.0026857825991050827 52:0.0035239149750334047 
512.0 316.75065951833017 0.0 0.0 0.0 0.0 51.39720652432111 0.0 0.0 0:0.0 1:0.0 2:0.0 3:0.0 4:1.0 5:0.0 6:0.0 7:0.0 8:0.0 9:0.0 10:1.0 11:0.0 12:0.0 13:0.0 14:0.04597701149425287 15:0.0 16:0.0 17:0.0 18:0.0 19:0.5 20:0.0 21:6.644415651638168E-16 22:1.0 23:0.006688963210702341 24:0.008368200836820083 25:1.0 26:1.0 27:0.0 28:1.0 29:0.02997565429093122 30:0.0 31:1.0 32:1.0 33:0.0 34:0.9999999999999998 35:1.0 36:0.007731958762886598 37:0.0 38:0.0 39:0.0 40:0.1666666666666668 41:0.11764705882352941 42:0.8823529411764706 43:0.04005227990558831 44:0.02001364263306156 45:1.7275789281528015E-4 46:0.03370112736867383 47:0.729269007081812 48:0.12401940607852543 49:0.012529208610100694 50:0.20950772301829373 51:0.0023149826794669624 52:0.004868040559824644 
184.05654229375008 0.0 0.0 0.0 0.0 0.0 0.0 0.0 0.0 0:0.0 1:0.0 2:0.0 3:0.0 4:1.0 5:0.0 6:0.0 7:0.0 8:0.0 9:0.0 10:1.0 11:0.0 12:6.134969325153375E-4 13:0.0 14:0.0 15:0.0 16:0.0 17:0.0 18:0.0 19:0.0 20:0.046511627906976744 21:6.644415651638168E-16 22:0.0 23:0.043478260869565216 24:0.05439330543933054 25:0.0 26:1.0 27:0.0 28:1.0 29:0.14083557951482478 30:0.029320987654320986 31:1.0 32:0.0 33:0.16666666666666666 34:0.9999999999999998 35:0.3611111111111111 36:0.010309278350515464 37:0.0 38:0.04225352112676056 39:0.123796904050209 40:0.3194444444444444 41:0.3611111111111111 42:0.5555555555555556 43:0.012648088391238448 44:0.0514878770567568 45:0.01553412979953696 46:0.3010329131652661 47:0.9602842653706098 48:0.4342840720616279 49:0.030814735282775296 50:0.5394861558004648 51:0.0028171135689515855 52:0.005512716371932436 
512.0 512.0 0.0 395.5902342114435 0.0 0.0 0.0 99.27589619036087 0.0 0:0.0 1:0.0 2:0.0 3:0.0 4:1.0 5:0.0 6:0.0 7:0.0 8:0.0 9:0.0 10:1.0 11:0.0 12:6.134969325153375E-4 13:0.0 14:0.0 15:0.0 16:0.0 17:0.0 18:0.0 19:0.0 20:0.023255813953488372 21:6.644415651638168E-16 22:0.0 23:0.046822742474916385 24:0.05857740585774058 25:0.0 26:1.0 27:0.0 28:1.0 29:0.06923854447439352 30:0.0202991452991453 31:1.0 32:0.0 33:0.057692307692307696 34:0.9999999999999998 35:0.28 36:0.018556701030927835 37:0.0 38:0.019801980198019802 39:0.0 40:0.15277777777777776 41:0.2692307692307692 42:0.6923076923076923 43:0.05180528158173793 44:0.013484920181531544 45:0.005581863702455503 46:0.3088907947398518 47:0.9987588832928316 48:0.5296912027238652 49:0.03759693306559328 50:0.8056926287576863 51:5.518103368037596E-4 52:0.004868040559824644 
512.0 512.0 0.0 0.0 0.0 0.0 0.0 0.0 0.0 0:0.0 1:0.0 2:0.0 3:0.0 4:1.0 5:0.0 6:0.0 7:0.0 8:0.0 9:0.0 10:1.0 11:0.0 12:6.134969325153375E-4 13:0.0 14:0.0 15:0.0 16:0.0 17:0.0 18:0.0 19:0.0 20:0.046511627906976744 21:6.644415651638168E-16 22:0.0 23:0.043478260869565216 24:0.05439330543933054 25:0.0 26:0.0 27:0.007782101167315175 28:1.0 29:0.053328092243186576 30:0.03015873015873016 31:1.0 32:0.0 33:0.17142857142857143 34:0.9999999999999997 35:0.38235294117647056 36:0.00979381443298969 37:0.0 38:0.04411764705882353 39:0.0 40:0.1388888888888889 41:0.37142857142857144 42:0.5428571428571428 43:0.011402378536162645 44:0.013314604123532896 45:0.003258849831600988 46:0.3345605960990585 47:0.9197357414307098 48:0.09754550126280767 49:0.00761559073738918 50:0.4777243444333545 51:8.460366242119443E-4 52:0.004868040559824644 
0.0 512.0 17.35904555148325 147.8862063223812 0.0 152.08492865260467 0.0 0.0 0.0 0:0.0 1:0.0 2:0.0 3:0.0 4:1.0 5:0.0 6:0.0 7:0.0 8:0.0 9:0.0 10:1.0 11:0.0 12:0.0 13:0.0 14:0.0 15:0.0 16:0.0 17:0.0 18:0.0 19:0.0 20:0.0 21:6.644415651638168E-16 22:0.0 23:0.020066889632107024 24:0.025104602510460247 25:0.0 26:0.0 27:0.007782101167315175 28:1.0 29:0.053328092243186576 30:0.0 31:1.0 32:0.0 33:0.0 34:0.4123390710216328 35:0.2857142857142857 36:0.008247422680412371 37:0.0 38:0.0 39:0.0 40:0.1388888888888889 41:0.2727272727272727 42:0.7272727272727273 43:0.011402378536162645 44:0.013314604123532896 45:0.0017534516256236389 46:0.29927858340013147 47:0.9197357414307098 48:0.11946501766956572 49:0.009307952278654922 50:0.2873465342388307 51:0.0014065674838880356 52:0.004868040559824644 
0.0 512.0 37.050235610486695 0.0 0.0 0.0 0.0 0.0 0.0 0:0.0 1:0.0 2:0.0 3:0.0 4:1.0 5:0.0 6:0.0 7:0.0 8:0.0 9:0.0 10:1.0 11:0.0 12:0.0 13:0.0 14:0.0 15:0.0 16:0.0 17:0.0 18:0.0 19:0.0 20:0.023255813953488372 21:6.644415651638168E-16 22:0.0 23:0.020066889632107024 24:0.025104602510460247 25:0.0 26:0.0 27:0.007782101167315175 28:1.0 29:0.053328092243186576 30:0.0 31:1.0 32:0.0 33:0.14285714285714285 34:0.33809784481884714 35:0.2857142857142857 36:0.007216494845360825 37:0.0 38:0.024390243902439025 39:0.0 40:0.1388888888888889 41:0.2857142857142857 42:0.6666666666666666 43:0.011402378536162645 44:0.013314604123532896 45:0.0016740403759606254 46:0.2676998702806037 47:0.9197357414307098 48:0.11946501766956572 49:0.009307952278654922 50:0.3066942131455334 51:0.0013178347498733875 52:0.004868040559824644 
116.59714737190563 227.10461401544092 12.64817867605353 0.0 0.0 137.15584462287242 67.39132317354745 54.17080702110667 0.0 0:0.0 1:0.0 2:1.0 3:0.0 4:1.0 5:0.0 6:0.0 7:0.0 8:0.0 9:0.0 10:1.0 11:0.0 12:6.134969325153375E-4 13:0.0 14:0.0 15:0.0 16:0.0 17:0.0 18:0.0 19:0.0 20:0.0 21:6.644415651638168E-16 22:0.0 23:0.010033444816053512 24:0.012552301255230124 25:0.0 26:0.0 27:0.007782101167315175 28:1.0 29:0.053328092243186576 30:0.21111111111111114 31:1.0 32:0.0 33:0.0 34:0.290700079070616 35:0.6 36:5.154639175257732E-4 37:0.0 38:0.1111111111111111 39:0.0 40:0.1388888888888889 41:0.6 42:0.2 43:0.01154490826786463 44:0.013314604123532896 45:1.9682035534757466E-4 46:0.15542818610923645 47:0.9197357414307098 48:0.11946501766956572 49:0.009307952278654922 50:0.062105211728657926 51:0.00650786432279012 52:0.004868040559824644 
0.0 11.421689413141948 0.0 0.0 13.401643324390593 202.2025142013052 0.0 0.0 0.0 0:0.0 1:0.0 2:0.0 3:0.0 4:1.0 5:0.0 6:0.0 7:0.0 8:0.0 9:0.0 10:1.0 11:0.0 12:6.134969325153375E-4 13:0.0 14:0.0 15:0.0 16:0.0 17:0.0 18:0.0 19:0.0 20:0.023255813953488372 21:0.6701564764739806 22:0.0 23:0.046822742474916385 24:0.05857740585774058 25:0.0 26:0.0 27:0.011673151750972763 28:1.0 29:0.03431316152784169 30:0.019916142557651992 31:1.0 32:0.0 33:0.05660377358490566 34:0.9999999999999998 35:0.27450980392156865 36:0.01907216494845361 37:0.0 38:0.019417475728155338 39:0.7110946760757243 40:0.19444444444444442 41:0.2641509433962264 42:0.6981132075471698 43:0.033907823171913695 44:0.04526447098480844 45:0.04031017499023163 46:0.6628114053881927 47:0.8900556764954837 48:0.19391100189238492 49:0.01505385775978587 50:0.32881282586391014 51:0.0015664330820009532 52:0.0023644908967811206 
0.0 512.0 0.0 0.0 0.0 0.0 0.0 0.0 0.0 0:0.0 1:0.0 2:0.0 3:0.0 4:1.0 5:0.0 6:0.0 7:0.0 8:0.0 9:0.0 10:1.0 11:0.0 12:0.0 13:0.0 14:0.034482758620689655 15:0.0 16:0.0 17:0.0 18:0.0 19:0.0 20:0.0 21:7.47496760809294E-16 22:0.0 23:0.023411371237458192 24:0.025104602510460247 25:0.0 26:1.0 27:0.0 28:1.0 29:0.37352594339622636 30:0.0 31:1.0 32:0.8 33:0.0 34:0.9999999999999998 35:0.4 36:0.05979381443298969 37:0.0 38:0.014184397163120567 39:0.21759165100202355 40:0.16666666666666666 41:0.05511811023622047 42:0.9133858267716536 43:0.0483218549389403 44:0.06512485409830389 45:0.015809721845128195 46:0.2773282498625979 47:0.7375981413036193 48:0.3080848918515416 49:0.028510985777039387 50:0.5891061121076545 51:0.0024777032306836214 52:0.006322929350865536 
98.68252282135171 94.20537078495619 0.0 0.0 0.0 0.0 0.0 0.0 13.611142795564463 0:1.0 1:0.0 2:0.0 3:0.0 4:1.0 5:0.0 6:0.0 7:0.0 8:0.0 9:0.0 10:1.0 11:0.0 12:0.0 13:0.0 14:0.0574712643678161 15:0.0 16:0.0029585798816568047 17:0.0 18:0.0 19:0.0 20:0.023255813953488372 21:0.02594953477861136 22:0.0 23:0.13377926421404682 24:0.0041841004184100415 25:0.0 26:1.0 27:0.0 28:1.0 29:0.09787735849056603 30:0.0 31:1.0 32:0.25 33:0.06521739130434782 34:0.9999999999999998 35:0.25 36:0.0010309278350515464 37:0.021739130434782608 38:0.04081632653061224 39:0.01844216408328449 40:0.19499999999999967 41:0.8695652173913043 42:0.043478260869565216 43:0.019425377133670114 44:0.05658686515906133 45:0.0027340063665432547 46:0.1386925535383995 47:0.6232379245549976 48:0.28960552176973303 49:0.03236791097277117 50:0.30228549691847034 51:0.0037926457601562555 52:0.004584503150168663 
0.0 512.0 0.0 0.0 0.0 0.0 0.0 0.0 0.0 0:1.0 1:0.0 2:0.0 3:0.0 4:1.0 5:0.0 6:0.0 7:0.0 8:0.0 9:0.0 10:1.0 11:0.0 12:0.0 13:0.0 14:0.022988505747126436 15:0.0 16:0.0 17:0.0 18:1.0 19:0.0 20:0.0 21:0.0655897869488652 22:0.0 23:0.020066889632107024 24:0.025104602510460247 25:0.0 26:0.0 27:0.0019455252918287938 28:1.0 29:0.04904450895016932 30:0.0 31:1.0 32:0.8461538461538461 33:0.0 34:1.0 35:0.46153846153846156 36:0.042783505154639176 37:0.0 38:0.019417475728155338 39:0.0463447454110299 40:0.2783333333333329 41:0.06593406593406594 42:0.9120879120879121 43:0.04155739387236179 44:0.0624355154704907 45:0.014200023742560674 46:0.17156215054101331 47:0.8030049917713962 48:0.11834955783464401 49:0.010186755341131669 50:0.8950311642807786 51:0.0018483469200885584 52:0.00462458876389006 
0.0 0.0 0.0 130.0681289652247 0.0 0.0 0.0 0.0 0.0 0:0.0 1:0.0 2:0.0 3:0.0 4:1.0 5:0.0 6:0.0 7:0.0 8:0.0 9:0.0 10:1.0 11:0.0 12:6.134969325153375E-4 13:0.0 14:0.05172413793103448 15:0.0 16:0.0 17:0.0 18:0.0 19:0.5 20:0.0 21:6.644415651638168E-16 22:0.0 23:0.023411371237458192 24:0.025104602510460247 25:0.0 26:1.0 27:0.0 28:1.0 29:0.03476589797344514 30:0.009683995922528034 31:1.0 32:0.4 33:0.0 34:0.9999999999999998 35:0.6 36:0.051030927835051546 37:0.0 38:0.00847457627118644 39:0.6902714862407938 40:0.2777777777777778 41:0.06422018348623854 42:0.908256880733945 43:0.04430536709957699 44:0.09070661037899397 45:0.05643829060524665 46:0.4301946382830675 47:0.8573162588770874 48:0.17568005299651965 49:0.013474163663658672 50:0.6220571915154984 51:0.0029826105503817104 52:0.013154425045594916 
-0.0 10.65797940267821 0.0 0.0 0.0 0.0 0.0 0.0 0.0 0:0.0 1:0.0 2:1.0 3:0.0 4:1.0 5:0.0 6:0.0 7:0.0 8:0.0 9:0.0 10:1.0 11:0.0 12:0.0 13:0.0 14:0.040229885057471264 15:0.0 16:0.0 17:0.0 18:0.0 19:1.0 20:0.0 21:6.644415651638168E-16 22:1.0 23:0.006688963210702341 24:0.008368200836820083 25:1.0 26:1.0 27:0.0 28:1.0 29:0.022700471698113206 30:0.0 31:1.0 32:1.0 33:0.0 34:0.9999999999999998 35:1.0 36:0.006185567010309279 37:0.0 38:0.0 39:0.0 40:0.1379999999999997 41:0.14285714285714285 42:0.8571428571428571 43:0.030478557827162772 44:0.018919443841469645 45:1.0991275202712952E-4 46:0.03376027727468262 47:0.6394704899680537 48:0.3071654899133692 49:0.03476770894727955 50:0.1607008996810285 51:0.0024989629168142785 52:0.004868040559824644 
-0.0 209.52369540306705 0.0 0.0 0.0 0.0 0.0 11.870710883204639 0.0 0:1.0 1:0.0 2:0.0 3:0.0 4:1.0 5:0.25 6:0.0 7:0.0 8:0.0 9:0.0 10:1.0 11:0.0 12:0.0 13:0.0 14:0.034482758620689655 15:0.0 16:0.0 17:0.0 18:1.0 19:0.3333333333333333 20:0.046511627906976744 21:6.644415651638168E-16 22:0.0 23:0.023411371237458192 24:0.025104602510460247 25:0.0 26:1.0 27:0.0 28:1.0 29:0.02208927749654855 30:0.0 31:1.0 32:0.3333333333333333 33:0.13333333333333333 34:0.9999999999999998 35:1.0 36:0.01752577319587629 37:0.0 38:0.06 39:0.0 40:0.19248148148148153 41:0.15555555555555556 42:0.7555555555555555 43:0.010511567713024939 44:0.02716937673671638 45:0.002885516037586972 46:0.1539704608069724 47:0.6856586482253273 48:0.1503764068067405 49:0.016015100584684354 50:0.5957116832899431 51:0.001046810808495493 52:0.004868040559824644 
-0.0 512.0 0.0 158.1402159411598 0.0 0.0 0.0 0.0 0.0 0:0.0 1:0.0 2:0.0 3:0.0 4:1.0 5:0.0 6:0.0 7:0.0 8:0.0 9:0.0 10:1.0 11:0.0 12:0.0 13:0.0 14:0.022988505747126436 15:0.0 16:0.0 17:0.0 18:0.0 19:0.0 20:0.0 21:6.644415651638168E-16 22:0.0 23:0.013377926421404682 24:0.016736401673640166 25:0.0 26:0.0 27:0.0019455252918287938 28:1.0 29:0.0394064465408805 30:0.0 31:1.0 32:0.8 33:0.0 34:0.9999999999999998 35:0.8 36:0.010309278350515464 37:0.0 38:0.0 39:0.0 40:0.125 41:0.16 42:0.8 43:0.02693241810241619 44:0.018214309566357764 45:2.7665854721307964E-4 46:0.07272066175802207 47:0.602086813631433 48:0.18125856992203956 49:0.022283953444602104 50:0.20731540485646283 51:0.0017545973621848478 52:0.004868040559824644 
-0.0 0.0 0.0 0.0 0.0 0.0 0.0 29.466177853613445 0.0 0:0.0 1:0.0 2:0.0 3:0.0 4:1.0 5:0.0 6:0.0 7:0.0 8:0.0 9:0.0 10:1.0 11:0.0 12:0.0 13:0.0 14:0.028735632183908046 15:0.0 16:0.0 17:0.0 18:1.0 19:0.25 20:0.06976744186046512 21:0.045587020557019374 22:0.0 23:0.026755852842809364 24:0.03347280334728033 25:0.0 26:1.0 27:0.0 28:1.0 29:0.10315292949354517 30:0.0 31:1.0 32:0.5 33:0.19148936170212766 34:0.9999999999999998 35:1.0 36:0.018556701030927835 37:0.0 38:0.05555555555555555 39:0.0322907357759905 40:0.1619999999999998 41:0.1702127659574468 42:0.7659574468085106 43:0.03542433951722328 44:0.050657985166383916 45:0.005265290670285437 46:0.25568745022344946 47:0.6257549092371351 48:0.24570194815790816 49:0.02765048433066914 50:0.3426025838783301 51:0.002896673141388596 52:0.005383238228966939 
-0.0 512.0 0.0 0.0 0.0 0.0 144.15185675008908 0.0 0.0 0:0.0 1:0.0 2:0.0 3:0.0 4:1.0 5:0.0 6:0.0 7:0.0 8:0.0 9:0.0 10:1.0 11:0.0 12:0.0 13:0.0 14:0.034482758620689655 15:0.0 16:0.0 17:0.0 18:1.0 19:0.0 20:0.0 21:6.644415651638168E-16 22:0.0 23:0.010033444816053512 24:0.008368200836820083 25:0.0 26:1.0 27:0.0 28:1.0 29:0.01434748427672956 30:0.0 31:1.0 32:0.6666666666666666 33:0.0 34:0.9999999999999998 35:0.6666666666666666 36:0.008762886597938144 37:0.0 38:0.0 39:0.0 40:0.2222222222222222 41:0.13636363636363635 42:0.7727272727272727 43:0.026682991071937615 44:0.026648101822397064 45:5.921859125407891E-4 46:0.04649229597610245 47:0.7253309437699664 48:0.05786752331384119 49:0.006120763295824227 50:0.39043155374704236 51:0.0016563099484735583 52:0.004868040559824644 
-4.442125563211142 0.0 0.08925797145507966 0.0 0.0 3.5958490953040108 0.0 0.0 0.0 0:0.0 1:0.0 2:0.0 3:0.0 4:1.0 5:0.0 6:0.0 7:1.0 8:0.0 9:0.0 10:1.0 11:0.0 12:0.0 13:0.0 14:0.0574712643678161 15:0.0 16:0.0 17:0.0 18:0.0 19:1.0 20:0.0 21:6.644415651638168E-16 22:0.0 23:0.013377926421404682 24:0.012552301255230124 25:1.0 26:1.0 27:0.0 28:1.0 29:0.1981132075471698 30:0.0 31:1.0 32:0.6666666666666666 33:0.0 34:0.9999999999999998 35:1.0 36:0.01443298969072165 37:0.0 38:0.0 39:0.0 40:0.19444444444444442 41:0.12121212121212122 42:0.8484848484848485 43:0.06764461066578495 44:0.07625521531204724 45:3.5982688825798615E-4 46:0.027804720336242147 47:0.2104859468355247 48:0.5171374085773502 49:0.16893572327228645 50:0.4533512943820538 51:0.0012481296851856133 52:0.004868040559824644 
-0.0 0.0 0.0 0.0 0.0 0.0 102.45413492278763 0.0 0.0 0:0.0 1:0.0 2:0.0 3:0.0 4:1.0 5:0.0 6:0.0 7:0.0 8:0.0 9:0.0 10:1.0 11:0.0 12:0.0 13:0.0 14:0.034482758620689655 15:0.0 16:0.0 17:0.0 18:0.0 19:1.0 20:0.0 21:6.644415651638168E-16 22:0.0 23:0.006688963210702341 24:0.008368200836820083 25:0.0 26:1.0 27:0.0 28:1.0 29:0.006136072913335466 30:0.0 31:1.0 32:1.0 33:0.0 34:1.0 35:1.0 36:0.005154639175257732 37:0.0 38:0.0 39:0.0 40:0.19500000000000006 41:0.16666666666666666 42:0.8333333333333334 43:0.005743948187591934 44:0.018269617392051164 45:2.0110770894497327E-4 46:0.04008075884643851 47:0.9363592586065237 48:0.08380196447577039 49:0.006367213718597722 50:0.17527238209571935 51:0.003237577367963982 52:0.004868040559824644 
-512.0 512.0 0.0 14.319100157586583 81.1577362743525 0.0 0.0 0.0 0.0 0:0.0 1:0.0 2:0.0 3:0.0 4:1.0 5:0.25 6:0.0 7:0.0 8:0.0 9:0.0 10:1.0 11:0.0 12:0.0 13:0.0 14:0.040229885057471264 15:0.0 16:0.0029585798816568047 17:0.0 18:0.0 19:0.0 20:0.0 21:6.644415651638168E-16 22:0.0 23:0.013377926421404682 24:0.016736401673640166 25:0.0 26:1.0 27:0.0 28:1.0 29:0.02896521226415094 30:0.0 31:1.0 32:0.8333333333333334 33:0.0 34:0.9999999999999998 35:0.6666666666666666 36:0.018041237113402064 37:0.025 38:0.0 39:0.0 40:0.20625 41:0.1 42:0.875 43:0.019961288924869723 44:0.023385400875775782 45:0.00395889159110343 46:0.16802515934972403 47:0.8755321287881985 48:0.3152903239948075 49:0.025466203834579582 50:0.684078647058413 51:9.980253557420656E-4 52:0.004868040559824644 
-0.0 512.0 0.0 0.0 0.0 0.0 512.0 0.0 0.0 0:1.0 1:0.0 2:0.0 3:0.0 4:1.0 5:0.0 6:0.0 7:0.0 8:0.0 9:0.0 10:1.0 11:0.0 12:0.0 13:0.0 14:0.022988505747126436 15:0.0 16:0.0 17:0.0 18:1.0 19:1.0 20:0.0 21:6.644415651638168E-16 22:0.0 23:0.006688963210702341 24:0.008368200836820083 25:0.0 26:1.0 27:0.0 28:1.0 29:0.06923854447439352 30:0.0 31:1.0 32:1.0 33:0.0 34:0.9999999999999998 35:1.0 36:0.0036082474226804126 37:0.0 38:0.0 39:0.0 40:0.1541666666666666 41:0.2222222222222222 42:0.7777777777777778 43:0.04369961573984333 44:0.021167815004738907 45:1.652509680689067E-4 46:0.06211921473616628 47:0.6370416245721251 48:0.2381969492904165 49:0.02719613424019555 50:0.11753924326286183 51:0.0038168634687264402 52:0.004868040559824644 
-33.698985070098544 0.0 0.0 0.0 0.0 0.0 0.0 0.0 0.0 0:0.0 1:0.0 2:0.0 3:0.0 4:1.0 5:0.0 6:0.0 7:0.0 8:0.0 9:0.0 10:1.0 11:0.0 12:0.0 13:0.0 14:0.028735632183908046 15:0.0 16:0.0 17:0.0 18:0.0 19:0.5 20:0.0 21:6.644415651638168E-16 22:0.0 23:0.006688963210702341 24:0.008368200836820083 25:1.0 26:1.0 27:0.0 28:1.0 29:0.07474600870827286 30:0.0 31:1.0 32:1.0 33:0.0 34:0.9999999999999998 35:1.0 36:0.004639175257731959 37:0.0 38:0.0 39:0.0 40:0.1941666666666669 41:0.18181818181818182 42:0.8181818181818182 43:0.033570027707779844 44:0.02273606968491518 45:2.429838225455047E-4 46:0.045856988375238085 47:0.7457895115709311 48:0.31144344886542147 49:0.029850675398113164 50:0.1858884786386828 51:0.003039633590473884 52:0.004868040559824644 
-0.0 512.0 0.0 0.0 0.0 0.0 0.0 0.0 0.0 0:0.0 1:0.0 2:0.0 3:0.0 4:1.0 5:0.0 6:0.0 7:0.0 8:0.0 9:0.0 10:1.0 11:0.0 12:0.0 13:0.0 14:0.028735632183908046 15:0.0 16:0.0 17:0.0 18:0.0 19:0.5 20:0.0 21:6.644415651638168E-16 22:0.0 23:0.006688963210702341 24:0.008368200836820083 25:1.0 26:0.0 27:0.0038910505836575876 28:1.0 29:0.056603773584905655 30:0.0 31:1.0 32:1.0 33:0.0 34:0.9999999999999998 35:1.0 36:0.004639175257731959 37:0.0 38:0.0 39:0.0 40:0.19416666666666652 41:0.18181818181818182 42:0.8181818181818182 43:0.0811621304204057 44:0.01909645622772591 45:2.4280476298576778E-4 46:0.04582422781444937 47:0.891237219600708 48:0.22155272983221824 49:0.01767974258784519 50:0.18588429082939562 51:0.003039702070740409 52:0.004868040559824644 
-181.0722563406458 0.0 0.0 0.0 0.0 17.657908875754643 0.0 0.0 5.303940687112876 0:1.0 1:0.0 2:0.0 3:0.0 4:1.0 5:0.25 6:0.0 7:0.0 8:0.0 9:0.0 10:1.0 11:0.0 12:6.134969325153375E-4 13:0.0 14:0.028735632183908046 15:0.0 16:0.0 17:0.0 18:0.0 19:1.0 20:0.0 21:6.644415651638168E-16 22:0.0 23:0.010033444816053512 24:0.012552301255230124 25:0.0 26:1.0 27:0.0 28:1.0 29:0.02042238421955403 30:0.07037037037037037 31:1.0 32:0.3333333333333333 33:0.0 34:0.9999999999999998 35:1.0 36:0.005154639175257732 37:0.0 38:0.058823529411764705 39:0.0 40:0.24399999999999997 41:0.2 42:0.6666666666666666 43:0.020867778018494668 44:0.028363835637146985 45:0.0026352623200671054 46:0.212385008486234 47:0.8934290317055673 48:0.07054552805332774 49:0.005630357269124207 50:0.2895870122074641 51:0.0029328927676604854 52:0.004868040559824644 
-0.0 512.0 0.0 0.0 0.0 0.0 0.0 0.0 0.0 0:0.0 1:0.0 2:0.0 3:0.0 4:1.0 5:0.0 6:0.0 7:0.0 8:0.0 9:0.0 10:1.0 11:0.0 12:0.0 13:0.0 14:0.034482758620689655 15:0.0 16:0.0 17:0.0 18:0.0 19:1.0 20:0.0 21:6.644415651638168E-16 22:0.0 23:0.006688963210702341 24:0.008368200836820083 25:0.0 26:1.0 27:0.0 28:1.0 29:0.02208927749654855 30:0.0 31:1.0 32:1.0 33:0.0 34:1.0 35:1.0 36:0.005154639175257732 37:0.0 38:0.0 39:0.0 40:0.16666666666666666 41:0.16666666666666666 42:0.8333333333333334 43:0.01896358080295551 44:0.015856613925806902 45:1.536991928961552E-4 46:0.04265483705852244 47:0.9243613833983265 48:0.34639411777599716 49:0.02661279490665714 50:0.14726850139244657 51:0.0032933502100998993 52:0.004868040559824644 
-0.0 512.0 0.0 6.586550569806005 0.0 0.0 0.0 0.0 0.0 0:0.0 1:0.0 2:0.0 3:0.0 4:1.0 5:0.0 6:0.0 7:0.0 8:0.0 9:0.0 10:1.0 11:0.0 12:0.0 13:0.0 14:0.022988505747126436 15:0.0 16:0.0 17:0.0 18:0.0 19:1.0 20:0.0 21:6.644415651638168E-16 22:0.0 23:0.006688963210702341 24:0.008368200836820083 25:0.0 26:0.0 27:0.0019455252918287938 28:1.0 29:0.0394064465408805 30:0.0 31:1.0 32:1.0 33:0.0 34:0.9999999999999998 35:0.6666666666666666 36:0.007731958762886598 37:0.0 38:0.0 39:0.0 40:0.1391666666666664 41:0.11764705882352941 42:0.8823529411764706 43:0.019386894106110584 44:0.02855945754132138 45:2.0743832253504558E-4 46:0.058580489278163846 47:0.42300608395409856 48:0.3074005158392861 49:0.05292653589910947 50:0.17332295687254404 51:0.0023365666242897327 52:0.004868040559824644 
-0.0 512.0 0.0 0.0 0.0 0.0 36.174524469905855 0.0 0.0 0:0.0 1:0.0 2:1.0 3:0.0 4:1.0 5:0.0 6:0.0 7:0.0 8:0.0 9:0.0 10:1.0 11:0.0 12:0.0 13:0.0 14:0.028735632183908046 15:0.0 16:0.0 17:0.0 18:1.0 19:1.0 20:0.0 21:6.644415651638168E-16 22:1.0 23:0.006688963210702341 24:0.008368200836820083 25:1.0 26:1.0 27:0.0 28:1.0 29:0.03619375907111756 30:0.0 31:1.0 32:1.0 33:0.0 34:0.9999999999999998 35:1.0 36:0.004123711340206186 37:0.0 38:0.0 39:0.0 40:0.15277777777777776 41:0.2 42:0.8 43:0.011533505889328513 44:0.02484152237882418 45:9.143821150713246E-5 46:0.033714285714283795 47:0.5359228819722834 48:0.1144466661633296 49:0.016313803610393973 50:0.12092299316689117 51:0.003676633444075335 52:0.004868040559824644 
-0.0 512.0 0.0 0.0 0.0 0.0 17.904357796255873 0.0 0.0 0:0.0 1:0.0 2:1.0 3:0.0 4:1.0 5:0.0 6:0.0 7:0.0 8:0.0 9:0.0 10:1.0 11:0.0 12:0.0 13:0.0 14:0.017241379310344827 15:0.0 16:0.0 17:0.0 18:0.0 19:1.0 20:0.0 21:6.644415651638168E-16 22:0.0 23:0.006688963210702341 24:0.008368200836820083 25:0.0 26:0.0 27:0.0019455252918287938 28:1.0 29:0.02801600914808462 30:0.0 31:1.0 32:1.0 33:0.0 34:0.9999999999999998 35:0.6666666666666666 36:0.008247422680412371 37:0.0 38:0.0 39:0.0 40:0.16666666666666666 41:0.1111111111111111 42:0.8888888888888888 43:0.06697329562946833 44:0.01939754459414679 45:3.455670186948491E-4 46:0.05493342020605018 47:0.7529048336531278 48:0.2888833954792215 49:0.0275446142532228 50:0.2571000816622811 51:0.0018864511705562253 52:0.004868040559824644 
-0.0 512.0 0.0 0.0 0.0 0.0 512.0 0.0 0.0 0:1.0 1:0.0 2:0.0 3:0.0 4:1.0 5:0.0 6:0.0 7:0.0 8:0.0 9:0.0 10:1.0 11:0.0 12:0.0 13:0.0 14:0.04597701149425287 15:0.0 16:0.0 17:0.0 18:1.0 19:1.0 20:0.0 21:6.644415651638168E-16 22:0.0 23:0.006688963210702341 24:0.008368200836820083 25:0.0 26:1.0 27:0.0 28:1.0 29:0.02548480083857442 30:0.0 31:1.0 32:1.0 33:0.0 34:0.9999999999999998 35:1.0 36:0.007731958762886598 37:0.0 38:0.0 39:0.0 40:0.16666666666666666 41:0.11764705882352941 42:0.8823529411764706 43:0.020276279631931224 44:0.02227138424076851 45:1.6046195738359212E-4 46:0.02996899758870248 47:0.6538302102699926 48:0.26167396911296587 49:0.028949049556350723 50:0.21882978649152318 51:0.002216365321092606 52:0.004868040559824644 
-75.20901570266473 191.58206500153526 0.0 0.0 0.0 0.0 258.53656248871573 0.0 0.0 0:1.0 1:0.0 2:1.0 3:0.0 4:1.0 5:0.0 6:0.0 7:0.0 8:0.0 9:0.0 10:1.0 11:0.0 12:0.0 13:0.0 14:0.028735632183908046 15:0.0 16:0.0 17:0.0 18:1.0 19:1.0 20:0.0 21:6.644415651638168E-16 22:0.0 23:0.010033444816053512 24:0.012552301255230124 25:0.0 26:1.0 27:0.0 28:1.0 29:0.09787735849056603 30:0.0 31:1.0 32:1.0 33:0.0 34:0.9999999999999998 35:1.0 36:0.00979381443298969 37:0.0 38:0.0 39:0.0 40:0.18055555555555555 41:0.13636363636363635 42:0.8636363636363636 43:0.030544121503745695 44:0.04496822821721729 45:3.5849055916420777E-4 46:0.04284321334049713 47:0.34266363503225666 48:0.2254166534743651 49:0.048150859574799525 50:0.31567497016185886 51:0.0016644461196886528 52:0.004868040559824644 
-511.56285661918946 393.26139894310165 0.0 0.0 0.0 0.0 3.7649615364664997 0.0 0.0 0:1.0 1:0.0 2:0.0 3:0.0 4:1.0 5:0.0 6:0.0 7:0.0 8:0.0 9:0.0 10:1.0 11:0.0 12:0.0 13:0.0 14:0.028735632183908046 15:0.0 16:0.0 17:0.0 18:0.0 19:0.0 20:0.0 21:6.644415651638168E-16 22:0.0 23:0.013377926421404682 24:0.016736401673640166 25:0.0 26:1.0 27:0.0 28:1.0 29:0.031053459119496855 30:0.0 31:1.0 32:0.8 33:0.0 34:0.9999999999999998 35:0.8 36:0.013402061855670104 37:0.0 38:0.02857142857142857 39:0.0 40:0.15000000000000008 41:0.12903225806451613 42:0.8387096774193549 43:0.014538032633607376 44:0.014893264934635112 45:5.664583754187824E-4 46:0.06694348629252454 47:0.8866041309328482 48:0.11683589345166623 49:0.009490808423853364 50:0.38425872285776097 51:0.0011359692026127386 52:0.004868040559824644 
-0.0 157.40791717754945 0.0 12.07707982436245 0.0 0.0 0.0 0.0 0.0 0:0.0 1:0.0 2:0.0 3:0.0 4:1.0 5:0.0 6:0.0 7:1.0 8:0.0 9:0.0 10:1.0 11:0.0 12:0.0 13:0.0 14:0.04597701149425287 15:0.0 16:0.0 17:0.0 18:0.0 19:1.0 20:0.0 21:6.644415651638168E-16 22:0.0 23:0.006688963210702341 24:0.008368200836820083 25:0.0 26:1.0 27:0.0 28:1.0 29:0.14083557951482478 30:0.0 31:1.0 32:1.0 33:0.0 34:0.9999999999999998 35:1.0 36:0.006701030927835052 37:0.0 38:0.0 39:0.0 40:0.18055555555555555 41:0.13333333333333333 42:0.8666666666666667 43:0.2841871814460497 44:0.02670885295749183 45:3.463355146593204E-5 46:0.007492975335622507 47:0.587954217686906 48:0.7242378705920461 49:0.08733675367012692 50:0.17437619090826603 51:0.0030131635312824713 52:0.004868040559824644 
-0.0 512.0 39.741560239057335 78.88991586916887 201.23110714882196 0.0 0.0 0.0 0.0 0:0.0 1:0.0 2:0.0 3:0.0 4:1.0 5:0.0 6:0.0 7:0.0 8:0.0 9:0.0 10:1.0 11:0.0 12:0.0 13:0.0 14:0.028735632183908046 15:0.0 16:0.0 17:0.0 18:0.0 19:0.0 20:0.0 21:6.644415651638168E-16 22:0.0 23:0.016722408026755852 24:0.008368200836820083 25:0.0 26:0.0 27:0.0019455252918287938 28:1.0 29:0.06446540880503145 30:0.0 31:1.0 32:0.6666666666666666 33:0.0 34:0.9999999999999998 35:0.6666666666666666 36:0.006701030927835052 37:0.0 38:0.0 39:0.0 40:0.1533333333333336 41:0.25 42:0.65 43:0.10620175368581884 44:0.01634514309402902 45:2.7432231948105383E-4 46:0.053449415913598426 47:0.824585529075641 48:0.37603539271249137 49:0.03256772801151043 50:0.22800108883041464 51:0.0019570354347458567 52:0.004868040559824644 
-512.0 512.0 0.0 0.0 0.0 0.0 0.0 0.0 0.0 0:0.0 1:0.0 2:0.0 3:0.0 4:1.0 5:0.0 6:0.0 7:0.0 8:0.0 9:0.0 10:1.0 11:0.0 12:0.0 13:0.0 14:0.04597701149425287 15:0.0 16:0.0 17:0.0 18:0.0 19:0.0 20:0.0 21:6.644415651638168E-16 22:0.0 23:0.020066889632107024 24:0.016736401673640166 25:0.0 26:1.0 27:0.0 28:1.0 29:0.026280323450134768 30:0.0 31:1.0 32:0.6666666666666666 33:0.0 34:0.9999999999999998 35:0.6666666666666666 36:0.01958762886597938 37:0.0 38:0.0 39:0.0 40:0.16666666666666657 41:0.12244897959183673 42:0.7755102040816326 43:0.029123100078676425 44:0.019795675634657586 45:7.482076710184817E-4 46:0.04834544948953237 47:0.737462859582538 48:0.12345680515741864 49:0.012320419740994517 50:0.6325183391148367 51:7.667868581970955E-4 52:0.004868040559824644 
-0.0 238.7650459025456 0.0 0.0 0.0 0.0 0.0 0.0 0.0 0:0.0 1:0.0 2:0.0 3:0.0 4:1.0 5:0.0 6:0.0 7:0.0 8:0.0 9:0.0 10:1.0 11:0.0 12:0.0 13:0.0 14:0.034482758620689655 15:0.0 16:0.0 17:0.0 18:0.0 19:1.0 20:0.0 21:6.644415651638168E-16 22:0.0 23:0.006688963210702341 24:0.008368200836820083 25:0.0 26:1.0 27:0.0 28:1.0 29:0.1981132075471698 30:0.0 31:1.0 32:1.0 33:0.0 34:0.9999999999999998 35:1.0 36:0.006185567010309279 37:0.0 38:0.0 39:0.0 40:0.22249999999999973 41:0.14285714285714285 42:0.8571428571428571 43:0.12151657335720234 44:0.0308442308580934 45:2.896576564522721E-4 46:0.03665809724133762 47:0.6247334701871357 48:0.4933303782577881 49:0.055958916437246535 50:0.24190252175915908 51:0.0026766319199317537 52:0.004868040559824644 
-0.0 0.0 0.0 0.0 0.0 0.0 153.3730793029495 0.0 0.0 0:0.0 1:0.0 2:0.0 3:0.0 4:1.0 5:0.0 6:0.0 7:0.0 8:0.0 9:0.0 10:1.0 11:0.0 12:0.0 13:0.0 14:0.034482758620689655 15:0.0 16:0.0 17:0.0 18:0.0 19:1.0 20:0.0 21:6.644415651638168E-16 22:0.0 23:0.03678929765886287 24:0.008368200836820083 25:0.0 26:1.0 27:0.0 28:1.0 29:0.0040668843734881464 30:0.0 31:1.0 32:1.0 33:0.0 34:0.9999999999999998 35:1.0 36:0.0 37:0.0 38:0.0 39:0.0 40:0.12575757575757548 41:1.0 42:0.0 43:0.03786302322664508 44:0.01577807610029071 45:9.39563166174202E-4 46:0.24258257384357076 47:0.9290366700342301 48:0.13889423346233373 49:0.010651901233914686 50:0.15829709715019574 51:0.0030639017311967906 52:0.004868040559824644 
