svm_type c_svc
kernel_type rbf
gamma 0.5
nr_class 5
total_sv 4835
rho -1.8296164447332324 -0.6058039234568382 -1.732631476351465 -1.0749452727705553 1.4088087100108013 0.19201704695156796 -0.4130543401034891 -1.1374484906641238 -1.9235828901183185 -0.8735046750898814
label 17 26 24 22 20
nr_sv 2051 323 1996 420 45
SV
0.0 5.230061045098439 0.0 0.0 0:0.0 1:0.0 2:1.0 3:0.0 4:0.0 5:0.0 6:0.0 7:0.0 8:0.0 9:0.0 10:1.0 11:0.0 12:0.0 13:0.0 14:0.0 15:0.0 16:0.0 17:0.0 18:0.018518518518518517 19:0.0 20:0.0 21:0.004340277777777778 22:0.0 23:0.0 24:0.0 25:0.0 26:0.005988023952095808 27:8.635578583765112E-4 28:0.0 29:0.0 30:0.0035971223021582736 31:0.0 32:2.141144227485387E-6 33:1.3415358689087394E-6 34:0.008849557522123894 35:0.05945945945945946 36:0.05405405405405406 37:4.082008664830178E-6 38:0.011538461538461539 39:0.39285714285714285 40:0.0038461538461538464 41:0.6428571428571429 42:0.019230769230769232 43:0.060837503292072694 44:0.1479591836734694 45:1.1326988794829181E-4 46:0.046153846153846156 47:0.017421602787456445 48:1.0 49:0.08608490566037735 50:1.0 51:0.02013888888888887 52:0.19823879486702622 53:0.9999999999999998 54:0.013271372799101733 55:0.008098447517092492 56:0.2147711767954861 57:0.5863844897486681 58:0.5734693672816283 59:0.25556163769189505 60:0.6764286966111756 61:0.001206024710337066 62:0.01394551965272724 
0.0 8.0 0.0 0.0 0:0.0 1:0.0 2:1.0 3:0.0 4:0.0 5:0.0 6:0.0 7:0.0 8:0.0 9:0.0 10:1.0 11:0.0 12:0.0 13:0.0 14:0.0 15:0.0 16:0.0 17:0.0 18:0.0 19:0.0 20:0.0 21:0.0 22:0.0 23:0.0 24:0.0 25:0.0 26:0.005988023952095808 27:0.0 28:0.0 29:0.0 30:0.0017985611510791368 31:0.0 32:0.0 33:2.0589521004029767E-15 34:0.004424778761061947 35:0.03783783783783784 36:0.03153153153153153 37:0.0 38:0.011029411764705881 39:0.3333333333333333 40:0.0 41:0.6666666666666666 42:0.0 43:0.03344745851988412 44:0.0977891156462585 45:0.05008025064702751 46:0.051470588235294115 47:0.01282051282051282 48:1.0 49:0.056603773584905655 50:1.0 51:0.023667800453514697 52:0.19823879486702622 53:0.9999999999999998 54:0.01336443565008977 55:0.005916683559028179 56:0.21260113221706764 57:0.5964319778137371 58:0.6227528315325889 59:0.2771807594602893 60:0.6521470753124827 61:8.901472396143325E-4 62:0.013445208882984883 
0.0 4.726515999558828 0.0 0.0 0:0.0 1:0.0 2:1.0 3:0.0 4:0.0 5:0.0 6:0.0 7:0.0 8:0.0 9:0.0 10:1.0 11:0.0 12:1.0 13:0.0 14:0.0 15:0.0 16:0.0 17:0.0 18:0.0 19:0.0 20:0.0 21:8.680555555555555E-4 22:0.0 23:1.0 24:0.0 25:0.0 26:0.005988023952095808 27:8.635578583765112E-4 28:1.0 29:0.0 30:0.0035971223021582736 31:0.0 32:0.030444929770469392 33:0.03815059698346286 34:0.0 35:0.032432432432432434 36:0.02702702702702703 37:0.054224544203449535 38:0.0 39:0.25 40:0.006369426751592357 41:0.5416666666666666 42:0.006369426751592357 43:0.03818804319199368 44:0.09895833333333334 45:0.4359651128745121 46:0.03821656050955414 47:0.011111111111111112 48:1.0 49:0.08608490566037735 50:1.0 51:0.023667800453514697 52:0.19823879486702622 53:0.9999999999999998 54:0.01336443565008977 55:0.017715969580984023 56:0.4094657054022665 57:0.5807284523219324 58:0.6619528796861989 59:0.29437660044347064 60:0.5156672599353838 61:0.0013838907312778235 62:0.010633057701245186 
0.0 8.0 0.0 0.0 0:0.0 1:0.0 2:1.0 3:0.0 4:0.0 5:0.0 6:0.0 7:0.0 8:0.0 9:0.0 10:1.0 11:0.0 12:0.0 13:0.0 14:0.0 15:0.0 16:0.0 17:0.0 18:0.0 19:0.0 20:0.0 21:0.0 22:1.0 23:0.0 24:0.0 25:0.0 26:0.01996007984031936 27:0.0 28:0.0 29:1.0 30:0.0 31:1.0 32:0.0 33:2.0589521004029767E-15 34:0.0 35:0.005405405405405406 36:0.04054054054054054 37:0.0 38:0.0 39:1.0 40:0.0 41:1.0 42:0.0 43:0.0 44:0.14285714285714285 45:0.0 46:1.0 47:0.0 48:1.0 49:0.016917634252539913 50:1.0 51:0.0211734693877551 52:0.15873535428677704 53:0.9999999999999998 54:0.014235564960158447 55:2.519986137929264E-4 56:0.16264319790135187 57:0.7057916816613525 58:0.30057383051935677 59:0.11748113700834513 60:0.09453015648932096 61:0.0025377628266319836 62:0.01394640368836839 
0.0 0.0 0.0 0.03768912568571762 0:0.0 1:0.0 2:1.0 3:0.0 4:0.0 5:0.0 6:0.0 7:0.0 8:0.0 9:0.0 10:1.0 11:0.0 12:0.0 13:0.0 14:0.0 15:1.0 16:0.0 17:0.0 18:0.0 19:0.0 20:0.0 21:0.0 22:1.0 23:0.0 24:0.0 25:0.0 26:0.0 27:0.0 28:0.0 29:1.0 30:0.0 31:0.0 32:0.0 33:2.0589521004029767E-15 34:0.0 35:0.0 36:0.0 37:0.0 38:0.0 39:0.0 40:0.0 41:0.0 42:0.0 43:0.0 44:0.0 45:0.0 46:0.0 47:0.0 48:1.0 49:0.02208927749654855 50:1.0 51:0.015306122448979368 52:0.15873721405988472 53:0.36138207082828244 54:0.026077431343263072 55:0.0 56:0.0 57:0.7064095046594677 58:0.689953451510318 59:0.26725566906852605 60:0.0057411093723869775 61:0.03020638446615272 62:0.01394640368836839 
1.9902926407469508 0.0 0.0 0.0 0:0.0 1:0.0 2:1.0 3:0.0 4:0.0 5:0.0 6:0.0 7:0.0 8:0.0 9:0.0 10:1.0 11:0.0 12:0.0 13:0.0 14:0.0 15:1.0 16:0.0 17:0.0 18:0.0 19:0.0 20:0.0 21:0.006076388888888888 22:0.0 23:0.0 24:0.0 25:0.0 26:0.0 27:0.007772020725388601 28:0.0 29:0.14285714285714285 30:0.00539568345323741 31:0.0 32:0.0 33:2.0589521004029767E-15 34:0.02654867256637168 35:0.12432432432432433 36:0.11261261261261261 37:0.0 38:0.03345724907063197 39:0.6571428571428571 40:0.03345724907063197 41:0.37142857142857144 42:0.026022304832713755 43:0.05557018698972874 44:0.11938775510204083 45:0.2726833636454951 46:0.09293680297397769 47:0.07260726072607261 48:1.0 49:0.0954325816843074 50:1.0 51:0.023667800453514697 52:0.19567230797842666 53:0.9999999999999998 54:0.006499143364084744 55:0.014174603800258355 56:0.24489868924247102 57:0.6595254213401852 58:0.735925101072421 59:0.2848871201673405 60:0.6574550597909464 61:0.001617493977162619 62:0.0126726815834292 
0.0 8.0 0.0 0.0 0:0.0 1:0.0 2:1.0 3:0.0 4:0.0 5:0.0 6:0.0 7:1.0 8:1.0 9:0.0 10:1.0 11:0.0 12:0.0 13:0.0 14:0.0 15:0.0 16:0.0 17:0.0 18:0.0 19:0.0 20:0.0 21:8.680555555555555E-4 22:1.0 23:0.0 24:0.0 25:0.0 26:0.001996007984031936 27:0.0 28:1.0 29:1.0 30:0.0 31:0.0 32:0.0 33:2.0589521004029767E-15 34:0.0 35:0.0 36:0.0 37:0.0 38:0.0 39:0.0 40:0.0 41:0.0 42:1.0 43:0.0 44:0.0 45:0.0 46:0.0 47:0.0 48:1.0 49:0.0394064465408805 50:1.0 51:0.021258503401360547 52:0.0796336246977869 53:0.2872866755318332 54:0.025975214769226943 55:0.0 56:0.0 57:0.6104204467954993 58:0.3813866233284177 59:0.17215994647289104 60:0.009448865949349601 61:0.025490736415436258 62:0.01394640368836839 
0.0 8.0 0.0 0.0 0:0.0 1:0.0 2:1.0 3:0.0 4:0.0 5:0.0 6:0.0 7:0.0 8:0.0 9:0.0 10:1.0 11:0.0 12:0.0 13:0.0 14:0.0 15:0.0 16:0.0 17:0.0 18:0.0 19:0.0 20:0.0 21:0.0 22:0.0 23:0.0 24:0.0 25:0.0 26:0.001996007984031936 27:0.0 28:0.0 29:0.0 30:0.0 31:0.0 32:0.0 33:2.0589521004029767E-15 34:0.0 35:0.016216216216216217 36:0.013513513513513514 37:0.0 38:0.0 39:0.6 40:0.0 41:0.8 42:0.0 43:0.013695022386094286 44:0.18214285714285713 45:0.0 46:0.05357142857142857 47:0.016666666666666666 48:1.0 49:0.0394064465408805 50:1.0 51:0.021258503401360547 52:0.12181327877998888 53:0.7683796092979831 54:0.025975214769226943 55:3.0637749493304175E-4 56:0.03771515036882902 57:0.6104204467954993 58:0.3813866233284177 59:0.17215994647289104 60:0.4936378880850921 61:4.879255769325043E-4 62:0.01394640368836839 
0.0 8.0 0.0 0.0 0:0.0 1:0.0 2:1.0 3:0.0 4:0.0 5:0.0 6:0.0 7:1.0 8:1.0 9:0.0 10:1.0 11:0.0 12:0.0 13:0.0 14:0.0 15:0.0 16:0.0 17:0.0 18:0.0 19:0.0 20:0.0 21:8.680555555555555E-4 22:1.0 23:0.0 24:0.0 25:0.0 26:0.005988023952095808 27:0.0 28:1.0 29:1.0 30:0.0 31:1.0 32:0.0 33:2.0589521004029767E-15 34:0.0 35:0.0 36:0.0 37:0.0 38:0.0 39:0.0 40:0.0 41:0.0 42:1.0 43:0.0 44:0.0 45:0.0 46:0.0 47:0.0 48:1.0 49:0.026280323450134768 50:1.0 51:0.021258503401360547 52:0.0796336246977869 53:0.29170317659788764 54:0.02597521476922703 55:0.0 56:0.0 57:0.6595178715683142 58:0.3650068719214294 59:0.15236931442228352 60:0.009448865949349601 61:0.025490736415436258 62:0.01394640368836839 
0.0 8.0 0.0 0.0 0:0.0 1:0.0 2:1.0 3:0.0 4:0.0 5:0.0 6:0.0 7:0.0 8:0.0 9:0.0 10:1.0 11:0.0 12:0.0 13:0.0 14:0.0 15:0.0 16:0.0 17:0.0 18:0.0 19:0.0 20:0.0 21:0.0 22:0.0 23:0.0 24:0.0 25:0.0 26:0.011976047904191616 27:0.0 28:0.0 29:0.0 30:0.0 31:1.0 32:0.0 33:2.0589521004029767E-15 34:0.0 35:0.010810810810810811 36:0.009009009009009009 37:0.0 38:0.0 39:0.6666666666666666 40:0.0 41:0.6666666666666666 42:0.0 43:0.005003950487226758 44:0.10714285714285715 45:0.0 46:0.09523809523809523 47:0.0 48:1.0 49:0.026280323450134768 50:1.0 51:0.021258503401360547 52:0.08491166077738516 53:0.8228781743702868 54:0.02081709183167523 55:1.2322705663806322E-4 56:0.04728216012262655 57:0.6595178715683142 58:0.25095931019953654 59:0.10577809597951798 60:0.15837120971627258 61:0.0015208480870428905 62:0.01394640368836839 
0.0 0.6438227971979757 0.0 0.0 0:0.0 1:0.0 2:1.0 3:0.0 4:0.0 5:0.0 6:0.0 7:0.0 8:0.0 9:0.0 10:1.0 11:0.0 12:0.0 13:0.0 14:0.0 15:0.0 16:0.0 17:0.0 18:0.0 19:0.0 20:0.0 21:0.0 22:0.0 23:0.0 24:0.0 25:0.0 26:0.015968063872255488 27:0.0 28:0.0 29:1.0 30:0.0 31:1.0 32:0.0 33:2.0589521004029767E-15 34:0.0 35:0.010810810810810811 36:0.009009009009009009 37:0.0 38:0.0 39:0.6666666666666666 40:0.0 41:1.0 42:0.0 43:0.005530682117461154 44:0.11904761904761904 45:0.0 46:0.08695652173913043 47:0.0 48:1.0 49:0.026280323450134768 50:1.0 51:0.021258503401360547 52:0.08491166077738516 53:0.8239214053686394 54:0.02081709183167523 55:1.2291975724495162E-4 56:0.04175801231861346 57:0.6595178715683142 58:0.07168116290968188 59:0.03253858786303283 60:0.1788748753533988 61:0.001346519743836596 62:0.01394640368836839 
0.0 8.0 0.0 0.0 0:0.0 1:0.0 2:1.0 3:0.0 4:0.0 5:0.0 6:0.0 7:1.0 8:1.0 9:0.0 10:1.0 11:0.0 12:0.0 13:0.0 14:0.0 15:0.0 16:0.0 17:0.0 18:0.0 19:0.0 20:0.0 21:8.680555555555555E-4 22:1.0 23:0.0 24:0.0 25:0.0 26:0.015968063872255488 27:0.0 28:1.0 29:1.0 30:0.0 31:1.0 32:0.0 33:2.0589521004029767E-15 34:0.0 35:0.0 36:0.0 37:0.0 38:0.0 39:0.0 40:0.0 41:0.0 42:1.0 43:0.0 44:0.0 45:0.0 46:0.0 47:0.0 48:1.0 49:0.026280323450134768 50:1.0 51:0.021258503401360547 52:0.04273014692207552 53:0.2160824645550174 54:0.02597521476922703 55:0.0 56:0.0 57:0.6595178715683142 58:0.5768802479910915 59:0.23892477073917992 60:0.009448865949349588 61:0.0254907364154363 62:0.01394640368836839 
8.0 0.0 3.501426566989296 0.0 0:0.0 1:0.0 2:1.0 3:0.0 4:0.0 5:0.0 6:0.0 7:0.0 8:0.0 9:0.0 10:1.0 11:0.0 12:0.0 13:0.0 14:0.0 15:0.0 16:0.0 17:1.0 18:0.0 19:0.0 20:0.0 21:0.0 22:0.0 23:1.0 24:0.0 25:0.0 26:0.015968063872255488 27:0.0 28:0.0 29:0.0 30:0.0017985611510791368 31:1.0 32:0.04856115107913668 33:0.04563905019260817 34:0.004424778761061947 35:0.02702702702702703 36:0.02702702702702703 37:0.22485922537762568 38:0.010948905109489052 39:0.3125 40:0.0 41:0.625 42:0.0 43:0.03371082433500132 44:0.13504464285714285 45:0.08082127080265597 46:0.043795620437956206 47:0.019736842105263157 48:1.0 49:0.05491913746630727 50:1.0 51:0.021258503401360613 52:0.0427320066951832 53:0.9999999999999998 54:0.02597521476922703 55:0.008364791128329377 56:0.29479226384924584 57:0.6427913519879808 58:0.6095168587795066 59:0.2522576245022663 60:0.633353085903346 61:8.570528355388424E-4 62:0.015480409709981208 
0.0 8.0 0.0 0.0 0:0.0 1:0.0 2:1.0 3:0.0 4:0.0 5:0.0 6:0.0 7:1.0 8:1.0 9:0.0 10:1.0 11:0.0 12:0.0 13:0.0 14:0.0 15:0.0 16:0.0 17:0.0 18:0.0 19:0.0 20:0.0 21:8.680555555555555E-4 22:1.0 23:0.0 24:0.0 25:0.0 26:0.021956087824351295 27:0.0 28:1.0 29:1.0 30:0.0 31:1.0 32:0.0 33:2.0589521004029767E-15 34:0.0 35:0.0 36:0.0 37:0.0 38:0.0 39:0.0 40:0.0 41:0.0 42:1.0 43:0.0 44:0.0 45:0.0 46:0.0 47:0.0 48:1.0 49:0.026280323450134768 50:1.0 51:0.021258503401360547 52:0.07962432583224849 53:0.28227799588990243 54:0.02597521476922703 55:0.0 56:0.0 57:0.6595178715683142 58:0.36508085793681844 59:0.15239953951918744 60:0.009448865949349601 61:0.025490736415436258 62:0.01394640368836839 
5.193049138748527 8.0 0.0 0.0 0:0.0 1:0.0 2:1.0 3:0.0 4:0.0 5:0.0 6:0.0 7:0.0 8:0.0 9:0.0 10:1.0 11:0.0 12:0.0 13:0.0 14:0.0 15:0.0 16:0.0 17:0.0 18:0.1111111111111111 19:0.0 20:0.0 21:0.006944444444444444 22:0.0 23:0.0 24:0.0 25:0.0 26:0.021956087824351295 27:0.0 28:0.0 29:0.3333333333333333 30:0.0 31:1.0 32:0.0 33:2.0589521004029767E-15 34:0.004424778761061947 35:0.005405405405405406 36:0.009009009009009009 37:0.0 38:0.03125 39:0.3333333333333333 40:0.0 41:0.3333333333333333 42:0.16666666666666666 43:0.008954437713984725 44:0.26785714285714285 45:0.0 46:0.041666666666666664 47:0.04 48:1.0 49:0.026280323450134768 50:1.0 51:0.021258503401360547 52:0.12180397991445047 53:0.758895403752199 54:0.020815566211167223 55:1.2322705663806623E-4 56:0.02012143108033547 57:0.6595178715683142 58:0.3977174687252335 59:0.1657323932822738 60:0.37214713340827693 61:6.472132383065259E-4 62:0.01394640368836839 
8.0 0.19474390282859902 8.0 0.0 0:0.0 1:0.0 2:1.0 3:0.0 4:0.0 5:0.0 6:0.0 7:0.0 8:0.0 9:0.0 10:1.0 11:0.0 12:0.0 13:0.0 14:0.0 15:0.0 16:0.0 17:0.0 18:0.1111111111111111 19:0.0 20:0.0 21:0.006944444444444444 22:0.0 23:0.0 24:0.0 25:0.0 26:0.02395209580838323 27:0.0 28:0.0 29:0.0 30:0.0 31:1.0 32:0.0 33:2.0589521004029767E-15 34:0.004424778761061947 35:0.021621621621621623 36:0.03153153153153153 37:0.0 38:0.044117647058823525 39:0.6666666666666666 40:0.0 41:0.6666666666666666 42:0.23529411764705882 43:0.003950487226757967 44:0.08333333333333334 45:0.0 46:0.20588235294117646 47:0.05128205128205128 48:1.0 49:0.026280323450134768 50:1.0 51:0.021258503401360547 52:0.0849098010042775 53:0.8127965039804003 54:0.020815566211167244 55:3.0791399189860355E-4 56:0.06871485392950177 57:0.6595178715683142 58:0.39762843470671444 59:0.1656960207080335 60:0.27229913690398383 61:8.845365948574101E-4 62:0.01394640368836839 
0.0 5.331962029182553 0.0 0.0 0:0.0 1:0.0 2:1.0 3:0.0 4:0.0 5:0.0 6:0.0 7:1.0 8:1.0 9:0.0 10:1.0 11:0.0 12:0.0 13:0.0 14:0.0 15:0.0 16:0.0 17:0.0 18:0.0 19:0.0 20:0.0 21:8.680555555555555E-4 22:1.0 23:0.0 24:0.0 25:0.0 26:0.02395209580838323 27:0.0 28:1.0 29:1.0 30:0.0 31:0.0 32:0.0 33:2.0589521004029767E-15 34:0.0 35:0.0 36:0.0 37:0.0 38:0.0 39:0.0 40:0.0 41:0.0 42:1.0 43:0.0 44:0.0 45:0.0 46:0.0 47:0.0 48:1.0 49:0.026280323450134768 50:1.0 51:0.01889644746787604 52:0.04273014692207552 53:0.22973175156317205 54:0.028876944975445143 55:0.0 56:0.0 57:0.6607761668801576 58:0.6148864878963894 59:0.2544512493318035 60:0.007784836416767599 61:0.02750173267848778 62:0.01394640368836839 
0.0 8.0 0.0 0.0 0:0.0 1:0.0 2:1.0 3:0.0 4:0.0 5:0.0 6:0.0 7:1.0 8:1.0 9:0.0 10:1.0 11:0.0 12:0.0 13:0.0 14:0.0 15:0.0 16:0.0 17:0.0 18:0.0 19:0.0 20:0.0 21:8.680555555555555E-4 22:1.0 23:0.0 24:0.0 25:0.0 26:0.02594810379241517 27:0.0 28:1.0 29:1.0 30:0.0 31:1.0 32:0.0 33:2.0589521004029767E-15 34:0.0 35:0.0 36:0.0 37:0.0 38:0.0 39:0.0 40:0.0 41:0.0 42:1.0 43:0.0 44:0.0 45:0.0 46:0.0 47:0.0 48:1.0 49:0.02548480083857442 50:1.0 51:0.021258503401360547 52:0.07960758787427935 53:0.28203550923915666 54:0.02765339732802823 55:0.0 56:0.0 57:0.6595178715683142 58:0.23464100480532898 59:0.0991116690979748 60:0.009448865949349601 61:0.025490736415436258 62:0.01394640368836839 
8.0 0.0 0.0 0.0 0:0.0 1:0.0 2:1.0 3:0.0 4:0.0 5:0.0 6:0.0 7:0.0 8:0.0 9:0.0 10:1.0 11:0.0 12:0.0 13:0.0 14:0.0 15:0.0 16:0.0 17:0.0 18:0.0 19:0.0 20:0.0 21:0.0 22:0.0 23:0.0 24:0.0 25:0.0 26:0.0279441117764471 27:0.0 28:0.0 29:0.0 30:0.0 31:1.0 32:0.0 33:2.0589521004029767E-15 34:0.0 35:0.010810810810810811 36:0.009009009009009009 37:0.0 38:0.0 39:0.6666666666666666 40:0.0 41:0.6666666666666666 42:0.0 43:0.00842770608375033 44:0.18452380952380953 45:0.0 46:0.058823529411764705 47:0.0 48:1.0 49:0.01852397798742138 50:1.0 51:0.021258503401360547 52:0.08491166077738516 53:0.8161202127236153 54:0.02081709183167523 55:1.2380751104727427E-4 56:0.03025397990855326 57:0.6595178715683142 58:0.07168116290968188 59:0.03253858786303283 60:0.24867489718081864 61:9.685680141832991E-4 62:0.01394640368836839 
0.1911245084995645 0.0 0.0 0.0 0:0.0 1:0.0 2:1.0 3:0.0 4:0.0 5:0.0 6:0.0 7:0.0 8:0.0 9:0.0 10:1.0 11:0.0 12:0.0 13:0.0 14:0.0 15:0.0 16:0.0 17:0.0 18:0.0 19:0.0 20:0.0 21:0.0 22:0.0 23:0.0 24:0.0 25:0.0 26:0.0279441117764471 27:0.0 28:0.0 29:0.0 30:0.0017985611510791368 31:1.0 32:0.0 33:2.0589521004029767E-15 34:0.004424778761061947 35:0.02702702702702703 36:0.03153153153153153 37:0.0 38:0.015957446808510637 39:0.7142857142857143 40:0.0 41:0.5714285714285714 42:0.0 43:0.022386094284961813 44:0.22193877551020408 45:0.35195305070002936 46:0.07446808510638298 47:0.02 48:1.0 49:0.0394064465408805 50:1.0 51:0.021258503401360547 52:0.04273014692207552 53:0.9999999999999998 54:0.02593707425652697 55:0.00985648790555635 56:0.4560672264166313 57:0.6431650656955984 58:0.10428642369157612 59:0.04585863438166837 60:0.3665076916756611 61:0.0010954780392847894 62:0.009512304183750568 
2.7429639204179725 8.0 0.0 0.0 0:0.0 1:0.0 2:1.0 3:0.0 4:0.0 5:0.0 6:0.0 7:0.0 8:0.0 9:0.0 10:1.0 11:0.0 12:0.0 13:0.0 14:0.0 15:0.0 16:0.0 17:0.0 18:0.0 19:0.0 20:0.0 21:0.0 22:0.0 23:0.0 24:0.0 25:0.0 26:0.03792415169660678 27:0.0 28:0.0 29:0.0 30:0.0 31:1.0 32:0.0 33:2.0589521004029767E-15 34:0.0 35:0.010810810810810811 36:0.009009009009009009 37:0.0 38:0.0 39:0.6666666666666666 40:0.0 41:1.0 42:0.0 43:0.006847511193047143 44:0.1488095238095238 45:0.0 46:0.07142857142857142 47:0.0 48:1.0 49:0.018097805159799765 50:1.0 51:0.021258503401360547 52:0.12181327877998888 53:0.7553873141342181 54:0.020815566211167244 55:1.2291975724495162E-4 56:0.03576857730483755 57:0.6595178715683142 58:0.07168116290968188 59:0.03253858786303283 60:0.20882740693987462 61:0.0011533857306814587 62:0.01394640368836839 
0.0 0.18806449687317686 0.0 0.0 0:0.0 1:0.0 2:1.0 3:0.0 4:0.0 5:0.0 6:0.0 7:0.0 8:0.0 9:0.0 10:1.0 11:0.0 12:0.0 13:0.0 14:1.0 15:0.0 16:0.0 17:0.0 18:0.0 19:0.0 20:0.0 21:0.0 22:0.0 23:0.0 24:0.0 25:0.0 26:0.04391217564870259 27:0.0 28:0.0 29:0.0 30:0.0017985611510791368 31:1.0 32:0.0 33:2.0589521004029767E-15 34:0.017699115044247787 35:0.06486486486486487 36:0.06756756756756757 37:0.0 38:0.041666666666666664 39:0.75 40:0.0 41:0.625 42:0.0 43:0.03265736107453253 44:0.14285714285714285 45:0.060261717556191495 46:0.10416666666666667 47:0.031446540880503145 48:1.0 49:0.05491913746630727 50:1.0 51:0.021258503401360547 52:0.0427320066951832 53:0.9999999999999998 54:0.02593707425652695 55:0.006179629770607958 56:0.25769989151974254 57:0.6431650656955984 58:0.5605970546041873 59:0.23227268797142167 60:0.5669786410812789 61:9.872991969200118E-4 62:0.013262165491812621 
0.0 1.7380726241533409 0.0 0.0 0:0.0 1:0.0 2:1.0 3:0.0 4:0.0 5:0.0 6:0.0 7:0.0 8:0.0 9:0.0 10:1.0 11:0.0 12:0.0 13:0.0 14:1.0 15:0.0 16:1.0 17:0.0 18:0.0 19:0.0 20:0.0 21:8.680555555555555E-4 22:0.0 23:0.0 24:0.0 25:0.0 26:0.04590818363273453 27:0.005181347150259067 28:0.0 29:0.0 30:0.019784172661870505 31:1.0 32:2.1411442274549593E-6 33:3.3538396879999554E-7 34:0.05752212389380531 35:0.2756756756756757 36:0.2702702702702703 37:2.665469485198242E-6 38:0.02522639068564036 39:0.46788990825688076 40:0.007761966364812419 41:0.6788990825688074 42:0.00129366106080207 43:0.1777719252041085 44:0.10878112712975099 45:0.4081541496316592 46:0.07761966364812418 47:0.02724177071509648 48:1.0 49:0.2535628261742272 50:1.0 51:0.021258503401360547 52:0.07965780174818674 53:0.9999999999999998 54:0.02593707425652695 55:0.06365299548346402 56:0.37089658008620313 57:0.47963574867312775 58:0.36513352594777343 59:0.15242105568986483 60:0.5845647221036099 61:0.006583926702143172 62:0.013200950556209894 
8.0 0.0 0.0 0.0 0:0.0 1:0.0 2:1.0 3:0.0 4:0.0 5:0.0 6:0.0 7:0.0 8:0.0 9:0.0 10:1.0 11:0.0 12:0.0 13:0.0 14:0.0 15:0.0 16:0.0 17:0.0 18:0.0 19:0.0 20:0.0 21:0.0 22:0.0 23:0.0 24:0.0 25:0.0 26:0.04590818363273453 27:0.0 28:0.0 29:0.0 30:0.0 31:1.0 32:0.0 33:2.0589521004029767E-15 34:0.0 35:0.032432432432432434 36:0.04054054054054054 37:0.0 38:0.0 39:0.75 40:0.0 41:0.875 42:0.0 43:0.01580194890703187 44:0.13839285714285715 45:0.0 46:0.12857142857142856 47:0.012987012987012988 48:1.0 49:0.01896828582898434 50:1.0 51:0.021258503401360547 52:0.07965966152129442 53:0.9999999999999998 54:0.02593707425652695 55:4.3021915035733457E-4 56:0.04524009565048816 57:0.6595178715683142 58:0.5770069020174355 59:0.23897651200676123 60:0.5778747147600249 61:4.1680064067119345E-4 62:0.01394640368836839 
0.0 8.0 0.0 0.0 0:0.0 1:0.0 2:1.0 3:0.0 4:0.0 5:0.0 6:0.0 7:1.0 8:1.0 9:0.0 10:1.0 11:0.0 12:0.0 13:0.0 14:0.0 15:0.0 16:0.0 17:0.0 18:0.0 19:0.0 20:0.0 21:8.680555555555555E-4 22:1.0 23:0.0 24:0.0 25:0.0 26:0.05189620758483034 27:0.0 28:1.0 29:1.0 30:0.0 31:1.0 32:0.0 33:2.0589521004029767E-15 34:0.0 35:0.0 36:0.0 37:0.0 38:0.0 39:0.0 40:0.0 41:0.0 42:1.0 43:0.0 44:0.0 45:0.0 46:0.0 47:0.0 48:1.0 49:0.02473227944926058 50:1.0 51:0.021258503401360547 52:0.04273014692207552 53:0.2261716256689743 54:0.02765339732802825 55:0.0 56:0.0 57:0.6595178715683142 58:0.07164981290316108 59:0.032525780618582 60:0.009448865949349588 61:0.0254907364154363 62:0.01394640368836839 
0.0 8.0 0.0 0.0 0:0.0 1:0.0 2:1.0 3:0.0 4:0.0 5:0.0 6:0.0 7:0.0 8:0.0 9:0.0 10:1.0 11:0.0 12:0.0 13:0.0 14:0.0 15:0.0 16:0.0 17:0.0 18:0.0 19:0.0 20:0.0 21:0.0 22:0.0 23:0.0 24:0.0 25:0.0 26:0.0558882235528942 27:0.0017271157167530224 28:0.0 29:0.5 30:0.0017985611510791368 31:0.0 32:0.0 33:2.0589521004029767E-15 34:0.004424778761061947 35:0.05405405405405406 36:0.04954954954954955 37:0.0 38:0.01171875 39:0.625 40:0.015625 41:0.625 42:0.0 43:0.029760337108243353 44:0.125 45:0.1542885475594614 46:0.0859375 47:0.027972027972027972 48:1.0 49:0.06028891509433962 50:1.0 51:0.01889644746787604 52:0.04273014692207552 53:0.9999999999999998 54:0.012815212267209346 55:0.004548716940659237 56:0.25538197917515215 57:0.6486965318864616 58:0.23568307902208044 59:0.0995373819035202 60:0.4785775908753086 61:8.510131178330125E-4 62:0.012059203316724249 
0.0 8.0 0.0 0.0 0:0.0 1:0.0 2:1.0 3:0.0 4:0.0 5:0.0 6:0.0 7:0.0 8:0.0 9:0.0 10:1.0 11:0.0 12:0.0 13:0.0 14:0.0 15:0.0 16:0.0 17:0.0 18:0.0 19:0.0 20:0.0 21:0.0 22:0.0 23:0.0 24:0.0 25:0.0 26:0.0558882235528942 27:0.0017271157167530224 28:0.0 29:0.5 30:0.0017985611510791368 31:0.0 32:0.0 33:2.0589521004029767E-15 34:0.004424778761061947 35:0.05405405405405406 36:0.04954954954954955 37:0.0 38:0.011450381679389313 39:0.625 40:0.015267175572519083 41:0.625 42:0.0 43:0.030550434553594946 44:0.12834821428571427 45:0.18586733745236794 46:0.08396946564885496 47:0.0273972602739726 48:1.0 49:0.06028891509433962 50:1.0 51:0.01889644746787604 52:0.04273014692207552 53:0.9999999999999998 54:0.012815212267209346 55:0.005086868743044842 56:0.2706063867471761 57:0.6486965318864616 58:0.26828708580371385 59:0.11285691613237771 60:0.4939065811330589 61:8.063478441699064E-4 62:0.011792265424861415 
0.0 8.0 0.0 0.0 0:0.0 1:0.0 2:1.0 3:0.0 4:0.0 5:0.0 6:0.0 7:1.0 8:1.0 9:0.0 10:1.0 11:0.0 12:0.0 13:0.0 14:0.0 15:0.0 16:0.0 17:0.0 18:0.0 19:0.0 20:0.0 21:8.680555555555555E-4 22:1.0 23:0.0 24:0.0 25:0.0 26:0.007984031936127744 27:0.0 28:1.0 29:1.0 30:0.0 31:1.0 32:0.0 33:2.0589521004029767E-15 34:0.0 35:0.0 36:0.0 37:0.0 38:0.0 39:0.0 40:0.0 41:0.0 42:1.0 43:0.0 44:0.0 45:0.0 46:0.0 47:0.0 48:1.0 49:0.02401936444885799 50:1.0 51:0.03392857142857144 52:0.10614469034777757 53:0.2508514814248945 54:0.020778951318975218 55:0.0 56:0.0 57:0.8917589206846133 58:0.13281367562524451 59:0.04061421081419784 60:0.01655730133416992 61:0.023216962727179352 62:0.01394640368836839 
0.0 5.585272619870548 0.0 0.0 0:0.0 1:0.0 2:1.0 3:0.0 4:0.0 5:0.0 6:0.0 7:1.0 8:1.0 9:0.0 10:1.0 11:0.0 12:0.0 13:0.0 14:0.0 15:0.0 16:0.0 17:1.0 18:0.0 19:0.0 20:0.0 21:8.680555555555555E-4 22:1.0 23:0.0 24:0.0 25:0.0 26:0.00998003992015968 27:0.0 28:1.0 29:1.0 30:0.0 31:1.0 32:0.0 33:2.0589521004029767E-15 34:0.0 35:0.0 36:0.0 37:0.0 38:0.0 39:0.0 40:0.0 41:0.0 42:1.0 43:0.0 44:0.0 45:0.0 46:0.0 47:0.0 48:1.0 49:0.02208927749654855 50:1.0 51:0.029846938775510194 52:0.10614469034777757 53:0.250864445943627 54:0.022245072627164266 55:0.0 56:0.0 57:0.8939332549834786 58:0.08690723407670468 59:0.026786491337612323 60:0.014565445534570547 61:0.023216962727179314 62:0.01394640368836839 
0.0 1.1241745270182324 0.0 0.0 0:0.0 1:0.0 2:1.0 3:0.0 4:0.0 5:0.0 6:0.0 7:0.0 8:0.0 9:0.0 10:1.0 11:0.0 12:1.0 13:0.0 14:0.0 15:0.0 16:0.0 17:0.0 18:0.0 19:0.0 20:0.0 21:0.0 22:0.0 23:0.0 24:0.0 25:0.0 26:0.011976047904191616 27:8.635578583765112E-4 28:0.0 29:0.3333333333333333 30:0.0 31:0.0 32:0.0 33:2.0589521004029767E-15 34:0.0 35:0.02702702702702703 36:0.05405405405405406 37:0.0 38:0.0 39:0.8333333333333334 40:0.013157894736842105 41:0.3333333333333333 42:0.0 43:0.015011851461680275 44:0.20833333333333331 45:0.0 46:0.15789473684210525 47:0.07407407407407407 48:1.0 49:0.022700471698113206 50:1.0 51:0.021173469387754964 52:0.15881346475729965 53:0.7882024677312055 54:0.03560798265674607 55:4.137728965704876E-4 56:0.03407550551728069 57:0.8985549736638792 58:0.9130752099196436 59:0.27564047984534096 60:0.7408458664634973 61:3.238124527568265E-4 62:0.01394640368836839 
0.0 1.167292766027817 0.0 0.0 0:0.0 1:0.0 2:1.0 3:0.0 4:0.0 5:0.0 6:0.0 7:0.0 8:1.0 9:0.0 10:1.0 11:0.0 12:0.0 13:0.0 14:0.0 15:0.0 16:0.0 17:0.0 18:0.0 19:0.0 20:0.0 21:0.0 22:1.0 23:0.0 24:0.0 25:0.0 26:0.01397205588822355 27:0.0 28:0.0 29:0.0 30:0.0 31:1.0 32:0.0 33:2.0589521004029767E-15 34:0.0 35:0.0 36:0.0 37:0.0 38:0.0 39:0.0 40:0.0 41:0.0 42:0.0 43:0.0 44:0.0 45:0.0 46:0.0 47:1.0 48:1.0 49:0.01896828582898434 50:1.0 51:0.024489795918367335 52:0.1396224660591408 53:0.28471024065516115 54:0.01768346730824096 55:0.0 56:0.0 57:0.8967870687507393 58:0.13631484435348762 59:0.04166881616763498 60:0.007959123799232552 61:0.034861758422459095 62:0.01394640368836839 
0.0 8.0 0.0 0.0 0:0.0 1:0.0 2:1.0 3:0.0 4:0.0 5:0.0 6:0.0 7:0.0 8:0.0 9:0.0 10:1.0 11:0.0 12:0.0 13:0.0 14:0.0 15:0.0 16:0.0 17:1.0 18:0.0 19:0.0 20:0.0 21:0.0 22:0.0 23:0.0 24:0.0 25:0.0 26:0.01397205588822355 27:8.635578583765112E-4 28:0.0 29:0.0 30:0.0 31:1.0 32:0.0 33:2.0589521004029767E-15 34:0.0 35:0.005405405405405406 36:0.0045045045045045045 37:0.0 38:0.0 39:0.25 40:0.03125 41:0.5 42:0.0 43:0.007900974453515935 44:0.125 45:0.0 46:0.03125 47:0.02857142857142857 48:1.0 49:0.01896828582898434 50:1.0 51:0.024489795918367335 52:0.17309838199739636 53:0.7485837591849973 54:0.017684992928748967 55:3.5731298394020214E-4 56:0.05574134640755425 57:0.8967870687507393 58:0.24646748126523613 59:0.07484846833499591 60:0.33813204593053486 61:8.205937724113044E-4 62:0.01394640368836839 
0.0 8.0 0.0 0.0 0:0.0 1:0.0 2:1.0 3:0.0 4:0.0 5:0.0 6:0.0 7:1.0 8:1.0 9:0.0 10:1.0 11:0.0 12:0.0 13:0.0 14:0.0 15:0.0 16:0.0 17:0.0 18:0.0 19:0.0 20:0.0 21:8.680555555555555E-4 22:1.0 23:0.0 24:0.0 25:0.0 26:0.01996007984031936 27:0.0 28:1.0 29:1.0 30:0.0 31:1.0 32:0.0 33:2.0589521004029767E-15 34:0.0 35:0.0 36:0.0 37:0.0 38:0.0 39:0.0 40:0.0 41:0.0 42:1.0 43:0.0 44:0.0 45:0.0 46:0.0 47:0.0 48:1.0 49:0.02208927749654855 50:1.0 51:0.02984693877551013 52:0.10614469034777757 53:0.2508337857752268 54:0.022245072627164266 55:0.0 56:0.0 57:0.8939345132787905 58:0.687473038994392 59:0.20768576339825362 60:0.014565445534570547 61:0.023216962727179262 62:0.01394640368836839 
0.0 8.0 0.0 0.0 0:0.0 1:0.0 2:1.0 3:0.0 4:0.0 5:0.0 6:0.0 7:0.0 8:0.0 9:0.0 10:1.0 11:0.0 12:0.0 13:0.0 14:0.0 15:0.0 16:0.0 17:0.0 18:0.0 19:0.0 20:0.0 21:0.0 22:1.0 23:0.0 24:0.0 25:0.0 26:0.02395209580838323 27:0.0 28:0.0 29:1.0 30:0.0 31:1.0 32:0.0 33:2.0589521004029767E-15 34:0.0 35:0.005405405405405406 36:0.0045045045045045045 37:0.0 38:0.0 39:1.0 40:0.0 41:1.0 42:0.0 43:0.004740584672109561 44:0.3214285714285714 45:0.0 46:0.05263157894736842 47:0.0 48:1.0 49:0.020952172005265467 50:1.0 51:0.02755102040816337 52:0.15970987539520182 53:0.7618550691937425 54:0.019221292780306074 55:1.1549540390738333E-5 56:0.002274965788350244 57:0.8951550597312785 58:0.5404753664188762 59:0.16340835732168643 60:0.23804129200066562 61:0.0013113383813062557 62:0.01394640368836839 
0.0 8.0 0.0 0.0 0:0.0 1:0.0 2:1.0 3:0.0 4:0.0 5:0.0 6:0.0 7:1.0 8:1.0 9:0.0 10:1.0 11:0.0 12:0.0 13:0.0 14:0.0 15:0.0 16:0.0 17:0.0 18:0.0 19:0.0 20:0.0 21:0.001736111111111111 22:1.0 23:0.0 24:0.0 25:0.0 26:0.02395209580838323 27:0.0 28:1.0 29:1.0 30:0.0 31:0.0 32:0.0 33:2.0589521004029767E-15 34:0.0 35:0.0 36:0.0 37:0.0 38:0.0 39:0.0 40:0.0 41:0.0 42:1.0 43:0.0 44:0.017857142857142856 45:0.0 46:0.0 47:0.0 48:1.0 49:0.020952172005265467 50:1.0 51:0.021173469387754964 52:0.10614469034777757 53:0.26662389064380254 54:0.027918855296420433 55:2.04046797026627E-6 56:0.00598802395209603 57:0.8985524570732556 58:0.7875748638155716 59:0.2378385928835446 60:0.020789994908318635 61:0.011538969499136959 62:0.01394640368836839 
0.0 5.495809903757083 0.0 0.0 0:0.0 1:0.0 2:1.0 3:0.0 4:0.0 5:0.0 6:0.0 7:1.0 8:1.0 9:0.0 10:1.0 11:0.0 12:0.0 13:1.0 14:0.0 15:0.0 16:0.0 17:1.0 18:0.0 19:0.0 20:0.0 21:0.001736111111111111 22:1.0 23:0.0 24:0.0 25:0.0 26:0.02395209580838323 27:0.0 28:1.0 29:1.0 30:0.0 31:0.0 32:0.0 33:2.0589521004029767E-15 34:0.0 35:0.0 36:0.0 37:0.0 38:0.0 39:0.0 40:0.0 41:0.0 42:1.0 43:0.0 44:0.017857142857142856 45:0.0 46:0.0 47:0.0 48:1.0 49:0.020952172005265467 50:1.0 51:0.021173469387755234 52:0.10614469034777757 53:0.26662389064380254 54:0.027918855296420433 55:2.04046797026627E-6 56:0.0059880239520959545 57:0.8985524570732554 58:0.8798178690021167 59:0.2656236295886013 60:0.020789994908318635 61:0.011538969499137106 62:0.01394640368836839 
0.0 8.0 0.0 0.0 0:0.0 1:0.0 2:1.0 3:0.0 4:0.0 5:0.0 6:0.0 7:0.0 8:0.0 9:0.0 10:1.0 11:0.0 12:0.0 13:0.0 14:0.0 15:0.0 16:0.0 17:0.0 18:0.0 19:0.0 20:0.0 21:0.0 22:1.0 23:0.0 24:0.0 25:0.0 26:0.02594810379241517 27:0.0 28:0.0 29:1.0 30:0.0 31:1.0 32:0.0 33:2.0589521004029767E-15 34:0.0 35:0.005405405405405406 36:0.0045045045045045045 37:0.0 38:0.0 39:1.0 40:0.0 41:1.0 42:0.0 43:0.004740584672109561 44:0.3214285714285714 45:0.0 46:0.05263157894736842 47:0.0 48:1.0 49:0.02042238421955403 50:1.0 51:0.02755102040816337 52:0.15970057652966343 53:0.7618165490457897 54:0.019222818400814082 55:4.33660903560047E-6 56:8.497723823972864E-4 57:0.8951575763219022 58:0.427916303006591 59:0.12950342887707333 60:0.23928205217583273 61:0.0013045386383882317 62:0.01394640368836839 
0.0 8.0 0.0 0.0 0:0.0 1:0.0 2:1.0 3:0.0 4:0.0 5:0.0 6:0.0 7:1.0 8:1.0 9:0.0 10:1.0 11:0.0 12:0.0 13:1.0 14:0.0 15:0.0 16:0.0 17:0.0 18:0.0 19:0.0 20:0.0 21:0.001736111111111111 22:1.0 23:0.0 24:0.0 25:0.0 26:0.02594810379241517 27:0.0 28:1.0 29:1.0 30:0.0 31:0.0 32:0.0 33:2.0589521004029767E-15 34:0.0 35:0.0 36:0.0 37:0.0 38:0.0 39:0.0 40:0.0 41:0.0 42:1.0 43:0.0 44:0.017857142857142856 45:0.0 46:0.0 47:0.0 48:1.0 49:0.02042238421955403 50:1.0 51:0.021173469387755234 52:0.10614469034777757 53:0.2666828091720775 54:0.026783793638467494 55:2.04046797026627E-6 56:0.0059880239520959545 57:0.898554973663879 58:0.8613100791524964 59:0.2600480554963155 60:0.020789994908318635 61:0.011538969499137106 62:0.01394640368836839 
0.0 8.0 0.0 0.0 0:0.0 1:0.0 2:1.0 3:0.0 4:0.0 5:0.0 6:0.0 7:1.0 8:1.0 9:0.0 10:1.0 11:0.0 12:0.0 13:1.0 14:0.0 15:0.0 16:0.0 17:0.0 18:0.0 19:0.0 20:0.0 21:0.001736111111111111 22:1.0 23:0.0 24:0.0 25:0.0 26:0.0279441117764471 27:0.0 28:1.0 29:1.0 30:0.0 31:0.0 32:0.0 33:2.0589521004029767E-15 34:0.0 35:0.0 36:0.0 37:0.0 38:0.0 39:0.0 40:0.0 41:0.0 42:1.0 43:0.0 44:0.017857142857142856 45:0.0 46:0.0 47:0.0 48:1.0 49:0.02042238421955403 50:1.0 51:0.021173469387755234 52:0.10614469034777757 53:0.2666759131054164 54:0.026782268017959528 55:2.04046797026627E-6 56:0.0059880239520959545 57:0.8985537153685672 58:0.8760571222198813 59:0.2644904585833544 60:0.020789994908318635 61:0.011538969499137106 62:0.01394640368836839 
0.0 6.784605158826673 0.0 0.0 0:0.0 1:0.0 2:1.0 3:0.0 4:0.0 5:0.0 6:0.0 7:1.0 8:1.0 9:0.0 10:1.0 11:0.0 12:1.0 13:0.0 14:0.0 15:0.0 16:0.0 17:0.0 18:0.0 19:0.0 20:0.0 21:0.001736111111111111 22:1.0 23:0.0 24:0.0 25:0.0 26:0.0279441117764471 27:0.0 28:1.0 29:1.0 30:0.0 31:0.0 32:0.0 33:2.0589521004029767E-15 34:0.0 35:0.0 36:0.0 37:0.0 38:0.0 39:0.0 40:0.0 41:0.0 42:1.0 43:0.0 44:0.017857142857142856 45:0.0 46:0.0 47:0.0 48:1.0 49:0.02042238421955403 50:1.0 51:0.021173469387755234 52:0.10614469034777757 53:0.2666759131054164 54:0.026782268017959528 55:2.04046797026627E-6 56:0.0059880239520959545 57:0.8985537153685672 58:0.9093119551368866 59:0.27450732082110496 60:0.020789994908318635 61:0.011538969499137106 62:0.01394640368836839 
8.0 8.0 8.0 0.0 0:0.0 1:0.0 2:1.0 3:0.0 4:0.0 5:0.0 6:0.0 7:0.0 8:0.0 9:0.0 10:1.0 11:0.0 12:0.0 13:0.0 14:0.0 15:0.0 16:0.0 17:0.0 18:0.0 19:0.0 20:0.0 21:8.680555555555555E-4 22:0.0 23:0.0 24:0.0 25:0.0 26:0.02994011976047904 27:0.0 28:0.0 29:0.0 30:0.0 31:1.0 32:0.0 33:2.0589521004029767E-15 34:0.0 35:0.010810810810810811 36:0.009009009009009009 37:0.0 38:0.0 39:0.6666666666666666 40:0.0 41:0.6666666666666666 42:0.041666666666666664 43:0.0052673163023439565 44:0.125 45:0.0 46:0.08333333333333333 47:0.038461538461538464 48:1.0 49:0.02042238421955403 50:1.0 51:0.02551020408163268 52:0.17329365817370285 53:0.7432586805065862 54:0.0183074460960134 55:2.5112506405143955E-4 56:0.043936428740403384 57:0.8962422268807112 58:0.3990943610116271 59:0.12082218597249851 60:0.2894353213299123 61:9.986005173091628E-4 62:0.01394640368836839 
0.0 8.0 0.0 0.0 0:0.0 1:0.0 2:1.0 3:0.0 4:0.0 5:0.0 6:0.0 7:1.0 8:1.0 9:0.0 10:1.0 11:0.0 12:0.0 13:0.0 14:0.0 15:0.0 16:0.0 17:0.0 18:0.0 19:0.0 20:0.0 21:0.001736111111111111 22:1.0 23:0.0 24:0.0 25:0.0 26:0.02994011976047904 27:0.0 28:1.0 29:1.0 30:0.0 31:0.0 32:0.0 33:2.0589521004029767E-15 34:0.0 35:0.0 36:0.0 37:0.0 38:0.0 39:0.0 40:0.0 41:0.0 42:1.0 43:0.0 44:0.017857142857142856 45:0.0 46:0.0 47:0.0 48:1.0 49:0.02042238421955403 50:1.0 51:0.021173469387754964 52:0.10614469034777757 53:0.2666464521103056 54:0.026783793638467668 55:2.04046797026627E-6 56:0.00598802395209603 57:0.8985524570732556 58:0.7505567761158094 59:0.22668816555944726 60:0.020789994908318635 61:0.011538969499136959 62:0.01394640368836839 
0.0 8.0 0.0 0.0 0:0.0 1:0.0 2:1.0 3:0.0 4:0.0 5:0.0 6:0.0 7:1.0 8:1.0 9:0.0 10:1.0 11:0.0 12:0.0 13:0.0 14:0.0 15:0.0 16:0.0 17:0.0 18:0.0 19:0.0 20:0.0 21:0.001736111111111111 22:1.0 23:0.0 24:0.0 25:0.0 26:0.02994011976047904 27:0.0 28:1.0 29:1.0 30:0.0 31:0.0 32:0.0 33:2.0589521004029767E-15 34:0.0 35:0.0 36:0.0 37:0.0 38:0.0 39:0.0 40:0.0 41:0.0 42:1.0 43:0.0 44:0.017857142857142856 45:0.0 46:0.0 47:0.0 48:1.0 49:0.02042238421955403 50:1.0 51:0.021173469387754964 52:0.10614469034777757 53:0.2666464521103056 54:0.026783793638467668 55:2.04046797026627E-6 56:0.00598802395209603 57:0.8985524570732556 58:0.7838128630330755 59:0.23670541937499812 60:0.020789994908318635 61:0.011538969499136959 62:0.01394640368836839 
0.0 8.0 0.0 0.0 0:0.0 1:0.0 2:1.0 3:0.0 4:0.0 5:0.0 6:0.0 7:0.0 8:0.0 9:0.0 10:1.0 11:0.0 12:0.0 13:0.0 14:0.0 15:0.0 16:0.0 17:0.0 18:0.0 19:0.0 20:0.0 21:8.680555555555555E-4 22:0.0 23:0.0 24:0.0 25:0.0 26:0.031936127744510975 27:0.0 28:0.0 29:0.0 30:0.0 31:1.0 32:0.0 33:2.0589521004029767E-15 34:0.0 35:0.010810810810810811 36:0.03153153153153153 37:0.0 38:0.0 39:0.5 40:0.0 41:0.25 42:0.0196078431372549 43:0.010007900974453516 44:0.20982142857142858 45:0.0 46:0.13725490196078433 47:0.05555555555555555 48:1.0 49:0.019916142557651992 50:1.0 51:0.02551020408163268 52:0.17316719360238056 53:0.7434058507574955 54:0.0183074460960134 55:3.5118174644882506E-4 56:0.02929385105968451 57:0.8962422268807112 58:0.5191774259889046 59:0.156993084365302 60:0.6070740758722772 61:4.761037789207186E-4 62:0.01394640368836839 
0.0 8.0 0.0 0.0 0:0.0 1:0.0 2:1.0 3:0.0 4:0.0 5:0.0 6:0.0 7:1.0 8:1.0 9:0.0 10:1.0 11:0.0 12:0.0 13:0.0 14:0.0 15:0.0 16:0.0 17:0.0 18:0.0 19:0.0 20:0.0 21:0.001736111111111111 22:1.0 23:0.0 24:0.0 25:0.0 26:0.031936127744510975 27:0.0 28:1.0 29:1.0 30:0.0 31:0.0 32:0.0 33:2.0589521004029767E-15 34:0.0 35:0.0 36:0.0 37:0.0 38:0.0 39:0.0 40:0.0 41:0.0 42:1.0 43:0.0 44:0.017857142857142856 45:0.0 46:0.0 47:0.0 48:1.0 49:0.019916142557651992 50:1.0 51:0.021173469387754964 52:0.10614469034777757 53:0.26665961472914673 54:0.027918855296420433 55:2.04046797026627E-6 56:0.00598802395209603 57:0.8985524570732556 58:0.7543187768983056 59:0.22782133906799373 60:0.020789994908318635 61:0.011538969499136959 62:0.01394640368836839 
0.0 8.0 0.0 0.0 0:0.0 1:0.0 2:1.0 3:0.0 4:0.0 5:0.0 6:0.0 7:1.0 8:1.0 9:0.0 10:1.0 11:0.0 12:0.0 13:0.0 14:0.0 15:0.0 16:0.0 17:0.0 18:0.0 19:0.0 20:0.0 21:0.001736111111111111 22:1.0 23:0.0 24:0.0 25:0.0 26:0.031936127744510975 27:0.0 28:1.0 29:1.0 30:0.0 31:0.0 32:0.0 33:2.0589521004029767E-15 34:0.0 35:0.0 36:0.0 37:0.0 38:0.0 39:0.0 40:0.0 41:0.0 42:1.0 43:0.0 44:0.017857142857142856 45:0.0 46:0.0 47:0.0 48:1.0 49:0.019916142557651992 50:1.0 51:0.021173469387755234 52:0.10614469034777757 53:0.26665961472914673 54:0.027918855296420433 55:2.04046797026627E-6 56:0.0059880239520959545 57:0.8985524570732554 58:0.8023219068829566 59:0.24228063303704675 60:0.020789994908318635 61:0.011538969499137106 62:0.01394640368836839 
0.0 8.0 0.0 0.0 0:0.0 1:0.0 2:1.0 3:0.0 4:0.0 5:0.0 6:0.0 7:1.0 8:1.0 9:0.0 10:1.0 11:0.0 12:0.0 13:0.0 14:0.0 15:0.0 16:0.0 17:0.0 18:0.0 19:0.0 20:0.0 21:8.680555555555555E-4 22:1.0 23:0.0 24:0.0 25:0.0 26:0.03393213572854291 27:0.0 28:1.0 29:1.0 30:0.0 31:1.0 32:0.0 33:2.0589521004029767E-15 34:0.0 35:0.0 36:0.0 37:0.0 38:0.0 39:0.0 40:0.0 41:0.0 42:1.0 43:0.0 44:0.0 45:0.0 46:0.0 47:0.0 48:1.0 49:0.022700471698113206 50:1.0 51:0.029846938775510264 52:0.10614469034777757 53:0.26020669647685 54:0.028285004218340692 55:0.0 56:0.0 57:0.8939345132787905 58:0.2996859983346876 59:0.0908785612254675 60:0.014565445534570547 61:0.023216962727179366 62:0.01394640368836839 
0.0 8.0 0.0 0.0 0:0.0 1:0.0 2:1.0 3:0.0 4:0.0 5:0.0 6:0.0 7:1.0 8:1.0 9:0.0 10:1.0 11:0.0 12:0.0 13:0.0 14:0.0 15:0.0 16:0.0 17:0.0 18:0.0 19:0.0 20:0.0 21:0.001736111111111111 22:1.0 23:0.0 24:0.0 25:0.0 26:0.03592814371257485 27:0.0 28:1.0 29:1.0 30:0.0 31:0.0 32:0.0 33:2.0589521004029767E-15 34:0.0 35:0.0 36:0.0 37:0.0 38:0.0 39:0.0 40:0.0 41:0.0 42:1.0 43:0.0 44:0.017857142857142856 45:0.0 46:0.0 47:0.0 48:1.0 49:0.02208927749654855 50:1.0 51:0.021173469387755234 52:0.10614469034777757 53:0.26659193510104034 54:0.027918855296420433 55:2.04046797026627E-6 56:0.0059880239520959545 57:0.8985537153685672 58:0.8023219068829566 59:0.24228028853245764 60:0.020789994908318635 61:0.011538969499137106 62:0.01394640368836839 
0.0 1.127460790640679 0.0 0.0 0:0.0 1:0.0 2:1.0 3:0.0 4:0.0 5:0.0 6:0.0 7:0.0 8:0.0 9:0.0 10:1.0 11:0.0 12:0.0 13:0.0 14:0.0 15:0.0 16:0.0 17:0.0 18:0.0 19:0.0 20:0.0 21:0.0 22:1.0 23:0.0 24:0.0 25:0.0 26:0.03792415169660678 27:0.0 28:0.0 29:0.0 30:0.0 31:1.0 32:0.0 33:2.0589521004029767E-15 34:0.0 35:0.0 36:0.0 37:0.0 38:0.0 39:0.0 40:0.0 41:1.0 42:0.0 43:0.0010534632604687912 44:0.05357142857142857 45:0.0 46:0.0 47:0.0 48:1.0 49:0.021507187780772683 50:1.0 51:0.024489795918367335 52:0.17198065835968016 53:0.9999999999999998 54:0.01768346730824096 55:1.7700445043262911E-6 56:0.0021934100214454125 57:0.8967870687507393 58:0.13631484435348762 59:0.04166881616763498 60:0.04256761831727193 61:0.006518312795308686 62:0.01394640368836839 
0.0 8.0 0.0 0.0 0:0.0 1:0.0 2:1.0 3:0.0 4:0.0 5:0.0 6:0.0 7:0.0 8:0.0 9:0.0 10:1.0 11:0.0 12:0.0 13:0.0 14:0.0 15:0.0 16:0.0 17:0.0 18:0.0 19:0.0 20:0.0 21:0.0 22:1.0 23:0.0 24:0.0 25:0.0 26:0.03792415169660678 27:0.0 28:0.0 29:0.0 30:0.0 31:1.0 32:0.0 33:2.0589521004029767E-15 34:0.0 35:0.0 36:0.0 37:0.0 38:0.0 39:0.0 40:0.0 41:1.0 42:0.0 43:0.0010534632604687912 44:0.05357142857142857 45:0.0 46:0.0 47:0.0 48:1.0 49:0.021507187780772683 50:1.0 51:0.024489795918367335 52:0.17198065835968016 53:0.9999999999999998 54:0.017684992928748967 55:1.7700445043262911E-6 56:0.0021934100214454125 57:0.8967870687507393 58:0.23141697013472975 59:0.07031502512154586 60:0.04256761831727193 61:0.006518312795308686 62:0.01394640368836839 
0.0 8.0 0.0 0.0 0:0.0 1:0.0 2:1.0 3:0.0 4:0.0 5:0.0 6:0.0 7:0.0 8:1.0 9:0.0 10:1.0 11:0.0 12:0.0 13:0.0 14:0.0 15:0.0 16:0.0 17:0.0 18:0.0 19:0.0 20:0.0 21:0.003472222222222222 22:0.0 23:0.0 24:0.0 25:0.0 26:0.03792415169660678 27:0.0 28:1.0 29:1.0 30:0.0017985611510791368 31:0.0 32:0.0 33:2.0589521004029767E-15 34:0.0 35:0.0 36:0.0 37:0.0 38:0.0 39:0.0 40:0.0 41:0.0 42:1.0 43:0.0 44:0.017857142857142856 45:0.0 46:0.0 47:0.0 48:1.0 49:0.0453728661275831 50:1.0 51:0.021173469387755234 52:0.10614469034777757 53:0.26664833240486746 54:0.026783793638467494 55:2.244105034768656E-4 56:0.24883465239475225 57:0.8799812765657598 58:0.8613100791524964 59:0.26004842457317506 60:0.020789994908318635 61:0.03053887911619004 62:0.01394640368836839 
0.0 0.4395143130354102 0.0 0.0 0:0.0 1:0.0 2:1.0 3:0.0 4:0.0 5:0.0 6:0.0 7:0.0 8:1.0 9:0.0 10:1.0 11:0.0 12:1.0 13:0.0 14:0.0 15:0.0 16:0.0 17:0.0 18:0.0 19:0.0 20:0.0 21:0.003472222222222222 22:0.0 23:0.0 24:0.0 25:0.0 26:0.03992015968063872 27:0.0 28:1.0 29:1.0 30:0.0017985611510791368 31:0.0 32:0.0 33:2.0589521004029767E-15 34:0.0 35:0.0 36:0.0 37:0.0 38:0.0 39:0.0 40:0.0 41:0.0 42:1.0 43:0.0 44:0.017857142857142856 45:0.0 46:0.0 47:0.0 48:1.0 49:0.046537045559134835 50:1.0 51:0.0211734693877551 52:0.10614469034777757 53:0.2666464521103056 54:0.027918855296420433 55:2.244105034768699E-4 56:0.24883465239475702 57:0.8799825348610716 58:0.8908041652872662 59:0.26893211123006255 60:0.020789994908318635 61:0.03053887911619004 62:0.01394640368836839 
0.0 6.205580847815543 0.0 0.0 0:0.0 1:0.0 2:1.0 3:0.0 4:0.0 5:0.0 6:0.0 7:0.0 8:0.0 9:0.0 10:1.0 11:0.0 12:1.0 13:0.0 14:0.0 15:0.0 16:0.0 17:0.0 18:0.027777777777777776 19:0.0 20:0.0 21:0.015625 22:0.0 23:0.0 24:0.0 25:0.0 26:0.03992015968063872 27:0.005181347150259067 28:0.0 29:0.0 30:0.0017985611510791368 31:0.0 32:0.0 33:2.0589521004029767E-15 34:0.004424778761061947 35:0.04864864864864865 36:0.09009009009009009 37:0.0 38:0.021739130434782608 39:0.5294117647058824 40:0.08695652173913043 41:0.11764705882352941 42:0.2608695652173913 43:0.003950487226757967 44:0.05462184873949579 45:0.09999380221367833 46:0.2898550724637681 47:0.12941176470588237 48:1.0 49:0.046537045559134835 50:1.0 51:0.0211734693877551 52:0.15881346475729965 53:0.7763682434020626 54:0.027918855296420433 55:0.0074387584405242145 56:0.4014058790192278 57:0.8799825348610716 58:0.8945661660697624 59:0.27006528160426496 60:0.37866838630217364 61:0.001486170670643836 62:0.015996948392571084 
0.0 1.8073912360109436 0.0 0.0 0:0.0 1:0.0 2:1.0 3:0.0 4:0.0 5:0.0 6:0.0 7:1.0 8:1.0 9:0.0 10:1.0 11:0.0 12:0.0 13:0.0 14:0.0 15:0.0 16:0.0 17:1.0 18:0.0 19:0.0 20:0.0 21:8.680555555555555E-4 22:1.0 23:0.0 24:0.0 25:0.0 26:0.04391217564870259 27:0.0 28:1.0 29:1.0 30:0.0 31:1.0 32:0.0 33:2.0589521004029767E-15 34:0.0 35:0.0 36:0.0 37:0.0 38:0.0 39:0.0 40:0.0 41:0.0 42:1.0 43:0.0 44:0.0 45:0.0 46:0.0 47:0.0 48:1.0 49:0.021507187780772683 50:1.0 51:0.029846938775510264 52:0.10614469034777757 53:0.25084027095506484 54:0.022245072627164266 55:0.0 56:0.0 57:0.8939332549834786 58:0.519838284126363 59:0.1571919183507347 60:0.014565445534570547 61:0.023216962727179366 62:0.01394640368836839 
0.0 8.0 0.0 0.0 0:0.0 1:0.0 2:1.0 3:0.0 4:0.0 5:0.0 6:0.0 7:0.0 8:1.0 9:0.0 10:1.0 11:0.0 12:0.0 13:0.0 14:0.0 15:0.0 16:0.0 17:0.0 18:0.0 19:0.0 20:0.0 21:0.003472222222222222 22:0.0 23:0.0 24:0.0 25:0.0 26:0.04391217564870259 27:0.0 28:1.0 29:1.0 30:0.0017985611510791368 31:0.0 32:0.0 33:2.0589521004029767E-15 34:0.0 35:0.0 36:0.0 37:0.0 38:0.0 39:0.0 40:0.0 41:0.0 42:1.0 43:0.0 44:0.017857142857142856 45:0.0 46:0.0 47:0.0 48:1.0 49:0.0453728661275831 50:1.0 51:0.021173469387755234 52:0.10614469034777757 53:0.266632664093753 54:0.027918855296420433 55:2.2437248940379256E-4 56:0.24880298838313533 57:0.8799825348610716 58:0.8613100791524964 59:0.26004842457317506 60:0.020789994908318635 61:0.03053759185944095 62:0.01394640368836839 
0.0 3.164773237259475 0.0 0.0 0:0.0 1:0.0 2:1.0 3:0.0 4:0.0 5:0.0 6:0.0 7:0.0 8:0.0 9:0.0 10:1.0 11:0.0 12:1.0 13:0.0 14:0.0 15:0.0 16:0.0 17:0.0 18:0.05555555555555555 19:0.0 20:0.0 21:0.07899305555555555 22:0.0 23:0.0 24:0.0 25:0.0 26:0.04391217564870259 27:0.020725388601036267 28:0.0 29:0.0 30:0.010791366906474822 31:0.0 32:0.0 33:2.1161452143030595E-15 34:0.030973451327433628 35:0.25405405405405407 36:0.31981981981981983 37:1.5491082675347056E-16 38:0.02408256880733945 39:0.5164835164835165 40:0.05504587155963303 41:0.27472527472527475 42:0.20871559633027523 43:0.05662365025019753 44:0.06770015698587126 45:0.4404937712247467 46:0.1628440366972477 47:0.0817490494296578 48:1.0 49:0.1647012578616352 50:1.0 51:0.021173469387755234 52:0.15881346475729965 53:0.7763798071725057 54:0.027918855296420433 55:0.05839713070565528 56:0.45320285934639004 57:0.8022198845891539 58:0.8170689499503415 59:0.246722322542637 60:0.6935138002112908 61:0.0027776439072041384 62:0.011743309187822746 
0.0 8.0 0.0 0.0 0:0.0 1:0.0 2:1.0 3:0.0 4:0.0 5:0.0 6:0.0 7:0.0 8:0.0 9:0.0 10:1.0 11:0.0 12:0.0 13:0.0 14:0.0 15:0.0 16:0.0 17:0.0 18:0.0 19:0.0 20:0.0 21:0.0 22:1.0 23:0.0 24:0.0 25:0.0 26:0.04590818363273453 27:0.0 28:0.0 29:1.0 30:0.0 31:1.0 32:0.0 33:2.0589521004029767E-15 34:0.0 35:0.005405405405405406 36:0.009009009009009009 37:0.0 38:0.0 39:1.0 40:0.0 41:0.0 42:0.0 43:0.003687121411640769 44:0.2857142857142857 45:0.0 46:0.11764705882352941 47:0.058823529411764705 48:1.0 49:0.02401936444885799 50:1.0 51:0.02755102040816337 52:0.15970615584898645 53:0.7618223746535621 54:0.019222818400814082 55:0.0 56:0.0 57:0.8481677961964249 58:0.5404753664188762 59:0.1726783311459956 60:0.20764474255886242 61:0.0015033016424565368 62:0.01394640368836839 
0.0 8.0 0.0 0.0 0:0.0 1:0.0 2:1.0 3:0.0 4:0.0 5:0.0 6:0.0 7:0.0 8:0.0 9:0.0 10:1.0 11:0.0 12:0.0 13:0.0 14:0.0 15:0.0 16:0.0 17:0.0 18:0.0 19:0.0 20:0.0 21:0.0 22:1.0 23:0.0 24:0.0 25:0.0 26:0.049900199600798396 27:0.0 28:0.0 29:1.0 30:0.0 31:1.0 32:0.0 33:2.0589521004029767E-15 34:0.0 35:0.005405405405405406 36:0.009009009009009009 37:0.0 38:0.0 39:1.0 40:0.0 41:0.0 42:0.0 43:0.003950487226757967 44:0.30357142857142855 45:0.0 46:0.1111111111111111 47:0.05555555555555555 48:1.0 49:0.02208927749654855 50:1.0 51:0.027551020408163505 52:0.15970615584898645 53:0.7618374907152323 54:0.019222818400814082 55:0.0 56:0.0 57:0.8582882653895806 58:0.6280547446353868 59:0.19809173655974013 60:0.2270591120555827 61:0.0013747639533611452 62:0.01394640368836839 
0.0 0.49542085495404786 0.0 0.0 0:0.0 1:0.0 2:1.0 3:0.0 4:0.0 5:0.0 6:0.0 7:0.0 8:1.0 9:0.0 10:1.0 11:0.0 12:0.0 13:0.0 14:0.0 15:0.0 16:0.0 17:0.0 18:0.0 19:0.0 20:0.0 21:0.0 22:1.0 23:0.0 24:0.0 25:0.0 26:0.049900199600798396 27:0.0 28:0.0 29:0.0 30:0.0 31:0.0 32:0.0 33:2.0589521004029767E-15 34:0.0 35:0.0 36:0.0 37:0.0 38:0.0 39:0.0 40:0.0 41:0.0 42:0.0 43:0.0 44:0.0 45:0.0 46:0.0 47:1.0 48:1.0 49:0.02208927749654855 50:1.0 51:0.017091836734693854 52:0.13962060628603312 53:0.2847038746861983 54:0.02131139287626768 55:0.0 56:0.0 57:0.863859997030423 58:0.7148829766956591 59:0.22535028760802064 60:0.005554372891174558 61:0.034864471484221386 62:0.01394640368836839 
0.0 5.485186179480878 0.0 0.0 0:0.0 1:0.0 2:1.0 3:0.0 4:0.0 5:0.0 6:0.0 7:0.0 8:1.0 9:0.0 10:1.0 11:0.0 12:0.0 13:0.0 14:0.0 15:0.0 16:0.0 17:0.0 18:0.0 19:0.0 20:0.0 21:0.0 22:1.0 23:0.0 24:0.0 25:0.0 26:0.049900199600798396 27:0.0 28:0.0 29:0.0 30:0.0 31:0.0 32:0.0 33:2.0589521004029767E-15 34:0.0 35:0.0 36:0.0 37:0.0 38:0.0 39:0.0 40:0.0 41:0.0 42:0.0 43:0.0 44:0.0 45:0.0 46:0.0 47:1.0 48:1.0 49:0.02208927749654855 50:1.0 51:0.017091836734693854 52:0.13962060628603312 53:0.28470152411218813 54:0.023375557423593114 55:0.0 56:0.0 57:0.863859997030423 58:0.8575380463679136 59:0.27013492051702526 60:0.005554372891174558 61:0.034864471484221386 62:0.01394640368836839 
0.0 8.0 0.0 0.0 0:0.0 1:0.0 2:1.0 3:0.0 4:0.0 5:0.0 6:0.0 7:0.0 8:0.0 9:0.0 10:1.0 11:0.0 12:0.0 13:0.0 14:0.0 15:0.0 16:0.0 17:1.0 18:0.0 19:0.0 20:0.0 21:0.0026041666666666665 22:0.0 23:0.0 24:0.0 25:0.0 26:0.049900199600798396 27:0.0025906735751295333 28:0.0 29:0.0 30:0.0017985611510791368 31:0.0 32:0.0 33:2.0589521004029767E-15 34:0.0 35:0.02702702702702703 36:0.036036036036036036 37:0.0 38:0.0 39:0.35714285714285715 40:0.02564102564102564 41:0.6428571428571429 42:0.02564102564102564 43:0.02607321569660258 44:0.13137755102040818 45:0.29883588475536904 46:0.06837606837606838 47:0.038461538461538464 48:1.0 49:0.046537045559134835 50:1.0 51:0.024489795918367335 52:0.17309652222428867 53:0.7513139708716866 54:0.01768499292874892 55:0.015694782758313347 56:0.4035788373228732 57:0.8398366229367102 58:0.7119022180756612 59:0.224414518687269 60:0.6627671939689928 61:8.722046494296195E-4 62:0.011442059530470115 
0.0 8.0 0.0 0.0 0:0.0 1:0.0 2:1.0 3:0.0 4:0.0 5:0.0 6:0.0 7:0.0 8:0.0 9:0.0 10:1.0 11:0.0 12:0.0 13:0.0 14:0.0 15:0.0 16:0.0 17:0.0 18:0.0 19:0.0 20:0.0 21:8.680555555555555E-4 22:0.0 23:0.0 24:0.0 25:0.0 26:0.05189620758483034 27:0.0 28:0.0 29:0.0 30:0.0017985611510791368 31:0.0 32:0.0 33:2.0589521004029767E-15 34:0.01327433628318584 35:0.03783783783783784 36:0.04054054054054054 37:0.0 38:0.025 39:0.2916666666666667 40:0.0 41:0.3333333333333333 42:0.005555555555555556 43:0.03976823808269687 44:0.11607142857142858 45:0.01580221795263598 46:0.05 47:0.054187192118226604 48:1.0 49:0.03773584905660377 50:1.0 51:0.022831632653061217 52:0.10614469034777757 53:0.9999999999999998 54:0.02131444411728361 55:0.00882385646133664 56:0.2482186474987207 57:0.8680425706469903 58:0.47986200981129806 59:0.14753775304405992 60:0.874879088128415 61:6.679979331261264E-4 62:0.013825187919845322 
0.0 8.0 0.0 0.0 0:0.0 1:0.0 2:1.0 3:0.0 4:0.0 5:0.0 6:0.0 7:1.0 8:1.0 9:0.0 10:1.0 11:0.0 12:0.0 13:0.0 14:0.0 15:0.0 16:0.0 17:0.0 18:0.0 19:0.0 20:0.0 21:8.680555555555555E-4 22:1.0 23:0.0 24:0.0 25:0.0 26:0.06187624750499002 27:0.0 28:1.0 29:1.0 30:0.0 31:1.0 32:0.0 33:2.0589521004029767E-15 34:0.0 35:0.0 36:0.0 37:0.0 38:0.0 39:0.0 40:0.0 41:0.0 42:1.0 43:0.0 44:0.0 45:0.0 46:0.0 47:0.0 48:1.0 49:0.02401936444885799 50:1.0 51:0.029846938775510264 52:0.10614469034777757 53:0.2508933441161535 54:0.022245072627164266 55:0.0 56:0.0 57:0.870349025953599 58:0.3321896850954545 59:0.10352972103777021 60:0.014565445534570547 61:0.023216962727179366 62:0.01394640368836839 
0.0 8.0 0.0 0.0 0:0.0 1:0.0 2:1.0 3:0.0 4:0.0 5:0.0 6:0.0 7:0.0 8:1.0 9:0.0 10:1.0 11:0.0 12:0.0 13:0.0 14:0.0 15:0.0 16:0.0 17:0.0 18:0.0 19:0.0 20:0.0 21:0.0 22:1.0 23:0.0 24:0.0 25:0.0 26:0.06187624750499002 27:0.0 28:0.0 29:1.0 30:0.0 31:1.0 32:0.0 33:2.0589521004029767E-15 34:0.0 35:0.005405405405405406 36:0.0045045045045045045 37:0.0 38:0.0 39:1.0 40:0.0 41:1.0 42:0.0 43:0.0010534632604687912 44:0.07142857142857142 45:0.0 46:0.2 47:0.0 48:1.0 49:0.02401936444885799 50:1.0 51:0.029846938775510264 52:0.14631764924679191 53:0.7833852099828852 54:0.022245072627164266 55:3.068077140833489E-6 56:0.0021000820344541124 57:0.870349025953599 58:0.3321896850954545 59:0.10352972103777021 60:0.06323104738832434 61:0.005348091167999979 62:0.01394640368836839 
0.0 0.0886683614981143 0.0 0.0 0:0.0 1:0.0 2:1.0 3:0.0 4:0.0 5:0.0 6:0.0 7:0.0 8:0.0 9:0.0 10:1.0 11:0.0 12:0.0 13:0.0 14:1.0 15:0.0 16:1.0 17:1.0 18:0.006802721088435374 19:0.0 20:0.0 21:0.027777777777777776 22:0.0 23:0.0 24:0.0 25:0.0 26:0.001996007984031936 27:0.012953367875647668 28:0.0 29:0.0 30:0.08633093525179857 31:1.0 32:0.01824254881808835 33:0.0020993667403173626 34:0.08849557522123894 35:0.5243243243243243 36:0.581081081081081 37:0.004537116780393475 38:0.016129032258064516 39:0.313915857605178 40:0.008064516129032258 41:0.6504854368932039 42:0.017204301075268817 43:0.4311298393468528 44:0.08963245492371705 45:0.23406046902282285 46:0.06935483870967742 47:0.023062730627306273 48:1.0 49:0.5092619889937106 50:1.0 51:0.02362325882734046 52:0.44331039613167206 53:0.3503219643818051 54:0.021483787993671715 55:0.09658342076342374 56:0.23599122361380906 57:0.02952841608302734 58:0.05929540233344367 59:0.02366325476787409 60:0.38052563092858155 61:0.039723800861030466 62:0.013668349263966092 
0.0 8.0 0.0 0.0 0:0.0 1:0.0 2:1.0 3:0.0 4:0.0 5:0.0 6:0.0 7:0.0 8:0.0 9:0.0 10:1.0 11:0.0 12:0.0 13:0.0 14:0.0 15:0.0 16:0.0 17:0.0 18:0.011111111111111112 19:0.0 20:0.0 21:0.005208333333333333 22:0.0 23:0.0 24:0.0 25:0.0 26:0.003992015968063872 27:8.635578583765112E-4 28:0.0 29:0.0 30:0.007194244604316546 31:0.0 32:0.0 33:2.0589521004029767E-15 34:0.01327433628318584 35:0.043243243243243246 36:0.04054054054054054 37:0.0 38:0.023195876288659795 39:0.26666666666666666 40:0.005154639175257732 41:0.6666666666666666 42:0.030927835051546393 43:0.045035554385040824 44:0.0976190476190476 45:0.17794699396677569 46:0.04639175257731959 47:0.026905829596412557 48:1.0 49:0.04878224874855602 50:1.0 51:0.020077475434618294 52:0.11645527245676032 53:0.7297025216401732 54:0.015057874413970987 55:0.009977282501600761 56:0.298658996323587 57:0.6927758749556451 58:0.21738721521654075 59:0.08106306825885196 60:0.336036447641373 61:0.003560137349869216 62:0.012646441601058647 
0.0 8.0 0.0 0.0 0:0.0 1:0.0 2:1.0 3:0.0 4:0.0 5:0.0 6:0.0 7:0.0 8:0.0 9:0.0 10:1.0 11:0.0 12:0.0 13:0.0 14:0.0 15:0.0 16:0.0 17:0.0 18:0.007936507936507936 19:0.0 20:0.0 21:0.0078125 22:0.0 23:0.0 24:0.0 25:0.0 26:0.011976047904191616 27:0.0025906735751295333 28:0.0 29:0.0 30:0.010791366906474822 31:0.0 32:0.0 33:2.001758986502894E-15 34:0.008849557522123894 35:0.06486486486486487 36:0.05855855855855856 37:1.9382605302752397E-16 38:0.011111111111111112 39:0.2857142857142857 40:0.011111111111111112 41:0.6190476190476191 42:0.03333333333333333 43:0.06268106399789308 44:0.09693877551020408 45:0.23556717224930487 46:0.04814814814814815 47:0.02572347266881029 48:1.0 49:0.06997665823769693 50:1.0 51:0.020077475434618273 52:0.11645527245676032 53:0.7296724628875375 54:0.01501210579873095 55:0.014249697832127435 56:0.3016868516835483 57:0.6671481743393322 58:0.5873047521593884 59:0.21536012607725039 60:0.3379058873032887 61:0.005032987672691741 62:0.012715443679910314 
0.0 8.0 0.0 0.0 0:0.0 1:0.0 2:1.0 3:0.0 4:0.0 5:0.0 6:0.0 7:0.0 8:0.0 9:0.0 10:1.0 11:0.0 12:0.0 13:0.0 14:0.0 15:0.0 16:0.0 17:0.0 18:0.0 19:0.0 20:0.0 21:0.0 22:0.0 23:0.0 24:0.0 25:0.0 26:0.015968063872255488 27:0.0017271157167530224 28:0.0 29:0.0 30:0.007194244604316546 31:0.0 32:0.0 33:2.0589521004029767E-15 34:0.004424778761061947 35:0.05945945945945946 36:0.05405405405405406 37:0.0 38:0.006787330316742082 39:0.3333333333333333 40:0.00904977375565611 41:0.6060606060606061 42:0.0 43:0.052936528838556755 44:0.10173160173160173 45:6.625219861128107E-5 46:0.05429864253393665 47:0.023715415019762844 48:1.0 49:0.04878224874855602 50:1.0 51:0.020077475434618294 52:0.11645527245676032 53:0.7296987641606592 54:0.01418827072441049 55:0.006545558640416527 56:0.195920947853574 57:0.6933295248928563 58:0.7198024197189034 59:0.2632813481416602 60:0.3705876763051739 61:0.003559898180390145 62:0.013945185695939902 
5.450108052983708 8.0 8.0 0.0 0:0.0 1:0.0 2:1.0 3:0.0 4:0.0 5:0.0 6:0.0 7:0.0 8:0.0 9:0.0 10:1.0 11:0.0 12:0.0 13:0.0 14:0.0 15:0.0 16:0.0 17:0.0 18:0.027777777777777776 19:0.0 20:0.0 21:0.006076388888888888 22:0.0 23:0.0 24:0.0 25:0.0 26:0.015968063872255488 27:0.0017271157167530224 28:0.0 29:0.0 30:0.0017985611510791368 31:0.0 32:0.0 33:2.0589521004029767E-15 34:0.004424778761061947 35:0.021621621621621623 36:0.036036036036036036 37:0.0 38:0.023076923076923078 39:0.3333333333333333 40:0.03076923076923077 41:0.5 42:0.1076923076923077 43:0.011588095865156703 44:0.07886904761904762 45:0.16828272164031893 46:0.12307692307692308 47:0.05263157894736842 48:1.0 49:0.018097805159799765 50:1.0 51:0.020077475434618294 52:0.49077180583968766 53:0.3065525231719876 54:0.026149135507139144 55:0.00442691294577864 56:0.3493688784466865 57:0.731833361435262 58:0.058743642218677575 59:0.023440726436216953 60:0.2888948229592918 61:0.0013504422901126 62:0.010872185508717493 
0.0 0.0 0.006428769982270134 0.0 0:0.0 1:0.0 2:1.0 3:0.0 4:0.0 5:0.0 6:0.0 7:0.0 8:1.0 9:0.0 10:1.0 11:0.0 12:0.0 13:0.0 14:0.0 15:0.0 16:0.0 17:0.0 18:0.0 19:0.0 20:0.0 21:8.680555555555555E-4 22:0.0 23:1.0 24:0.0 25:0.0 26:0.017964071856287425 27:8.635578583765112E-4 28:1.0 29:1.0 30:0.0 31:1.0 32:0.0 33:2.0589521004029767E-15 34:0.0 35:0.005405405405405406 36:0.0045045045045045045 37:0.0 38:0.0 39:0.5 40:0.14285714285714285 41:0.5 42:0.14285714285714285 43:0.0010534632604687912 44:0.044642857142857144 45:0.0 46:0.14285714285714285 47:0.125 48:1.0 49:0.0075658509247151125 50:1.0 51:0.02362055933484505 52:0.06904965594197507 53:0.6859506472908534 54:0.02095134643637934 55:9.700796891214298E-5 56:0.08061922628243545 57:0.7436487544134708 58:0.1331773357008858 59:0.050380480734421036 60:0.06580801082905603 61:0.004066687462941247 62:0.01394640368836839 
0.18286986428388066 8.0 0.0 0.0 0:0.0 1:0.0 2:1.0 3:0.0 4:0.0 5:0.0 6:0.0 7:0.0 8:0.0 9:0.0 10:1.0 11:0.0 12:0.0 13:0.0 14:0.0 15:0.0 16:0.0 17:0.0 18:0.0 19:0.0 20:0.0 21:0.0 22:1.0 23:0.0 24:0.0 25:0.0 26:0.017964071856287425 27:0.0 28:0.0 29:1.0 30:0.0 31:0.0 32:0.0 33:2.0589521004029767E-15 34:0.0 35:0.005405405405405406 36:0.04954954954954955 37:0.0 38:0.0 39:1.0 40:0.0 41:1.0 42:0.0 43:0.0 44:0.17857142857142858 45:0.0 46:1.0 47:0.0 48:1.0 49:0.0075658509247151125 50:1.0 51:0.020077475434618294 52:0.44331039613167206 53:0.3503996003996002 54:0.01600375912893173 55:1.509181463951851E-5 56:0.006981011053267218 57:0.7455361973812358 58:0.05787838203870346 59:0.023092417679415354 60:0.139095855155566 61:0.0016354011444501175 62:0.01394640368836839 
0.0 8.0 0.0 0.0 0:0.0 1:0.0 2:1.0 3:0.0 4:0.0 5:0.0 6:0.0 7:0.0 8:0.0 9:0.0 10:1.0 11:0.0 12:0.0 13:0.0 14:0.0 15:0.0 16:0.0 17:0.0 18:0.0 19:0.0 20:0.0 21:0.0 22:1.0 23:0.0 24:0.0 25:0.0 26:0.017964071856287425 27:0.0 28:0.0 29:1.0 30:0.0 31:0.0 32:0.0 33:2.0589521004029767E-15 34:0.0 35:0.005405405405405406 36:0.09009009009009009 37:0.0 38:0.0 39:1.0 40:0.0 41:1.0 42:0.0 43:0.0 44:0.33928571428571425 45:0.0 46:1.0 47:0.0 48:1.0 49:0.0075658509247151125 50:1.0 51:0.020077475434618294 52:0.44331039613167206 53:0.3503275075440023 54:0.0159671442367397 55:0.0 56:0.0 57:0.7455361973812358 58:0.5820329350628505 59:0.21304409426791449 60:0.21104127166713765 61:0.0010778816812119414 62:0.01394640368836839 
0.0 1.9765885262924823 0.0 0.6054870159439238 0:0.0 1:0.0 2:1.0 3:0.0 4:0.0 5:0.0 6:0.0 7:0.0 8:1.0 9:0.0 10:1.0 11:0.0 12:0.0 13:0.0 14:0.0 15:0.0 16:0.0 17:1.0 18:0.0 19:0.0 20:0.0 21:8.680555555555555E-4 22:1.0 23:1.0 24:0.0 25:0.0 26:0.011976047904191616 27:8.635578583765112E-4 28:1.0 29:1.0 30:0.0 31:0.0 32:0.0 33:2.0589521004029767E-15 34:0.0 35:0.0 36:0.0 37:0.0 38:0.0 39:0.0 40:0.5 41:0.0 42:0.5 43:0.0 44:0.017857142857142856 45:0.0 46:0.0 47:0.5 48:1.0 49:0.02208927749654855 50:1.0 51:0.033163265306122465 52:0.15873721405988472 53:0.35693327523806884 54:0.02263105461568857 55:0.0 56:0.0 57:0.7665988026061813 58:0.12247820547546673 59:0.04459713316674615 60:0.021835719203108294 61:0.01720755504294936 62:0.01394640368836839 
0.312069672180611 8.0 0.0 0.0 0:0.0 1:0.0 2:1.0 3:0.0012987012987012987 4:0.0 5:0.0 6:0.0 7:0.0 8:0.0 9:0.0 10:1.0 11:0.0 12:0.0 13:0.0 14:0.0 15:0.0 16:0.0 17:0.0 18:0.0 19:0.0 20:0.0 21:8.680555555555555E-4 22:1.0 23:0.0 24:0.0 25:0.0 26:0.011976047904191616 27:0.0 28:0.0 29:1.0 30:0.0 31:1.0 32:0.0 33:2.0589521004029767E-15 34:0.0 35:0.005405405405405406 36:0.0045045045045045045 37:0.0 38:0.0 39:1.0 40:0.0 41:0.0 42:0.09090909090909091 43:0.0023702923360547803 44:0.17857142857142858 45:0.0 46:0.09090909090909091 47:0.0 48:1.0 49:0.02208927749654855 50:1.0 51:0.03557256235827665 52:0.21140598846940678 53:0.6878873892139257 54:0.02263105461568857 55:3.338557514067935E-4 56:0.08884831074231249 57:0.765315341388101 58:0.12119912520941803 59:0.04415016821772932 60:0.13645664622109682 61:0.0029535874853761613 62:0.01394640368836839 
0.0 8.0 0.0 0.0 0:0.0 1:0.0 2:1.0 3:0.0 4:0.0 5:0.0 6:0.0 7:0.0 8:0.0 9:0.0 10:1.0 11:0.0 12:0.0 13:0.0 14:0.0 15:0.0 16:0.0 17:0.0 18:0.0 19:0.0 20:0.0 21:0.001736111111111111 22:1.0 23:1.0 24:0.0 25:0.0 26:0.015968063872255488 27:8.635578583765112E-4 28:1.0 29:0.0 30:0.0 31:0.0 32:0.0 33:2.0589521004029767E-15 34:0.0 35:0.0 36:0.0 37:0.0 38:0.0 39:0.0 40:0.3333333333333333 41:0.0 42:0.6666666666666666 43:0.0 44:0.03571428571428571 45:0.0 46:0.0 47:0.3333333333333333 48:1.0 49:0.020952172005265467 50:1.0 51:0.02834467120181406 52:0.15873721405988472 53:0.3543637854813866 54:0.0203273676486069 55:0.0 56:0.0 57:0.828208715959966 58:0.589368836588718 59:0.19272586725488927 60:0.031114447469575403 61:0.01032140247496194 62:0.01394640368836839 
0.0 1.4937319143016132 0.0 0.0 0:0.0 1:0.0 2:1.0 3:0.0 4:0.0 5:0.0 6:0.0 7:0.0 8:0.0 9:0.0 10:1.0 11:0.0 12:0.0 13:0.0 14:0.0 15:0.0 16:0.0 17:0.0 18:0.0 19:0.0 20:0.0 21:0.0 22:0.0 23:0.0 24:0.0 25:0.0 26:0.01996007984031936 27:0.0 28:0.0 29:0.0 30:0.0 31:1.0 32:0.0 33:2.0589521004029767E-15 34:0.0 35:0.016216216216216217 36:0.02702702702702703 37:0.0 38:0.0 39:0.75 40:0.0 41:0.75 42:0.0 43:0.00605741374769555 44:0.11160714285714285 45:0.0 46:0.20689655172413793 47:0.0 48:1.0 49:0.011372447660894286 50:1.0 51:0.02834467120181406 52:0.21140598846940678 53:0.6789522113980516 54:0.0203273676486069 55:3.6338722308489486E-4 56:0.04508483766747286 57:0.8411729325578878 58:0.7163727290055276 59:0.23035311285156224 60:0.3673397064419522 61:8.742445466354637E-4 62:0.01394640368836839 
0.0 8.0 0.0 0.0 0:0.0 1:0.0 2:1.0 3:0.0 4:0.0 5:0.0 6:0.0 7:0.0 8:0.0 9:0.0 10:1.0 11:0.0 12:0.0 13:0.0 14:0.0 15:0.0 16:0.0 17:0.0 18:0.0 19:0.0 20:0.0 21:0.0 22:0.0 23:0.0 24:0.0 25:0.0 26:0.02594810379241517 27:0.0 28:0.0 29:0.0 30:0.0 31:0.0 32:0.0 33:2.0589521004029767E-15 34:0.0 35:0.010810810810810811 36:0.009009009009009009 37:0.0 38:0.0 39:0.5 40:0.0 41:0.75 42:0.0 43:0.0071108770081643406 44:0.11160714285714285 45:0.0 46:0.06896551724137931 47:0.0 48:1.0 49:0.021507187780772683 50:1.0 51:0.02834467120181406 52:0.15873721405988472 53:0.7497649576923845 54:0.0203273676486069 55:3.61065405448042E-4 56:0.05073534585884164 57:0.8407413372659256 58:0.6369192724792087 59:0.20503029751668725 60:0.32434259421789163 61:9.90140489854396E-4 62:0.01394640368836839 
0.0 8.0 0.0 0.0 0:0.0 1:0.0 2:1.0 3:0.0 4:0.0 5:0.0 6:0.0 7:0.0 8:0.0 9:0.0 10:1.0 11:0.0 12:0.0 13:0.0 14:0.0 15:0.0 16:0.0 17:0.0 18:0.0 19:0.0 20:0.0 21:0.0 22:0.0 23:0.0 24:0.0 25:0.0 26:0.0279441117764471 27:0.0 28:0.0 29:1.0 30:0.0 31:1.0 32:0.0 33:2.0589521004029767E-15 34:0.0 35:0.010810810810810811 36:0.009009009009009009 37:0.0 38:0.0 39:1.0 40:0.0 41:0.0 42:0.0 43:0.004740584672109561 44:0.1607142857142857 45:0.0 46:0.1 47:0.0 48:1.0 49:0.021507187780772683 50:1.0 51:0.02834467120181406 52:0.21140598846940678 53:0.6789514086320754 54:0.0203273676486069 55:1.2437658399748876E-4 56:0.025910224675411698 57:0.8411729325578878 58:0.4563444889196537 59:0.14712938153823552 60:0.21877423683912406 61:0.0014679275757487984 62:0.01394640368836839 
0.0 3.3689236062868417 0.0 0.0 0:0.0 1:0.0 2:1.0 3:0.0 4:1.0 5:0.0 6:0.0 7:0.0 8:0.0 9:0.0 10:1.0 11:0.0 12:0.0 13:0.0 14:0.0 15:0.0 16:0.0 17:1.0 18:0.012345679012345678 19:0.0 20:0.0 21:0.008680555555555556 22:0.0 23:0.0 24:0.0 25:0.0 26:0.02994011976047904 27:0.004317789291882556 28:0.0 29:0.0 30:0.014388489208633094 31:1.0 32:0.030320743405275786 33:0.006332496470485019 34:0.02654867256637168 35:0.24864864864864866 36:0.26126126126126126 37:0.03991900304912164 38:0.01386748844375963 39:0.46938775510204084 40:0.007704160246533128 41:0.6428571428571429 42:0.015408320493066256 43:0.14537792994469317 44:0.10040087463556852 45:0.1976709146436594 46:0.08936825885978428 47:0.02546916890080429 48:1.0 49:0.20266938250428815 50:1.0 51:0.026077359956328205 52:0.10606657987725499 53:0.9999999999999998 54:0.013729058951502043 55:0.051410180912661696 56:0.2774752965912841 57:0.6834040914730359 58:0.23392497065639387 59:0.07772958715969273 60:0.7990354899368173 61:0.003995719542785564 62:0.014037906641775061 
0.0 0.38762383733072725 0.0 0.0 0:0.0 1:0.0 2:1.0 3:0.0 4:0.0 5:0.0 6:0.0 7:0.0 8:0.0 9:0.0 10:1.0 11:0.0 12:1.0 13:0.0 14:0.0 15:0.0 16:0.0 17:0.0 18:0.027777777777777776 19:0.0 20:0.0 21:0.006944444444444444 22:0.0 23:1.0 24:0.0 25:0.0 26:0.031936127744510975 27:0.008635578583765112 28:1.0 29:0.3333333333333333 30:0.0017985611510791368 31:0.0 32:0.0303186022610483 33:0.02849422181337519 34:0.008849557522123894 35:0.016216216216216217 36:0.02702702702702703 37:0.07266912272915083 38:0.029411764705882353 39:0.375 40:0.09803921568627451 41:0.125 42:0.0784313725490196 43:0.018435607058203848 44:0.20982142857142858 45:0.726775932927129 46:0.058823529411764705 47:0.11926605504587157 48:1.0 49:0.04775943396226415 50:1.0 51:0.021258503401360547 52:0.15873721405988472 53:0.9999999999999998 54:0.0554456261222847 55:0.016858085962557327 56:0.5587567720549782 57:0.8310562382506675 58:0.8776572265527031 59:0.28197326643348936 60:0.4558932581075793 61:6.513577019959455E-4 62:0.007721962298836828 
0.0 8.0 0.0 0.0 0:0.0 1:0.0 2:1.0 3:0.0 4:0.0 5:0.0 6:0.0 7:0.0 8:0.0 9:0.0 10:1.0 11:0.0 12:0.0 13:0.0 14:0.0 15:0.0 16:0.0 17:0.0 18:0.0 19:0.0 20:0.0 21:0.0 22:0.0 23:0.0 24:0.0 25:0.0 26:0.03393213572854291 27:0.0 28:0.0 29:0.0 30:0.0 31:1.0 32:0.0 33:2.0589521004029767E-15 34:0.0 35:0.010810810810810811 36:0.009009009009009009 37:0.0 38:0.0 39:0.6666666666666666 40:0.0 41:0.6666666666666666 42:0.0 43:0.0057940479325783514 44:0.125 45:0.0 46:0.08333333333333333 47:0.0 48:1.0 49:0.022700471698113206 50:1.0 51:0.02834467120181406 52:0.15873721405988472 53:0.7497649576923845 54:0.0203273676486069 55:2.4010325915180657E-4 56:0.041623916783735594 57:0.8411729325578878 58:0.594334677621613 59:0.19129403990232133 60:0.2628959176500417 61:0.0012215660782798688 62:0.01394640368836839 
0.0 8.0 0.0 0.0 0:0.0 1:0.0 2:1.0 3:0.0 4:0.0 5:0.0 6:0.0 7:0.0 8:0.0 9:0.0 10:1.0 11:0.0 12:0.0 13:0.0 14:0.0 15:0.0 16:0.0 17:0.0 18:0.0 19:0.0 20:0.0 21:0.0 22:0.0 23:0.0 24:0.0 25:0.0 26:0.03792415169660678 27:0.0 28:0.0 29:0.0 30:0.0 31:1.0 32:0.0 33:2.0589521004029767E-15 34:0.0 35:0.010810810810810811 36:0.009009009009009009 37:0.0 38:0.0 39:0.6666666666666666 40:0.0 41:0.6666666666666666 42:0.0 43:0.0057940479325783514 44:0.125 45:0.0 46:0.08333333333333333 47:0.0 48:1.0 49:0.020952172005265467 50:1.0 51:0.02834467120181406 52:0.15873721405988472 53:0.7497649576923845 54:0.0203273676486069 55:2.4456479108143616E-4 56:0.03778176319583611 57:0.8331915653948657 58:0.5090124998746 59:0.16559319145729087 60:0.2950125175687906 61:0.001088580029641165 62:0.01394640368836839 
0.0 8.0 0.0 0.0 0:0.0 1:0.0 2:1.0 3:0.0 4:0.0 5:0.0 6:0.0 7:0.0 8:0.0 9:0.0 10:1.0 11:0.0 12:0.0 13:0.0 14:0.0 15:0.0 16:0.0 17:0.0 18:0.0 19:0.0 20:0.0 21:0.0 22:1.0 23:0.0 24:0.0 25:0.0 26:0.041916167664670656 27:0.0 28:0.0 29:1.0 30:0.0 31:1.0 32:0.0 33:2.0589521004029767E-15 34:0.0 35:0.005405405405405406 36:0.0045045045045045045 37:0.0 38:0.0 39:1.0 40:0.0 41:1.0 42:0.0 43:0.0023702923360547803 44:0.1607142857142857 45:0.0 46:0.1 47:0.0 48:1.0 49:0.021507187780772683 50:1.0 51:0.02834467120181406 52:0.15873721405988472 53:0.7497649576923845 54:0.0203273676486069 55:4.006273569461377E-6 56:0.0017300357802838458 57:0.8414673736608592 58:0.3510084670097611 59:0.11337457144325233 60:0.10553930948169005 61:0.003042892138452583 62:0.01394640368836839 
0.0 8.0 0.0 0.0 0:0.0 1:0.0 2:1.0 3:0.0 4:0.0 5:0.0 6:0.0 7:0.0 8:0.0 9:0.0 10:1.0 11:0.0 12:0.0 13:0.0 14:0.0 15:0.0 16:0.0 17:0.0 18:0.0 19:0.0 20:0.0 21:0.0 22:0.0 23:0.0 24:0.0 25:0.0 26:0.04391217564870259 27:0.0 28:0.0 29:0.0 30:0.0 31:1.0 32:0.0 33:2.0589521004029767E-15 34:0.0 35:0.010810810810810811 36:0.009009009009009009 37:0.0 38:0.0 39:0.6666666666666666 40:0.0 41:0.3333333333333333 42:0.0 43:0.005530682117461154 44:0.11904761904761904 45:0.0 46:0.08695652173913043 47:0.0 48:1.0 49:0.02042238421955403 50:1.0 51:0.02834467120181406 52:0.21140598846940678 53:0.6789522113980516 54:0.0203273676486069 55:2.4196981842848902E-4 56:0.04234891040197599 57:0.835758487831026 58:0.47395065258173574 59:0.15377986319247047 60:0.2604040230507513 61:0.0012332556592528506 62:0.01394640368836839 
0.0 8.0 0.0 0.0 0:0.0 1:0.0 2:1.0 3:0.0 4:0.0 5:0.0 6:0.0 7:0.0 8:0.0 9:0.0 10:1.0 11:0.0 12:0.0 13:0.0 14:0.0 15:0.0 16:0.0 17:0.0 18:0.0 19:0.0 20:0.0 21:0.0 22:0.0 23:0.0 24:0.0 25:0.0 26:0.04790419161676646 27:0.0 28:0.0 29:1.0 30:0.0 31:1.0 32:0.0 33:2.0589521004029767E-15 34:0.0 35:0.010810810810810811 36:0.009009009009009009 37:0.0 38:0.0 39:1.0 40:0.0 41:1.0 42:0.0 43:0.004740584672109561 44:0.1607142857142857 45:0.0 46:0.1 47:0.0 48:1.0 49:0.018097805159799765 50:1.0 51:0.02834467120181406 52:0.21140598846940678 53:0.6789522113980516 54:0.0203273676486069 55:1.2678945330636587E-4 56:0.025563357657533328 57:0.8445162232014556 58:0.12032257902709645 59:0.03940290694013445 60:0.2260445105076618 61:0.001420714594653532 62:0.01394640368836839 
0.0 8.0 0.0 0.0 0:0.0 1:0.0 2:1.0 3:0.0 4:0.0 5:0.0 6:0.0 7:0.0 8:0.0 9:0.0 10:1.0 11:0.0 12:0.0 13:0.0 14:0.0 15:0.0 16:0.0 17:0.0 18:0.0 19:0.0 20:0.0 21:0.0 22:0.0 23:0.0 24:0.0 25:0.0 26:0.05389221556886227 27:0.0 28:0.0 29:1.0 30:0.0 31:1.0 32:0.0 33:2.0589521004029767E-15 34:0.0 35:0.010810810810810811 36:0.009009009009009009 37:0.0 38:0.0 39:1.0 40:0.0 41:1.0 42:0.0 43:0.0034237555965235715 44:0.11607142857142858 45:0.0 46:0.13333333333333333 47:0.0 48:1.0 49:0.02042238421955403 50:1.0 51:0.02834467120181406 52:0.15873721405988472 53:0.7497643319905881 54:0.0203273676486069 55:1.261065657661202E-4 56:0.0323802398709473 57:0.835758487831026 58:0.203086596242012 59:0.06653639405113701 60:0.17749510024221796 61:0.0018093160581970995 62:0.01394640368836839 
0.0 8.0 0.0 0.0 0:0.0 1:0.0 2:1.0 3:0.0 4:0.0 5:0.0 6:0.0 7:0.0 8:0.0 9:0.0 10:1.0 11:0.0 12:0.0 13:0.0 14:0.0 15:0.0 16:0.0 17:0.0 18:0.0 19:0.0 20:0.0 21:0.0 22:1.0 23:0.0 24:0.0 25:0.0 26:0.0558882235528942 27:0.0 28:0.0 29:1.0 30:0.0 31:1.0 32:0.0 33:2.0589521004029767E-15 34:0.0 35:0.005405405405405406 36:0.0045045045045045045 37:0.0 38:0.0 39:1.0 40:0.0 41:1.0 42:0.0 43:0.004213853041875165 44:0.2857142857142857 45:0.0 46:0.058823529411764705 47:0.0 48:1.0 49:0.021507187780772683 50:1.0 51:0.02834467120181406 52:0.21140598846940678 53:0.6789522113980516 54:0.0203273676486069 55:8.285702155031715E-6 56:0.0020490880432339036 57:0.8079753273455254 58:0.4915568162438178 59:0.1650631968412571 60:0.18428815845876836 61:0.0017426227371597507 62:0.01394640368836839 
0.0 0.0 0.043456021047892694 0.0 0:0.0 1:0.0 2:1.0 3:0.0 4:0.0 5:0.0 6:0.0 7:0.0 8:0.0 9:0.0 10:1.0 11:0.0 12:1.0 13:0.0 14:0.0 15:0.0 16:0.0 17:0.0 18:0.041666666666666664 19:0.0 20:0.0 21:0.014756944444444444 22:0.0 23:0.0 24:0.0 25:0.0 26:0.0558882235528942 27:8.635578583765112E-4 28:0.0 29:0.0 30:0.00539568345323741 31:1.0 32:0.030316461116820848 33:0.014246104754788488 34:0.017699115044247787 35:0.0972972972972973 36:0.11711711711711711 37:0.056147392609237276 38:0.020477815699658702 39:0.4090909090909091 40:0.0034129692832764505 41:0.6136363636363636 42:0.05802047781569966 43:0.06320779562812748 44:0.10105519480519481 45:9.830971406843877E-5 46:0.08873720136518772 47:0.023809523809523808 48:1.0 49:0.09310422282120394 50:1.0 51:0.026077097505668917 52:0.1587390738329924 53:0.9999999999999998 54:0.013545984490541944 55:0.01888980477765787 56:0.23647558099538138 57:0.7563348877474751 58:0.8031909290637131 59:0.26882662219990444 60:0.8162443517401557 61:0.0017233577641154886 62:0.01433376027045458 
0.0 0.0 0.9448796748629193 0.0 0:0.0 1:0.0 2:1.0 3:0.0 4:0.0 5:0.0 6:0.0 7:0.0 8:0.0 9:1.0 10:1.0 11:0.0 12:0.0 13:0.0 14:0.0 15:0.0 16:0.0 17:0.0 18:0.0 19:0.0 20:0.0 21:0.0 22:0.0 23:0.0 24:0.0 25:0.0 26:0.057884231536926144 27:0.0 28:0.0 29:0.0 30:0.0 31:1.0 32:0.0 33:2.0589521004029767E-15 34:0.0 35:0.010810810810810811 36:0.009009009009009009 37:0.0 38:0.0 39:0.6666666666666666 40:0.0 41:1.0 42:0.0 43:0.008164340268633132 44:0.17857142857142858 45:0.0 46:0.06060606060606061 47:0.0 48:1.0 49:0.021507187780772683 50:1.0 51:0.0331632653061225 52:0.15873721405988472 53:0.7609469704546816 54:0.02263105461568857 55:3.008420085317736E-4 56:0.02452432024037956 57:0.8386060101217275 58:0.33570840982734923 59:0.10851901894932771 60:0.4778420566243107 61:7.863253869788332E-4 62:0.01394640368836839 
0.0 3.2269917558923993 0.0 0.0 0:0.0 1:1.0 2:1.0 3:0.0 4:0.0 5:0.0 6:0.0 7:0.0 8:0.0 9:0.0 10:1.0 11:0.0 12:0.0 13:0.0 14:0.0 15:0.0 16:0.0 17:0.0 18:0.0 19:0.0 20:0.0 21:0.0 22:0.0 23:0.0 24:0.0 25:0.0 26:0.07584830339321356 27:0.0034542314335060447 28:0.0 29:0.0 30:0.010791366906474822 31:0.0 32:0.0 33:2.001758986502894E-15 34:0.0 35:0.032432432432432434 36:0.09009009009009009 37:1.5496683507707638E-16 38:0.0 39:0.8571428571428571 40:0.13793103448275862 41:0.7142857142857143 42:0.0 43:0.0013168290755859891 44:0.05612244897959184 45:0.035979218181313055 46:0.6896551724137931 47:0.11428571428571428 48:1.0 49:0.28999606918238996 50:1.0 51:0.026077097505668945 52:0.15873721405988472 53:0.4622143759905309 54:0.022081831232808147 55:0.0041682526729789025 56:0.3519096250118765 57:0.18391244277902066 58:0.15823476891283192 59:0.1549517092736458 60:0.054325199270055975 61:0.04137912320910285 62:0.012469427096222561 
0.0 1.9009364707643603 0.0 0.0 0:0.0 1:1.0 2:1.0 3:0.0 4:0.0 5:0.0 6:0.0 7:0.0 8:0.0 9:0.0 10:1.0 11:0.0 12:1.0 13:0.0 14:0.0 15:0.0 16:0.0 17:0.0 18:0.0 19:0.0 20:0.0 21:0.0 22:0.0 23:0.0 24:0.0 25:0.0 26:0.07584830339321356 27:0.0 28:0.0 29:1.0 30:0.0035971223021582736 31:0.0 32:0.0 33:2.1161452143030595E-15 34:0.0 35:0.016216216216216217 36:0.04054054054054054 37:1.549668350770763E-16 38:0.0 39:1.0 40:0.0 41:0.3333333333333333 42:0.0 43:5.267316302343956E-4 44:0.05357142857142857 45:0.027588697802350442 46:0.75 47:0.07142857142857142 48:1.0 49:0.12293632075471697 50:1.0 51:0.026077097505668896 52:0.15873721405988472 53:0.4622143759905309 54:0.02837654144882072 55:0.0014327690797481325 56:0.3202110622503414 57:0.2585041888650931 58:0.3070595198683801 59:0.28658709024210394 60:0.05027706852495745 61:0.01820497302208459 62:0.011690753290736272 
0.0 0.9400452803254993 0.0 0.0 0:0.0 1:1.0 2:1.0 3:0.0 4:0.0 5:0.0 6:0.0 7:0.0 8:0.0 9:0.0 10:1.0 11:0.0 12:1.0 13:0.0 14:0.0 15:0.0 16:1.0 17:0.0 18:0.0 19:0.0 20:0.0 21:0.0 22:0.0 23:0.0 24:0.0 25:0.0 26:0.07584830339321356 27:0.0 28:0.0 29:0.0 30:0.01798561151079137 31:0.0 32:0.002312435765673203 33:7.902865834237776E-4 34:0.004424778761061947 35:0.1783783783783784 36:0.18468468468468469 37:0.0021534640068321376 38:0.004464285714285714 39:0.7674418604651163 40:0.0 41:0.8372093023255814 42:0.0 43:0.07558598893863577 44:0.12167774086378738 45:0.48339100124169443 46:0.12202380952380952 47:0.013227513227513227 48:1.0 49:0.45705581761006286 50:1.0 51:0.02607709750566893 52:0.29063232285661156 53:0.63740044536281 54:0.022081831232808147 55:0.11183670234080281 56:0.6205907467654183 57:0.10916970125552705 58:0.15823476891283192 59:0.1549517092736458 60:0.3222800049026815 61:0.006906260882622037 62:0.013071521622516586 
0.9004637680491908 0.0 0.0 0.0 0:0.0 1:0.0 2:1.0 3:0.0 4:0.0 5:0.0 6:0.0 7:0.0 8:0.0 9:0.0 10:1.0 11:0.0 12:0.0 13:0.0 14:0.0 15:0.0 16:0.0 17:1.0 18:0.0 19:0.0 20:0.0 21:8.680555555555555E-4 22:0.0 23:0.0 24:0.0 25:0.0 26:0.01996007984031936 27:0.0 28:1.0 29:0.0 30:0.0 31:1.0 32:0.0 33:2.0589521004029767E-15 34:0.0 35:0.021621621621621623 36:0.018018018018018018 37:0.0 38:0.0 39:0.4 40:0.0 41:0.7 42:0.013513513513513514 43:0.017645509612852252 44:0.1142857142857143 45:0.0 46:0.05405405405405406 47:0.012048192771084338 48:1.0 49:0.019916142557651992 50:1.0 51:0.026077097505668917 52:0.07955551422726428 53:0.9999999999999998 54:0.020504339627535006 55:0.001092705652971294 56:0.058854448655477835 57:0.9188261111376753 58:0.15117349344408662 59:0.04484497189006003 60:0.9197394154650175 61:3.212357232299373E-4 62:0.01394640368836839 
2.4606146988917015 8.0 0.0 0.0 0:0.0 1:0.0 2:1.0 3:0.0 4:0.0 5:0.0 6:0.0 7:0.0 8:0.0 9:0.0 10:1.0 11:0.0 12:0.0 13:0.0 14:0.0 15:0.0 16:0.0 17:0.0 18:0.0 19:0.0 20:0.0 21:0.0 22:0.0 23:0.0 24:0.0 25:0.0 26:0.00998003992015968 27:0.0 28:0.0 29:0.0 30:0.0 31:0.0 32:0.0 33:2.0589521004029767E-15 34:0.0 35:0.010810810810810811 36:0.009009009009009009 37:0.0 38:0.0 39:0.6666666666666666 40:0.0 41:0.6666666666666666 42:0.0 43:0.004213853041875165 44:0.08928571428571427 45:0.0 46:0.1111111111111111 47:0.0 48:1.0 49:0.02896521226415094 50:1.0 51:0.02352607709750562 52:0.4287762692951461 53:0.9999999999999998 54:0.021720259172411934 55:1.9860554910591091E-4 56:0.05706220822929128 57:0.9544534845972071 58:0.4872117053400347 59:0.13825136481419312 60:0.1911144142719787 61:0.0013947149468793714 62:0.01394640368836839 
0.0 0.0 8.0 0.0 0:0.0 1:0.0 2:1.0 3:0.0 4:0.0 5:0.0 6:0.0 7:0.0 8:0.0 9:0.0 10:1.0 11:0.0 12:0.0 13:0.0 14:0.0 15:0.0 16:0.0 17:1.0 18:0.0 19:0.0 20:0.0 21:0.0 22:0.0 23:0.0 24:0.0 25:0.0 26:0.00998003992015968 27:8.635578583765112E-4 28:0.0 29:0.0 30:0.0 31:1.0 32:0.0 33:2.0589521004029767E-15 34:0.0 35:0.032432432432432434 36:0.02702702702702703 37:0.0 38:0.0 39:0.75 40:0.017543859649122806 41:0.75 42:0.0 43:0.012904924940742692 44:0.109375 45:0.0 46:0.10526315789473684 47:0.015625 48:1.0 49:0.02896521226415094 50:1.0 51:0.02834467120181406 52:0.07951087967267995 53:0.9999999999999998 54:0.01252686999119719 55:9.560425563496244E-4 56:0.05403903162055316 57:0.9518865621610466 58:0.6253849780800754 59:0.1774113448321894 60:0.8063032276778324 61:3.9829275649119175E-4 62:0.01394640368836839 
0.0 8.0 0.0 0.0 0:0.0 1:0.0 2:1.0 3:0.0 4:0.0 5:0.0 6:0.0 7:0.0 8:0.0 9:0.0 10:1.0 11:0.0 12:0.0 13:0.0 14:0.0 15:0.0 16:0.0 17:1.0 18:0.0 19:0.0 20:0.0 21:0.0 22:1.0 23:0.0 24:0.0 25:0.0 26:0.011976047904191616 27:0.0 28:0.0 29:1.0 30:0.0 31:1.0 32:0.0 33:2.0589521004029767E-15 34:0.0 35:0.005405405405405406 36:0.0045045045045045045 37:0.0 38:0.0 39:1.0 40:0.0 41:1.0 42:0.0 43:0.0015801948907031868 44:0.10714285714285715 45:0.0 46:0.14285714285714285 47:0.0 48:1.0 49:0.015226746110559415 50:1.0 51:0.026077097505668917 52:0.8565594197507905 53:0.9999999999999998 54:0.1864528948884494 55:0.0 56:0.0 57:0.9530945256604163 58:0.1257085101473701 59:0.0357969782352452 60:0.07453897875063326 61:0.0039637403310610105 62:0.01394640368836839 
1.4315144985623043 0.5241274354051492 0.12344749130437642 0.0 0:0.0 1:0.0 2:1.0 3:0.007792207792207792 4:1.0 5:0.0 6:0.0 7:0.0 8:0.0 9:0.0 10:1.0 11:0.0 12:0.0 13:0.0 14:0.0 15:0.0 16:0.0 17:0.0 18:0.008547008547008548 19:0.0 20:0.0 21:0.012152777777777776 22:0.0 23:1.0 24:0.0 25:0.0 26:0.011976047904191616 27:0.0025906735751295333 28:0.0 29:0.0 30:0.02158273381294964 31:1.0 32:0.76014260020555 33:0.27527913528431125 34:0.022123893805309734 35:0.1783783783783784 36:0.17117117117117117 37:0.8219297684821301 38:0.01126126126126126 39:0.3333333333333333 40:0.0045045045045045045 41:0.696969696969697 42:0.021021021021021023 43:0.15801948907031868 44:0.10227272727272727 45:0.7749455556529156 46:0.057057057057057055 47:0.013089005235602094 48:1.0 49:0.2262495862297252 50:1.0 51:0.026084365370079604 52:0.0795053003533569 53:0.9999999999999997 54:0.01628599892291185 55:0.08525857169469826 56:0.3619394149242698 57:0.794846274061752 58:0.4289182492149959 59:0.1217302928892973 60:0.6424074909866132 61:0.003887809724292765 62:0.009827787715090443 
8.0 0.0 1.3200967826682966 0.0 0:0.0 1:0.0 2:1.0 3:0.0025974025974025974 4:1.0 5:0.0 6:0.0 7:0.0 8:0.0 9:0.0 10:1.0 11:0.0 12:0.0 13:0.0 14:0.0 15:0.0 16:0.0 17:1.0 18:0.011111111111111112 19:0.0 20:0.0 21:0.005208333333333333 22:0.0 23:0.0 24:0.0 25:0.0 26:0.015968063872255488 27:0.0025906735751295333 28:0.0 29:0.0 30:0.007194244604316546 31:1.0 32:8.564576909880692E-6 33:1.2878744324457474E-5 34:0.017699115044247787 35:0.0972972972972973 36:0.08108108108108109 37:2.2356985121891804E-5 38:0.01639344262295082 39:0.34615384615384615 40:0.00819672131147541 41:0.6346153846153846 42:0.01639344262295082 43:0.08743745061890967 44:0.10782967032967034 45:0.13677232111372087 46:0.04918032786885246 47:0.016786570743405275 48:1.0 49:0.10205385220125786 50:1.0 51:0.026093631897203328 52:0.07950344058024925 53:0.9999999999999998 54:0.016285998922911937 55:0.04506092906634364 56:0.35400844440394735 57:0.8739716581563961 58:0.06656609584574792 59:0.01903530127457181 60:0.9149402878978576 61:0.0021006743345549275 62:0.013554343398047137 
0.0 2.019114481395387 0.0 0.0 0:0.0 1:0.0 2:1.0 3:0.007792207792207792 4:0.0 5:0.0 6:0.0 7:0.0 8:0.0 9:0.0 10:1.0 11:0.0 12:0.0 13:0.0 14:0.0 15:0.0 16:0.0 17:1.0 18:0.011111111111111112 19:0.0 20:0.0 21:0.013888888888888888 22:0.0 23:0.0 24:0.25 25:0.008130081300813007 26:0.021956087824351295 27:0.0034542314335060447 28:0.0 29:0.0 30:0.01618705035971223 31:1.0 32:0.03032716683795818 33:0.005716955096880061 34:0.022123893805309734 35:0.24864864864864866 36:0.22522522522522523 37:0.04364293015626986 38:0.01016260162601626 39:0.368 40:0.005420054200542005 41:0.688 42:0.02168021680216802 43:0.17224124308664737 44:0.08757142857142858 45:4.317078748218098E-4 46:0.06775067750677506 47:0.015081206496519721 48:1.0 49:0.20646619496855345 50:1.0 51:0.02609481292517006 52:0.07950344058024925 53:0.9999999999999998 54:0.04394702435348023 55:0.0973393917552849 56:0.3707188164882169 57:0.7750683883501985 58:0.5651064395421395 59:0.1603276764942421 60:0.9383713591054577 61:0.004335413918480364 62:0.014354474451610748 
0.0 8.0 0.0 0.0 0:0.0 1:0.0 2:1.0 3:0.0 4:0.0 5:0.0 6:0.0 7:0.0 8:0.0 9:0.0 10:1.0 11:0.0 12:0.0 13:0.0 14:0.0 15:0.0 16:0.0 17:0.0 18:0.0 19:0.0 20:0.0 21:0.0 22:0.0 23:0.0 24:0.0 25:0.0 26:0.00998003992015968 27:0.0 28:0.0 29:0.0 30:0.0017985611510791368 31:1.0 32:0.004809009934909176 33:0.004519634335654285 34:0.0 35:0.010810810810810811 36:0.013513513513513514 37:0.0096120421295866 38:0.0 39:0.2857142857142857 40:0.0 41:0.14285714285714285 42:0.0 43:0.01790887542796945 44:0.18112244897959182 45:0.004537207021023298 46:0.038461538461538464 47:0.0 48:1.0 49:0.041222313371616075 50:1.0 51:0.024801587301587304 52:0.21444299795424965 53:0.9999999999999998 54:0.0037728595162867602 55:0.002067271306221 56:0.13019048875101374 57:0.7331998701439238 58:0.08534474975170794 59:0.03270441774245335 60:0.36500653785169224 61:0.0017018727637557424 62:0.014121762245119997 
0.0 1.8983039281845906 0.0 0.0 0:0.0 1:0.0 2:1.0 3:0.0 4:0.0 5:0.0 6:0.0 7:0.0 8:1.0 9:0.0 10:1.0 11:0.0 12:0.0 13:0.0 14:0.0 15:0.0 16:0.0 17:0.0 18:0.0 19:0.0 20:0.0 21:0.001736111111111111 22:0.0 23:0.0 24:0.0 25:0.0 26:0.011976047904191616 27:0.0 28:1.0 29:1.0 30:0.0017985611510791368 31:0.0 32:5.738266529633451E-4 33:5.392974185037553E-4 34:0.0 35:0.0 36:0.0 37:0.0023389507763769933 38:0.0 39:0.0 40:0.0 41:0.0 42:1.0 43:0.0 44:0.0 45:5.727609428329027E-4 46:0.0 47:0.0 48:1.0 49:0.04029506222400642 50:1.0 51:0.020077475434618294 52:0.07934721963920405 53:0.23480362370877755 54:0.01518450091613512 55:6.540209734066628E-5 56:0.19906803667603393 57:0.7377083422462585 58:0.7263420310791424 59:0.2630083446514633 60:0.008465387148297396 61:0.059083645946697336 62:0.01394640368836839 
8.0 4.530495219637606 8.0 0.0 0:0.0 1:0.0 2:1.0 3:0.0 4:0.0 5:0.0 6:0.0 7:0.0 8:0.0 9:0.0 10:1.0 11:0.0 12:0.0 13:0.0 14:0.0 15:0.0 16:0.0 17:1.0 18:0.0 19:0.0 20:0.0 21:0.0 22:0.0 23:1.0 24:0.0 25:0.0 26:0.01397205588822355 27:0.0 28:0.0 29:0.0 30:0.0035971223021582736 31:1.0 32:0.2500535286056869 33:0.16954598593303988 34:0.0 35:0.02702702702702703 36:0.03153153153153153 37:0.47848091986596425 38:0.0 39:0.3125 40:0.0 41:0.4375 42:0.0 43:0.030813800368712143 44:0.12946428571428573 45:0.24962759852877378 46:0.05303030303030303 47:0.006802721088435374 48:1.0 49:0.06028891509433962 50:1.0 51:0.024801587301587304 52:0.10871861632880789 53:0.9999999999999998 54:0.012421602176145087 55:0.016522084654375505 56:0.40910080675994215 57:0.7168420310899606 58:0.17396369418444838 59:0.06454432018186165 60:0.4301073707102308 61:0.0016142128662127897 62:0.010622105404994595 
0.1006419469418179 8.0 0.0 0.0 0:0.0 1:0.0 2:1.0 3:0.0 4:0.0 5:0.0 6:0.0 7:0.0 8:0.0 9:1.0 10:1.0 11:0.0 12:0.0 13:1.0 14:0.0 15:0.0 16:0.0 17:0.0 18:0.0 19:0.0 20:0.0 21:0.0 22:1.0 23:0.0 24:0.0 25:0.0 26:0.02594810379241517 27:0.0 28:0.0 29:1.0 30:0.0 31:0.0 32:0.0 33:2.0589521004029767E-15 34:0.0 35:0.005405405405405406 36:0.0045045045045045045 37:0.0 38:0.0 39:1.0 40:0.0 41:0.0 42:0.0 43:0.004477218856992362 44:0.30357142857142855 45:0.0 46:0.05555555555555555 47:0.0 48:1.0 49:0.01852397798742138 50:1.0 51:0.02362055933484505 52:0.0837920773665613 53:0.9999999999999998 54:0.00457686152400335 55:0.0 56:0.0 57:0.7501868568538087 58:0.06779501610136335 59:0.026398973564107545 60:0.17669628307258697 61:0.0015145797520239022 62:0.01394640368836839 
0.6902809183287982 8.0 0.0 0.0 0:0.0 1:0.0 2:1.0 3:0.0 4:0.0 5:0.0 6:0.0 7:0.0 8:1.0 9:0.0 10:1.0 11:0.0 12:0.0 13:0.0 14:0.0 15:0.0 16:0.0 17:0.0 18:0.0 19:0.0 20:0.0 21:0.0 22:1.0 23:0.0 24:0.0 25:0.0 26:0.02594810379241517 27:0.0 28:0.0 29:0.0 30:0.0 31:0.0 32:0.0 33:2.0589521004029767E-15 34:0.0 35:0.0 36:0.0045045045045045045 37:0.0 38:0.0 39:0.0 40:0.0 41:0.0 42:0.0 43:0.0026336581511719782 44:0.21428571428571427 45:0.0 46:0.07692307692307693 47:0.0 48:1.0 49:0.01852397798742138 50:1.0 51:0.02362055933484505 52:0.08354100799702438 53:0.9999999999999998 54:0.00457686152400335 55:0.0 56:0.0 57:0.7501868568538087 58:0.37348767568543656 59:0.13623129576003953 60:0.12743312447895333 61:0.0021000867215166166 62:0.01394640368836839 
8.0 3.329671009323017 8.0 0.0 0:0.0 1:0.0 2:1.0 3:0.0 4:0.0 5:0.0 6:0.0 7:0.0 8:0.0 9:0.0 10:1.0 11:0.0 12:0.0 13:0.0 14:0.0 15:0.0 16:0.0 17:1.0 18:0.1111111111111111 19:0.0 20:0.0 21:0.021701388888888888 22:0.0 23:0.0 24:0.0 25:0.0 26:0.02594810379241517 27:8.635578583765112E-4 28:0.0 29:0.0 30:0.0035971223021582736 31:1.0 32:0.0017921377183967033 33:0.002162555817476501 34:0.022123893805309734 35:0.06486486486486487 36:0.07657657657657657 37:0.008321321901714281 38:0.03658536585365854 39:0.46153846153846156 40:0.004878048780487805 41:0.4230769230769231 42:0.12195121951219512 43:0.03871477482222808 44:0.12293956043956045 45:0.12884984046043135 46:0.08292682926829269 47:0.04782608695652174 48:1.0 49:0.06028891509433962 50:1.0 51:0.024801587301587304 52:0.04584340710433329 53:0.9999999999999998 54:0.01105769744199208 55:0.011198701226202906 56:0.22553527071200657 57:0.7168420310899606 58:0.39511667218426777 59:0.14400237837440952 60:0.7010239660366455 61:0.001312931665792917 62:0.013149324745161665 
0.0 8.0 0.0 0.0 0:0.0 1:0.0 2:1.0 3:0.0 4:0.0 5:0.0 6:0.0 7:0.0 8:0.0 9:0.0 10:1.0 11:0.0 12:0.0 13:0.0 14:0.0 15:0.0 16:0.0 17:0.0 18:0.0 19:0.0 20:0.0 21:0.001736111111111111 22:0.0 23:0.0 24:0.0 25:0.0 26:0.02594810379241517 27:0.0025906735751295333 28:1.0 29:0.0 30:0.0 31:0.0 32:0.0 33:2.0589521004029767E-15 34:0.0 35:0.016216216216216217 36:0.02702702702702703 37:0.0 38:0.0 39:0.375 40:0.06521739130434782 41:0.5 42:0.043478260869565216 43:0.008164340268633132 44:0.08482142857142858 45:0.0 46:0.13043478260869565 47:0.09433962264150944 48:1.0 49:0.01852397798742138 50:1.0 51:0.020077475434618294 52:0.046380881532453046 53:0.9999999999999998 54:0.004451760642347268 55:6.126051339891976E-4 56:0.09911564448386495 57:0.7520742998215737 58:0.4666561330644757 59:0.1697057928031662 60:0.39767608523980913 61:5.720170992241223E-4 62:0.01394640368836839 
0.0 4.629305553516188 0.0 0.0 0:0.0 1:0.0 2:1.0 3:0.0 4:0.0 5:0.0 6:0.0 7:0.0 8:0.0 9:0.0 10:1.0 11:0.0 12:0.0 13:0.0 14:0.0 15:0.0 16:0.0 17:0.0 18:0.018518518518518517 19:0.0 20:0.0 21:0.006944444444444444 22:0.0 23:1.0 24:0.0 25:0.0 26:0.02594810379241517 27:8.635578583765112E-4 28:1.0 29:0.0 30:0.0035971223021582736 31:0.0 32:0.03236767728674204 33:0.04033595891067487 34:0.01327433628318584 35:0.02702702702702703 36:0.036036036036036036 37:0.13113068133329883 38:0.021951219512195124 39:0.1724137931034483 40:0.004878048780487805 41:0.4827586206896552 42:0.03902439024390244 43:0.04661574927574401 44:0.10837438423645321 45:0.35654154974578395 46:0.03902439024390244 47:0.017167381974248927 48:1.0 49:0.06028891509433962 50:1.0 51:0.020077475434618245 52:0.04638274130556073 53:0.9999999999999998 54:0.0044502350218392165 55:0.012079510441625169 56:0.32637228965445025 57:0.7269083935847072 58:0.5956137578876616 59:0.2160389805822692 60:0.5711494349699887 61:0.0010738985289390364 62:0.01121529781454898 
0.0 2.2907784807109315 0.0 0.0 0:0.0 1:1.0 2:1.0 3:0.0 4:1.0 5:0.0 6:0.0 7:0.0 8:0.0 9:0.0 10:1.0 11:0.0 12:0.0 13:0.0 14:0.0 15:0.0 16:0.0 17:0.0 18:0.0 19:0.0 20:0.0 21:0.017361111111111112 22:0.0 23:0.0 24:0.0 25:0.0 26:0.049900199600798396 27:0.0025906735751295333 28:0.0 29:0.0 30:0.0035971223021582736 31:0.0 32:0.0 33:2.0589521004029767E-15 34:0.004424778761061947 35:0.05945945945945946 36:0.06306306306306306 37:0.0 38:0.00847457627118644 39:0.3333333333333333 40:0.01694915254237288 41:0.5454545454545454 42:0.11299435028248588 43:0.03371082433500132 44:0.07792207792207792 45:0.5962826105075987 46:0.07909604519774012 47:0.023923444976076555 48:1.0 49:0.05546988388969521 50:1.0 51:0.020077475434618294 52:0.05907383299237493 53:0.9999999999999998 54:0.01777653015922908 55:0.015401042772612426 56:0.421048615411066 57:0.7275387995359408 58:0.6754007784833619 59:0.2449132952075697 60:0.4978145607148771 61:0.0010116388548762681 62:0.009543745883297258 
0.0 0.0 0.0 0.8753766190967247 0:0.0 1:0.0 2:1.0 3:0.0 4:0.0 5:0.0 6:0.0 7:0.0 8:1.0 9:0.0 10:1.0 11:0.0 12:0.0 13:0.0 14:0.0 15:0.0 16:0.0 17:0.0 18:0.0 19:0.0 20:0.0 21:0.0 22:0.0 23:1.0 24:0.0 25:0.0 26:0.001996007984031936 27:0.0 28:0.0 29:0.0 30:0.010791366906474822 31:0.0 32:0.06539054470709148 33:0.04591502328523165 34:0.004424778761061947 35:0.043243243243243246 36:0.04504504504504504 37:0.1915390573429742 38:0.01764705882352941 39:0.5714285714285714 40:0.0 41:0.7142857142857143 42:0.0 43:0.018698972873321045 44:0.09056122448979592 45:1.2823006182826634E-4 46:0.11764705882352941 47:0.04081632653061224 48:1.0 49:0.12757686932215231 50:1.0 51:0.018849206349206338 52:0.05909057095034407 53:0.31036294127374775 54:0.012946415630897483 55:0.005645016979786256 56:0.3683808103879958 57:0.6543123038632184 58:0.42359125610698134 59:0.15918867138163198 60:0.0993414367481152 61:0.014808465003535411 62:0.011258626344264885 
0.0 8.0 0.0 0.0 0:0.0 1:0.0 2:1.0 3:0.0 4:0.0 5:0.0 6:0.0 7:1.0 8:0.0 9:0.0 10:1.0 11:0.0 12:0.0 13:0.0 14:0.0 15:0.0 16:0.0 17:0.0 18:0.0 19:0.0 20:0.0 21:8.680555555555555E-4 22:1.0 23:0.0 24:0.0 25:0.0 26:0.003992015968063872 27:0.0 28:1.0 29:1.0 30:0.0 31:1.0 32:0.0 33:2.0589521004029767E-15 34:0.0 35:0.0 36:0.0 37:0.0 38:0.0 39:0.0 40:0.0 41:0.0 42:1.0 43:0.0 44:0.0 45:0.0 46:0.0 47:0.0 48:1.0 49:0.018097805159799765 50:1.0 51:0.02834467120181406 52:0.1851831876511066 53:0.34459504541858493 54:0.015741352401555542 55:0.0 56:0.0 57:0.7255947332791428 58:0.3535089435298603 59:0.13310266615312644 60:0.01384339780721574 61:0.023198404003976186 62:0.01394640368836839 
0.0 8.0 0.0 0.0 0:0.0 1:0.0 2:1.0 3:0.0 4:0.0 5:0.0 6:0.0 7:0.0 8:0.0 9:0.0 10:1.0 11:0.0 12:0.0 13:0.0 14:0.0 15:0.0 16:0.0 17:0.0 18:0.0 19:0.0 20:0.0 21:0.0 22:0.0 23:0.0 24:0.0 25:0.0 26:0.003992015968063872 27:0.0 28:0.0 29:1.0 30:0.0 31:1.0 32:0.0 33:2.0589521004029767E-15 34:0.0 35:0.010810810810810811 36:0.009009009009009009 37:0.0 38:0.0 39:1.0 40:0.0 41:0.5 42:0.0 43:0.004477218856992362 44:0.15178571428571427 45:0.0 46:0.10526315789473684 47:0.0 48:1.0 49:0.018097805159799765 50:1.0 51:0.02834467120181406 52:0.2167807327506045 53:0.6799919933659317 54:0.015741352401555542 55:1.5096367223120844E-4 56:0.026600352960051442 57:0.7255947332791428 58:0.3535089435298603 59:0.13310266615312644 60:0.2586507749771455 61:0.001241615205475125 62:0.01394640368836839 
0.0 8.0 0.0 0.0 0:0.0 1:0.0 2:1.0 3:0.0 4:0.0 5:0.0 6:0.0 7:0.0 8:0.0 9:0.0 10:1.0 11:0.0 12:0.0 13:0.0 14:0.0 15:0.0 16:0.0 17:0.0 18:0.0 19:0.0 20:0.0 21:0.0 22:0.0 23:0.0 24:0.0 25:0.0 26:0.003992015968063872 27:0.0 28:0.0 29:0.0 30:0.0035971223021582736 31:0.0 32:0.0 33:2.0589521004029767E-15 34:0.0 35:0.010810810810810811 36:0.009009009009009009 37:0.0 38:0.0 39:0.4 40:0.0 41:0.4 42:0.0 43:0.010007900974453516 44:0.1357142857142857 45:0.0868288491993101 46:0.046511627906976744 47:0.02127659574468085 48:1.0 49:0.05901039661147477 50:1.0 51:0.018849206349206393 52:0.8335000929886556 53:0.0 54:0.012741982482825376 55:0.0027819798959061387 56:0.37941463117321295 57:0.7054381006787245 58:0.5748236875633269 59:0.214988732664401 60:0.10685061454975958 61:0.005239320094432999 62:0.025333752985664745 
0.6508622289831049 6.998941273587689 0.0 0.0 0:0.0 1:0.0 2:1.0 3:0.0 4:0.0 5:0.0 6:0.0 7:0.0 8:1.0 9:0.0 10:1.0 11:0.0 12:0.0 13:0.0 14:0.0 15:0.0 16:0.0 17:0.0 18:0.0 19:0.0 20:0.0 21:0.0 22:0.0 23:1.0 24:0.0 25:0.0 26:0.005988023952095808 27:0.0 28:0.0 29:1.0 30:0.0017985611510791368 31:0.0 32:0.08568859198355605 33:0.08053239809118802 34:0.0 35:0.010810810810810811 36:0.009009009009009009 37:0.34525605408819376 38:0.0 39:1.0 40:0.0 41:1.0 42:0.0 43:0.006320779562812747 44:0.21428571428571427 45:2.1371676971387848E-5 46:0.07692307692307693 47:0.0 48:1.0 49:0.03409090909090909 50:1.0 51:0.018849206349206258 52:0.04391482239166821 53:0.3066295687608722 54:0.012937261907849454 55:0.0017356176395023648 56:0.37665406996848866 57:0.6934314468131156 58:0.6566083305745327 59:0.2539131421106612 60:0.0984785956420685 61:0.0034406714376803336 62:0.009809688465292819 
0.22963077669155096 8.0 0.0 0.0 0:0.0 1:0.0 2:1.0 3:0.0 4:0.0 5:0.0 6:0.0 7:0.0 8:1.0 9:0.0 10:1.0 11:0.0 12:0.0 13:0.0 14:0.0 15:0.0 16:0.0 17:0.0 18:0.0 19:0.0 20:0.0 21:0.0 22:0.0 23:1.0 24:0.0 25:0.0 26:0.005988023952095808 27:0.0 28:0.0 29:0.0 30:0.0035971223021582736 31:0.0 32:0.07579650565262075 33:0.08129707353533215 34:0.0 35:0.010810810810810811 36:0.009009009009009009 37:0.22425223702419245 38:0.0 39:0.5 40:0.0 41:1.0 42:0.0 43:0.009217803529101924 44:0.14732142857142858 45:1.1113272025114392E-4 46:0.05405405405405406 47:0.0 48:1.0 49:0.0523156089193825 50:1.0 51:0.018849206349206348 52:0.0483782778501023 53:0.3066295687608722 54:0.012949466871913479 55:0.0029033030924325524 56:0.4197418332890125 57:0.6808245860837573 58:0.15791876084710227 59:0.06305665342202556 60:0.0930445640387864 61:0.005553985269306882 62:0.02107895271321847 
0.6012734815333769 0.0 0.0 0.0 0:0.0 1:0.0 2:1.0 3:0.0 4:0.0 5:0.0 6:0.0 7:0.0 8:1.0 9:0.0 10:1.0 11:0.0 12:0.0 13:0.0 14:0.0 15:0.0 16:0.0 17:0.0 18:0.0 19:0.0 20:0.0 21:0.0 22:0.0 23:1.0 24:0.0 25:0.0 26:0.005988023952095808 27:0.0 28:0.0 29:0.0 30:0.0035971223021582736 31:0.0 32:0.09879239465570401 33:0.06318633933191704 34:0.0 35:0.016216216216216217 36:0.013513513513513514 37:0.3625378982036891 38:0.0 39:0.6 40:0.0 41:1.0 42:0.0 43:0.009481169344219121 44:0.12142857142857141 45:6.411503091413317E-5 46:0.07692307692307693 47:0.0 48:1.0 49:0.0523156089193825 50:1.0 51:0.018849206349206393 52:0.047374000371954626 53:0.3066295687608722 54:0.012955569353945469 55:0.002570886427877521 56:0.368646416856655 57:0.6808245860837573 58:0.4770869072340767 59:0.18520741698015036 60:0.10351356446883363 61:0.0055086092960064505 62:0.010766110622672714 
0.0 8.0 0.0 0.0 0:0.0 1:0.0 2:1.0 3:0.0 4:0.0 5:0.0 6:0.0 7:1.0 8:0.0 9:0.0 10:1.0 11:0.0 12:0.0 13:0.0 14:0.0 15:0.0 16:0.0 17:0.0 18:0.0 19:0.0 20:0.0 21:8.680555555555555E-4 22:1.0 23:0.0 24:0.0 25:0.0 26:0.007984031936127744 27:0.0 28:1.0 29:1.0 30:0.0 31:1.0 32:0.0 33:2.0589521004029767E-15 34:0.0 35:0.0 36:0.0 37:0.0 38:0.0 39:0.0 40:0.0 41:0.0 42:1.0 43:0.0 44:0.0 45:0.0 46:0.0 47:0.0 48:1.0 49:0.016917634252539913 50:1.0 51:0.02834467120181406 52:0.1851831876511066 53:0.34457285833432616 54:0.0157260961964755 55:0.0 56:0.0 57:0.7193108064917971 58:0.1578849028400598 59:0.06130003043391364 60:0.01384339780721574 61:0.023198404003976186 62:0.01394640368836839 
0.0 8.0 0.0 0.0 0:0.0 1:0.0 2:1.0 3:0.0 4:0.0 5:0.0 6:0.0 7:1.0 8:0.0 9:0.0 10:1.0 11:0.0 12:0.0 13:0.0 14:0.0 15:0.0 16:0.0 17:0.0 18:0.0 19:0.0 20:0.0 21:8.680555555555555E-4 22:1.0 23:0.0 24:0.0 25:0.0 26:0.007984031936127744 27:0.0 28:1.0 29:1.0 30:0.0 31:1.0 32:0.0 33:2.0589521004029767E-15 34:0.0 35:0.0 36:0.0 37:0.0 38:0.0 39:0.0 40:0.0 41:0.0 42:1.0 43:0.0 44:0.0 45:0.0 46:0.0 47:0.0 48:1.0 49:0.016917634252539913 50:1.0 51:0.02834467120181406 52:0.1851831876511066 53:0.34457285833432616 54:0.0157260961964755 55:0.0 56:0.0 57:0.7193108064917971 58:0.7836561130004714 59:0.2948153842474788 60:0.01384339780721574 61:0.023198404003976186 62:0.01394640368836839 
0.0 8.0 0.0 0.0 0:0.0 1:0.0 2:1.0 3:0.0 4:0.0 5:0.0 6:0.0 7:0.0 8:0.0 9:0.0 10:1.0 11:0.0 12:0.0 13:0.0 14:0.0 15:0.0 16:0.0 17:0.0 18:0.0 19:0.0 20:0.0 21:0.0 22:0.0 23:0.0 24:0.0 25:0.0 26:0.007984031936127744 27:0.0 28:0.0 29:0.0 30:0.00539568345323741 31:0.0 32:0.0 33:2.0589521004029767E-15 34:0.0 35:0.021621621621621623 36:0.018018018018018018 37:0.0 38:0.0 39:0.5714285714285714 40:0.0 41:0.7142857142857143 42:0.0 43:0.0121148274953911 44:0.10969387755102042 45:0.07857297038526732 46:0.08 47:0.0 48:1.0 49:0.07474600870827286 50:1.0 51:0.01884920634920634 52:0.8335000929886556 53:0.0 54:0.012741982482825376 55:0.0036095433303085654 56:0.3949328701991161 57:0.6865460548667088 58:0.2440685787662644 59:0.09346068475948155 60:0.09802005383820234 61:0.0077470933175713816 62:0.02479978932683029 
0.0 8.0 0.0 0.4597884837295664 0:0.0 1:0.0 2:1.0 3:0.0 4:0.0 5:0.0 6:0.0 7:0.0 8:0.0 9:0.0 10:1.0 11:0.0 12:0.0 13:0.0 14:0.0 15:0.0 16:0.0 17:1.0 18:0.0 19:0.0 20:0.0 21:0.0 22:0.0 23:0.0 24:0.0 25:0.0 26:0.007984031936127744 27:0.0 28:0.0 29:0.0 30:0.0035971223021582736 31:0.0 32:0.0 33:2.0589521004029767E-15 34:0.0 35:0.010810810810810811 36:0.009009009009009009 37:0.0 38:0.0 39:0.4 40:0.0 41:0.6 42:0.0 43:0.011324730050039505 44:0.1464285714285714 45:0.063373433723224 46:0.043478260869565216 47:0.02 48:1.0 49:0.05546988388969521 50:1.0 51:0.018849206349206393 52:0.8335000929886556 53:0.0 54:0.012741982482825376 55:0.002188524290526811 56:0.29804100165198516 57:0.6991541738913789 58:0.49883001775664365 59:0.18852850922625658 60:0.12067810517524241 61:0.005231659715308552 62:0.011742430841849356 
0.0 8.0 0.0 0.0 0:0.0 1:0.0 2:1.0 3:0.0 4:0.0 5:0.0 6:0.0 7:0.0 8:1.0 9:0.0 10:1.0 11:0.0 12:0.0 13:0.0 14:0.0 15:0.0 16:0.0 17:0.0 18:0.0 19:0.0 20:0.0 21:0.0 22:0.0 23:1.0 24:0.0 25:0.0 26:0.00998003992015968 27:0.0 28:0.0 29:0.0 30:0.0017985611510791368 31:0.0 32:0.03597122302158273 33:0.03380670384637699 34:0.0 35:0.005405405405405406 36:0.0045045045045045045 37:0.1289107191465679 38:0.0 39:0.5 40:0.0 41:0.5 42:0.0 43:0.0052673163023439565 44:0.17857142857142858 45:4.7017689337010746E-5 46:0.045454545454545456 47:0.043478260869565216 48:1.0 49:0.03409090909090909 50:1.0 51:0.018849206349206393 52:0.08207550678817185 53:0.3104157849418426 54:0.012961671835977502 55:8.700366455057429E-4 56:0.27140831027221607 57:0.7111746690054183 58:0.4496230475215939 59:0.17030795932080958 60:0.07995226185600293 61:0.004945291915202208 62:0.01144766683837656 
0.0 3.8967848077707044 0.0 0.0 0:0.0 1:0.0 2:1.0 3:0.0 4:0.0 5:0.0 6:0.0 7:0.0 8:0.0 9:0.0 10:1.0 11:0.0 12:0.0 13:0.0 14:0.0 15:0.0 16:0.0 17:0.0 18:0.0 19:0.0 20:0.0 21:0.010416666666666666 22:0.0 23:0.0 24:0.0 25:0.0 26:0.00998003992015968 27:0.005181347150259067 28:0.0 29:0.0 30:0.007194244604316546 31:0.0 32:2.141144227485387E-6 33:2.4147645625944644E-6 34:0.022123893805309734 35:0.07567567567567568 36:0.07657657657657657 37:4.104901693981151E-6 38:0.029182879377431907 39:0.28 40:0.023346303501945526 41:0.5 42:0.04669260700389105 43:0.05398999209902555 44:0.07392857142857143 45:0.6346832396897688 46:0.06614785992217899 47:0.0457516339869281 48:1.0 49:0.08876500857632932 50:1.0 51:0.021258503401360557 52:0.21676213501952762 53:0.9999999999999997 54:0.01081054691969589 55:0.02642661118308601 56:0.43924476065602835 57:0.6720668507133275 58:0.2860073634895316 59:0.10920356749235281 60:0.46544773391130345 61:0.0019591428711459185 62:0.01091883720785181 
0.0 8.0 0.0 0.0 0:0.0 1:0.0 2:1.0 3:0.0 4:0.0 5:0.0 6:0.0 7:0.0 8:0.0 9:0.0 10:1.0 11:0.0 12:0.0 13:0.0 14:0.0 15:0.0 16:0.0 17:0.0 18:0.0 19:0.0 20:0.0 21:0.0 22:0.0 23:0.0 24:0.0 25:0.0 26:0.011976047904191616 27:0.0 28:0.0 29:0.0 30:0.0035971223021582736 31:0.0 32:0.0 33:2.0589521004029767E-15 34:0.0 35:0.016216216216216217 36:0.013513513513513514 37:0.0 38:0.0 39:0.6 40:0.0 41:0.8 42:0.0 43:0.009744535159336319 44:0.12857142857142856 45:0.054745687729879075 46:0.07317073170731707 47:0.022222222222222223 48:1.0 49:0.054378782484870054 50:1.0 51:0.018849206349206348 52:0.8335000929886556 53:0.0 54:0.012824365990257396 55:0.0022806822138185857 56:0.3318897216511187 57:0.7054368423834128 58:0.22104513397738784 59:0.08409144375656359 60:0.10784654244955927 61:0.005590412732014346 62:0.01857305075362572 
