svm_type c_svc
kernel_type rbf
gamma 0.5
nr_class 5
total_sv 4857
rho -1.888529823391897 -0.47355549823136817 -1.9106684932812028 -0.8851288826957254 1.4739346747204238 0.2599554900906009 -0.4626662991538202 -1.3216983474158372 -2.2355726217165484 -1.0564386233177254
label 17 26 24 22 20
nr_sv 2060 329 2033 397 38
SV
0.0 8.0 0.0 0.0 0:0.0 1:0.0 2:1.0 3:0.0 4:0.0 5:0.0 6:0.0 7:0.0 8:0.0 9:0.0 10:1.0 11:0.0 12:0.0 13:0.0 14:0.0 15:0.0 16:0.0 17:0.0 18:0.018518518518518517 19:0.0 20:0.0 21:0.004340277777777778 22:0.0 23:0.0 24:0.0 25:0.0 26:0.005988023952095808 27:0.004 28:0.0 29:0.0 30:0.0035971223021582736 31:0.0 32:2.141144227485387E-6 33:1.3415358689087394E-6 34:0.008849557522123894 35:0.05945945945945946 36:0.021015761821366025 37:4.082008664830178E-6 38:0.011538461538461539 39:0.39285714285714285 40:0.0038461538461538464 41:0.6428571428571429 42:0.019230769230769232 43:0.060837503292072694 44:0.03314285714285714 45:1.1326988794829181E-4 46:0.046153846153846156 47:0.017421602787456445 48:1.0 49:0.08688852202624033 50:1.0 51:0.02013888888888887 52:0.13716053346102153 53:0.9999999999999998 54:0.014454079759137461 55:0.008098447517092492 56:0.2147711767954861 57:0.41502132927231117 58:0.44160797867049834 59:0.25556163769189505 60:0.4868591971681683 61:0.001206024710337066 62:0.014734403342379061 
0.0 8.0 0.0 0.0 0:0.0 1:0.0 2:1.0 3:0.0 4:0.0 5:0.0 6:0.0 7:0.0 8:0.0 9:0.0 10:1.0 11:0.0 12:0.0 13:0.0 14:0.0 15:0.0 16:0.0 17:0.0 18:0.0 19:0.0 20:0.0 21:0.0 22:0.0 23:0.0 24:0.0 25:0.0 26:0.005988023952095808 27:0.0 28:0.0 29:0.0 30:0.0017985611510791368 31:0.0 32:0.0 33:2.0589521004029767E-15 34:0.004424778761061947 35:0.03783783783783784 36:0.012259194395796848 37:0.0 38:0.011029411764705881 39:0.3333333333333333 40:0.0 41:0.6666666666666666 42:0.0 43:0.03344745851988412 44:0.021904761904761906 45:0.05008025064702751 46:0.051470588235294115 47:0.01282051282051282 48:1.0 49:0.057433313059344855 50:1.0 51:0.023667800453514697 52:0.13716053346102153 53:0.9999999999999998 54:0.014555436106454059 55:0.005916683559028179 56:0.21260113221706764 57:0.42213257100109547 58:0.4795593885826136 59:0.2771807594602893 60:0.46938251306140516 61:8.901472396143325E-4 62:0.014205790507469151 
0.0 8.0 0.0 0.0 0:0.0 1:0.0 2:1.0 3:0.0 4:0.0 5:0.0 6:0.0 7:0.0 8:0.0 9:0.0 10:1.0 11:0.0 12:0.0 13:0.0 14:0.0 15:0.0 16:0.0 17:0.0 18:0.0 19:0.0 20:0.0 21:0.0 22:1.0 23:0.0 24:0.0 25:0.0 26:0.01996007984031936 27:0.0 28:0.0 29:1.0 30:0.0 31:1.0 32:0.0 33:2.0589521004029767E-15 34:0.0 35:0.005405405405405406 36:0.01576182136602452 37:0.0 38:0.0 39:1.0 40:0.0 41:1.0 42:0.0 43:0.0 44:0.032 45:0.0 46:1.0 47:0.0 48:1.0 49:0.01778207021929326 50:1.0 51:0.0211734693877551 52:0.10826608844222199 53:0.9999999999999998 54:0.015504197980516348 55:2.519986137929264E-4 56:0.16264319790135187 57:0.49953333867678373 58:0.23146101485088752 59:0.11748113700834513 60:0.06803803021240977 61:0.0025377628266319836 62:0.014735337387006303 
0.6478639276727515 0.0 0.0 0.0 0:0.0 1:0.0 2:1.0 3:0.0 4:0.0 5:0.0 6:0.0 7:0.0 8:0.0 9:0.0 10:1.0 11:0.0 12:0.0 13:0.0 14:0.0 15:1.0 16:0.0 17:0.0 18:0.0 19:0.0 20:0.0 21:0.0 22:0.0 23:0.0 24:0.0 25:0.0 26:0.0 27:0.016 28:0.0 29:0.25 30:0.0035971223021582736 31:0.0 32:0.0 33:2.0589521004029767E-15 34:0.01327433628318584 35:0.06486486486486487 36:0.02276707530647986 37:0.0 38:0.025568181818181816 39:0.6666666666666666 40:0.022727272727272728 41:0.4444444444444444 42:0.0 43:0.03950487226757967 44:0.03511111111111112 45:0.4358625288250494 46:0.07386363636363637 47:0.05181347150259067 48:1.0 49:0.07180170767734263 50:1.0 51:0.023667800453514697 52:0.13528329914408996 53:0.6849717017716561 54:0.007078328517522171 55:0.014734282721833544 56:0.3424925084469767 57:0.47678003686980697 58:0.5311922716286148 59:0.2671979556443073 60:0.3903550068906675 61:0.0012029088887676002 62:0.011045900328034274 
2.810450406319987 0.0 0.0 0.0 0:0.0 1:0.0 2:1.0 3:0.0 4:0.0 5:0.0 6:0.0 7:0.0 8:0.0 9:0.0 10:1.0 11:0.0 12:0.0 13:0.0 14:0.0 15:1.0 16:0.0 17:0.0 18:0.0 19:0.0 20:0.0 21:0.006076388888888888 22:0.0 23:0.0 24:0.0 25:0.0 26:0.0 27:0.036000000000000004 28:0.0 29:0.14285714285714285 30:0.00539568345323741 31:0.0 32:0.0 33:2.0589521004029767E-15 34:0.02654867256637168 35:0.12432432432432433 36:0.043782837127845885 37:0.0 38:0.03345724907063197 39:0.6571428571428571 40:0.03345724907063197 41:0.37142857142857144 42:0.026022304832713755 43:0.05557018698972874 44:0.026742857142857145 45:0.2726833636454951 46:0.09293680297397769 47:0.07260726072607261 48:1.0 49:0.09622797852793888 50:1.0 51:0.023667800453514697 52:0.13528329914408996 53:0.9999999999999998 54:0.007078328517522171 55:0.014174603800258355 56:0.24489868924247102 57:0.4667877848726924 58:0.5667092522796822 59:0.2848871201673405 60:0.47320293208666625 61:0.001617493977162619 62:0.01338956213390501 
0.0 8.0 0.0 0.0 0:0.0 1:0.0 2:1.0 3:0.0 4:0.0 5:0.0 6:0.0 7:1.0 8:1.0 9:0.0 10:1.0 11:0.0 12:0.0 13:0.0 14:0.0 15:0.0 16:0.0 17:0.0 18:0.0 19:0.0 20:0.0 21:8.680555555555555E-4 22:1.0 23:0.0 24:0.0 25:0.0 26:0.001996007984031936 27:0.0 28:1.0 29:1.0 30:0.0 31:0.0 32:0.0 33:2.0589521004029767E-15 34:0.0 35:0.0 36:0.0 37:0.0 38:0.0 39:0.0 40:0.0 41:0.0 42:1.0 43:0.0 44:0.0 45:0.0 46:0.0 47:0.0 48:1.0 49:0.040251107828655826 50:1.0 51:0.021258503401360547 52:0.05040782235377977 53:0.2872866755318332 54:0.028290051957589768 55:0.0 56:0.0 57:0.4320330937686465 58:0.2936920181428231 59:0.17215994647289104 60:0.006800816277157906 61:0.025490736415436258 62:0.014735337387006303 
0.0 8.0 0.0 0.0 0:0.0 1:0.0 2:1.0 3:0.0 4:0.0 5:0.0 6:0.0 7:0.0 8:0.0 9:0.0 10:1.0 11:0.0 12:0.0 13:0.0 14:0.0 15:0.0 16:0.0 17:0.0 18:0.0 19:0.0 20:0.0 21:0.0 22:0.0 23:0.0 24:0.0 25:0.0 26:0.001996007984031936 27:0.0 28:0.0 29:0.0 30:0.0 31:0.0 32:0.0 33:2.0589521004029767E-15 34:0.0 35:0.016216216216216217 36:0.005253940455341506 37:0.0 38:0.0 39:0.6 40:0.0 41:0.8 42:0.0 43:0.013695022386094286 44:0.0408 45:0.0 46:0.05357142857142857 47:0.016666666666666666 48:1.0 49:0.040251107828655826 50:1.0 51:0.021258503401360547 52:0.08125976025813333 53:0.7683796092979831 54:0.028290051957589768 55:3.0637749493304175E-4 56:0.03771515036882902 57:0.4320330937686465 58:0.2936920181428231 59:0.17215994647289104 60:0.35529560926219206 61:4.879255769325043E-4 62:0.014735337387006303 
0.0 8.0 0.0 0.0 0:0.0 1:0.0 2:1.0 3:0.0 4:0.0 5:0.0 6:0.0 7:1.0 8:1.0 9:0.0 10:1.0 11:0.0 12:0.0 13:0.0 14:0.0 15:0.0 16:0.0 17:0.0 18:0.0 19:0.0 20:0.0 21:8.680555555555555E-4 22:1.0 23:0.0 24:0.0 25:0.0 26:0.005988023952095808 27:0.0 28:1.0 29:1.0 30:0.0 31:1.0 32:0.0 33:2.0589521004029767E-15 34:0.0 35:0.0 36:0.0 37:0.0 38:0.0 39:0.0 40:0.0 41:0.0 42:1.0 43:0.0 44:0.0 45:0.0 46:0.0 47:0.0 48:1.0 49:0.027136526693395228 50:1.0 51:0.021258503401360547 52:0.05040782235377977 53:0.29170317659788764 54:0.028290051957589865 55:0.0 56:0.0 57:0.4667824414224266 58:0.28107856514488283 59:0.15236931442228352 60:0.006800816277157906 61:0.025490736415436258 62:0.014735337387006303 
2.539909224450944 0.0 0.0 0.0 0:0.0 1:0.0 2:1.0 3:0.0 4:0.0 5:0.0 6:0.0 7:0.0 8:0.0 9:0.0 10:1.0 11:0.0 12:0.0 13:0.0 14:0.0 15:0.0 16:0.0 17:0.0 18:0.0 19:0.0 20:0.0 21:0.0 22:0.0 23:0.0 24:0.0 25:0.0 26:0.005988023952095808 27:0.0 28:0.0 29:0.0 30:0.0 31:1.0 32:0.0 33:2.0589521004029767E-15 34:0.0 35:0.016216216216216217 36:0.005253940455341506 37:0.0 38:0.0 39:0.6 40:0.0 41:0.8 42:0.0 43:0.013958388201211484 44:0.0416 45:0.0 46:0.05263157894736842 47:0.01639344262295082 48:1.0 49:0.027136526693395228 50:1.0 51:0.021258503401360547 52:0.08125976025813333 53:0.764818874361141 54:0.028290051957589865 55:3.054555967537048E-4 56:0.03406793021900798 57:0.4667824414224266 58:0.28107856514488283 59:0.15236931442228352 60:0.3921490445032335 61:4.420712419443656E-4 62:0.014735337387006303 
0.0 0.026735278151062386 0.0 0.0 0:0.0 1:0.0 2:1.0 3:0.0 4:0.0 5:1.0 6:0.0 7:0.0 8:0.0 9:0.0 10:1.0 11:0.0 12:0.0 13:0.0 14:0.0 15:0.0 16:0.0 17:0.0 18:0.01282051282051282 19:0.0 20:0.0 21:0.015625 22:0.0 23:0.0 24:0.0 25:0.0 26:0.005988023952095808 27:0.032 28:0.0 29:0.0 30:0.02158273381294964 31:1.0 32:0.048561151079136715 33:0.007021392337326028 34:0.035398230088495575 35:0.16216216216216217 36:0.05604203152364273 37:0.05485283625290335 38:0.01362088535754824 39:0.25 40:0.009080590238365494 41:0.6583333333333333 42:0.02043132803632236 43:0.20990255464840665 44:0.02536666666666667 45:1.7311058346818994E-4 46:0.036322360953461974 47:0.024 48:1.0 49:0.370500105507491 50:1.0 51:0.021258503401360537 52:0.05040782235377977 53:0.9999999999999998 54:0.02824851247098463 55:0.06295404694043334 56:0.337925341643279 57:0.3278954821128003 58:0.33131896624148643 59:0.1790222147040054 60:0.4418917738347779 61:0.007146968401402508 62:0.015859251754942825 
0.0 8.0 0.0 0.0 0:0.0 1:0.0 2:1.0 3:0.0 4:0.0 5:0.0 6:0.0 7:0.0 8:0.0 9:0.0 10:1.0 11:0.0 12:0.0 13:0.0 14:0.0 15:0.0 16:0.0 17:0.0 18:0.0 19:0.0 20:0.0 21:0.0 22:0.0 23:0.0 24:0.0 25:0.0 26:0.011976047904191616 27:0.0 28:0.0 29:0.0 30:0.0 31:1.0 32:0.0 33:2.0589521004029767E-15 34:0.0 35:0.010810810810810811 36:0.0035026269702276708 37:0.0 38:0.0 39:0.6666666666666666 40:0.0 41:0.6666666666666666 42:0.0 43:0.005003950487226758 44:0.024 45:0.0 46:0.09523809523809523 47:0.0 48:1.0 49:0.027136526693395228 50:1.0 51:0.021258503401360547 52:0.0542683955359912 53:0.8228781743702868 54:0.02267225178910568 55:1.2322705663806322E-4 56:0.04728216012262655 57:0.4667824414224266 58:0.1932546706567744 59:0.10577809597951798 60:0.11398759455845092 61:0.0015208480870428905 62:0.014735337387006303 
0.0 8.0 0.0 0.0 0:0.0 1:0.0 2:1.0 3:0.0 4:0.0 5:0.0 6:0.0 7:1.0 8:1.0 9:0.0 10:1.0 11:0.0 12:0.0 13:0.0 14:0.0 15:0.0 16:0.0 17:0.0 18:0.0 19:0.0 20:0.0 21:8.680555555555555E-4 22:1.0 23:0.0 24:0.0 25:0.0 26:0.015968063872255488 27:0.0 28:1.0 29:1.0 30:0.0 31:1.0 32:0.0 33:2.0589521004029767E-15 34:0.0 35:0.0 36:0.0 37:0.0 38:0.0 39:0.0 40:0.0 41:0.0 42:1.0 43:0.0 44:0.0 45:0.0 46:0.0 47:0.0 48:1.0 49:0.027136526693395228 50:1.0 51:0.021258503401360547 52:0.023415097316915247 53:0.2160824645550174 54:0.028290051957589865 55:0.0 56:0.0 57:0.4667824414224266 58:0.4442345743032037 59:0.23892477073917992 60:0.006800816277157895 61:0.0254907364154363 62:0.014735337387006303 
8.0 0.0 3.1479294178887547 0.0 0:0.0 1:0.0 2:1.0 3:0.0 4:0.0 5:0.0 6:0.0 7:0.0 8:0.0 9:0.0 10:1.0 11:0.0 12:0.0 13:0.0 14:0.0 15:0.0 16:0.0 17:1.0 18:0.0 19:0.0 20:0.0 21:0.0 22:0.0 23:1.0 24:0.0 25:0.0 26:0.015968063872255488 27:0.0 28:0.0 29:0.0 30:0.0017985611510791368 31:1.0 32:0.04856115107913668 33:0.04563905019260817 34:0.004424778761061947 35:0.02702702702702703 36:0.010507880910683012 37:0.22485922537762568 38:0.010948905109489052 39:0.3125 40:0.0 41:0.625 42:0.0 43:0.03371082433500132 44:0.030250000000000003 45:0.08082127080265597 46:0.043795620437956206 47:0.019736842105263157 48:1.0 49:0.05575015826123654 50:1.0 51:0.021258503401360613 52:0.023416457631637654 53:0.9999999999999998 54:0.028290051957589865 55:0.008364791128329377 56:0.29479226384924584 57:0.45494402735846545 58:0.46936684560349407 59:0.2522576245022663 60:0.45585554910916615 61:8.570528355388424E-4 62:0.016356120549981607 
0.0 8.0 0.0 0.0 0:0.0 1:0.0 2:1.0 3:0.0 4:0.0 5:0.0 6:0.0 7:1.0 8:1.0 9:0.0 10:1.0 11:0.0 12:0.0 13:0.0 14:0.0 15:0.0 16:0.0 17:0.0 18:0.0 19:0.0 20:0.0 21:8.680555555555555E-4 22:1.0 23:0.0 24:0.0 25:0.0 26:0.021956087824351295 27:0.0 28:1.0 29:1.0 30:0.0 31:1.0 32:0.0 33:2.0589521004029767E-15 34:0.0 35:0.0 36:0.0 37:0.0 38:0.0 39:0.0 40:0.0 41:0.0 42:1.0 43:0.0 44:0.0 45:0.0 46:0.0 47:0.0 48:1.0 49:0.027136526693395228 50:1.0 51:0.021258503401360547 52:0.050401020780167706 53:0.28227799588990243 54:0.028290051957589865 55:0.0 56:0.0 57:0.4667824414224266 58:0.28113553909426864 59:0.15239953951918744 60:0.006800816277157906 61:0.025490736415436258 62:0.014735337387006303 
2.5158516099066617 0.0 0.0 0.0 0:0.0 1:0.0 2:1.0 3:0.0 4:0.0 5:0.0 6:0.0 7:0.0 8:0.0 9:0.0 10:1.0 11:0.0 12:0.0 13:0.0 14:0.0 15:0.0 16:0.0 17:0.0 18:0.0 19:0.0 20:0.0 21:0.0 22:0.0 23:0.0 24:0.0 25:0.0 26:0.021956087824351295 27:0.0 28:0.0 29:0.0 30:0.0 31:1.0 32:0.0 33:2.0589521004029767E-15 34:0.0 35:0.010810810810810811 36:0.005253940455341506 37:0.0 38:0.0 39:0.6666666666666666 40:0.0 41:0.6666666666666666 42:0.0 43:0.011588095865156703 44:0.06 45:0.0 46:0.0625 47:0.02 48:1.0 49:0.027136526693395228 50:1.0 51:0.021258503401360547 52:0.08125295868452123 53:0.7724207025792217 54:0.028290051957589865 55:1.533423971630773E-4 56:0.02237166554584167 57:0.4667824414224266 58:0.28113553909426864 59:0.15239953951918744 60:0.29978697047827474 61:5.782700123833559E-4 62:0.014735337387006303 
8.0 8.0 0.0 0.0 0:0.0 1:0.0 2:1.0 3:0.0 4:0.0 5:0.0 6:0.0 7:0.0 8:0.0 9:0.0 10:1.0 11:0.0 12:0.0 13:0.0 14:0.0 15:0.0 16:0.0 17:0.0 18:0.1111111111111111 19:0.0 20:0.0 21:0.006944444444444444 22:0.0 23:0.0 24:0.0 25:0.0 26:0.021956087824351295 27:0.0 28:0.0 29:0.3333333333333333 30:0.0 31:1.0 32:0.0 33:2.0589521004029767E-15 34:0.004424778761061947 35:0.005405405405405406 36:0.0035026269702276708 37:0.0 38:0.03125 39:0.3333333333333333 40:0.0 41:0.3333333333333333 42:0.16666666666666666 43:0.008954437713984725 44:0.06 45:0.0 46:0.041666666666666664 47:0.04 48:1.0 49:0.027136526693395228 50:1.0 51:0.021258503401360547 52:0.08125295868452123 53:0.758895403752199 54:0.022670590209641468 55:1.2322705663806623E-4 56:0.02012143108033547 57:0.4667824414224266 58:0.306267810394559 59:0.1657323932822738 60:0.267852702742055 61:6.472132383065259E-4 62:0.014735337387006303 
8.0 7.185040610941133 8.0 0.0 0:0.0 1:0.0 2:1.0 3:0.0 4:0.0 5:0.0 6:0.0 7:0.0 8:0.0 9:0.0 10:1.0 11:0.0 12:0.0 13:0.0 14:0.0 15:0.0 16:0.0 17:0.0 18:0.1111111111111111 19:0.0 20:0.0 21:0.006944444444444444 22:0.0 23:0.0 24:0.0 25:0.0 26:0.02395209580838323 27:0.0 28:0.0 29:0.0 30:0.0 31:1.0 32:0.0 33:2.0589521004029767E-15 34:0.004424778761061947 35:0.021621621621621623 36:0.012259194395796848 37:0.0 38:0.044117647058823525 39:0.6666666666666666 40:0.0 41:0.6666666666666666 42:0.23529411764705882 43:0.003950487226757967 44:0.018666666666666668 45:0.0 46:0.20588235294117646 47:0.05128205128205128 48:1.0 49:0.027136526693395228 50:1.0 51:0.021258503401360547 52:0.05426703522126879 53:0.8127965039804003 54:0.02267059020964149 55:3.0791399189860355E-4 56:0.06871485392950177 57:0.4667824414224266 58:0.3061992485232642 59:0.1656960207080335 60:0.19598715998718683 61:8.845365948574101E-4 62:0.014735337387006303 
0.0 8.0 0.0 0.0 0:0.0 1:0.0 2:1.0 3:0.0 4:0.0 5:0.0 6:0.0 7:1.0 8:1.0 9:0.0 10:1.0 11:0.0 12:0.0 13:0.0 14:0.0 15:0.0 16:0.0 17:0.0 18:0.0 19:0.0 20:0.0 21:8.680555555555555E-4 22:1.0 23:0.0 24:0.0 25:0.0 26:0.02395209580838323 27:0.0 28:1.0 29:1.0 30:0.0 31:0.0 32:0.0 33:2.0589521004029767E-15 34:0.0 35:0.0 36:0.0 37:0.0 38:0.0 39:0.0 40:0.0 41:0.0 42:1.0 43:0.0 44:0.0 45:0.0 46:0.0 47:0.0 48:1.0 49:0.027136526693395228 50:1.0 51:0.01889644746787604 52:0.023415097316915247 53:0.22973175156317205 54:0.03145037609851173 55:0.0 56:0.0 57:0.4676730164667327 58:0.47350180240468687 59:0.2544512493318035 60:0.005603131899845503 61:0.02750173267848778 62:0.014735337387006303 
0.0 8.0 0.0 0.0 0:0.0 1:0.0 2:1.0 3:0.0 4:0.0 5:0.0 6:0.0 7:0.0 8:0.0 9:0.0 10:1.0 11:0.0 12:0.0 13:0.0 14:0.0 15:0.0 16:0.0 17:0.0 18:0.0 19:0.0 20:0.0 21:0.0 22:0.0 23:0.0 24:0.0 25:0.0 26:0.02395209580838323 27:0.004 28:0.0 29:0.0 30:0.0017985611510791368 31:0.0 32:0.0 33:2.0589521004029767E-15 34:0.004424778761061947 35:0.032432432432432434 36:0.012259194395796848 37:0.0 38:0.010273972602739725 39:0.35294117647058826 40:0.00684931506849315 41:0.5882352941176471 42:0.0 43:0.03450092178035291 44:0.030352941176470586 45:2.2226544050240932E-4 46:0.04794520547945205 47:0.018518518518518517 48:1.0 49:0.05575015826123654 50:1.0 51:0.01889644746787604 52:0.05426703522126879 53:0.8292666961742023 54:0.03145037609851173 55:0.002454753078017735 56:0.13522008372677902 57:0.4591234960413941 58:0.47350180240468687 59:0.2544512493318035 60:0.4059403353068244 61:8.349650662840576E-4 62:0.014732519093847098 
0.0 8.0 0.0 0.0 0:0.0 1:0.0 2:1.0 3:0.0 4:0.0 5:0.0 6:0.0 7:1.0 8:1.0 9:0.0 10:1.0 11:0.0 12:0.0 13:0.0 14:0.0 15:0.0 16:0.0 17:0.0 18:0.0 19:0.0 20:0.0 21:8.680555555555555E-4 22:1.0 23:0.0 24:0.0 25:0.0 26:0.02594810379241517 27:0.0 28:1.0 29:1.0 30:0.0 31:1.0 32:0.0 33:2.0589521004029767E-15 34:0.0 35:0.0 36:0.0 37:0.0 38:0.0 39:0.0 40:0.0 41:0.0 42:1.0 43:0.0 44:0.0 45:0.0 46:0.0 47:0.0 48:1.0 49:0.026341703594288522 50:1.0 51:0.021258503401360547 52:0.050388777947665976 53:0.28203550923915666 54:0.030117789368217626 55:0.0 56:0.0 57:0.4667824414224266 58:0.18068853500662924 59:0.0991116690979748 60:0.006800816277157906 61:0.025490736415436258 62:0.014735337387006303 
8.0 0.0 0.0 0.0 0:0.0 1:0.0 2:1.0 3:0.0 4:0.0 5:0.0 6:0.0 7:0.0 8:0.0 9:0.0 10:1.0 11:0.0 12:0.0 13:0.0 14:0.0 15:0.0 16:0.0 17:0.0 18:0.0 19:0.0 20:0.0 21:0.0 22:0.0 23:0.0 24:0.0 25:0.0 26:0.0279441117764471 27:0.0 28:0.0 29:0.0 30:0.0 31:1.0 32:0.0 33:2.0589521004029767E-15 34:0.0 35:0.010810810810810811 36:0.0035026269702276708 37:0.0 38:0.0 39:0.6666666666666666 40:0.0 41:0.6666666666666666 42:0.0 43:0.00842770608375033 44:0.04133333333333333 45:0.0 46:0.058823529411764705 47:0.0 48:1.0 49:0.01938700147710487 50:1.0 51:0.021258503401360547 52:0.0542683955359912 53:0.8161202127236153 54:0.02267225178910568 55:1.2380751104727427E-4 56:0.03025397990855326 57:0.4667824414224266 58:0.05519906601349413 59:0.03253858786303283 60:0.17898362592225056 61:9.685680141832991E-4 62:0.014735337387006303 
4.674897645881342 0.0 0.0 0.0 0:0.0 1:0.0 2:1.0 3:0.0 4:0.0 5:0.0 6:0.0 7:0.0 8:0.0 9:0.0 10:1.0 11:0.0 12:0.0 13:0.0 14:0.0 15:0.0 16:0.0 17:0.0 18:0.0 19:0.0 20:0.0 21:0.0 22:0.0 23:0.0 24:0.0 25:0.0 26:0.0279441117764471 27:0.0 28:0.0 29:0.0 30:0.0017985611510791368 31:1.0 32:0.0 33:2.0589521004029767E-15 34:0.004424778761061947 35:0.02702702702702703 36:0.012259194395796848 37:0.0 38:0.015957446808510637 39:0.7142857142857143 40:0.0 41:0.5714285714285714 42:0.0 43:0.022386094284961813 44:0.04971428571428571 45:0.35195305070002936 46:0.07446808510638298 47:0.02 48:1.0 49:0.040251107828655826 50:1.0 51:0.021258503401360547 52:0.023415097316915247 53:0.9999999999999998 54:0.028248512470984654 55:0.00985648790555635 56:0.4560672264166313 57:0.45520852814662444 58:0.08030719580980741 59:0.04585863438166837 60:0.2637937175331584 61:0.0010954780392847894 62:0.010050405438378256 
0.0 0.6531468908813648 0.0 0.0 0:0.0 1:0.0 2:1.0 3:0.0 4:0.0 5:0.0 6:0.0 7:0.0 8:0.0 9:0.0 10:1.0 11:0.0 12:0.0 13:0.0 14:0.0 15:0.0 16:0.0 17:0.0 18:0.0 19:0.0 20:0.0 21:0.0 22:0.0 23:0.0 24:0.0 25:0.0 26:0.03792415169660678 27:0.0 28:0.0 29:0.0 30:0.0 31:1.0 32:0.0 33:2.0589521004029767E-15 34:0.0 35:0.010810810810810811 36:0.0035026269702276708 37:0.0 38:0.0 39:0.6666666666666666 40:0.0 41:1.0 42:0.0 43:0.006847511193047143 44:0.03333333333333334 45:0.0 46:0.07142857142857142 47:0.0 48:1.0 49:0.01896120338829771 50:1.0 51:0.021258503401360547 52:0.08125976025813333 53:0.7553873141342181 54:0.02267059020964149 55:1.2291975724495162E-4 56:0.03576857730483755 57:0.4667824414224266 58:0.05519906601349413 59:0.03253858786303283 60:0.15030341586453919 61:0.0011533857306814587 62:0.014735337387006303 
0.0 2.651067278915867 0.0 0.0 0:0.0 1:0.0 2:1.0 3:0.0 4:0.0 5:0.0 6:0.0 7:0.0 8:0.0 9:0.0 10:1.0 11:0.0 12:0.0 13:0.0 14:1.0 15:0.0 16:0.0 17:0.0 18:0.0 19:0.0 20:0.0 21:0.0 22:0.0 23:0.0 24:0.0 25:0.0 26:0.04391217564870259 27:0.0 28:0.0 29:0.0 30:0.0017985611510791368 31:1.0 32:0.0 33:2.0589521004029767E-15 34:0.017699115044247787 35:0.06486486486486487 36:0.02626970227670753 37:0.0 38:0.041666666666666664 39:0.75 40:0.0 41:0.625 42:0.0 43:0.03265736107453253 44:0.032 45:0.060261717556191495 46:0.10416666666666667 47:0.031446540880503145 48:1.0 49:0.05575015826123654 50:1.0 51:0.021258503401360547 52:0.023416457631637654 53:0.9999999999999998 54:0.02824851247098463 55:0.006179629770607958 56:0.25769989151974254 57:0.45520852814662444 58:0.4316954771375129 59:0.23227268797142167 60:0.4080825775004087 61:9.872991969200118E-4 62:0.014012392540103944 
0.0 1.6916334953157688 0.0 0.0 0:0.0 1:0.0 2:1.0 3:0.0 4:0.0 5:0.0 6:0.0 7:0.0 8:0.0 9:0.0 10:1.0 11:0.0 12:0.0 13:0.0 14:1.0 15:0.0 16:1.0 17:0.0 18:0.0 19:0.0 20:0.0 21:8.680555555555555E-4 22:0.0 23:0.0 24:0.0 25:0.0 26:0.04590818363273453 27:0.024 28:0.0 29:0.0 30:0.019784172661870505 31:1.0 32:2.1411442274549593E-6 33:3.3538396879999554E-7 34:0.05752212389380531 35:0.2756756756756757 36:0.10507880910683012 37:2.665469485198242E-6 38:0.02522639068564036 39:0.46788990825688076 40:0.007761966364812419 41:0.6788990825688074 42:0.00129366106080207 43:0.1777719252041085 44:0.02436697247706422 45:0.4081541496316592 46:0.07761966364812418 47:0.02724177071509648 48:1.0 49:0.2542191772211571 50:1.0 51:0.021258503401360547 52:0.050425506445171166 53:0.9999999999999998 54:0.02824851247098463 55:0.06365299548346402 56:0.37089658008620313 57:0.3394685048135582 58:0.2811760968209502 59:0.15242105568986483 60:0.42074015002913306 61:0.006583926702143172 62:0.013947714738615783 
8.0 0.0 0.0 0.0 0:0.0 1:0.0 2:1.0 3:0.0 4:0.0 5:0.0 6:0.0 7:0.0 8:0.0 9:0.0 10:1.0 11:0.0 12:0.0 13:0.0 14:0.0 15:0.0 16:0.0 17:0.0 18:0.0 19:0.0 20:0.0 21:0.0 22:0.0 23:0.0 24:0.0 25:0.0 26:0.04590818363273453 27:0.0 28:0.0 29:0.0 30:0.0 31:1.0 32:0.0 33:2.0589521004029767E-15 34:0.0 35:0.032432432432432434 36:0.01576182136602452 37:0.0 38:0.0 39:0.75 40:0.0 41:0.875 42:0.0 43:0.01580194890703187 44:0.031000000000000003 45:0.0 46:0.12857142857142856 47:0.012987012987012988 48:1.0 49:0.01983091863352085 50:1.0 51:0.021258503401360547 52:0.05042686675989356 53:0.9999999999999998 54:0.02824851247098463 55:4.3021915035733457E-4 56:0.04524009565048816 57:0.4667824414224266 58:0.4443321059792711 59:0.23897651200676123 60:0.4159250207765385 61:4.1680064067119345E-4 62:0.014735337387006303 
0.0 8.0 0.0 0.0 0:0.0 1:0.0 2:1.0 3:0.0 4:0.0 5:0.0 6:0.0 7:1.0 8:1.0 9:0.0 10:1.0 11:0.0 12:0.0 13:0.0 14:0.0 15:0.0 16:0.0 17:0.0 18:0.0 19:0.0 20:0.0 21:8.680555555555555E-4 22:1.0 23:0.0 24:0.0 25:0.0 26:0.05189620758483034 27:0.0 28:1.0 29:1.0 30:0.0 31:1.0 32:0.0 33:2.0589521004029767E-15 34:0.0 35:0.0 36:0.0 37:0.0 38:0.0 39:0.0 40:0.0 41:0.0 42:1.0 43:0.0 44:0.0 45:0.0 46:0.0 47:0.0 48:1.0 49:0.02558984390594435 50:1.0 51:0.021258503401360547 52:0.023415097316915247 53:0.2261716256689743 54:0.03011778936821765 55:0.0 56:0.0 57:0.4667824414224266 58:0.055174924509517054 59:0.032525780618582 60:0.006800816277157895 61:0.0254907364154363 62:0.014735337387006303 
0.0 8.0 0.0 0.0 0:0.0 1:0.0 2:1.0 3:0.0 4:0.0 5:0.0 6:0.0 7:0.0 8:0.0 9:0.0 10:1.0 11:0.0 12:0.0 13:0.0 14:0.0 15:0.0 16:0.0 17:0.0 18:0.0 19:0.0 20:0.0 21:0.0 22:0.0 23:0.0 24:0.0 25:0.0 26:0.0558882235528942 27:0.008 28:0.0 29:0.5 30:0.0017985611510791368 31:0.0 32:0.0 33:2.0589521004029767E-15 34:0.004424778761061947 35:0.05405405405405406 36:0.01926444833625219 37:0.0 38:0.01171875 39:0.625 40:0.015625 41:0.625 42:0.0 43:0.029760337108243353 44:0.028 45:0.1542885475594614 46:0.0859375 47:0.027972027972027972 48:1.0 49:0.06111521418020679 50:1.0 51:0.01889644746787604 52:0.023415097316915247 53:0.9999999999999998 54:0.013957267499339485 55:0.004548716940659237 56:0.25538197917515215 57:0.4591234960413941 58:0.18149099859882706 59:0.0995373819035202 60:0.34445596829869823 61:8.510131178330125E-4 62:0.012741380033236813 
0.0 8.0 0.0 0.0 0:0.0 1:0.0 2:1.0 3:0.0 4:0.0 5:0.0 6:0.0 7:0.0 8:0.0 9:0.0 10:1.0 11:0.0 12:0.0 13:0.0 14:0.0 15:0.0 16:0.0 17:0.0 18:0.0 19:0.0 20:0.0 21:0.0 22:0.0 23:0.0 24:0.0 25:0.0 26:0.0558882235528942 27:0.008 28:0.0 29:0.5 30:0.0017985611510791368 31:0.0 32:0.0 33:2.0589521004029767E-15 34:0.004424778761061947 35:0.05405405405405406 36:0.01926444833625219 37:0.0 38:0.011450381679389313 39:0.625 40:0.015267175572519083 41:0.625 42:0.0 43:0.030550434553594946 44:0.02875 45:0.18586733745236794 46:0.08396946564885496 47:0.0273972602739726 48:1.0 49:0.06111521418020679 50:1.0 51:0.01889644746787604 52:0.023415097316915247 53:0.9999999999999998 54:0.013957267499339485 55:0.005086868743044842 56:0.2706063867471761 57:0.4591234960413941 58:0.20659816273498127 59:0.11285691613237771 60:0.35548900094157104 61:8.063478441699064E-4 62:0.012459341739647503 
0.0 8.0 0.0 0.0 0:0.0 1:0.0 2:1.0 3:0.0 4:0.0 5:0.0 6:0.0 7:1.0 8:1.0 9:0.0 10:1.0 11:0.0 12:0.0 13:0.0 14:0.0 15:0.0 16:0.0 17:0.0 18:0.0 19:0.0 20:0.0 21:8.680555555555555E-4 22:1.0 23:0.0 24:0.0 25:0.0 26:0.007984031936127744 27:0.0 28:1.0 29:1.0 30:0.0 31:1.0 32:0.0 33:2.0589521004029767E-15 34:0.0 35:0.0 36:0.0 37:0.0 38:0.0 39:0.0 40:0.0 41:0.0 42:1.0 43:0.0 44:0.0 45:0.0 46:0.0 47:0.0 48:1.0 49:0.024877555780144597 50:1.0 51:0.03392857142857144 52:0.06979910872179387 53:0.2508514814248945 54:0.02263071230250052 55:0.0 56:0.0 57:0.6311540961999164 58:0.10227499876878328 59:0.04061421081419784 60:0.01191710889146247 61:0.023216962727179352 62:0.014735337387006303 
0.0 6.623250250357771 0.0 0.0 0:0.0 1:0.0 2:1.0 3:0.0 4:0.0 5:0.0 6:0.0 7:0.0 8:0.0 9:0.0 10:1.0 11:0.0 12:0.0 13:0.0 14:0.0 15:0.0 16:0.0 17:0.0 18:0.0 19:0.0 20:0.0 21:0.0 22:1.0 23:0.0 24:0.0 25:0.0 26:0.007984031936127744 27:0.0 28:0.0 29:1.0 30:0.0 31:1.0 32:0.0 33:2.0589521004029767E-15 34:0.0 35:0.005405405405405406 36:0.0017513134851138354 37:0.0 38:0.0 39:1.0 40:0.0 41:1.0 42:0.0 43:0.0023702923360547803 44:0.036000000000000004 45:0.0 46:0.1 47:0.0 48:1.0 49:0.024877555780144597 50:1.0 51:0.03392857142857144 52:0.0991819067259401 53:0.7811628098299387 54:0.02263071230250052 55:1.9073048999171408E-6 56:4.92999408400615E-4 57:0.6311540961999164 58:0.10227499876878328 59:0.04061421081419784 60:0.10602045471685291 61:0.0026096763467742534 62:0.014735337387006303 
0.0 1.6629054802314307 0.0 0.0 0:0.0 1:0.0 2:1.0 3:0.0 4:0.0 5:0.0 6:0.0 7:1.0 8:1.0 9:0.0 10:1.0 11:0.0 12:0.0 13:0.0 14:0.0 15:0.0 16:0.0 17:1.0 18:0.0 19:0.0 20:0.0 21:8.680555555555555E-4 22:1.0 23:0.0 24:0.0 25:0.0 26:0.00998003992015968 27:0.0 28:1.0 29:1.0 30:0.0 31:1.0 32:0.0 33:2.0589521004029767E-15 34:0.0 35:0.0 36:0.0 37:0.0 38:0.0 39:0.0 40:0.0 41:0.0 42:1.0 43:0.0 44:0.0 45:0.0 46:0.0 47:0.0 48:1.0 49:0.022949165976150158 50:1.0 51:0.029846938775510194 52:0.06979910872179387 53:0.250864445943627 54:0.0242274901676035 55:0.0 56:0.0 57:0.6326930098764774 58:0.06692411166507814 59:0.026786491337612323 60:0.010483471731587297 61:0.023216962727179314 62:0.014735337387006303 
0.0 3.360354286091959 0.0 0.0 0:0.0 1:0.0 2:1.0 3:0.0 4:0.0 5:0.0 6:0.0 7:0.0 8:0.0 9:0.0 10:1.0 11:0.0 12:1.0 13:0.0 14:0.0 15:0.0 16:0.0 17:0.0 18:0.0 19:0.0 20:0.0 21:0.0 22:0.0 23:0.0 24:0.0 25:0.0 26:0.011976047904191616 27:0.004 28:0.0 29:0.3333333333333333 30:0.0 31:0.0 32:0.0 33:2.0589521004029767E-15 34:0.0 35:0.02702702702702703 36:0.021015761821366025 37:0.0 38:0.0 39:0.8333333333333334 40:0.013157894736842105 41:0.3333333333333333 42:0.0 43:0.015011851461680275 44:0.04666666666666666 45:0.0 46:0.15789473684210525 47:0.07407407407407407 48:1.0 49:0.023559822747415065 50:1.0 51:0.021173469387754964 52:0.10832322166056338 53:0.7882024677312055 54:0.03878126469459339 55:4.137728965704876E-4 56:0.03407550551728069 57:0.6359640920142137 58:0.7031261316329989 59:0.27564047984534096 60:0.5332234211510761 61:3.238124527568265E-4 62:0.014735337387006303 
0.0 8.0 0.0 0.0 0:0.0 1:0.0 2:1.0 3:0.0 4:0.0 5:0.0 6:0.0 7:0.0 8:0.0 9:0.0 10:1.0 11:0.0 12:0.0 13:0.0 14:0.0 15:0.0 16:0.0 17:1.0 18:0.0 19:0.0 20:0.0 21:0.0 22:0.0 23:0.0 24:0.0 25:0.0 26:0.01397205588822355 27:0.004 28:0.0 29:0.0 30:0.0 31:1.0 32:0.0 33:2.0589521004029767E-15 34:0.0 35:0.005405405405405406 36:0.0017513134851138354 37:0.0 38:0.0 39:0.25 40:0.03125 41:0.5 42:0.0 43:0.007900974453515935 44:0.028 45:0.0 46:0.03125 47:0.02857142857142857 48:1.0 49:0.01983091863352085 50:1.0 51:0.024489795918367335 52:0.11877179904342669 53:0.7485837591849973 54:0.019261029149088563 55:3.5731298394020214E-4 56:0.05574134640755425 57:0.6347128340769637 58:0.18979567596693964 59:0.07484846833499591 60:0.24337036149310318 61:8.205937724113044E-4 62:0.014735337387006303 
0.0 8.0 0.0 0.0 0:0.0 1:0.0 2:1.0 3:0.0 4:0.0 5:0.0 6:0.0 7:1.0 8:1.0 9:0.0 10:1.0 11:0.0 12:0.0 13:0.0 14:0.0 15:0.0 16:0.0 17:0.0 18:0.0 19:0.0 20:0.0 21:8.680555555555555E-4 22:1.0 23:0.0 24:0.0 25:0.0 26:0.01996007984031936 27:0.0 28:1.0 29:1.0 30:0.0 31:1.0 32:0.0 33:2.0589521004029767E-15 34:0.0 35:0.0 36:0.0 37:0.0 38:0.0 39:0.0 40:0.0 41:0.0 42:1.0 43:0.0 44:0.0 45:0.0 46:0.0 47:0.0 48:1.0 49:0.022949165976150158 50:1.0 51:0.02984693877551013 52:0.06979910872179387 53:0.2508337857752268 54:0.0242274901676035 55:0.0 56:0.0 57:0.6326939004515216 58:0.5293980750530388 59:0.20768576339825362 60:0.010483471731587297 61:0.023216962727179262 62:0.014735337387006303 
0.0 8.0 0.0 0.0 0:0.0 1:0.0 2:1.0 3:0.0 4:0.0 5:0.0 6:0.0 7:1.0 8:1.0 9:0.0 10:1.0 11:0.0 12:0.0 13:0.0 14:0.0 15:0.0 16:0.0 17:0.0 18:0.0 19:0.0 20:0.0 21:0.001736111111111111 22:1.0 23:0.0 24:0.0 25:0.0 26:0.02395209580838323 27:0.0 28:1.0 29:1.0 30:0.0 31:0.0 32:0.0 33:2.0589521004029767E-15 34:0.0 35:0.0 36:0.0 37:0.0 38:0.0 39:0.0 40:0.0 41:0.0 42:1.0 43:0.0 44:0.004 45:0.0 46:0.0 47:0.0 48:1.0 49:0.021813060355192194 50:1.0 51:0.021173469387754964 52:0.06979910872179387 53:0.26662389064380254 54:0.03040690419498967 55:2.04046797026627E-6 56:0.00598802395209603 57:0.6359623108641251 58:0.6064828629119867 59:0.2378385928835446 60:0.014963587856197245 61:0.011538969499136959 62:0.014735337387006303 
0.0 0.7280745786362243 0.0 0.0 0:0.0 1:0.0 2:1.0 3:0.0 4:0.0 5:0.0 6:0.0 7:1.0 8:1.0 9:0.0 10:1.0 11:0.0 12:0.0 13:1.0 14:0.0 15:0.0 16:0.0 17:1.0 18:0.0 19:0.0 20:0.0 21:0.001736111111111111 22:1.0 23:0.0 24:0.0 25:0.0 26:0.02395209580838323 27:0.0 28:1.0 29:1.0 30:0.0 31:0.0 32:0.0 33:2.0589521004029767E-15 34:0.0 35:0.0 36:0.0 37:0.0 38:0.0 39:0.0 40:0.0 41:0.0 42:1.0 43:0.0 44:0.004 45:0.0 46:0.0 47:0.0 48:1.0 49:0.021813060355192194 50:1.0 51:0.021173469387755234 52:0.06979910872179387 53:0.26662389064380254 54:0.03040690419498967 55:2.04046797026627E-6 56:0.0059880239520959545 57:0.635962310864125 58:0.6775158585539625 59:0.2656236295886013 60:0.014963587856197245 61:0.011538969499137106 62:0.014735337387006303 
0.0 5.031738270213994 0.0 0.0 0:0.0 1:0.0 2:1.0 3:0.0 4:0.0 5:0.0 6:0.0 7:1.0 8:1.0 9:0.0 10:1.0 11:0.0 12:0.0 13:1.0 14:0.0 15:0.0 16:0.0 17:0.0 18:0.0 19:0.0 20:0.0 21:0.001736111111111111 22:1.0 23:0.0 24:0.0 25:0.0 26:0.02594810379241517 27:0.0 28:1.0 29:1.0 30:0.0 31:0.0 32:0.0 33:2.0589521004029767E-15 34:0.0 35:0.0 36:0.0 37:0.0 38:0.0 39:0.0 40:0.0 41:0.0 42:1.0 43:0.0 44:0.004 45:0.0 46:0.0 47:0.0 48:1.0 49:0.021283738418154962 50:1.0 51:0.021173469387755234 52:0.06979910872179387 53:0.2666828091720775 54:0.029170689073619478 55:2.04046797026627E-6 56:0.0059880239520959545 57:0.6359640920142136 58:0.6632636802660585 59:0.2600480554963155 60:0.014963587856197245 61:0.011538969499137106 62:0.014735337387006303 
0.0 7.375674268381783 0.0 0.0 0:0.0 1:0.0 2:1.0 3:0.0 4:0.0 5:0.0 6:0.0 7:1.0 8:1.0 9:0.0 10:1.0 11:0.0 12:1.0 13:0.0 14:0.0 15:0.0 16:0.0 17:0.0 18:0.0 19:0.0 20:0.0 21:0.001736111111111111 22:1.0 23:0.0 24:0.0 25:0.0 26:0.0279441117764471 27:0.0 28:1.0 29:1.0 30:0.0 31:0.0 32:0.0 33:2.0589521004029767E-15 34:0.0 35:0.0 36:0.0 37:0.0 38:0.0 39:0.0 40:0.0 41:0.0 42:1.0 43:0.0 44:0.004 45:0.0 46:0.0 47:0.0 48:1.0 49:0.021283738418154962 50:1.0 51:0.021173469387755234 52:0.06979910872179387 53:0.2666759131054164 54:0.02916902749415531 55:2.04046797026627E-6 56:0.0059880239520959545 57:0.6359632014391693 58:0.7002281854955912 59:0.27450732082110496 60:0.014963587856197245 61:0.011538969499137106 62:0.014735337387006303 
8.0 8.0 3.6115915135338383 0.0 0:0.0 1:0.0 2:1.0 3:0.0 4:0.0 5:0.0 6:0.0 7:0.0 8:0.0 9:0.0 10:1.0 11:0.0 12:0.0 13:0.0 14:0.0 15:0.0 16:0.0 17:0.0 18:0.0 19:0.0 20:0.0 21:8.680555555555555E-4 22:0.0 23:0.0 24:0.0 25:0.0 26:0.02994011976047904 27:0.0 28:0.0 29:0.0 30:0.0 31:1.0 32:0.0 33:2.0589521004029767E-15 34:0.0 35:0.010810810810810811 36:0.0035026269702276708 37:0.0 38:0.0 39:0.6666666666666666 40:0.0 41:0.6666666666666666 42:0.041666666666666664 43:0.0052673163023439565 44:0.028 45:0.0 46:0.08333333333333333 47:0.038461538461538464 48:1.0 49:0.021283738418154962 50:1.0 51:0.02551020408163268 52:0.11891463208928019 53:0.7432586805065862 54:0.019938953570485033 55:2.5112506405143955E-4 56:0.043936428740403384 57:0.6343272150827791 58:0.30732810524923204 59:0.12082218597249851 60:0.20832091967823801 61:9.986005173091628E-4 62:0.014735337387006303 
0.0 8.0 0.0 0.0 0:0.0 1:0.0 2:1.0 3:0.0 4:0.0 5:0.0 6:0.0 7:1.0 8:1.0 9:0.0 10:1.0 11:0.0 12:0.0 13:0.0 14:0.0 15:0.0 16:0.0 17:0.0 18:0.0 19:0.0 20:0.0 21:0.001736111111111111 22:1.0 23:0.0 24:0.0 25:0.0 26:0.02994011976047904 27:0.0 28:1.0 29:1.0 30:0.0 31:0.0 32:0.0 33:2.0589521004029767E-15 34:0.0 35:0.0 36:0.0 37:0.0 38:0.0 39:0.0 40:0.0 41:0.0 42:1.0 43:0.0 44:0.004 45:0.0 46:0.0 47:0.0 48:1.0 49:0.021283738418154962 50:1.0 51:0.021173469387754964 52:0.06979910872179387 53:0.2666464521103056 54:0.02917068907361967 55:2.04046797026627E-6 56:0.00598802395209603 57:0.6359623108641251 58:0.577976575015861 59:0.22668816555944726 60:0.014963587856197245 61:0.011538969499136959 62:0.014735337387006303 
0.0 8.0 0.0 0.0 0:0.0 1:0.0 2:1.0 3:0.0 4:0.0 5:0.0 6:0.0 7:1.0 8:1.0 9:0.0 10:1.0 11:0.0 12:0.0 13:0.0 14:0.0 15:0.0 16:0.0 17:0.0 18:0.0 19:0.0 20:0.0 21:0.001736111111111111 22:1.0 23:0.0 24:0.0 25:0.0 26:0.02994011976047904 27:0.0 28:1.0 29:1.0 30:0.0 31:0.0 32:0.0 33:2.0589521004029767E-15 34:0.0 35:0.0 36:0.0 37:0.0 38:0.0 39:0.0 40:0.0 41:0.0 42:1.0 43:0.0 44:0.004 45:0.0 46:0.0 47:0.0 48:1.0 49:0.021283738418154962 50:1.0 51:0.021173469387754964 52:0.06979910872179387 53:0.2666464521103056 54:0.02917068907361967 55:2.04046797026627E-6 56:0.00598802395209603 57:0.6359623108641251 58:0.6035858824347382 59:0.23670541937499812 60:0.014963587856197245 61:0.011538969499136959 62:0.014735337387006303 
0.0 8.0 0.0 0.0 0:0.0 1:0.0 2:1.0 3:0.0 4:0.0 5:0.0 6:0.0 7:0.0 8:0.0 9:0.0 10:1.0 11:0.0 12:0.0 13:0.0 14:0.0 15:0.0 16:0.0 17:0.0 18:0.0 19:0.0 20:0.0 21:8.680555555555555E-4 22:0.0 23:0.0 24:0.0 25:0.0 26:0.031936127744510975 27:0.0 28:0.0 29:0.0 30:0.0 31:1.0 32:0.0 33:2.0589521004029767E-15 34:0.0 35:0.010810810810810811 36:0.012259194395796848 37:0.0 38:0.0 39:0.5 40:0.0 41:0.25 42:0.0196078431372549 43:0.010007900974453516 44:0.047 45:0.0 46:0.13725490196078433 47:0.05555555555555555 48:1.0 49:0.020777941900541604 50:1.0 51:0.02551020408163268 52:0.118822130688156 53:0.7434058507574955 54:0.019938953570485033 55:3.5118174644882506E-4 56:0.02929385105968451 57:0.6343272150827791 58:0.3997997220830062 59:0.156993084365302 60:0.43694124551708374 61:4.761037789207186E-4 62:0.014735337387006303 
0.0 8.0 0.0 0.0 0:0.0 1:0.0 2:1.0 3:0.0 4:0.0 5:0.0 6:0.0 7:1.0 8:1.0 9:0.0 10:1.0 11:0.0 12:0.0 13:0.0 14:0.0 15:0.0 16:0.0 17:0.0 18:0.0 19:0.0 20:0.0 21:0.001736111111111111 22:1.0 23:0.0 24:0.0 25:0.0 26:0.031936127744510975 27:0.0 28:1.0 29:1.0 30:0.0 31:0.0 32:0.0 33:2.0589521004029767E-15 34:0.0 35:0.0 36:0.0 37:0.0 38:0.0 39:0.0 40:0.0 41:0.0 42:1.0 43:0.0 44:0.004 45:0.0 46:0.0 47:0.0 48:1.0 49:0.020777941900541604 50:1.0 51:0.021173469387754964 52:0.06979910872179387 53:0.26665961472914673 54:0.03040690419498967 55:2.04046797026627E-6 56:0.00598802395209603 57:0.6359623108641251 58:0.5808735554931095 59:0.22782133906799373 60:0.014963587856197245 61:0.011538969499136959 62:0.014735337387006303 
0.0 8.0 0.0 0.0 0:0.0 1:0.0 2:1.0 3:0.0 4:0.0 5:0.0 6:0.0 7:1.0 8:1.0 9:0.0 10:1.0 11:0.0 12:0.0 13:0.0 14:0.0 15:0.0 16:0.0 17:0.0 18:0.0 19:0.0 20:0.0 21:0.001736111111111111 22:1.0 23:0.0 24:0.0 25:0.0 26:0.031936127744510975 27:0.0 28:1.0 29:1.0 30:0.0 31:0.0 32:0.0 33:2.0589521004029767E-15 34:0.0 35:0.0 36:0.0 37:0.0 38:0.0 39:0.0 40:0.0 41:0.0 42:1.0 43:0.0 44:0.004 45:0.0 46:0.0 47:0.0 48:1.0 49:0.020777941900541604 50:1.0 51:0.021173469387755234 52:0.06979910872179387 53:0.26665961472914673 54:0.03040690419498967 55:2.04046797026627E-6 56:0.0059880239520959545 57:0.635962310864125 58:0.6178390263828011 59:0.24228063303704675 60:0.014963587856197245 61:0.011538969499137106 62:0.014735337387006303 
0.0 8.0 0.0 0.0 0:0.0 1:0.0 2:1.0 3:0.0 4:0.0 5:0.0 6:0.0 7:1.0 8:1.0 9:0.0 10:1.0 11:0.0 12:0.0 13:0.0 14:0.0 15:0.0 16:0.0 17:0.0 18:0.0 19:0.0 20:0.0 21:8.680555555555555E-4 22:1.0 23:0.0 24:0.0 25:0.0 26:0.03393213572854291 27:0.0 28:1.0 29:1.0 30:0.0 31:1.0 32:0.0 33:2.0589521004029767E-15 34:0.0 35:0.0 36:0.0 37:0.0 38:0.0 39:0.0 40:0.0 41:0.0 42:1.0 43:0.0 44:0.0 45:0.0 46:0.0 47:0.0 48:1.0 49:0.023559822747415065 50:1.0 51:0.029846938775510264 52:0.06979910872179387 53:0.26020669647685 54:0.03080568326639936 55:0.0 56:0.0 57:0.6326939004515216 58:0.23077732745825685 59:0.0908785612254675 60:0.010483471731587297 61:0.023216962727179366 62:0.014735337387006303 
0.0 8.0 0.0 0.0 0:0.0 1:0.0 2:1.0 3:0.0 4:0.0 5:0.0 6:0.0 7:0.0 8:0.0 9:0.0 10:1.0 11:0.0 12:0.0 13:0.0 14:0.0 15:0.0 16:0.0 17:0.0 18:0.0 19:0.0 20:0.0 21:0.0 22:1.0 23:0.0 24:0.0 25:0.0 26:0.03792415169660678 27:0.0 28:0.0 29:0.0 30:0.0 31:1.0 32:0.0 33:2.0589521004029767E-15 34:0.0 35:0.0 36:0.0 37:0.0 38:0.0 39:0.0 40:0.0 41:1.0 42:0.0 43:0.0010534632604687912 44:0.012 45:0.0 46:0.0 47:0.0 48:1.0 49:0.02236758809875501 50:1.0 51:0.024489795918367335 52:0.11795424989525577 53:0.9999999999999998 54:0.019261029149088563 55:1.7700445043262911E-6 56:0.0021934100214454125 57:0.6347128340769637 58:0.1782058227376272 59:0.07031502512154586 60:0.030638020804165913 61:0.006518312795308686 62:0.014735337387006303 
0.0 2.4766826181940687 0.0 0.0 0:0.0 1:0.0 2:1.0 3:0.0 4:0.0 5:0.0 6:0.0 7:0.0 8:1.0 9:0.0 10:1.0 11:0.0 12:0.0 13:0.0 14:0.0 15:0.0 16:0.0 17:0.0 18:0.0 19:0.0 20:0.0 21:0.003472222222222222 22:0.0 23:0.0 24:0.0 25:0.0 26:0.03792415169660678 27:0.0 28:1.0 29:1.0 30:0.0017985611510791368 31:0.0 32:0.0 33:2.0589521004029767E-15 34:0.0 35:0.0 36:0.0 37:0.0 38:0.0 39:0.0 40:0.0 41:0.0 42:1.0 43:0.0 44:0.004 45:0.0 46:0.0 47:0.0 48:1.0 49:0.0462122810719561 50:1.0 51:0.021173469387755234 52:0.06979910872179387 53:0.26664833240486746 54:0.029170689073619478 55:2.244105034768656E-4 56:0.24883465239475225 57:0.6228183137852111 58:0.6632636802660585 59:0.26004842457317506 60:0.014963587856197245 61:0.03053887911619004 62:0.014735337387006303 
0.0 8.0 0.0 0.0 0:0.0 1:0.0 2:1.0 3:0.0 4:0.0 5:0.0 6:0.0 7:0.0 8:0.0 9:0.0 10:1.0 11:0.0 12:0.0 13:0.0 14:0.0 15:0.0 16:0.0 17:0.0 18:0.0 19:0.0 20:0.0 21:0.0 22:0.0 23:0.0 24:0.0 25:0.0 26:0.03992015968063872 27:0.0 28:0.0 29:0.0 30:0.0 31:1.0 32:0.0 33:2.0589521004029767E-15 34:0.0 35:0.010810810810810811 36:0.0035026269702276708 37:0.0 38:0.0 39:0.6666666666666666 40:0.0 41:1.0 42:0.0 43:0.005003950487226758 44:0.024 45:0.0 46:0.09523809523809523 47:0.0 48:1.0 49:0.022949165976150158 50:1.0 51:0.02551020408163268 52:0.11870514362202839 53:0.7436206620972367 54:0.019938953570485033 55:2.3993936614214896E-4 56:0.04604642385355768 57:0.6343289962328676 58:0.13200284676614896 59:0.05224236187011964 60:0.18992108275446498 61:0.0010953464204179742 62:0.014735337387006303 
0.0 0.7743305003878129 0.0 0.0 0:0.0 1:0.0 2:1.0 3:0.0 4:0.0 5:0.0 6:0.0 7:0.0 8:1.0 9:0.0 10:1.0 11:0.0 12:1.0 13:0.0 14:0.0 15:0.0 16:0.0 17:0.0 18:0.0 19:0.0 20:0.0 21:0.003472222222222222 22:0.0 23:0.0 24:0.0 25:0.0 26:0.03992015968063872 27:0.0 28:1.0 29:1.0 30:0.0017985611510791368 31:0.0 32:0.0 33:2.0589521004029767E-15 34:0.0 35:0.0 36:0.0 37:0.0 38:0.0 39:0.0 40:0.0 41:0.0 42:1.0 43:0.0 44:0.004 45:0.0 46:0.0 47:0.0 48:1.0 49:0.0473754368267464 50:1.0 51:0.0211734693877551 52:0.06979910872179387 53:0.2666464521103056 54:0.03040690419498967 55:2.244105034768699E-4 56:0.24883465239475702 57:0.6228192043602554 58:0.6859760072076873 59:0.26893211123006255 60:0.014963587856197245 61:0.03053887911619004 62:0.014735337387006303 
0.0 8.0 0.3243292991716955 0.0 0:0.0 1:0.0 2:1.0 3:0.0 4:0.0 5:0.0 6:0.0 7:0.0 8:0.0 9:0.0 10:1.0 11:0.0 12:1.0 13:0.0 14:0.0 15:0.0 16:0.0 17:0.0 18:0.027777777777777776 19:0.0 20:0.0 21:0.015625 22:0.0 23:0.0 24:0.0 25:0.0 26:0.03992015968063872 27:0.024 28:0.0 29:0.0 30:0.0017985611510791368 31:0.0 32:0.0 33:2.0589521004029767E-15 34:0.004424778761061947 35:0.04864864864864865 36:0.03502626970227671 37:0.0 38:0.021739130434782608 39:0.5294117647058824 40:0.08695652173913043 41:0.11764705882352941 42:0.2608695652173913 43:0.003950487226757967 44:0.01223529411764706 45:0.09999380221367833 46:0.2898550724637681 47:0.12941176470588237 48:1.0 49:0.0473754368267464 50:1.0 51:0.0211734693877551 52:0.10832322166056338 53:0.7763682434020626 54:0.03040690419498967 55:0.0074387584405242145 56:0.4014058790192278 57:0.6228192043602554 58:0.6888729876849359 59:0.27006528160426496 60:0.2725463710686047 61:0.001486170670643836 62:0.01690187929406196 
0.0 8.0 0.0 0.0 0:0.0 1:0.0 2:1.0 3:0.0 4:0.0 5:0.0 6:0.0 7:0.0 8:0.0 9:0.0 10:1.0 11:0.0 12:0.0 13:0.0 14:0.0 15:0.0 16:0.0 17:0.0 18:0.0 19:0.0 20:0.0 21:0.0 22:0.0 23:0.0 24:0.0 25:0.0 26:0.041916167664670656 27:0.0 28:0.0 29:1.0 30:0.0 31:1.0 32:0.0 33:2.0589521004029767E-15 34:0.0 35:0.016216216216216217 36:0.005253940455341506 37:0.0 38:0.0 39:1.0 40:0.0 41:0.6666666666666666 42:0.0 43:0.008954437713984725 44:0.04666666666666666 45:0.0 46:0.07894736842105263 47:0.025 48:1.0 49:0.023559822747415065 50:1.0 51:0.025510204081632615 52:0.11886838138871808 53:0.743314464640006 54:0.019938953570485033 55:2.48052070120316E-4 56:0.028725978647687174 57:0.6343281056578234 58:0.1474147829051113 59:0.05827091828068031 60:0.31472815775384894 61:6.609811452577742E-4 62:0.014735337387006303 
0.0 6.995997536803395 0.0 0.0 0:0.0 1:0.0 2:1.0 3:0.0 4:0.0 5:0.0 6:0.0 7:1.0 8:1.0 9:0.0 10:1.0 11:0.0 12:0.0 13:0.0 14:0.0 15:0.0 16:0.0 17:1.0 18:0.0 19:0.0 20:0.0 21:8.680555555555555E-4 22:1.0 23:0.0 24:0.0 25:0.0 26:0.04391217564870259 27:0.0 28:1.0 29:1.0 30:0.0 31:1.0 32:0.0 33:2.0589521004029767E-15 34:0.0 35:0.0 36:0.0 37:0.0 38:0.0 39:0.0 40:0.0 41:0.0 42:1.0 43:0.0 44:0.0 45:0.0 46:0.0 47:0.0 48:1.0 49:0.02236758809875501 50:1.0 51:0.029846938775510264 52:0.06979910872179387 53:0.25084027095506484 54:0.0242274901676035 55:0.0 56:0.0 57:0.6326930098764774 58:0.40030862498684283 59:0.1571919183507347 60:0.010483471731587297 61:0.023216962727179366 62:0.014735337387006303 
0.0 0.532404359181197 0.0 0.0 0:0.0 1:0.0 2:1.0 3:0.0 4:0.0 5:0.0 6:0.0 7:0.0 8:0.0 9:0.0 10:1.0 11:0.0 12:1.0 13:0.0 14:0.0 15:0.0 16:0.0 17:0.0 18:0.05555555555555555 19:0.0 20:0.0 21:0.07899305555555555 22:0.0 23:0.0 24:0.0 25:0.0 26:0.04391217564870259 27:0.096 28:0.0 29:0.0 30:0.010791366906474822 31:0.0 32:0.0 33:2.1161452143030595E-15 34:0.030973451327433628 35:0.25405405405405407 36:0.1243432574430823 37:1.5491082675347056E-16 38:0.02408256880733945 39:0.5164835164835165 40:0.05504587155963303 41:0.27472527472527475 42:0.20871559633027523 43:0.05662365025019753 44:0.015164835164835164 45:0.4404937712247467 46:0.1628440366972477 47:0.0817490494296578 48:1.0 49:0.16543574593796156 50:1.0 51:0.021173469387755234 52:0.10832322166056338 53:0.7763798071725057 54:0.03040690419498967 55:0.05839713070565528 56:0.45320285934639004 57:0.5677816666221379 58:0.6291951898536154 59:0.246722322542637 60:0.49915619146181595 61:0.0027776439072041384 62:0.012407616098680671 
0.0 8.0 0.0 0.0 0:0.0 1:0.0 2:1.0 3:0.0 4:0.0 5:0.0 6:0.0 7:0.0 8:0.0 9:0.0 10:1.0 11:0.0 12:0.0 13:0.0 14:0.0 15:0.0 16:0.0 17:0.0 18:0.0 19:0.0 20:0.0 21:0.0 22:1.0 23:0.0 24:0.0 25:0.0 26:0.04590818363273453 27:0.0 28:0.0 29:1.0 30:0.0 31:1.0 32:0.0 33:2.0589521004029767E-15 34:0.0 35:0.005405405405405406 36:0.0035026269702276708 37:0.0 38:0.0 39:1.0 40:0.0 41:0.0 42:0.0 43:0.003687121411640769 44:0.064 45:0.0 46:0.11764705882352941 47:0.058823529411764705 48:1.0 49:0.024877555780144597 50:1.0 51:0.02755102040816337 52:0.10897617272732218 53:0.7618223746535621 54:0.0209359012490093 55:0.0 56:0.0 57:0.6003019049400198 58:0.4162004942248693 59:0.1726783311459956 60:0.14945219380086328 61:0.0015033016424565368 62:0.014735337387006303 
0.0 8.0 0.0 0.0 0:0.0 1:0.0 2:1.0 3:0.0 4:0.0 5:0.0 6:0.0 7:0.0 8:0.0 9:0.0 10:1.0 11:0.0 12:0.0 13:0.0 14:0.0 15:0.0 16:0.0 17:0.0 18:0.0 19:0.0 20:0.0 21:0.0 22:1.0 23:0.0 24:0.0 25:0.0 26:0.049900199600798396 27:0.0 28:0.0 29:1.0 30:0.0 31:1.0 32:0.0 33:2.0589521004029767E-15 34:0.0 35:0.005405405405405406 36:0.0035026269702276708 37:0.0 38:0.0 39:1.0 40:0.0 41:0.0 42:0.0 43:0.003950487226757967 44:0.068 45:0.0 46:0.1111111111111111 47:0.05555555555555555 48:1.0 49:0.022949165976150158 50:1.0 51:0.027551020408163505 52:0.10897617272732218 53:0.7618374907152323 54:0.0209359012490093 55:0.0 56:0.0 57:0.6074648000213737 58:0.4836421997352158 59:0.19809173655974013 60:0.1634256759935217 61:0.0013747639533611452 62:0.014735337387006303 
0.0 2.9984317251730204 0.0 0.0 0:0.0 1:0.0 2:1.0 3:0.0 4:0.0 5:0.0 6:0.0 7:0.0 8:1.0 9:0.0 10:1.0 11:0.0 12:0.0 13:0.0 14:0.0 15:0.0 16:0.0 17:0.0 18:0.0 19:0.0 20:0.0 21:0.0 22:1.0 23:0.0 24:0.0 25:0.0 26:0.049900199600798396 27:0.0 28:0.0 29:0.0 30:0.0 31:0.0 32:0.0 33:2.0589521004029767E-15 34:0.0 35:0.0 36:0.0 37:0.0 38:0.0 39:0.0 40:0.0 41:0.0 42:0.0 43:0.0 44:0.0 45:0.0 46:0.0 47:1.0 48:1.0 49:0.022949165976150158 50:1.0 51:0.017091836734693854 52:0.09428477372524907 53:0.2847038746861983 54:0.02321060353550887 55:0.0 56:0.0 57:0.6114082663175613 58:0.5505054748102719 59:0.22535028760802064 60:0.003997756955193621 61:0.034864471484221386 62:0.014735337387006303 
0.0 0.5310071575558863 0.0 0.0 0:0.0 1:0.0 2:1.0 3:0.0 4:0.0 5:0.0 6:0.0 7:0.0 8:1.0 9:0.0 10:1.0 11:0.0 12:0.0 13:0.0 14:0.0 15:0.0 16:0.0 17:0.0 18:0.0 19:0.0 20:0.0 21:0.0 22:1.0 23:0.0 24:0.0 25:0.0 26:0.049900199600798396 27:0.0 28:0.0 29:0.0 30:0.0 31:0.0 32:0.0 33:2.0589521004029767E-15 34:0.0 35:0.0 36:0.0 37:0.0 38:0.0 39:0.0 40:0.0 41:0.0 42:0.0 43:0.0 44:0.0 45:0.0 46:0.0 47:1.0 48:1.0 49:0.022949165976150158 50:1.0 51:0.017091836734693854 52:0.09428477372524907 53:0.28470152411218813 54:0.025458720550580977 55:0.0 56:0.0 57:0.6114082663175613 58:0.6603589745075374 59:0.27013492051702526 60:0.003997756955193621 61:0.034864471484221386 62:0.014735337387006303 
0.0 8.0 0.0 0.0 0:0.0 1:0.0 2:1.0 3:0.0 4:0.0 5:0.0 6:0.0 7:0.0 8:0.0 9:0.0 10:1.0 11:0.0 12:0.0 13:0.0 14:0.0 15:0.0 16:0.0 17:1.0 18:0.0 19:0.0 20:0.0 21:0.0026041666666666665 22:0.0 23:0.0 24:0.0 25:0.0 26:0.049900199600798396 27:0.012 28:0.0 29:0.0 30:0.0017985611510791368 31:0.0 32:0.0 33:2.0589521004029767E-15 34:0.0 35:0.02702702702702703 36:0.014010507880910683 37:0.0 38:0.0 39:0.35714285714285715 40:0.02564102564102564 41:0.6428571428571429 42:0.02564102564102564 43:0.02607321569660258 44:0.029428571428571432 45:0.29883588475536904 46:0.06837606837606838 47:0.038461538461538464 48:1.0 49:0.0473754368267464 50:1.0 51:0.024489795918367335 52:0.11877043872870427 53:0.7513139708716866 54:0.019261029149088515 55:0.015694782758313347 56:0.4035788373228732 57:0.594405407571669 58:0.5482101006121319 59:0.224414518687269 60:0.47702633785601056 61:8.722046494296195E-4 62:0.012089325058352241 
0.0 8.0 0.0 0.0 0:0.0 1:0.0 2:1.0 3:0.0 4:0.0 5:0.0 6:0.0 7:0.0 8:0.0 9:0.0 10:1.0 11:0.0 12:0.0 13:0.0 14:0.0 15:0.0 16:0.0 17:0.0 18:0.0 19:0.0 20:0.0 21:8.680555555555555E-4 22:0.0 23:0.0 24:0.0 25:0.0 26:0.05189620758483034 27:0.0 28:0.0 29:0.0 30:0.0017985611510791368 31:0.0 32:0.0 33:2.0589521004029767E-15 34:0.01327433628318584 35:0.03783783783783784 36:0.01576182136602452 37:0.0 38:0.025 39:0.2916666666666667 40:0.0 41:0.3333333333333333 42:0.005555555555555556 43:0.03976823808269687 44:0.026 45:0.01580221795263598 46:0.05 47:0.054187192118226604 48:1.0 49:0.038581979320531756 50:1.0 51:0.022831632653061217 52:0.06979910872179387 53:0.9999999999999998 54:0.023213926694437205 55:0.00882385646133664 56:0.2482186474987207 57:0.6143685377648348 58:0.36952434477544055 59:0.14753775304405992 60:0.6296937616623022 61:6.679979331261264E-4 62:0.014607264567251175 
0.0 0.0 4.928082427085534 0.0 0:0.0 1:0.0 2:1.0 3:0.0 4:0.0 5:0.0 6:0.0 7:0.0 8:0.0 9:0.0 10:1.0 11:0.0 12:0.0 13:0.0 14:0.0 15:0.0 16:0.0 17:0.0 18:0.0 19:0.0 20:0.0 21:0.0 22:0.0 23:0.0 24:0.0 25:0.0 26:0.0558882235528942 27:0.0 28:0.0 29:0.0 30:0.0017985611510791368 31:1.0 32:2.2696128811238602E-4 33:2.133042028423278E-4 34:0.0 35:0.021621621621621623 36:0.0070052539404553416 37:5.408764142590154E-4 38:0.0 39:0.5 40:0.0 41:0.875 42:0.0 43:0.016328680537266264 44:0.029500000000000002 45:0.7793096520904705 46:0.05970149253731343 47:0.013513513513513514 48:1.0 49:0.048596750369276215 50:1.0 51:0.02551020408163268 52:0.11877043872870427 53:0.7432460068403793 54:0.019762826147279068 55:0.02140918360093465 56:0.5806585380020137 57:0.6083384541398382 58:0.4306235943609309 59:0.17278133036977028 60:0.30911307887767114 61:8.268361468392724E-4 62:0.007835553321010212 
0.0 8.0 0.0 0.0 0:0.0 1:0.0 2:1.0 3:0.0 4:0.0 5:0.0 6:0.0 7:1.0 8:1.0 9:0.0 10:1.0 11:0.0 12:0.0 13:0.0 14:0.0 15:0.0 16:0.0 17:0.0 18:0.0 19:0.0 20:0.0 21:8.680555555555555E-4 22:1.0 23:0.0 24:0.0 25:0.0 26:0.06187624750499002 27:0.0 28:1.0 29:1.0 30:0.0 31:1.0 32:0.0 33:2.0589521004029767E-15 34:0.0 35:0.0 36:0.0 37:0.0 38:0.0 39:0.0 40:0.0 41:0.0 42:1.0 43:0.0 44:0.0 45:0.0 46:0.0 47:0.0 48:1.0 49:0.024877555780144597 50:1.0 51:0.029846938775510264 52:0.06979910872179387 53:0.2508933441161535 54:0.0242274901676035 55:0.0 56:0.0 57:0.6160009618210478 58:0.2558072387816845 59:0.10352972103777021 60:0.010483471731587297 61:0.023216962727179366 62:0.014735337387006303 
0.0 8.0 0.0 0.0 0:0.0 1:0.0 2:1.0 3:0.0 4:0.0 5:0.0 6:0.0 7:0.0 8:1.0 9:0.0 10:1.0 11:0.0 12:0.0 13:0.0 14:0.0 15:0.0 16:0.0 17:0.0 18:0.0 19:0.0 20:0.0 21:0.0 22:1.0 23:0.0 24:0.0 25:0.0 26:0.06187624750499002 27:0.0 28:0.0 29:1.0 30:0.0 31:1.0 32:0.0 33:2.0589521004029767E-15 34:0.0 35:0.005405405405405406 36:0.0017513134851138354 37:0.0 38:0.0 39:1.0 40:0.0 41:1.0 42:0.0 43:0.0010534632604687912 44:0.016 45:0.0 46:0.2 47:0.0 48:1.0 49:0.024877555780144597 50:1.0 51:0.029846938775510264 52:0.09918326704066252 53:0.7833852099828852 54:0.0242274901676035 55:3.068077140833489E-6 56:0.0021000820344541124 57:0.6160009618210478 58:0.2558072387816845 59:0.10352972103777021 60:0.04551051296582941 61:0.005348091167999979 62:0.014735337387006303 
0.0 0.03140509913848677 0.0 0.0 0:0.0 1:0.0 2:1.0 3:0.0 4:0.0 5:0.0 6:0.0 7:0.0 8:1.0 9:0.0 10:1.0 11:0.0 12:0.0 13:0.0 14:0.0 15:1.0 16:0.0 17:1.0 18:0.0 19:0.0 20:0.0 21:8.680555555555555E-4 22:0.0 23:1.0 24:0.0 25:0.0 26:0.0 27:0.004 28:1.0 29:1.0 30:0.0 31:0.0 32:0.0 33:2.0589521004029767E-15 34:0.0 35:0.005405405405405406 36:0.0017513134851138354 37:0.0 38:0.0 39:0.5 40:0.08333333333333333 41:0.5 42:0.08333333333333333 43:0.0023702923360547803 44:0.02 45:0.0 46:0.08333333333333333 47:0.07692307692307693 48:1.0 49:0.01521418020679468 50:1.0 51:0.02362055933484505 52:0.0657916215495617 53:0.7296386497507928 54:0.02281847078195592 55:1.003844684167102E-4 56:0.04845621360290042 57:0.525811536509124 58:0.353259730716008 59:0.16853244355501504 60:0.08154707370015031 61:0.002362068751824113 62:0.014735337387006303 
0.0 0.05596404702691339 0.0 0.0 0:0.0 1:0.0 2:1.0 3:0.0 4:0.0 5:0.0 6:0.0 7:0.0 8:0.0 9:0.0 10:1.0 11:0.0 12:0.0 13:0.0 14:1.0 15:0.0 16:1.0 17:1.0 18:0.006802721088435374 19:0.0 20:0.0 21:0.027777777777777776 22:0.0 23:0.0 24:0.0 25:0.0 26:0.001996007984031936 27:0.06 28:0.0 29:0.0 30:0.08633093525179857 31:1.0 32:0.01824254881808835 33:0.0020993667403173626 34:0.08849557522123894 35:0.5243243243243243 36:0.22591943957968477 37:0.004537116780393475 38:0.016129032258064516 39:0.313915857605178 40:0.008064516129032258 41:0.6504854368932039 42:0.017204301075268817 43:0.4311298393468528 44:0.020077669902912623 45:0.23406046902282285 46:0.06935483870967742 47:0.023062730627306273 48:1.0 49:0.5096935007385524 50:1.0 51:0.02362325882734046 52:0.31641600600714986 53:0.3503219643818051 54:0.023398362014964175 55:0.09658342076342374 56:0.23599122361380906 57:0.020899124564731437 58:0.04566124062223276 59:0.02366325476787409 60:0.2738831219076626 61:0.039723800861030466 62:0.014441553710076395 
0.0 8.0 0.0 0.0 0:0.0 1:0.0 2:1.0 3:0.0 4:0.0 5:0.0 6:0.0 7:0.0 8:0.0 9:0.0 10:1.0 11:0.0 12:0.0 13:0.0 14:0.0 15:0.0 16:0.0 17:0.0 18:0.011111111111111112 19:0.0 20:0.0 21:0.005208333333333333 22:0.0 23:0.0 24:0.0 25:0.0 26:0.003992015968063872 27:0.004 28:0.0 29:0.0 30:0.007194244604316546 31:0.0 32:0.0 33:2.0589521004029767E-15 34:0.01327433628318584 35:0.043243243243243246 36:0.01576182136602452 37:0.0 38:0.023195876288659795 39:0.26666666666666666 40:0.005154639175257732 41:0.6666666666666666 42:0.030927835051546393 43:0.045035554385040824 44:0.021866666666666666 45:0.17794699396677569 46:0.04639175257731959 47:0.026905829596412557 48:1.0 49:0.049618665782413404 50:1.0 51:0.020077475434618294 52:0.07734069354285808 53:0.7297025216401732 54:0.016399789311723898 55:0.009977282501600761 56:0.298658996323587 57:0.4903212304184813 58:0.1674020168778082 59:0.08106306825885196 60:0.24186205573115116 61:0.003560137349869216 62:0.013361837782746173 
0.0 8.0 0.0 0.0 0:0.0 1:0.0 2:1.0 3:0.0 4:0.0 5:0.0 6:0.0 7:0.0 8:0.0 9:0.0 10:1.0 11:0.0 12:0.0 13:0.0 14:0.0 15:0.0 16:0.0 17:0.0 18:0.007936507936507936 19:0.0 20:0.0 21:0.0078125 22:0.0 23:0.0 24:0.0 25:0.0 26:0.011976047904191616 27:0.012 28:0.0 29:0.0 30:0.010791366906474822 31:0.0 32:0.0 33:2.001758986502894E-15 34:0.008849557522123894 35:0.06486486486486487 36:0.02276707530647986 37:1.9382605302752397E-16 38:0.011111111111111112 39:0.2857142857142857 40:0.011111111111111112 41:0.6190476190476191 42:0.03333333333333333 43:0.06268106399789308 44:0.021714285714285717 45:0.23556717224930487 46:0.04814814814814815 47:0.02572347266881029 48:1.0 49:0.07079443877628712 50:1.0 51:0.020077475434618273 52:0.07734069354285808 53:0.7296724628875375 54:0.016349941927797686 55:0.014249697832127435 56:0.3016868516835483 57:0.4721828884910988 58:0.4522621072056595 59:0.21536012607725039 60:0.2432075839405757 61:0.005032987672691741 62:0.013434743238159895 
0.0 8.0 0.0 0.0 0:0.0 1:0.0 2:1.0 3:0.0 4:0.0 5:0.0 6:0.0 7:0.0 8:0.0 9:0.0 10:1.0 11:0.0 12:0.0 13:0.0 14:0.0 15:0.0 16:0.0 17:0.0 18:0.0 19:0.0 20:0.0 21:0.0 22:0.0 23:0.0 24:0.0 25:0.0 26:0.015968063872255488 27:0.008 28:0.0 29:0.0 30:0.007194244604316546 31:0.0 32:0.0 33:2.0589521004029767E-15 34:0.004424778761061947 35:0.05945945945945946 36:0.021015761821366025 37:0.0 38:0.006787330316742082 39:0.3333333333333333 40:0.00904977375565611 41:0.6060606060606061 42:0.0 43:0.052936528838556755 44:0.02278787878787879 45:6.625219861128107E-5 46:0.05429864253393665 47:0.023715415019762844 48:1.0 49:0.049618665782413404 50:1.0 51:0.020077475434618294 52:0.07734069354285808 53:0.7296987641606592 54:0.015452689017126013 55:0.006545558640416527 56:0.195920947853574 57:0.49071308343797604 58:0.5542937596143539 59:0.2632813481416602 60:0.26673028431563606 61:0.003559898180390145 62:0.014734050494000075 
8.0 8.0 8.0 0.0 0:0.0 1:0.0 2:1.0 3:0.0 4:0.0 5:0.0 6:0.0 7:0.0 8:0.0 9:0.0 10:1.0 11:0.0 12:0.0 13:0.0 14:0.0 15:0.0 16:0.0 17:0.0 18:0.027777777777777776 19:0.0 20:0.0 21:0.006076388888888888 22:0.0 23:0.0 24:0.0 25:0.0 26:0.015968063872255488 27:0.008 28:0.0 29:0.0 30:0.0017985611510791368 31:0.0 32:0.0 33:2.0589521004029767E-15 34:0.004424778761061947 35:0.021621621621621623 36:0.014010507880910683 37:0.0 38:0.023076923076923078 39:0.3333333333333333 40:0.03076923076923077 41:0.5 42:0.1076923076923077 43:0.011588095865156703 44:0.017666666666666667 45:0.16828272164031893 46:0.12307692307692308 47:0.05263157894736842 48:1.0 49:0.01896120338829771 50:1.0 51:0.020077475434618294 52:0.3511312377231597 53:0.3065525231719876 54:0.028479472016509456 55:0.00442691294577864 56:0.3493688784466865 57:0.5179646797937428 58:0.045236350152236315 59:0.023440726436216953 60:0.2079318962614177 61:0.0013504422901126 62:0.01148721384988216 
0.0 0.0 0.0012740981131645313 0.0 0:0.0 1:0.0 2:1.0 3:0.0 4:0.0 5:0.0 6:0.0 7:0.0 8:1.0 9:0.0 10:1.0 11:0.0 12:0.0 13:0.0 14:0.0 15:0.0 16:0.0 17:0.0 18:0.0 19:0.0 20:0.0 21:8.680555555555555E-4 22:0.0 23:1.0 24:0.0 25:0.0 26:0.017964071856287425 27:0.004 28:1.0 29:1.0 30:0.0 31:1.0 32:0.0 33:2.0589521004029767E-15 34:0.0 35:0.005405405405405406 36:0.0017513134851138354 37:0.0 38:0.0 39:0.5 40:0.14285714285714285 41:0.5 42:0.14285714285714285 43:0.0010534632604687912 44:0.01 45:0.0 46:0.14285714285714285 47:0.125 48:1.0 49:0.008438510025300905 50:1.0 51:0.02362055933484505 52:0.04266627126852068 53:0.6859506472908534 54:0.02281847078195592 55:9.700796891214298E-5 56:0.08061922628243545 57:0.5263271794597773 58:0.10255504021491729 59:0.050380480734421036 60:0.04736528104141792 61:0.004066687462941247 62:0.014735337387006303 
0.0 8.0 0.0 0.0 0:0.0 1:0.0 2:1.0 3:0.0 4:0.0 5:0.0 6:0.0 7:0.0 8:0.0 9:0.0 10:1.0 11:0.0 12:0.0 13:0.0 14:0.0 15:0.0 16:0.0 17:0.0 18:0.0 19:0.0 20:0.0 21:0.0 22:1.0 23:0.0 24:0.0 25:0.0 26:0.017964071856287425 27:0.0 28:0.0 29:1.0 30:0.0 31:0.0 32:0.0 33:2.0589521004029767E-15 34:0.0 35:0.005405405405405406 36:0.01926444833625219 37:0.0 38:0.0 39:1.0 40:0.0 41:1.0 42:0.0 43:0.0 44:0.039999999999999994 45:0.0 46:1.0 47:0.0 48:1.0 49:0.008438510025300905 50:1.0 51:0.020077475434618294 52:0.31641600600714986 53:0.3503996003996002 54:0.017429968579532346 55:1.509181463951851E-5 56:0.006981011053267218 57:0.5276630420262364 58:0.04457004464246914 59:0.023092417679415354 60:0.10011416829257544 61:0.0016354011444501175 62:0.014735337387006303 
0.0 8.0 0.0 0.0 0:0.0 1:0.0 2:1.0 3:0.0 4:0.0 5:0.0 6:0.0 7:0.0 8:0.0 9:0.0 10:1.0 11:0.0 12:0.0 13:0.0 14:0.0 15:0.0 16:0.0 17:0.0 18:0.0 19:0.0 20:0.0 21:0.0 22:1.0 23:0.0 24:0.0 25:0.0 26:0.017964071856287425 27:0.0 28:0.0 29:1.0 30:0.0 31:0.0 32:0.0 33:2.0589521004029767E-15 34:0.0 35:0.005405405405405406 36:0.03502626970227671 37:0.0 38:0.0 39:1.0 40:0.0 41:1.0 42:0.0 43:0.0 44:0.076 45:0.0 46:1.0 47:0.0 48:1.0 49:0.008438510025300905 50:1.0 51:0.020077475434618294 52:0.31641600600714986 53:0.3503275075440023 54:0.017390090672391376 55:0.0 56:0.0 57:0.5276630420262364 58:0.4482024718968752 59:0.21304409426791449 60:0.15189684383285879 61:0.0010778816812119414 62:0.014735337387006303 
0.0 2.1180670348404846 0.0 0.0 0:0.0 1:0.0 2:1.0 3:0.0 4:0.0 5:0.0 6:0.0 7:0.0 8:1.0 9:0.0 10:1.0 11:0.0 12:0.0 13:0.0 14:0.0 15:0.0 16:0.0 17:1.0 18:0.0 19:0.0 20:0.0 21:8.680555555555555E-4 22:1.0 23:1.0 24:0.0 25:0.0 26:0.011976047904191616 27:0.004 28:1.0 29:1.0 30:0.0 31:0.0 32:0.0 33:2.0589521004029767E-15 34:0.0 35:0.0 36:0.0 37:0.0 38:0.0 39:0.0 40:0.5 41:0.0 42:0.5 43:0.0 44:0.004 45:0.0 46:0.0 47:0.5 48:1.0 49:0.022949165976150158 50:1.0 51:0.033163265306122465 52:0.10826744875694441 53:0.35693327523806884 54:0.024647869772047918 55:0.0 56:0.0 57:0.5425703776928764 58:0.09431602773762239 59:0.04459713316674615 60:0.015716247365131702 61:0.01720755504294936 62:0.014735337387006303 
0.299691851332629 8.0 0.0 0.0 0:0.0 1:0.0 2:1.0 3:0.0012987012987012987 4:0.0 5:0.0 6:0.0 7:0.0 8:0.0 9:0.0 10:1.0 11:0.0 12:0.0 13:0.0 14:0.0 15:0.0 16:0.0 17:0.0 18:0.0 19:0.0 20:0.0 21:8.680555555555555E-4 22:1.0 23:0.0 24:0.0 25:0.0 26:0.011976047904191616 27:0.0 28:0.0 29:1.0 30:0.0 31:1.0 32:0.0 33:2.0589521004029767E-15 34:0.0 35:0.005405405405405406 36:0.0017513134851138354 37:0.0 38:0.0 39:1.0 40:0.0 41:0.0 42:0.09090909090909091 43:0.0023702923360547803 44:0.039999999999999994 45:0.0 46:0.09090909090909091 47:0.0 48:1.0 49:0.022949165976150158 50:1.0 51:0.03557256235827665 52:0.14679156169571392 53:0.6878873892139257 54:0.024647869772047918 55:3.338557514067935E-4 56:0.08884831074231249 57:0.5416619911476841 58:0.09333105437535788 59:0.04415016821772932 60:0.09821459905574084 61:0.0029535874853761613 62:0.014735337387006303 
0.0 8.0 0.0 0.0 0:0.0 1:0.0 2:1.0 3:0.0 4:0.0 5:0.0 6:0.0 7:0.0 8:0.0 9:0.0 10:1.0 11:0.0 12:0.0 13:0.0 14:0.0 15:0.0 16:0.0 17:0.0 18:0.0 19:0.0 20:0.0 21:0.001736111111111111 22:1.0 23:1.0 24:0.0 25:0.0 26:0.015968063872255488 27:0.004 28:1.0 29:0.0 30:0.0 31:0.0 32:0.0 33:2.0589521004029767E-15 34:0.0 35:0.0 36:0.0 37:0.0 38:0.0 39:0.0 40:0.3333333333333333 41:0.0 42:0.6666666666666666 43:0.0 44:0.008 45:0.0 46:0.0 47:0.3333333333333333 48:1.0 49:0.021813060355192194 50:1.0 51:0.02834467120181406 52:0.10826744875694441 53:0.3543637854813866 54:0.022138884781095235 55:0.0 56:0.0 57:0.5861756035872363 58:0.45385158382750984 59:0.19272586725488927 60:0.02239460713488357 61:0.01032140247496194 62:0.014735337387006303 
0.0 0.16798351518990728 0.0 0.0 0:0.0 1:0.0 2:1.0 3:0.0 4:1.0 5:0.0 6:0.0 7:0.0 8:0.0 9:0.0 10:1.0 11:0.0 12:1.0 13:0.0 14:0.0 15:0.0 16:0.0 17:0.0 18:0.013888888888888888 19:0.0 20:0.0 21:0.010416666666666666 22:0.0 23:0.0 24:0.125 25:0.00510204081632653 26:0.02395209580838323 27:0.02 28:0.0 29:0.0 30:0.012589928057553958 31:1.0 32:0.030318602261048332 33:0.00712355545334527 34:0.02654867256637168 35:0.14594594594594595 36:0.06479859894921192 37:0.03325828080900163 38:0.015306122448979591 39:0.32926829268292684 40:0.008503401360544218 41:0.6097560975609756 42:0.02040816326530612 43:0.13457993152488806 44:0.024682926829268294 45:5.129202473130654E-4 46:0.06292517006802721 47:0.03288490284005979 48:1.0 49:0.17656326932545544 50:1.0 51:0.02607709750566895 52:0.1082688090716668 53:0.9999999999999998 54:0.014754825642158916 55:0.04316637033444744 56:0.26271248147965587 57:0.5032452554614515 58:0.5837444631460628 59:0.24604820501781818 60:0.5901113756868577 61:0.003543521038431297 62:0.015215284432198386 
0.0 8.0 0.0 0.0 0:0.0 1:0.0 2:1.0 3:0.0 4:0.0 5:0.0 6:0.0 7:0.0 8:0.0 9:0.0 10:1.0 11:0.0 12:0.0 13:0.0 14:0.0 15:0.0 16:0.0 17:0.0 18:0.0 19:0.0 20:0.0 21:0.0 22:0.0 23:0.0 24:0.0 25:0.0 26:0.02594810379241517 27:0.0 28:0.0 29:0.0 30:0.0 31:0.0 32:0.0 33:2.0589521004029767E-15 34:0.0 35:0.010810810810810811 36:0.0035026269702276708 37:0.0 38:0.0 39:0.5 40:0.0 41:0.75 42:0.0 43:0.0071108770081643406 44:0.025 45:0.0 46:0.06896551724137931 47:0.0 48:1.0 49:0.02236758809875501 50:1.0 51:0.02834467120181406 52:0.10826744875694441 53:0.7497649576923845 54:0.022138884781095235 55:3.61065405448042E-4 56:0.05073534585884164 57:0.5950457310285252 58:0.4904684513997727 59:0.20503029751668725 60:0.2334454109050506 61:9.90140489854396E-4 62:0.014735337387006303 
0.0 8.0 0.0 0.0 0:0.0 1:0.0 2:1.0 3:0.0 4:0.0 5:0.0 6:0.0 7:0.0 8:0.0 9:0.0 10:1.0 11:0.0 12:0.0 13:0.0 14:0.0 15:0.0 16:0.0 17:0.0 18:0.0 19:0.0 20:0.0 21:0.0 22:0.0 23:0.0 24:0.0 25:0.0 26:0.0279441117764471 27:0.0 28:0.0 29:1.0 30:0.0 31:1.0 32:0.0 33:2.0589521004029767E-15 34:0.0 35:0.010810810810810811 36:0.0035026269702276708 37:0.0 38:0.0 39:1.0 40:0.0 41:0.0 42:0.0 43:0.004740584672109561 44:0.036000000000000004 45:0.0 46:0.1 47:0.0 48:1.0 49:0.02236758809875501 50:1.0 51:0.02834467120181406 52:0.14679156169571392 53:0.6789514086320754 54:0.022138884781095235 55:1.2437658399748876E-4 56:0.025910224675411698 57:0.5953511982687222 58:0.3514143541520007 59:0.14712938153823552 60:0.15746264143166588 61:0.0014679275757487984 62:0.014735337387006303 
0.0 8.0 0.0 0.0 0:0.0 1:0.0 2:1.0 3:0.0 4:0.0 5:0.0 6:0.0 7:0.0 8:0.0 9:0.0 10:1.0 11:0.0 12:0.0 13:0.0 14:0.0 15:0.0 16:0.0 17:0.0 18:0.0 19:0.0 20:0.0 21:0.0 22:0.0 23:0.0 24:0.0 25:0.0 26:0.03393213572854291 27:0.0 28:0.0 29:0.0 30:0.0 31:1.0 32:0.0 33:2.0589521004029767E-15 34:0.0 35:0.010810810810810811 36:0.0035026269702276708 37:0.0 38:0.0 39:0.6666666666666666 40:0.0 41:0.6666666666666666 42:0.0 43:0.0057940479325783514 44:0.028 45:0.0 46:0.08333333333333333 47:0.0 48:1.0 49:0.023559822747415065 50:1.0 51:0.02834467120181406 52:0.10826744875694441 53:0.7497649576923845 54:0.022138884781095235 55:2.4010325915180657E-4 56:0.041623916783735594 57:0.5953511982687222 58:0.457675598057478 59:0.19129403990232133 60:0.18921919789494274 61:0.0012215660782798688 62:0.014735337387006303 
0.0 8.0 0.0 0.0 0:0.0 1:0.0 2:1.0 3:0.0 4:0.0 5:0.0 6:0.0 7:0.0 8:0.0 9:0.0 10:1.0 11:0.0 12:0.0 13:0.0 14:0.0 15:0.0 16:0.0 17:0.0 18:0.0 19:0.0 20:0.0 21:0.0 22:0.0 23:0.0 24:0.0 25:0.0 26:0.03792415169660678 27:0.0 28:0.0 29:0.0 30:0.0 31:1.0 32:0.0 33:2.0589521004029767E-15 34:0.0 35:0.010810810810810811 36:0.0035026269702276708 37:0.0 38:0.0 39:0.6666666666666666 40:0.0 41:0.6666666666666666 42:0.0 43:0.0057940479325783514 44:0.028 45:0.0 46:0.08333333333333333 47:0.0 48:1.0 49:0.021813060355192194 50:1.0 51:0.02834467120181406 52:0.10826744875694441 53:0.7497649576923845 54:0.022138884781095235 55:2.4456479108143616E-4 56:0.03778176319583611 57:0.5897022807626886 58:0.39197208083348056 59:0.16559319145729087 60:0.21233510372588854 61:0.001088580029641165 62:0.014735337387006303 
0.0 8.0 0.0 0.0 0:0.0 1:0.0 2:1.0 3:0.0 4:0.0 5:0.0 6:0.0 7:0.0 8:0.0 9:0.0 10:1.0 11:0.0 12:0.0 13:0.0 14:0.0 15:0.0 16:0.0 17:0.0 18:0.0 19:0.0 20:0.0 21:0.0 22:1.0 23:0.0 24:0.0 25:0.0 26:0.041916167664670656 27:0.0 28:0.0 29:1.0 30:0.0 31:1.0 32:0.0 33:2.0589521004029767E-15 34:0.0 35:0.005405405405405406 36:0.0017513134851138354 37:0.0 38:0.0 39:1.0 40:0.0 41:1.0 42:0.0 43:0.0023702923360547803 44:0.036000000000000004 45:0.0 46:0.1 47:0.0 48:1.0 49:0.02236758809875501 50:1.0 51:0.02834467120181406 52:0.10826744875694441 53:0.7497649576923845 54:0.022138884781095235 55:4.006273569461377E-6 56:0.0017300357802838458 57:0.5955595928290899 58:0.2702989007890409 59:0.11337457144325233 60:0.0759618622648032 61:0.003042892138452583 62:0.014735337387006303 
0.0 8.0 0.0 0.0 0:0.0 1:0.0 2:1.0 3:0.0 4:0.0 5:0.0 6:0.0 7:0.0 8:0.0 9:0.0 10:1.0 11:0.0 12:0.0 13:0.0 14:0.0 15:0.0 16:0.0 17:0.0 18:0.0 19:0.0 20:0.0 21:0.0 22:0.0 23:0.0 24:0.0 25:0.0 26:0.04391217564870259 27:0.0 28:0.0 29:0.0 30:0.0 31:1.0 32:0.0 33:2.0589521004029767E-15 34:0.0 35:0.010810810810810811 36:0.0035026269702276708 37:0.0 38:0.0 39:0.6666666666666666 40:0.0 41:0.3333333333333333 42:0.0 43:0.005530682117461154 44:0.02666666666666667 45:0.0 46:0.08695652173913043 47:0.0 48:1.0 49:0.021283738418154962 50:1.0 51:0.02834467120181406 52:0.14679156169571392 53:0.6789522113980516 54:0.022138884781095235 55:2.4196981842848902E-4 56:0.04234891040197599 57:0.591519053853073 58:0.36497222278552394 59:0.15377986319247047 60:0.18742565807305725 61:0.0012332556592528506 62:0.014735337387006303 
0.0 8.0 0.0 0.0 0:0.0 1:0.0 2:1.0 3:0.0 4:0.0 5:0.0 6:0.0 7:0.0 8:0.0 9:0.0 10:1.0 11:0.0 12:0.0 13:0.0 14:0.0 15:0.0 16:0.0 17:0.0 18:0.0 19:0.0 20:0.0 21:0.0 22:0.0 23:0.0 24:0.0 25:0.0 26:0.04790419161676646 27:0.0 28:0.0 29:1.0 30:0.0 31:1.0 32:0.0 33:2.0589521004029767E-15 34:0.0 35:0.010810810810810811 36:0.0035026269702276708 37:0.0 38:0.0 39:1.0 40:0.0 41:1.0 42:0.0 43:0.004740584672109561 44:0.036000000000000004 45:0.0 46:0.1 47:0.0 48:1.0 49:0.01896120338829771 50:1.0 51:0.02834467120181406 52:0.14679156169571392 53:0.6789522113980516 54:0.022138884781095235 55:1.2678945330636587E-4 56:0.025563357657533328 57:0.5977174561614436 58:0.09265605792415897 59:0.03940290694013445 60:0.1626954170652103 61:0.001420714594653532 62:0.014735337387006303 
0.0 8.0 0.0 0.0 0:0.0 1:0.0 2:1.0 3:0.0 4:0.0 5:0.0 6:0.0 7:0.0 8:0.0 9:0.0 10:1.0 11:0.0 12:0.0 13:0.0 14:0.0 15:0.0 16:0.0 17:0.0 18:0.0 19:0.0 20:0.0 21:0.0 22:0.0 23:0.0 24:0.0 25:0.0 26:0.05389221556886227 27:0.0 28:0.0 29:1.0 30:0.0 31:1.0 32:0.0 33:2.0589521004029767E-15 34:0.0 35:0.010810810810810811 36:0.0035026269702276708 37:0.0 38:0.0 39:1.0 40:0.0 41:1.0 42:0.0 43:0.0034237555965235715 44:0.026 45:0.0 46:0.13333333333333333 47:0.0 48:1.0 49:0.021283738418154962 50:1.0 51:0.02834467120181406 52:0.10826744875694441 53:0.7497643319905881 54:0.022138884781095235 55:1.261065657661202E-4 56:0.0323802398709473 57:0.591519053853073 58:0.15638962842362736 59:0.06653639405113701 60:0.12775200466529424 61:0.0018093160581970995 62:0.014735337387006303 
0.0 8.0 0.0 0.0 0:0.0 1:0.0 2:1.0 3:0.0 4:0.0 5:0.0 6:0.0 7:0.0 8:0.0 9:0.0 10:1.0 11:0.0 12:0.0 13:0.0 14:0.0 15:0.0 16:0.0 17:0.0 18:0.0 19:0.0 20:0.0 21:0.0 22:1.0 23:0.0 24:0.0 25:0.0 26:0.0558882235528942 27:0.0 28:0.0 29:1.0 30:0.0 31:1.0 32:0.0 33:2.0589521004029767E-15 34:0.0 35:0.005405405405405406 36:0.0017513134851138354 37:0.0 38:0.0 39:1.0 40:0.0 41:1.0 42:0.0 43:0.004213853041875165 44:0.064 45:0.0 46:0.058823529411764705 47:0.0 48:1.0 49:0.02236758809875501 50:1.0 51:0.02834467120181406 52:0.14679156169571392 53:0.6789522113980516 54:0.022138884781095235 55:8.285702155031715E-6 56:0.0020490880432339036 57:0.571855156874794 58:0.3785300914190472 59:0.1650631968412571 60:0.13264130472928523 61:0.0017426227371597507 62:0.014735337387006303 
0.0 0.0 2.48483316012452 0.0 0:0.0 1:0.0 2:1.0 3:0.0 4:0.0 5:0.0 6:0.0 7:0.0 8:0.0 9:0.0 10:1.0 11:0.0 12:1.0 13:0.0 14:0.0 15:0.0 16:0.0 17:0.0 18:0.041666666666666664 19:0.0 20:0.0 21:0.014756944444444444 22:0.0 23:0.0 24:0.0 25:0.0 26:0.0558882235528942 27:0.004 28:0.0 29:0.0 30:0.00539568345323741 31:1.0 32:0.030316461116820848 33:0.014246104754788488 34:0.017699115044247787 35:0.0972972972972973 36:0.04553415061295972 37:0.056147392609237276 38:0.020477815699658702 39:0.4090909090909091 40:0.0034129692832764505 41:0.6136363636363636 42:0.05802047781569966 43:0.06320779562812748 44:0.02263636363636364 45:9.830971406843877E-5 46:0.08873720136518772 47:0.023809523809523808 48:1.0 49:0.09390166701835828 50:1.0 51:0.026077097505668917 52:0.1082688090716668 53:0.9999999999999998 54:0.014753164062694748 55:0.01888980477765787 56:0.23647558099538138 57:0.5353059570564714 58:0.6185082288730456 59:0.26882662219990444 60:0.5874914411114869 61:0.0017233577641154886 62:0.015144606332152217 
0.0 0.0 2.3107970761350902 0.0 0:0.0 1:0.0 2:1.0 3:0.0 4:0.0 5:0.0 6:0.0 7:0.0 8:0.0 9:1.0 10:1.0 11:0.0 12:0.0 13:0.0 14:0.0 15:0.0 16:0.0 17:0.0 18:0.0 19:0.0 20:0.0 21:0.0 22:0.0 23:0.0 24:0.0 25:0.0 26:0.057884231536926144 27:0.0 28:0.0 29:0.0 30:0.0 31:1.0 32:0.0 33:2.0589521004029767E-15 34:0.0 35:0.010810810810810811 36:0.0035026269702276708 37:0.0 38:0.0 39:0.6666666666666666 40:0.0 41:1.0 42:0.0 43:0.008164340268633132 44:0.039999999999999994 45:0.0 46:0.06060606060606061 47:0.0 48:1.0 49:0.02236758809875501 50:1.0 51:0.0331632653061225 52:0.10826744875694441 53:0.7609469704546816 54:0.024647869772047918 55:3.008420085317736E-4 56:0.02452432024037956 57:0.5935344251783378 58:0.258516881188071 59:0.10851901894932771 60:0.3439265679099735 61:7.863253869788332E-4 62:0.014735337387006303 
0.24111990444103235 0.0 0.0 0.0 0:0.0 1:0.0 2:1.0 3:0.0 4:1.0 5:0.0 6:0.0 7:0.0 8:0.0 9:0.0 10:1.0 11:0.0 12:0.0 13:0.0 14:0.0 15:0.0 16:0.0 17:0.0 18:0.0 19:0.0 20:0.0 21:0.0 22:0.0 23:0.0 24:0.0 25:0.0 26:0.05988023952095808 27:0.004 28:0.0 29:0.5 30:0.0017985611510791368 31:1.0 32:0.0 33:2.0589521004029767E-15 34:0.004424778761061947 35:0.032432432432432434 36:0.010507880910683012 37:0.0 38:0.017857142857142856 39:0.5 40:0.011904761904761904 41:0.8333333333333334 42:0.0 43:0.020015801948907033 44:0.024 45:0.7235124778535996 46:0.07142857142857142 47:0.021052631578947368 48:1.0 49:0.0473754368267464 50:1.0 51:0.026077097505668934 52:0.10826744875694441 53:0.9999999999999998 54:0.014754825642158916 55:0.020604682439675306 56:0.5455075180953393 57:0.5228022834344136 58:0.09322869439849508 59:0.04503189071932781 60:0.34004678734606125 61:8.148908884618493E-4 62:0.008452200185833503 
0.0 4.26759903026028 0.0 0.0 0:0.0 1:1.0 2:1.0 3:0.0 4:0.0 5:0.0 6:0.0 7:0.0 8:0.0 9:0.0 10:1.0 11:0.0 12:0.0 13:0.0 14:0.0 15:0.0 16:0.0 17:0.0 18:0.0 19:0.0 20:0.0 21:0.0 22:0.0 23:0.0 24:0.0 25:0.0 26:0.07584830339321356 27:0.016 28:0.0 29:0.0 30:0.010791366906474822 31:0.0 32:0.0 33:2.001758986502894E-15 34:0.0 35:0.032432432432432434 36:0.03502626970227671 37:1.5496683507707638E-16 38:0.0 39:0.8571428571428571 40:0.13793103448275862 41:0.7142857142857143 42:0.0 43:0.0013168290755859891 44:0.012571428571428574 45:0.035979218181313055 46:0.6896551724137931 47:0.11428571428571428 48:1.0 49:0.29062038404726737 50:1.0 51:0.026077097505668945 52:0.10826744875694441 53:0.4622143759905309 54:0.024049701164933344 55:0.0041682526729789025 56:0.3519096250118765 57:0.1301664484757808 58:0.12185086151371088 59:0.1549517092736458 60:0.03910053348582794 61:0.04137912320910285 62:0.013174809749610359 
0.0 2.4809363940451363 0.0 0.0 0:0.0 1:1.0 2:1.0 3:0.0 4:0.0 5:0.0 6:0.0 7:0.0 8:0.0 9:0.0 10:1.0 11:0.0 12:1.0 13:0.0 14:0.0 15:0.0 16:0.0 17:0.0 18:0.0 19:0.0 20:0.0 21:0.0 22:0.0 23:0.0 24:0.0 25:0.0 26:0.07584830339321356 27:0.0 28:0.0 29:1.0 30:0.0035971223021582736 31:0.0 32:0.0 33:2.1161452143030595E-15 34:0.0 35:0.016216216216216217 36:0.01576182136602452 37:1.549668350770763E-16 38:0.0 39:1.0 40:0.0 41:0.3333333333333333 42:0.0 43:5.267316302343956E-4 44:0.012 45:0.027588697802350442 46:0.75 47:0.07142857142857142 48:1.0 49:0.12370753323485965 50:1.0 51:0.026077097505668896 52:0.10826744875694441 53:0.4622143759905309 54:0.030905378034251745 55:0.0014327690797481325 56:0.3202110622503414 57:0.18295973710224692 58:0.23645540919366406 59:0.28658709024210394 60:0.03618689351983557 61:0.01820497302208459 62:0.012352087168603029 
0.0 0.9536342424464691 0.0 0.0 0:0.0 1:1.0 2:1.0 3:0.0 4:0.0 5:0.0 6:0.0 7:0.0 8:0.0 9:0.0 10:1.0 11:0.0 12:1.0 13:0.0 14:0.0 15:0.0 16:1.0 17:0.0 18:0.0 19:0.0 20:0.0 21:0.0 22:0.0 23:0.0 24:0.0 25:0.0 26:0.07584830339321356 27:0.0 28:0.0 29:0.0 30:0.01798561151079137 31:0.0 32:0.002312435765673203 33:7.902865834237776E-4 34:0.004424778761061947 35:0.1783783783783784 36:0.07180385288966726 37:0.0021534640068321376 38:0.004464285714285714 39:0.7674418604651163 40:0.0 41:0.8372093023255814 42:0.0 43:0.07558598893863577 44:0.027255813953488372 45:0.48339100124169443 46:0.12202380952380952 47:0.013227513227513227 48:1.0 49:0.45753323485967495 50:1.0 51:0.02607709750566893 52:0.2047409688705579 53:0.63740044536281 54:0.024049701164933344 55:0.11183670234080281 56:0.6205907467654183 57:0.07726629084399797 58:0.12185086151371088 59:0.1549517092736458 60:0.23196086333466853 61:0.006906260882622037 62:0.0138109641433923 
0.0 8.0 0.0 0.0 0:0.0 1:0.0 2:1.0 3:0.0 4:0.0 5:0.0 6:0.0 7:0.0 8:0.0 9:0.0 10:1.0 11:0.0 12:0.0 13:0.0 14:0.0 15:0.0 16:0.0 17:1.0 18:0.0 19:0.0 20:0.0 21:0.0 22:1.0 23:0.0 24:0.0 25:0.0 26:0.011976047904191616 27:0.0 28:0.0 29:1.0 30:0.0 31:1.0 32:0.0 33:2.0589521004029767E-15 34:0.0 35:0.005405405405405406 36:0.0017513134851138354 37:0.0 38:0.0 39:1.0 40:0.0 41:1.0 42:0.0 43:0.0023702923360547803 44:0.036000000000000004 45:0.0 46:0.1 47:0.0 48:1.0 49:0.021283738418154962 50:1.0 51:0.042517006802721094 52:0.06974333581817488 53:0.4045780707776513 54:6.147844017567238E-5 55:0.0 56:0.0 57:0.6069562816710751 58:0.06799889142213736 59:0.028351681715080256 60:0.1298681128481517 61:0.0026697518171152506 62:0.014735337387006303 
0.0 8.0 0.0 0.0 0:0.0 1:0.0 2:1.0 3:0.0 4:0.0 5:0.0 6:0.0 7:1.0 8:0.0 9:0.0 10:1.0 11:0.0 12:0.0 13:0.0 14:0.0 15:0.0 16:0.0 17:0.0 18:0.0 19:0.0 20:0.0 21:8.680555555555555E-4 22:1.0 23:0.0 24:0.0 25:0.0 26:0.011976047904191616 27:0.0 28:1.0 29:1.0 30:0.0 31:0.0 32:0.0 33:2.0589521004029767E-15 34:0.0 35:0.0 36:0.0 37:0.0 38:0.0 39:0.0 40:0.0 41:0.0 42:1.0 43:0.0 44:0.0 45:0.0 46:0.0 47:0.0 48:1.0 49:0.021283738418154962 50:1.0 51:0.02721088435374149 52:0.18809071666820837 53:0.5955089200906585 54:6.147844017567238E-5 55:0.0 56:0.0 57:0.6127272079581787 58:0.06403002816830683 59:0.02674700587284448 60:0.009565047926042243 61:0.023198838634496146 62:0.014735337387006303 
0.0 0.42894320203445124 0.0 0.0 0:0.0 1:0.0 2:1.0 3:0.0 4:0.0 5:0.0 6:0.0 7:0.0 8:0.0 9:0.0 10:1.0 11:0.0 12:0.0 13:0.0 14:0.0 15:0.0 16:0.0 17:0.0 18:0.0 19:0.0 20:0.0 21:8.680555555555555E-4 22:0.0 23:0.0 24:0.0 25:0.0 26:0.003992015968063872 27:0.0 28:1.0 29:0.0 30:0.0 31:1.0 32:0.0 33:2.0589521004029767E-15 34:0.0 35:0.010810810810810811 36:0.0035026269702276708 37:0.0 38:0.0 39:0.4 40:0.0 41:0.8 42:0.02127659574468085 43:0.011588095865156703 44:0.033600000000000005 45:0.0 46:0.0425531914893617 47:0.0 48:1.0 49:0.01983091863352085 50:1.0 51:0.026077097505668917 52:0.050350689135438366 53:0.9999999999999998 54:0.022132238463238422 55:4.7018719231307524E-4 56:0.040453908274204996 57:0.6560207325870315 58:0.21467880694618663 59:0.08157458388871132 60:0.4144122348984618 61:5.131418315370634E-4 62:0.014735337387006303 
0.0 2.8199981158905896 0.0 0.0 0:0.0 1:0.0 2:1.0 3:0.0 4:0.0 5:0.0 6:0.0 7:0.0 8:0.0 9:0.0 10:1.0 11:0.0 12:0.0 13:0.0 14:0.0 15:0.0 16:0.0 17:0.0 18:0.0 19:0.0 20:0.0 21:8.680555555555555E-4 22:0.0 23:0.0 24:0.0 25:0.0 26:0.007984031936127744 27:0.0 28:1.0 29:0.0 30:0.0 31:1.0 32:0.0 33:2.0589521004029767E-15 34:0.0 35:0.010810810810810811 36:0.0035026269702276708 37:0.0 38:0.0 39:0.5 40:0.0 41:0.75 42:0.041666666666666664 43:0.005530682117461154 44:0.02 45:0.0 46:0.08333333333333333 47:0.0 48:1.0 49:0.01983091863352085 50:1.0 51:0.02607709750566885 52:0.050350689135438366 53:0.9999999999999998 54:0.02213223846323847 55:3.694567275426253E-4 56:0.06436853742365227 57:0.6560207325870315 58:0.571171567874804 59:0.2164312656762216 60:0.20465021120014093 61:0.0010391010689903332 62:0.014735337387006303 
0.0 0.47507363001629216 0.0 0.0 0:0.0 1:0.0 2:1.0 3:0.0 4:1.0 5:0.0 6:0.0 7:0.0 8:0.0 9:0.0 10:1.0 11:0.0 12:1.0 13:0.0 14:0.0 15:0.0 16:1.0 17:1.0 18:0.007407407407407407 19:0.0 20:0.0 21:0.014756944444444444 22:0.0 23:0.0 24:0.125 25:0.00273224043715847 26:0.01397205588822355 27:0.04 28:0.0 29:0.0 30:0.025179856115107917 31:1.0 32:0.0 33:2.001758986502894E-15 34:0.035398230088495575 35:0.23783783783783785 36:0.0840630472854641 37:2.4812548144330255E-16 38:0.01092896174863388 39:0.2634730538922156 40:0.009107468123861567 41:0.6347305389221557 42:0.015482695810564663 43:0.26020542533579144 44:0.02229940119760479 45:0.7422062837004632 46:0.04371584699453552 47:0.01819620253164557 48:1.0 49:0.318143247745058 50:1.0 51:0.02607709750566896 52:0.050350689135438366 53:0.9999999999999998 54:0.022531017534647996 55:0.13106070207528425 56:0.3545930357223276 57:0.46818331596712 58:0.524819880238827 59:0.2009116262839746 60:0.6426980454000034 61:0.00610317266084827 62:0.01398979696810017 
0.3425172899937653 0.0 0.0 0.0 0:0.0 1:0.0 2:1.0 3:0.0 4:0.0 5:0.0 6:0.0 7:0.0 8:1.0 9:0.0 10:1.0 11:0.0 12:0.0 13:0.0 14:0.0 15:0.0 16:0.0 17:0.0 18:0.0 19:0.0 20:0.0 21:8.680555555555555E-4 22:0.0 23:0.0 24:0.0 25:0.0 26:0.02395209580838323 27:0.0 28:1.0 29:1.0 30:0.0 31:1.0 32:0.0 33:2.0589521004029767E-15 34:0.0 35:0.005405405405405406 36:0.0017513134851138354 37:0.0 38:0.0 39:0.5 40:0.0 41:0.5 42:0.16666666666666666 43:0.0010534632604687912 44:0.008 45:0.0 46:0.16666666666666666 47:0.0 48:1.0 49:0.01983091863352085 50:1.0 51:0.026077097505668983 52:0.050350689135438366 53:0.9999999999999998 54:0.022331627998943233 55:1.252743534837335E-4 56:0.08725458735669071 57:0.6495631729407679 58:0.3086858234329025 59:0.11835016284447993 60:0.05119130021183481 61:0.0041540701710483675 62:0.014735337387006303 
0.0 8.0 0.0 0.0 0:0.0 1:0.0 2:1.0 3:0.0 4:0.0 5:0.0 6:0.0 7:0.0 8:0.0 9:0.0 10:1.0 11:0.0 12:0.0 13:0.0 14:0.0 15:0.0 16:0.0 17:0.0 18:0.0 19:0.0 20:0.0 21:0.0 22:0.0 23:0.0 24:0.0 25:0.0 26:0.00998003992015968 27:0.0 28:0.0 29:0.0 30:0.0017985611510791368 31:1.0 32:0.004809009934909176 33:0.004519634335654285 34:0.0 35:0.010810810810810811 36:0.005253940455341506 37:0.0096120421295866 38:0.0 39:0.2857142857142857 40:0.0 41:0.14285714285714285 42:0.0 43:0.01790887542796945 44:0.040571428571428564 45:0.004537207021023298 46:0.038461538461538464 47:0.0 48:1.0 49:0.042065377946182 50:1.0 51:0.024801587301587304 52:0.1490129556374163 53:0.9999999999999998 54:0.004109086014984122 55:0.002067271306221 56:0.13019048875101374 57:0.5189318442918593 58:0.06572089910686091 59:0.03270441774245335 60:0.26271326286110663 61:0.0017018727637557424 62:0.01492061579677932 
0.0 8.0 0.0 0.0 0:0.0 1:0.0 2:1.0 3:0.0 4:0.0 5:0.0 6:0.0 7:0.0 8:0.0 9:0.0 10:1.0 11:0.0 12:0.0 13:0.0 14:0.0 15:0.0 16:0.0 17:0.0 18:0.037037037037037035 19:0.0 20:0.0 21:0.00954861111111111 22:0.0 23:0.0 24:0.0 25:0.0 26:0.00998003992015968 27:0.032 28:0.0 29:0.0 30:0.0035971223021582736 31:0.0 32:8.564576909880692E-6 33:1.073228693737199E-5 34:0.0 35:0.07567567567567568 36:0.024518388791593695 37:3.232641940829429E-5 38:0.0 39:0.4375 40:0.03404255319148936 41:0.59375 42:0.04680851063829787 43:0.05003950487226758 44:0.025375 45:0.10753159268148293 46:0.059574468085106386 47:0.041353383458646614 48:1.0 49:0.06383661935649604 50:1.0 51:0.020094797178130463 52:0.04651460161823039 53:0.8401766432249844 54:0.017079375312584643 55:0.009161116467832724 56:0.24130505040243605 57:0.5132161336575027 58:0.5496730757531424 59:0.2585028468462859 60:0.46965754241238816 61:0.0011536995029657006 62:0.01630819290247998 
0.0 8.0 0.0 0.0 0:0.0 1:0.0 2:1.0 3:0.0 4:0.0 5:0.0 6:0.0 7:0.0 8:1.0 9:0.0 10:1.0 11:0.0 12:0.0 13:0.0 14:0.0 15:0.0 16:0.0 17:0.0 18:0.0 19:0.0 20:0.0 21:0.001736111111111111 22:0.0 23:0.0 24:0.0 25:0.0 26:0.011976047904191616 27:0.0 28:1.0 29:1.0 30:0.0017985611510791368 31:0.0 32:5.738266529633451E-4 33:5.392974185037553E-4 34:0.0 35:0.0 36:0.0 37:0.0023389507763769933 38:0.0 39:0.0 40:0.0 41:0.0 42:1.0 43:0.0 44:0.0 45:5.727609428329027E-4 46:0.0 47:0.0 48:1.0 49:0.041138942141487785 50:1.0 51:0.020077475434618294 52:0.050198333886527995 53:0.23480362370877755 54:0.016537700407253133 55:6.540209734066628E-5 56:0.19906803667603393 57:0.5221227746756081 58:0.559329677343971 59:0.2630083446514633 60:0.006092957929469529 61:0.059083645946697336 62:0.014735337387006303 
8.0 1.8072602812237522 8.0 0.0 0:0.0 1:0.0 2:1.0 3:0.0 4:0.0 5:0.0 6:0.0 7:0.0 8:0.0 9:0.0 10:1.0 11:0.0 12:0.0 13:0.0 14:0.0 15:0.0 16:0.0 17:1.0 18:0.0 19:0.0 20:0.0 21:0.0 22:0.0 23:1.0 24:0.0 25:0.0 26:0.01397205588822355 27:0.0 28:0.0 29:0.0 30:0.0035971223021582736 31:1.0 32:0.2500535286056869 33:0.16954598593303988 34:0.0 35:0.02702702702702703 36:0.012259194395796848 37:0.47848091986596425 38:0.0 39:0.3125 40:0.0 41:0.4375 42:0.0 43:0.030813800368712143 44:0.029 45:0.24962759852877378 46:0.05303030303030303 47:0.006802721088435374 48:1.0 49:0.06111521418020679 50:1.0 51:0.024801587301587304 52:0.0716817842976151 53:0.9999999999999998 54:0.013528579997574088 55:0.016522084654375505 56:0.40910080675994215 57:0.5073543687158799 58:0.13396313688908715 59:0.06454432018186165 60:0.30956955293170085 61:0.0016142128662127897 62:0.011222986972152542 
0.0 8.0 0.0 0.0 0:0.0 1:0.0 2:1.0 3:0.0 4:0.0 5:0.0 6:0.0 7:0.0 8:1.0 9:0.0 10:1.0 11:0.0 12:0.0 13:0.0 14:0.0 15:0.0 16:0.0 17:0.0 18:0.0 19:0.0 20:0.0 21:0.001736111111111111 22:0.0 23:0.0 24:0.0 25:0.0 26:0.01397205588822355 27:0.0 28:1.0 29:1.0 30:0.0017985611510791368 31:0.0 32:0.001049160671462834 33:9.860288621879835E-4 34:0.0 35:0.0 36:0.0 37:0.0056460800927739 38:0.0 39:0.0 40:0.0 41:0.0 42:1.0 43:0.0 44:0.0 45:0.001047212171597473 46:0.0 47:0.0 48:1.0 49:0.040251107828655826 50:1.0 51:0.020077475434618294 52:0.026668970132929952 53:0.18597585155406052 54:0.01664570307242659 55:8.21940895015036E-5 56:0.2380137117982378 57:0.5221218841005639 58:0.5386481337168936 59:0.25335892000211485 60:0.006092957929469529 61:0.05621632185751956 62:0.014735337387006303 
0.0 8.0 0.0 0.0 0:0.0 1:0.0 2:1.0 3:0.0 4:0.0 5:0.0 6:0.0 7:0.0 8:0.0 9:1.0 10:1.0 11:0.0 12:0.0 13:1.0 14:0.0 15:0.0 16:0.0 17:0.0 18:0.0 19:0.0 20:0.0 21:0.0 22:1.0 23:0.0 24:0.0 25:0.0 26:0.02594810379241517 27:0.0 28:0.0 29:1.0 30:0.0 31:0.0 32:0.0 33:2.0589521004029767E-15 34:0.0 35:0.005405405405405406 36:0.0017513134851138354 37:0.0 38:0.0 39:1.0 40:0.0 41:0.0 42:0.0 43:0.004477218856992362 44:0.068 45:0.0 46:0.05555555555555555 47:0.0 48:1.0 49:0.01938700147710487 50:1.0 51:0.02362055933484505 52:0.05344948607309787 53:0.9999999999999998 54:0.004984738392621258 55:0.0 56:0.0 57:0.5309546073899918 58:0.05220648518049635 59:0.026398973564107545 60:0.12717705642930263 61:0.0015145797520239022 62:0.014735337387006303 
0.0 8.0 0.0 0.0 0:0.0 1:0.0 2:1.0 3:0.0 4:0.0 5:0.0 6:0.0 7:0.0 8:1.0 9:0.0 10:1.0 11:0.0 12:0.0 13:0.0 14:0.0 15:0.0 16:0.0 17:0.0 18:0.0 19:0.0 20:0.0 21:0.0 22:1.0 23:0.0 24:0.0 25:0.0 26:0.02594810379241517 27:0.0 28:0.0 29:0.0 30:0.0 31:0.0 32:0.0 33:2.0589521004029767E-15 34:0.0 35:0.0 36:0.0017513134851138354 37:0.0 38:0.0 39:0.0 40:0.0 41:0.0 42:0.0 43:0.0026336581511719782 44:0.048 45:0.0 46:0.07692307692307693 47:0.0 48:1.0 49:0.01938700147710487 50:1.0 51:0.02362055933484505 52:0.05326584358557195 53:0.9999999999999998 54:0.004984738392621258 55:0.0 56:0.0 57:0.5309546073899918 58:0.2876093248007601 59:0.13623129576003953 60:0.09171992404709794 61:0.0021000867215166166 62:0.014735337387006303 
8.0 0.0 8.0 0.0 0:0.0 1:0.0 2:1.0 3:0.0 4:0.0 5:0.0 6:0.0 7:0.0 8:0.0 9:0.0 10:1.0 11:0.0 12:0.0 13:0.0 14:0.0 15:0.0 16:0.0 17:1.0 18:0.1111111111111111 19:0.0 20:0.0 21:0.021701388888888888 22:0.0 23:0.0 24:0.0 25:0.0 26:0.02594810379241517 27:0.004 28:0.0 29:0.0 30:0.0035971223021582736 31:1.0 32:0.0017921377183967033 33:0.002162555817476501 34:0.022123893805309734 35:0.06486486486486487 36:0.0297723292469352 37:0.008321321901714281 38:0.03658536585365854 39:0.46153846153846156 40:0.004878048780487805 41:0.4230769230769231 42:0.12195121951219512 43:0.03871477482222808 44:0.027538461538461543 45:0.12884984046043135 46:0.08292682926829269 47:0.04782608695652174 48:1.0 49:0.06111521418020679 50:1.0 51:0.024801587301587304 52:0.02569226416223657 53:0.9999999999999998 54:0.012043127956572943 55:0.011198701226202906 56:0.22553527071200657 57:0.5073543687158799 58:0.3042650312246212 59:0.14400237837440952 60:0.5045616293485438 61:0.001312931665792917 62:0.013893168508586034 
0.0 8.0 0.0 0.0 0:0.0 1:0.0 2:1.0 3:0.0 4:0.0 5:0.0 6:0.0 7:0.0 8:0.0 9:0.0 10:1.0 11:0.0 12:0.0 13:0.0 14:0.0 15:0.0 16:0.0 17:0.0 18:0.0 19:0.0 20:0.0 21:0.001736111111111111 22:0.0 23:0.0 24:0.0 25:0.0 26:0.02594810379241517 27:0.012 28:1.0 29:0.0 30:0.0 31:0.0 32:0.0 33:2.0589521004029767E-15 34:0.0 35:0.016216216216216217 36:0.010507880910683012 37:0.0 38:0.0 39:0.375 40:0.06521739130434782 41:0.5 42:0.043478260869565216 43:0.008164340268633132 44:0.019 45:0.0 46:0.13043478260869565 47:0.09433962264150944 48:1.0 49:0.01938700147710487 50:1.0 51:0.020077475434618294 52:0.026085395117014264 53:0.9999999999999998 54:0.004848488876556287 55:6.126051339891976E-4 56:0.09911564448386495 57:0.5322904699564509 58:0.359354977640139 59:0.1697057928031662 60:0.286227152341122 61:5.720170992241223E-4 62:0.014735337387006303 
0.0 1.6306056810231613 0.0 0.0 0:0.0 1:1.0 2:1.0 3:0.0 4:1.0 5:0.0 6:0.0 7:0.0 8:0.0 9:0.0 10:1.0 11:0.0 12:0.0 13:0.0 14:0.0 15:0.0 16:0.0 17:0.0 18:0.0 19:0.0 20:0.0 21:0.017361111111111112 22:0.0 23:0.0 24:0.0 25:0.0 26:0.049900199600798396 27:0.012 28:0.0 29:0.0 30:0.0035971223021582736 31:0.0 32:0.0 33:2.0589521004029767E-15 34:0.004424778761061947 35:0.05945945945945946 36:0.024518388791593695 37:0.0 38:0.00847457627118644 39:0.3333333333333333 40:0.01694915254237288 41:0.5454545454545454 42:0.11299435028248588 43:0.03371082433500132 44:0.017454545454545455 45:0.5962826105075987 46:0.07909604519774012 47:0.023923444976076555 48:1.0 49:0.05630042040677195 50:1.0 51:0.020077475434618294 52:0.03536954309749104 53:0.9999999999999998 54:0.01936072391694104 55:0.015401042772612426 56:0.421048615411066 57:0.5149251471675262 58:0.5201016647015482 59:0.2449132952075697 60:0.35830176718180534 61:0.0010116388548762681 62:0.010083625762498641 
0.0 7.3627858983685375 0.0 0.0 0:0.0 1:0.0 2:1.0 3:0.0 4:0.0 5:0.0 6:0.0 7:0.0 8:1.0 9:0.0 10:1.0 11:0.0 12:0.0 13:0.0 14:0.0 15:0.0 16:0.0 17:0.0 18:0.0 19:0.0 20:0.0 21:0.0 22:0.0 23:1.0 24:0.0 25:0.0 26:0.001996007984031936 27:0.0 28:0.0 29:0.0 30:0.010791366906474822 31:0.0 32:0.06539054470709148 33:0.04591502328523165 34:0.004424778761061947 35:0.043243243243243246 36:0.017513134851138354 37:0.1915390573429742 38:0.01764705882352941 39:0.5714285714285714 40:0.0 41:0.7142857142857143 42:0.0 43:0.018698972873321045 44:0.020285714285714285 45:1.2823006182826634E-4 46:0.11764705882352941 47:0.04081632653061224 48:1.0 49:0.1283440013129821 50:1.0 51:0.018849206349206338 52:0.035381785929992755 53:0.31036294127374775 54:0.01410016333326134 55:0.005645016979786256 56:0.3683808103879958 57:0.4630981324641322 58:0.3261922764569156 59:0.15918867138163198 60:0.07150094663787018 61:0.014808465003535411 62:0.01189551524565035 
0.0 8.0 0.0 0.0 0:0.0 1:0.0 2:1.0 3:0.0 4:0.0 5:0.0 6:0.0 7:1.0 8:0.0 9:0.0 10:1.0 11:0.0 12:0.0 13:0.0 14:0.0 15:0.0 16:0.0 17:0.0 18:0.0 19:0.0 20:0.0 21:8.680555555555555E-4 22:1.0 23:0.0 24:0.0 25:0.0 26:0.003992015968063872 27:0.0 28:1.0 29:1.0 30:0.0 31:1.0 32:0.0 33:2.0589521004029767E-15 34:0.0 35:0.0 36:0.0 37:0.0 38:0.0 39:0.0 40:0.0 41:0.0 42:1.0 43:0.0 44:0.0 45:0.0 46:0.0 47:0.0 48:1.0 49:0.01896120338829771 50:1.0 51:0.02834467120181406 52:0.127611124109674 53:0.34459504541858493 54:0.017144176911688732 55:0.0 56:0.0 57:0.5135492087240732 58:0.2722244271462521 59:0.13310266615312644 60:0.009963778261132523 61:0.023198404003976186 62:0.014735337387006303 
0.0 8.0 0.0 0.0 0:0.0 1:0.0 2:1.0 3:0.0 4:0.0 5:0.0 6:0.0 7:0.0 8:0.0 9:0.0 10:1.0 11:0.0 12:0.0 13:0.0 14:0.0 15:0.0 16:0.0 17:0.0 18:0.0 19:0.0 20:0.0 21:0.0 22:0.0 23:0.0 24:0.0 25:0.0 26:0.003992015968063872 27:0.0 28:0.0 29:1.0 30:0.0 31:1.0 32:0.0 33:2.0589521004029767E-15 34:0.0 35:0.010810810810810811 36:0.0035026269702276708 37:0.0 38:0.0 39:1.0 40:0.0 41:0.5 42:0.0 43:0.004477218856992362 44:0.034 45:0.0 46:0.10526315789473684 47:0.0 48:1.0 49:0.01896120338829771 50:1.0 51:0.02834467120181406 52:0.1507228712434909 53:0.6799919933659317 54:0.017144176911688732 55:1.5096367223120844E-4 56:0.026600352960051442 57:0.5135492087240732 58:0.2722244271462521 59:0.13310266615312644 60:0.1861637586979587 61:0.001241615205475125 62:0.014735337387006303 
0.0 8.0 0.0 0.0 0:0.0 1:0.0 2:1.0 3:0.0 4:0.0 5:0.0 6:0.0 7:0.0 8:0.0 9:0.0 10:1.0 11:0.0 12:0.0 13:0.0 14:0.0 15:0.0 16:0.0 17:0.0 18:0.0 19:0.0 20:0.0 21:0.0 22:0.0 23:0.0 24:0.0 25:0.0 26:0.003992015968063872 27:0.0 28:0.0 29:0.0 30:0.0035971223021582736 31:0.0 32:0.0 33:2.0589521004029767E-15 34:0.0 35:0.010810810810810811 36:0.0035026269702276708 37:0.0 38:0.0 39:0.4 40:0.0 41:0.4 42:0.0 43:0.010007900974453516 44:0.0304 45:0.0868288491993101 46:0.046511627906976744 47:0.02127659574468085 48:1.0 49:0.0598378199137853 50:1.0 51:0.018849206349206393 52:0.6018168363432564 53:0.0 54:0.013877511685057636 55:0.0027819798959061387 56:0.37941463117321295 57:0.49928308708933367 58:0.4426508916423078 59:0.214988732664401 60:0.07690567339505432 61:0.005239320094432999 62:0.026766857310619077 
0.3682217113797132 4.868286442244439 0.0 0.0 0:0.0 1:0.0 2:1.0 3:0.0 4:0.0 5:0.0 6:0.0 7:0.0 8:1.0 9:0.0 10:1.0 11:0.0 12:0.0 13:0.0 14:0.0 15:0.0 16:0.0 17:0.0 18:0.0 19:0.0 20:0.0 21:0.0 22:0.0 23:1.0 24:0.0 25:0.0 26:0.005988023952095808 27:0.0 28:0.0 29:1.0 30:0.0017985611510791368 31:0.0 32:0.08568859198355605 33:0.08053239809118802 34:0.0 35:0.010810810810810811 36:0.0035026269702276708 37:0.34525605408819376 38:0.0 39:1.0 40:0.0 41:1.0 42:0.0 43:0.006320779562812747 44:0.048 45:2.1371676971387848E-5 46:0.07692307692307693 47:0.0 48:1.0 49:0.03494024439371558 50:1.0 51:0.018849206349206258 52:0.02428161779509306 53:0.3066295687608722 54:0.014090193856476073 55:0.0017356176395023648 56:0.37665406996848866 57:0.4907852200165648 58:0.5056302815575325 59:0.2539131421106612 60:0.07087991720745401 61:0.0034406714376803336 62:0.01036461244256617 
0.0 2.53959696440424 0.0 0.0 0:0.0 1:0.0 2:1.0 3:0.0 4:0.0 5:0.0 6:0.0 7:0.0 8:1.0 9:0.0 10:1.0 11:0.0 12:0.0 13:0.0 14:0.0 15:0.0 16:0.0 17:0.0 18:0.0 19:0.0 20:0.0 21:0.0 22:0.0 23:1.0 24:0.0 25:0.0 26:0.005988023952095808 27:0.0 28:0.0 29:0.0 30:0.0035971223021582736 31:0.0 32:0.07579650565262075 33:0.08129707353533215 34:0.0 35:0.010810810810810811 36:0.0035026269702276708 37:0.22425223702419245 38:0.0 39:0.5 40:0.0 41:1.0 42:0.0 43:0.009217803529101924 44:0.033 45:1.1113272025114392E-4 46:0.05405405405405406 47:0.0 48:1.0 49:0.05314891902779642 50:1.0 51:0.018849206349206348 52:0.0275463731288871 53:0.3066295687608722 54:0.014103486492189746 55:0.0029033030924325524 56:0.4197418332890125 57:0.4818625486476619 58:0.12160751515362203 59:0.06305665342202556 60:0.06696877583066951 61:0.005553985269306882 62:0.02227136736713551 
0.781764861186341 0.0 0.0 0.0 0:0.0 1:0.0 2:1.0 3:0.0 4:0.0 5:0.0 6:0.0 7:0.0 8:1.0 9:0.0 10:1.0 11:0.0 12:0.0 13:0.0 14:0.0 15:0.0 16:0.0 17:0.0 18:0.0 19:0.0 20:0.0 21:0.0 22:0.0 23:1.0 24:0.0 25:0.0 26:0.005988023952095808 27:0.0 28:0.0 29:0.0 30:0.0035971223021582736 31:0.0 32:0.09879239465570401 33:0.06318633933191704 34:0.0 35:0.016216216216216217 36:0.005253940455341506 37:0.3625378982036891 38:0.0 39:0.6 40:0.0 41:1.0 42:0.0 43:0.009481169344219121 44:0.0272 45:6.411503091413317E-5 46:0.07692307692307693 47:0.0 48:1.0 49:0.05314891902779642 50:1.0 51:0.018849206349206393 52:0.02681180317878345 53:0.3066295687608722 54:0.014110132810046559 55:0.002570886427877521 56:0.368646416856655 57:0.4818625486476619 58:0.36738733884339014 59:0.18520741698015036 60:0.07450383336158295 61:0.0055086092960064505 62:0.011375138416739372 
0.0 8.0 0.0 0.0 0:0.0 1:0.0 2:1.0 3:0.0 4:0.0 5:0.0 6:0.0 7:1.0 8:0.0 9:0.0 10:1.0 11:0.0 12:0.0 13:0.0 14:0.0 15:0.0 16:0.0 17:0.0 18:0.0 19:0.0 20:0.0 21:8.680555555555555E-4 22:1.0 23:0.0 24:0.0 25:0.0 26:0.007984031936127744 27:0.0 28:1.0 29:1.0 30:0.0 31:1.0 32:0.0 33:2.0589521004029767E-15 34:0.0 35:0.0 36:0.0 37:0.0 38:0.0 39:0.0 40:0.0 41:0.0 42:1.0 43:0.0 44:0.0 45:0.0 46:0.0 47:0.0 48:1.0 49:0.01778207021929326 50:1.0 51:0.02834467120181406 52:0.127611124109674 53:0.34457285833432616 54:0.017127561117046632 55:0.0 56:0.0 57:0.5091016769528085 58:0.12158144232932677 59:0.06130003043391364 60:0.009963778261132523 61:0.023198404003976186 62:0.014735337387006303 
0.0 8.0 0.0 0.0 0:0.0 1:0.0 2:1.0 3:0.0 4:0.0 5:0.0 6:0.0 7:1.0 8:0.0 9:0.0 10:1.0 11:0.0 12:0.0 13:0.0 14:0.0 15:0.0 16:0.0 17:0.0 18:0.0 19:0.0 20:0.0 21:8.680555555555555E-4 22:1.0 23:0.0 24:0.0 25:0.0 26:0.007984031936127744 27:0.0 28:1.0 29:1.0 30:0.0 31:1.0 32:0.0 33:2.0589521004029767E-15 34:0.0 35:0.0 36:0.0 37:0.0 38:0.0 39:0.0 40:0.0 41:0.0 42:1.0 43:0.0 44:0.0 45:0.0 46:0.0 47:0.0 48:1.0 49:0.01778207021929326 50:1.0 51:0.02834467120181406 52:0.127611124109674 53:0.34457285833432616 54:0.017127561117046632 55:0.0 56:0.0 57:0.5091016769528085 58:0.6034651749148529 59:0.2948153842474788 60:0.009963778261132523 61:0.023198404003976186 62:0.014735337387006303 
0.0 8.0 0.0 0.0 0:0.0 1:0.0 2:1.0 3:0.0 4:0.0 5:0.0 6:0.0 7:0.0 8:0.0 9:0.0 10:1.0 11:0.0 12:0.0 13:0.0 14:0.0 15:0.0 16:0.0 17:0.0 18:0.0 19:0.0 20:0.0 21:0.0 22:0.0 23:0.0 24:0.0 25:0.0 26:0.007984031936127744 27:0.0 28:0.0 29:0.0 30:0.00539568345323741 31:0.0 32:0.0 33:2.0589521004029767E-15 34:0.0 35:0.021621621621621623 36:0.0070052539404553416 37:0.0 38:0.0 39:0.5714285714285714 40:0.0 41:0.7142857142857143 42:0.0 43:0.0121148274953911 44:0.024571428571428574 45:0.07857297038526732 46:0.08 47:0.0 48:1.0 49:0.07555959550051129 50:1.0 51:0.01884920634920634 52:0.6018168363432564 53:0.0 54:0.013877511685057636 55:0.0036095433303085654 56:0.3949328701991161 57:0.4859119933741217 58:0.18794836808261411 59:0.09346068475948155 60:0.07054988198627438 61:0.0077470933175713816 62:0.026202687877327237 
0.0 8.0 0.0781548428952385 0.12083079676410127 0:0.0 1:0.0 2:1.0 3:0.0 4:0.0 5:0.0 6:0.0 7:0.0 8:0.0 9:0.0 10:1.0 11:0.0 12:0.0 13:0.0 14:0.0 15:0.0 16:0.0 17:1.0 18:0.0 19:0.0 20:0.0 21:0.0 22:0.0 23:0.0 24:0.0 25:0.0 26:0.007984031936127744 27:0.0 28:0.0 29:0.0 30:0.0035971223021582736 31:0.0 32:0.0 33:2.0589521004029767E-15 34:0.0 35:0.010810810810810811 36:0.0035026269702276708 37:0.0 38:0.0 39:0.4 40:0.0 41:0.6 42:0.0 43:0.011324730050039505 44:0.032799999999999996 45:0.063373433723224 46:0.043478260869565216 47:0.02 48:1.0 49:0.05630042040677195 50:1.0 51:0.018849206349206393 52:0.6018168363432564 53:0.0 54:0.013877511685057636 55:0.002188524290526811 56:0.29804100165198516 57:0.49483555531806894 58:0.38413092034172774 59:0.18852850922625658 60:0.08685800247053506 61:0.005231659715308552 62:0.012406688065579836 
0.0 4.657889254492199 0.0 0.0 0:0.0 1:0.0 2:1.0 3:0.0 4:0.0 5:0.0 6:0.0 7:0.0 8:1.0 9:0.0 10:1.0 11:0.0 12:0.0 13:0.0 14:0.0 15:0.0 16:0.0 17:0.0 18:0.0 19:0.0 20:0.0 21:0.0 22:0.0 23:1.0 24:0.0 25:0.0 26:0.00998003992015968 27:0.004 28:0.0 29:0.0 30:0.008992805755395683 31:0.0 32:0.030577680712572802 33:0.02978343778148495 34:0.0 35:0.021621621621621623 36:0.012259194395796848 37:0.0723389282424862 38:0.0 39:0.4444444444444444 40:0.0136986301369863 41:0.6666666666666666 42:0.0 43:0.01685541216750066 44:0.028444444444444442 45:7.693803709695981E-5 46:0.0958904109589041 47:0.024691358024691357 48:1.0 49:0.10777494293003892 50:1.0 51:0.01884920634920636 52:0.04068565303268564 53:0.3104157849418426 54:0.014115117548439204 55:0.0036842093662056755 56:0.3017808593016358 57:0.4676489709405363 58:0.12282424695406644 59:0.06195730985508872 60:0.07166269305255947 61:0.0135205771760765 62:0.01579210047971762 
0.3671729278838962 8.0 1.949119309822672 0.0 0:0.0 1:0.0 2:1.0 3:0.0 4:0.0 5:0.0 6:0.0 7:0.0 8:1.0 9:0.0 10:1.0 11:0.0 12:0.0 13:0.0 14:0.0 15:0.0 16:0.0 17:0.0 18:0.0 19:0.0 20:0.0 21:0.0 22:0.0 23:1.0 24:0.0 25:0.0 26:0.00998003992015968 27:0.0 28:0.0 29:0.0 30:0.0017985611510791368 31:0.0 32:0.03597122302158273 33:0.03380670384637699 34:0.0 35:0.005405405405405406 36:0.0017513134851138354 37:0.1289107191465679 38:0.0 39:0.5 40:0.0 41:0.5 42:0.0 43:0.0052673163023439565 44:0.039999999999999994 45:4.7017689337010746E-5 46:0.045454545454545456 47:0.043478260869565216 48:1.0 49:0.03494024439371558 50:1.0 51:0.018849206349206393 52:0.05219391558430959 53:0.3104157849418426 54:0.014116779127903418 55:8.700366455057429E-4 56:0.27140831027221607 57:0.5033432187163251 58:0.34623841569931657 59:0.17030795932080958 60:0.05754559824857326 61:0.004945291915202208 62:0.012095249565894152 
0.0 8.0 0.0 0.0 0:0.0 1:0.0 2:1.0 3:0.0 4:0.0 5:0.0 6:0.0 7:0.0 8:0.0 9:0.0 10:1.0 11:0.0 12:0.0 13:0.0 14:0.0 15:0.0 16:0.0 17:0.0 18:0.0 19:0.0 20:0.0 21:0.0 22:0.0 23:0.0 24:0.0 25:0.0 26:0.011976047904191616 27:0.0 28:0.0 29:0.0 30:0.0035971223021582736 31:0.0 32:0.0 33:2.0589521004029767E-15 34:0.0 35:0.016216216216216217 36:0.005253940455341506 37:0.0 38:0.0 39:0.6 40:0.0 41:0.8 42:0.0 43:0.009744535159336319 44:0.028799999999999996 45:0.054745687729879075 46:0.07317073170731707 47:0.022222222222222223 48:1.0 49:0.05521027842033387 50:1.0 51:0.018849206349206348 52:0.6018168363432564 53:0.0 54:0.013967236976124776 55:0.0022806822138185857 56:0.3318897216511187 57:0.49928219651428934 58:0.1702188475618529 59:0.08409144375656359 60:0.07762249197499191 61:0.005590412732014346 62:0.019623709113548896 
0.0 8.0 0.0 0.0 0:0.0 1:0.0 2:1.0 3:0.0 4:0.0 5:0.0 6:0.0 7:0.0 8:0.0 9:0.0 10:1.0 11:0.0 12:0.0 13:0.0 14:0.0 15:0.0 16:0.0 17:0.0 18:0.0 19:0.0 20:0.0 21:0.0 22:0.0 23:0.0 24:0.0 25:0.0 26:0.011976047904191616 27:0.0 28:0.0 29:0.0 30:0.007194244604316546 31:0.0 32:0.0 33:2.2877245560033072E-15 34:0.0 35:0.02702702702702703 36:0.008756567425569177 37:1.476060568454954E-16 38:0.0 39:0.4166666666666667 40:0.0 41:0.9166666666666666 42:0.0 43:0.01580194890703187 44:0.017666666666666667 45:0.05131767074367013 46:0.07692307692307693 47:0.0 48:1.0 49:0.09300186728352051 50:1.0 51:0.018849206349206366 52:0.6018168363432564 53:0.0 54:0.013904096956484983 55:0.004246657795107714 56:0.3833283498673388 57:0.4814350726263949 58:0.38639153077414073 59:0.18795771147084697 60:0.07197007879777574 61:0.010201938850628912 62:0.011687432970030033 
0.0 5.07990594200592 0.0 0.0 0:0.0 1:0.0 2:1.0 3:0.0 4:0.0 5:0.0 6:0.0 7:0.0 8:0.0 9:0.0 10:1.0 11:0.0 12:0.0 13:0.0 14:0.0 15:0.0 16:0.0 17:0.0 18:0.0 19:0.0 20:0.0 21:0.003472222222222222 22:0.0 23:1.0 24:0.0 25:0.0 26:0.01397205588822355 27:0.036000000000000004 28:0.0 29:0.0 30:0.019784172661870505 31:0.0 32:0.03635662898252825 33:0.05125337779566682 34:0.004424778761061947 35:0.12972972972972974 36:0.04553415061295972 37:0.05610126882062126 38:0.003191489361702128 39:0.3 40:0.019148936170212766 41:0.5875 42:0.00851063829787234 43:0.11035027653410588 44:0.0195 45:0.7157160900944415 46:0.05531914893617021 47:0.02185792349726776 48:1.0 49:0.23416456686071768 50:1.0 51:0.024801587301587304 52:0.127611124109674 53:0.9999999999999998 54:0.012461845981553145 55:0.05017881000508919 56:0.36510690599777784 57:0.43248016244088816 58:0.30176204009227847 59:0.14639062884649892 60:0.30569300800721194 61:0.004038695501681515 62:0.010273748215162472 
