svm_type c_svc
kernel_type polynomial
degree 3
gamma 0.03125
coef0 0.5
nr_class 10
total_sv 755
rho 1.1158227063985575 3.879692065329009 -0.7561467153495959 -0.2721342965176639 -1.2959151051141882 0.6391537938138571 -0.6003582796564059 -1.60691881118739 -0.2700031815337576 2.7699497943875646 -0.15640374794549955 0.44179412389031925 -1.9269572343106613 1.5353694813591974 -1.5677283512592073 -0.2726446801255287 0.01009339416112113 -3.6623618510028813 -1.609486540614895 -5.179146863178315 -3.2149388775545904 -3.1443845091022515 -5.277630957925997 -3.3643292077293343 -0.4116973962441136 0.6331190399736163 0.40551526360463647 -0.30808323330998005 -0.23732622341439608 -0.4064205773828145 -3.295636544629212 -3.1366299819523364 -0.8444820575941784 -1.3765231528671262 -1.2666947461307239 2.1803563751807156 1.0885132092631247 -2.450069682209266 0.3222406821803823 -1.0143055445454472 -1.8656591635582418 -0.7625980233814265 -0.6623113450707003 0.6395002604958602 0.6145138527735228
label 14 8 9 4 16 5 10 15 13 11
nr_sv 84 75 398 67 17 25 48 13 19 9
SV
73.65992688465148 0.0 0.0 0.0 41.24569070197908 0.0 0.0 0.0 0.0 0:1.0 1:0.0 2:1.0 3:0.0 4:1.0 5:0.25 6:0.0 7:0.0 8:0.0 9:0.0 10:1.0 11:0.0 12:0.0 13:0.0 14:0.05172413793103448 15:0.0 16:0.0029585798816568047 17:0.0 18:1.0 19:0.0 20:0.0 21:6.644415651638168E-16 22:0.0 23:0.010033444816053512 24:0.012552301255230124 25:0.0 26:1.0 27:0.0 28:1.0 29:0.02975096105632626 30:0.0 31:1.0 32:0.5 33:0.0 34:0.9999999999999998 35:0.75 36:0.018556701030927835 37:0.025 38:0.0 39:0.0 40:0.21141999999999986 41:0.075 42:0.9 43:0.019222984914653192 44:0.035044325708911174 45:0.0027276645329120963 46:0.13011572830859333 47:0.5984639939632083 48:0.120670213272458 49:0.014591624092999415 50:0.5818790818137105 51:0.001205560639908548 52:0.004868040559824644 
0.0 0.0 0.0 0.0 0.0 0.0 0.0 134.21214253855604 0.0 0:0.0 1:0.0 2:1.0 3:0.0 4:1.0 5:0.0 6:0.0 7:0.0 8:0.0 9:0.0 10:1.0 11:0.0 12:0.0 13:0.0 14:0.07471264367816091 15:0.0 16:0.0 17:0.0 18:0.0 19:0.0 20:0.0 21:6.644415651638168E-16 22:0.0 23:0.010033444816053512 24:0.012552301255230124 25:0.0 26:1.0 27:0.0 28:1.0 29:0.04631618855048654 30:0.0 31:1.0 32:0.8 33:0.0 34:0.9999999999999998 35:0.6 36:0.0288659793814433 37:0.0 38:0.015625 39:0.5160806549361601 40:0.1864000000000003 41:0.05 42:0.9333333333333333 43:0.010511567713024939 44:0.052405253204010724 45:0.01813539351658168 46:0.4406052499664422 47:0.6678722046948964 48:0.18329127690337713 49:0.018850702840722995 50:0.4116169948719864 51:0.0017732389436030808 52:0.013274241369810818 
0.0 512.0 0.0 0.0 0.0 219.88350790230248 0.0 0.0 0.0 0:1.0 1:0.0 2:0.0 3:0.0 4:1.0 5:0.0 6:0.0 7:0.0 8:0.0 9:0.0 10:1.0 11:0.0 12:0.0 13:0.0 14:0.05172413793103448 15:0.0 16:0.0 17:0.0 18:0.0 19:0.0 20:0.0 21:6.644415651638168E-16 22:0.0 23:0.013377926421404682 24:0.016736401673640166 25:0.0 26:0.0 27:0.0019455252918287938 28:1.0 29:0.08095854922279792 30:0.0 31:1.0 32:0.6666666666666666 33:0.0 34:0.9999999999999998 35:0.6666666666666666 36:0.032474226804123714 37:0.0 38:0.0136986301369863 39:0.03612420777993488 40:0.21333333333333337 41:0.058823529411764705 42:0.9264705882352942 43:0.01901204091173419 44:0.07123818852619923 45:0.005771985334645985 46:0.14539397610263685 47:0.5695695559036199 48:0.2214452710948287 49:0.026270570518918797 50:0.5299597603468206 51:0.002572084571718359 52:0.00504161711472852 
0.0 512.0 34.25490143892942 95.14229146094577 43.18352376030209 116.76367452027434 0.0 0.0 71.25817280904934 0:0.0 1:0.0 2:0.0 3:0.0 4:1.0 5:0.0 6:0.0 7:0.0 8:0.0 9:0.0 10:1.0 11:0.0 12:0.0 13:0.0 14:0.034482758620689655 15:0.0 16:0.047337278106508875 17:0.26666666666666666 18:0.0 19:0.0 20:0.046511627906976744 21:6.644415651638168E-16 22:0.0 23:0.04013377926421405 24:0.02092050209205021 25:0.0 26:0.0 27:0.0019455252918287938 28:1.0 29:0.12273316062176166 30:0.0 31:1.0 32:0.6428571428571429 33:0.04918032786885246 34:0.9999999999999998 35:0.35714285714285715 36:0.0443298969072165 37:0.13114754098360656 38:0.02962962962962963 39:0.11213213768450893 40:0.1466666666666667 41:0.09836065573770492 42:0.7049180327868853 43:0.01901204091173419 44:0.07569057530908667 45:0.009471965512009418 46:0.2458717860006808 47:0.5668390991478494 48:0.2822608734874094 49:0.033207278511830245 50:0.4463419408974474 51:0.002992199287682701 52:0.005608482217069002 
0.0 512.0 0.0 0.0 0.0 0.0 0.0 0.0 0.0 0:1.0 1:0.0 2:0.0 3:0.0 4:1.0 5:0.0 6:0.0 7:0.0 8:0.0 9:0.0 10:1.0 11:0.0 12:0.0 13:0.0 14:0.040229885057471264 15:0.0 16:0.0 17:0.0 18:0.0 19:0.0 20:0.0 21:0.2281455044184348 22:0.0 23:0.020066889632107024 24:0.025104602510460247 25:0.0 26:1.0 27:0.0 28:1.0 29:0.1366580310880829 30:0.0 31:1.0 32:0.6153846153846154 33:0.0 34:0.9999999999999998 35:0.46153846153846156 36:0.061855670103092786 37:0.0 38:0.006944444444444444 39:0.13014699084773967 40:0.1668000000000001 41:0.045454545454545456 42:0.9090909090909091 43:0.022094959008449138 44:0.1255019147780858 45:0.030502615697025365 46:0.402438627945026 47:0.6076420520127189 48:0.27746218053610044 49:0.028625322757882425 50:0.36232539124190893 51:0.005367779620781804 52:0.0033638365846540897 
0.0 0.0 0.0 0.0 0.0 0.0 37.14014220365637 0.0 0.0 0:1.0 1:0.0 2:0.0 3:0.0 4:1.0 5:0.0 6:0.0 7:0.0 8:0.0 9:0.0 10:1.0 11:0.0 12:0.0 13:0.0 14:0.040229885057471264 15:0.0 16:0.0 17:0.0 18:0.0 19:0.0 20:0.0 21:6.644415651638168E-16 22:0.0 23:0.006688963210702341 24:0.0041841004184100415 25:0.0 26:1.0 27:0.0 28:1.0 29:0.005905857556863089 30:0.0 31:1.0 32:0.0 33:0.0 34:0.9999999999999998 35:0.3333333333333333 36:0.009278350515463918 37:0.0 38:0.0 39:0.0 40:0.24000000000000005 41:0.09090909090909091 42:0.8181818181818182 43:0.0035247602649912764 44:0.023422586400065587 45:6.944129535048279E-4 46:0.04386194844910433 47:0.9314444364461366 48:0.10886267218286655 49:0.008027614316724729 50:0.4275281563431929 51:0.001686529102786851 52:0.004868040559824644 
512.0 368.9190157201484 43.35555977157882 0.0 200.88407705234056 0.0 0.0 46.00166899615991 0.0 0:0.0 1:0.0 2:0.0 3:0.0 4:1.0 5:0.25 6:0.0 7:0.0 8:0.0 9:0.0 10:1.0 11:0.0 12:0.0 13:0.0 14:0.08045977011494254 15:0.0 16:0.0029585798816568047 17:0.0 18:0.0 19:0.5 20:0.023255813953488372 21:6.644415651638168E-16 22:0.0 23:0.013377926421404682 24:0.016736401673640166 25:0.0 26:1.0 27:0.0 28:1.0 29:0.05817239755063589 30:0.0 31:1.0 32:0.6 33:0.046875 34:0.9999999999999998 35:0.8 36:0.029896907216494847 37:0.015625 38:0.014705882352941176 39:0.33209454254106185 40:0.15875000000000003 41:0.0625 42:0.90625 43:0.01846045085004732 44:0.040783193803301795 45:0.010122272262013274 46:0.3367134707720778 47:0.7303574664339986 48:0.24107605990973946 49:0.02263151830963231 50:0.41629674824587065 51:0.0017160732064305671 52:0.0034699215426534477 
0.0 512.0 512.0 0.0 0.0 0.0 0.0 68.1899025270276 0.0 0:0.0 1:0.0 2:0.0 3:0.0 4:1.0 5:0.0 6:0.0 7:0.0 8:0.0 9:0.0 10:1.0 11:0.0 12:0.0 13:0.0 14:0.028735632183908046 15:0.0 16:0.0 17:0.0 18:0.0 19:0.0 20:0.023255813953488372 21:6.644415651638168E-16 22:0.0 23:0.006688963210702341 24:0.008368200836820083 25:0.0 26:1.0 27:0.0 28:1.0 29:0.05817239755063589 30:0.0 31:1.0 32:0.6923076923076923 33:0.03409090909090909 34:0.9999999999999998 35:0.15384615384615385 36:0.04329896907216495 37:0.0 38:0.02 39:0.3705258184134028 40:0.12000000000000002 41:0.022727272727272728 42:0.9545454545454546 43:0.015692523460393827 44:0.03100305140442842 45:0.00913143863140339 46:0.4022019623832719 47:0.7378041666770092 48:0.5820200617941348 49:0.05395320767901421 50:0.3930712671443958 51:0.0013131209451050562 52:0.009292214057609586 
512.0 512.0 78.7678212168139 0.0 165.12837442176664 0.0 129.1063542222672 0.0 0.0 0:0.0 1:0.0 2:0.0 3:0.0 4:1.0 5:0.0 6:0.0 7:0.0 8:0.0 9:0.0 10:1.0 11:0.0 12:0.0 13:0.0 14:0.06896551724137931 15:0.0 16:0.0 17:0.0 18:0.0 19:1.0 20:0.0 21:6.644415651638168E-16 22:0.0 23:0.006688963210702341 24:0.008368200836820083 25:0.0 26:1.0 27:0.0 28:1.0 29:0.021862757487678505 30:0.0 31:1.0 32:1.0 33:0.0 34:0.9999999999999998 35:1.0 36:0.007216494845360825 37:0.0 38:0.0 39:0.0 40:0.15981333333333322 41:0.125 42:0.875 43:0.00977611429744246 44:0.020864812171430543 45:1.5413395667979342E-4 46:0.033920446866975866 47:0.6980958787478623 48:0.20225425805691777 49:0.020475816699802866 50:0.1842764437194804 51:0.00260549658113661 52:0.004868040559824644 
507.3665170580091 512.0 0.0 0.0 46.39362199410033 0.0 0.0 0.0 0.0 0:1.0 1:0.0 2:0.0 3:0.0 4:1.0 5:0.0 6:0.0 7:0.0 8:0.0 9:0.0 10:1.0 11:0.0 12:0.0 13:0.0 14:0.040229885057471264 15:0.0 16:0.0 17:0.0 18:0.0 19:0.0 20:0.0 21:0.06101647366862583 22:0.0 23:0.013377926421404682 24:0.016736401673640166 25:0.0 26:1.0 27:0.0 28:1.0 29:0.14063656550703182 30:0.0 31:1.0 32:0.5714285714285714 33:0.0 34:0.9999999999999998 35:0.5714285714285714 36:0.025773195876288662 37:0.0 38:0.0 39:0.042474294577465536 40:0.1479999999999999 41:0.07142857142857142 42:0.8928571428571429 43:0.01240008665807686 44:0.04817108171348693 45:0.0054715101582208225 46:0.2467303222705003 47:0.61946741199862 48:0.29739868242676043 49:0.03281962423298856 50:0.38361629757835725 51:0.0023711592982767447 52:0.0043761536926093005 
0.0 512.0 0.0 0.0 0.0 0.0 0.0 0.0 0.0 0:1.0 1:0.0 2:0.0 3:0.0 4:1.0 5:0.0 6:0.0 7:0.0 8:0.0 9:0.0 10:1.0 11:0.0 12:0.0 13:0.0 14:0.06321839080459771 15:0.0 16:0.0 17:0.0 18:1.0 19:0.0 20:0.0 21:6.644415651638168E-16 22:0.0 23:0.006688963210702341 24:0.0 25:0.0 26:0.0 27:0.0038910505836575876 28:1.0 29:0.05638524839987808 30:0.0 31:1.0 32:0.3333333333333333 33:0.0 34:0.9999999999999998 35:0.0 36:0.011855670103092783 37:0.0 38:0.0 39:0.0 40:0.21359999999999998 41:0.06666666666666667 42:0.7666666666666667 43:0.031216861837379282 44:0.02188306357426105 45:6.013388702546447E-4 46:0.03370932987753973 47:0.8887053415180844 48:0.06902349730746965 49:0.005444438401371941 50:0.5412700290331484 51:0.001185590165609568 52:0.004868040559824644 
0.0 512.0 0.0 0.0 128.68654601623567 107.28425719169559 0.0 0.0 0.0 0:0.0 1:0.0 2:0.0 3:0.0 4:1.0 5:0.0 6:0.0 7:0.0 8:0.0 9:0.0 10:1.0 11:0.0 12:0.0 13:0.0 14:0.0574712643678161 15:0.0 16:0.0 17:0.0 18:0.0 19:0.0 20:0.0 21:0.09766434705359844 22:0.0 23:0.016722408026755852 24:0.02092050209205021 25:0.0 26:0.0 27:0.0038910505836575876 28:1.0 29:0.1153611703748857 30:0.0 31:1.0 32:0.5 33:0.0 34:0.9999999999999998 35:0.625 36:0.031958762886597936 37:0.0 38:0.013333333333333334 39:0.068688176019229 40:0.18640000000000015 41:0.07352941176470588 42:0.9117647058823529 43:0.031216861837379282 44:0.0436841681089181 45:0.010807594932919572 46:0.25143680847039557 47:0.8688971188716761 48:0.11653682213763605 49:0.009102316500479825 50:0.5839522851930943 51:0.0019608096619041417 52:0.004351134142891995 
0.27031303489081016 512.0 0.0 70.11792026997034 0.0 0.0 0.0 0.0 0.0 0:1.0 1:0.0 2:1.0 3:0.0 4:1.0 5:0.0 6:0.0 7:0.0 8:0.0 9:0.0 10:1.0 11:0.0 12:0.0 13:0.0 14:0.09195402298850575 15:0.0 16:0.0 17:0.0 18:1.0 19:0.0 20:0.0 21:6.644415651638168E-16 22:0.0 23:0.016722408026755852 24:0.02092050209205021 25:0.0 26:0.0 27:0.0019455252918287938 28:1.0 29:0.12273316062176166 30:0.0 31:1.0 32:1.0 33:0.0 34:0.9999999999999998 35:0.625 36:0.052061855670103095 37:0.0 38:0.0 39:0.04247634895688894 40:0.17359547169811315 41:0.04716981132075472 42:0.9528301886792453 43:0.019386894106110584 44:0.11131917901535424 45:0.0027478897413945194 46:0.07094736107512689 47:0.38696901924475563 48:0.2503025807696452 49:0.042328168344687875 50:0.45831560699479584 51:0.003245571571472779 52:0.0049167377370810126 
0.0 100.24760856405453 0.0 0.0 0.0 0.0 34.18021078949303 0.0 0.0 0:1.0 1:0.0 2:1.0 3:0.0 4:1.0 5:0.0 6:0.0 7:0.0 8:0.0 9:0.0 10:1.0 11:0.0 12:0.0 13:0.0 14:0.034482758620689655 15:0.0 16:0.0 17:0.0 18:1.0 19:0.0 20:0.0 21:6.644415651638168E-16 22:1.0 23:0.010033444816053512 24:0.012552301255230124 25:1.0 26:1.0 27:0.0 28:1.0 29:0.022474093264248707 30:0.0 31:1.0 32:0.8 33:0.0 34:0.9999999999999998 35:0.6 36:0.015463917525773196 37:0.0 38:0.0 39:0.0 40:0.18640000000000004 41:0.09090909090909091 42:0.9090909090909091 43:0.013880970570461006 44:0.02655986989843413 45:8.52562250365964E-4 46:0.06655980317235415 47:0.6359208961855518 48:0.22598460910072746 49:0.025043325544388692 50:0.4453631011304043 51:0.0012574160389736866 52:0.004868040559824644 
0.0 512.0 0.0 0.0 0.0 0.0 0.0 0.0 0.0 0:0.0 1:0.0 2:1.0 3:0.0 4:1.0 5:0.0 6:0.0 7:0.0 8:0.0 9:0.0 10:1.0 11:0.0 12:0.0 13:0.0 14:0.028735632183908046 15:0.0 16:0.0 17:0.0 18:0.0 19:0.0 20:0.0 21:6.644415651638168E-16 22:0.0 23:0.020066889632107024 24:0.016736401673640166 25:0.0 26:1.0 27:0.0 28:1.0 29:0.022474093264248707 30:0.0 31:1.0 32:0.4444444444444444 33:0.0 34:0.9999999999999998 35:0.4444444444444444 36:0.028350515463917526 37:0.0 38:0.013888888888888888 39:0.0 40:0.14640000000000014 41:0.09375 42:0.859375 43:0.013880970570461006 44:0.02086032700177444 45:0.0010584640933026912 46:0.06552215460779241 47:0.6396442463070572 48:0.2557026764929197 49:0.028225379439387254 50:0.7151431008398652 51:6.15028786578456E-4 52:0.004868040559824644 
0.0 512.0 0.0 0.0 0.0 0.0 0.0 0.0 0.0 0:1.0 1:0.0 2:1.0 3:0.0 4:1.0 5:0.0 6:0.0 7:0.0 8:0.0 9:0.0 10:1.0 11:0.0 12:6.134969325153375E-4 13:0.0 14:0.022988505747126436 15:0.0 16:0.0 17:0.0 18:1.0 19:0.0 20:0.0 21:0.33490972211399134 22:0.0 23:0.023411371237458192 24:0.02928870292887029 25:0.0 26:0.0 27:0.0019455252918287938 28:1.0 29:0.05817239755063589 30:0.018199233716475097 31:1.0 32:0.7272727272727273 33:0.0 34:0.9999999999999998 35:0.6363636363636364 36:0.024742268041237116 37:0.0 38:0.014705882352941176 39:0.23565786365083763 40:0.21359999999999985 41:0.1206896551724138 42:0.8275862068965517 43:0.04476431283565754 44:0.05500173769670322 45:0.02168817782129874 46:0.38251937022558435 47:0.7255679970610357 48:0.12126535143221565 49:0.011513939228370565 50:0.5720163199913668 51:0.0016827937293937964 52:0.0034379261108258077 
0.0 512.0 0.0 0.0 0.0 0.0 0.0 0.0 0.0 0:0.0 1:0.0 2:1.0 3:0.0 4:1.0 5:0.25 6:0.0 7:0.0 8:0.0 9:0.0 10:1.0 11:0.0 12:0.0 13:0.0 14:0.034482758620689655 15:0.0 16:0.0029585798816568047 17:0.0 18:0.0 19:0.0 20:0.0 21:0.19023814347832924 22:0.0 23:0.016722408026755852 24:0.02092050209205021 25:0.0 26:0.0 27:0.0019455252918287938 28:1.0 29:0.05817239755063589 30:0.0 31:1.0 32:0.7777777777777778 33:0.0 34:0.9999999999999998 35:0.5555555555555556 36:0.027835051546391754 37:0.016666666666666666 38:0.0 39:0.13370106725011044 40:0.1725999999999998 41:0.08333333333333333 42:0.9 43:0.04476431283565754 44:0.04529165016528321 45:0.011127400955032014 46:0.32818254403738134 47:0.7330233851209964 48:0.20324782555310264 49:0.01898280628927982 50:0.4531298315081257 51:0.0019081201835509135 52:0.006935582411753873 
0.0 512.0 0.0 0.0 0.0 0.0 0.0 0.0 0.0 0:1.0 1:0.0 2:0.0 3:0.0 4:1.0 5:0.0 6:0.0 7:0.0 8:0.0 9:0.0 10:1.0 11:0.0 12:0.0 13:0.0 14:0.040229885057471264 15:0.0 16:0.0 17:0.0 18:0.0 19:0.0 20:0.0 21:0.040063977681842305 22:0.0 23:0.023411371237458192 24:0.02928870292887029 25:0.0 26:1.0 27:0.0 28:1.0 29:0.10880829015544041 30:0.0 31:1.0 32:0.5625 33:0.0 34:0.9999999999999998 35:0.4375 36:0.06907216494845361 37:0.0 38:0.018867924528301886 39:0.046568672768173565 40:0.16000000000000003 41:0.04861111111111111 42:0.9305555555555556 43:0.020276279631931224 44:0.10077615774079074 45:0.011497841980805881 46:0.20109555519612954 47:0.6013322146734746 48:0.3020908769705338 49:0.03238613560996513 50:0.48335107696585955 51:0.004249604583083413 52:0.004757193452723038 
0.0 453.5924479093862 0.0 0.0 0.0 0.0 0.0 0.0 0.0 0:1.0 1:0.0 2:0.0 3:0.0 4:1.0 5:0.0 6:0.0 7:0.0 8:0.0 9:0.0 10:1.0 11:0.0 12:0.0 13:0.0 14:0.05172413793103448 15:0.0 16:0.0 17:0.0 18:1.0 19:0.0 20:0.0 21:6.644415651638168E-16 22:0.0 23:0.010033444816053512 24:0.012552301255230124 25:0.0 26:1.0 27:0.0 28:1.0 29:0.06424870466321243 30:0.0 31:1.0 32:0.6 33:0.0 34:0.9999999999999998 35:0.6 36:0.025257731958762887 37:0.0 38:0.017543859649122806 39:0.6159440387045083 40:0.21281333333333355 41:0.05660377358490566 42:0.9245283018867925 43:0.08574161069999205 44:0.06265586090083843 45:0.026818690920274228 46:0.48418460379217027 47:0.6573028548166499 48:0.19206423983942547 49:0.0198303807315992 50:0.4494285720215082 51:0.0018645892819033943 52:0.0028767125211333557 
0.0 0.0 0.0 0.0 0.0 0.0 0.0 0.0 2.488135709367251 0:1.0 1:0.0 2:1.0 3:0.0 4:1.0 5:0.0 6:0.0 7:0.0 8:0.0 9:0.0 10:1.0 11:0.0 12:0.0 13:0.0 14:0.04597701149425287 15:0.0 16:0.0 17:0.0 18:0.0 19:0.0 20:0.0 21:6.644415651638168E-16 22:0.0 23:0.0033444816053511705 24:0.0041841004184100415 25:0.0 26:1.0 27:0.0 28:1.0 29:0.09766839378238343 30:0.0 31:1.0 32:0.6666666666666666 33:0.0 34:0.9999999999999998 35:0.3333333333333333 36:0.016494845360824743 37:0.0 38:0.0 39:0.0 40:0.1866666666666667 41:0.030303030303030304 42:0.9696969696969697 43:0.0057011892680813225 44:0.04842732269546478 45:1.7692484871157638E-4 46:0.014116480036626716 47:0.3414225183250882 48:0.3427231517514603 49:0.0697508934942767 50:0.43515273013283856 51:0.001288760983859222 52:0.004868040559824644 
0.0 377.18975773943527 47.736867389184304 0.0 0.0 0.0 0.0 0.0 0.0 0:1.0 1:0.0 2:0.0 3:0.0 4:1.0 5:0.0 6:0.0 7:0.0 8:0.0 9:0.0 10:1.0 11:0.0 12:6.134969325153375E-4 13:0.0 14:0.022988505747126436 15:0.0 16:0.023668639053254437 17:0.4 18:0.0 19:0.5 20:0.023255813953488372 21:6.644415651638168E-16 22:0.0 23:0.020066889632107024 24:0.025104602510460247 25:0.0 26:1.0 27:0.0 28:1.0 29:0.03082901554404145 30:0.015993265993265993 31:1.0 32:0.5714285714285714 33:0.045454545454545456 34:0.9999999999999998 35:0.42857142857142855 36:0.025773195876288662 37:0.12121212121212122 38:0.02531645569620253 39:0.0 40:0.14399999999999957 41:0.09090909090909091 42:0.7575757575757576 43:0.014538032633607376 44:0.014893264934635091 45:0.0017915485322361681 46:0.08925634263555952 47:0.8866041309328482 48:0.14652176200988806 49:0.011535735562146382 50:0.9033854020748635 51:4.7889107546627023E-4 52:0.004868040559824644 
0.0 445.6777560045398 0.0 0.0 146.05965206768653 0.0 0.0 0.0 0.0 0:1.0 1:0.0 2:0.0 3:0.0 4:1.0 5:0.25 6:0.0 7:0.0 8:0.0 9:0.0 10:1.0 11:0.0 12:0.0 13:0.0 14:0.0574712643678161 15:0.0 16:0.0029585798816568047 17:0.0 18:0.0 19:0.0 20:0.0 21:6.644415651638168E-16 22:0.0 23:0.013377926421404682 24:0.016736401673640166 25:0.0 26:1.0 27:0.0 28:1.0 29:0.014845685965307503 30:0.0 31:1.0 32:0.5714285714285714 33:0.0 34:0.6551423975778218 35:0.5714285714285714 36:0.03556701030927835 37:0.013157894736842105 38:0.024390243902439025 39:2.054379423336163E-4 40:0.15910947368421083 41:0.05263157894736842 42:0.9078947368421053 43:0.008938039475034494 44:0.035143259571273 45:0.0038819150476608537 46:0.1518005462823567 47:0.8995067802205712 48:0.04800447042727161 49:0.0036858754157108866 50:0.4707748882981262 51:0.0022456810770328586 52:0.00486696782689946 
0.0 435.586012374453 1.4474428800343795 0.0 0.0 0.0 0.0 0.0 0.0 0:1.0 1:0.0 2:0.0 3:0.0 4:1.0 5:0.0 6:0.0 7:0.0 8:0.0 9:0.0 10:1.0 11:0.0 12:0.0 13:0.0 14:0.017241379310344827 15:0.0 16:0.0 17:0.0 18:1.0 19:0.0 20:0.0 21:6.644415651638168E-16 22:0.0 23:0.020066889632107024 24:0.02092050209205021 25:0.0 26:0.0 27:0.0019455252918287938 28:1.0 29:0.19792746113989637 30:0.0 31:1.0 32:0.6363636363636364 33:0.0 34:0.9999999999999998 35:0.45454545454545453 36:0.03350515463917526 37:0.0 38:0.012195121951219513 39:0.7188479040193932 40:0.2928000000000003 41:0.08333333333333333 42:0.9027777777777778 43:0.05005644177375402 44:0.12244199991116772 45:0.0699095543509404 46:0.4818420429576575 47:0.7356458647232433 48:0.12712401676911395 49:0.010891661776863066 50:0.5895029638438034 51:0.0038847976537896897 52:0.003636505588937019 
0.0 512.0 0.0 0.0 0.0 0.0 0.0 0.0 0.0 0:0.0 1:0.0 2:0.0 3:0.0 4:1.0 5:0.0 6:0.0 7:0.0 8:0.0 9:0.0 10:1.0 11:0.0 12:0.0 13:0.0 14:0.011494252873563218 15:0.0 16:0.0 17:0.0 18:0.0 19:0.0 20:0.0 21:6.644415651638168E-16 22:0.0 23:0.013377926421404682 24:0.012552301255230124 25:0.0 26:0.0 27:0.0019455252918287938 28:1.0 29:0.06424870466321243 30:0.0 31:1.0 32:0.7142857142857143 33:0.0 34:0.9999999999999998 35:0.42857142857142855 36:0.015979381443298968 37:0.0 38:0.046511627906976744 39:0.0 40:0.20000000000000004 41:0.10810810810810811 42:0.8378378378378378 43:0.05005644177375402 44:0.02220807485601765 45:0.001604235325853624 46:0.08487066117802532 47:0.819670706915254 48:0.2747445917602809 49:0.02320950698159356 50:0.61252887231433 51:9.809587630937395E-4 52:0.004868040559824644 
0.0 3.4969262067763878 0.0 0.0 0.0 0.0 0.0 0.0 0.0 0:1.0 1:0.0 2:0.0 3:0.0 4:1.0 5:0.0 6:0.0 7:0.0 8:0.0 9:0.0 10:1.0 11:0.0 12:6.134969325153375E-4 13:0.0 14:0.040229885057471264 15:0.0 16:0.0 17:0.0 18:1.0 19:0.0 20:0.0 21:6.644415651638168E-16 22:0.0 23:0.030100334448160536 24:0.03765690376569037 25:0.0 26:1.0 27:0.0 28:1.0 29:0.5989637305699481 30:0.009865005192107996 31:1.0 32:0.8125 33:0.0 34:0.9999999999999998 35:0.5625 36:0.05 37:0.0 38:0.00819672131147541 39:0.30635111398724224 40:0.2535999999999999 41:0.08411214953271028 42:0.9065420560747663 43:0.12151657335720234 44:0.16276974261817845 45:0.06422766938306296 46:0.4479969253082323 47:0.539692153411954 48:0.2948364560336986 49:0.032873706408043046 50:0.7210099136061493 51:0.004108242586091792 52:0.00425797595106508 
512.0 512.0 0.0 0.0 75.55391826501355 0.0 0.0 0.0 0.0 0:0.0 1:0.0 2:0.0 3:0.0 4:1.0 5:0.0 6:0.0 7:0.0 8:0.0 9:0.0 10:1.0 11:0.0 12:0.0 13:0.0 14:0.017241379310344827 15:0.0 16:0.0 17:0.0 18:0.0 19:0.0 20:0.0 21:6.644415651638168E-16 22:0.0 23:0.016722408026755852 24:0.008368200836820083 25:0.0 26:1.0 27:0.0 28:1.0 29:0.06902294596595115 30:0.0 31:1.0 32:1.0 33:0.0 34:0.8307340425307859 35:0.6666666666666666 36:0.005154639175257732 37:0.0 38:0.0 39:0.0 40:0.2933333333333334 41:0.3333333333333333 42:0.6666666666666666 43:0.024844357532981358 44:0.0388290568422093 45:9.326040082736251E-4 46:0.06346477126731424 47:0.6758947830900331 48:0.4978562497024309 49:0.050188226193490816 50:0.3246752707719829 51:0.002714310496012766 52:0.004868040559824644 
0.0 0.0 0.0 1.2151668445175317 12.450757178500899 0.0 14.738795042924577 0.0 0.0 0:0.0 1:0.0 2:1.0 3:0.0 4:1.0 5:0.0 6:0.0 7:0.0 8:0.0 9:0.0 10:1.0 11:0.0 12:0.0 13:0.0 14:0.0574712643678161 15:0.0 16:0.0029585798816568047 17:0.0 18:1.0 19:0.0 20:0.0 21:6.644415651638168E-16 22:0.0 23:0.023411371237458192 24:0.016736401673640166 25:0.0 26:1.0 27:0.0 28:1.0 29:0.42709104367135453 30:0.0 31:1.0 32:0.7 33:0.0 34:0.20595650040331995 35:0.4 36:0.03350515463917526 37:0.013333333333333334 38:0.011904761904761904 39:0.17339578646780265 40:0.2666666666666667 41:0.09333333333333334 42:0.8666666666666667 43:0.011688863296883763 44:0.2559187837327431 45:0.03433789399070976 46:0.35277772294924836 47:0.5232374281083148 48:0.2777829286811488 49:0.028297016855084605 50:0.2651465942256063 51:0.017800910826829167 52:0.008540266065684738 
0.0 512.0 487.6385085447353 59.709691541715046 85.90522221829328 0.0 0.0 200.6795969104933 0.0 0:0.0 1:0.0 2:1.0 3:0.0 4:1.0 5:0.0 6:0.0 7:0.0 8:0.0 9:0.0 10:1.0 11:0.0 12:0.0 13:0.0 14:0.017241379310344827 15:0.0 16:0.011834319526627219 17:0.0 18:0.0 19:0.0 20:0.0 21:3.896326543796506E-6 22:0.0 23:0.023411371237458192 24:0.012552301255230124 25:0.0 26:1.0 27:0.0 28:1.0 29:0.2122501850481125 30:0.0 31:1.0 32:0.42857142857142855 33:0.0 34:0.20595650040331995 35:0.42857142857142855 36:0.01958762886597938 37:0.0784313725490196 38:0.0 39:0.10248271753310116 40:0.16000000000000003 41:0.13725490196078433 42:0.7450980392156863 43:0.011688863296883763 44:0.07059828516765328 45:0.007273523983112847 46:0.3171979265967586 47:0.6535546823610011 48:0.4697318996559475 49:0.04739063113963763 50:0.2230039105167513 51:0.0057502161527036195 52:0.003895901997581483 
0.0 101.18403588567799 136.37955920540148 0.0 0.0 0.0 0.0 0.0 0.0 0:0.0 1:0.0 2:1.0 3:0.0 4:1.0 5:0.0 6:0.0 7:0.0 8:0.0 9:0.0 10:1.0 11:0.0 12:0.0 13:0.0 14:0.04597701149425287 15:0.0 16:0.0 17:0.0 18:0.0 19:0.0 20:0.0 21:0.45700793292084263 22:0.0 23:0.013377926421404682 24:0.016736401673640166 25:0.0 26:1.0 27:0.0 28:1.0 29:0.03364754354204382 30:0.0 31:1.0 32:0.6666666666666666 33:0.0 34:0.7376612683425169 35:0.4444444444444444 36:0.03556701030927835 37:0.0 38:0.012195121951219513 39:0.2572986964962559 40:0.1866666666666667 41:0.05405405405405406 42:0.9324324324324325 43:0.023913638384967136 44:0.03929924846567052 45:0.012526159744962719 46:0.31522311369427364 47:0.934474002328335 48:0.4118681825357647 49:0.029628190120376496 50:0.32892890026141586 51:0.0019673438164961804 52:0.0033409741669472234 
0.0 66.6703505672432 0.0 0.0 0.0 0.0 0.0 0.0 0.0 0:0.0 1:0.0 2:1.0 3:0.0 4:1.0 5:0.0 6:0.0 7:0.0 8:0.0 9:0.0 10:1.0 11:0.0 12:0.0 13:0.0 14:0.017241379310344827 15:0.0 16:0.0 17:0.0 18:0.0 19:0.5 20:0.023255813953488372 21:2.3377959260619603E-5 22:0.0 23:0.03678929765886287 24:0.03347280334728033 25:1.0 26:1.0 27:0.0 28:1.0 29:0.49870466321243523 30:0.0 31:1.0 32:0.6923076923076923 33:0.0410958904109589 34:0.9999999999999998 35:0.6153846153846154 36:0.030927835051546393 37:0.0 38:0.011764705882352941 39:0.370116996908159 40:0.17301917808219192 41:0.1506849315068493 42:0.821917808219178 43:0.2251670448455548 44:0.09637981537154919 45:0.03279908698101576 46:0.5470531860817449 47:0.46480937688494595 48:0.5997589377222371 49:0.08309197157573868 50:0.5426376376687979 51:0.0021931653264976618 52:0.007426331476836591 
0.0 270.77828298628714 9.197138554775826 0.0 0.0 0.0 0.0 0.0 0.0 0:1.0 1:0.0 2:0.0 3:0.0 4:1.0 5:0.0 6:0.0 7:0.0 8:0.0 9:0.0 10:1.0 11:0.0 12:0.0 13:0.0 14:0.017241379310344827 15:0.0 16:0.0 17:0.0 18:1.0 19:0.5 20:0.023255813953488372 21:6.644415651638168E-16 22:0.0 23:0.03678929765886287 24:0.03347280334728033 25:1.0 26:0.0 27:0.0038910505836575876 28:1.0 29:0.06209259568778205 30:0.0 31:1.0 32:0.6923076923076923 33:0.0410958904109589 34:0.9999999999999998 35:0.6153846153846154 36:0.030927835051546393 37:0.0 38:0.011764705882352941 39:0.5546886074389078 40:0.17315999999999968 41:0.1506849315068493 42:0.821917808219178 43:0.042925679296701304 44:0.03972187716514772 45:0.022785650321469206 46:0.4402473155654753 47:0.8721277456604355 48:0.06868270240335583 49:0.0054212174416746715 50:0.5853437595333112 51:0.0013452854110455482 52:0.009337098032842491 
0.0 512.0 512.0 0.0 160.15048273586464 0.0 0.0 147.42624208056924 0.0 0:0.0 1:0.0 2:0.0 3:0.0 4:1.0 5:0.0 6:0.0 7:0.0 8:0.0 9:0.0 10:1.0 11:0.0 12:0.0 13:0.0 14:0.05172413793103448 15:0.0 16:0.0 17:0.0 18:0.0 19:0.0 20:0.0 21:0.01069541636145515 22:0.0 23:0.026755852842809364 24:0.03347280334728033 25:0.0 26:1.0 27:0.0 28:1.0 29:0.19792746113989637 30:0.0 31:1.0 32:0.875 33:0.0 34:0.9999999999999998 35:0.5 36:0.0711340206185567 37:0.0 38:0.006172839506172839 39:0.0073505695766953 40:0.16000000000000003 41:0.05442176870748299 42:0.9387755102040817 43:0.02223463814551719 44:0.048438696886405536 45:0.006197889213698758 46:0.12629094571638805 47:0.6290376629275959 48:0.6204597223022701 49:0.06646908618613301 50:0.9171009187258619 51:0.0011177547942253898 52:0.004828498438007315 
106.40366039010033 454.94247838645555 0.0 0.0 0.0 0.0 17.748115786476216 0.0 0.0 0:1.0 1:0.0 2:1.0 3:0.0 4:1.0 5:0.0 6:0.0 7:0.0 8:0.0 9:0.0 10:1.0 11:0.0 12:0.0 13:0.0 14:0.040229885057471264 15:0.0 16:0.0 17:0.0 18:0.0 19:1.0 20:0.0 21:6.644415651638168E-16 22:0.0 23:0.08695652173913043 24:0.016736401673640166 25:0.0 26:1.0 27:0.0 28:1.0 29:0.02975096105632626 30:0.0 31:1.0 32:1.0 33:0.0 34:0.9999999999999998 35:1.0 36:0.0 37:0.0 38:0.0 39:0.0 40:0.16461538461538466 41:1.0 42:0.0 43:0.012827675853182976 44:0.030550333711478573 45:0.0025314641317978927 46:0.19558544115900664 47:0.5907628647952282 48:0.17769071358944738 49:0.021426081216783296 50:0.41942211790488165 51:0.0014326034305156387 52:0.004868040559824644 
0.0 512.0 18.69248838769779 63.63450422035845 0.0 0.0 0.0 91.27316878908006 0.0 0:1.0 1:0.0 2:1.0 3:0.0 4:1.0 5:0.0 6:0.0 7:0.0 8:0.0 9:0.0 10:1.0 11:0.0 12:0.0 13:0.0 14:0.028735632183908046 15:0.0 16:0.0 17:0.0 18:0.0 19:0.0 20:0.023255813953488372 21:6.644415651638168E-16 22:0.0 23:0.043478260869565216 24:0.05439330543933054 25:0.0 26:0.0 27:0.05642023346303502 28:1.0 29:0.11772020725388602 30:0.0 31:1.0 32:0.7058823529411765 33:0.03296703296703297 34:0.9999999999999998 35:0.7647058823529411 36:0.039690721649484534 37:0.0 38:0.009345794392523364 39:0.5357718817088328 40:0.1467999999999999 41:0.14285714285714285 42:0.8461538461538461 43:0.029954048414499296 44:0.07614542890309757 45:0.023368234444766958 46:0.5112946403930017 47:0.5560984751640137 48:0.4390991988813908 49:0.052089710032402835 50:0.355074644314532 51:0.0024591367352518917 52:0.004285766702914454 
210.06553045279836 79.6124744976598 0.0 0.0 0.0 0.0 0.0 0.0 0.0 0:1.0 1:0.0 2:1.0 3:0.0 4:1.0 5:0.0 6:0.0 7:0.0 8:0.0 9:0.0 10:1.0 11:0.0 12:0.0 13:0.0 14:0.028735632183908046 15:0.0 16:0.005917159763313609 17:0.0 18:0.0 19:0.0 20:0.0 21:6.644415651638168E-16 22:0.0 23:0.010033444816053512 24:0.012552301255230124 25:0.0 26:1.0 27:0.0 28:1.0 29:0.07453168593064967 30:0.0 31:1.0 32:0.2 33:0.0 34:0.9999999999999998 35:0.6 36:0.01443298969072165 37:0.05405405405405406 38:0.024390243902439025 39:0.0 40:0.14640000000000003 41:0.08108108108108109 42:0.7567567567567568 43:0.002385947708692043 44:0.02222627072326469 45:5.301930508549177E-4 46:0.054122083341307456 47:0.5994966030635724 48:0.29542407665880666 49:0.03471657684118799 50:0.43367513172831273 51:0.001014200633978344 52:0.004868040559824644 
188.17986493492376 0.0 0.0 0.0 0.0 0.0 0.0 0.0 0.0 0:1.0 1:0.0 2:1.0 3:0.0 4:1.0 5:0.0 6:0.0 7:0.0 8:0.0 9:0.0 10:1.0 11:0.0 12:0.0 13:0.0 14:0.06896551724137931 15:0.0 16:0.0 17:0.0 18:0.0 19:0.0 20:0.0 21:6.644415651638168E-16 22:0.0 23:0.006688963210702341 24:0.008368200836820083 25:0.0 26:1.0 27:0.0 28:1.0 29:0.07453168593064967 30:0.0 31:1.0 32:1.0 33:0.0 34:0.9999999999999998 35:0.6666666666666666 36:0.015979381443298968 37:0.0 38:0.0 39:0.0 40:0.14640000000000028 41:0.06060606060606061 42:0.9393939393939394 43:0.0023602923569856758 44:0.02222627072326475 45:2.760660368244626E-4 46:0.03168701472700926 47:0.5994966030635724 48:0.3112860747693996 49:0.03652620918362504 50:0.3856884633184121 51:0.0011403856619283561 52:0.004868040559824644 
186.6477924842238 289.09679180365896 41.696978783778576 0.0 80.70517261931592 31.995808421580172 0.0 98.34984872424809 34.902516436423994 0:0.0 1:0.0 2:1.0 3:0.0 4:1.0 5:0.0 6:0.0 7:0.0 8:0.0 9:0.0 10:1.0 11:0.0 12:0.0 13:0.0 14:0.14942528735632185 15:0.0 16:0.0 17:0.0 18:0.0 19:1.0 20:0.0 21:6.644415651638168E-16 22:0.0 23:0.0033444816053511705 24:0.0041841004184100415 25:0.0 26:1.0 27:0.0 28:1.0 29:0.10880829015544041 30:0.0 31:1.0 32:0.0 33:0.0 34:0.9999999999999998 35:1.0 36:0.013402061855670104 37:0.0 38:0.0 39:0.0 40:0.24000000000000005 41:0.037037037037037035 42:0.9629629629629629 43:0.04790566812237032 44:0.024035893601110993 45:0.0 46:0.0 47:0.9071073789352708 48:0.49254260562762653 49:0.03715753492367705 50:0.5210277610026086 51:0.001383877658545706 52:0.004868040559824644 
0.0 0.0 240.45530214682293 0.0 0.0 0.0 0.0 0.0 16.041869848198473 0:0.0 1:0.0 2:1.0 3:0.0 4:1.0 5:0.0 6:0.0 7:0.0 8:0.0 9:0.0 10:1.0 11:0.0 12:0.0 13:0.0 14:0.08045977011494254 15:0.0 16:0.0 17:0.0 18:0.0 19:0.0 20:0.0 21:6.644415651638168E-16 22:0.0 23:0.0033444816053511705 24:0.0041841004184100415 25:0.0 26:1.0 27:0.0 28:1.0 29:0.10880829015544041 30:0.0 31:1.0 32:1.0 33:0.0 34:0.9999999999999998 35:0.3333333333333333 36:0.020103092783505156 37:0.0 38:0.0 39:0.0 40:0.1866799999999997 41:0.025 42:0.975 43:0.009995610084263626 44:0.01869591923939747 45:4.6535754394357184E-4 46:0.02718862303681372 47:0.9120706046472374 48:0.5572071857607871 49:0.042024098773629184 50:0.5942207639930851 51:9.438376312374685E-4 52:0.004868040559824644 
11.753129853537144 512.0 0.0 0.0 0.0 0.0 0.0 301.41824188300757 0.0 0:0.0 1:0.0 2:1.0 3:0.0 4:1.0 5:0.0 6:0.0 7:0.0 8:0.0 9:0.0 10:1.0 11:0.0 12:0.0 13:0.0 14:0.011494252873563218 15:0.0 16:0.0 17:0.0 18:0.0 19:0.0 20:0.0 21:6.644415651638168E-16 22:0.0 23:0.026755852842809364 24:0.016736401673640166 25:0.0 26:1.0 27:0.0 28:1.0 29:0.10880829015544041 30:0.0 31:1.0 32:1.0 33:0.0 34:0.9999999999999998 35:0.5714285714285714 36:0.018041237113402064 37:0.0 38:0.0 39:0.0 40:0.1866799999999997 41:0.18604651162790697 42:0.813953488372093 43:0.009995610084263626 44:0.01869591923939747 45:0.0013958933032974057 46:0.07078465726185346 47:0.9120706046472374 48:0.5835360979484648 49:0.04400557506246091 50:0.6846385798453086 51:8.191883058154181E-4 52:0.004868040559824644 
0.0 512.0 0.0 0.0 0.0 0.0 0.0 0.0 0.0 0:1.0 1:0.0 2:1.0 3:0.0 4:1.0 5:0.0 6:0.0 7:0.0 8:0.0 9:0.0 10:1.0 11:0.0 12:0.0 13:0.0 14:0.06896551724137931 15:0.0 16:0.0 17:0.0 18:1.0 19:0.0 20:0.0 21:0.16306418808347542 22:0.0 23:0.010033444816053512 24:0.012552301255230124 25:0.0 26:0.0 27:0.0019455252918287938 28:1.0 29:0.05817239755063589 30:0.0 31:1.0 32:0.6666666666666666 33:0.0 34:0.9999999999999998 35:0.5 36:0.026288659793814433 37:0.0 38:0.0 39:0.11474325393156863 40:0.20772814814814813 41:0.05555555555555555 42:0.9444444444444444 43:0.04626942680243103 44:0.0606876219252827 45:0.011017543107772138 46:0.26199041237611326 47:0.6358439469497075 48:0.1631643308015947 49:0.017617422584771683 50:0.5017027661389233 51:0.0021470163443797824 52:0.00395477685394039 
0.0 512.0 0.0 0.0 0.0 0.0 0.0 0.0 0.0 0:0.0 1:0.0 2:1.0 3:0.0 4:1.0 5:0.0 6:0.0 7:0.0 8:0.0 9:0.0 10:1.0 11:0.0 12:0.0 13:0.0 14:0.0574712643678161 15:0.0 16:0.0 17:0.0 18:0.0 19:0.0 20:0.0 21:0.008413143088696692 22:0.0 23:0.013377926421404682 24:0.016736401673640166 25:0.0 26:0.0 27:0.0019455252918287938 28:1.0 29:0.05817239755063589 30:0.0 31:1.0 32:1.0 33:0.0 34:0.9999999999999998 35:0.5 36:0.03865979381443299 37:0.0 38:0.0 39:0.005686522243793149 40:0.16882025316455726 41:0.05063291139240506 42:0.9493670886075949 43:0.0443609536949408 44:0.04994719626853629 45:0.0034788620545580444 46:0.11763523555346919 47:0.6431144086203003 48:0.24530968483988908 49:0.02610577354519247 50:0.5218174045319935 51:0.0020680303989820833 52:0.0049233251597605495 
0.0 7.0889002321554955 0.0 0.0 0.0 0.0 0.0 0.0 0.0 0:1.0 1:0.0 2:0.0 3:0.0 4:1.0 5:0.0 6:0.0 7:0.0 8:0.0 9:0.0 10:1.0 11:0.0 12:6.134969325153375E-4 13:0.0 14:0.028735632183908046 15:0.0 16:0.0 17:0.0 18:0.0 19:0.0 20:0.0 21:0.2272337640072944 22:0.0 23:0.023411371237458192 24:0.02928870292887029 25:0.0 26:1.0 27:0.0 28:1.0 29:0.06424870466321243 30:0.013532763532763533 31:1.0 32:0.6666666666666666 33:0.0 34:0.9999999999999998 35:0.5833333333333334 36:0.03556701030927835 37:0.0 38:0.011235955056179775 39:0.13805635162758215 40:0.24000000000000005 41:0.08974358974358974 42:0.8846153846153846 43:0.024540769204455998 44:0.11206511096143948 45:0.028133592105129536 46:0.3514747510590719 47:0.5841303371121199 48:0.3837513500239308 49:0.04163229386422857 50:0.49361748048719234 51:0.003632624924071673 52:0.005340020455362654 
0.0 239.7249130592719 0.0 0.0 0.0 0.0 0.0 0.0 0.0 0:0.0 1:0.0 2:1.0 3:0.0 4:1.0 5:0.0 6:0.0 7:0.0 8:0.0 9:0.0 10:1.0 11:0.0 12:0.0 13:0.0 14:0.011494252873563218 15:0.0 16:0.0 17:0.0 18:0.0 19:0.0 20:0.0 21:6.644415651638168E-16 22:0.0 23:0.016722408026755852 24:0.012552301255230124 25:1.0 26:1.0 27:0.0 28:1.0 29:0.011732050333086603 30:0.0 31:1.0 32:0.6 33:0.0 34:0.9999999999999998 35:0.6 36:0.014948453608247423 37:0.0 38:0.05 39:0.0 40:0.18666666666666662 41:0.1388888888888889 42:0.8055555555555556 43:0.005058380178105163 44:0.022414883482632448 45:9.305290691695199E-4 46:0.05482694014396991 47:0.757807244646443 48:0.12431496465505792 49:0.011663239901439503 50:0.5892712243936553 51:9.516973464843454E-4 52:0.004868040559824644 
0.0 512.0 0.0 0.0 0.0 0.0 0.0 0.0 0.0 0:0.0 1:0.0 2:0.0 3:0.0 4:1.0 5:0.0 6:0.0 7:0.0 8:0.0 9:0.0 10:1.0 11:0.0 12:0.0 13:0.0 14:0.028735632183908046 15:0.0 16:0.0 17:0.0 18:0.0 19:0.0 20:0.0 21:6.644415651638168E-16 22:0.0 23:0.020066889632107024 24:0.02092050209205021 25:0.0 26:0.0 27:0.0038910505836575876 28:1.0 29:0.2838638045891932 30:0.0 31:1.0 32:0.7777777777777778 33:0.0 34:0.9999999999999998 35:0.5555555555555556 36:0.03814432989690722 37:0.0 38:0.011235955056179775 39:0.23007816913705786 40:0.24000000000000005 41:0.07407407407407407 42:0.9135802469135802 43:0.06189353599160787 44:0.05594765496922155 45:0.016103152816766067 46:0.23364042374161223 47:0.8104715498817217 48:0.3024241543399981 49:0.024878222845983115 50:0.7494744356798508 51:0.0017907613972254132 52:0.00421455488656668 
0.0 512.0 512.0 0.0 0.0 0.0 0.0 0.0 0.0 0:0.0 1:0.0 2:0.0 3:0.0 4:1.0 5:0.0 6:0.0 7:0.0 8:0.0 9:0.0 10:1.0 11:0.0 12:0.0 13:0.0 14:0.028735632183908046 15:0.0 16:0.0 17:0.0 18:0.0 19:0.0 20:0.0 21:6.644415651638168E-16 22:0.0 23:0.0033444816053511705 24:0.0041841004184100415 25:0.0 26:1.0 27:0.0 28:1.0 29:0.01193962604190133 30:0.0 31:1.0 32:1.0 33:0.0 34:0.9999999999999998 35:0.125 36:0.024742268041237116 37:0.0 38:0.0 39:0.0 40:0.16000000000000003 41:0.02040816326530612 42:0.9795918367346939 43:0.019140317670266062 44:0.021112673057941976 45:0.0010752795535015124 46:0.07559974065269148 47:0.6905312724176704 48:0.3814685253353447 49:0.03848370160960543 50:0.5761388610455669 51:8.343343670367629E-4 52:0.004868040559824644 
0.0 0.0 0.0 0.0 58.40107293329617 0.0 0.0 0.0 0.0 0:1.0 1:0.0 2:0.0 3:0.0 4:1.0 5:0.0 6:0.0 7:0.0 8:0.0 9:0.0 10:1.0 11:0.0 12:0.0 13:0.0 14:0.06321839080459771 15:0.0 16:0.0 17:0.0 18:0.0 19:0.0 20:0.0 21:6.644415651638168E-16 22:0.0 23:0.010033444816053512 24:0.012552301255230124 25:0.0 26:1.0 27:0.0 28:1.0 29:0.12273316062176166 30:0.0 31:1.0 32:0.5 33:0.0 34:0.9999999999999998 35:0.75 36:0.018556701030927835 37:0.0 38:0.0 39:0.3564882438137499 40:0.2935999999999998 41:0.07692307692307693 42:0.9230769230769231 43:0.023913638384967136 44:0.06366033101917928 45:0.02170574595925345 46:0.34769251410331603 47:0.863068834814813 48:0.47061520997727196 49:0.03581812623438003 50:0.46177025420088275 51:0.0029507737538123227 52:0.003502367503683094 
0.0 512.0 99.42187150683384 0.0 0.0 0.0 0.0 0.0 0.0 0:0.0 1:0.0 2:0.0 3:0.0 4:1.0 5:0.0 6:0.0 7:0.0 8:0.0 9:0.0 10:1.0 11:0.0 12:0.0 13:0.0 14:0.028735632183908046 15:0.0 16:0.0 17:0.0 18:0.0 19:0.0 20:0.0 21:6.644415651638168E-16 22:0.0 23:0.010033444816053512 24:0.012552301255230124 25:0.0 26:1.0 27:0.0 28:1.0 29:0.06007124352331606 30:0.0 31:1.0 32:1.0 33:0.0 34:0.9999999999999998 35:0.5 36:0.021134020618556702 37:0.0 38:0.0 39:0.0 40:0.2135999999999998 41:0.06818181818181818 42:0.9318181818181818 43:0.008638727038460274 44:0.02157064453409021 45:0.0014850854060326363 46:0.05884824075931158 47:0.9018649019641913 48:0.5508736628185242 49:0.041908719385069966 50:0.7657072653430539 51:8.380806248108382E-4 52:0.004868040559824644 
0.0 512.0 512.0 0.0 0.0 0.0 0.0 0.0 0.0 0:0.0 1:0.0 2:0.0 3:0.0 4:1.0 5:0.0 6:0.0 7:0.0 8:0.0 9:0.0 10:1.0 11:0.0 12:0.0 13:0.0 14:0.0574712643678161 15:0.0 16:0.0 17:0.0 18:0.0 19:0.0 20:0.0 21:6.644415651638168E-16 22:0.0 23:0.010033444816053512 24:0.012552301255230124 25:0.0 26:1.0 27:0.0 28:1.0 29:0.06007124352331606 30:0.0 31:1.0 32:0.8333333333333334 33:0.0 34:0.9999999999999998 35:0.5 36:0.024742268041237116 37:0.0 38:0.0 39:0.0 40:0.2135999999999998 41:0.058823529411764705 42:0.9411764705882353 43:0.008638727038460274 44:0.02157064453409021 45:0.0014801608838922238 46:0.051244710601528916 47:0.9018649019641913 48:0.5785394432513838 49:0.044008199338242675 50:0.8764047042416621 51:7.32223846192357E-4 52:0.004868040559824644 
0.0 512.0 0.0 0.0 153.78052104949086 4.977003696902213 0.0 0.0 0.0 0:1.0 1:0.0 2:0.0 3:0.0 4:1.0 5:0.0 6:0.0 7:0.0 8:0.0 9:0.0 10:1.0 11:0.0 12:0.0 13:0.0 14:0.06321839080459771 15:0.0 16:0.0 17:0.0 18:0.0 19:0.0 20:0.0 21:6.644415651638168E-16 22:0.0 23:0.010033444816053512 24:0.012552301255230124 25:0.0 26:0.0 27:0.0019455252918287938 28:1.0 29:0.06902294596595115 30:0.0 31:1.0 32:0.5 33:0.0 34:0.9999999999999998 35:0.75 36:0.018556701030927835 37:0.0 38:0.0 39:0.0 40:0.1864000000000001 41:0.07692307692307693 42:0.9230769230769231 43:0.030070922794494956 44:0.019377454234971718 45:7.20774414409093E-4 46:0.04206522269209075 47:0.8780615246374077 48:0.24145318956465955 49:0.019019637691422047 50:0.5957668465933262 51:9.399762838946525E-4 52:0.004868040559824644 
0.0 512.0 512.0 19.50614288855809 0.0 0.0 0.0 0.0 0.0 0:0.0 1:0.0 2:0.0 3:0.0 4:1.0 5:0.0 6:0.0 7:0.0 8:0.0 9:0.0 10:1.0 11:0.0 12:0.0 13:0.0 14:0.034482758620689655 15:0.0 16:0.0 17:0.0 18:0.0 19:0.0 20:0.0 21:6.644415651638168E-16 22:0.0 23:0.020066889632107024 24:0.025104602510460247 25:0.0 26:0.0 27:0.0019455252918287938 28:1.0 29:0.14063656550703182 30:0.0 31:1.0 32:0.9166666666666666 33:0.0 34:0.9999999999999998 35:0.5 36:0.04587628865979382 37:0.0 38:0.0 39:0.23040070670652163 40:0.15999999999999995 41:0.06315789473684211 42:0.9368421052631579 43:0.030070922794494956 44:0.03958655886629414 45:0.014325668529175883 46:0.3329377387123725 47:0.859966043046892 48:0.2854032029709297 49:0.02245297724078244 50:0.6159478939034538 51:0.0015622238241110391 52:0.004094464965958076 
87.79429212188478 512.0 0.0 0.0 25.332427536587833 0.0 0.0 0.0 0.0 0:0.0 1:0.0 2:0.0 3:0.0 4:1.0 5:0.0 6:0.0 7:0.0 8:0.0 9:0.0 10:1.0 11:0.0 12:0.0 13:0.0 14:0.05172413793103448 15:0.0 16:0.011834319526627219 17:0.1 18:0.0 19:0.0 20:0.0 21:6.644415651638168E-16 22:0.0 23:0.030100334448160536 24:0.012552301255230124 25:0.0 26:1.0 27:0.0 28:1.0 29:0.24805699481865284 30:0.0 31:1.0 32:0.6 33:0.0 34:0.9999999999999998 35:0.6 36:0.018556701030927835 37:0.0784313725490196 38:0.03636363636363636 39:0.06267500744712537 40:0.26640522875816997 41:0.17647058823529413 42:0.7058823529411765 43:0.10303759364203374 44:0.10362216700144791 45:0.016126899256680097 46:0.28449350515337996 47:0.579325974338671 48:0.3289410048939151 49:0.036474954945833686 50:0.47898261539068154 51:0.004232959255021586 52:0.005212541096589037 
46.05870605742279 512.0 0.0 0.0 0.0 4.662013190042823 50.91925148877404 0.0 2.518968739206154 0:1.0 1:0.0 2:0.0 3:0.0 4:1.0 5:0.0 6:0.0 7:0.0 8:0.0 9:0.0 10:1.0 11:0.0 12:0.0 13:0.0 14:0.08045977011494254 15:0.0 16:0.011834319526627219 17:0.2 18:1.0 19:1.0 20:0.0 21:6.644415651638168E-16 22:0.0 23:0.0033444816053511705 24:0.0041841004184100415 25:1.0 26:0.0 27:0.0019455252918287938 28:1.0 29:0.08095854922279792 30:0.0 31:1.0 32:0.5 33:0.0 34:0.9999999999999998 35:0.5 36:0.007216494845360825 37:0.21052631578947367 38:0.0 39:0.0 40:0.2935866666666668 41:0.05263157894736842 42:0.7368421052631579 43:0.012693697905383073 44:0.03176836033478044 45:5.794677995815751E-4 46:0.029104851123303233 47:0.832903493247084 48:0.1274435119917207 49:0.010596427539029977 50:0.4395149658720424 51:0.002006827207543217 52:0.004868040559824644 
512.0 512.0 0.0 0.0 0.0 0.0 0.0 0.0 0.0 0:0.0 1:0.0 2:0.0 3:0.0 4:1.0 5:0.0 6:0.0 7:0.0 8:0.0 9:0.0 10:1.0 11:0.0 12:0.0 13:0.0 14:0.05172413793103448 15:0.0 16:0.0 17:0.0 18:0.0 19:0.0 20:0.0 21:6.644415651638168E-16 22:0.0 23:0.026755852842809364 24:0.008368200836820083 25:0.0 26:0.0 27:0.0019455252918287938 28:1.0 29:0.08095854922279792 30:0.0 31:1.0 32:0.6666666666666666 33:0.0 34:0.9999999999999998 35:0.6666666666666666 36:0.01134020618556701 37:0.0 38:0.058823529411764705 39:0.0 40:0.20000000000000004 41:0.25 42:0.6875 43:0.012693697905383073 44:0.021641555248726393 45:5.216806772217081E-4 46:0.033722331005419444 47:0.8416148914146993 48:0.1661901384980467 49:0.01374707130106268 50:0.5013063879152372 51:0.0011985994581945457 52:0.004868040559824644 
396.7312865927692 512.0 0.0 0.0 0.0 0.0 29.107330090057413 0.0 0.0 0:0.0 1:0.0 2:0.0 3:0.0 4:1.0 5:0.0 6:0.0 7:0.0 8:0.0 9:0.0 10:1.0 11:0.0 12:0.0 13:0.0 14:0.028735632183908046 15:0.0 16:0.0 17:0.0 18:0.0 19:1.0 20:0.0 21:0.1760331109829658 22:0.0 23:0.14381270903010032 24:0.03347280334728033 25:0.0 26:1.0 27:0.0 28:1.0 29:0.06007124352331606 30:0.0 31:1.0 32:0.75 33:0.0 34:0.9999999999999998 35:1.0 36:0.0 37:0.0 38:0.0 39:0.12395509126580585 40:0.1527813953488372 41:1.0 42:0.0 43:0.018242380360543223 44:0.06047564525362635 45:0.01353311474302453 46:0.45991852812197154 47:0.578463398227189 48:0.14023585012040587 49:0.01693353871177437 50:0.35163314053994604 51:0.0025207706093208293 52:0.003590504922869875 
0.0 40.79316704876017 0.0 0.0 91.5068862790309 30.470583747886593 0.0 0.0 0.0 0:1.0 1:0.0 2:1.0 3:0.0 4:1.0 5:0.0 6:0.0 7:0.0 8:0.0 9:0.0 10:1.0 11:0.0 12:6.134969325153375E-4 13:0.0 14:0.028735632183908046 15:0.0 16:0.0 17:0.0 18:0.0 19:0.0 20:0.0 21:0.43011646120038033 22:0.0 23:0.020066889632107024 24:0.012552301255230124 25:0.0 26:1.0 27:0.0 28:1.0 29:0.2838638045891932 30:0.042222222222222223 31:1.0 32:0.75 33:0.0 34:0.9999999999999998 35:0.75 36:0.009278350515463918 37:0.0 38:0.03571428571428571 39:1.6435035386647264E-5 40:0.22673333333333331 41:0.24 42:0.72 43:0.020196462982178188 44:0.17775310339701164 45:0.015267919992430521 46:0.46124702946809565 47:0.21966152265162112 48:0.6110715744473986 49:0.1645268082442797 50:0.267794995673044 51:0.0036445596535189507 52:0.011330093751421308 
0.0 512.0 0.0 0.0 0.0 0.0 0.0 0.0 0.0 0:1.0 1:0.0 2:0.0 3:0.0 4:1.0 5:0.0 6:0.0 7:0.0 8:0.0 9:0.0 10:1.0 11:0.0 12:6.134969325153375E-4 13:0.0 14:0.028735632183908046 15:0.0 16:0.0 17:0.0 18:0.0 19:0.0 20:0.0 21:6.644415651638168E-16 22:0.0 23:0.020066889632107024 24:0.012552301255230124 25:0.0 26:0.0 27:0.0019455252918287938 28:1.0 29:0.14063656550703182 30:0.042222222222222223 31:1.0 32:0.75 33:0.0 34:0.9999999999999998 35:0.75 36:0.009278350515463918 37:0.0 38:0.03571428571428571 39:0.0 40:0.30137333333333355 41:0.24 42:0.72 43:0.07787111891540575 44:0.059135016626245686 45:0.0016312655148684656 46:0.05187074047138974 47:0.4463353546987437 48:0.34130985523734114 49:0.052132621753641355 50:0.6763063360332708 51:0.0013387783652501722 52:0.004868040559824644 
0.0 327.23004494740036 43.298874777258554 0.0 0.0 0.0 0.0 0.0 0.0 0:1.0 1:0.0 2:1.0 3:0.0 4:1.0 5:0.0 6:0.0 7:0.0 8:0.0 9:0.0 10:1.0 11:0.0 12:0.0 13:0.0 14:0.034482758620689655 15:0.0 16:0.0 17:0.0 18:1.0 19:0.0 20:0.0 21:1.7533469445755397E-5 22:0.0 23:0.020066889632107024 24:0.02092050209205021 25:0.0 26:1.0 27:0.0 28:1.0 29:0.08334566987416729 30:0.0 31:1.0 32:0.5833333333333334 33:0.0 34:0.5121344837197677 35:0.4166666666666667 36:0.04639175257731959 37:0.0 38:0.0 39:0.11793370517600896 40:0.18640000000000018 41:0.06060606060606061 42:0.9090909090909091 43:0.025488591920274545 44:0.09273370555293163 45:0.009534681169766452 46:0.20703908921127462 47:0.5340413490442161 48:0.2158359373238078 49:0.02677437413244454 50:0.44561974392444875 51:0.0034614263520376903 52:0.004952235395850043 
15.860272329513457 512.0 0.0 0.0 0.0 0.0 0.0 0.0 0.0 0:1.0 1:0.0 2:0.0 3:0.0 4:1.0 5:0.0 6:0.0 7:0.0 8:0.0 9:0.0 10:1.0 11:0.0 12:0.0 13:0.0 14:0.040229885057471264 15:0.0 16:0.0 17:0.0 18:1.0 19:0.5 20:0.0 21:6.644415651638168E-16 22:0.0 23:0.013377926421404682 24:0.016736401673640166 25:0.0 26:1.0 27:0.0 28:1.0 29:0.004183587732810532 30:0.0 31:1.0 32:0.5 33:0.0 34:0.9999999999999998 35:0.6666666666666666 36:0.018041237113402064 37:0.0 38:0.0 39:0.0 40:0.2666666666666667 41:0.10256410256410256 42:0.8974358974358975 43:0.005739672295640873 44:0.026396751087876102 45:9.309047783077171E-4 46:0.026380359191021784 47:0.9155333202602375 48:0.0438071802479283 49:0.003327344122863343 50:0.8576338087796738 51:9.341447111709042E-4 52:0.004868040559824644 
512.0 512.0 0.0 0.0 0.0 0.0 273.9909732849263 0.0 0.0 0:0.0 1:0.0 2:0.0 3:0.0 4:1.0 5:0.0 6:0.0 7:0.0 8:0.0 9:0.0 10:1.0 11:0.0 12:0.0 13:0.0 14:0.05172413793103448 15:0.0 16:0.0 17:0.0 18:0.0 19:0.0 20:0.0 21:6.644415651638168E-16 22:0.0 23:0.006688963210702341 24:0.008368200836820083 25:0.0 26:1.0 27:0.0 28:1.0 29:0.004183587732810532 30:0.0 31:1.0 32:1.0 33:0.0 34:0.9999999999999998 35:0.6666666666666666 36:0.011855670103092783 37:0.0 38:0.0 39:0.0 40:0.16000000000000003 41:0.08 42:0.92 43:0.005739672295640873 44:0.01583805065272566 45:3.070397543422201E-4 46:0.04239380327520966 47:0.925462253917585 48:0.07391114775213184 49:0.005566644813177783 50:0.2933717674940803 51:0.0016385095814151036 52:0.004868040559824644 
0.0 512.0 0.0 0.0 0.0 0.0 0.0 0.0 0.0 0:0.0 1:0.0 2:1.0 3:0.0 4:1.0 5:0.0 6:0.0 7:0.0 8:0.0 9:0.0 10:1.0 11:0.0 12:0.0 13:0.0 14:0.034482758620689655 15:0.0 16:0.011834319526627219 17:0.1 18:0.0 19:0.0 20:0.0 21:6.644415651638168E-16 22:0.0 23:0.030100334448160536 24:0.02092050209205021 25:0.0 26:1.0 27:0.0 28:1.0 29:0.05470022205773501 30:0.0 31:1.0 32:0.6363636363636364 33:0.0 34:0.9999999999999998 35:0.45454545454545453 36:0.0288659793814433 37:0.05333333333333334 38:0.011764705882352941 39:0.41095805984407263 40:0.16000000000000003 41:0.12 42:0.7466666666666667 43:0.035575421032827466 44:0.040807139781579065 45:0.013304043826922515 46:0.35845938815107825 47:0.7299106644194181 48:0.18860366805574003 49:0.01782246441311789 50:0.5134778972446525 51:0.001389983439287014 52:0.003466667636280666 
314.41894770967 512.0 37.4096104878074 0.0 0.0 0.0 0.0 0.0 0.0 0:0.0 1:0.0 2:0.0 3:0.0 4:1.0 5:0.0 6:0.0 7:0.0 8:0.0 9:0.0 10:1.0 11:0.0 12:0.0 13:0.0 14:0.04597701149425287 15:0.0 16:0.0 17:0.0 18:0.0 19:0.0 20:0.0 21:0.003150180010286973 22:0.0 23:0.046822742474916385 24:0.03347280334728033 25:0.0 26:1.0 27:0.0 28:1.0 29:0.013074805699481865 30:0.0 31:1.0 32:0.6428571428571429 33:0.0 34:0.9999999999999998 35:0.5714285714285714 36:0.04690721649484536 37:0.0 38:0.024793388429752067 39:0.30179860918513046 40:0.1466666666666667 41:0.12962962962962962 42:0.8425925925925926 43:0.01564691394624916 44:0.03306741178693882 45:0.012235008708727532 46:0.3170310602215674 47:0.8890404430290199 48:0.16041040727496886 49:0.012312556177525512 50:0.6122144675976366 51:0.001281451157244532 52:0.00389189285299321 
0.0 512.0 0.0 0.0 0.0 0.0 0.0 0.0 0.0 0:1.0 1:0.0 2:0.0 3:0.0 4:1.0 5:0.0 6:0.0 7:0.0 8:0.0 9:0.0 10:1.0 11:0.0 12:0.0 13:0.0 14:0.0574712643678161 15:0.0 16:0.0 17:0.0 18:0.0 19:0.0 20:0.0 21:6.644415651638168E-16 22:1.0 23:0.013377926421404682 24:0.008368200836820083 25:1.0 26:0.0 27:0.0019455252918287938 28:1.0 29:0.03751295336787565 30:0.0 31:1.0 32:0.3333333333333333 33:0.0 34:0.9999999999999998 35:0.3333333333333333 36:0.024742268041237116 37:0.0 38:0.0 39:0.245017616303555 40:0.18666666666666676 41:0.07142857142857142 42:0.8571428571428571 43:0.016673128014503817 44:0.04588939761226141 45:0.011040493099815642 46:0.3189433020842898 47:0.7947850758198196 48:0.1277216607737548 49:0.011021598813367015 50:0.4225454122852345 51:0.0022584223942493284 52:0.0037652687274269906 
0.0 0.0 0.0 0.0 0.0 0.0 70.393825441084 0.0 0.0 0:1.0 1:0.0 2:1.0 3:0.0 4:1.0 5:0.0 6:0.0 7:0.0 8:0.0 9:0.0 10:1.0 11:0.0 12:0.0 13:0.0 14:0.034482758620689655 15:0.0 16:0.0 17:0.0 18:1.0 19:0.0 20:0.0 21:6.644415651638168E-16 22:0.0 23:0.013377926421404682 24:0.016736401673640166 25:0.0 26:1.0 27:0.0 28:1.0 29:0.033216136195410806 30:0.0 31:1.0 32:0.8333333333333334 33:0.0 34:0.9999999999999998 35:0.6666666666666666 36:0.015463917525773196 37:0.0 38:0.0 39:0.0 40:0.2111999999999998 41:0.11764705882352941 42:0.8823529411764706 43:0.019114662318559655 44:0.03270058526615673 45:0.0014021239611790332 46:0.07881681638301029 47:0.5815314387273093 48:0.12225014847130933 49:0.015290545187559151 50:0.5459082768338718 51:0.0011623088777140147 52:0.004868040559824644 
0.0 512.0 0.0 0.0 0.0 0.0 0.0 0.0 0.0 0:0.0 1:0.0 2:0.0 3:0.0 4:1.0 5:0.0 6:0.0 7:0.0 8:0.0 9:0.0 10:1.0 11:0.0 12:0.0 13:0.0 14:0.022988505747126436 15:0.0 16:0.0 17:0.0 18:0.0 19:0.0 20:0.0 21:6.644415651638168E-16 22:0.0 23:0.013377926421404682 24:0.016736401673640166 25:0.0 26:1.0 27:0.0 28:1.0 29:0.10880829015544041 30:0.0 31:1.0 32:0.8181818181818182 33:0.0 34:0.9999999999999998 35:0.36363636363636365 36:0.03917525773195876 37:0.0 38:0.0 39:0.21546331391944776 40:0.18500000000000003 41:0.05 42:0.95 43:0.02914020364648065 44:0.04912140195820847 45:0.013787462178775358 46:0.28566169905513966 47:0.7456219608154631 48:0.3138432894726951 49:0.028417387317331587 50:0.6471133911505966 51:0.0016445606830796963 52:0.004167222333949707 
0.0 0.0 0.0 0.0 0.0 0.0 6.943493488204854 0.0 0.0 0:1.0 1:0.0 2:0.0 3:0.0 4:1.0 5:0.0 6:0.0 7:0.0 8:0.0 9:0.0 10:1.0 11:0.0 12:0.0 13:0.0 14:0.034482758620689655 15:0.0 16:0.0 17:0.0 18:0.0 19:0.0 20:0.0 21:6.644415651638168E-16 22:0.0 23:0.006688963210702341 24:0.008368200836820083 25:1.0 26:1.0 27:0.0 28:1.0 29:0.014695372520993387 30:0.0 31:1.0 32:0.3333333333333333 33:0.0 34:0.9999999999999998 35:0.6666666666666666 36:0.009278350515463918 37:0.0 38:0.0 39:0.0 40:0.2666666666666667 41:0.09523809523809523 42:0.8571428571428571 43:0.011899807299802766 44:0.03214804704748904 45:9.011930165520755E-4 46:0.05705070282264225 47:0.7480880597126071 48:0.12045596353494528 49:0.011352848383002977 50:0.3835114960061262 51:0.002091189721131598 52:0.004868040559824644 
0.0 397.2133742607725 0.0 0.0 0.0 0.0 0.0 0.0 0.0 0:0.0 1:0.0 2:0.0 3:0.0 4:1.0 5:0.0 6:0.0 7:0.0 8:0.0 9:0.0 10:1.0 11:0.0 12:0.0 13:0.0 14:0.034482758620689655 15:0.0 16:0.0 17:0.0 18:0.0 19:0.0 20:0.0 21:6.644415651638168E-16 22:0.0 23:0.03678929765886287 24:0.04184100418410042 25:0.0 26:1.0 27:0.0 28:1.0 29:0.06655351080936216 30:0.0 31:1.0 32:0.7647058823529411 33:0.0 34:0.9999999999999998 35:0.5882352941176471 36:0.06494845360824743 37:0.0 38:0.012903225806451613 39:0.42691647920454423 40:0.2266666666666667 41:0.07913669064748201 42:0.9064748201438849 43:0.011899807299802766 44:0.12556701858616673 45:0.043585628604087386 46:0.34841381919198106 47:0.6758811308062543 48:0.156001373202996 49:0.014569622379991227 50:0.6095311322927887 51:0.004028508528290397 52:0.004158906506704294 
0.0 17.519305117181638 0.0 0.0 0.0 30.68512890813977 0.0 0.0 0.0 0:1.0 1:0.0 2:1.0 3:0.0 4:1.0 5:0.0 6:0.0 7:1.0 8:0.0 9:0.0 10:1.0 11:0.0 12:0.0 13:0.0 14:0.04597701149425287 15:0.0 16:0.0 17:0.0 18:0.0 19:0.0 20:0.0 21:0.1841014291725767 22:0.0 23:0.020066889632107024 24:0.025104602510460247 25:0.0 26:1.0 27:0.0 28:1.0 29:0.6658031088082901 30:0.0 31:1.0 32:0.75 33:0.0 34:0.9999999999999998 35:0.5 36:0.0443298969072165 37:0.0 38:0.01904761904761905 39:0.12942590367014883 40:0.16000000000000003 41:0.06382978723404255 42:0.9148936170212766 43:0.07867641189952232 44:0.3707865168539322 45:0.032703981058476675 46:0.5254859328174765 47:0.08340304272171935 48:0.41143717721585604 49:0.22796935840267013 50:0.63318412079782 51:0.0020764886745826268 52:0.004034897690696691 
0.0 512.0 0.0 0.0 0.0 0.0 0.0 0.0 0.0 0:1.0 1:0.0 2:0.0 3:0.0 4:1.0 5:0.0 6:0.0 7:0.0 8:0.0 9:0.0 10:1.0 11:0.0 12:0.0 13:0.0 14:0.034482758620689655 15:0.0 16:0.0 17:0.0 18:0.0 19:0.0 20:0.0 21:6.644415651638168E-16 22:0.0 23:0.013377926421404682 24:0.016736401673640166 25:0.0 26:0.0 27:0.005836575875486381 28:1.0 29:0.02779086198775318 30:0.0 31:1.0 32:0.75 33:0.0 34:0.9999999999999998 35:0.5 36:0.030412371134020618 37:0.0 38:0.014084507042253521 39:0.0 40:0.18640000000000015 41:0.0625 42:0.921875 43:0.014446813605318066 44:0.01974905422090121 45:0.0017271488265780143 46:0.06005233852775647 47:0.8612133653375962 48:0.12192438863649463 49:0.009900422694667524 50:0.9999999999999999 51:5.600067065284303E-4 52:0.004868040559824644 
0.0 512.0 0.0 0.0 0.0 0.0 0.0 0.0 0.0 0:1.0 1:0.0 2:0.0 3:0.0 4:1.0 5:0.0 6:0.0 7:0.0 8:0.0 9:0.0 10:1.0 11:0.0 12:0.0 13:0.0 14:0.034482758620689655 15:0.0 16:0.0 17:0.0 18:0.0 19:0.0 20:0.0 21:6.644415651638168E-16 22:0.0 23:0.006688963210702341 24:0.008368200836820083 25:0.0 26:0.0 27:0.005836575875486381 28:1.0 29:0.02779086198775318 30:0.0 31:1.0 32:0.6 33:0.0 34:0.9999999999999998 35:0.4 36:0.021134020618556702 37:0.0 38:0.0 39:0.0 40:0.1864000000000003 41:0.046511627906976744 42:0.9534883720930233 43:0.013898074138265252 44:0.019749054220901247 45:9.45613534902549E-4 46:0.04957397608758882 47:0.8612133653375962 48:0.15213986623800013 49:0.012306096780830637 50:0.6632237793729753 51:8.443706693657346E-4 52:0.004868040559824644 
0.0 59.54996837346161 0.0 0.0 0.0 0.0 0.0 0.0 0.0 0:1.0 1:0.0 2:0.0 3:0.0 4:1.0 5:0.25 6:0.0 7:0.0 8:0.0 9:0.0 10:1.0 11:0.0 12:0.0 13:0.0 14:0.04597701149425287 15:0.0 16:0.0029585798816568047 17:0.0 18:0.0 19:0.0 20:0.0 21:0.1651652821719688 22:0.0 23:0.5083612040133779 24:0.06694560669456066 25:0.0 26:1.0 27:0.0 28:1.0 29:0.2122501850481125 30:0.0 31:1.0 32:0.6666666666666666 33:0.0 34:0.9999999999999998 35:0.8888888888888888 36:0.0 37:0.00641025641025641 38:0.0 39:0.1676373609441927 40:0.19784615384615364 41:0.9743589743589743 42:0.0 43:0.026534760150967483 44:0.23715081949451966 45:0.06381342982114756 46:0.3942690723309708 47:0.47189367104946345 48:0.11784863193398604 49:0.014314831823049448 50:0.5485404219318215 51:0.007113679581326525 52:0.008168398485913955 
0.0 0.0 312.32732049497463 0.0 0.0 0.0 0.0 0.0 0.0 0:0.0 1:0.0 2:0.0 3:0.0 4:1.0 5:0.0 6:0.0 7:0.0 8:0.0 9:0.0 10:1.0 11:0.0 12:0.0 13:0.0 14:0.034482758620689655 15:0.0 16:0.0 17:0.0 18:0.0 19:0.5 20:0.0 21:6.644415651638168E-16 22:0.0 23:0.026755852842809364 24:0.03347280334728033 25:0.0 26:1.0 27:0.0 28:1.0 29:0.03918393782383419 30:0.0 31:1.0 32:0.8461538461538461 33:0.0 34:0.9999999999999998 35:0.6153846153846154 36:0.042783505154639176 37:0.0 38:0.0 39:0.5417768327632431 40:0.1866666666666667 41:0.08791208791208792 42:0.9120879120879121 43:0.02295013739866135 44:0.07368421052631577 45:0.0243478755122955 46:0.3749402078622124 47:0.717782471956968 48:0.1176794874043707 49:0.011069494420564496 50:0.49668612586288347 51:0.0026857825991050827 52:0.0035239149750334047 
512.0 281.57784834950803 0.0 0.0 1.1649878755591725 0.0 120.64492614380545 0.0 0.0 0:0.0 1:0.0 2:0.0 3:0.0 4:1.0 5:0.0 6:0.0 7:0.0 8:0.0 9:0.0 10:1.0 11:0.0 12:0.0 13:0.0 14:0.04597701149425287 15:0.0 16:0.0 17:0.0 18:0.0 19:0.5 20:0.0 21:6.644415651638168E-16 22:1.0 23:0.006688963210702341 24:0.008368200836820083 25:1.0 26:1.0 27:0.0 28:1.0 29:0.02975096105632626 30:0.0 31:1.0 32:1.0 33:0.0 34:0.9999999999999998 35:1.0 36:0.007731958762886598 37:0.0 38:0.0 39:0.0 40:0.16000000000000017 41:0.11764705882352941 42:0.8823529411764706 43:0.04005227990558831 44:0.02001364263306156 45:1.7275789281528015E-4 46:0.03370112736867383 47:0.729269007081812 48:0.12760138021936165 49:0.012529208610100694 50:0.20764408140903118 51:0.0023149826794669624 52:0.004868040559824644 
512.0 512.0 0.0 0.0 0.0 0.0 0.0 0.0 0.0 0:0.0 1:0.0 2:0.0 3:0.0 4:1.0 5:0.0 6:0.0 7:0.0 8:0.0 9:0.0 10:1.0 11:0.0 12:0.0 13:0.0 14:0.040229885057471264 15:0.0 16:0.0029585798816568047 17:0.0 18:0.0 19:0.0 20:0.0 21:6.644415651638168E-16 22:0.0 23:0.020066889632107024 24:0.025104602510460247 25:0.0 26:1.0 27:0.0 28:1.0 29:0.04753886010362694 30:0.0 31:1.0 32:0.7777777777777778 33:0.0 34:0.9999999999999998 35:0.6666666666666666 36:0.0288659793814433 37:0.015151515151515152 38:0.013513513513513514 39:0.0 40:0.16000000000000003 41:0.09090909090909091 42:0.8484848484848485 43:0.041355001653344894 44:0.016354723039579792 45:0.0013654636296894411 46:0.06001891636265363 47:0.8957548844148011 48:0.11989841304843549 49:0.009336088005289412 50:0.9215482408900453 51:5.216139867962576E-4 52:0.004868040559824644 
242.24440852561153 0.0 0.0 0.0 0.0 0.0 0.0 0.0 0.0 0:0.0 1:0.0 2:0.0 3:0.0 4:1.0 5:0.0 6:0.0 7:0.0 8:0.0 9:0.0 10:1.0 11:0.0 12:6.134969325153375E-4 13:0.0 14:0.0 15:0.0 16:0.0 17:0.0 18:0.0 19:0.0 20:0.046511627906976744 21:6.644415651638168E-16 22:0.0 23:0.043478260869565216 24:0.05439330543933054 25:0.0 26:1.0 27:0.0 28:1.0 29:0.14063656550703182 30:0.029320987654320986 31:1.0 32:0.0 33:0.16666666666666666 34:0.9999999999999998 35:0.3611111111111111 36:0.010309278350515464 37:0.0 38:0.04225352112676056 39:0.123796904050209 40:0.30666666666666675 41:0.3611111111111111 42:0.5555555555555556 43:0.012648088391238448 44:0.0514878770567568 45:0.01553412979953696 46:0.3010329131652661 47:0.9602842653706098 48:0.4468272245011489 49:0.030814735282775296 50:0.5346872451298397 51:0.0028171135689515855 52:0.005512716371932436 
419.0569647695339 512.0 508.762446685899 0.0 55.940863901759634 0.0 0.0 105.12473181380302 0.0 0:0.0 1:0.0 2:0.0 3:0.0 4:1.0 5:0.0 6:0.0 7:0.0 8:0.0 9:0.0 10:1.0 11:0.0 12:6.134969325153375E-4 13:0.0 14:0.0 15:0.0 16:0.0 17:0.0 18:0.0 19:0.0 20:0.023255813953488372 21:6.644415651638168E-16 22:0.0 23:0.046822742474916385 24:0.05857740585774058 25:0.0 26:1.0 27:0.0 28:1.0 29:0.06902294596595115 30:0.0202991452991453 31:1.0 32:0.0 33:0.057692307692307696 34:0.9999999999999998 35:0.28 36:0.018556701030927835 37:0.0 38:0.019801980198019802 39:0.0 40:0.1466666666666667 41:0.2692307692307692 42:0.6923076923076923 43:0.05180528158173793 44:0.013484920181531544 45:0.005581863702455503 46:0.3088907947398518 47:0.9987588832928316 48:0.544989939032794 49:0.03759693306559328 50:0.798525722041327 51:5.518103368037596E-4 52:0.004868040559824644 
440.52790534764716 512.0 0.0 0.0 62.485006545265165 104.24828217424701 0.0 0.0 0.0 0:0.0 1:0.0 2:0.0 3:0.0 4:1.0 5:0.0 6:0.0 7:0.0 8:0.0 9:0.0 10:1.0 11:0.0 12:6.134969325153375E-4 13:0.0 14:0.0 15:0.0 16:0.0 17:0.0 18:0.0 19:0.0 20:0.046511627906976744 21:6.644415651638168E-16 22:0.0 23:0.043478260869565216 24:0.05439330543933054 25:0.0 26:0.0 27:0.007782101167315175 28:1.0 29:0.053108808290155435 30:0.03015873015873016 31:1.0 32:0.0 33:0.17142857142857143 34:0.9999999999999997 35:0.38235294117647056 36:0.00979381443298969 37:0.0 38:0.04411764705882353 39:0.0 40:0.13333333333333336 41:0.37142857142857144 42:0.5428571428571428 43:0.011402378536162645 44:0.013314604123532896 45:0.003258849831600988 46:0.3345605960990585 47:0.9197357414307098 48:0.1003628463390859 49:0.00761559073738918 50:0.4734748258322386 51:8.460366242119443E-4 52:0.004868040559824644 
0.0 512.0 54.76316939600449 12.967825928754737 0.0 54.7918530303938 0.0 0.0 0.0 0:0.0 1:0.0 2:0.0 3:0.0 4:1.0 5:0.0 6:0.0 7:0.0 8:0.0 9:0.0 10:1.0 11:0.0 12:0.0 13:0.0 14:0.0 15:0.0 16:0.0 17:0.0 18:0.0 19:0.0 20:0.0 21:6.644415651638168E-16 22:0.0 23:0.020066889632107024 24:0.025104602510460247 25:0.0 26:0.0 27:0.007782101167315175 28:1.0 29:0.053108808290155435 30:0.0 31:1.0 32:0.0 33:0.0 34:0.4123390710216328 35:0.2857142857142857 36:0.008247422680412371 37:0.0 38:0.0 39:0.0 40:0.13333333333333336 41:0.2727272727272727 42:0.7272727272727273 43:0.011402378536162645 44:0.013314604123532896 45:0.0017534516256236389 46:0.29927858340013147 47:0.9197357414307098 48:0.1229154502877963 49:0.009307952278654922 50:0.28479049024307734 51:0.0014065674838880356 52:0.004868040559824644 
0.0 512.0 0.0 39.79520832456542 0.0 0.0 0.0 0.0 0.0 0:0.0 1:0.0 2:0.0 3:0.0 4:1.0 5:0.0 6:0.0 7:0.0 8:0.0 9:0.0 10:1.0 11:0.0 12:0.0 13:0.0 14:0.0 15:0.0 16:0.0 17:0.0 18:0.0 19:0.0 20:0.023255813953488372 21:6.644415651638168E-16 22:0.0 23:0.020066889632107024 24:0.025104602510460247 25:0.0 26:0.0 27:0.007782101167315175 28:1.0 29:0.053108808290155435 30:0.0 31:1.0 32:0.0 33:0.14285714285714285 34:0.33809784481884714 35:0.2857142857142857 36:0.007216494845360825 37:0.0 38:0.024390243902439025 39:0.0 40:0.13333333333333336 41:0.2857142857142857 42:0.6666666666666666 43:0.011402378536162645 44:0.013314604123532896 45:0.0016740403759606254 46:0.2676998702806037 47:0.9197357414307098 48:0.1229154502877963 49:0.009307952278654922 50:0.30396606504338375 51:0.0013178347498733875 52:0.004868040559824644 
59.25225748002004 512.0 0.0 11.45557194899474 0.0 36.767457618526365 42.779934011779325 0.0 28.990697560560655 0:0.0 1:0.0 2:1.0 3:0.0 4:1.0 5:0.0 6:0.0 7:0.0 8:0.0 9:0.0 10:1.0 11:0.0 12:6.134969325153375E-4 13:0.0 14:0.0 15:0.0 16:0.0 17:0.0 18:0.0 19:0.0 20:0.0 21:6.644415651638168E-16 22:0.0 23:0.010033444816053512 24:0.012552301255230124 25:0.0 26:0.0 27:0.007782101167315175 28:1.0 29:0.053108808290155435 30:0.21111111111111114 31:1.0 32:0.0 33:0.0 34:0.290700079070616 35:0.6 36:5.154639175257732E-4 37:0.0 38:0.1111111111111111 39:0.0 40:0.13333333333333336 41:0.6 42:0.2 43:0.01154490826786463 44:0.013314604123532896 45:1.9682035534757466E-4 46:0.15542818610923645 47:0.9197357414307098 48:0.1229154502877963 49:0.009307952278654922 50:0.06155276499752009 51:0.00650786432279012 52:0.004868040559824644 
0.0 93.95841883605297 0.0 0.0 0.0 0.0 0.0 0.0 0.0 0:1.0 1:0.0 2:0.0 3:0.0 4:1.0 5:0.0 6:0.0 7:0.0 8:0.0 9:0.0 10:1.0 11:0.0 12:0.0 13:0.0 14:0.0 15:0.0 16:0.0 17:0.0 18:0.0 19:0.0 20:0.046511627906976744 21:6.644415651638168E-16 22:0.0 23:0.043478260869565216 24:0.05439330543933054 25:0.0 26:0.0 27:0.011673151750972763 28:1.0 29:0.021862757487678505 30:0.0 31:1.0 32:0.0 33:0.17142857142857143 34:0.9999999999999998 35:0.37142857142857144 36:0.010309278350515464 37:0.0 38:0.028985507246376812 39:0.11354965948661068 40:0.32 41:0.37142857142857144 42:0.5714285714285714 43:0.024364032337145545 44:0.05857755068622267 45:0.016217109240859107 46:0.2949569495694954 47:0.8776445094237992 48:0.11457599851653985 49:0.008680965886986547 50:0.550040156642033 51:0.002901811963856096 52:0.0054347155198568 
0.0 0.0 0.0 0.0 0.0 203.957341412486 0.0 3.7543299528523435 0.0 0:0.0 1:0.0 2:0.0 3:0.0 4:1.0 5:0.0 6:0.0 7:0.0 8:0.0 9:0.0 10:1.0 11:0.0 12:6.134969325153375E-4 13:0.0 14:0.0 15:0.0 16:0.0 17:0.0 18:0.0 19:0.0 20:0.023255813953488372 21:0.6701564764739806 22:0.0 23:0.046822742474916385 24:0.05857740585774058 25:0.0 26:0.0 27:0.011673151750972763 28:1.0 29:0.034089473019082515 30:0.019916142557651992 31:1.0 32:0.0 33:0.05660377358490566 34:0.9999999999999998 35:0.27450980392156865 36:0.01907216494845361 37:0.0 38:0.019417475728155338 39:0.7110946760757243 40:0.1866666666666667 41:0.2641509433962264 42:0.6981132075471698 43:0.033907823171913695 44:0.04526447098480844 45:0.04031017499023163 46:0.6628114053881927 47:0.8900556764954837 48:0.1995116108322663 49:0.01505385775978587 50:0.32588792526783195 51:0.0015664330820009532 52:0.0023644908967811206 
73.0201818807974 175.7968373116871 0.0 0.0 0.0 0.0 75.13454948653366 0.0 1.5743167692269082 0:1.0 1:0.0 2:0.0 3:0.0 4:1.0 5:0.0 6:0.0 7:0.0 8:0.0 9:0.0 10:1.0 11:0.0 12:0.0 13:0.0 14:0.0574712643678161 15:0.0 16:0.0029585798816568047 17:0.0 18:0.0 19:0.0 20:0.023255813953488372 21:0.02594953477861136 22:0.0 23:0.13377926421404682 24:0.0041841004184100415 25:0.0 26:1.0 27:0.0 28:1.0 29:0.09766839378238343 30:0.0 31:1.0 32:0.25 33:0.06521739130434782 34:0.9999999999999998 35:0.25 36:0.0010309278350515464 37:0.021739130434782608 38:0.04081632653061224 39:0.01844216408328449 40:0.18719999999999973 41:0.8695652173913043 42:0.043478260869565216 43:0.019425377133670114 44:0.05658686515906133 45:0.0027340063665432547 46:0.1386925535383995 47:0.6232379245549976 48:0.29797001506012777 49:0.03236791097277117 50:0.29959656582887667 51:0.0037926457601562555 52:0.004584503150168663 
0.0 512.0 0.0 0.0 0.0 0.0 0.0 0.0 0.0 0:1.0 1:0.0 2:0.0 3:0.0 4:1.0 5:0.0 6:0.0 7:0.0 8:0.0 9:0.0 10:1.0 11:0.0 12:0.0 13:0.0 14:0.022988505747126436 15:0.0 16:0.0 17:0.0 18:1.0 19:0.0 20:0.0 21:0.0655897869488652 22:0.0 23:0.020066889632107024 24:0.025104602510460247 25:0.0 26:0.0 27:0.0019455252918287938 28:1.0 29:0.048824232762056594 30:0.0 31:1.0 32:0.8461538461538461 33:0.0 34:1.0 35:0.46153846153846156 36:0.042783505154639176 37:0.0 38:0.019417475728155338 39:0.0463447454110299 40:0.2671999999999996 41:0.06593406593406594 42:0.9120879120879121 43:0.04155739387236179 44:0.0624355154704907 45:0.014200023742560674 46:0.17156215054101331 47:0.8030049917713962 48:0.12176777333129526 49:0.010186755341131669 50:0.8870695612653388 51:0.0018483469200885584 52:0.00462458876389006 
0.0 512.0 0.0 0.0 62.153880314560965 5.894469326887072 0.0 0.0 0.0 0:0.0 1:0.0 2:0.0 3:0.0 4:1.0 5:0.0 6:0.0 7:0.0 8:0.0 9:0.0 10:1.0 11:0.0 12:0.0 13:0.0 14:0.04597701149425287 15:0.0 16:0.0 17:0.0 18:0.0 19:0.5 20:0.023255813953488372 21:0.0033050589903845288 22:0.0 23:0.030100334448160536 24:0.02092050209205021 25:0.0 26:0.0 27:0.0019455252918287938 28:1.0 29:0.15165404543642885 30:0.0 31:1.0 32:0.5555555555555556 33:0.04 34:1.0 35:0.5555555555555556 36:0.031958762886597936 37:0.0 38:0.04819277108433735 39:0.01349521843189222 40:0.2664000000000003 41:0.12 42:0.8266666666666667 43:0.021279688943113547 44:0.06589932163139825 45:0.009050696474812612 46:0.1254647999579032 47:0.7557172041115714 48:0.37895641583994666 49:0.03312042675220862 50:0.8082795317341236 51:0.002108077187094823 52:0.004916641436715252 
-0.0 151.89600282776638 0.0 0.0 32.28820398231583 0.0 0.0 0.0 0.0 0:1.0 1:0.0 2:0.0 3:0.0 4:1.0 5:0.25 6:0.0 7:0.0 8:0.0 9:0.0 10:1.0 11:0.0 12:0.0 13:0.0 14:0.034482758620689655 15:0.0 16:0.0 17:0.0 18:1.0 19:0.3333333333333333 20:0.046511627906976744 21:6.644415651638168E-16 22:0.0 23:0.023411371237458192 24:0.025104602510460247 25:0.0 26:1.0 27:0.0 28:1.0 29:0.021862757487678505 30:0.0 31:1.0 32:0.3333333333333333 33:0.13333333333333333 34:0.9999999999999998 35:1.0 36:0.01752577319587629 37:0.0 38:0.06 39:0.0 40:0.18478222222222232 41:0.15555555555555556 42:0.7555555555555555 43:0.010511567713024939 44:0.02716937673671638 45:0.002885516037586972 46:0.1539704608069724 47:0.6856586482253273 48:0.1547196335452443 49:0.016015100584684354 50:0.5904126276555784 51:0.001046810808495493 52:0.004868040559824644 
-0.0 512.0 0.0 0.0 0.0 0.0 0.0 0.0 0.0 0:0.0 1:0.0 2:0.0 3:0.0 4:1.0 5:0.0 6:0.0 7:0.0 8:0.0 9:0.0 10:1.0 11:0.0 12:0.0 13:0.0 14:0.022988505747126436 15:0.0 16:0.0 17:0.0 18:0.0 19:0.0 20:0.0 21:6.644415651638168E-16 22:0.0 23:0.013377926421404682 24:0.016736401673640166 25:0.0 26:0.0 27:0.0019455252918287938 28:1.0 29:0.03918393782383419 30:0.0 31:1.0 32:0.8 33:0.0 34:0.9999999999999998 35:0.8 36:0.010309278350515464 37:0.0 38:0.0 39:0.0 40:0.12000000000000002 41:0.16 42:0.8 43:0.02693241810241619 44:0.018214309566357764 45:2.7665854721307964E-4 46:0.07272066175802207 47:0.602086813631433 48:0.186493746664094 49:0.022283953444602104 50:0.2054712646540614 51:0.0017545973621848478 52:0.004868040559824644 
-0.0 512.0 0.0 0.0 0.0 0.0 0.0 0.0 0.0 0:0.0 1:0.0 2:0.0 3:0.0 4:1.0 5:0.0 6:0.0 7:0.0 8:0.0 9:0.0 10:1.0 11:0.0 12:0.0 13:0.0 14:0.034482758620689655 15:0.0 16:0.0 17:0.0 18:1.0 19:0.0 20:0.0 21:6.644415651638168E-16 22:0.0 23:0.010033444816053512 24:0.008368200836820083 25:0.0 26:1.0 27:0.0 28:1.0 29:0.014119170984455956 30:0.0 31:1.0 32:0.6666666666666666 33:0.0 34:0.9999999999999998 35:0.6666666666666666 36:0.008762886597938144 37:0.0 38:0.0 39:0.0 40:0.21333333333333337 41:0.13636363636363635 42:0.7727272727272727 43:0.026682991071937615 44:0.026648101822397064 45:5.921859125407891E-4 46:0.04649229597610245 47:0.7253309437699664 48:0.05953887442459537 49:0.006120763295824227 50:0.38695853385713364 51:0.0016563099484735583 52:0.004868040559824644 
-5.437611679076256 0.0 0.0 0.008737854553948016 0.0 0.0 0.0 0.0 0.4466534971554911 0:0.0 1:0.0 2:0.0 3:0.0 4:1.0 5:0.0 6:0.0 7:1.0 8:0.0 9:0.0 10:1.0 11:0.0 12:0.0 13:0.0 14:0.0574712643678161 15:0.0 16:0.0 17:0.0 18:0.0 19:1.0 20:0.0 21:6.644415651638168E-16 22:0.0 23:0.013377926421404682 24:0.012552301255230124 25:1.0 26:1.0 27:0.0 28:1.0 29:0.19792746113989637 30:0.0 31:1.0 32:0.6666666666666666 33:0.0 34:0.9999999999999998 35:1.0 36:0.01443298969072165 37:0.0 38:0.0 39:0.0 40:0.1866666666666667 41:0.12121212121212122 42:0.8484848484848485 43:0.06764461066578495 44:0.07625521531204724 45:3.5982688825798615E-4 46:0.027804720336242147 47:0.2104859468355247 48:0.5320735615823909 49:0.16893572327228645 50:0.44931858225263194 51:0.0012481296851856133 52:0.004868040559824644 
-0.0 0.0 0.0 0.0 0.0 0.0 404.8533126473146 0.0 0.0 0:0.0 1:0.0 2:0.0 3:0.0 4:1.0 5:0.0 6:0.0 7:0.0 8:0.0 9:0.0 10:1.0 11:0.0 12:0.0 13:0.0 14:0.034482758620689655 15:0.0 16:0.0 17:0.0 18:0.0 19:1.0 20:0.0 21:6.644415651638168E-16 22:0.0 23:0.006688963210702341 24:0.008368200836820083 25:0.0 26:1.0 27:0.0 28:1.0 29:0.005905857556863089 30:0.0 31:1.0 32:1.0 33:0.0 34:1.0 35:1.0 36:0.005154639175257732 37:0.0 38:0.0 39:0.0 40:0.18720000000000012 41:0.16666666666666666 42:0.8333333333333334 43:0.005743948187591934 44:0.018269617392051164 45:2.0110770894497327E-4 46:0.04008075884643851 47:0.9363592586065237 48:0.08622236366324451 49:0.006367213718597722 50:0.17371327535004763 51:0.003237577367963982 52:0.004868040559824644 
-0.0 512.0 0.0 0.0 0.0 0.0 0.0 0.0 0.0 0:0.0 1:0.0 2:1.0 3:0.0 4:1.0 5:0.0 6:0.0 7:0.0 8:0.0 9:0.0 10:1.0 11:0.0 12:0.0 13:0.0 14:0.05172413793103448 15:0.0 16:0.0 17:0.0 18:1.0 19:1.0 20:0.0 21:6.644415651638168E-16 22:1.0 23:0.006688963210702341 24:0.008368200836820083 25:1.0 26:1.0 27:0.0 28:1.0 29:0.02975096105632626 30:0.0 31:1.0 32:1.0 33:0.0 34:0.9999999999999998 35:1.0 36:0.006185567010309279 37:0.0 38:0.0 39:0.0 40:0.1466666666666667 41:0.14285714285714285 42:0.8571428571428571 43:0.011533505889328513 44:0.02476228209191759 45:7.439040936173126E-5 46:0.020621509379920494 47:0.5376815443463411 48:0.11597676580624308 49:0.01603109433528773 50:0.1594083795601654 51:0.0027641881113268673 52:0.004868040559824644 
-12.545925072800634 0.0 0.0 0.0 0.0 0.0 0.0 0.0 0.0 0:1.0 1:0.0 2:0.0 3:0.0 4:1.0 5:0.25 6:0.0 7:0.0 8:0.0 9:0.0 10:1.0 11:0.0 12:0.0 13:0.0 14:0.040229885057471264 15:0.0 16:0.0 17:0.0 18:0.0 19:1.0 20:0.0 21:6.644415651638168E-16 22:0.0 23:0.04013377926421405 24:0.008368200836820083 25:0.0 26:1.0 27:0.0 28:1.0 29:0.021862757487678505 30:0.0 31:1.0 32:0.5 33:0.0 34:0.9999999999999998 35:1.0 36:0.0 37:0.0 38:0.0 39:0.0 40:0.1288943589743589 41:0.9230769230769231 42:0.0 43:0.025053876238583375 44:0.022710023326254207 45:0.0012978470298099138 46:0.26650273295970855 47:0.6967802950382636 48:0.23929565712023293 49:0.024109907579818162 50:0.18144783890856941 51:0.002880126949033954 52:0.004868040559824644 
-512.0 512.0 0.0 2.2625378490575447 484.09755323825374 0.0 0.0 11.925562076046642 0.0 0:0.0 1:0.0 2:0.0 3:0.0 4:1.0 5:0.25 6:0.0 7:0.0 8:0.0 9:0.0 10:1.0 11:0.0 12:0.0 13:0.0 14:0.040229885057471264 15:0.0 16:0.0029585798816568047 17:0.0 18:0.0 19:0.0 20:0.0 21:6.644415651638168E-16 22:0.0 23:0.013377926421404682 24:0.016736401673640166 25:0.0 26:1.0 27:0.0 28:1.0 29:0.028740284974093266 30:0.0 31:1.0 32:0.8333333333333334 33:0.0 34:0.9999999999999998 35:0.6666666666666666 36:0.018041237113402064 37:0.025 38:0.0 39:0.0 40:0.19800000000000004 41:0.1 42:0.875 43:0.019961288924869723 44:0.023385400875775782 45:0.00395889159110343 46:0.16802515934972403 47:0.8755321287881985 48:0.3243966551982499 49:0.025466203834579582 50:0.6779935375822589 51:9.980253557420656E-4 52:0.004868040559824644 
-0.0 512.0 0.0 0.0 0.0 0.0 512.0 0.0 0.0 0:1.0 1:0.0 2:0.0 3:0.0 4:1.0 5:0.0 6:0.0 7:0.0 8:0.0 9:0.0 10:1.0 11:0.0 12:0.0 13:0.0 14:0.022988505747126436 15:0.0 16:0.0 17:0.0 18:1.0 19:1.0 20:0.0 21:6.644415651638168E-16 22:0.0 23:0.006688963210702341 24:0.008368200836820083 25:0.0 26:1.0 27:0.0 28:1.0 29:0.06902294596595115 30:0.0 31:1.0 32:1.0 33:0.0 34:0.9999999999999998 35:1.0 36:0.0036082474226804126 37:0.0 38:0.0 39:0.0 40:0.14799999999999996 41:0.2222222222222222 42:0.7777777777777778 43:0.04369961573984333 44:0.021167815004738907 45:1.652509680689067E-4 46:0.06211921473616628 47:0.6370416245721251 48:0.24507664126575235 49:0.02719613424019555 50:0.1164936921905189 51:0.0038168634687264402 52:0.004868040559824644 
-0.0 8.323181044148757 0.0 0.0 0.0 0.0 0.0 0.0 0.0 0:0.0 1:0.0 2:0.0 3:0.0 4:1.0 5:0.0 6:0.0 7:0.0 8:0.0 9:0.0 10:1.0 11:0.0 12:0.0 13:0.0 14:0.028735632183908046 15:0.0 16:0.0 17:0.0 18:0.0 19:0.5 20:0.0 21:6.644415651638168E-16 22:0.0 23:0.006688963210702341 24:0.008368200836820083 25:1.0 26:1.0 27:0.0 28:1.0 29:0.07453168593064967 30:0.0 31:1.0 32:1.0 33:0.0 34:0.9999999999999998 35:1.0 36:0.004639175257731959 37:0.0 38:0.0 39:0.0 40:0.1864000000000003 41:0.18181818181818182 42:0.8181818181818182 43:0.033570027707779844 44:0.02273606968491518 45:2.429838225455047E-4 46:0.045856988375238085 47:0.7457895115709311 48:0.32043867320525127 49:0.029850675398113164 50:0.1842349381463196 51:0.003039633590473884 52:0.004868040559824644 
-0.0 462.7317585939581 0.0 0.0 0.0 0.0 0.0 0.0 0.0 0:0.0 1:0.0 2:0.0 3:0.0 4:1.0 5:0.0 6:0.0 7:0.0 8:0.0 9:0.0 10:1.0 11:0.0 12:0.0 13:0.0 14:0.028735632183908046 15:0.0 16:0.0 17:0.0 18:0.0 19:0.5 20:0.0 21:6.644415651638168E-16 22:0.0 23:0.006688963210702341 24:0.008368200836820083 25:1.0 26:0.0 27:0.0038910505836575876 28:1.0 29:0.05638524839987808 30:0.0 31:1.0 32:1.0 33:0.0 34:0.9999999999999998 35:1.0 36:0.004639175257731959 37:0.0 38:0.0 39:0.0 40:0.1863999999999999 41:0.18181818181818182 42:0.8181818181818182 43:0.0811621304204057 44:0.01909645622772591 45:2.4280476298576778E-4 46:0.04582422781444937 47:0.891237219600708 48:0.22795169733403164 49:0.01767974258784519 50:0.1842307875890035 51:0.003039702070740409 52:0.004868040559824644 
-75.78070717980752 0.0 0.0 0.0 0.0 10.272444591692004 0.0 0.0 0.0 0:1.0 1:0.0 2:0.0 3:0.0 4:1.0 5:0.25 6:0.0 7:0.0 8:0.0 9:0.0 10:1.0 11:0.0 12:6.134969325153375E-4 13:0.0 14:0.028735632183908046 15:0.0 16:0.0 17:0.0 18:0.0 19:1.0 20:0.0 21:6.644415651638168E-16 22:0.0 23:0.010033444816053512 24:0.012552301255230124 25:0.0 26:1.0 27:0.0 28:1.0 29:0.020195478097032503 30:0.07037037037037037 31:1.0 32:0.3333333333333333 33:0.0 34:0.9999999999999998 35:1.0 36:0.005154639175257732 37:0.0 38:0.058823529411764705 39:0.0 40:0.23424 41:0.2 42:0.6666666666666666 43:0.020867778018494668 44:0.028363835637146985 45:0.0026352623200671054 46:0.212385008486234 47:0.8934290317055673 48:0.07258304996404114 49:0.005630357269124207 50:0.2870110384071821 51:0.0029328927676604854 52:0.004868040559824644 
-0.0 512.0 0.0 0.0 0.0 0.0 0.0 0.0 0.0 0:0.0 1:0.0 2:0.0 3:0.0 4:1.0 5:0.0 6:0.0 7:0.0 8:0.0 9:0.0 10:1.0 11:0.0 12:0.0 13:0.0 14:0.034482758620689655 15:0.0 16:0.0 17:0.0 18:0.0 19:1.0 20:0.0 21:6.644415651638168E-16 22:0.0 23:0.006688963210702341 24:0.008368200836820083 25:0.0 26:1.0 27:0.0 28:1.0 29:0.021862757487678505 30:0.0 31:1.0 32:1.0 33:0.0 34:1.0 35:1.0 36:0.005154639175257732 37:0.0 38:0.0 39:0.0 40:0.16000000000000003 41:0.16666666666666666 42:0.8333333333333334 43:0.01896358080295551 44:0.015856613925806902 45:1.536991928961552E-4 46:0.04265483705852244 47:0.9243613833983265 48:0.35639880020146997 49:0.02661279490665714 50:0.14595849857739646 51:0.0032933502100998993 52:0.004868040559824644 
-0.0 512.0 0.0 0.0 0.0 0.0 0.0 0.0 0.0 0:0.0 1:0.0 2:0.0 3:0.0 4:1.0 5:0.0 6:0.0 7:0.0 8:0.0 9:0.0 10:1.0 11:0.0 12:0.0 13:0.0 14:0.022988505747126436 15:0.0 16:0.0 17:0.0 18:0.0 19:1.0 20:0.0 21:6.644415651638168E-16 22:0.0 23:0.006688963210702341 24:0.008368200836820083 25:0.0 26:0.0 27:0.0019455252918287938 28:1.0 29:0.03918393782383419 30:0.0 31:1.0 32:1.0 33:0.0 34:0.9999999999999998 35:0.6666666666666666 36:0.007731958762886598 37:0.0 38:0.0 39:0.0 40:0.13359999999999977 41:0.11764705882352941 42:0.8823529411764706 43:0.019386894106110584 44:0.02855945754132138 45:2.0743832253504558E-4 46:0.058580489278163846 47:0.42300608395409856 48:0.3162789706991558 49:0.05292653589910947 50:0.17178119091941071 51:0.0023365666242897327 52:0.004868040559824644 
-0.0 0.0 0.0 0.0 0.0 0.0 113.06244897610937 0.0 0.0 0:0.0 1:0.0 2:1.0 3:0.0 4:1.0 5:0.0 6:0.0 7:0.0 8:0.0 9:0.0 10:1.0 11:0.0 12:0.0 13:0.0 14:0.028735632183908046 15:0.0 16:0.0 17:0.0 18:1.0 19:1.0 20:0.0 21:6.644415651638168E-16 22:1.0 23:0.006688963210702341 24:0.008368200836820083 25:1.0 26:1.0 27:0.0 28:1.0 29:0.03597050617776006 30:0.0 31:1.0 32:1.0 33:0.0 34:0.9999999999999998 35:1.0 36:0.004123711340206186 37:0.0 38:0.0 39:0.0 40:0.1466666666666667 41:0.2 42:0.8 43:0.011533505889328513 44:0.02484152237882418 45:9.143821150713246E-5 46:0.033714285714283795 47:0.5359228819722834 48:0.1177521569059832 49:0.016313803610393973 50:0.11984734250191444 51:0.003676633444075335 52:0.004868040559824644 
-0.0 300.18173312716834 0.0 0.0 0.0 0.0 136.8657406955214 0.0 0.0 0:0.0 1:0.0 2:0.0 3:0.0 4:1.0 5:0.0 6:0.0 7:0.0 8:0.0 9:0.0 10:1.0 11:0.0 12:0.0 13:0.0 14:0.028735632183908046 15:0.0 16:0.0 17:0.0 18:0.0 19:1.0 20:0.0 21:6.644415651638168E-16 22:0.0 23:0.04013377926421405 24:0.008368200836820083 25:0.0 26:1.0 27:0.0 28:1.0 29:0.008802402260951483 30:0.0 31:1.0 32:0.5 33:0.0 34:0.9999999999999998 35:1.0 36:0.0 37:0.0 38:0.0 39:0.0 40:0.11999999999999993 41:1.0 42:0.0 43:0.03207631611954256 44:0.015783451051572424 45:8.969321333712366E-4 46:0.23120881152683037 47:0.9287152208070735 48:0.13266443980584716 49:0.00989692388430426 50:0.15713802470826768 51:0.0030590460383357696 52:0.004868040559824644 
-30.616814791862165 53.735583643212756 0.0 0.0 0.0 0.0 0.0 0.0 0.0 0:0.0 1:0.0 2:1.0 3:0.0 4:1.0 5:0.0 6:0.0 7:0.0 8:0.0 9:0.0 10:1.0 11:0.0 12:0.0 13:0.0 14:0.040229885057471264 15:0.0 16:0.0 17:0.0 18:0.0 19:1.0 20:0.0 21:6.644415651638168E-16 22:0.0 23:0.006688963210702341 24:0.008368200836820083 25:1.0 26:1.0 27:0.0 28:1.0 29:0.022474093264248707 30:0.0 31:1.0 32:1.0 33:0.0 34:1.0 35:1.0 36:0.005670103092783505 37:0.0 38:0.0 39:0.0 40:0.14640000000000028 41:0.15384615384615385 42:0.8461538461538461 43:0.028819511750151083 44:0.020860327001774495 45:1.3458746675548344E-4 46:0.03900073355611716 47:0.6396442463070572 48:0.29479385667068436 49:0.032411056808751684 50:0.1527695631330897 51:0.0028790655973554356 52:0.004868040559824644 
-0.0 260.38745836750195 0.0 0.0 0.0 0.0 0.0 0.0 0.0 0:0.0 1:0.0 2:1.0 3:0.0 4:1.0 5:0.0 6:0.0 7:0.0 8:0.0 9:0.0 10:1.0 11:0.0 12:0.0 13:0.0 14:0.017241379310344827 15:0.0 16:0.0 17:0.0 18:0.0 19:1.0 20:0.0 21:6.644415651638168E-16 22:0.0 23:0.006688963210702341 24:0.008368200836820083 25:0.0 26:0.0 27:0.0019455252918287938 28:1.0 29:0.02779086198775318 30:0.0 31:1.0 32:1.0 33:0.0 34:0.9999999999999998 35:0.6666666666666666 36:0.008247422680412371 37:0.0 38:0.0 39:0.0 40:0.16000000000000003 41:0.1111111111111111 42:0.8888888888888888 43:0.06697329562946833 44:0.01939754459414679 45:3.455670186948491E-4 46:0.05493342020605018 47:0.7529048336531278 48:0.2972270320522619 49:0.0275446142532228 50:0.25481309002766345 51:0.0018864511705562253 52:0.004868040559824644 
-0.0 512.0 0.0 0.0 0.0 0.0 328.1181260298722 0.0 0.0 0:1.0 1:0.0 2:0.0 3:0.0 4:1.0 5:0.0 6:0.0 7:0.0 8:0.0 9:0.0 10:1.0 11:0.0 12:0.0 13:0.0 14:0.04597701149425287 15:0.0 16:0.0 17:0.0 18:1.0 19:1.0 20:0.0 21:6.644415651638168E-16 22:0.0 23:0.006688963210702341 24:0.008368200836820083 25:0.0 26:1.0 27:0.0 28:1.0 29:0.025259067357512953 30:0.0 31:1.0 32:1.0 33:0.0 34:0.9999999999999998 35:1.0 36:0.007731958762886598 37:0.0 38:0.0 39:0.0 40:0.16000000000000003 41:0.11764705882352941 42:0.8823529411764706 43:0.020276279631931224 44:0.02227138424076851 45:1.6046195738359212E-4 46:0.02996899758870248 47:0.6538302102699926 48:0.2692317330172628 49:0.028949049556350723 50:0.21688322199463334 51:0.002216365321092606 52:0.004868040559824644 
-0.0 314.52901509940625 0.0 0.0 0.0 0.0 0.0 0.0 0.0 0:0.0 1:0.0 2:0.0 3:0.0 4:1.0 5:0.0 6:0.0 7:0.0 8:0.0 9:0.0 10:1.0 11:0.0 12:0.0 13:0.0 14:0.022988505747126436 15:0.0 16:0.0 17:0.0 18:0.0 19:0.0 20:0.0 21:6.644415651638168E-16 22:0.0 23:0.013377926421404682 24:0.016736401673640166 25:0.0 26:1.0 27:0.0 28:1.0 29:0.03082901554404145 30:0.0 31:1.0 32:1.0 33:0.0 34:0.9999999999999998 35:0.8 36:0.01134020618556701 37:0.0 38:0.0 39:0.0 40:0.14081333333333307 41:0.15384615384615385 42:0.8461538461538461 43:0.07764877253395057 44:0.018691803818359738 45:4.668102062487005E-4 46:0.06816700356209328 47:0.6881321938227138 48:0.31179100251336245 49:0.03177316554390073 50:0.31518709674741574 51:0.0013422167969153827 52:0.004868040559824644 
-0.0 0.0 0.0 0.0 0.0 0.0 19.56165102309799 0.0 0.0 0:1.0 1:0.0 2:1.0 3:0.0 4:1.0 5:0.0 6:0.0 7:0.0 8:0.0 9:0.0 10:1.0 11:0.0 12:0.0 13:0.0 14:0.028735632183908046 15:0.0 16:0.0 17:0.0 18:1.0 19:1.0 20:0.0 21:6.644415651638168E-16 22:0.0 23:0.010033444816053512 24:0.012552301255230124 25:0.0 26:1.0 27:0.0 28:1.0 29:0.09766839378238343 30:0.0 31:1.0 32:1.0 33:0.0 34:0.9999999999999998 35:1.0 36:0.00979381443298969 37:0.0 38:0.0 39:0.0 40:0.17333333333333337 41:0.13636363636363635 42:0.8636363636363636 43:0.030544121503745695 44:0.04496822821721729 45:3.5849055916420777E-4 46:0.04284321334049713 47:0.34266363503225666 48:0.23192722024121265 49:0.048150859574799525 50:0.312866935207725 51:0.0016644461196886528 52:0.004868040559824644 
-491.11900307491265 512.0 0.0 0.0 129.32373955393209 0.0 211.63297013426325 0.0 0.0 0:1.0 1:0.0 2:0.0 3:0.0 4:1.0 5:0.0 6:0.0 7:0.0 8:0.0 9:0.0 10:1.0 11:0.0 12:0.0 13:0.0 14:0.028735632183908046 15:0.0 16:0.0 17:0.0 18:0.0 19:0.0 20:0.0 21:6.644415651638168E-16 22:0.0 23:0.013377926421404682 24:0.016736401673640166 25:0.0 26:1.0 27:0.0 28:1.0 29:0.03082901554404145 30:0.0 31:1.0 32:0.8 33:0.0 34:0.9999999999999998 35:0.8 36:0.013402061855670104 37:0.0 38:0.02857142857142857 39:0.0 40:0.1440000000000001 41:0.12903225806451613 42:0.8387096774193549 43:0.014538032633607376 44:0.014893264934635112 45:5.664583754187824E-4 46:0.06694348629252454 47:0.8866041309328482 48:0.12021039073639264 49:0.009490808423853364 50:0.38084061237322636 51:0.0011359692026127386 52:0.004868040559824644 
-0.0 117.5893918532841 5.933551953975843 0.0 0.0 0.0 0.0 0.0 0.0 0:0.0 1:0.0 2:0.0 3:0.0 4:1.0 5:0.0 6:0.0 7:1.0 8:0.0 9:0.0 10:1.0 11:0.0 12:0.0 13:0.0 14:0.04597701149425287 15:0.0 16:0.0 17:0.0 18:0.0 19:1.0 20:0.0 21:6.644415651638168E-16 22:0.0 23:0.006688963210702341 24:0.008368200836820083 25:0.0 26:1.0 27:0.0 28:1.0 29:0.14063656550703182 30:0.0 31:1.0 32:1.0 33:0.0 34:0.9999999999999998 35:1.0 36:0.006701030927835052 37:0.0 38:0.0 39:0.0 40:0.17333333333333337 41:0.13333333333333333 42:0.8666666666666667 43:0.2841871814460497 44:0.02670885295749183 45:3.463355146593204E-5 46:0.007492975335622507 47:0.587954217686906 48:0.7451555753795729 49:0.08733675367012692 50:0.17282505608440574 51:0.0030131635312824713 52:0.004868040559824644 
-0.0 512.0 0.0 26.22490534443347 0.0 0.0 0.0 0.0 0.0 0:0.0 1:0.0 2:0.0 3:0.0 4:1.0 5:0.0 6:0.0 7:0.0 8:0.0 9:0.0 10:1.0 11:0.0 12:0.0 13:0.0 14:0.028735632183908046 15:0.0 16:0.0 17:0.0 18:0.0 19:0.0 20:0.0 21:6.644415651638168E-16 22:0.0 23:0.016722408026755852 24:0.008368200836820083 25:0.0 26:0.0 27:0.0019455252918287938 28:1.0 29:0.06424870466321243 30:0.0 31:1.0 32:0.6666666666666666 33:0.0 34:0.9999999999999998 35:0.6666666666666666 36:0.006701030927835052 37:0.0 38:0.0 39:0.0 40:0.1472000000000003 41:0.25 42:0.65 43:0.10620175368581884 44:0.01634514309402902 45:2.7432231948105383E-4 46:0.053449415913598426 47:0.824585529075641 48:0.3868961853523343 49:0.03256772801151043 50:0.2259729425168564 51:0.0019570354347458567 52:0.004868040559824644 
-512.0 512.0 0.0 0.0 0.0 0.0 0.0 0.0 0.0 0:0.0 1:0.0 2:0.0 3:0.0 4:1.0 5:0.0 6:0.0 7:0.0 8:0.0 9:0.0 10:1.0 11:0.0 12:0.0 13:0.0 14:0.04597701149425287 15:0.0 16:0.0 17:0.0 18:0.0 19:0.0 20:0.0 21:6.644415651638168E-16 22:0.0 23:0.020066889632107024 24:0.016736401673640166 25:0.0 26:1.0 27:0.0 28:1.0 29:0.02605477424130274 30:0.0 31:1.0 32:0.6666666666666666 33:0.0 34:0.9999999999999998 35:0.6666666666666666 36:0.01958762886597938 37:0.0 38:0.0 39:0.0 40:0.15999999999999995 41:0.12244897959183673 42:0.7755102040816326 43:0.029123100078676425 44:0.019795675634657586 45:7.482076710184817E-4 46:0.04834544948953237 47:0.737462859582538 48:0.12702253005134478 49:0.012320419740994517 50:0.6268918759066373 51:7.667868581970955E-4 52:0.004868040559824644 
-0.0 168.97762003984892 0.0 0.0 0.0 0.0 0.0 0.0 0.0 0:0.0 1:0.0 2:0.0 3:0.0 4:1.0 5:0.0 6:0.0 7:0.0 8:0.0 9:0.0 10:1.0 11:0.0 12:0.0 13:0.0 14:0.034482758620689655 15:0.0 16:0.0 17:0.0 18:0.0 19:1.0 20:0.0 21:6.644415651638168E-16 22:0.0 23:0.006688963210702341 24:0.008368200836820083 25:0.0 26:1.0 27:0.0 28:1.0 29:0.19792746113989637 30:0.0 31:1.0 32:1.0 33:0.0 34:0.9999999999999998 35:1.0 36:0.006185567010309279 37:0.0 38:0.0 39:0.0 40:0.2135999999999998 41:0.14285714285714285 42:0.8571428571428571 43:0.12151657335720234 44:0.0308442308580934 45:2.896576564522721E-4 46:0.03665809724133762 47:0.6247334701871357 48:0.5075789278492083 49:0.055958916437246535 50:0.239750717527596 51:0.0026766319199317537 52:0.004868040559824644 
-512.0 371.1982348176231 0.0 0.0 146.83445142306942 0.0 0.0 0.0 0.0 0:0.0 1:0.0 2:0.0 3:0.0 4:1.0 5:0.0 6:0.0 7:0.0 8:0.0 9:0.0 10:1.0 11:0.0 12:0.0 13:0.0 14:0.040229885057471264 15:0.0 16:0.0 17:0.0 18:0.0 19:0.25 20:0.06976744186046512 21:6.644415651638168E-16 22:0.0 23:0.08361204013377926 24:0.02928870292887029 25:0.0 26:1.0 27:0.0 28:1.0 29:0.009344929681717245 30:0.0 31:1.0 32:0.45454545454545453 33:0.12 34:0.9999999999999998 35:0.6363636363636364 36:0.02422680412371134 37:0.0 38:0.03529411764705882 39:0.0 40:0.12223999999999989 41:0.3333333333333333 42:0.6266666666666667 43:0.03113704518762613 44:0.01580900612730729 45:0.006433422980199378 46:0.274043577511141 47:0.9271898883739634 48:0.15040206281150784 49:0.011232704382601924 50:0.9509300361306012 51:5.054971803306421E-4 52:0.004868040559824644 
-0.0 329.732761515529 0.0 0.0 0.0 0.0 0.0 84.92461340963446 0.0 0:0.0 1:0.0 2:0.0 3:0.0 4:1.0 5:0.0 6:0.0 7:0.0 8:0.0 9:0.0 10:1.0 11:0.0 12:0.0 13:0.0 14:0.04597701149425287 15:0.0 16:0.0 17:0.0 18:0.0 19:0.3333333333333333 20:0.046511627906976744 21:6.644415651638168E-16 22:0.0 23:0.023411371237458192 24:0.025104602510460247 25:0.0 26:1.0 27:0.0 28:1.0 29:0.033216136195410806 30:0.0 31:1.0 32:0.5 33:0.12244897959183673 34:0.9999999999999998 35:1.0 36:0.020103092783505156 37:0.0 38:0.05555555555555555 39:0.0 40:0.15999999999999984 41:0.14285714285714285 42:0.7959183673469388 43:0.019878621680482555 44:0.019565897944276277 45:8.514935286446884E-4 46:0.05326308502864995 47:0.7462983694208701 48:0.2876471870638264 49:0.026918103695618804 50:0.6475616513407337 51:7.423114864206231E-4 52:0.004868040559824644 
-0.0 480.95599466531877 0.0 0.0 83.39558210662071 0.0 0.0 0.0 0.0 0:1.0 1:0.0 2:0.0 3:0.0 4:1.0 5:0.0 6:0.0 7:0.0 8:0.0 9:0.0 10:1.0 11:0.0 12:0.0 13:0.0 14:0.028735632183908046 15:0.0 16:0.0 17:0.0 18:1.0 19:0.5 20:0.0 21:6.644415651638168E-16 22:0.0 23:0.013377926421404682 24:0.016736401673640166 25:0.0 26:1.0 27:0.0 28:1.0 29:0.24805699481865284 30:0.0 31:1.0 32:0.6 33:0.0 34:0.9999999999999998 35:0.8 36:0.01134020618556701 37:0.0 38:0.0 39:0.0 40:0.21280000000000052 41:0.15384615384615385 42:0.8461538461538461 43:0.2251670448455548 44:0.038508495514580715 45:0.0013983685775659498 46:0.09086803280140332 47:0.494577561106381 48:0.38182686115364084 49:0.05345641980952343 50:0.4686892332467942 51:0.001364061548144175 52:0.004868040559824644 
-244.88957737180897 512.0 0.0 0.0 0.0 35.93638210616102 0.0 0.0 0.0 0:0.0 1:0.0 2:0.0 3:0.0 4:1.0 5:0.0 6:0.0 7:0.0 8:0.0 9:0.0 10:1.0 11:0.0 12:0.0 13:0.0 14:0.028735632183908046 15:0.0 16:0.0 17:0.0 18:0.0 19:0.5 20:0.0 21:6.644415651638168E-16 22:0.0 23:0.013377926421404682 24:0.016736401673640166 25:0.0 26:0.0 27:0.0038910505836575876 28:1.0 29:0.02975096105632626 30:0.0 31:1.0 32:0.6666666666666666 33:0.0 34:0.9999999999999998 35:0.6666666666666666 36:0.012886597938144331 37:0.0 38:0.0 39:0.0 40:0.14801333333333336 41:0.13793103448275862 42:0.8620689655172413 43:0.042925679296701304 44:0.015170212213517217 45:8.112577141778795E-4 46:0.087137351924536 47:0.8944256484214237 48:0.1428356641867155 49:0.011132402746438815 50:0.40766151374975873 51:0.001090808331826853 52:0.004868040559824644 
-0.0 512.0 241.97903576791268 0.0 512.0 0.0 0.0 230.18075564676167 3.328304107355693 0:0.0 1:0.0 2:0.0 3:0.0 4:1.0 5:0.0 6:0.0 7:0.0 8:0.0 9:0.0 10:1.0 11:0.0 12:6.134969325153375E-4 13:0.0 14:0.022988505747126436 15:0.0 16:0.0 17:0.0 18:0.0 19:0.5 20:0.023255813953488372 21:6.644415651638168E-16 22:0.0 23:0.023411371237458192 24:0.02928870292887029 25:0.0 26:1.0 27:0.0 28:1.0 29:0.09766839378238343 30:0.026388888888888892 31:1.0 32:0.625 33:0.07500000000000001 34:0.9999999999999998 35:0.875 36:0.015463917525773196 37:0.0 38:0.0425531914893617 39:0.0 40:0.16000000000000003 41:0.175 42:0.75 43:0.02223463814551719 44:0.02252962645879331 45:0.0011976241110468557 46:0.08964565117349395 47:0.6461650734865203 48:0.6723307113843039 49:0.07195773533594617 50:0.541149662870982 51:8.882800543670277E-4 52:0.004868040559824644 
-115.2319590673147 207.9876819701792 0.0 0.0 0.0 0.0 35.69542587690422 0.0 0.0 0:0.0 1:0.0 2:1.0 3:0.0 4:1.0 5:0.0 6:0.0 7:0.0 8:0.0 9:0.0 10:1.0 11:0.0 12:0.0 13:0.0 14:0.028735632183908046 15:0.0 16:0.0 17:0.0 18:0.0 19:0.5 20:0.023255813953488372 21:6.644415651638168E-16 22:0.0 23:0.12374581939799331 24:0.02928870292887029 25:0.0 26:1.0 27:0.0 28:1.0 29:0.02975096105632626 30:0.0 31:1.0 32:0.8571428571428571 33:0.07894736842105263 34:0.9999999999999998 35:1.0 36:0.0 37:0.0 38:0.022727272727272728 39:0.0 40:0.1250105263157895 41:0.9736842105263158 42:0.0 43:0.014042029167284302 44:0.022485045611648213 45:0.0023217497803813803 46:0.20005058055065236 47:0.5956776869556153 48:0.2140981338973155 49:0.025605181598451182 50:0.5109917134123184 51:8.654485859390738E-4 52:0.004868040559824644 
-44.66285309521439 512.0 0.0 85.64485704312347 499.61861125701387 512.0 0.0 42.9117671750938 4.321815517680104 0:0.0 1:0.0 2:0.0 3:0.0 4:1.0 5:0.0 6:0.0 7:0.0 8:0.0 9:0.3333333333333333 10:1.0 11:0.0 12:0.0018404907975460125 13:0.13513513513513514 14:0.034482758620689655 15:0.0 16:0.03254437869822485 17:0.0 18:0.0 19:0.0 20:0.0 21:6.644415651638168E-16 22:0.0 23:0.043478260869565216 24:0.046025104602510455 25:0.0 26:0.0 27:0.02529182879377432 28:1.0 29:0.17433709234989334 30:0.02852852852852853 31:1.0 32:0.375 33:0.0 34:0.9999999999999998 35:0.6875 36:0.041237113402061855 37:0.0990990990990991 38:0.047619047619047616 39:0.15943422390681328 40:0.13280000000000017 41:0.11711711711711711 42:0.7207207207207207 43:0.009697722945006372 44:0.13654260012038352 45:0.018990374881238864 46:0.5258227623575956 47:0.5198752429485954 48:0.3089443627260586 49:0.036954988387834675 50:0.15759216485460248 51:0.0100117985387222 52:0.00737875911079803 
-0.0 512.0 0.0 0.0 0.0 0.0 235.26469437921702 0.0 0.0 0:0.0 1:0.0 2:0.0 3:0.0 4:1.0 5:0.0 6:0.0 7:0.0 8:0.0 9:0.0 10:1.0 11:0.0 12:0.0 13:0.0 14:0.034482758620689655 15:0.0 16:0.0 17:0.0 18:1.0 19:0.0 20:0.0 21:6.644415651638168E-16 22:0.0 23:0.010033444816053512 24:0.008368200836820083 25:0.0 26:1.0 27:0.0 28:1.0 29:0.011530321827337079 30:0.0 31:1.0 32:0.6666666666666666 33:0.0 34:0.9999999999999998 35:0.6666666666666666 36:0.008762886597938144 37:0.0 38:0.0 39:0.0 40:0.21333333333333337 41:0.13636363636363635 42:0.7727272727272727 43:0.026682991071937615 44:0.026648101822397064 45:5.944401673699202E-4 46:0.04900712974330591 47:0.7253309437699664 48:0.05953887442459537 49:0.006120763295824227 50:0.3684989301938517 51:0.001739281221080208 52:0.004868040559824644 
-512.0 125.96599046667625 15.455928096919513 20.493850859616316 195.99058900988504 11.297697030085331 0.0 11.527099684064709 0.5330380154342634 0:1.0 1:0.0 2:1.0 3:0.0 4:1.0 5:0.0 6:0.0 7:0.0 8:0.0 9:0.0 10:1.0 11:0.0 12:0.0 13:0.0 14:0.028735632183908046 15:0.0 16:0.0 17:0.0 18:0.0 19:0.0 20:0.0 21:6.644415651638168E-16 22:0.0 23:0.013377926421404682 24:0.016736401673640166 25:0.0 26:1.0 27:0.0 28:1.0 29:0.07453168593064967 30:0.0 31:1.0 32:0.6 33:0.0 34:0.9999999999999998 35:0.8 36:0.01134020618556701 37:0.0 38:0.0 39:0.0 40:0.1463999999999995 41:0.14814814814814814 42:0.8148148148148148 43:0.0023602923569856758 44:0.022226270723264635 45:5.282241641939284E-4 46:0.07587980982908828 47:0.5994966030635726 48:0.32711800274139435 49:0.03833241094342239 50:0.3081747301618925 51:0.001427221476947312 52:0.004868040559824644 
-0.0 512.0 67.64353317743556 0.0 0.0 0.0 0.0 0.0 0.0 0:0.0 1:0.0 2:1.0 3:0.0 4:1.0 5:0.0 6:0.0 7:0.0 8:0.0 9:0.0 10:1.0 11:0.0 12:0.0 13:0.0 14:0.04597701149425287 15:0.0 16:0.0 17:0.0 18:0.0 19:1.0 20:0.0 21:6.644415651638168E-16 22:0.0 23:0.006688963210702341 24:0.008368200836820083 25:0.0 26:1.0 27:0.0 28:1.0 29:0.10880829015544041 30:0.0 31:1.0 32:1.0 33:0.0 34:0.9999999999999998 35:1.0 36:0.007731958762886598 37:0.0 38:0.0 39:0.0 40:0.1866666666666667 41:0.11764705882352941 42:0.8823529411764706 43:0.057634747608351126 44:0.018694583911975215 45:2.3263226729238091E-4 46:0.03498552756953062 47:0.9120718457639445 48:0.4243372666745183 49:0.03202449862715414 50:0.2308664495925191 51:0.002429144042388374 52:0.004868040559824644 
-89.71370397366259 210.3423690657099 36.20737396615709 0.0 97.57394219465917 47.87261550181864 0.0 0.0 46.540291056195755 0:0.0 1:0.0 2:1.0 3:0.0 4:1.0 5:0.0 6:0.0 7:0.0 8:0.0 9:0.0 10:1.0 11:0.0 12:0.0 13:0.0 14:0.028735632183908046 15:0.0 16:0.0 17:0.0 18:0.0 19:1.0 20:0.0 21:6.644415651638168E-16 22:0.0 23:0.006688963210702341 24:0.008368200836820083 25:0.0 26:0.0 27:0.0019455252918287938 28:1.0 29:0.02779086198775318 30:0.0 31:1.0 32:1.0 33:0.0 34:0.9999999999999998 35:0.5 36:0.008247422680412371 37:0.0 38:0.0 39:0.0 40:0.1555999999999995 41:0.1111111111111111 42:0.8888888888888888 43:0.0443609536949408 44:0.02139651202018268 45:4.864332255628037E-4 46:0.08502948118342753 47:0.6624410779843273 48:0.31843775606602404 49:0.03366233886642425 50:0.23828142023770243 51:0.0019618542186823156 52:0.004868040559824644 
-0.0 188.40727752524944 0.0 0.0 0.0 0.0 0.0 0.0 0.0 0:0.0 1:0.0 2:0.0 3:0.0 4:1.0 5:0.0 6:0.0 7:0.0 8:0.0 9:0.0 10:1.0 11:0.0 12:0.0 13:0.0 14:0.034482758620689655 15:0.0 16:0.0 17:0.0 18:1.0 19:1.0 20:0.0 21:6.644415651638168E-16 22:1.0 23:0.006688963210702341 24:0.008368200836820083 25:1.0 26:1.0 27:0.0 28:1.0 29:0.02975096105632626 30:0.0 31:1.0 32:1.0 33:0.0 34:0.9999999999999998 35:1.0 36:0.004639175257731959 37:0.0 38:0.0 39:0.0 40:0.16000000000000003 41:0.18181818181818182 42:0.8181818181818182 43:0.03163589924858325 44:0.024009988155072513 45:1.5861756706883235E-4 46:0.04960584502980202 47:0.6054068008231085 48:0.19386468938799753 49:0.022842813101808482 50:0.12952229160570536 51:0.0037112719825794097 52:0.004868040559824644 
-0.0 512.0 0.0 0.0 0.0 0.0 0.0 0.0 0.0 0:0.0 1:0.0 2:0.0 3:0.0 4:1.0 5:0.0 6:0.0 7:0.0 8:0.0 9:0.0 10:1.0 11:0.0 12:0.0 13:0.0 14:0.017241379310344827 15:0.0 16:0.0 17:0.0 18:0.0 19:0.0 20:0.0 21:6.644415651638168E-16 22:0.0 23:0.013377926421404682 24:0.016736401673640166 25:0.0 26:1.0 27:0.0 28:1.0 29:0.023116779593463532 30:0.0 31:1.0 32:1.0 33:0.0 34:0.9999999999999998 35:0.8 36:0.010824742268041237 37:0.0 38:0.0 39:0.0 40:0.16000000000000003 41:0.16 42:0.84 43:0.01877401625979183 44:0.01589063008996745 45:5.717609975736976E-4 46:0.06882770870337482 47:0.9223507743327136 48:0.35639880020146997 49:0.02667353293906291 50:0.336493982729531 51:0.001428532088617193 52:0.004868040559824644 
-0.0 197.50304857578828 0.0 0.0 0.0 0.0 0.0 0.0 0.08377433691147888 0:1.0 1:0.0 2:1.0 3:0.0 4:1.0 5:0.0 6:0.0 7:0.0 8:0.0 9:0.0 10:1.0 11:0.0 12:0.0 13:0.0 14:0.040229885057471264 15:0.0 16:0.0 17:0.0 18:1.0 19:1.0 20:0.0 21:6.644415651638168E-16 22:0.0 23:0.006688963210702341 24:0.008368200836820083 25:0.0 26:1.0 27:0.0 28:1.0 29:0.10880829015544041 30:0.0 31:1.0 32:0.5 33:0.0 34:0.9999999999999998 35:1.0 36:0.006701030927835052 37:0.0 38:0.0 39:0.0 40:0.15551999999999985 41:0.13333333333333333 42:0.8666666666666667 43:0.03363416608704574 44:0.04848867807658247 45:1.546742605758962E-4 46:0.03052279874213994 47:0.2840754797536631 48:0.27814752911165297 49:0.06903969430933943 50:0.21118035624233442 51:0.002212483545414672 52:0.004868040559824644 
-0.0 512.0 0.0 0.0 0.0 0.0 0.0 0.0 15.504912870371518 0:0.0 1:0.0 2:0.0 3:0.0 4:1.0 5:0.0 6:0.0 7:0.0 8:0.0 9:0.0 10:1.0 11:0.0 12:0.0 13:0.0 14:0.034482758620689655 15:0.0 16:0.0 17:0.0 18:0.0 19:1.0 20:0.0 21:6.644415651638168E-16 22:0.0 23:0.013377926421404682 24:0.012552301255230124 25:0.0 26:1.0 27:0.0 28:1.0 29:0.019689119170984457 30:0.0 31:1.0 32:0.6666666666666666 33:0.0 34:0.9999999999999998 35:1.0 36:0.010309278350515464 37:0.0 38:0.0 39:0.0 40:0.16000000000000003 41:0.16 42:0.8 43:0.024540769204455998 44:0.022639416355846348 45:2.998671253404012E-4 46:0.039950854919627625 47:0.6429592690319041 48:0.4797477616540581 49:0.051839506821867484 50:0.3040386997964152 51:0.0015810239034623123 52:0.004868040559824644 
-0.0 512.0 0.0 0.0 0.0 0.0 0.0 0.0 0.0 0:1.0 1:0.0 2:0.0 3:0.0 4:1.0 5:0.0 6:0.0 7:0.0 8:0.0 9:0.0 10:1.0 11:0.0 12:0.0 13:0.0 14:0.034482758620689655 15:0.0 16:0.0 17:0.0 18:1.0 19:1.0 20:0.0 21:6.644415651638168E-16 22:0.0 23:0.006688963210702341 24:0.008368200836820083 25:0.0 26:1.0 27:0.0 28:1.0 29:0.033216136195410806 30:0.0 31:1.0 32:0.5 33:0.0 34:1.0 35:1.0 36:0.004639175257731959 37:0.0 38:0.07692307692307693 39:0.0 40:0.20000000000000004 41:0.16666666666666666 42:0.75 43:0.00371147421352094 44:0.03191353559423003 45:2.6852529825565773E-4 46:0.0478942739328589 47:0.5647329240957845 48:0.06841582992329609 49:0.009354966425169949 50:0.1816844206755862 51:0.003307193664213881 52:0.004868040559824644 
