svm_type c_svc
kernel_type rbf
gamma 0.5
nr_class 5
total_sv 4678
rho -2.1311868714728615 -0.4544791735000415 -1.7617675219389861 -1.0415716423590253 1.5241914981905107 0.3250383508437279 -0.3721078692656699 -1.3860687963059317 -2.0655387555769615 -0.8065013530022718
label 17 26 24 22 20
nr_sv 1904 336 1990 402 46
SV
0.0 8.0 0.0 0.0 0:0.0 1:0.0 2:1.0 3:0.0 4:0.0 5:0.0 6:0.0 7:0.0 8:0.0 9:0.0 10:1.0 11:0.0 12:0.0 13:0.0 14:0.0 15:0.0 16:0.0 17:0.0 18:0.018518518518518517 19:0.0 20:0.0 21:0.004340277777777778 22:0.0 23:0.0 24:0.0 25:0.0 26:0.005988023952095808 27:8.635578583765112E-4 28:0.0 29:0.0 30:0.0035971223021582736 31:0.0 32:2.141144227485387E-6 33:1.3415358682224229E-6 34:0.008849557522123894 35:0.0625 36:0.021015761821366025 37:4.082008664830178E-6 38:0.011538461538461539 39:0.39285714285714285 40:0.0038461538461538464 41:0.6428571428571429 42:0.019230769230769232 43:0.06766256590509666 44:0.03314285714285714 45:1.1326988794829181E-4 46:0.046153846153846156 47:0.017421602787456445 48:1.0 49:0.08688852202624033 50:1.0 51:0.02013888888888887 52:0.14387214244547414 53:0.9999999999999998 54:0.013271372799101733 55:0.008098447517092492 56:0.2147711767954861 57:0.41502132927231117 58:0.44160797867049834 59:0.25556163769189505 60:0.4868591971681683 61:0.001206024710337066 62:0.01394551965272724 
0.0 8.0 0.0 0.0 0:0.0 1:0.0 2:1.0 3:0.0 4:0.0 5:0.0 6:0.0 7:0.0 8:0.0 9:0.0 10:1.0 11:0.0 12:0.0 13:0.0 14:0.0 15:0.0 16:0.0 17:0.0 18:0.0 19:0.0 20:0.0 21:0.0 22:0.0 23:0.0 24:0.0 25:0.0 26:0.005988023952095808 27:0.0 28:0.0 29:0.0 30:0.0017985611510791368 31:0.0 32:0.0 33:1.3726347336019854E-15 34:0.004424778761061947 35:0.03977272727272727 36:0.012259194395796848 37:0.0 38:0.011029411764705881 39:0.3333333333333333 40:0.0 41:0.6666666666666666 42:0.0 43:0.03719976567076743 44:0.021904761904761906 45:0.05008025064702751 46:0.051470588235294115 47:0.01282051282051282 48:1.0 49:0.057433313059344855 50:1.0 51:0.023667800453514697 52:0.14387214244547414 53:0.9999999999999998 54:0.01336443565008977 55:0.005916683559028179 56:0.21260113221706764 57:0.42213257100109547 58:0.4795593885826136 59:0.2771807594602893 60:0.46938251306140516 61:8.901472396143325E-4 62:0.013445208882984883 
0.0 0.0 0.0 0.09933021438882642 0:0.0 1:0.0 2:1.0 3:0.0 4:0.0 5:0.0 6:0.0 7:0.0 8:0.0 9:0.0 10:1.0 11:0.0 12:0.0 13:0.0 14:0.0 15:1.0 16:0.0 17:0.0 18:0.0 19:0.0 20:0.0 21:0.0 22:1.0 23:0.0 24:0.0 25:0.0 26:0.0 27:0.0 28:0.0 29:1.0 30:0.0 31:0.0 32:0.0 33:1.3726347336019854E-15 34:0.0 35:0.0 36:0.0 37:0.0 38:0.0 39:0.0 40:0.0 41:0.0 42:0.0 43:0.0 44:0.0 45:0.0 46:0.0 47:0.0 48:1.0 49:0.022949165976150158 50:1.0 51:0.015306122448979368 52:0.11520380300909588 53:0.36138207082828244 54:0.026077431343263072 55:0.0 56:0.0 57:0.4999706110235381 58:0.5313081508477048 59:0.26725566906852605 60:0.004132160438931904 61:0.03020638446615272 62:0.01394640368836839 
1.1240159214005243 0.0 0.0 0.0 0:0.0 1:0.0 2:1.0 3:0.0 4:0.0 5:0.0 6:0.0 7:0.0 8:0.0 9:0.0 10:1.0 11:0.0 12:0.0 13:0.0 14:0.0 15:1.0 16:0.0 17:0.0 18:0.0 19:0.0 20:0.0 21:0.0 22:0.0 23:0.0 24:0.0 25:0.0 26:0.0 27:0.0034542314335060447 28:0.0 29:0.25 30:0.0035971223021582736 31:0.0 32:0.0 33:1.3726347336019854E-15 34:0.01327433628318584 35:0.06818181818181818 36:0.02276707530647986 37:0.0 38:0.025568181818181816 39:0.6666666666666666 40:0.022727272727272728 41:0.4444444444444444 42:0.0 43:0.043936731107205626 44:0.03511111111111112 45:0.4358625288250494 46:0.07386363636363637 47:0.05181347150259067 48:1.0 49:0.07180170767734263 50:1.0 51:0.023667800453514697 52:0.14200951022220665 53:0.6849717017716561 54:0.006499143364084744 55:0.014734282721833544 56:0.3424925084469767 57:0.47678003686980697 58:0.5311922716286148 59:0.2671979556443073 60:0.3903550068906675 61:0.0012029088887676002 62:0.010454500024688231 
3.218546516606384 0.0 0.0 0.0 0:0.0 1:0.0 2:1.0 3:0.0 4:0.0 5:0.0 6:0.0 7:0.0 8:0.0 9:0.0 10:1.0 11:0.0 12:0.0 13:0.0 14:0.0 15:1.0 16:0.0 17:0.0 18:0.0 19:0.0 20:0.0 21:0.006076388888888888 22:0.0 23:0.0 24:0.0 25:0.0 26:0.0 27:0.007772020725388601 28:0.0 29:0.14285714285714285 30:0.00539568345323741 31:0.0 32:0.0 33:1.3726347336019854E-15 34:0.02654867256637168 35:0.13068181818181818 36:0.043782837127845885 37:0.0 38:0.03345724907063197 39:0.6571428571428571 40:0.03345724907063197 41:0.37142857142857144 42:0.026022304832713755 43:0.061804335090802576 44:0.026742857142857145 45:0.2726833636454951 46:0.09293680297397769 47:0.07260726072607261 48:1.0 49:0.09622797852793888 50:1.0 51:0.023667800453514697 52:0.14200951022220665 53:0.9999999999999998 54:0.006499143364084744 55:0.014174603800258355 56:0.24489868924247102 57:0.4667877848726924 58:0.5667092522796822 59:0.2848871201673405 60:0.47320293208666625 61:0.001617493977162619 62:0.0126726815834292 
0.0 8.0 0.0 0.0 0:0.0 1:0.0 2:1.0 3:0.0 4:0.0 5:0.0 6:0.0 7:1.0 8:1.0 9:0.0 10:1.0 11:0.0 12:0.0 13:0.0 14:0.0 15:0.0 16:0.0 17:0.0 18:0.0 19:0.0 20:0.0 21:8.680555555555555E-4 22:1.0 23:0.0 24:0.0 25:0.0 26:0.001996007984031936 27:0.0 28:1.0 29:1.0 30:0.0 31:0.0 32:0.0 33:1.3726347336019854E-15 34:0.0 35:0.0 36:0.0 37:0.0 38:0.0 39:0.0 40:0.0 41:0.0 42:1.0 43:0.0 44:0.0 45:0.0 46:0.0 47:0.0 48:1.0 49:0.040251107828655826 50:1.0 51:0.021258503401360547 52:0.05779423852760273 53:0.2872866755318332 54:0.025975214769226943 55:0.0 56:0.0 57:0.4320330937686465 58:0.2936920181428231 59:0.17215994647289104 60:0.006800816277157906 61:0.025490736415436258 62:0.01394640368836839 
0.0 8.0 0.0 0.0 0:0.0 1:0.0 2:1.0 3:0.0 4:0.0 5:0.0 6:0.0 7:0.0 8:0.0 9:0.0 10:1.0 11:0.0 12:0.0 13:0.0 14:0.0 15:0.0 16:0.0 17:0.0 18:0.0 19:0.0 20:0.0 21:0.0 22:0.0 23:0.0 24:0.0 25:0.0 26:0.001996007984031936 27:0.0 28:0.0 29:0.0 30:0.0 31:0.0 32:0.0 33:1.3726347336019854E-15 34:0.0 35:0.017045454545454544 36:0.005253940455341506 37:0.0 38:0.0 39:0.6 40:0.0 41:0.8 42:0.0 43:0.015231400117164616 44:0.0408 45:0.0 46:0.05357142857142857 47:0.016666666666666666 48:1.0 49:0.040251107828655826 50:1.0 51:0.021258503401360547 52:0.08840619419695583 53:0.7683796092979831 54:0.025975214769226943 55:3.0637749493304175E-4 56:0.03771515036882902 57:0.4320330937686465 58:0.2936920181428231 59:0.17215994647289104 60:0.35529560926219206 61:4.879255769325043E-4 62:0.01394640368836839 
0.0 1.3041415421352287 0.0 0.0 0:0.0 1:0.0 2:1.0 3:0.0 4:0.0 5:1.0 6:0.0 7:0.0 8:0.0 9:0.0 10:1.0 11:0.0 12:0.0 13:0.0 14:0.0 15:0.0 16:0.0 17:0.0 18:0.01282051282051282 19:0.0 20:0.0 21:0.015625 22:0.0 23:0.0 24:0.0 25:0.0 26:0.005988023952095808 27:0.0069084628670120895 28:0.0 29:0.0 30:0.02158273381294964 31:1.0 32:0.048561151079136715 33:0.007021392337325347 34:0.035398230088495575 35:0.17045454545454547 36:0.05604203152364273 37:0.05485283625290335 38:0.01362088535754824 39:0.25 40:0.009080590238365494 41:0.6583333333333333 42:0.02043132803632236 43:0.23345049794961922 44:0.02536666666666667 45:1.7311058346818994E-4 46:0.036322360953461974 47:0.024 48:1.0 49:0.370500105507491 50:1.0 51:0.021258503401360537 52:0.05779423852760273 53:0.9999999999999998 54:0.02593707425652695 55:0.06295404694043334 56:0.337925341643279 57:0.3278954821128003 58:0.33131896624148643 59:0.1790222147040054 60:0.4418917738347779 61:0.007146968401402508 62:0.01501014339616918 
0.0 8.0 0.0 0.0 0:0.0 1:0.0 2:1.0 3:0.0 4:0.0 5:0.0 6:0.0 7:0.0 8:0.0 9:0.0 10:1.0 11:0.0 12:0.0 13:0.0 14:0.0 15:0.0 16:0.0 17:0.0 18:0.0 19:0.0 20:0.0 21:0.0 22:0.0 23:0.0 24:0.0 25:0.0 26:0.011976047904191616 27:0.0 28:0.0 29:0.0 30:0.0 31:1.0 32:0.0 33:1.3726347336019854E-15 34:0.0 35:0.011363636363636364 36:0.0035026269702276708 37:0.0 38:0.0 39:0.6666666666666666 40:0.0 41:0.6666666666666666 42:0.0 43:0.005565319273579379 44:0.024 45:0.0 46:0.09523809523809523 47:0.0 48:1.0 49:0.027136526693395228 50:1.0 51:0.021258503401360547 52:0.06162478218675723 53:0.8228781743702868 54:0.02081709183167523 55:1.2322705663806322E-4 56:0.04728216012262655 57:0.4667824414224266 58:0.1932546706567744 59:0.10577809597951798 60:0.11398759455845092 61:0.0015208480870428905 62:0.01394640368836839 
8.0 0.0 8.0 0.0 0:0.0 1:0.0 2:1.0 3:0.0 4:0.0 5:0.0 6:0.0 7:0.0 8:0.0 9:0.0 10:1.0 11:0.0 12:0.0 13:0.0 14:0.0 15:0.0 16:0.0 17:1.0 18:0.0 19:0.0 20:0.0 21:0.0 22:0.0 23:1.0 24:0.0 25:0.0 26:0.015968063872255488 27:0.0 28:0.0 29:0.0 30:0.0017985611510791368 31:1.0 32:0.04856115107913668 33:0.045639050192607514 34:0.004424778761061947 35:0.02840909090909091 36:0.010507880910683012 37:0.22485922537762568 38:0.010948905109489052 39:0.3125 40:0.0 41:0.625 42:0.0 43:0.03749267721148213 44:0.030250000000000003 45:0.08082127080265597 46:0.043795620437956206 47:0.019736842105263157 48:1.0 49:0.05575015826123654 50:1.0 51:0.021258503401360613 52:0.031012826517404148 53:0.9999999999999998 54:0.02597521476922703 55:0.008364791128329377 56:0.29479226384924584 57:0.45494402735846545 58:0.46936684560349407 59:0.2522576245022663 60:0.45585554910916615 61:8.570528355388424E-4 62:0.015480409709981208 
8.0 8.0 0.0 0.0 0:0.0 1:0.0 2:1.0 3:0.0 4:0.0 5:0.0 6:0.0 7:0.0 8:0.0 9:0.0 10:1.0 11:0.0 12:0.0 13:0.0 14:0.0 15:0.0 16:0.0 17:0.0 18:0.1111111111111111 19:0.0 20:0.0 21:0.006944444444444444 22:0.0 23:0.0 24:0.0 25:0.0 26:0.021956087824351295 27:0.0 28:0.0 29:0.3333333333333333 30:0.0 31:1.0 32:0.0 33:1.3726347336019854E-15 34:0.004424778761061947 35:0.005681818181818182 36:0.0035026269702276708 37:0.0 38:0.03125 39:0.3333333333333333 40:0.0 41:0.3333333333333333 42:0.16666666666666666 43:0.00995899238429994 44:0.06 45:0.0 46:0.041666666666666664 47:0.04 48:1.0 49:0.027136526693395228 50:1.0 51:0.021258503401360547 52:0.08839944552948023 53:0.758895403752199 54:0.020815566211167223 55:1.2322705663806623E-4 56:0.02012143108033547 57:0.4667824414224266 58:0.306267810394559 59:0.1657323932822738 60:0.267852702742055 61:6.472132383065259E-4 62:0.01394640368836839 
8.0 5.533629655368116 8.0 0.0 0:0.0 1:0.0 2:1.0 3:0.0 4:0.0 5:0.0 6:0.0 7:0.0 8:0.0 9:0.0 10:1.0 11:0.0 12:0.0 13:0.0 14:0.0 15:0.0 16:0.0 17:0.0 18:0.1111111111111111 19:0.0 20:0.0 21:0.006944444444444444 22:0.0 23:0.0 24:0.0 25:0.0 26:0.02395209580838323 27:0.0 28:0.0 29:0.0 30:0.0 31:1.0 32:0.0 33:1.3726347336019854E-15 34:0.004424778761061947 35:0.022727272727272728 36:0.012259194395796848 37:0.0 38:0.044117647058823525 39:0.6666666666666666 40:0.0 41:0.6666666666666666 42:0.23529411764705882 43:0.004393673110720563 44:0.018666666666666668 45:0.0 46:0.20588235294117646 47:0.05128205128205128 48:1.0 49:0.027136526693395228 50:1.0 51:0.021258503401360547 52:0.06162343245326212 53:0.8127965039804003 54:0.020815566211167244 55:3.0791399189860355E-4 56:0.06871485392950177 57:0.4667824414224266 58:0.3061992485232642 59:0.1656960207080335 60:0.19598715998718683 61:8.845365948574101E-4 62:0.01394640368836839 
0.0 8.0 0.0 0.0 0:0.0 1:0.0 2:1.0 3:0.0 4:0.0 5:0.0 6:0.0 7:0.0 8:0.0 9:0.0 10:1.0 11:0.0 12:0.0 13:0.0 14:0.0 15:0.0 16:0.0 17:0.0 18:0.0 19:0.0 20:0.0 21:0.0 22:0.0 23:0.0 24:0.0 25:0.0 26:0.02395209580838323 27:8.635578583765112E-4 28:0.0 29:0.0 30:0.0017985611510791368 31:0.0 32:0.0 33:1.3726347336019854E-15 34:0.004424778761061947 35:0.03409090909090909 36:0.012259194395796848 37:0.0 38:0.010273972602739725 39:0.35294117647058826 40:0.00684931506849315 41:0.5882352941176471 42:0.0 43:0.038371411833626246 44:0.030352941176470586 45:2.2226544050240932E-4 46:0.04794520547945205 47:0.018518518518518517 48:1.0 49:0.05575015826123654 50:1.0 51:0.01889644746787604 52:0.06162343245326212 53:0.8292666961742023 54:0.028876944975445143 55:0.002454753078017735 56:0.13522008372677902 57:0.4591234960413941 58:0.47350180240468687 59:0.2544512493318035 60:0.4059403353068244 61:8.349650662840576E-4 62:0.013943736287339276 
0.021738306913046304 0.0 0.0 0.0 0:0.0 1:0.0 2:1.0 3:0.0 4:0.0 5:0.0 6:0.0 7:0.0 8:0.0 9:0.0 10:1.0 11:0.0 12:0.0 13:0.0 14:0.0 15:0.0 16:0.0 17:0.0 18:0.0 19:0.0 20:0.0 21:0.0 22:0.0 23:0.0 24:0.0 25:0.0 26:0.0279441117764471 27:0.0 28:0.0 29:0.0 30:0.0 31:1.0 32:0.0 33:1.3726347336019854E-15 34:0.0 35:0.011363636363636364 36:0.0035026269702276708 37:0.0 38:0.0 39:0.6666666666666666 40:0.0 41:0.6666666666666666 42:0.0 43:0.009373169302870533 44:0.04133333333333333 45:0.0 46:0.058823529411764705 47:0.0 48:1.0 49:0.01938700147710487 50:1.0 51:0.021258503401360547 52:0.06162478218675723 53:0.8161202127236153 54:0.02081709183167523 55:1.2380751104727427E-4 56:0.03025397990855326 57:0.4667824414224266 58:0.05519906601349413 59:0.03253858786303283 60:0.17898362592225056 61:9.685680141832991E-4 62:0.01394640368836839 
6.758704072095447 0.0 0.0 0.0 0:0.0 1:0.0 2:1.0 3:0.0 4:0.0 5:0.0 6:0.0 7:0.0 8:0.0 9:0.0 10:1.0 11:0.0 12:0.0 13:0.0 14:0.0 15:0.0 16:0.0 17:0.0 18:0.0 19:0.0 20:0.0 21:0.0 22:0.0 23:0.0 24:0.0 25:0.0 26:0.0279441117764471 27:0.0 28:0.0 29:0.0 30:0.0017985611510791368 31:1.0 32:0.0 33:1.3726347336019854E-15 34:0.004424778761061947 35:0.02840909090909091 36:0.012259194395796848 37:0.0 38:0.015957446808510637 39:0.7142857142857143 40:0.0 41:0.5714285714285714 42:0.0 43:0.024897480960749854 44:0.04971428571428571 45:0.35195305070002936 46:0.07446808510638298 47:0.02 48:1.0 49:0.040251107828655826 50:1.0 51:0.021258503401360547 52:0.031011476783909024 53:0.9999999999999998 54:0.02593707425652697 55:0.00985648790555635 56:0.4560672264166313 57:0.45520852814662444 58:0.08030719580980741 59:0.04585863438166837 60:0.2637937175331584 61:0.0010954780392847894 62:0.009512304183750568 
0.0 0.3088649859675802 0.0 0.0 0:0.0 1:0.0 2:1.0 3:0.0 4:0.0 5:0.0 6:0.0 7:0.0 8:0.0 9:0.0 10:1.0 11:0.0 12:0.0 13:0.0 14:0.0 15:0.0 16:0.0 17:0.0 18:0.0 19:0.0 20:0.0 21:0.0 22:0.0 23:0.0 24:0.0 25:0.0 26:0.03792415169660678 27:0.0 28:0.0 29:0.0 30:0.0 31:1.0 32:0.0 33:1.3726347336019854E-15 34:0.0 35:0.011363636363636364 36:0.0035026269702276708 37:0.0 38:0.0 39:0.6666666666666666 40:0.0 41:1.0 42:0.0 43:0.007615700058582308 44:0.03333333333333334 45:0.0 46:0.07142857142857142 47:0.0 48:1.0 49:0.01896120338829771 50:1.0 51:0.021258503401360547 52:0.08840619419695583 53:0.7553873141342181 54:0.020815566211167244 55:1.2291975724495162E-4 56:0.03576857730483755 57:0.4667824414224266 58:0.05519906601349413 59:0.03253858786303283 60:0.15030341586453919 61:0.0011533857306814587 62:0.01394640368836839 
0.0 2.3025219075316277 0.0 0.0 0:0.0 1:0.0 2:1.0 3:0.0 4:0.0 5:0.0 6:0.0 7:0.0 8:0.0 9:0.0 10:1.0 11:0.0 12:0.0 13:0.0 14:1.0 15:0.0 16:0.0 17:0.0 18:0.0 19:0.0 20:0.0 21:0.0 22:0.0 23:0.0 24:0.0 25:0.0 26:0.04391217564870259 27:0.0 28:0.0 29:0.0 30:0.0017985611510791368 31:1.0 32:0.0 33:1.3726347336019854E-15 34:0.017699115044247787 35:0.06818181818181818 36:0.02626970227670753 37:0.0 38:0.041666666666666664 39:0.75 40:0.0 41:0.625 42:0.0 43:0.03632103104862332 44:0.032 45:0.060261717556191495 46:0.10416666666666667 47:0.031446540880503145 48:1.0 49:0.05575015826123654 50:1.0 51:0.021258503401360547 52:0.031012826517404148 53:0.9999999999999998 54:0.02593707425652695 55:0.006179629770607958 56:0.25769989151974254 57:0.45520852814662444 58:0.4316954771375129 59:0.23227268797142167 60:0.4080825775004087 61:9.872991969200118E-4 62:0.013262165491812621 
0.0 1.917106828664391 0.0 0.0 0:0.0 1:0.0 2:1.0 3:0.0 4:0.0 5:0.0 6:0.0 7:0.0 8:0.0 9:0.0 10:1.0 11:0.0 12:0.0 13:0.0 14:1.0 15:0.0 16:1.0 17:0.0 18:0.0 19:0.0 20:0.0 21:8.680555555555555E-4 22:0.0 23:0.0 24:0.0 25:0.0 26:0.04590818363273453 27:0.005181347150259067 28:0.0 29:0.0 30:0.019784172661870505 31:1.0 32:2.1411442274549593E-6 33:3.3538396811367836E-7 34:0.05752212389380531 35:0.2897727272727273 36:0.10507880910683012 37:2.665469485198242E-6 38:0.02522639068564036 39:0.46788990825688076 40:0.007761966364812419 41:0.6788990825688074 42:0.00129366106080207 43:0.1977152899824253 44:0.02436697247706422 45:0.4081541496316592 46:0.07761966364812418 47:0.02724177071509648 48:1.0 49:0.2542191772211571 50:1.0 51:0.021258503401360547 52:0.05781178506303932 53:0.9999999999999998 54:0.02593707425652695 55:0.06365299548346402 56:0.37089658008620313 57:0.3394685048135582 58:0.2811760968209502 59:0.15242105568986483 60:0.42074015002913306 61:0.006583926702143172 62:0.013200950556209894 
8.0 0.0 0.0 0.0 0:0.0 1:0.0 2:1.0 3:0.0 4:0.0 5:0.0 6:0.0 7:0.0 8:0.0 9:0.0 10:1.0 11:0.0 12:0.0 13:0.0 14:0.0 15:0.0 16:0.0 17:0.0 18:0.0 19:0.0 20:0.0 21:0.0 22:0.0 23:0.0 24:0.0 25:0.0 26:0.04590818363273453 27:0.0 28:0.0 29:0.0 30:0.0 31:1.0 32:0.0 33:1.3726347336019854E-15 34:0.0 35:0.03409090909090909 36:0.01576182136602452 37:0.0 38:0.0 39:0.75 40:0.0 41:0.875 42:0.0 43:0.01757469244288225 44:0.031000000000000003 45:0.0 46:0.12857142857142856 47:0.012987012987012988 48:1.0 49:0.01983091863352085 50:1.0 51:0.021258503401360547 52:0.05781313479653443 53:0.9999999999999998 54:0.02593707425652695 55:4.3021915035733457E-4 56:0.04524009565048816 57:0.4667824414224266 58:0.4443321059792711 59:0.23897651200676123 60:0.4159250207765385 61:4.1680064067119345E-4 62:0.01394640368836839 
0.0 8.0 0.0 0.0 0:0.0 1:0.0 2:1.0 3:0.0 4:0.0 5:0.0 6:0.0 7:0.0 8:0.0 9:0.0 10:1.0 11:0.0 12:0.0 13:0.0 14:0.0 15:0.0 16:0.0 17:0.0 18:0.0 19:0.0 20:0.0 21:0.0 22:0.0 23:0.0 24:0.0 25:0.0 26:0.0558882235528942 27:0.0017271157167530224 28:0.0 29:0.5 30:0.0017985611510791368 31:0.0 32:0.0 33:1.3726347336019854E-15 34:0.004424778761061947 35:0.05681818181818182 36:0.01926444833625219 37:0.0 38:0.01171875 39:0.625 40:0.015625 41:0.625 42:0.0 43:0.03309900410076157 44:0.028 45:0.1542885475594614 46:0.0859375 47:0.027972027972027972 48:1.0 49:0.06111521418020679 50:1.0 51:0.01889644746787604 52:0.031011476783909024 53:0.9999999999999998 54:0.012815212267209346 55:0.004548716940659237 56:0.25538197917515215 57:0.4591234960413941 58:0.18149099859882706 59:0.0995373819035202 60:0.34445596829869823 61:8.510131178330125E-4 62:0.012059203316724249 
7.193946513421052 8.0 0.0 0.0 0:0.0 1:0.0 2:1.0 3:0.0 4:0.0 5:0.0 6:0.0 7:0.0 8:0.0 9:0.0 10:1.0 11:0.0 12:0.0 13:0.0 14:0.0 15:0.0 16:0.0 17:0.0 18:0.0 19:0.0 20:0.0 21:0.0 22:0.0 23:0.0 24:0.0 25:0.0 26:0.0558882235528942 27:0.0017271157167530224 28:0.0 29:0.5 30:0.0017985611510791368 31:0.0 32:0.0 33:1.3726347336019854E-15 34:0.004424778761061947 35:0.05681818181818182 36:0.01926444833625219 37:0.0 38:0.011450381679389313 39:0.625 40:0.015267175572519083 41:0.625 42:0.0 43:0.03397773872290568 44:0.02875 45:0.18586733745236794 46:0.08396946564885496 47:0.0273972602739726 48:1.0 49:0.06111521418020679 50:1.0 51:0.01889644746787604 52:0.031011476783909024 53:0.9999999999999998 54:0.012815212267209346 55:0.005086868743044842 56:0.2706063867471761 57:0.4591234960413941 58:0.20659816273498127 59:0.11285691613237771 60:0.35548900094157104 61:8.063478441699064E-4 62:0.011792265424861415 
0.0 8.0 0.0 0.0 0:0.0 1:0.0 2:1.0 3:0.0 4:0.0 5:0.0 6:0.0 7:1.0 8:1.0 9:0.0 10:1.0 11:0.0 12:0.0 13:0.0 14:0.0 15:0.0 16:0.0 17:1.0 18:0.0 19:0.0 20:0.0 21:8.680555555555555E-4 22:1.0 23:0.0 24:0.0 25:0.0 26:0.00998003992015968 27:0.0 28:1.0 29:1.0 30:0.0 31:1.0 32:0.0 33:1.3726347336019854E-15 34:0.0 35:0.0 36:0.0 37:0.0 38:0.0 39:0.0 40:0.0 41:0.0 42:1.0 43:0.0 44:0.0 45:0.0 46:0.0 47:0.0 48:1.0 49:0.022949165976150158 50:1.0 51:0.029846938775510194 52:0.07703468950055811 53:0.250864445943627 54:0.022245072627164266 55:0.0 56:0.0 57:0.6326930098764774 58:0.06692411166507814 59:0.026786491337612323 60:0.010483471731587297 61:0.023216962727179314 62:0.01394640368836839 
0.0 0.14097442338297 0.0 0.0 0:0.0 1:0.0 2:1.0 3:0.0 4:0.0 5:0.0 6:0.0 7:0.0 8:1.0 9:0.0 10:1.0 11:0.0 12:0.0 13:0.0 14:0.0 15:0.0 16:0.0 17:0.0 18:0.0 19:0.0 20:0.0 21:0.0 22:1.0 23:0.0 24:0.0 25:0.0 26:0.01397205588822355 27:0.0 28:0.0 29:0.0 30:0.0 31:1.0 32:0.0 33:1.3726347336019854E-15 34:0.0 35:0.0 36:0.0 37:0.0 38:0.0 39:0.0 40:0.0 41:0.0 42:0.0 43:0.0 44:0.0 45:0.0 46:0.0 47:1.0 48:1.0 49:0.01983091863352085 50:1.0 51:0.024489795918367335 52:0.10133124214623823 53:0.28471024065516115 54:0.01768346730824096 55:0.0 56:0.0 57:0.6347128340769637 58:0.10497112193294261 59:0.04166881616763498 60:0.005728575151334586 61:0.034861758422459095 62:0.01394640368836839 
0.0 8.0 0.0 0.0 0:0.0 1:0.0 2:1.0 3:0.0 4:0.0 5:0.0 6:0.0 7:0.0 8:0.0 9:0.0 10:1.0 11:0.0 12:0.0 13:0.0 14:0.0 15:0.0 16:0.0 17:1.0 18:0.0 19:0.0 20:0.0 21:0.0 22:0.0 23:0.0 24:0.0 25:0.0 26:0.01397205588822355 27:8.635578583765112E-4 28:0.0 29:0.0 30:0.0 31:1.0 32:0.0 33:1.3726347336019854E-15 34:0.0 35:0.005681818181818182 36:0.0017513134851138354 37:0.0 38:0.0 39:0.25 40:0.03125 41:0.5 42:0.0 43:0.008787346221441126 44:0.028 45:0.0 46:0.03125 47:0.02857142857142857 48:1.0 49:0.01983091863352085 50:1.0 51:0.024489795918367335 52:0.12562644505842324 53:0.7485837591849973 54:0.017684992928748967 55:3.5731298394020214E-4 56:0.05574134640755425 57:0.6347128340769637 58:0.18979567596693964 59:0.07484846833499591 60:0.24337036149310318 61:8.205937724113044E-4 62:0.01394640368836839 
0.0 8.0 0.0 0.0 0:0.0 1:0.0 2:1.0 3:0.0 4:0.0 5:0.0 6:0.0 7:0.0 8:0.0 9:0.0 10:1.0 11:0.0 12:0.0 13:0.0 14:0.0 15:0.0 16:0.0 17:0.0 18:0.0 19:0.0 20:0.0 21:0.0 22:0.0 23:0.0 24:0.0 25:0.0 26:0.017964071856287425 27:0.0 28:0.0 29:1.0 30:0.0 31:1.0 32:0.0 33:1.3726347336019854E-15 34:0.0 35:0.011363636363636364 36:0.0035026269702276708 37:0.0 38:0.0 39:1.0 40:0.0 41:1.0 42:0.0 43:0.005272407732864675 44:0.036000000000000004 45:0.0 46:0.1 47:0.0 48:1.0 49:0.022949165976150158 50:1.0 51:0.02755102040816324 52:0.11590296495956875 53:0.7618540586914874 54:0.019222818400814082 55:1.4231157814791507E-4 56:0.023694098578059288 57:0.6285144317685931 58:0.36973292736980246 59:0.14643251199899548 60:0.20269538719776944 61:0.0011084205295227444 62:0.01394640368836839 
0.0 8.0 0.0 0.0 0:0.0 1:0.0 2:1.0 3:0.0 4:0.0 5:0.0 6:0.0 7:1.0 8:1.0 9:0.0 10:1.0 11:0.0 12:0.0 13:0.0 14:0.0 15:0.0 16:0.0 17:0.0 18:0.0 19:0.0 20:0.0 21:0.001736111111111111 22:1.0 23:0.0 24:0.0 25:0.0 26:0.02395209580838323 27:0.0 28:1.0 29:1.0 30:0.0 31:0.0 32:0.0 33:1.3726347336019854E-15 34:0.0 35:0.0 36:0.0 37:0.0 38:0.0 39:0.0 40:0.0 41:0.0 42:1.0 43:0.0 44:0.004 45:0.0 46:0.0 47:0.0 48:1.0 49:0.021813060355192194 50:1.0 51:0.021173469387754964 52:0.07703468950055811 53:0.26662389064380254 54:0.027918855296420433 55:2.04046797026627E-6 56:0.00598802395209603 57:0.6359623108641251 58:0.6064828629119867 59:0.2378385928835446 60:0.014963587856197245 61:0.011538969499136959 62:0.01394640368836839 
0.0 8.0 0.0 0.0 0:0.0 1:0.0 2:1.0 3:0.0 4:0.0 5:0.0 6:0.0 7:1.0 8:1.0 9:0.0 10:1.0 11:0.0 12:0.0 13:1.0 14:0.0 15:0.0 16:0.0 17:1.0 18:0.0 19:0.0 20:0.0 21:0.001736111111111111 22:1.0 23:0.0 24:0.0 25:0.0 26:0.02395209580838323 27:0.0 28:1.0 29:1.0 30:0.0 31:0.0 32:0.0 33:1.3726347336019854E-15 34:0.0 35:0.0 36:0.0 37:0.0 38:0.0 39:0.0 40:0.0 41:0.0 42:1.0 43:0.0 44:0.004 45:0.0 46:0.0 47:0.0 48:1.0 49:0.021813060355192194 50:1.0 51:0.021173469387755234 52:0.07703468950055811 53:0.26662389064380254 54:0.027918855296420433 55:2.04046797026627E-6 56:0.0059880239520959545 57:0.635962310864125 58:0.6775158585539625 59:0.2656236295886013 60:0.014963587856197245 61:0.011538969499137106 62:0.01394640368836839 
0.0 4.689696676697388 0.0 0.0 0:0.0 1:0.0 2:1.0 3:0.0 4:0.0 5:0.0 6:0.0 7:0.0 8:0.0 9:0.0 10:1.0 11:0.0 12:0.0 13:0.0 14:0.0 15:0.0 16:0.0 17:0.0 18:0.0 19:0.0 20:0.0 21:0.0 22:1.0 23:0.0 24:0.0 25:0.0 26:0.02594810379241517 27:0.0 28:0.0 29:1.0 30:0.0 31:1.0 32:0.0 33:1.3726347336019854E-15 34:0.0 35:0.005681818181818182 36:0.0017513134851138354 37:0.0 38:0.0 39:1.0 40:0.0 41:1.0 42:0.0 43:0.005272407732864675 44:0.072 45:0.0 46:0.05263157894736842 47:0.0 48:1.0 49:0.021283738418154962 50:1.0 51:0.02755102040816337 52:0.11590296495956875 53:0.7618165490457897 54:0.019222818400814082 55:4.33660903560047E-6 56:8.497723823972864E-4 57:0.6335595393945872 58:0.3295228383455923 59:0.12950342887707333 60:0.1722231306902141 61:0.0013045386383882317 62:0.01394640368836839 
0.0 8.0 0.0 0.0 0:0.0 1:0.0 2:1.0 3:0.0 4:0.0 5:0.0 6:0.0 7:1.0 8:1.0 9:0.0 10:1.0 11:0.0 12:0.0 13:1.0 14:0.0 15:0.0 16:0.0 17:0.0 18:0.0 19:0.0 20:0.0 21:0.001736111111111111 22:1.0 23:0.0 24:0.0 25:0.0 26:0.02594810379241517 27:0.0 28:1.0 29:1.0 30:0.0 31:0.0 32:0.0 33:1.3726347336019854E-15 34:0.0 35:0.0 36:0.0 37:0.0 38:0.0 39:0.0 40:0.0 41:0.0 42:1.0 43:0.0 44:0.004 45:0.0 46:0.0 47:0.0 48:1.0 49:0.021283738418154962 50:1.0 51:0.021173469387755234 52:0.07703468950055811 53:0.2666828091720775 54:0.026783793638467494 55:2.04046797026627E-6 56:0.0059880239520959545 57:0.6359640920142136 58:0.6632636802660585 59:0.2600480554963155 60:0.014963587856197245 61:0.011538969499137106 62:0.01394640368836839 
0.0 8.0 0.0 0.0 0:0.0 1:0.0 2:1.0 3:0.0 4:0.0 5:0.0 6:0.0 7:1.0 8:1.0 9:0.0 10:1.0 11:0.0 12:0.0 13:1.0 14:0.0 15:0.0 16:0.0 17:0.0 18:0.0 19:0.0 20:0.0 21:0.001736111111111111 22:1.0 23:0.0 24:0.0 25:0.0 26:0.0279441117764471 27:0.0 28:1.0 29:1.0 30:0.0 31:0.0 32:0.0 33:1.3726347336019854E-15 34:0.0 35:0.0 36:0.0 37:0.0 38:0.0 39:0.0 40:0.0 41:0.0 42:1.0 43:0.0 44:0.004 45:0.0 46:0.0 47:0.0 48:1.0 49:0.021283738418154962 50:1.0 51:0.021173469387755234 52:0.07703468950055811 53:0.2666759131054164 54:0.026782268017959528 55:2.04046797026627E-6 56:0.0059880239520959545 57:0.6359632014391693 58:0.6746198437368729 59:0.2644904585833544 60:0.014963587856197245 61:0.011538969499137106 62:0.01394640368836839 
0.0 4.288553395916512 0.0 0.0 0:0.0 1:0.0 2:1.0 3:0.0 4:0.0 5:0.0 6:0.0 7:1.0 8:1.0 9:0.0 10:1.0 11:0.0 12:1.0 13:0.0 14:0.0 15:0.0 16:0.0 17:0.0 18:0.0 19:0.0 20:0.0 21:0.001736111111111111 22:1.0 23:0.0 24:0.0 25:0.0 26:0.0279441117764471 27:0.0 28:1.0 29:1.0 30:0.0 31:0.0 32:0.0 33:1.3726347336019854E-15 34:0.0 35:0.0 36:0.0 37:0.0 38:0.0 39:0.0 40:0.0 41:0.0 42:1.0 43:0.0 44:0.004 45:0.0 46:0.0 47:0.0 48:1.0 49:0.021283738418154962 50:1.0 51:0.021173469387755234 52:0.07703468950055811 53:0.2666759131054164 54:0.026782268017959528 55:2.04046797026627E-6 56:0.0059880239520959545 57:0.6359632014391693 58:0.7002281854955912 59:0.27450732082110496 60:0.014963587856197245 61:0.011538969499137106 62:0.01394640368836839 
8.0 8.0 8.0 0.0 0:0.0 1:0.0 2:1.0 3:0.0 4:0.0 5:0.0 6:0.0 7:0.0 8:0.0 9:0.0 10:1.0 11:0.0 12:0.0 13:0.0 14:0.0 15:0.0 16:0.0 17:0.0 18:0.0 19:0.0 20:0.0 21:8.680555555555555E-4 22:0.0 23:0.0 24:0.0 25:0.0 26:0.02994011976047904 27:0.0 28:0.0 29:0.0 30:0.0 31:1.0 32:0.0 33:1.3726347336019854E-15 34:0.0 35:0.011363636363636364 36:0.0035026269702276708 37:0.0 38:0.0 39:0.6666666666666666 40:0.0 41:0.6666666666666666 42:0.041666666666666664 43:0.005858230814294083 44:0.028 45:0.0 46:0.08333333333333333 47:0.038461538461538464 48:1.0 49:0.021283738418154962 50:1.0 51:0.02551020408163268 52:0.125768167075411 53:0.7432586805065862 54:0.0183074460960134 55:2.5112506405143955E-4 56:0.043936428740403384 57:0.6343272150827791 58:0.30732810524923204 59:0.12082218597249851 60:0.20832091967823801 61:9.986005173091628E-4 62:0.01394640368836839 
0.0 8.0 0.0 0.0 0:0.0 1:0.0 2:1.0 3:0.0 4:0.0 5:0.0 6:0.0 7:1.0 8:1.0 9:0.0 10:1.0 11:0.0 12:0.0 13:0.0 14:0.0 15:0.0 16:0.0 17:0.0 18:0.0 19:0.0 20:0.0 21:0.001736111111111111 22:1.0 23:0.0 24:0.0 25:0.0 26:0.02994011976047904 27:0.0 28:1.0 29:1.0 30:0.0 31:0.0 32:0.0 33:1.3726347336019854E-15 34:0.0 35:0.0 36:0.0 37:0.0 38:0.0 39:0.0 40:0.0 41:0.0 42:1.0 43:0.0 44:0.004 45:0.0 46:0.0 47:0.0 48:1.0 49:0.021283738418154962 50:1.0 51:0.021173469387754964 52:0.07703468950055811 53:0.2666464521103056 54:0.026783793638467668 55:2.04046797026627E-6 56:0.00598802395209603 57:0.6359623108641251 58:0.577976575015861 59:0.22668816555944726 60:0.014963587856197245 61:0.011538969499136959 62:0.01394640368836839 
0.0 8.0 0.0 0.0 0:0.0 1:0.0 2:1.0 3:0.0 4:0.0 5:0.0 6:0.0 7:1.0 8:1.0 9:0.0 10:1.0 11:0.0 12:0.0 13:0.0 14:0.0 15:0.0 16:0.0 17:0.0 18:0.0 19:0.0 20:0.0 21:0.001736111111111111 22:1.0 23:0.0 24:0.0 25:0.0 26:0.02994011976047904 27:0.0 28:1.0 29:1.0 30:0.0 31:0.0 32:0.0 33:1.3726347336019854E-15 34:0.0 35:0.0 36:0.0 37:0.0 38:0.0 39:0.0 40:0.0 41:0.0 42:1.0 43:0.0 44:0.004 45:0.0 46:0.0 47:0.0 48:1.0 49:0.021283738418154962 50:1.0 51:0.021173469387754964 52:0.07703468950055811 53:0.2666464521103056 54:0.026783793638467668 55:2.04046797026627E-6 56:0.00598802395209603 57:0.6359623108641251 58:0.6035858824347382 59:0.23670541937499812 60:0.014963587856197245 61:0.011538969499136959 62:0.01394640368836839 
0.0 8.0 0.0 0.0 0:0.0 1:0.0 2:1.0 3:0.0 4:0.0 5:0.0 6:0.0 7:0.0 8:0.0 9:0.0 10:1.0 11:0.0 12:0.0 13:0.0 14:0.0 15:0.0 16:0.0 17:0.0 18:0.0 19:0.0 20:0.0 21:8.680555555555555E-4 22:0.0 23:0.0 24:0.0 25:0.0 26:0.031936127744510975 27:0.0 28:0.0 29:0.0 30:0.0 31:1.0 32:0.0 33:1.3726347336019854E-15 34:0.0 35:0.011363636363636364 36:0.012259194395796848 37:0.0 38:0.0 39:0.5 40:0.0 41:0.25 42:0.0196078431372549 43:0.011130638547158758 44:0.047 45:0.0 46:0.13725490196078433 47:0.05555555555555555 48:1.0 49:0.020777941900541604 50:1.0 51:0.02551020408163268 52:0.12567638519774274 53:0.7434058507574955 54:0.0183074460960134 55:3.5118174644882506E-4 56:0.02929385105968451 57:0.6343272150827791 58:0.3997997220830062 59:0.156993084365302 60:0.43694124551708374 61:4.761037789207186E-4 62:0.01394640368836839 
0.0 8.0 0.0 0.0 0:0.0 1:0.0 2:1.0 3:0.0 4:0.0 5:0.0 6:0.0 7:1.0 8:1.0 9:0.0 10:1.0 11:0.0 12:0.0 13:0.0 14:0.0 15:0.0 16:0.0 17:0.0 18:0.0 19:0.0 20:0.0 21:0.001736111111111111 22:1.0 23:0.0 24:0.0 25:0.0 26:0.031936127744510975 27:0.0 28:1.0 29:1.0 30:0.0 31:0.0 32:0.0 33:1.3726347336019854E-15 34:0.0 35:0.0 36:0.0 37:0.0 38:0.0 39:0.0 40:0.0 41:0.0 42:1.0 43:0.0 44:0.004 45:0.0 46:0.0 47:0.0 48:1.0 49:0.020777941900541604 50:1.0 51:0.021173469387754964 52:0.07703468950055811 53:0.26665961472914673 54:0.027918855296420433 55:2.04046797026627E-6 56:0.00598802395209603 57:0.6359623108641251 58:0.5808735554931095 59:0.22782133906799373 60:0.014963587856197245 61:0.011538969499136959 62:0.01394640368836839 
0.0 2.027974703944342 0.0 0.0 0:0.0 1:0.0 2:1.0 3:0.0 4:0.0 5:0.0 6:0.0 7:1.0 8:1.0 9:0.0 10:1.0 11:0.0 12:0.0 13:0.0 14:0.0 15:0.0 16:0.0 17:0.0 18:0.0 19:0.0 20:0.0 21:8.680555555555555E-4 22:1.0 23:0.0 24:0.0 25:0.0 26:0.03393213572854291 27:0.0 28:1.0 29:1.0 30:0.0 31:1.0 32:0.0 33:1.3726347336019854E-15 34:0.0 35:0.0 36:0.0 37:0.0 38:0.0 39:0.0 40:0.0 41:0.0 42:1.0 43:0.0 44:0.0 45:0.0 46:0.0 47:0.0 48:1.0 49:0.023559822747415065 50:1.0 51:0.029846938775510264 52:0.07703468950055811 53:0.26020669647685 54:0.028285004218340692 55:0.0 56:0.0 57:0.6326939004515216 58:0.23077732745825685 59:0.0908785612254675 60:0.010483471731587297 61:0.023216962727179366 62:0.01394640368836839 
0.0 5.925881734764842 0.0 0.0 0:0.0 1:0.0 2:1.0 3:0.0 4:0.0 5:0.0 6:0.0 7:0.0 8:0.0 9:0.0 10:1.0 11:0.0 12:0.0 13:0.0 14:0.0 15:0.0 16:0.0 17:0.0 18:0.0 19:0.0 20:0.0 21:0.0 22:1.0 23:0.0 24:0.0 25:0.0 26:0.03792415169660678 27:0.0 28:0.0 29:0.0 30:0.0 31:1.0 32:0.0 33:1.3726347336019854E-15 34:0.0 35:0.0 36:0.0 37:0.0 38:0.0 39:0.0 40:0.0 41:1.0 42:0.0 43:0.0011716461628588166 44:0.012 45:0.0 46:0.0 47:0.0 48:1.0 49:0.02236758809875501 50:1.0 51:0.024489795918367335 52:0.12481525522785528 53:0.9999999999999998 54:0.01768346730824096 55:1.7700445043262911E-6 56:0.0021934100214454125 57:0.6347128340769637 58:0.10497112193294261 59:0.04166881616763498 60:0.030638020804165913 61:0.006518312795308686 62:0.01394640368836839 
0.0 8.0 0.0 0.0 0:0.0 1:0.0 2:1.0 3:0.0 4:0.0 5:0.0 6:0.0 7:0.0 8:0.0 9:0.0 10:1.0 11:0.0 12:0.0 13:0.0 14:0.0 15:0.0 16:0.0 17:0.0 18:0.0 19:0.0 20:0.0 21:0.0 22:1.0 23:0.0 24:0.0 25:0.0 26:0.03792415169660678 27:0.0 28:0.0 29:0.0 30:0.0 31:1.0 32:0.0 33:1.3726347336019854E-15 34:0.0 35:0.0 36:0.0 37:0.0 38:0.0 39:0.0 40:0.0 41:1.0 42:0.0 43:0.0011716461628588166 44:0.012 45:0.0 46:0.0 47:0.0 48:1.0 49:0.02236758809875501 50:1.0 51:0.024489795918367335 52:0.12481525522785528 53:0.9999999999999998 54:0.017684992928748967 55:1.7700445043262911E-6 56:0.0021934100214454125 57:0.6347128340769637 58:0.1782058227376272 59:0.07031502512154586 60:0.030638020804165913 61:0.006518312795308686 62:0.01394640368836839 
0.0 8.0 0.0 0.0 0:0.0 1:0.0 2:1.0 3:0.0 4:0.0 5:0.0 6:0.0 7:0.0 8:1.0 9:0.0 10:1.0 11:0.0 12:0.0 13:0.0 14:0.0 15:0.0 16:0.0 17:0.0 18:0.0 19:0.0 20:0.0 21:0.003472222222222222 22:0.0 23:0.0 24:0.0 25:0.0 26:0.03792415169660678 27:0.0 28:1.0 29:1.0 30:0.0017985611510791368 31:0.0 32:0.0 33:1.3726347336019854E-15 34:0.0 35:0.0 36:0.0 37:0.0 38:0.0 39:0.0 40:0.0 41:0.0 42:1.0 43:0.0 44:0.004 45:0.0 46:0.0 47:0.0 48:1.0 49:0.0462122810719561 50:1.0 51:0.021173469387755234 52:0.07703468950055811 53:0.26664833240486746 54:0.026783793638467494 55:2.244105034768656E-4 56:0.24883465239475225 57:0.6228183137852111 58:0.6632636802660585 59:0.26004842457317506 60:0.014963587856197245 61:0.03053887911619004 62:0.01394640368836839 
0.0 0.961604297187144 0.0 0.0 0:0.0 1:0.0 2:1.0 3:0.0 4:0.0 5:0.0 6:0.0 7:0.0 8:0.0 9:0.0 10:1.0 11:0.0 12:0.0 13:0.0 14:0.0 15:0.0 16:0.0 17:0.0 18:0.0 19:0.0 20:0.0 21:0.0 22:0.0 23:0.0 24:0.0 25:0.0 26:0.03992015968063872 27:0.0 28:0.0 29:0.0 30:0.0 31:1.0 32:0.0 33:1.3726347336019854E-15 34:0.0 35:0.011363636363636364 36:0.0035026269702276708 37:0.0 38:0.0 39:0.6666666666666666 40:0.0 41:1.0 42:0.0 43:0.005565319273579379 44:0.024 45:0.0 46:0.09523809523809523 47:0.0 48:1.0 49:0.022949165976150158 50:1.0 51:0.02551020408163268 52:0.1255603081171623 53:0.7436206620972367 54:0.0183074460960134 55:2.3993936614214896E-4 56:0.04604642385355768 57:0.6343289962328676 58:0.13200284676614896 59:0.05224236187011964 60:0.18992108275446498 61:0.0010953464204179742 62:0.01394640368836839 
0.0 0.7129638122635296 0.0 0.0 0:0.0 1:0.0 2:1.0 3:0.0 4:0.0 5:0.0 6:0.0 7:0.0 8:1.0 9:0.0 10:1.0 11:0.0 12:1.0 13:0.0 14:0.0 15:0.0 16:0.0 17:0.0 18:0.0 19:0.0 20:0.0 21:0.003472222222222222 22:0.0 23:0.0 24:0.0 25:0.0 26:0.03992015968063872 27:0.0 28:1.0 29:1.0 30:0.0017985611510791368 31:0.0 32:0.0 33:1.3726347336019854E-15 34:0.0 35:0.0 36:0.0 37:0.0 38:0.0 39:0.0 40:0.0 41:0.0 42:1.0 43:0.0 44:0.004 45:0.0 46:0.0 47:0.0 48:1.0 49:0.0473754368267464 50:1.0 51:0.0211734693877551 52:0.07703468950055811 53:0.2666464521103056 54:0.027918855296420433 55:2.244105034768699E-4 56:0.24883465239475702 57:0.6228192043602554 58:0.6859760072076873 59:0.26893211123006255 60:0.014963587856197245 61:0.03053887911619004 62:0.01394640368836839 
0.0 8.0 0.0 0.0 0:0.0 1:0.0 2:1.0 3:0.0 4:0.0 5:0.0 6:0.0 7:0.0 8:0.0 9:0.0 10:1.0 11:0.0 12:1.0 13:0.0 14:0.0 15:0.0 16:0.0 17:0.0 18:0.027777777777777776 19:0.0 20:0.0 21:0.015625 22:0.0 23:0.0 24:0.0 25:0.0 26:0.03992015968063872 27:0.005181347150259067 28:0.0 29:0.0 30:0.0017985611510791368 31:0.0 32:0.0 33:1.3726347336019854E-15 34:0.004424778761061947 35:0.05113636363636364 36:0.03502626970227671 37:0.0 38:0.021739130434782608 39:0.5294117647058824 40:0.08695652173913043 41:0.11764705882352941 42:0.2608695652173913 43:0.004393673110720563 44:0.01223529411764706 45:0.09999380221367833 46:0.2898550724637681 47:0.12941176470588237 48:1.0 49:0.0473754368267464 50:1.0 51:0.0211734693877551 52:0.11525914208239585 53:0.7763682434020626 54:0.027918855296420433 55:0.0074387584405242145 56:0.4014058790192278 57:0.6228192043602554 58:0.6888729876849359 59:0.27006528160426496 60:0.2725463710686047 61:0.001486170670643836 62:0.015996948392571084 
0.0 6.10680694643162 0.0 0.0 0:0.0 1:0.0 2:1.0 3:0.0 4:0.0 5:0.0 6:0.0 7:0.0 8:0.0 9:0.0 10:1.0 11:0.0 12:0.0 13:0.0 14:0.0 15:0.0 16:0.0 17:0.0 18:0.0 19:0.0 20:0.0 21:0.0 22:0.0 23:0.0 24:0.0 25:0.0 26:0.041916167664670656 27:0.0 28:0.0 29:1.0 30:0.0 31:1.0 32:0.0 33:1.3726347336019854E-15 34:0.0 35:0.017045454545454544 36:0.005253940455341506 37:0.0 38:0.0 39:1.0 40:0.0 41:0.6666666666666666 42:0.0 43:0.00995899238429994 44:0.04666666666666666 45:0.0 46:0.07894736842105263 47:0.025 48:1.0 49:0.023559822747415065 50:1.0 51:0.025510204081632615 52:0.12572227613657685 53:0.743314464640006 54:0.0183074460960134 55:2.48052070120316E-4 56:0.028725978647687174 57:0.6343281056578234 58:0.1474147829051113 59:0.05827091828068031 60:0.31472815775384894 61:6.609811452577742E-4 62:0.01394640368836839 
0.0 8.0 0.0 0.0 0:0.0 1:0.0 2:1.0 3:0.0 4:0.0 5:0.0 6:0.0 7:1.0 8:1.0 9:0.0 10:1.0 11:0.0 12:0.0 13:0.0 14:0.0 15:0.0 16:0.0 17:1.0 18:0.0 19:0.0 20:0.0 21:8.680555555555555E-4 22:1.0 23:0.0 24:0.0 25:0.0 26:0.04391217564870259 27:0.0 28:1.0 29:1.0 30:0.0 31:1.0 32:0.0 33:1.3726347336019854E-15 34:0.0 35:0.0 36:0.0 37:0.0 38:0.0 39:0.0 40:0.0 41:0.0 42:1.0 43:0.0 44:0.0 45:0.0 46:0.0 47:0.0 48:1.0 49:0.02236758809875501 50:1.0 51:0.029846938775510264 52:0.07703468950055811 53:0.25084027095506484 54:0.022245072627164266 55:0.0 56:0.0 57:0.6326930098764774 58:0.40030862498684283 59:0.1571919183507347 60:0.010483471731587297 61:0.023216962727179366 62:0.01394640368836839 
0.0 8.0 0.0 0.0 0:0.0 1:0.0 2:1.0 3:0.0 4:0.0 5:0.0 6:0.0 7:0.0 8:1.0 9:0.0 10:1.0 11:0.0 12:0.0 13:0.0 14:0.0 15:0.0 16:0.0 17:0.0 18:0.0 19:0.0 20:0.0 21:0.003472222222222222 22:0.0 23:0.0 24:0.0 25:0.0 26:0.04391217564870259 27:0.0 28:1.0 29:1.0 30:0.0017985611510791368 31:0.0 32:0.0 33:1.3726347336019854E-15 34:0.0 35:0.0 36:0.0 37:0.0 38:0.0 39:0.0 40:0.0 41:0.0 42:1.0 43:0.0 44:0.004 45:0.0 46:0.0 47:0.0 48:1.0 49:0.0462122810719561 50:1.0 51:0.021173469387755234 52:0.07703468950055811 53:0.266632664093753 54:0.027918855296420433 55:2.2437248940379256E-4 56:0.24880298838313533 57:0.6228192043602554 58:0.6632636802660585 59:0.26004842457317506 60:0.014963587856197245 61:0.03053759185944095 62:0.01394640368836839 
0.0 0.32003765558911823 0.0 0.0 0:0.0 1:0.0 2:1.0 3:0.0 4:0.0 5:0.0 6:0.0 7:0.0 8:0.0 9:0.0 10:1.0 11:0.0 12:1.0 13:0.0 14:0.0 15:0.0 16:0.0 17:0.0 18:0.05555555555555555 19:0.0 20:0.0 21:0.07899305555555555 22:0.0 23:0.0 24:0.0 25:0.0 26:0.04391217564870259 27:0.020725388601036267 28:0.0 29:0.0 30:0.010791366906474822 31:0.0 32:0.0 33:1.429827847502068E-15 34:0.030973451327433628 35:0.26704545454545453 36:0.1243432574430823 37:1.5491082675347056E-16 38:0.02408256880733945 39:0.5164835164835165 40:0.05504587155963303 41:0.27472527472527475 42:0.20871559633027523 43:0.0629759812536614 44:0.015164835164835164 45:0.4404937712247467 46:0.1628440366972477 47:0.0817490494296578 48:1.0 49:0.16543574593796156 50:1.0 51:0.021173469387755234 52:0.11525914208239585 53:0.7763798071725057 54:0.027918855296420433 55:0.05839713070565528 56:0.45320285934639004 57:0.5677816666221379 58:0.6291951898536154 59:0.246722322542637 60:0.49915619146181595 61:0.0027776439072041384 62:0.011743309187822746 
0.0 8.0 0.0 0.0 0:0.0 1:0.0 2:1.0 3:0.0 4:0.0 5:0.0 6:0.0 7:0.0 8:0.0 9:0.0 10:1.0 11:0.0 12:0.0 13:0.0 14:0.0 15:0.0 16:0.0 17:0.0 18:0.0 19:0.0 20:0.0 21:0.0 22:1.0 23:0.0 24:0.0 25:0.0 26:0.04590818363273453 27:0.0 28:0.0 29:1.0 30:0.0 31:1.0 32:0.0 33:1.3726347336019854E-15 34:0.0 35:0.005681818181818182 36:0.0035026269702276708 37:0.0 38:0.0 39:1.0 40:0.0 41:0.0 42:0.0 43:0.004100761570005858 44:0.064 45:0.0 46:0.11764705882352941 47:0.058823529411764705 48:1.0 49:0.024877555780144597 50:1.0 51:0.02755102040816337 52:0.11590701416005414 53:0.7618223746535621 54:0.019222818400814082 55:0.0 56:0.0 57:0.6003019049400198 58:0.4162004942248693 59:0.1726783311459956 60:0.14945219380086328 61:0.0015033016424565368 62:0.01394640368836839 
0.0 8.0 0.0 0.0 0:0.0 1:0.0 2:1.0 3:0.0 4:0.0 5:0.0 6:0.0 7:0.0 8:0.0 9:0.0 10:1.0 11:0.0 12:0.0 13:0.0 14:0.0 15:0.0 16:0.0 17:0.0 18:0.0 19:0.0 20:0.0 21:0.0 22:1.0 23:0.0 24:0.0 25:0.0 26:0.049900199600798396 27:0.0 28:0.0 29:1.0 30:0.0 31:1.0 32:0.0 33:1.3726347336019854E-15 34:0.0 35:0.005681818181818182 36:0.0035026269702276708 37:0.0 38:0.0 39:1.0 40:0.0 41:0.0 42:0.0 43:0.004393673110720563 44:0.068 45:0.0 46:0.1111111111111111 47:0.05555555555555555 48:1.0 49:0.022949165976150158 50:1.0 51:0.027551020408163505 52:0.11590701416005414 53:0.7618374907152323 54:0.019222818400814082 55:0.0 56:0.0 57:0.6074648000213737 58:0.4836421997352158 59:0.19809173655974013 60:0.1634256759935217 61:0.0013747639533611452 62:0.01394640368836839 
0.0 5.834753179477376 0.0 0.0 0:0.0 1:0.0 2:1.0 3:0.0 4:0.0 5:0.0 6:0.0 7:0.0 8:1.0 9:0.0 10:1.0 11:0.0 12:0.0 13:0.0 14:0.0 15:0.0 16:0.0 17:0.0 18:0.0 19:0.0 20:0.0 21:0.0 22:1.0 23:0.0 24:0.0 25:0.0 26:0.049900199600798396 27:0.0 28:0.0 29:0.0 30:0.0 31:0.0 32:0.0 33:1.3726347336019854E-15 34:0.0 35:0.0 36:0.0 37:0.0 38:0.0 39:0.0 40:0.0 41:0.0 42:0.0 43:0.0 44:0.0 45:0.0 46:0.0 47:1.0 48:1.0 49:0.022949165976150158 50:1.0 51:0.017091836734693854 52:0.10132989241274312 53:0.28470152411218813 54:0.023375557423593114 55:0.0 56:0.0 57:0.6114082663175613 58:0.6603589745075374 59:0.27013492051702526 60:0.003997756955193621 61:0.034864471484221386 62:0.01394640368836839 
0.0 8.0 0.0 0.0 0:0.0 1:0.0 2:1.0 3:0.0 4:0.0 5:0.0 6:0.0 7:0.0 8:0.0 9:0.0 10:1.0 11:0.0 12:0.0 13:0.0 14:0.0 15:0.0 16:0.0 17:1.0 18:0.0 19:0.0 20:0.0 21:0.0026041666666666665 22:0.0 23:0.0 24:0.0 25:0.0 26:0.049900199600798396 27:0.0025906735751295333 28:0.0 29:0.0 30:0.0017985611510791368 31:0.0 32:0.0 33:1.3726347336019854E-15 34:0.0 35:0.02840909090909091 36:0.014010507880910683 37:0.0 38:0.0 39:0.35714285714285715 40:0.02564102564102564 41:0.6428571428571429 42:0.02564102564102564 43:0.02899824253075571 44:0.029428571428571432 45:0.29883588475536904 46:0.06837606837606838 47:0.038461538461538464 48:1.0 49:0.0473754368267464 50:1.0 51:0.024489795918367335 52:0.1256250953249281 53:0.7513139708716866 54:0.01768499292874892 55:0.015694782758313347 56:0.4035788373228732 57:0.594405407571669 58:0.5482101006121319 59:0.224414518687269 60:0.47702633785601056 61:8.722046494296195E-4 62:0.011442059530470115 
0.0 0.527430531472403 0.0 0.0 0:0.0 1:0.0 2:1.0 3:0.0 4:0.0 5:0.0 6:0.0 7:0.0 8:0.0 9:0.0 10:1.0 11:0.0 12:0.0 13:0.0 14:0.0 15:0.0 16:0.0 17:0.0 18:0.0 19:0.0 20:0.0 21:0.0026041666666666665 22:0.0 23:0.0 24:0.0 25:0.0 26:0.049900199600798396 27:0.0025906735751295333 28:0.0 29:0.0 30:0.0017985611510791368 31:0.0 32:2.1411442274549593E-6 33:2.0123038017045102E-6 34:0.0 35:0.02840909090909091 36:0.014010507880910683 37:5.104861548747539E-6 38:0.0 39:0.35714285714285715 40:0.030303030303030304 41:0.7142857142857143 42:0.030303030303030304 43:0.024311657879320447 44:0.024285714285714285 45:0.510082088611247 46:0.08080808080808081 47:0.026785714285714284 48:1.0 49:0.0473754368267464 50:1.0 51:0.024489795918367203 52:0.125623745591433 53:0.7513139708716866 54:0.01768499292874892 55:0.019336227392518678 56:0.4973204268414888 57:0.594405407571669 58:0.6214457670769756 59:0.25427094062660544 60:0.40309770162575936 61:8.723883842020557E-4 62:0.009670852495455462 
0.0 8.0 0.0 0.0 0:0.0 1:0.0 2:1.0 3:0.0 4:0.0 5:0.0 6:0.0 7:0.0 8:0.0 9:0.0 10:1.0 11:0.0 12:0.0 13:0.0 14:0.0 15:0.0 16:0.0 17:0.0 18:0.0 19:0.0 20:0.0 21:8.680555555555555E-4 22:0.0 23:0.0 24:0.0 25:0.0 26:0.05189620758483034 27:0.0 28:0.0 29:0.0 30:0.0017985611510791368 31:0.0 32:0.0 33:1.3726347336019854E-15 34:0.01327433628318584 35:0.03977272727272727 36:0.01576182136602452 37:0.0 38:0.025 39:0.2916666666666667 40:0.0 41:0.3333333333333333 42:0.005555555555555556 43:0.04422964264792033 44:0.026 45:0.01580221795263598 46:0.05 47:0.054187192118226604 48:1.0 49:0.038581979320531756 50:1.0 51:0.022831632653061217 52:0.07703468950055811 53:0.9999999999999998 54:0.02131444411728361 55:0.00882385646133664 56:0.2482186474987207 57:0.6143685377648348 58:0.36952434477544055 59:0.14753775304405992 60:0.6296937616623022 61:6.679979331261264E-4 62:0.013825187919845322 
0.0 8.0 0.0 0.0 0:0.0 1:0.0 2:1.0 3:0.0 4:0.0 5:0.0 6:0.0 7:0.0 8:1.0 9:0.0 10:1.0 11:0.0 12:0.0 13:0.0 14:0.0 15:0.0 16:0.0 17:0.0 18:0.0 19:0.0 20:0.0 21:0.0 22:1.0 23:0.0 24:0.0 25:0.0 26:0.06187624750499002 27:0.0 28:0.0 29:1.0 30:0.0 31:1.0 32:0.0 33:1.3726347336019854E-15 34:0.0 35:0.005681818181818182 36:0.0017513134851138354 37:0.0 38:0.0 39:1.0 40:0.0 41:1.0 42:0.0 43:0.0011716461628588166 44:0.016 45:0.0 46:0.2 47:0.0 48:1.0 49:0.024877555780144597 50:1.0 51:0.029846938775510264 52:0.10619028272867523 53:0.7833852099828852 54:0.022245072627164266 55:3.068077140833489E-6 56:0.0021000820344541124 57:0.6160009618210478 58:0.2558072387816845 59:0.10352972103777021 60:0.04551051296582941 61:0.005348091167999979 62:0.01394640368836839 
0.0 0.17249871663487046 0.0 0.0 0:0.0 1:0.0 2:1.0 3:0.0 4:0.0 5:0.0 6:0.0 7:0.0 8:0.0 9:0.0 10:1.0 11:0.0 12:0.0 13:0.0 14:1.0 15:0.0 16:1.0 17:1.0 18:0.006802721088435374 19:0.0 20:0.0 21:0.027777777777777776 22:0.0 23:0.0 24:0.0 25:0.0 26:0.001996007984031936 27:0.012953367875647668 28:0.0 29:0.0 30:0.08633093525179857 31:1.0 32:0.01824254881808835 33:0.002099366740316678 34:0.08849557522123894 35:0.5511363636363636 36:0.22591943957968477 37:0.004537116780393475 38:0.016129032258064516 39:0.313915857605178 40:0.008064516129032258 41:0.6504854368932039 42:0.017204301075268817 43:0.4794961921499707 44:0.020077669902912623 45:0.23406046902282285 46:0.06935483870967742 47:0.023062730627306273 48:1.0 49:0.5096935007385524 50:1.0 51:0.02362325882734046 52:0.32173327376509514 53:0.3503219643818051 54:0.021483787993671715 55:0.09658342076342374 56:0.23599122361380906 57:0.020899124564731437 58:0.04566124062223276 59:0.02366325476787409 60:0.2738831219076626 61:0.039723800861030466 62:0.013668349263966092 
0.0 8.0 0.0 0.0 0:0.0 1:0.0 2:1.0 3:0.0 4:0.0 5:0.0 6:0.0 7:0.0 8:0.0 9:0.0 10:1.0 11:0.0 12:0.0 13:0.0 14:0.0 15:0.0 16:0.0 17:0.0 18:0.011111111111111112 19:0.0 20:0.0 21:0.005208333333333333 22:0.0 23:0.0 24:0.0 25:0.0 26:0.003992015968063872 27:8.635578583765112E-4 28:0.0 29:0.0 30:0.007194244604316546 31:0.0 32:0.0 33:1.3726347336019854E-15 34:0.01327433628318584 35:0.045454545454545456 36:0.01576182136602452 37:0.0 38:0.023195876288659795 39:0.26666666666666666 40:0.005154639175257732 41:0.6666666666666666 42:0.030927835051546393 43:0.05008787346221441 44:0.021866666666666666 45:0.17794699396677569 46:0.04639175257731959 47:0.026905829596412557 48:1.0 49:0.049618665782413404 50:1.0 51:0.020077475434618294 52:0.08451761199751112 53:0.7297025216401732 54:0.015057874413970987 55:0.009977282501600761 56:0.298658996323587 57:0.4903212304184813 58:0.1674020168778082 59:0.08106306825885196 60:0.24186205573115116 61:0.003560137349869216 62:0.012646441601058647 
0.0 8.0 0.0 0.0 0:0.0 1:0.0 2:1.0 3:0.0 4:0.0 5:0.0 6:0.0 7:0.0 8:0.0 9:0.0 10:1.0 11:0.0 12:0.0 13:0.0 14:0.0 15:0.0 16:0.0 17:0.0 18:0.007936507936507936 19:0.0 20:0.0 21:0.0078125 22:0.0 23:0.0 24:0.0 25:0.0 26:0.011976047904191616 27:0.0025906735751295333 28:0.0 29:0.0 30:0.010791366906474822 31:0.0 32:0.0 33:1.3154416197019027E-15 34:0.008849557522123894 35:0.06818181818181818 36:0.02276707530647986 37:1.9382605302752397E-16 38:0.011111111111111112 39:0.2857142857142857 40:0.011111111111111112 41:0.6190476190476191 42:0.03333333333333333 43:0.06971294669009959 44:0.021714285714285717 45:0.23556717224930487 46:0.04814814814814815 47:0.02572347266881029 48:1.0 49:0.07079443877628712 50:1.0 51:0.020077475434618273 52:0.08451761199751112 53:0.7296724628875375 54:0.01501210579873095 55:0.014249697832127435 56:0.3016868516835483 57:0.4721828884910988 58:0.4522621072056595 59:0.21536012607725039 60:0.2432075839405757 61:0.005032987672691741 62:0.012715443679910314 
0.0 8.0 0.0 0.0 0:0.0 1:0.0 2:1.0 3:0.0 4:0.0 5:0.0 6:0.0 7:0.0 8:0.0 9:0.0 10:1.0 11:0.0 12:0.0 13:0.0 14:0.0 15:0.0 16:0.0 17:0.0 18:0.0 19:0.0 20:0.0 21:0.0 22:0.0 23:0.0 24:0.0 25:0.0 26:0.015968063872255488 27:0.0017271157167530224 28:0.0 29:0.0 30:0.007194244604316546 31:0.0 32:0.0 33:1.3726347336019854E-15 34:0.004424778761061947 35:0.0625 36:0.021015761821366025 37:0.0 38:0.006787330316742082 39:0.3333333333333333 40:0.00904977375565611 41:0.6060606060606061 42:0.0 43:0.058875219683655534 44:0.02278787878787879 45:6.625219861128107E-5 46:0.05429864253393665 47:0.023715415019762844 48:1.0 49:0.049618665782413404 50:1.0 51:0.020077475434618294 52:0.08451761199751112 53:0.7296987641606592 54:0.01418827072441049 55:0.006545558640416527 56:0.195920947853574 57:0.49071308343797604 58:0.5542937596143539 59:0.2632813481416602 60:0.26673028431563606 61:0.003559898180390145 62:0.013945185695939902 
8.0 8.0 8.0 0.0 0:0.0 1:0.0 2:1.0 3:0.0 4:0.0 5:0.0 6:0.0 7:0.0 8:0.0 9:0.0 10:1.0 11:0.0 12:0.0 13:0.0 14:0.0 15:0.0 16:0.0 17:0.0 18:0.027777777777777776 19:0.0 20:0.0 21:0.006076388888888888 22:0.0 23:0.0 24:0.0 25:0.0 26:0.015968063872255488 27:0.0017271157167530224 28:0.0 29:0.0 30:0.0017985611510791368 31:0.0 32:0.0 33:1.3726347336019854E-15 34:0.004424778761061947 35:0.022727272727272728 36:0.014010507880910683 37:0.0 38:0.023076923076923078 39:0.3333333333333333 40:0.03076923076923077 41:0.5 42:0.1076923076923077 43:0.012888107791446984 44:0.017666666666666667 45:0.16828272164031893 46:0.12307692307692308 47:0.05263157894736842 48:1.0 49:0.01896120338829771 50:1.0 51:0.020077475434618294 52:0.35617847256059293 53:0.3065525231719876 54:0.026149135507139144 55:0.00442691294577864 56:0.3493688784466865 57:0.5179646797937428 58:0.045236350152236315 59:0.023440726436216953 60:0.2079318962614177 61:0.0013504422901126 62:0.010872185508717493 
0.0 0.0 0.04725205760905858 0.0 0:0.0 1:0.0 2:1.0 3:0.0 4:0.0 5:0.0 6:0.0 7:0.0 8:1.0 9:0.0 10:1.0 11:0.0 12:0.0 13:0.0 14:0.0 15:0.0 16:0.0 17:0.0 18:0.0 19:0.0 20:0.0 21:8.680555555555555E-4 22:0.0 23:1.0 24:0.0 25:0.0 26:0.017964071856287425 27:8.635578583765112E-4 28:1.0 29:1.0 30:0.0 31:1.0 32:0.0 33:1.3726347336019854E-15 34:0.0 35:0.005681818181818182 36:0.0017513134851138354 37:0.0 38:0.0 39:0.5 40:0.14285714285714285 41:0.5 42:0.14285714285714285 43:0.0011716461628588166 44:0.01 45:0.0 46:0.14285714285714285 47:0.125 48:1.0 49:0.008438510025300905 50:1.0 51:0.02362055933484505 52:0.050112905206866905 53:0.6859506472908534 54:0.02095134643637934 55:9.700796891214298E-5 56:0.08061922628243545 57:0.5263271794597773 58:0.10255504021491729 59:0.050380480734421036 60:0.04736528104141792 61:0.004066687462941247 62:0.01394640368836839 
0.0 8.0 0.0 0.0 0:0.0 1:0.0 2:1.0 3:0.0 4:0.0 5:0.0 6:0.0 7:0.0 8:0.0 9:0.0 10:1.0 11:0.0 12:0.0 13:0.0 14:0.0 15:0.0 16:0.0 17:0.0 18:0.0 19:0.0 20:0.0 21:0.0 22:1.0 23:0.0 24:0.0 25:0.0 26:0.017964071856287425 27:0.0 28:0.0 29:1.0 30:0.0 31:0.0 32:0.0 33:1.3726347336019854E-15 34:0.0 35:0.005681818181818182 36:0.01926444833625219 37:0.0 38:0.0 39:1.0 40:0.0 41:1.0 42:0.0 43:0.0 44:0.039999999999999994 45:0.0 46:1.0 47:0.0 48:1.0 49:0.008438510025300905 50:1.0 51:0.020077475434618294 52:0.32173327376509514 53:0.3503996003996002 54:0.01600375912893173 55:1.509181463951851E-5 56:0.006981011053267218 57:0.5276630420262364 58:0.04457004464246914 59:0.023092417679415354 60:0.10011416829257544 61:0.0016354011444501175 62:0.01394640368836839 
0.0 8.0 0.0 0.0 0:0.0 1:0.0 2:1.0 3:0.0 4:0.0 5:0.0 6:0.0 7:0.0 8:0.0 9:0.0 10:1.0 11:0.0 12:0.0 13:0.0 14:0.0 15:0.0 16:0.0 17:0.0 18:0.0 19:0.0 20:0.0 21:0.0 22:1.0 23:0.0 24:0.0 25:0.0 26:0.017964071856287425 27:0.0 28:0.0 29:1.0 30:0.0 31:0.0 32:0.0 33:1.3726347336019854E-15 34:0.0 35:0.005681818181818182 36:0.03502626970227671 37:0.0 38:0.0 39:1.0 40:0.0 41:1.0 42:0.0 43:0.0 44:0.076 45:0.0 46:1.0 47:0.0 48:1.0 49:0.008438510025300905 50:1.0 51:0.020077475434618294 52:0.32173327376509514 53:0.3503275075440023 54:0.0159671442367397 55:0.0 56:0.0 57:0.5276630420262364 58:0.4482024718968752 59:0.21304409426791449 60:0.15189684383285879 61:0.0010778816812119414 62:0.01394640368836839 
0.0 2.4730034810904757 0.0 0.593614625995244 0:0.0 1:0.0 2:1.0 3:0.0 4:0.0 5:0.0 6:0.0 7:0.0 8:1.0 9:0.0 10:1.0 11:0.0 12:0.0 13:0.0 14:0.0 15:0.0 16:0.0 17:1.0 18:0.0 19:0.0 20:0.0 21:8.680555555555555E-4 22:1.0 23:1.0 24:0.0 25:0.0 26:0.011976047904191616 27:8.635578583765112E-4 28:1.0 29:1.0 30:0.0 31:0.0 32:0.0 33:1.3726347336019854E-15 34:0.0 35:0.0 36:0.0 37:0.0 38:0.0 39:0.0 40:0.5 41:0.0 42:0.5 43:0.0 44:0.004 45:0.0 46:0.0 47:0.5 48:1.0 49:0.022949165976150158 50:1.0 51:0.033163265306122465 52:0.11520380300909588 53:0.35693327523806884 54:0.02263105461568857 55:0.0 56:0.0 57:0.5425703776928764 58:0.09431602773762239 59:0.04459713316674615 60:0.015716247365131702 61:0.01720755504294936 62:0.01394640368836839 
0.5882169618689268 8.0 0.0 0.0 0:0.0 1:0.0 2:1.0 3:0.0012987012987012987 4:0.0 5:0.0 6:0.0 7:0.0 8:0.0 9:0.0 10:1.0 11:0.0 12:0.0 13:0.0 14:0.0 15:0.0 16:0.0 17:0.0 18:0.0 19:0.0 20:0.0 21:8.680555555555555E-4 22:1.0 23:0.0 24:0.0 25:0.0 26:0.011976047904191616 27:0.0 28:0.0 29:1.0 30:0.0 31:1.0 32:0.0 33:1.3726347336019854E-15 34:0.0 35:0.005681818181818182 36:0.0017513134851138354 37:0.0 38:0.0 39:1.0 40:0.0 41:0.0 42:0.09090909090909091 43:0.0026362038664323375 44:0.039999999999999994 45:0.0 46:0.09090909090909091 47:0.0 48:1.0 49:0.022949165976150158 50:1.0 51:0.03557256235827665 52:0.1534282555909336 53:0.6878873892139257 54:0.02263105461568857 55:3.338557514067935E-4 56:0.08884831074231249 57:0.5416619911476841 58:0.09333105437535788 59:0.04415016821772932 60:0.09821459905574084 61:0.0029535874853761613 62:0.01394640368836839 
0.0 8.0 0.0 0.0 0:0.0 1:0.0 2:1.0 3:0.0 4:0.0 5:0.0 6:0.0 7:0.0 8:0.0 9:0.0 10:1.0 11:0.0 12:0.0 13:0.0 14:0.0 15:0.0 16:0.0 17:0.0 18:0.0 19:0.0 20:0.0 21:0.001736111111111111 22:1.0 23:1.0 24:0.0 25:0.0 26:0.015968063872255488 27:8.635578583765112E-4 28:1.0 29:0.0 30:0.0 31:0.0 32:0.0 33:1.3726347336019854E-15 34:0.0 35:0.0 36:0.0 37:0.0 38:0.0 39:0.0 40:0.3333333333333333 41:0.0 42:0.6666666666666666 43:0.0 44:0.008 45:0.0 46:0.0 47:0.3333333333333333 48:1.0 49:0.021813060355192194 50:1.0 51:0.02834467120181406 52:0.11520380300909588 53:0.3543637854813866 54:0.0203273676486069 55:0.0 56:0.0 57:0.5861756035872363 58:0.45385158382750984 59:0.19272586725488927 60:0.02239460713488357 61:0.01032140247496194 62:0.01394640368836839 
0.0 8.0 0.0 0.0 0:0.0 1:0.0 2:1.0 3:0.0 4:0.0 5:0.0 6:0.0 7:0.0 8:0.0 9:0.0 10:1.0 11:0.0 12:0.0 13:0.0 14:0.0 15:0.0 16:0.0 17:0.0 18:0.0 19:0.0 20:0.0 21:0.0 22:0.0 23:0.0 24:0.0 25:0.0 26:0.02594810379241517 27:0.0 28:0.0 29:0.0 30:0.0 31:0.0 32:0.0 33:1.3726347336019854E-15 34:0.0 35:0.011363636363636364 36:0.0035026269702276708 37:0.0 38:0.0 39:0.5 40:0.0 41:0.75 42:0.0 43:0.007908611599297012 44:0.025 45:0.0 46:0.06896551724137931 47:0.0 48:1.0 49:0.02236758809875501 50:1.0 51:0.02834467120181406 52:0.11520380300909588 53:0.7497649576923845 54:0.0203273676486069 55:3.61065405448042E-4 56:0.05073534585884164 57:0.5950457310285252 58:0.4904684513997727 59:0.20503029751668725 60:0.2334454109050506 61:9.90140489854396E-4 62:0.01394640368836839 
0.0 8.0 0.0 0.0 0:0.0 1:0.0 2:1.0 3:0.0 4:0.0 5:0.0 6:0.0 7:0.0 8:0.0 9:0.0 10:1.0 11:0.0 12:0.0 13:0.0 14:0.0 15:0.0 16:0.0 17:0.0 18:0.0 19:0.0 20:0.0 21:0.0 22:0.0 23:0.0 24:0.0 25:0.0 26:0.0279441117764471 27:0.0 28:0.0 29:1.0 30:0.0 31:1.0 32:0.0 33:1.3726347336019854E-15 34:0.0 35:0.011363636363636364 36:0.0035026269702276708 37:0.0 38:0.0 39:1.0 40:0.0 41:0.0 42:0.0 43:0.005272407732864675 44:0.036000000000000004 45:0.0 46:0.1 47:0.0 48:1.0 49:0.02236758809875501 50:1.0 51:0.02834467120181406 52:0.1534282555909336 53:0.6789514086320754 54:0.0203273676486069 55:1.2437658399748876E-4 56:0.025910224675411698 57:0.5953511982687222 58:0.3514143541520007 59:0.14712938153823552 60:0.15746264143166588 61:0.0014679275757487984 62:0.01394640368836839 
0.0 1.8501169652178493 0.0 0.0 0:0.0 1:0.0 2:1.0 3:0.0 4:1.0 5:0.0 6:0.0 7:0.0 8:0.0 9:0.0 10:1.0 11:0.0 12:0.0 13:0.0 14:0.0 15:0.0 16:0.0 17:1.0 18:0.012345679012345678 19:0.0 20:0.0 21:0.008680555555555556 22:0.0 23:0.0 24:0.0 25:0.0 26:0.02994011976047904 27:0.004317789291882556 28:0.0 29:0.0 30:0.014388489208633094 31:1.0 32:0.030320743405275786 33:0.006332496470484337 34:0.02654867256637168 35:0.26136363636363635 36:0.10157618213660245 37:0.03991900304912164 38:0.01386748844375963 39:0.46938775510204084 40:0.007704160246533128 41:0.6428571428571429 42:0.015408320493066256 43:0.1616871704745167 44:0.022489795918367347 45:0.1976709146436594 46:0.08936825885978428 47:0.02546916890080429 48:1.0 49:0.20337048475896333 50:1.0 51:0.026077359956328205 52:0.07697800069376301 53:0.9999999999999998 54:0.013729058951502043 55:0.051410180912661696 56:0.2774752965912841 57:0.48368822748848933 58:0.18013714305579293 59:0.07772958715969273 60:0.5751053719164252 61:0.003995719542785564 62:0.014037906641775061 
0.0 1.0928457881537097 0.0 0.0 0:0.0 1:0.0 2:1.0 3:0.0 4:0.0 5:0.0 6:0.0 7:0.0 8:0.0 9:0.0 10:1.0 11:0.0 12:1.0 13:0.0 14:0.0 15:0.0 16:0.0 17:0.0 18:0.027777777777777776 19:0.0 20:0.0 21:0.006944444444444444 22:0.0 23:1.0 24:0.0 25:0.0 26:0.031936127744510975 27:0.008635578583765112 28:1.0 29:0.3333333333333333 30:0.0017985611510791368 31:0.0 32:0.0303186022610483 33:0.028494221813374524 34:0.008849557522123894 35:0.017045454545454544 36:0.010507880910683012 37:0.07266912272915083 38:0.029411764705882353 39:0.375 40:0.09803921568627451 41:0.125 42:0.0784313725490196 43:0.020503807850029292 44:0.047 45:0.726775932927129 46:0.058823529411764705 47:0.11926605504587157 48:1.0 49:0.048596750369276215 50:1.0 51:0.021258503401360547 52:0.11520380300909588 53:0.9999999999999998 54:0.0554456261222847 55:0.016858085962557327 56:0.5587567720549782 57:0.588190974912501 58:0.6758520260998627 59:0.28197326643348936 60:0.32812893176857805 61:6.513577019959455E-4 62:0.007721962298836828 
0.0 8.0 0.0 0.0 0:0.0 1:0.0 2:1.0 3:0.0 4:0.0 5:0.0 6:0.0 7:0.0 8:0.0 9:0.0 10:1.0 11:0.0 12:0.0 13:0.0 14:0.0 15:0.0 16:0.0 17:0.0 18:0.0 19:0.0 20:0.0 21:0.0 22:0.0 23:0.0 24:0.0 25:0.0 26:0.03393213572854291 27:0.0 28:0.0 29:0.0 30:0.0 31:1.0 32:0.0 33:1.3726347336019854E-15 34:0.0 35:0.011363636363636364 36:0.0035026269702276708 37:0.0 38:0.0 39:0.6666666666666666 40:0.0 41:0.6666666666666666 42:0.0 43:0.006444053895723492 44:0.028 45:0.0 46:0.08333333333333333 47:0.0 48:1.0 49:0.023559822747415065 50:1.0 51:0.02834467120181406 52:0.11520380300909588 53:0.7497649576923845 54:0.0203273676486069 55:2.4010325915180657E-4 56:0.041623916783735594 57:0.5953511982687222 58:0.457675598057478 59:0.19129403990232133 60:0.18921919789494274 61:0.0012215660782798688 62:0.01394640368836839 
0.0 8.0 0.0 0.0 0:0.0 1:0.0 2:1.0 3:0.0 4:0.0 5:0.0 6:0.0 7:0.0 8:0.0 9:0.0 10:1.0 11:0.0 12:0.0 13:0.0 14:0.0 15:0.0 16:0.0 17:0.0 18:0.0 19:0.0 20:0.0 21:0.0 22:0.0 23:0.0 24:0.0 25:0.0 26:0.03792415169660678 27:0.0 28:0.0 29:0.0 30:0.0 31:1.0 32:0.0 33:1.3726347336019854E-15 34:0.0 35:0.011363636363636364 36:0.0035026269702276708 37:0.0 38:0.0 39:0.6666666666666666 40:0.0 41:0.6666666666666666 42:0.0 43:0.006444053895723492 44:0.028 45:0.0 46:0.08333333333333333 47:0.0 48:1.0 49:0.021813060355192194 50:1.0 51:0.02834467120181406 52:0.11520380300909588 53:0.7497649576923845 54:0.0203273676486069 55:2.4456479108143616E-4 56:0.03778176319583611 57:0.5897022807626886 58:0.39197208083348056 59:0.16559319145729087 60:0.21233510372588854 61:0.001088580029641165 62:0.01394640368836839 
0.0 8.0 0.0 0.0 0:0.0 1:0.0 2:1.0 3:0.0 4:0.0 5:0.0 6:0.0 7:0.0 8:0.0 9:0.0 10:1.0 11:0.0 12:0.0 13:0.0 14:0.0 15:0.0 16:0.0 17:0.0 18:0.0 19:0.0 20:0.0 21:0.0 22:1.0 23:0.0 24:0.0 25:0.0 26:0.041916167664670656 27:0.0 28:0.0 29:1.0 30:0.0 31:1.0 32:0.0 33:1.3726347336019854E-15 34:0.0 35:0.005681818181818182 36:0.0017513134851138354 37:0.0 38:0.0 39:1.0 40:0.0 41:1.0 42:0.0 43:0.0026362038664323375 44:0.036000000000000004 45:0.0 46:0.1 47:0.0 48:1.0 49:0.02236758809875501 50:1.0 51:0.02834467120181406 52:0.11520380300909588 53:0.7497649576923845 54:0.0203273676486069 55:4.006273569461377E-6 56:0.0017300357802838458 57:0.5955595928290899 58:0.2702989007890409 59:0.11337457144325233 60:0.0759618622648032 61:0.003042892138452583 62:0.01394640368836839 
0.0 8.0 0.0 0.0 0:0.0 1:0.0 2:1.0 3:0.0 4:0.0 5:0.0 6:0.0 7:0.0 8:0.0 9:0.0 10:1.0 11:0.0 12:0.0 13:0.0 14:0.0 15:0.0 16:0.0 17:0.0 18:0.0 19:0.0 20:0.0 21:0.0 22:0.0 23:0.0 24:0.0 25:0.0 26:0.04391217564870259 27:0.0 28:0.0 29:0.0 30:0.0 31:1.0 32:0.0 33:1.3726347336019854E-15 34:0.0 35:0.011363636363636364 36:0.0035026269702276708 37:0.0 38:0.0 39:0.6666666666666666 40:0.0 41:0.3333333333333333 42:0.0 43:0.006151142355008787 44:0.02666666666666667 45:0.0 46:0.08695652173913043 47:0.0 48:1.0 49:0.021283738418154962 50:1.0 51:0.02834467120181406 52:0.1534282555909336 53:0.6789522113980516 54:0.0203273676486069 55:2.4196981842848902E-4 56:0.04234891040197599 57:0.591519053853073 58:0.36497222278552394 59:0.15377986319247047 60:0.18742565807305725 61:0.0012332556592528506 62:0.01394640368836839 
0.0 8.0 0.0 0.0 0:0.0 1:0.0 2:1.0 3:0.0 4:0.0 5:0.0 6:0.0 7:0.0 8:0.0 9:0.0 10:1.0 11:0.0 12:0.0 13:0.0 14:0.0 15:0.0 16:0.0 17:0.0 18:0.0 19:0.0 20:0.0 21:0.0 22:0.0 23:0.0 24:0.0 25:0.0 26:0.04790419161676646 27:0.0 28:0.0 29:1.0 30:0.0 31:1.0 32:0.0 33:1.3726347336019854E-15 34:0.0 35:0.011363636363636364 36:0.0035026269702276708 37:0.0 38:0.0 39:1.0 40:0.0 41:1.0 42:0.0 43:0.005272407732864675 44:0.036000000000000004 45:0.0 46:0.1 47:0.0 48:1.0 49:0.01896120338829771 50:1.0 51:0.02834467120181406 52:0.1534282555909336 53:0.6789522113980516 54:0.0203273676486069 55:1.2678945330636587E-4 56:0.025563357657533328 57:0.5977174561614436 58:0.09265605792415897 59:0.03940290694013445 60:0.1626954170652103 61:0.001420714594653532 62:0.01394640368836839 
0.0 8.0 0.0 0.0 0:0.0 1:0.0 2:1.0 3:0.0 4:0.0 5:0.0 6:0.0 7:0.0 8:0.0 9:0.0 10:1.0 11:0.0 12:0.0 13:0.0 14:0.0 15:0.0 16:0.0 17:0.0 18:0.0 19:0.0 20:0.0 21:0.0 22:0.0 23:0.0 24:0.0 25:0.0 26:0.05389221556886227 27:0.0 28:0.0 29:1.0 30:0.0 31:1.0 32:0.0 33:1.3726347336019854E-15 34:0.0 35:0.011363636363636364 36:0.0035026269702276708 37:0.0 38:0.0 39:1.0 40:0.0 41:1.0 42:0.0 43:0.003807850029291154 44:0.026 45:0.0 46:0.13333333333333333 47:0.0 48:1.0 49:0.021283738418154962 50:1.0 51:0.02834467120181406 52:0.11520380300909588 53:0.7497643319905881 54:0.0203273676486069 55:1.261065657661202E-4 56:0.0323802398709473 57:0.591519053853073 58:0.15638962842362736 59:0.06653639405113701 60:0.12775200466529424 61:0.0018093160581970995 62:0.01394640368836839 
0.0 8.0 0.0 0.0 0:0.0 1:0.0 2:1.0 3:0.0 4:0.0 5:0.0 6:0.0 7:0.0 8:0.0 9:0.0 10:1.0 11:0.0 12:0.0 13:0.0 14:0.0 15:0.0 16:0.0 17:0.0 18:0.0 19:0.0 20:0.0 21:0.0 22:1.0 23:0.0 24:0.0 25:0.0 26:0.0558882235528942 27:0.0 28:0.0 29:1.0 30:0.0 31:1.0 32:0.0 33:1.3726347336019854E-15 34:0.0 35:0.005681818181818182 36:0.0017513134851138354 37:0.0 38:0.0 39:1.0 40:0.0 41:1.0 42:0.0 43:0.0046865846514352666 44:0.064 45:0.0 46:0.058823529411764705 47:0.0 48:1.0 49:0.02236758809875501 50:1.0 51:0.02834467120181406 52:0.1534282555909336 53:0.6789522113980516 54:0.0203273676486069 55:8.285702155031715E-6 56:0.0020490880432339036 57:0.571855156874794 58:0.3785300914190472 59:0.1650631968412571 60:0.13264130472928523 61:0.0017426227371597507 62:0.01394640368836839 
0.0 7.3837474536735765 3.956692568292338 0.0 0:0.0 1:0.0 2:1.0 3:0.0 4:0.0 5:0.0 6:0.0 7:0.0 8:0.0 9:1.0 10:1.0 11:0.0 12:0.0 13:0.0 14:0.0 15:0.0 16:0.0 17:0.0 18:0.0 19:0.0 20:0.0 21:0.0 22:0.0 23:0.0 24:0.0 25:0.0 26:0.057884231536926144 27:0.0 28:0.0 29:0.0 30:0.0 31:1.0 32:0.0 33:1.3726347336019854E-15 34:0.0 35:0.011363636363636364 36:0.0035026269702276708 37:0.0 38:0.0 39:0.6666666666666666 40:0.0 41:1.0 42:0.0 43:0.00908025776215583 44:0.039999999999999994 45:0.0 46:0.06060606060606061 47:0.0 48:1.0 49:0.02236758809875501 50:1.0 51:0.0331632653061225 52:0.11520380300909588 53:0.7609469704546816 54:0.02263105461568857 55:3.008420085317736E-4 56:0.02452432024037956 57:0.5935344251783378 58:0.258516881188071 59:0.10851901894932771 60:0.3439265679099735 61:7.863253869788332E-4 62:0.01394640368836839 
0.7897165969157377 0.0 0.0 0.0 0:0.0 1:0.0 2:1.0 3:0.0 4:1.0 5:0.0 6:0.0 7:0.0 8:0.0 9:0.0 10:1.0 11:0.0 12:0.0 13:0.0 14:0.0 15:0.0 16:0.0 17:0.0 18:0.0 19:0.0 20:0.0 21:0.0 22:0.0 23:0.0 24:0.0 25:0.0 26:0.05988023952095808 27:8.635578583765112E-4 28:0.0 29:0.5 30:0.0017985611510791368 31:1.0 32:0.0 33:1.3726347336019854E-15 34:0.004424778761061947 35:0.03409090909090909 36:0.010507880910683012 37:0.0 38:0.017857142857142856 39:0.5 40:0.011904761904761904 41:0.8333333333333334 42:0.0 43:0.022261277094317515 44:0.024 45:0.7235124778535996 46:0.07142857142857142 47:0.021052631578947368 48:1.0 49:0.0473754368267464 50:1.0 51:0.026077097505668934 52:0.11520380300909588 53:0.9999999999999998 54:0.01354751011104991 55:0.020604682439675306 56:0.5455075180953393 57:0.5228022834344136 58:0.09322869439849508 59:0.04503189071932781 60:0.34004678734606125 61:8.148908884618493E-4 62:0.00799966724552107 
0.0 3.5881729310416586 0.0 0.0 0:0.0 1:1.0 2:1.0 3:0.0 4:0.0 5:0.0 6:0.0 7:0.0 8:0.0 9:0.0 10:1.0 11:0.0 12:0.0 13:0.0 14:0.0 15:0.0 16:0.0 17:0.0 18:0.0 19:0.0 20:0.0 21:0.0 22:0.0 23:0.0 24:0.0 25:0.0 26:0.07584830339321356 27:0.0034542314335060447 28:0.0 29:0.0 30:0.010791366906474822 31:0.0 32:0.0 33:1.3154416197019027E-15 34:0.0 35:0.03409090909090909 36:0.03502626970227671 37:1.5496683507707638E-16 38:0.0 39:0.8571428571428571 40:0.13793103448275862 41:0.7142857142857143 42:0.0 43:0.0014645577035735209 44:0.012571428571428574 45:0.035979218181313055 46:0.6896551724137931 47:0.11428571428571428 48:1.0 49:0.29062038404726737 50:1.0 51:0.026077097505668945 52:0.11520380300909588 53:0.4622143759905309 54:0.022081831232808147 55:0.0041682526729789025 56:0.3519096250118765 57:0.1301664484757808 58:0.12185086151371088 59:0.1549517092736458 60:0.03910053348582794 61:0.04137912320910285 62:0.012469427096222561 
0.0 2.7727827108944587 0.0 0.0 0:0.0 1:1.0 2:1.0 3:0.0 4:0.0 5:0.0 6:0.0 7:0.0 8:0.0 9:0.0 10:1.0 11:0.0 12:1.0 13:0.0 14:0.0 15:0.0 16:0.0 17:0.0 18:0.0 19:0.0 20:0.0 21:0.0 22:0.0 23:0.0 24:0.0 25:0.0 26:0.07584830339321356 27:0.0 28:0.0 29:1.0 30:0.0035971223021582736 31:0.0 32:0.0 33:1.429827847502068E-15 34:0.0 35:0.017045454545454544 36:0.01576182136602452 37:1.549668350770763E-16 38:0.0 39:1.0 40:0.0 41:0.3333333333333333 42:0.0 43:5.858230814294083E-4 44:0.012 45:0.027588697802350442 46:0.75 47:0.07142857142857142 48:1.0 49:0.12370753323485965 50:1.0 51:0.026077097505668896 52:0.11520380300909588 53:0.4622143759905309 54:0.02837654144882072 55:0.0014327690797481325 56:0.3202110622503414 57:0.18295973710224692 58:0.23645540919366406 59:0.28658709024210394 60:0.03618689351983557 61:0.01820497302208459 62:0.011690753290736272 
0.0 1.4453456306567685 0.0 0.0 0:0.0 1:1.0 2:1.0 3:0.0 4:0.0 5:0.0 6:0.0 7:0.0 8:0.0 9:0.0 10:1.0 11:0.0 12:1.0 13:0.0 14:0.0 15:0.0 16:1.0 17:0.0 18:0.0 19:0.0 20:0.0 21:0.0 22:0.0 23:0.0 24:0.0 25:0.0 26:0.07584830339321356 27:0.0 28:0.0 29:0.0 30:0.01798561151079137 31:0.0 32:0.002312435765673203 33:7.902865834230918E-4 34:0.004424778761061947 35:0.1875 36:0.07180385288966726 37:0.0021534640068321376 38:0.004464285714285714 39:0.7674418604651163 40:0.0 41:0.8372093023255814 42:0.0 43:0.0840656121851201 44:0.027255813953488372 45:0.48339100124169443 46:0.12202380952380952 47:0.013227513227513227 48:1.0 49:0.45753323485967495 50:1.0 51:0.02607709750566893 52:0.21092690248310472 53:0.63740044536281 54:0.022081831232808147 55:0.11183670234080281 56:0.6205907467654183 57:0.07726629084399797 58:0.12185086151371088 59:0.1549517092736458 60:0.23196086333466853 61:0.006906260882622037 62:0.013071521622516586 
0.0 8.0 0.0 0.0 0:0.0 1:0.0 2:1.0 3:0.0 4:0.0 5:0.0 6:0.0 7:0.0 8:0.0 9:0.0 10:1.0 11:0.0 12:0.0 13:0.0 14:0.0 15:0.0 16:0.0 17:1.0 18:0.0 19:0.0 20:0.0 21:0.0 22:1.0 23:0.0 24:0.0 25:0.0 26:0.011976047904191616 27:0.0 28:0.0 29:1.0 30:0.0 31:1.0 32:0.0 33:1.3726347336019854E-15 34:0.0 35:0.005681818181818182 36:0.0017513134851138354 37:0.0 38:0.0 39:1.0 40:0.0 41:1.0 42:0.0 43:0.0026362038664323375 44:0.036000000000000004 45:0.0 46:0.1 47:0.0 48:1.0 49:0.021283738418154962 50:1.0 51:0.042517006802721094 52:0.07697935042725815 53:0.4045780707776513 54:5.644795879605069E-5 55:0.0 56:0.0 57:0.6069562816710751 58:0.06799889142213736 59:0.028351681715080256 60:0.1298681128481517 61:0.0026697518171152506 62:0.01394640368836839 
0.0 8.0 0.0 0.06945420475487622 0:0.0 1:0.0 2:1.0 3:0.0 4:0.0 5:0.0 6:0.0 7:1.0 8:0.0 9:0.0 10:1.0 11:0.0 12:0.0 13:0.0 14:0.0 15:0.0 16:0.0 17:0.0 18:0.0 19:0.0 20:0.0 21:8.680555555555555E-4 22:1.0 23:0.0 24:0.0 25:0.0 26:0.011976047904191616 27:0.0 28:1.0 29:1.0 30:0.0 31:0.0 32:0.0 33:1.3726347336019854E-15 34:0.0 35:0.0 36:0.0 37:0.0 38:0.0 39:0.0 40:0.0 41:0.0 42:1.0 43:0.0 44:0.0 45:0.0 46:0.0 47:0.0 48:1.0 49:0.021283738418154962 50:1.0 51:0.02721088435374149 52:0.19440616450281897 53:0.5955089200906585 54:5.644795879605069E-5 55:0.0 56:0.0 57:0.6127272079581787 58:0.06403002816830683 59:0.02674700587284448 60:0.009565047926042243 61:0.023198838634496146 62:0.01394640368836839 
0.0 0.0 8.0 0.0 0:0.0 1:0.0 2:1.0 3:0.0012987012987012987 4:0.0 5:0.0 6:0.0 7:0.0 8:0.0 9:0.0 10:1.0 11:0.0 12:0.0 13:0.0 14:0.0 15:0.0 16:0.0 17:0.0 18:0.0 19:0.0 20:0.0 21:8.680555555555555E-4 22:0.0 23:0.0 24:0.0 25:0.0 26:0.0279441117764471 27:0.0025906735751295333 28:0.0 29:0.0 30:0.0017985611510791368 31:1.0 32:0.0 33:1.3726347336019854E-15 34:0.0 35:0.045454545454545456 36:0.014010507880910683 37:0.0 38:0.0 39:0.47058823529411764 40:0.023809523809523808 41:0.8235294117647058 42:0.007936507936507936 43:0.033391915641476276 44:0.025647058823529415 45:0.10836508808336673 46:0.06349206349206349 47:0.02112676056338028 48:1.0 49:0.04404458171075601 50:1.0 51:0.03127598261526833 52:0.07697935042725815 53:0.9999999999999998 54:0.031069261645442735 55:0.00871915022530694 56:0.20800861784925403 57:0.5986231709815028 58:0.06535974220736392 59:0.027351895956471924 60:0.5972435338857316 61:7.879434399503281E-4 62:0.01311501134279684 
0.0 4.603310742014961 0.0 0.0 0:0.0 1:0.0 2:1.0 3:0.0 4:0.0 5:0.0 6:0.0 7:0.0 8:0.0 9:0.0 10:1.0 11:0.0 12:0.0 13:0.0 14:0.0 15:0.0 16:0.0 17:0.0 18:0.0 19:0.0 20:0.0 21:0.0 22:0.0 23:1.0 24:0.0 25:0.0 26:0.03393213572854291 27:0.0 28:0.0 29:0.0 30:0.0035971223021582736 31:0.0 32:0.048561151079136715 33:0.030426033461738822 34:0.004424778761061947 35:0.05681818181818182 36:0.017513134851138354 37:0.13455306785118268 38:0.007425742574257425 39:0.35714285714285715 40:0.0 41:0.75 42:0.0 43:0.05565319273579379 44:0.02485714285714286 45:1.2823006182826634E-4 46:0.04950495049504951 47:0.008733624454148471 48:1.0 49:0.06680542500335704 50:1.0 51:0.02834467120181406 52:0.07697935042725815 53:0.9999999999999998 54:0.012265988884328923 55:0.012301743747870943 56:0.1908264512395902 57:0.5861729318621034 58:0.6681055003037 59:0.27153244935345844 60:0.6236978729155326 61:0.0012120832217316245 62:0.014471422592312216 
0.0 3.3023131773795384 0.0 0.0 0:0.0 1:0.0 2:1.0 3:0.0 4:0.0 5:0.0 6:0.0 7:0.0 8:0.0 9:0.0 10:1.0 11:0.0 12:1.0 13:0.0 14:0.0 15:0.0 16:0.0 17:0.0 18:0.0 19:0.0 20:0.0 21:0.005208333333333333 22:0.0 23:0.0 24:0.0 25:0.0 26:0.003992015968063872 27:8.635578583765112E-4 28:0.0 29:0.0 30:0.0 31:0.0 32:0.0 33:1.3726347336019854E-15 34:0.0 35:0.02840909090909091 36:0.01576182136602452 37:0.0 38:0.0 39:0.5 40:0.015151515151515152 41:0.3 42:0.09090909090909091 43:0.014059753954305799 44:0.0224 45:0.0 46:0.13636363636363635 47:0.013333333333333334 48:1.0 49:0.01983091863352085 50:1.0 51:0.023526077097505756 52:0.05773754972080763 53:0.9999999999999998 54:0.03339735854065239 55:8.074963060109048E-4 56:0.06766319748978068 57:0.656982553634882 58:0.7295369369839149 59:0.2763388725866053 60:0.47165019850647855 61:4.0676186720364364E-4 62:0.01394640368836839 
0.0 0.6324115988776594 0.0 0.0 0:0.0 1:0.0 2:1.0 3:0.0 4:0.0 5:0.0 6:0.0 7:0.0 8:0.0 9:0.0 10:1.0 11:0.0 12:0.0 13:0.0 14:0.0 15:0.0 16:0.0 17:0.0 18:0.0 19:0.0 20:0.0 21:8.680555555555555E-4 22:0.0 23:0.0 24:0.0 25:0.0 26:0.007984031936127744 27:0.0 28:1.0 29:0.0 30:0.0 31:1.0 32:0.0 33:1.3726347336019854E-15 34:0.0 35:0.011363636363636364 36:0.0035026269702276708 37:0.0 38:0.0 39:0.5 40:0.0 41:0.75 42:0.041666666666666664 43:0.006151142355008787 44:0.02 45:0.0 46:0.08333333333333333 47:0.0 48:1.0 49:0.01983091863352085 50:1.0 51:0.02607709750566885 52:0.05773754972080763 53:0.9999999999999998 54:0.02032126516657495 55:3.694567275426253E-4 56:0.06436853742365227 57:0.6560207325870315 58:0.571171567874804 59:0.2164312656762216 60:0.20465021120014093 61:0.0010391010689903332 62:0.01394640368836839 
0.2515770716924127 0.4666046091413645 0.0 0.0 0:0.0 1:0.0 2:1.0 3:0.0 4:0.0 5:0.0 6:0.0 7:0.0 8:1.0 9:0.0 10:1.0 11:0.0 12:0.0 13:0.0 14:0.0 15:0.0 16:0.0 17:0.0 18:0.0 19:0.0 20:0.0 21:8.680555555555555E-4 22:0.0 23:0.0 24:0.0 25:0.0 26:0.02395209580838323 27:0.0 28:1.0 29:1.0 30:0.0 31:1.0 32:0.0 33:1.3726347336019854E-15 34:0.0 35:0.005681818181818182 36:0.0017513134851138354 37:0.0 38:0.0 39:0.5 40:0.0 41:0.5 42:0.16666666666666666 43:0.0011716461628588166 44:0.008 45:0.0 46:0.16666666666666666 47:0.0 48:1.0 49:0.01983091863352085 50:1.0 51:0.026077097505668983 52:0.05773754972080763 53:0.9999999999999998 54:0.020504339627535006 55:1.252743534837335E-4 56:0.08725458735669071 57:0.6495631729407679 58:0.3086858234329025 59:0.11835016284447993 60:0.05119130021183481 61:0.0041540701710483675 62:0.01394640368836839 
8.0 8.0 0.0 0.0 0:0.0 1:0.0 2:1.0 3:0.0 4:0.0 5:0.0 6:0.0 7:0.0 8:0.0 9:0.0 10:1.0 11:0.0 12:0.0 13:0.0 14:0.0 15:0.0 16:0.0 17:0.0 18:0.0 19:0.0 20:0.0 21:0.0 22:0.0 23:0.0 24:0.0 25:0.0 26:0.00998003992015968 27:0.0 28:0.0 29:0.0 30:0.0 31:0.0 32:0.0 33:1.3726347336019854E-15 34:0.0 35:0.011363636363636364 36:0.0035026269702276708 37:0.0 38:0.0 39:0.6666666666666666 40:0.0 41:0.6666666666666666 42:0.0 43:0.0046865846514352666 44:0.02 45:0.0 46:0.1111111111111111 47:0.0 48:1.0 49:0.02981905465288035 50:1.0 51:0.02352607709750562 52:0.31118510650072145 53:0.9999999999999998 54:0.021720259172411934 55:1.9860554910591091E-4 56:0.05706220822929128 57:0.6755269977824683 58:0.37518407896782513 59:0.13825136481419312 60:0.13755449874594075 61:0.0013947149468793714 62:0.01394640368836839 
4.123516216870471 0.0 8.0 0.0 0:0.0 1:0.0 2:1.0 3:0.0 4:0.0 5:0.0 6:0.0 7:0.0 8:0.0 9:0.0 10:1.0 11:0.0 12:0.0 13:0.0 14:0.0 15:0.0 16:0.0 17:1.0 18:0.0 19:0.0 20:0.0 21:0.0 22:0.0 23:0.0 24:0.0 25:0.0 26:0.00998003992015968 27:8.635578583765112E-4 28:0.0 29:0.0 30:0.0 31:1.0 32:0.0 33:1.3726347336019854E-15 34:0.0 35:0.03409090909090909 36:0.010507880910683012 37:0.0 38:0.0 39:0.75 40:0.017543859649122806 41:0.75 42:0.0 43:0.014352665495020504 44:0.0245 45:0.0 46:0.10526315789473684 47:0.015625 48:1.0 49:0.02981905465288035 50:1.0 51:0.02834467120181406 52:0.05770515611692472 53:0.9999999999999998 54:0.01252686999119719 55:9.560425563496244E-4 56:0.05403903162055316 57:0.6737102246920837 58:0.48158630925652857 59:0.1774113448321894 60:0.5803363223174743 61:3.9829275649119175E-4 62:0.01394640368836839 
0.0 8.0 0.0 0.0 0:0.0 1:0.0 2:1.0 3:0.0 4:0.0 5:0.0 6:0.0 7:0.0 8:0.0 9:0.0 10:1.0 11:0.0 12:0.0 13:0.0 14:0.0 15:0.0 16:0.0 17:1.0 18:0.0 19:0.0 20:0.0 21:0.0 22:1.0 23:0.0 24:0.0 25:0.0 26:0.011976047904191616 27:0.0 28:0.0 29:1.0 30:0.0 31:1.0 32:0.0 33:1.3726347336019854E-15 34:0.0 35:0.005681818181818182 36:0.0017513134851138354 37:0.0 38:0.0 39:1.0 40:0.0 41:1.0 42:0.0 43:0.0017574692442882249 44:0.024 45:0.0 46:0.14285714285714285 47:0.0 48:1.0 49:0.016092668895281038 50:1.0 51:0.026077097505668917 52:0.6216494553150481 53:0.9999999999999998 54:0.1864528948884494 55:0.0 56:0.0 57:0.6745651767346176 58:0.09680356830741983 59:0.0357969782352452 60:0.053649390592204076 61:0.0039637403310610105 62:0.01394640368836839 
1.4537924506999687 0.8959049340660855 0.5294839518432948 0.0 0:0.0 1:0.0 2:1.0 3:0.007792207792207792 4:1.0 5:0.0 6:0.0 7:0.0 8:0.0 9:0.0 10:1.0 11:0.0 12:0.0 13:0.0 14:0.0 15:0.0 16:0.0 17:0.0 18:0.008547008547008548 19:0.0 20:0.0 21:0.012152777777777776 22:0.0 23:1.0 24:0.0 25:0.0 26:0.011976047904191616 27:0.0025906735751295333 28:0.0 29:0.0 30:0.02158273381294964 31:1.0 32:0.76014260020555 33:0.2752791352843108 34:0.022123893805309734 35:0.1875 36:0.06654991243432574 37:0.8219297684821301 38:0.01126126126126126 39:0.3333333333333333 40:0.0045045045045045045 41:0.696969696969697 42:0.021021021021021023 43:0.1757469244288225 44:0.02290909090909091 45:0.7749455556529156 46:0.057057057057057055 47:0.013089005235602094 48:1.0 49:0.2269299541320065 50:1.0 51:0.026084365370079604 52:0.05770110691643935 53:0.9999999999999997 54:0.01628599892291185 55:0.08525857169469826 56:0.3619394149242698 57:0.5625628968625042 58:0.33029440081269956 59:0.1217302928892973 60:0.46237245238627356 61:0.003887809724292765 62:0.009827787715090443 
8.0 1.3956333391265616 4.2551502731143644 0.0 0:0.0 1:0.0 2:1.0 3:0.0025974025974025974 4:1.0 5:0.0 6:0.0 7:0.0 8:0.0 9:0.0 10:1.0 11:0.0 12:0.0 13:0.0 14:0.0 15:0.0 16:0.0 17:1.0 18:0.011111111111111112 19:0.0 20:0.0 21:0.005208333333333333 22:0.0 23:0.0 24:0.0 25:0.0 26:0.015968063872255488 27:0.0025906735751295333 28:0.0 29:0.0 30:0.007194244604316546 31:1.0 32:8.564576909880692E-6 33:1.2878744323771166E-5 34:0.017699115044247787 35:0.10227272727272728 36:0.03152364273204904 37:2.2356985121891804E-5 38:0.01639344262295082 39:0.34615384615384615 40:0.00819672131147541 41:0.6346153846153846 42:0.01639344262295082 43:0.09724663151728179 44:0.024153846153846154 45:0.13677232111372087 46:0.04918032786885246 47:0.016786570743405275 48:1.0 49:0.1028434268833087 50:1.0 51:0.026093631897203328 52:0.05769975718294424 53:0.9999999999999998 54:0.016285998922911937 55:0.04506092906634364 56:0.35400844440394735 57:0.6185649273736052 58:0.05126013822459516 59:0.01903530127457181 60:0.6585277890402919 61:0.0021006743345549275 62:0.013554343398047137 
0.0 3.6685650964049454 0.0 1.0127472107923283 0:0.0 1:0.0 2:1.0 3:0.0 4:0.0 5:0.0 6:0.0 7:0.0 8:1.0 9:0.0 10:1.0 11:0.0 12:0.0 13:0.0 14:0.0 15:0.0 16:0.0 17:0.0 18:0.0 19:0.0 20:0.0 21:0.0 22:0.0 23:1.0 24:0.0 25:0.0 26:0.001996007984031936 27:0.0 28:0.0 29:0.0 30:0.010791366906474822 31:0.0 32:0.06539054470709148 33:0.045915023285231 34:0.004424778761061947 35:0.045454545454545456 36:0.017513134851138354 37:0.1915390573429742 38:0.01764705882352941 39:0.5714285714285714 40:0.0 41:0.7142857142857143 42:0.0 43:0.020796719390743994 44:0.020285714285714285 45:1.2823006182826634E-4 46:0.11764705882352941 47:0.04081632653061224 48:1.0 49:0.1283440013129821 50:1.0 51:0.018849206349206338 52:0.04288508234049188 53:0.31036294127374775 54:0.012946415630897483 55:0.005645016979786256 56:0.3683808103879958 57:0.4630981324641322 58:0.3261922764569156 59:0.15918867138163198 60:0.07150094663787018 61:0.014808465003535411 62:0.011258626344264885 
0.0 8.0 0.0 0.0 0:0.0 1:0.0 2:1.0 3:0.0 4:0.0 5:0.0 6:0.0 7:1.0 8:0.0 9:0.0 10:1.0 11:0.0 12:0.0 13:0.0 14:0.0 15:0.0 16:0.0 17:0.0 18:0.0 19:0.0 20:0.0 21:8.680555555555555E-4 22:1.0 23:0.0 24:0.0 25:0.0 26:0.003992015968063872 27:0.0 28:1.0 29:1.0 30:0.0 31:1.0 32:0.0 33:1.3726347336019854E-15 34:0.0 35:0.0 36:0.0 37:0.0 38:0.0 39:0.0 40:0.0 41:0.0 42:1.0 43:0.0 44:0.0 45:0.0 46:0.0 47:0.0 48:1.0 49:0.01896120338829771 50:1.0 51:0.02834467120181406 52:0.13439701330972204 53:0.34459504541858493 54:0.015741352401555542 55:0.0 56:0.0 57:0.5135492087240732 58:0.2722244271462521 59:0.13310266615312644 60:0.009963778261132523 61:0.023198404003976186 62:0.01394640368836839 
0.0 8.0 0.0 0.0 0:0.0 1:0.0 2:1.0 3:0.0 4:0.0 5:0.0 6:0.0 7:0.0 8:0.0 9:0.0 10:1.0 11:0.0 12:0.0 13:0.0 14:0.0 15:0.0 16:0.0 17:0.0 18:0.0 19:0.0 20:0.0 21:0.0 22:0.0 23:0.0 24:0.0 25:0.0 26:0.003992015968063872 27:0.0 28:0.0 29:1.0 30:0.0 31:1.0 32:0.0 33:1.3726347336019854E-15 34:0.0 35:0.011363636363636364 36:0.0035026269702276708 37:0.0 38:0.0 39:1.0 40:0.0 41:0.5 42:0.0 43:0.00497949619214997 44:0.034 45:0.0 46:0.10526315789473684 47:0.0 48:1.0 49:0.01896120338829771 50:1.0 51:0.02834467120181406 52:0.15732898539183443 53:0.6799919933659317 54:0.015741352401555542 55:1.5096367223120844E-4 56:0.026600352960051442 57:0.5135492087240732 58:0.2722244271462521 59:0.13310266615312644 60:0.1861637586979587 61:0.001241615205475125 62:0.01394640368836839 
0.0 8.0 0.0 0.356956489180054 0:0.0 1:0.0 2:1.0 3:0.0 4:0.0 5:0.0 6:0.0 7:0.0 8:0.0 9:0.0 10:1.0 11:0.0 12:0.0 13:0.0 14:0.0 15:0.0 16:0.0 17:0.0 18:0.0 19:0.0 20:0.0 21:0.0 22:0.0 23:0.0 24:0.0 25:0.0 26:0.003992015968063872 27:0.0 28:0.0 29:0.0 30:0.0035971223021582736 31:0.0 32:0.0 33:1.3726347336019854E-15 34:0.0 35:0.011363636363636364 36:0.0035026269702276708 37:0.0 38:0.0 39:0.4 40:0.0 41:0.4 42:0.0 43:0.011130638547158758 44:0.0304 45:0.0868288491993101 46:0.046511627906976744 47:0.02127659574468085 48:1.0 49:0.0598378199137853 50:1.0 51:0.018849206349206393 52:0.604914109709038 53:0.0 54:0.012741982482825376 55:0.0027819798959061387 56:0.37941463117321295 57:0.49928308708933367 58:0.4426508916423078 59:0.214988732664401 60:0.07690567339505432 61:0.005239320094432999 62:0.025333752985664745 
0.5377270857341985 6.02532842320425 0.0 0.0 0:0.0 1:0.0 2:1.0 3:0.0 4:0.0 5:0.0 6:0.0 7:0.0 8:1.0 9:0.0 10:1.0 11:0.0 12:0.0 13:0.0 14:0.0 15:0.0 16:0.0 17:0.0 18:0.0 19:0.0 20:0.0 21:0.0 22:0.0 23:1.0 24:0.0 25:0.0 26:0.005988023952095808 27:0.0 28:0.0 29:1.0 30:0.0017985611510791368 31:0.0 32:0.08568859198355605 33:0.0805323980911874 34:0.0 35:0.011363636363636364 36:0.0035026269702276708 37:0.34525605408819376 38:0.0 39:1.0 40:0.0 41:1.0 42:0.0 43:0.007029876977152899 44:0.048 45:2.1371676971387848E-5 46:0.07692307692307693 47:0.0 48:1.0 49:0.03494024439371558 50:1.0 51:0.018849206349206258 52:0.03187125702030134 53:0.3066295687608722 54:0.012937261907849454 55:0.0017356176395023648 56:0.37665406996848866 57:0.4907852200165648 58:0.5056302815575325 59:0.2539131421106612 60:0.07087991720745401 61:0.0034406714376803336 62:0.009809688465292819 
0.0 3.5532202515794777 0.0 0.0 0:0.0 1:0.0 2:1.0 3:0.0 4:0.0 5:0.0 6:0.0 7:0.0 8:1.0 9:0.0 10:1.0 11:0.0 12:0.0 13:0.0 14:0.0 15:0.0 16:0.0 17:0.0 18:0.0 19:0.0 20:0.0 21:0.0 22:0.0 23:1.0 24:0.0 25:0.0 26:0.005988023952095808 27:0.0 28:0.0 29:0.0 30:0.0035971223021582736 31:0.0 32:0.07579650565262075 33:0.08129707353533153 34:0.0 35:0.011363636363636364 36:0.0035026269702276708 37:0.22425223702419245 38:0.0 39:0.5 40:0.0 41:1.0 42:0.0 43:0.010251903925014646 44:0.033 45:1.1113272025114392E-4 46:0.05405405405405406 47:0.0 48:1.0 49:0.05314891902779642 50:1.0 51:0.018849206349206348 52:0.03511061740859268 53:0.3066295687608722 54:0.012949466871913479 55:0.0029033030924325524 56:0.4197418332890125 57:0.4818625486476619 58:0.12160751515362203 59:0.06305665342202556 60:0.06696877583066951 61:0.005553985269306882 62:0.02107895271321847 
0.4628053807331927 0.0 0.0 0.0 0:0.0 1:0.0 2:1.0 3:0.0 4:0.0 5:0.0 6:0.0 7:0.0 8:1.0 9:0.0 10:1.0 11:0.0 12:0.0 13:0.0 14:0.0 15:0.0 16:0.0 17:0.0 18:0.0 19:0.0 20:0.0 21:0.0 22:0.0 23:1.0 24:0.0 25:0.0 26:0.005988023952095808 27:0.0 28:0.0 29:0.0 30:0.0035971223021582736 31:0.0 32:0.09879239465570401 33:0.0631863393319164 34:0.0 35:0.017045454545454544 36:0.005253940455341506 37:0.3625378982036891 38:0.0 39:0.6 40:0.0 41:1.0 42:0.0 43:0.01054481546572935 44:0.0272 45:6.411503091413317E-5 46:0.07692307692307693 47:0.0 48:1.0 49:0.05314891902779642 50:1.0 51:0.018849206349206393 52:0.03438176132122713 53:0.3066295687608722 54:0.012955569353945469 55:0.002570886427877521 56:0.368646416856655 57:0.4818625486476619 58:0.36738733884339014 59:0.18520741698015036 60:0.07450383336158295 61:0.0055086092960064505 62:0.010766110622672714 
0.0 8.0 0.0 0.0 0:0.0 1:0.0 2:1.0 3:0.0 4:0.0 5:0.0 6:0.0 7:1.0 8:0.0 9:0.0 10:1.0 11:0.0 12:0.0 13:0.0 14:0.0 15:0.0 16:0.0 17:0.0 18:0.0 19:0.0 20:0.0 21:8.680555555555555E-4 22:1.0 23:0.0 24:0.0 25:0.0 26:0.007984031936127744 27:0.0 28:1.0 29:1.0 30:0.0 31:1.0 32:0.0 33:1.3726347336019854E-15 34:0.0 35:0.0 36:0.0 37:0.0 38:0.0 39:0.0 40:0.0 41:0.0 42:1.0 43:0.0 44:0.0 45:0.0 46:0.0 47:0.0 48:1.0 49:0.01778207021929326 50:1.0 51:0.02834467120181406 52:0.13439701330972204 53:0.34457285833432616 54:0.0157260961964755 55:0.0 56:0.0 57:0.5091016769528085 58:0.12158144232932677 59:0.06130003043391364 60:0.009963778261132523 61:0.023198404003976186 62:0.01394640368836839 
0.0 8.0 0.0 0.0 0:0.0 1:0.0 2:1.0 3:0.0 4:0.0 5:0.0 6:0.0 7:1.0 8:0.0 9:0.0 10:1.0 11:0.0 12:0.0 13:0.0 14:0.0 15:0.0 16:0.0 17:0.0 18:0.0 19:0.0 20:0.0 21:8.680555555555555E-4 22:1.0 23:0.0 24:0.0 25:0.0 26:0.007984031936127744 27:0.0 28:1.0 29:1.0 30:0.0 31:1.0 32:0.0 33:1.3726347336019854E-15 34:0.0 35:0.0 36:0.0 37:0.0 38:0.0 39:0.0 40:0.0 41:0.0 42:1.0 43:0.0 44:0.0 45:0.0 46:0.0 47:0.0 48:1.0 49:0.01778207021929326 50:1.0 51:0.02834467120181406 52:0.13439701330972204 53:0.34457285833432616 54:0.0157260961964755 55:0.0 56:0.0 57:0.5091016769528085 58:0.6034651749148529 59:0.2948153842474788 60:0.009963778261132523 61:0.023198404003976186 62:0.01394640368836839 
0.0 8.0 0.0 0.0 0:0.0 1:0.0 2:1.0 3:0.0 4:0.0 5:0.0 6:0.0 7:0.0 8:0.0 9:0.0 10:1.0 11:0.0 12:0.0 13:0.0 14:0.0 15:0.0 16:0.0 17:0.0 18:0.0 19:0.0 20:0.0 21:0.0 22:0.0 23:0.0 24:0.0 25:0.0 26:0.007984031936127744 27:0.0 28:0.0 29:0.0 30:0.00539568345323741 31:0.0 32:0.0 33:1.3726347336019854E-15 34:0.0 35:0.022727272727272728 36:0.0070052539404553416 37:0.0 38:0.0 39:0.5714285714285714 40:0.0 41:0.7142857142857143 42:0.0 43:0.013473930872876391 44:0.024571428571428574 45:0.07857297038526732 46:0.08 47:0.0 48:1.0 49:0.07555959550051129 50:1.0 51:0.01884920634920634 52:0.604914109709038 53:0.0 54:0.012741982482825376 55:0.0036095433303085654 56:0.3949328701991161 57:0.4859119933741217 58:0.18794836808261411 59:0.09346068475948155 60:0.07054988198627438 61:0.0077470933175713816 62:0.02479978932683029 
0.0 8.0 3.19310085574408 0.5255238549446885 0:0.0 1:0.0 2:1.0 3:0.0 4:0.0 5:0.0 6:0.0 7:0.0 8:0.0 9:0.0 10:1.0 11:0.0 12:0.0 13:0.0 14:0.0 15:0.0 16:0.0 17:1.0 18:0.0 19:0.0 20:0.0 21:0.0 22:0.0 23:0.0 24:0.0 25:0.0 26:0.007984031936127744 27:0.0 28:0.0 29:0.0 30:0.0035971223021582736 31:0.0 32:0.0 33:1.3726347336019854E-15 34:0.0 35:0.011363636363636364 36:0.0035026269702276708 37:0.0 38:0.0 39:0.4 40:0.0 41:0.6 42:0.0 43:0.012595196250732278 44:0.032799999999999996 45:0.063373433723224 46:0.043478260869565216 47:0.02 48:1.0 49:0.05630042040677195 50:1.0 51:0.018849206349206393 52:0.604914109709038 53:0.0 54:0.012741982482825376 55:0.002188524290526811 56:0.29804100165198516 57:0.49483555531806894 58:0.38413092034172774 59:0.18852850922625658 60:0.08685800247053506 61:0.005231659715308552 62:0.011742430841849356 
0.0 4.012089600106514 0.0 0.0 0:0.0 1:0.0 2:1.0 3:0.0 4:0.0 5:0.0 6:0.0 7:0.0 8:1.0 9:0.0 10:1.0 11:0.0 12:0.0 13:0.0 14:0.0 15:0.0 16:0.0 17:0.0 18:0.0 19:0.0 20:0.0 21:0.0 22:0.0 23:1.0 24:0.0 25:0.0 26:0.00998003992015968 27:8.635578583765112E-4 28:0.0 29:0.0 30:0.008992805755395683 31:0.0 32:0.030577680712572802 33:0.029783437781484286 34:0.0 35:0.022727272727272728 36:0.012259194395796848 37:0.0723389282424862 38:0.0 39:0.4444444444444444 40:0.0136986301369863 41:0.6666666666666666 42:0.0 43:0.018746338605741066 44:0.028444444444444442 45:7.693803709695981E-5 46:0.0958904109589041 47:0.024691358024691357 48:1.0 49:0.10777494293003892 50:1.0 51:0.01884920634920636 52:0.04814769323797017 53:0.3104157849418426 54:0.012960146215469493 55:0.0036842093662056755 56:0.3017808593016358 57:0.4676489709405363 58:0.12282424695406644 59:0.06195730985508872 60:0.07166269305255947 61:0.0135205771760765 62:0.014946587417240234 
0.183822689072756 8.0 1.4782933820901696 0.0 0:0.0 1:0.0 2:1.0 3:0.0 4:0.0 5:0.0 6:0.0 7:0.0 8:1.0 9:0.0 10:1.0 11:0.0 12:0.0 13:0.0 14:0.0 15:0.0 16:0.0 17:0.0 18:0.0 19:0.0 20:0.0 21:0.0 22:0.0 23:1.0 24:0.0 25:0.0 26:0.00998003992015968 27:0.0 28:0.0 29:0.0 30:0.0017985611510791368 31:0.0 32:0.03597122302158273 33:0.03380670384637633 34:0.0 35:0.005681818181818182 36:0.0017513134851138354 37:0.1289107191465679 38:0.0 39:0.5 40:0.0 41:0.5 42:0.0 43:0.005858230814294083 44:0.039999999999999994 45:4.7017689337010746E-5 46:0.045454545454545456 47:0.043478260869565216 48:1.0 49:0.03494024439371558 50:1.0 51:0.018849206349206393 52:0.059566438606697115 53:0.3104157849418426 54:0.012961671835977502 55:8.700366455057429E-4 56:0.27140831027221607 57:0.5033432187163251 58:0.34623841569931657 59:0.17030795932080958 60:0.05754559824857326 61:0.004945291915202208 62:0.01144766683837656 
0.0 8.0 0.0 0.0 0:0.0 1:0.0 2:1.0 3:0.0 4:0.0 5:0.0 6:0.0 7:0.0 8:0.0 9:0.0 10:1.0 11:0.0 12:0.0 13:0.0 14:0.0 15:0.0 16:0.0 17:0.0 18:0.0 19:0.0 20:0.0 21:0.010416666666666666 22:0.0 23:0.0 24:0.0 25:0.0 26:0.00998003992015968 27:0.005181347150259067 28:0.0 29:0.0 30:0.007194244604316546 31:0.0 32:2.141144227485387E-6 33:2.4147645619081487E-6 34:0.022123893805309734 35:0.07954545454545454 36:0.0297723292469352 37:4.104901693981151E-6 38:0.029182879377431907 39:0.28 40:0.023346303501945526 41:0.5 42:0.04669260700389105 43:0.06004686584651435 44:0.01656 45:0.6346832396897688 46:0.06614785992217899 47:0.0457516339869281 48:1.0 49:0.0895662682959581 50:1.0 51:0.021258503401360557 52:0.1573154880568832 53:0.9999999999999997 54:0.01081054691969589 55:0.02642661118308601 56:0.43924476065602835 57:0.47566414633929127 58:0.22024390644298109 59:0.10920356749235281 60:0.33500576068265014 61:0.0019591428711459185 62:0.01091883720785181 
0.0 8.0 0.0 0.0 0:0.0 1:0.0 2:1.0 3:0.0 4:0.0 5:0.0 6:0.0 7:0.0 8:0.0 9:0.0 10:1.0 11:0.0 12:0.0 13:0.0 14:0.0 15:0.0 16:0.0 17:0.0 18:0.0 19:0.0 20:0.0 21:0.0 22:0.0 23:0.0 24:0.0 25:0.0 26:0.011976047904191616 27:0.0 28:0.0 29:0.0 30:0.0035971223021582736 31:0.0 32:0.0 33:1.3726347336019854E-15 34:0.0 35:0.017045454545454544 36:0.005253940455341506 37:0.0 38:0.0 39:0.6 40:0.0 41:0.8 42:0.0 43:0.010837727006444054 44:0.028799999999999996 45:0.054745687729879075 46:0.07317073170731707 47:0.022222222222222223 48:1.0 49:0.05521027842033387 50:1.0 51:0.018849206349206348 52:0.604914109709038 53:0.0 54:0.012824365990257396 55:0.0022806822138185857 56:0.3318897216511187 57:0.49928219651428934 58:0.1702188475618529 59:0.08409144375656359 60:0.07762249197499191 61:0.005590412732014346 62:0.01857305075362572 
0.0 8.0 0.0 0.0 0:0.0 1:0.0 2:1.0 3:0.0 4:0.0 5:0.0 6:0.0 7:0.0 8:0.0 9:0.0 10:1.0 11:0.0 12:0.0 13:0.0 14:0.0 15:0.0 16:0.0 17:0.0 18:0.0 19:0.0 20:0.0 21:0.0 22:0.0 23:0.0 24:0.0 25:0.0 26:0.011976047904191616 27:0.0 28:0.0 29:0.0 30:0.007194244604316546 31:0.0 32:0.0 33:1.6014071892023163E-15 34:0.0 35:0.02840909090909091 36:0.008756567425569177 37:1.476060568454954E-16 38:0.0 39:0.4166666666666667 40:0.0 41:0.9166666666666666 42:0.0 43:0.01757469244288225 44:0.017666666666666667 45:0.05131767074367013 46:0.07692307692307693 47:0.0 48:1.0 49:0.09300186728352051 50:1.0 51:0.018849206349206366 52:0.604914109709038 53:0.0 54:0.012766392410953424 55:0.004246657795107714 56:0.3833283498673388 57:0.4814350726263949 58:0.38639153077414073 59:0.18795771147084697 60:0.07197007879777574 61:0.010201938850628912 62:0.011061684846423494 
0.0 0.0 0.20624271462268523 0.0 0:0.0 1:0.0 2:1.0 3:0.0 4:0.0 5:0.0 6:0.0 7:0.0 8:1.0 9:0.0 10:1.0 11:0.0 12:0.0 13:0.0 14:0.0 15:0.0 16:0.0 17:0.0 18:0.0 19:0.0 20:0.0 21:0.0 22:0.0 23:1.0 24:0.0 25:0.0 26:0.01397205588822355 27:0.0 28:0.0 29:0.0 30:0.0035971223021582736 31:0.0 32:0.06282117163412129 33:0.04837578336112358 34:0.0 35:0.011363636363636364 36:0.0035026269702276708 37:0.23052447739503118 38:0.0 39:0.4 40:0.0 41:0.8 42:0.0 43:0.012595196250732278 44:0.032 45:7.907520479407734E-5 46:0.044444444444444446 47:0.0 48:1.0 49:0.057433313059344855 50:1.0 51:0.018849206349206348 52:0.029522720738790136 53:0.3053241527147102 54:0.012993709866645527 55:0.0022931887034885697 56:0.31182511293083487 57:0.5023769447932531 58:0.12415685797360076 59:0.06155601482047559 60:0.08534422101109747 61:0.005223795173291115 62:0.012767410623543644 
0.0 8.0 0.0 0.0 0:0.0 1:0.0 2:1.0 3:0.0 4:0.0 5:0.0 6:0.0 7:0.0 8:0.0 9:0.0 10:1.0 11:0.0 12:0.0 13:0.0 14:0.0 15:0.0 16:0.0 17:0.0 18:0.0 19:0.0 20:0.0 21:0.003472222222222222 22:0.0 23:1.0 24:0.0 25:0.0 26:0.01397205588822355 27:0.007772020725388601 28:0.0 29:0.0 30:0.019784172661870505 31:0.0 32:0.03635662898252825 33:0.05125337779566617 34:0.004424778761061947 35:0.13636363636363635 36:0.04553415061295972 37:0.05610126882062126 38:0.003191489361702128 39:0.3 40:0.019148936170212766 41:0.5875 42:0.00851063829787234 43:0.12272993555946105 44:0.0195 45:0.7157160900944415 46:0.05531914893617021 47:0.02185792349726776 48:1.0 49:0.23416456686071768 50:1.0 51:0.024801587301587304 52:0.13439701330972204 53:0.9999999999999998 54:0.011442153810008376 55:0.05017881000508919 56:0.36510690599777784 57:0.43248016244088816 58:0.30176204009227847 59:0.14639062884649892 60:0.30569300800721194 61:0.004038695501681515 62:0.009723689131655494 
0.0 8.0 0.0 0.0 0:0.0 1:0.0 2:1.0 3:0.0 4:0.0 5:0.0 6:0.0 7:1.0 8:0.0 9:0.0 10:1.0 11:0.0 12:0.0 13:0.0 14:0.0 15:0.0 16:0.0 17:0.0 18:0.0 19:0.0 20:0.0 21:8.680555555555555E-4 22:1.0 23:0.0 24:0.0 25:0.0 26:0.015968063872255488 27:0.0 28:1.0 29:1.0 30:0.0 31:1.0 32:0.0 33:1.3726347336019854E-15 34:0.0 35:0.0 36:0.0 37:0.0 38:0.0 39:0.0 40:0.0 41:0.0 42:1.0 43:0.0 44:0.0 45:0.0 46:0.0 47:0.0 48:1.0 49:0.017068767438043655 50:1.0 51:0.02834467120181406 52:0.13439701330972204 53:0.3445720372404688 54:0.0157260961964755 55:0.0 56:0.0 57:0.5128429827139385 58:0.3417519586002177 59:0.16674288965895803 60:0.009963778261132523 61:0.023198404003976186 62:0.01394640368836839 
7.0770248184733004 8.0 6.863309985058375 0.0 0:0.0 1:0.0 2:1.0 3:0.0 4:0.0 5:0.0 6:0.0 7:0.0 8:0.0 9:0.0 10:1.0 11:0.0 12:0.0 13:0.0 14:0.0 15:0.0 16:0.0 17:0.0 18:0.0 19:0.0 20:0.0 21:0.0 22:0.0 23:0.0 24:0.0 25:0.0 26:0.015968063872255488 27:0.0 28:0.0 29:0.0 30:0.0017985611510791368 31:1.0 32:0.0 33:1.3726347336019854E-15 34:0.0 35:0.022727272727272728 36:0.008756567425569177 37:0.0 38:0.0 39:0.5 40:0.0 41:0.625 42:0.0 43:0.013473930872876391 44:0.0225 45:0.5363457424413722 46:0.09433962264150944 47:0.016666666666666666 48:1.0 49:0.035614639750533396 50:1.0 51:0.02834467120181406 52:0.1573154880568832 53:0.6799912308084572 54:0.0157260961964755 55:0.013494740768924268 56:0.48080428135010406 57:0.5012476956370729 58:0.3417519586002177 59:0.16674288965895803 60:0.2541816283878078 61:0.001091410112408705 62:0.008027977419988955 
0.0 8.0 0.0 0.0 0:0.0 1:0.0 2:1.0 3:0.0 4:0.0 5:0.0 6:0.0 7:0.0 8:0.0 9:0.0 10:1.0 11:0.0 12:0.0 13:0.0 14:0.0 15:0.0 16:0.0 17:0.0 18:0.0 19:0.0 20:0.0 21:0.0 22:0.0 23:0.0 24:0.0 25:0.0 26:0.015968063872255488 27:0.0 28:0.0 29:0.0 30:0.007194244604316546 31:0.0 32:0.0 33:1.6014071892023163E-15 34:0.0 35:0.017045454545454544 36:0.005253940455341506 37:1.476060568454954E-16 38:0.0 39:0.5 40:0.0 41:1.0 42:0.0 43:0.017281780902167546 44:0.03733333333333334 45:0.05666700148960598 46:0.04838709677419355 47:0.0 48:1.0 49:0.0912522566880026 50:1.0 51:0.018849206349206366 52:0.604914109709038 53:0.0 54:0.012728251898253344 55:0.0037873595329542277 56:0.3612264251626102 57:0.4807297371913045 58:0.13597653832077491 59:0.06773907513287546 60:0.06666621865505414 61:0.01077958449705352 62:0.012899079799733324 
0.0 8.0 0.0 0.0 0:0.0 1:0.0 2:1.0 3:0.0 4:0.0 5:0.0 6:0.0 7:0.0 8:0.0 9:0.0 10:1.0 11:0.0 12:0.0 13:0.0 14:0.0 15:0.0 16:0.0 17:0.0 18:0.0 19:0.0 20:0.0 21:0.0 22:0.0 23:0.0 24:0.0 25:0.0 26:0.015968063872255488 27:0.0 28:0.0 29:0.0 30:0.0035971223021582736 31:0.0 32:0.0 33:1.3726347336019854E-15 34:0.0 35:0.017045454545454544 36:0.005253940455341506 37:0.0 38:0.0 39:0.6 40:0.0 41:0.6 42:0.0 43:0.011130638547158758 44:0.0304 45:0.059567138054621646 46:0.06976744186046512 47:0.0 48:1.0 49:0.05416051206302313 50:1.0 51:0.018849206349206303 52:0.604914109709038 53:0.0 54:0.012786225477557317 55:0.0026106568345914904 56:0.3532732145304507 57:0.4985768610791989 58:0.5039500328807284 59:0.24478052914353984 60:0.08069137152034976 61:0.005198472690934972 62:0.018093690705282568 
0.0 8.0 0.0 0.0 0:0.0 1:0.0 2:1.0 3:0.0 4:0.0 5:0.0 6:0.0 7:1.0 8:0.0 9:0.0 10:1.0 11:0.0 12:0.0 13:0.0 14:0.0 15:0.0 16:0.0 17:0.0 18:0.0 19:0.0 20:0.0 21:8.680555555555555E-4 22:1.0 23:0.0 24:0.0 25:0.0 26:0.017964071856287425 27:0.0 28:1.0 29:1.0 30:0.0 31:1.0 32:0.0 33:1.3726347336019854E-15 34:0.0 35:0.0 36:0.0 37:0.0 38:0.0 39:0.0 40:0.0 41:0.0 42:1.0 43:0.0 44:0.0 45:0.0 46:0.0 47:0.0 48:1.0 49:0.018552437223042836 50:1.0 51:0.02834467120181406 52:0.13439701330972204 53:0.34940111296094484 54:0.0157260961964755 55:0.0 56:0.0 57:0.5139749035952516 58:0.29540027096424065 59:0.14411557186930787 60:0.009963778261132523 61:0.023198404003976186 62:0.01394640368836839 
0.0 8.0 0.0 0.0 0:0.0 1:0.0 2:1.0 3:0.0 4:0.0 5:0.0 6:0.0 7:0.0 8:1.0 9:0.0 10:1.0 11:0.0 12:0.0 13:0.0 14:0.0 15:0.0 16:0.0 17:0.0 18:0.0 19:0.0 20:0.0 21:0.0 22:0.0 23:1.0 24:0.0 25:0.0 26:0.017964071856287425 27:0.0 28:0.0 29:0.0 30:0.00539568345323741 31:0.0 32:0.11742034943473795 33:0.08850011498878985 34:0.0 35:0.017045454545454544 36:0.005253940455341506 37:0.32586443415245553 38:0.0 39:0.75 40:0.0 41:1.0 42:0.0 43:0.012888107791446984 44:0.043 45:1.0044688176546518E-4 46:0.06382978723404255 47:0.0 48:1.0 49:0.07864106351550959 50:1.0 51:0.018849206349206327 52:0.03511061740859268 53:0.308367020980981 54:0.012967774318009492 55:0.004166702905232158 56:0.44379872710911417 57:0.4907852200165647 58:0.3743400919887867 59:0.182013598446208 60:0.06427659938278932 61:0.00754156159101773 62:0.059017859379803986 
0.0 8.0 0.0 0.0 0:0.0 1:0.0 2:1.0 3:0.0 4:0.0 5:0.0 6:0.0 7:1.0 8:0.0 9:0.0 10:1.0 11:0.0 12:0.0 13:0.0 14:0.0 15:0.0 16:0.0 17:0.0 18:0.0 19:0.0 20:0.0 21:8.680555555555555E-4 22:1.0 23:0.0 24:0.0 25:0.0 26:0.01996007984031936 27:0.0 28:1.0 29:1.0 30:0.0 31:1.0 32:0.0 33:1.3726347336019854E-15 34:0.0 35:0.0 36:0.0 37:0.0 38:0.0 39:0.0 40:0.0 41:0.0 42:1.0 43:0.0 44:0.0 45:0.0 46:0.0 47:0.0 48:1.0 49:0.01673156975963475 50:1.0 51:0.02834467120181406 52:0.13439701330972204 53:0.3445769638623121 54:0.0157260961964755 55:0.0 56:0.0 57:0.5118882862664423 58:0.3996915681451889 59:0.19498712669849597 60:0.009963778261132523 61:0.023198404003976186 62:0.01394640368836839 
0.0 8.0 0.0 0.0 0:0.0 1:0.0 2:1.0 3:0.0 4:0.0 5:0.0 6:0.0 7:0.0 8:0.0 9:0.0 10:1.0 11:0.0 12:0.0 13:0.0 14:0.0 15:0.0 16:0.0 17:0.0 18:0.0 19:0.0 20:0.0 21:0.0 22:0.0 23:0.0 24:0.0 25:0.0 26:0.01996007984031936 27:0.0 28:0.0 29:0.0 30:0.0 31:1.0 32:0.0 33:1.3726347336019854E-15 34:0.0 35:0.011363636363636364 36:0.0070052539404553416 37:0.0 38:0.0 39:0.6666666666666666 40:0.0 41:0.3333333333333333 42:0.0 43:0.003807850029291154 44:0.02 45:0.0 46:0.2222222222222222 47:0.05 48:1.0 49:0.01673156975963475 50:1.0 51:0.02834467120181406 52:0.1573154880568832 53:0.6799866553872914 54:0.0157260961964755 55:3.0921147822508273E-4 56:0.05914933639878834 57:0.5118882862664423 58:0.3996915681451889 59:0.19498712669849597 60:0.17148092478557042 61:0.0013479269125520697 62:0.01394640368836839 
0.0 8.0 0.0 0.0 0:0.0 1:0.0 2:1.0 3:0.0 4:0.0 5:0.0 6:0.0 7:0.0 8:0.0 9:0.0 10:1.0 11:0.0 12:0.0 13:0.0 14:0.0 15:0.0 16:0.0 17:0.0 18:0.0 19:0.0 20:0.0 21:0.0 22:0.0 23:0.0 24:0.0 25:0.0 26:0.01996007984031936 27:0.0 28:0.0 29:0.0 30:0.007194244604316546 31:0.0 32:0.0 33:1.6014071892023163E-15 34:0.0 35:0.017045454545454544 36:0.005253940455341506 37:1.476060568454954E-16 38:0.0 39:0.3333333333333333 40:0.0 41:1.0 42:0.0 43:0.01698886936145284 44:0.02311111111111111 45:0.09000468039725681 46:0.04918032786885246 47:0.0 48:1.0 49:0.0895662682959581 50:1.0 51:0.018849206349206366 52:0.604914109709038 53:0.0 54:0.012659598975393269 55:0.0054213802865317965 56:0.4390648630035028 57:0.4797750407438083 58:0.24125280886398767 59:0.11861892654713775 60:0.07091964090375884 61:0.009153303306208664 62:0.025863368189594674 
0.0 8.0 2.6727984018135422 0.0 0:0.0 1:0.0 2:1.0 3:0.0 4:0.0 5:0.0 6:0.0 7:0.0 8:0.0 9:0.0 10:1.0 11:0.0 12:0.0 13:0.0 14:0.0 15:0.0 16:0.0 17:0.0 18:0.0 19:0.0 20:0.0 21:0.0 22:0.0 23:0.0 24:0.0 25:0.0 26:0.01996007984031936 27:0.0 28:0.0 29:0.0 30:0.00539568345323741 31:0.0 32:0.0 33:1.3726347336019854E-15 34:0.0 35:0.02840909090909091 36:0.010507880910683012 37:0.0 38:0.0 39:0.7142857142857143 40:0.0 41:0.42857142857142855 42:0.0 43:0.011423550087873463 44:0.022285714285714284 45:0.11844183377537089 46:0.13043478260869565 47:0.019230769230769232 48:1.0 49:0.07135759366187724 50:1.0 51:0.018849206349206327 52:0.604914109709038 53:0.0 54:0.012482626996465162 55:0.004078006144324693 56:0.4397796940948638 57:0.48869860268775545 58:0.5016324484989294 59:0.24412309311087513 60:0.06650433712575159 61:0.007635809104169827 62:0.01198547242235685 
