svm_type c_svc
kernel_type rbf
gamma 0.5
nr_class 5
total_sv 4609
rho -1.9898149385546204 -0.4190696071228001 -2.622581225563464 -1.315349662254437 1.4087164745289593 -0.10589622620379865 -0.7033616669218209 -1.286148242520182 -1.3851658705885928 -0.5143738373397349
label 17 26 24 22 20
nr_sv 2027 331 1926 318 7
SV
0.0 8.0 0.0 0.0 0:0.0 1:0.0 2:1.0 3:0.0 4:0.0 5:0.0 6:0.0 7:0.0 8:0.0 9:0.0 10:1.0 11:0.0 12:0.0 13:0.0 14:0.0 15:0.0 16:0.0 17:0.0 18:0.018518518518518517 19:0.0 20:0.0 21:0.004340277777777778 22:0.0 23:0.0 24:0.0 25:0.0 26:0.005988023952095808 27:8.635578583765112E-4 28:0.0 29:0.0 30:0.0035971223021582736 31:0.0 32:2.141144227485387E-6 33:1.3415358689087394E-6 34:0.008849557522123894 35:0.05945945945945946 36:0.021015761821366025 37:4.082008664830178E-6 38:0.011538461538461539 39:0.39285714285714285 40:0.0038461538461538464 41:0.6428571428571429 42:0.019230769230769232 43:0.060837503292072694 44:0.03314285714285714 45:1.1326988794829181E-4 46:0.046153846153846156 47:0.017421602787456445 48:1.0 49:0.08688852202624033 50:1.0 51:0.02013888888888887 52:0.14387214244547414 53:0.9999999999999998 54:0.013271372799101733 55:0.008098447517092492 56:0.2147711767954861 57:0.41502132927231117 58:0.44160797867049834 59:0.35043907381068956 60:0.4868591971681683 61:0.0015898607280156608 62:0.01394551965272724 
0.0 8.0 0.0 0.0 0:0.0 1:0.0 2:1.0 3:0.0 4:0.0 5:0.0 6:0.0 7:0.0 8:0.0 9:0.0 10:1.0 11:0.0 12:0.0 13:0.0 14:0.0 15:0.0 16:0.0 17:0.0 18:0.0 19:0.0 20:0.0 21:0.0 22:0.0 23:0.0 24:0.0 25:0.0 26:0.005988023952095808 27:0.0 28:0.0 29:0.0 30:0.0017985611510791368 31:0.0 32:0.0 33:2.0589521004029767E-15 34:0.004424778761061947 35:0.03783783783783784 36:0.012259194395796848 37:0.0 38:0.011029411764705881 39:0.3333333333333333 40:0.0 41:0.6666666666666666 42:0.0 43:0.03344745851988412 44:0.021904761904761906 45:0.05008025064702751 46:0.051470588235294115 47:0.01282051282051282 48:1.0 49:0.057433313059344855 50:1.0 51:0.023667800453514697 52:0.14387214244547414 53:0.9999999999999998 54:0.01336443565008977 55:0.005916683559028179 56:0.21260113221706764 57:0.42213257100109547 58:0.4795593885826136 59:0.38008430960406187 60:0.46938251306140516 61:0.0011734503665508174 62:0.013445208882984883 
0.0 8.0 0.0 0.0 0:0.0 1:0.0 2:1.0 3:0.0 4:0.0 5:0.0 6:0.0 7:0.0 8:0.0 9:0.0 10:1.0 11:0.0 12:0.0 13:0.0 14:0.0 15:0.0 16:0.0 17:0.0 18:0.0 19:0.0 20:0.0 21:0.0 22:1.0 23:0.0 24:0.0 25:0.0 26:0.01996007984031936 27:0.0 28:0.0 29:1.0 30:0.0 31:1.0 32:0.0 33:2.0589521004029767E-15 34:0.0 35:0.005405405405405406 36:0.01576182136602452 37:0.0 38:0.0 39:1.0 40:0.0 41:1.0 42:0.0 43:0.0 44:0.032 45:0.0 46:1.0 47:0.0 48:1.0 49:0.01778207021929326 50:1.0 51:0.0211734693877551 52:0.11520245327560075 53:0.9999999999999998 54:0.014235564960158447 55:2.519986137929264E-4 56:0.16264319790135187 57:0.49953333867678373 58:0.23146101485088752 59:0.16109609100668584 60:0.06803803021240977 61:0.0033454450978475975 62:0.01394640368836839 
0.0 8.0 0.0 0.0 0:0.0 1:0.0 2:1.0 3:0.0 4:0.0 5:0.0 6:0.0 7:1.0 8:1.0 9:0.0 10:1.0 11:0.0 12:0.0 13:0.0 14:0.0 15:0.0 16:0.0 17:0.0 18:0.0 19:0.0 20:0.0 21:8.680555555555555E-4 22:1.0 23:0.0 24:0.0 25:0.0 26:0.001996007984031936 27:0.0 28:1.0 29:1.0 30:0.0 31:0.0 32:0.0 33:2.0589521004029767E-15 34:0.0 35:0.0 36:0.0 37:0.0 38:0.0 39:0.0 40:0.0 41:0.0 42:1.0 43:0.0 44:0.0 45:0.0 46:0.0 47:0.0 48:1.0 49:0.040251107828655826 50:1.0 51:0.021258503401360547 52:0.05779423852760273 53:0.2872866755318332 54:0.025975214769226943 55:0.0 56:0.0 57:0.4320330937686465 58:0.2936920181428231 59:0.23607444659590712 60:0.006800816277157906 61:0.033603557545495225 62:0.01394640368836839 
0.0 8.0 0.0 0.0 0:0.0 1:0.0 2:1.0 3:0.0 4:0.0 5:0.0 6:0.0 7:0.0 8:0.0 9:0.0 10:1.0 11:0.0 12:0.0 13:0.0 14:0.0 15:0.0 16:0.0 17:0.0 18:0.0 19:0.0 20:0.0 21:0.0 22:0.0 23:0.0 24:0.0 25:0.0 26:0.001996007984031936 27:0.0 28:0.0 29:0.0 30:0.0 31:0.0 32:0.0 33:2.0589521004029767E-15 34:0.0 35:0.016216216216216217 36:0.005253940455341506 37:0.0 38:0.0 39:0.6 40:0.0 41:0.8 42:0.0 43:0.013695022386094286 44:0.0408 45:0.0 46:0.05357142857142857 47:0.016666666666666666 48:1.0 49:0.040251107828655826 50:1.0 51:0.021258503401360547 52:0.08840619419695583 53:0.7683796092979831 54:0.025975214769226943 55:3.0637749493304175E-4 56:0.03771515036882902 57:0.4320330937686465 58:0.2936920181428231 59:0.23607444659590712 60:0.35529560926219206 61:6.432154385481592E-4 62:0.01394640368836839 
0.0 8.0 0.0 0.0 0:0.0 1:0.0 2:1.0 3:0.0 4:0.0 5:0.0 6:0.0 7:1.0 8:1.0 9:0.0 10:1.0 11:0.0 12:0.0 13:0.0 14:0.0 15:0.0 16:0.0 17:0.0 18:0.0 19:0.0 20:0.0 21:8.680555555555555E-4 22:1.0 23:0.0 24:0.0 25:0.0 26:0.005988023952095808 27:0.0 28:1.0 29:1.0 30:0.0 31:1.0 32:0.0 33:2.0589521004029767E-15 34:0.0 35:0.0 36:0.0 37:0.0 38:0.0 39:0.0 40:0.0 41:0.0 42:1.0 43:0.0 44:0.0 45:0.0 46:0.0 47:0.0 48:1.0 49:0.027136526693395228 50:1.0 51:0.021258503401360547 52:0.05779423852760273 53:0.29170317659788764 54:0.02597521476922703 55:0.0 56:0.0 57:0.4667824414224266 58:0.28107856514488283 59:0.20893652860250164 60:0.006800816277157906 61:0.033603557545495225 62:0.01394640368836839 
0.0 8.0 0.0 0.0 0:0.0 1:0.0 2:1.0 3:0.0 4:0.0 5:0.0 6:0.0 7:0.0 8:0.0 9:0.0 10:1.0 11:0.0 12:0.0 13:0.0 14:0.0 15:0.0 16:0.0 17:0.0 18:0.0 19:0.0 20:0.0 21:0.0 22:0.0 23:0.0 24:0.0 25:0.0 26:0.011976047904191616 27:0.0 28:0.0 29:0.0 30:0.0 31:1.0 32:0.0 33:2.0589521004029767E-15 34:0.0 35:0.010810810810810811 36:0.0035026269702276708 37:0.0 38:0.0 39:0.6666666666666666 40:0.0 41:0.6666666666666666 42:0.0 43:0.005003950487226758 44:0.024 45:0.0 46:0.09523809523809523 47:0.0 48:1.0 49:0.027136526693395228 50:1.0 51:0.021258503401360547 52:0.06162478218675723 53:0.8228781743702868 54:0.02081709183167523 55:1.2322705663806322E-4 56:0.04728216012262655 57:0.4667824414224266 58:0.1932546706567744 59:0.14504828783892287 60:0.11398759455845092 61:0.0020048815137390158 62:0.01394640368836839 
0.0 4.950031000960965 0.0 0.0 0:0.0 1:0.0 2:1.0 3:0.0 4:0.0 5:0.0 6:0.0 7:0.0 8:0.0 9:0.0 10:1.0 11:0.0 12:0.0 13:0.0 14:0.0 15:0.0 16:0.0 17:0.0 18:0.0 19:0.0 20:0.0 21:0.0 22:0.0 23:0.0 24:0.0 25:0.0 26:0.015968063872255488 27:0.0 28:0.0 29:1.0 30:0.0 31:1.0 32:0.0 33:2.0589521004029767E-15 34:0.0 35:0.010810810810810811 36:0.0035026269702276708 37:0.0 38:0.0 39:0.6666666666666666 40:0.0 41:1.0 42:0.0 43:0.005530682117461154 44:0.02666666666666667 45:0.0 46:0.08695652173913043 47:0.0 48:1.0 49:0.027136526693395228 50:1.0 51:0.021258503401360547 52:0.06162478218675723 53:0.8239214053686394 54:0.02081709183167523 55:1.2291975724495162E-4 56:0.04175801231861346 57:0.4667824414224266 58:0.05519906601349413 59:0.04461856128647983 60:0.12874509707291612 61:0.001775070478966551 62:0.01394640368836839 
0.0 8.0 0.0 0.0 0:0.0 1:0.0 2:1.0 3:0.0 4:0.0 5:0.0 6:0.0 7:1.0 8:1.0 9:0.0 10:1.0 11:0.0 12:0.0 13:0.0 14:0.0 15:0.0 16:0.0 17:0.0 18:0.0 19:0.0 20:0.0 21:8.680555555555555E-4 22:1.0 23:0.0 24:0.0 25:0.0 26:0.015968063872255488 27:0.0 28:1.0 29:1.0 30:0.0 31:1.0 32:0.0 33:2.0589521004029767E-15 34:0.0 35:0.0 36:0.0 37:0.0 38:0.0 39:0.0 40:0.0 41:0.0 42:1.0 43:0.0 44:0.0 45:0.0 46:0.0 47:0.0 48:1.0 49:0.027136526693395228 50:1.0 51:0.021258503401360547 52:0.031011476783909024 53:0.2160824645550174 54:0.02597521476922703 55:0.0 56:0.0 57:0.4667824414224266 58:0.4442345743032037 59:0.32762575840593366 60:0.006800816277157895 61:0.03360355754549528 62:0.01394640368836839 
8.0 0.0 1.5180782093183898 0.0 0:0.0 1:0.0 2:1.0 3:0.0 4:0.0 5:0.0 6:0.0 7:0.0 8:0.0 9:0.0 10:1.0 11:0.0 12:0.0 13:0.0 14:0.0 15:0.0 16:0.0 17:1.0 18:0.0 19:0.0 20:0.0 21:0.0 22:0.0 23:1.0 24:0.0 25:0.0 26:0.015968063872255488 27:0.0 28:0.0 29:0.0 30:0.0017985611510791368 31:1.0 32:0.04856115107913668 33:0.04563905019260817 34:0.004424778761061947 35:0.02702702702702703 36:0.010507880910683012 37:0.22485922537762568 38:0.010948905109489052 39:0.3125 40:0.0 41:0.625 42:0.0 43:0.03371082433500132 44:0.030250000000000003 45:0.08082127080265597 46:0.043795620437956206 47:0.019736842105263157 48:1.0 49:0.05575015826123654 50:1.0 51:0.021258503401360613 52:0.031012826517404148 53:0.9999999999999998 54:0.02597521476922703 55:0.008364791128329377 56:0.29479226384924584 57:0.45494402735846545 58:0.46936684560349407 59:0.3459084434215241 60:0.45585554910916615 61:0.0011298231565063416 62:0.015480409709981208 
0.0 8.0 0.0 0.0 0:0.0 1:0.0 2:1.0 3:0.0 4:0.0 5:0.0 6:0.0 7:1.0 8:1.0 9:0.0 10:1.0 11:0.0 12:0.0 13:0.0 14:0.0 15:0.0 16:0.0 17:0.0 18:0.0 19:0.0 20:0.0 21:8.680555555555555E-4 22:1.0 23:0.0 24:0.0 25:0.0 26:0.021956087824351295 27:0.0 28:1.0 29:1.0 30:0.0 31:1.0 32:0.0 33:2.0589521004029767E-15 34:0.0 35:0.0 36:0.0 37:0.0 38:0.0 39:0.0 40:0.0 41:0.0 42:1.0 43:0.0 44:0.0 45:0.0 46:0.0 47:0.0 48:1.0 49:0.027136526693395228 50:1.0 51:0.021258503401360547 52:0.05778748986012713 53:0.28227799588990243 54:0.02597521476922703 55:0.0 56:0.0 57:0.4667824414224266 58:0.28113553909426864 59:0.20897797478769795 60:0.006800816277157906 61:0.033603557545495225 62:0.01394640368836839 
0.9134148422145895 8.0 0.0 0.0 0:0.0 1:0.0 2:1.0 3:0.0 4:0.0 5:0.0 6:0.0 7:0.0 8:0.0 9:0.0 10:1.0 11:0.0 12:0.0 13:0.0 14:0.0 15:0.0 16:0.0 17:0.0 18:0.1111111111111111 19:0.0 20:0.0 21:0.006944444444444444 22:0.0 23:0.0 24:0.0 25:0.0 26:0.021956087824351295 27:0.0 28:0.0 29:0.3333333333333333 30:0.0 31:1.0 32:0.0 33:2.0589521004029767E-15 34:0.004424778761061947 35:0.005405405405405406 36:0.0035026269702276708 37:0.0 38:0.03125 39:0.3333333333333333 40:0.0 41:0.3333333333333333 42:0.16666666666666666 43:0.008954437713984725 44:0.06 45:0.0 46:0.041666666666666664 47:0.04 48:1.0 49:0.027136526693395228 50:1.0 51:0.021258503401360547 52:0.08839944552948023 53:0.758895403752199 54:0.020815566211167223 55:1.2322705663806623E-4 56:0.02012143108033547 57:0.4667824414224266 58:0.306267810394559 59:0.22726065980328836 60:0.267852702742055 61:8.531988618606349E-4 62:0.01394640368836839 
8.0 8.0 8.0 0.0 0:0.0 1:0.0 2:1.0 3:0.0 4:0.0 5:0.0 6:0.0 7:0.0 8:0.0 9:0.0 10:1.0 11:0.0 12:0.0 13:0.0 14:0.0 15:0.0 16:0.0 17:0.0 18:0.1111111111111111 19:0.0 20:0.0 21:0.006944444444444444 22:0.0 23:0.0 24:0.0 25:0.0 26:0.02395209580838323 27:0.0 28:0.0 29:0.0 30:0.0 31:1.0 32:0.0 33:2.0589521004029767E-15 34:0.004424778761061947 35:0.021621621621621623 36:0.012259194395796848 37:0.0 38:0.044117647058823525 39:0.6666666666666666 40:0.0 41:0.6666666666666666 42:0.23529411764705882 43:0.003950487226757967 44:0.018666666666666668 45:0.0 46:0.20588235294117646 47:0.05128205128205128 48:1.0 49:0.027136526693395228 50:1.0 51:0.021258503401360547 52:0.06162343245326212 53:0.8127965039804003 54:0.020815566211167244 55:3.0791399189860355E-4 56:0.06871485392950177 57:0.4667824414224266 58:0.3061992485232642 59:0.22721078388550975 60:0.19598715998718683 61:0.0011660540473200241 62:0.01394640368836839 
0.0 8.0 0.0 0.0 0:0.0 1:0.0 2:1.0 3:0.0 4:0.0 5:0.0 6:0.0 7:1.0 8:1.0 9:0.0 10:1.0 11:0.0 12:0.0 13:0.0 14:0.0 15:0.0 16:0.0 17:0.0 18:0.0 19:0.0 20:0.0 21:8.680555555555555E-4 22:1.0 23:0.0 24:0.0 25:0.0 26:0.02395209580838323 27:0.0 28:1.0 29:1.0 30:0.0 31:0.0 32:0.0 33:2.0589521004029767E-15 34:0.0 35:0.0 36:0.0 37:0.0 38:0.0 39:0.0 40:0.0 41:0.0 42:1.0 43:0.0 44:0.0 45:0.0 46:0.0 47:0.0 48:1.0 49:0.027136526693395228 50:1.0 51:0.01889644746787604 52:0.031011476783909024 53:0.22973175156317205 54:0.028876944975445143 55:0.0 56:0.0 57:0.4676730164667327 58:0.47350180240468687 59:0.34891645299797674 60:0.005603131899845503 61:0.0362545844733915 62:0.01394640368836839 
0.0 8.0 0.0 0.0 0:0.0 1:0.0 2:1.0 3:0.0 4:0.0 5:0.0 6:0.0 7:0.0 8:0.0 9:0.0 10:1.0 11:0.0 12:0.0 13:0.0 14:0.0 15:0.0 16:0.0 17:0.0 18:0.0 19:0.0 20:0.0 21:0.0 22:0.0 23:0.0 24:0.0 25:0.0 26:0.02395209580838323 27:8.635578583765112E-4 28:0.0 29:0.0 30:0.0017985611510791368 31:0.0 32:0.0 33:2.0589521004029767E-15 34:0.004424778761061947 35:0.032432432432432434 36:0.012259194395796848 37:0.0 38:0.010273972602739725 39:0.35294117647058826 40:0.00684931506849315 41:0.5882352941176471 42:0.0 43:0.03450092178035291 44:0.030352941176470586 45:2.2226544050240932E-4 46:0.04794520547945205 47:0.018518518518518517 48:1.0 49:0.05575015826123654 50:1.0 51:0.01889644746787604 52:0.06162343245326212 53:0.8292666961742023 54:0.028876944975445143 55:0.002454753078017735 56:0.13522008372677902 57:0.4591234960413941 58:0.47350180240468687 59:0.34891645299797674 60:0.4059403353068244 61:0.001100705613054152 62:0.013943736287339276 
0.0 8.0 0.0 0.0 0:0.0 1:0.0 2:1.0 3:0.0 4:0.0 5:0.0 6:0.0 7:1.0 8:1.0 9:0.0 10:1.0 11:0.0 12:0.0 13:0.0 14:0.0 15:0.0 16:0.0 17:0.0 18:0.0 19:0.0 20:0.0 21:8.680555555555555E-4 22:1.0 23:0.0 24:0.0 25:0.0 26:0.02594810379241517 27:0.0 28:1.0 29:1.0 30:0.0 31:1.0 32:0.0 33:2.0589521004029767E-15 34:0.0 35:0.0 36:0.0 37:0.0 38:0.0 39:0.0 40:0.0 41:0.0 42:1.0 43:0.0 44:0.0 45:0.0 46:0.0 47:0.0 48:1.0 49:0.026341703594288522 50:1.0 51:0.021258503401360547 52:0.05777534225867104 53:0.28203550923915666 54:0.02765339732802823 55:0.0 56:0.0 57:0.4667824414224266 58:0.18068853500662924 59:0.13590694533112765 60:0.006800816277157906 61:0.033603557545495225 62:0.01394640368836839 
1.138389487118836 0.0 0.0 0.0 0:0.0 1:0.0 2:1.0 3:0.0 4:0.0 5:0.0 6:0.0 7:0.0 8:0.0 9:0.0 10:1.0 11:0.0 12:0.0 13:0.0 14:0.0 15:0.0 16:0.0 17:0.0 18:0.0 19:0.0 20:0.0 21:0.0 22:0.0 23:0.0 24:0.0 25:0.0 26:0.0279441117764471 27:0.0 28:0.0 29:0.0 30:0.0017985611510791368 31:1.0 32:0.0 33:2.0589521004029767E-15 34:0.004424778761061947 35:0.02702702702702703 36:0.012259194395796848 37:0.0 38:0.015957446808510637 39:0.7142857142857143 40:0.0 41:0.5714285714285714 42:0.0 43:0.022386094284961813 44:0.04971428571428571 45:0.35195305070002936 46:0.07446808510638298 47:0.02 48:1.0 49:0.040251107828655826 50:1.0 51:0.021258503401360547 52:0.031011476783909024 53:0.9999999999999998 54:0.02593707425652697 55:0.00985648790555635 56:0.4560672264166313 57:0.45520852814662444 58:0.08030719580980741 59:0.06288368435919042 60:0.2637937175331584 61:0.00144413086907292 62:0.009512304183750568 
0.647275101243106 0.0 0.0 0.0 0:0.0 1:0.0 2:1.0 3:0.0 4:0.0 5:0.0 6:0.0 7:0.0 8:0.0 9:0.0 10:1.0 11:0.0 12:0.0 13:0.0 14:0.0 15:0.0 16:0.0 17:0.0 18:0.0 19:0.0 20:0.0 21:0.0 22:0.0 23:0.0 24:0.0 25:0.0 26:0.03792415169660678 27:0.0 28:0.0 29:0.0 30:0.0017985611510791368 31:1.0 32:0.0 33:2.0589521004029767E-15 34:0.004424778761061947 35:0.02702702702702703 36:0.012259194395796848 37:0.0 38:0.016304347826086956 39:0.5555555555555556 40:0.0 41:0.7777777777777778 42:0.0 43:0.02185936265472742 44:0.03688888888888889 45:0.3084445907217002 46:0.07608695652173914 47:0.02 48:1.0 49:0.039399511651041504 50:1.0 51:0.021258503401360547 52:0.05779423852760273 53:0.9999999999999998 54:0.02593707425652697 55:0.00900868575588647 56:0.4483088853649607 57:0.45520852814662444 58:0.08030719580980741 59:0.06288368435919042 60:0.2518452478288237 61:0.0015531585397085639 62:0.009767069528802769 
0.0 1.66128798323486 0.0 0.0 0:0.0 1:0.0 2:1.0 3:0.0 4:0.0 5:0.0 6:0.0 7:0.0 8:0.0 9:0.0 10:1.0 11:0.0 12:0.0 13:0.0 14:1.0 15:0.0 16:0.0 17:0.0 18:0.0 19:0.0 20:0.0 21:0.0 22:0.0 23:0.0 24:0.0 25:0.0 26:0.04391217564870259 27:0.0 28:0.0 29:0.0 30:0.0017985611510791368 31:1.0 32:0.0 33:2.0589521004029767E-15 34:0.017699115044247787 35:0.06486486486486487 36:0.02626970227670753 37:0.0 38:0.041666666666666664 39:0.75 40:0.0 41:0.625 42:0.0 43:0.03265736107453253 44:0.032 45:0.060261717556191495 46:0.10416666666666667 47:0.031446540880503145 48:1.0 49:0.05575015826123654 50:1.0 51:0.021258503401360547 52:0.031012826517404148 53:0.9999999999999998 54:0.02593707425652695 55:0.006179629770607958 56:0.25769989151974254 57:0.45520852814662444 58:0.4316954771375129 59:0.31850408527416385 60:0.4080825775004087 61:0.0013015224369207394 62:0.013262165491812621 
0.0 1.4094266467015901 0.0 0.0 0:0.0 1:0.0 2:1.0 3:0.0 4:0.0 5:0.0 6:0.0 7:0.0 8:0.0 9:0.0 10:1.0 11:0.0 12:0.0 13:0.0 14:1.0 15:0.0 16:1.0 17:0.0 18:0.0 19:0.0 20:0.0 21:8.680555555555555E-4 22:0.0 23:0.0 24:0.0 25:0.0 26:0.04590818363273453 27:0.005181347150259067 28:0.0 29:0.0 30:0.019784172661870505 31:1.0 32:2.1411442274549593E-6 33:3.3538396879999554E-7 34:0.05752212389380531 35:0.2756756756756757 36:0.10507880910683012 37:2.665469485198242E-6 38:0.02522639068564036 39:0.46788990825688076 40:0.007761966364812419 41:0.6788990825688074 42:0.00129366106080207 43:0.1777719252041085 44:0.02436697247706422 45:0.4081541496316592 46:0.07761966364812418 47:0.02724177071509648 48:1.0 49:0.2542191772211571 50:1.0 51:0.021258503401360547 52:0.05781178506303932 53:0.9999999999999998 54:0.02593707425652695 55:0.06365299548346402 56:0.37089658008620313 57:0.3394685048135582 58:0.2811760968209502 59:0.20900747885173604 60:0.42074015002913306 61:0.008679363208856287 62:0.013200950556209894 
8.0 0.0 0.0 0.0 0:0.0 1:0.0 2:1.0 3:0.0 4:0.0 5:0.0 6:0.0 7:0.0 8:0.0 9:0.0 10:1.0 11:0.0 12:0.0 13:0.0 14:0.0 15:0.0 16:0.0 17:0.0 18:0.0 19:0.0 20:0.0 21:0.0 22:0.0 23:0.0 24:0.0 25:0.0 26:0.04590818363273453 27:0.0 28:0.0 29:0.0 30:0.0 31:1.0 32:0.0 33:2.0589521004029767E-15 34:0.0 35:0.032432432432432434 36:0.01576182136602452 37:0.0 38:0.0 39:0.75 40:0.0 41:0.875 42:0.0 43:0.01580194890703187 44:0.031000000000000003 45:0.0 46:0.12857142857142856 47:0.012987012987012988 48:1.0 49:0.01983091863352085 50:1.0 51:0.021258503401360547 52:0.05781313479653443 53:0.9999999999999998 54:0.02593707425652695 55:4.3021915035733457E-4 56:0.04524009565048816 57:0.4667824414224266 58:0.4443321059792711 59:0.3276967086551681 60:0.4159250207765385 61:5.494538912305496E-4 62:0.01394640368836839 
0.0 8.0 0.0 0.0 0:0.0 1:0.0 2:1.0 3:0.0 4:0.0 5:0.0 6:0.0 7:1.0 8:1.0 9:0.0 10:1.0 11:0.0 12:0.0 13:0.0 14:0.0 15:0.0 16:0.0 17:0.0 18:0.0 19:0.0 20:0.0 21:8.680555555555555E-4 22:1.0 23:0.0 24:0.0 25:0.0 26:0.05189620758483034 27:0.0 28:1.0 29:1.0 30:0.0 31:1.0 32:0.0 33:2.0589521004029767E-15 34:0.0 35:0.0 36:0.0 37:0.0 38:0.0 39:0.0 40:0.0 41:0.0 42:1.0 43:0.0 44:0.0 45:0.0 46:0.0 47:0.0 48:1.0 49:0.02558984390594435 50:1.0 51:0.021258503401360547 52:0.031011476783909024 53:0.2261716256689743 54:0.02765339732802825 55:0.0 56:0.0 57:0.4667824414224266 58:0.055174924509517054 59:0.04460099934360002 60:0.006800816277157895 61:0.03360355754549528 62:0.01394640368836839 
0.0 8.0 0.0 0.0 0:0.0 1:0.0 2:1.0 3:0.0 4:0.0 5:0.0 6:0.0 7:0.0 8:0.0 9:0.0 10:1.0 11:0.0 12:0.0 13:0.0 14:0.0 15:0.0 16:0.0 17:0.0 18:0.0 19:0.0 20:0.0 21:0.0 22:0.0 23:0.0 24:0.0 25:0.0 26:0.0558882235528942 27:0.0017271157167530224 28:0.0 29:0.5 30:0.0017985611510791368 31:0.0 32:0.0 33:2.0589521004029767E-15 34:0.004424778761061947 35:0.05405405405405406 36:0.01926444833625219 37:0.0 38:0.01171875 39:0.625 40:0.015625 41:0.625 42:0.0 43:0.029760337108243353 44:0.028 45:0.1542885475594614 46:0.0859375 47:0.027972027972027972 48:1.0 49:0.06111521418020679 50:1.0 51:0.01889644746787604 52:0.031011476783909024 53:0.9999999999999998 54:0.012815212267209346 55:0.004548716940659237 56:0.25538197917515215 57:0.4591234960413941 58:0.18149099859882706 59:0.1364907043124523 60:0.34445596829869823 61:0.0011218612052241693 62:0.012059203316724249 
0.31229933747010147 8.0 0.0 0.0 0:0.0 1:0.0 2:1.0 3:0.0 4:0.0 5:0.0 6:0.0 7:0.0 8:0.0 9:0.0 10:1.0 11:0.0 12:0.0 13:0.0 14:0.0 15:0.0 16:0.0 17:0.0 18:0.0 19:0.0 20:0.0 21:0.0 22:0.0 23:0.0 24:0.0 25:0.0 26:0.0558882235528942 27:0.0017271157167530224 28:0.0 29:0.5 30:0.0017985611510791368 31:0.0 32:0.0 33:2.0589521004029767E-15 34:0.004424778761061947 35:0.05405405405405406 36:0.01926444833625219 37:0.0 38:0.011450381679389313 39:0.625 40:0.015267175572519083 41:0.625 42:0.0 43:0.030550434553594946 44:0.02875 45:0.18586733745236794 46:0.08396946564885496 47:0.0273972602739726 48:1.0 49:0.06111521418020679 50:1.0 51:0.01889644746787604 52:0.031011476783909024 53:0.9999999999999998 54:0.012815212267209346 55:0.005086868743044842 56:0.2706063867471761 57:0.4591234960413941 58:0.20659816273498127 59:0.15475512490744772 60:0.35548900094157104 61:0.0010629805173788948 62:0.011792265424861415 
0.0 0.22225477641464403 0.0 0.0 0:0.0 1:0.0 2:1.0 3:0.0 4:0.0 5:0.0 6:0.0 7:0.0 8:0.0 9:0.0 10:1.0 11:0.0 12:0.0 13:0.0 14:1.0 15:0.0 16:1.0 17:1.0 18:0.006802721088435374 19:0.0 20:0.0 21:0.027777777777777776 22:0.0 23:0.0 24:0.0 25:0.0 26:0.001996007984031936 27:0.012953367875647668 28:0.0 29:0.0 30:0.08633093525179857 31:1.0 32:0.01824254881808835 33:0.0020993667403173626 34:0.08849557522123894 35:0.5243243243243243 36:0.22591943957968477 37:0.004537116780393475 38:0.016129032258064516 39:0.313915857605178 40:0.008064516129032258 41:0.6504854368932039 42:0.017204301075268817 43:0.4311298393468528 44:0.020077669902912623 45:0.23406046902282285 46:0.06935483870967742 47:0.023062730627306273 48:1.0 49:0.5096935007385524 50:1.0 51:0.02362325882734046 52:0.32173327376509514 53:0.3503219643818051 54:0.021483787993671715 55:0.09658342076342374 56:0.23599122361380906 57:0.020899124564731437 58:0.04566124062223276 59:0.03244825459366342 60:0.2738831219076626 61:0.052366514894057234 62:0.013668349263966092 
0.0 8.0 0.0 0.0 0:0.0 1:0.0 2:1.0 3:0.0 4:0.0 5:0.0 6:0.0 7:0.0 8:0.0 9:0.0 10:1.0 11:0.0 12:0.0 13:0.0 14:0.0 15:0.0 16:0.0 17:0.0 18:0.011111111111111112 19:0.0 20:0.0 21:0.005208333333333333 22:0.0 23:0.0 24:0.0 25:0.0 26:0.003992015968063872 27:8.635578583765112E-4 28:0.0 29:0.0 30:0.007194244604316546 31:0.0 32:0.0 33:2.0589521004029767E-15 34:0.01327433628318584 35:0.043243243243243246 36:0.01576182136602452 37:0.0 38:0.023195876288659795 39:0.26666666666666666 40:0.005154639175257732 41:0.6666666666666666 42:0.030927835051546393 43:0.045035554385040824 44:0.021866666666666666 45:0.17794699396677569 46:0.04639175257731959 47:0.026905829596412557 48:1.0 49:0.049618665782413404 50:1.0 51:0.020077475434618294 52:0.08451761199751112 53:0.7297025216401732 54:0.015057874413970987 55:0.009977282501600761 56:0.298658996323587 57:0.4903212304184813 58:0.1674020168778082 59:0.11115778885066097 60:0.24186205573115116 61:0.004693206126196948 62:0.012646441601058647 
0.0 8.0 0.0 0.0 0:0.0 1:0.0 2:1.0 3:0.0 4:0.0 5:0.0 6:0.0 7:0.0 8:0.0 9:0.0 10:1.0 11:0.0 12:0.0 13:0.0 14:0.0 15:0.0 16:0.0 17:0.0 18:0.007936507936507936 19:0.0 20:0.0 21:0.0078125 22:0.0 23:0.0 24:0.0 25:0.0 26:0.011976047904191616 27:0.0025906735751295333 28:0.0 29:0.0 30:0.010791366906474822 31:0.0 32:0.0 33:2.001758986502894E-15 34:0.008849557522123894 35:0.06486486486486487 36:0.02276707530647986 37:1.9382605302752397E-16 38:0.011111111111111112 39:0.2857142857142857 40:0.011111111111111112 41:0.6190476190476191 42:0.03333333333333333 43:0.06268106399789308 44:0.021714285714285717 45:0.23556717224930487 46:0.04814814814814815 47:0.02572347266881029 48:1.0 49:0.07079443877628712 50:1.0 51:0.020077475434618273 52:0.08451761199751112 53:0.7296724628875375 54:0.01501210579873095 55:0.014249697832127435 56:0.3016868516835483 57:0.4721828884910988 58:0.4522621072056595 59:0.29531272298877764 60:0.2432075839405757 61:0.0066348138448698675 62:0.012715443679910314 
0.0 8.0 0.0 0.0 0:0.0 1:0.0 2:1.0 3:0.0 4:0.0 5:0.0 6:0.0 7:0.0 8:0.0 9:0.0 10:1.0 11:0.0 12:0.0 13:0.0 14:0.0 15:0.0 16:0.0 17:0.0 18:0.0 19:0.0 20:0.0 21:0.0 22:0.0 23:0.0 24:0.0 25:0.0 26:0.015968063872255488 27:0.0017271157167530224 28:0.0 29:0.0 30:0.007194244604316546 31:0.0 32:0.0 33:2.0589521004029767E-15 34:0.004424778761061947 35:0.05945945945945946 36:0.021015761821366025 37:0.0 38:0.006787330316742082 39:0.3333333333333333 40:0.00904977375565611 41:0.6060606060606061 42:0.0 43:0.052936528838556755 44:0.02278787878787879 45:6.625219861128107E-5 46:0.05429864253393665 47:0.023715415019762844 48:1.0 49:0.049618665782413404 50:1.0 51:0.020077475434618294 52:0.08451761199751112 53:0.7296987641606592 54:0.01418827072441049 55:0.006545558640416527 56:0.195920947853574 57:0.49071308343797604 58:0.5542937596143539 59:0.3610247321455446 60:0.26673028431563606 61:0.004692890837331921 62:0.013945185695939902 
3.7631633621920497 8.0 8.0 0.0 0:0.0 1:0.0 2:1.0 3:0.0 4:0.0 5:0.0 6:0.0 7:0.0 8:0.0 9:0.0 10:1.0 11:0.0 12:0.0 13:0.0 14:0.0 15:0.0 16:0.0 17:0.0 18:0.027777777777777776 19:0.0 20:0.0 21:0.006076388888888888 22:0.0 23:0.0 24:0.0 25:0.0 26:0.015968063872255488 27:0.0017271157167530224 28:0.0 29:0.0 30:0.0017985611510791368 31:0.0 32:0.0 33:2.0589521004029767E-15 34:0.004424778761061947 35:0.021621621621621623 36:0.014010507880910683 37:0.0 38:0.023076923076923078 39:0.3333333333333333 40:0.03076923076923077 41:0.5 42:0.1076923076923077 43:0.011588095865156703 44:0.017666666666666667 45:0.16828272164031893 46:0.12307692307692308 47:0.05263157894736842 48:1.0 49:0.01896120338829771 50:1.0 51:0.020077475434618294 52:0.35617847256059293 53:0.3065525231719876 54:0.026149135507139144 55:0.00442691294577864 56:0.3493688784466865 57:0.5179646797937428 58:0.045236350152236315 59:0.03214311246377701 60:0.2079318962614177 61:0.0017802414362650127 62:0.010872185508717493 
0.0 8.0 0.0 0.0 0:0.0 1:0.0 2:1.0 3:0.0 4:0.0 5:0.0 6:0.0 7:0.0 8:0.0 9:0.0 10:1.0 11:0.0 12:0.0 13:0.0 14:0.0 15:0.0 16:0.0 17:0.0 18:0.0 19:0.0 20:0.0 21:0.0 22:1.0 23:0.0 24:0.0 25:0.0 26:0.017964071856287425 27:0.0 28:0.0 29:1.0 30:0.0 31:0.0 32:0.0 33:2.0589521004029767E-15 34:0.0 35:0.005405405405405406 36:0.01926444833625219 37:0.0 38:0.0 39:1.0 40:0.0 41:1.0 42:0.0 43:0.0 44:0.039999999999999994 45:0.0 46:1.0 47:0.0 48:1.0 49:0.008438510025300905 50:1.0 51:0.020077475434618294 52:0.32173327376509514 53:0.3503996003996002 54:0.01600375912893173 55:1.509181463951851E-5 56:0.006981011053267218 57:0.5276630420262364 58:0.04457004464246914 59:0.03166549383824268 60:0.10011416829257544 61:0.002155892853461046 62:0.01394640368836839 
0.0 8.0 0.0 0.0 0:0.0 1:0.0 2:1.0 3:0.0 4:0.0 5:0.0 6:0.0 7:0.0 8:0.0 9:0.0 10:1.0 11:0.0 12:0.0 13:0.0 14:0.0 15:0.0 16:0.0 17:0.0 18:0.0 19:0.0 20:0.0 21:0.0 22:1.0 23:0.0 24:0.0 25:0.0 26:0.017964071856287425 27:0.0 28:0.0 29:1.0 30:0.0 31:0.0 32:0.0 33:2.0589521004029767E-15 34:0.0 35:0.005405405405405406 36:0.03502626970227671 37:0.0 38:0.0 39:1.0 40:0.0 41:1.0 42:0.0 43:0.0 44:0.076 45:0.0 46:1.0 47:0.0 48:1.0 49:0.008438510025300905 50:1.0 51:0.020077475434618294 52:0.32173327376509514 53:0.3503275075440023 54:0.0159671442367397 55:0.0 56:0.0 57:0.5276630420262364 58:0.4482024718968752 59:0.29213686275595874 60:0.15189684383285879 61:0.0014209341978800856 62:0.01394640368836839 
0.0 2.866761170628838 0.0 0.4768584545314724 0:0.0 1:0.0 2:1.0 3:0.0 4:0.0 5:0.0 6:0.0 7:0.0 8:1.0 9:0.0 10:1.0 11:0.0 12:0.0 13:0.0 14:0.0 15:0.0 16:0.0 17:1.0 18:0.0 19:0.0 20:0.0 21:8.680555555555555E-4 22:1.0 23:1.0 24:0.0 25:0.0 26:0.011976047904191616 27:8.635578583765112E-4 28:1.0 29:1.0 30:0.0 31:0.0 32:0.0 33:2.0589521004029767E-15 34:0.0 35:0.0 36:0.0 37:0.0 38:0.0 39:0.0 40:0.5 41:0.0 42:0.5 43:0.0 44:0.004 45:0.0 46:0.0 47:0.5 48:1.0 49:0.022949165976150158 50:1.0 51:0.033163265306122465 52:0.11520380300909588 53:0.35693327523806884 54:0.02263105461568857 55:0.0 56:0.0 57:0.5425703776928764 58:0.09431602773762239 59:0.06115384993896584 60:0.015716247365131702 61:0.022684125585044585 62:0.01394640368836839 
0.060809264526964384 8.0 0.0 0.0 0:0.0 1:0.0 2:1.0 3:0.0012987012987012987 4:0.0 5:0.0 6:0.0 7:0.0 8:0.0 9:0.0 10:1.0 11:0.0 12:0.0 13:0.0 14:0.0 15:0.0 16:0.0 17:0.0 18:0.0 19:0.0 20:0.0 21:8.680555555555555E-4 22:1.0 23:0.0 24:0.0 25:0.0 26:0.011976047904191616 27:0.0 28:0.0 29:1.0 30:0.0 31:1.0 32:0.0 33:2.0589521004029767E-15 34:0.0 35:0.005405405405405406 36:0.0017513134851138354 37:0.0 38:0.0 39:1.0 40:0.0 41:0.0 42:0.09090909090909091 43:0.0023702923360547803 44:0.039999999999999994 45:0.0 46:0.09090909090909091 47:0.0 48:1.0 49:0.022949165976150158 50:1.0 51:0.03557256235827665 52:0.1534282555909336 53:0.6878873892139257 54:0.02263105461568857 55:3.338557514067935E-4 56:0.08884831074231249 57:0.5416619911476841 58:0.09333105437535788 59:0.060540948941093305 60:0.09821459905574084 61:0.0038936123858073226 62:0.01394640368836839 
0.0 8.0 0.0 0.0 0:0.0 1:0.0 2:1.0 3:0.0 4:0.0 5:0.0 6:0.0 7:0.0 8:0.0 9:0.0 10:1.0 11:0.0 12:0.0 13:0.0 14:0.0 15:0.0 16:0.0 17:0.0 18:0.0 19:0.0 20:0.0 21:0.001736111111111111 22:1.0 23:1.0 24:0.0 25:0.0 26:0.015968063872255488 27:8.635578583765112E-4 28:1.0 29:0.0 30:0.0 31:0.0 32:0.0 33:2.0589521004029767E-15 34:0.0 35:0.0 36:0.0 37:0.0 38:0.0 39:0.0 40:0.3333333333333333 41:0.0 42:0.6666666666666666 43:0.0 44:0.008 45:0.0 46:0.0 47:0.3333333333333333 48:1.0 49:0.021813060355192194 50:1.0 51:0.02834467120181406 52:0.11520380300909588 53:0.3543637854813866 54:0.0203273676486069 55:0.0 56:0.0 57:0.5861756035872363 58:0.45385158382750984 59:0.2642754798026059 60:0.02239460713488357 61:0.013606348454004226 62:0.01394640368836839 
0.0 8.0 0.0 0.0 0:0.0 1:0.0 2:1.0 3:0.0 4:0.0 5:0.0 6:0.0 7:0.0 8:0.0 9:0.0 10:1.0 11:0.0 12:0.0 13:0.0 14:0.0 15:0.0 16:0.0 17:0.0 18:0.0 19:0.0 20:0.0 21:0.0 22:0.0 23:0.0 24:0.0 25:0.0 26:0.02594810379241517 27:0.0 28:0.0 29:0.0 30:0.0 31:0.0 32:0.0 33:2.0589521004029767E-15 34:0.0 35:0.010810810810810811 36:0.0035026269702276708 37:0.0 38:0.0 39:0.5 40:0.0 41:0.75 42:0.0 43:0.0071108770081643406 44:0.025 45:0.0 46:0.06896551724137931 47:0.0 48:1.0 49:0.02236758809875501 50:1.0 51:0.02834467120181406 52:0.11520380300909588 53:0.7497649576923845 54:0.0203273676486069 55:3.61065405448042E-4 56:0.05073534585884164 57:0.5950457310285252 58:0.4904684513997727 59:0.2811479383752466 60:0.2334454109050506 61:0.0013052680152778392 62:0.01394640368836839 
0.0 8.0 0.0 0.0 0:0.0 1:0.0 2:1.0 3:0.0 4:0.0 5:0.0 6:0.0 7:0.0 8:0.0 9:0.0 10:1.0 11:0.0 12:0.0 13:0.0 14:0.0 15:0.0 16:0.0 17:0.0 18:0.0 19:0.0 20:0.0 21:0.0 22:0.0 23:0.0 24:0.0 25:0.0 26:0.0279441117764471 27:0.0 28:0.0 29:1.0 30:0.0 31:1.0 32:0.0 33:2.0589521004029767E-15 34:0.0 35:0.010810810810810811 36:0.0035026269702276708 37:0.0 38:0.0 39:1.0 40:0.0 41:0.0 42:0.0 43:0.004740584672109561 44:0.036000000000000004 45:0.0 46:0.1 47:0.0 48:1.0 49:0.02236758809875501 50:1.0 51:0.02834467120181406 52:0.1534282555909336 53:0.6789514086320754 54:0.0203273676486069 55:1.2437658399748876E-4 56:0.025910224675411698 57:0.5953511982687222 58:0.3514143541520007 59:0.20175126698303367 60:0.15746264143166588 61:0.0019351182312027306 62:0.01394640368836839 
0.0 2.2658485487750286 0.0 0.0 0:0.0 1:0.0 2:1.0 3:0.0 4:1.0 5:0.0 6:0.0 7:0.0 8:0.0 9:0.0 10:1.0 11:0.0 12:0.0 13:0.0 14:0.0 15:0.0 16:0.0 17:1.0 18:0.012345679012345678 19:0.0 20:0.0 21:0.008680555555555556 22:0.0 23:0.0 24:0.0 25:0.0 26:0.02994011976047904 27:0.004317789291882556 28:0.0 29:0.0 30:0.014388489208633094 31:1.0 32:0.030320743405275786 33:0.006332496470485019 34:0.02654867256637168 35:0.24864864864864866 36:0.10157618213660245 37:0.03991900304912164 38:0.01386748844375963 39:0.46938775510204084 40:0.007704160246533128 41:0.6428571428571429 42:0.015408320493066256 43:0.14537792994469317 44:0.022489795918367347 45:0.1976709146436594 46:0.08936825885978428 47:0.02546916890080429 48:1.0 49:0.20337048475896333 50:1.0 51:0.026077359956328205 52:0.07697800069376301 53:0.9999999999999998 54:0.013729058951502043 55:0.051410180912661696 56:0.2774752965912841 57:0.48368822748848933 58:0.18013714305579293 59:0.10658675057001277 60:0.5751053719164252 61:0.005267419089169402 62:0.014037906641775061 
0.0 1.2213079704209584 0.0 0.0 0:0.0 1:0.0 2:1.0 3:0.0 4:0.0 5:0.0 6:0.0 7:0.0 8:0.0 9:0.0 10:1.0 11:0.0 12:1.0 13:0.0 14:0.0 15:0.0 16:0.0 17:0.0 18:0.027777777777777776 19:0.0 20:0.0 21:0.006944444444444444 22:0.0 23:1.0 24:0.0 25:0.0 26:0.031936127744510975 27:0.008635578583765112 28:1.0 29:0.3333333333333333 30:0.0017985611510791368 31:0.0 32:0.0303186022610483 33:0.02849422181337519 34:0.008849557522123894 35:0.016216216216216217 36:0.010507880910683012 37:0.07266912272915083 38:0.029411764705882353 39:0.375 40:0.09803921568627451 41:0.125 42:0.0784313725490196 43:0.018435607058203848 44:0.047 45:0.726775932927129 46:0.058823529411764705 47:0.11926605504587157 48:1.0 49:0.048596750369276215 50:1.0 51:0.021258503401360547 52:0.11520380300909588 53:0.9999999999999998 54:0.0554456261222847 55:0.016858085962557327 56:0.5587567720549782 57:0.588190974912501 58:0.6758520260998627 59:0.3866560381314251 60:0.32812893176857805 61:8.586623652217341E-4 62:0.007721962298836828 
0.0 8.0 0.0 0.0 0:0.0 1:0.0 2:1.0 3:0.0 4:0.0 5:0.0 6:0.0 7:0.0 8:0.0 9:0.0 10:1.0 11:0.0 12:0.0 13:0.0 14:0.0 15:0.0 16:0.0 17:0.0 18:0.0 19:0.0 20:0.0 21:0.0 22:0.0 23:0.0 24:0.0 25:0.0 26:0.03393213572854291 27:0.0 28:0.0 29:0.0 30:0.0 31:1.0 32:0.0 33:2.0589521004029767E-15 34:0.0 35:0.010810810810810811 36:0.0035026269702276708 37:0.0 38:0.0 39:0.6666666666666666 40:0.0 41:0.6666666666666666 42:0.0 43:0.0057940479325783514 44:0.028 45:0.0 46:0.08333333333333333 47:0.0 48:1.0 49:0.023559822747415065 50:1.0 51:0.02834467120181406 52:0.11520380300909588 53:0.7497649576923845 54:0.0203273676486069 55:2.4010325915180657E-4 56:0.041623916783735594 57:0.5953511982687222 58:0.457675598057478 59:0.26231208554741786 60:0.18921919789494274 61:0.0016103483766849802 62:0.01394640368836839 
0.0 8.0 0.0 0.0 0:0.0 1:0.0 2:1.0 3:0.0 4:0.0 5:0.0 6:0.0 7:0.0 8:0.0 9:0.0 10:1.0 11:0.0 12:0.0 13:0.0 14:0.0 15:0.0 16:0.0 17:0.0 18:0.0 19:0.0 20:0.0 21:0.0 22:0.0 23:0.0 24:0.0 25:0.0 26:0.03792415169660678 27:0.0 28:0.0 29:0.0 30:0.0 31:1.0 32:0.0 33:2.0589521004029767E-15 34:0.0 35:0.010810810810810811 36:0.0035026269702276708 37:0.0 38:0.0 39:0.6666666666666666 40:0.0 41:0.6666666666666666 42:0.0 43:0.0057940479325783514 44:0.028 45:0.0 46:0.08333333333333333 47:0.0 48:1.0 49:0.021813060355192194 50:1.0 51:0.02834467120181406 52:0.11520380300909588 53:0.7497649576923845 54:0.0203273676486069 55:2.4456479108143616E-4 56:0.03778176319583611 57:0.5897022807626886 58:0.39197208083348056 59:0.22706977920375726 60:0.21233510372588854 61:0.0014350374611685275 62:0.01394640368836839 
0.0 8.0 0.0 0.0 0:0.0 1:0.0 2:1.0 3:0.0 4:0.0 5:0.0 6:0.0 7:0.0 8:0.0 9:0.0 10:1.0 11:0.0 12:0.0 13:0.0 14:0.0 15:0.0 16:0.0 17:0.0 18:0.0 19:0.0 20:0.0 21:0.0 22:1.0 23:0.0 24:0.0 25:0.0 26:0.041916167664670656 27:0.0 28:0.0 29:1.0 30:0.0 31:1.0 32:0.0 33:2.0589521004029767E-15 34:0.0 35:0.005405405405405406 36:0.0017513134851138354 37:0.0 38:0.0 39:1.0 40:0.0 41:1.0 42:0.0 43:0.0023702923360547803 44:0.036000000000000004 45:0.0 46:0.1 47:0.0 48:1.0 49:0.02236758809875501 50:1.0 51:0.02834467120181406 52:0.11520380300909588 53:0.7497649576923845 54:0.0203273676486069 55:4.006273569461377E-6 56:0.0017300357802838458 57:0.5955595928290899 58:0.2702989007890409 59:0.15546496011328872 60:0.0759618622648032 61:0.004011339626002578 62:0.01394640368836839 
0.0 8.0 0.0 0.0 0:0.0 1:0.0 2:1.0 3:0.0 4:0.0 5:0.0 6:0.0 7:0.0 8:0.0 9:0.0 10:1.0 11:0.0 12:0.0 13:0.0 14:0.0 15:0.0 16:0.0 17:0.0 18:0.0 19:0.0 20:0.0 21:0.0 22:0.0 23:0.0 24:0.0 25:0.0 26:0.04391217564870259 27:0.0 28:0.0 29:0.0 30:0.0 31:1.0 32:0.0 33:2.0589521004029767E-15 34:0.0 35:0.010810810810810811 36:0.0035026269702276708 37:0.0 38:0.0 39:0.6666666666666666 40:0.0 41:0.3333333333333333 42:0.0 43:0.005530682117461154 44:0.02666666666666667 45:0.0 46:0.08695652173913043 47:0.0 48:1.0 49:0.021283738418154962 50:1.0 51:0.02834467120181406 52:0.1534282555909336 53:0.6789522113980516 54:0.0203273676486069 55:2.4196981842848902E-4 56:0.04234891040197599 57:0.591519053853073 58:0.36497222278552394 59:0.2108707445867687 60:0.18742565807305725 61:0.0016257583476056497 62:0.01394640368836839 
0.0 8.0 0.0 0.0 0:0.0 1:0.0 2:1.0 3:0.0 4:0.0 5:0.0 6:0.0 7:0.0 8:0.0 9:0.0 10:1.0 11:0.0 12:0.0 13:0.0 14:0.0 15:0.0 16:0.0 17:0.0 18:0.0 19:0.0 20:0.0 21:0.0 22:0.0 23:0.0 24:0.0 25:0.0 26:0.04790419161676646 27:0.0 28:0.0 29:1.0 30:0.0 31:1.0 32:0.0 33:2.0589521004029767E-15 34:0.0 35:0.010810810810810811 36:0.0035026269702276708 37:0.0 38:0.0 39:1.0 40:0.0 41:1.0 42:0.0 43:0.004740584672109561 44:0.036000000000000004 45:0.0 46:0.1 47:0.0 48:1.0 49:0.01896120338829771 50:1.0 51:0.02834467120181406 52:0.1534282555909336 53:0.6789522113980516 54:0.0203273676486069 55:1.2678945330636587E-4 56:0.025563357657533328 57:0.5977174561614436 58:0.09265605792415897 59:0.05403126360536479 60:0.1626954170652103 61:0.0018728789886295573 62:0.01394640368836839 
0.0 8.0 0.0 0.0 0:0.0 1:0.0 2:1.0 3:0.0 4:0.0 5:0.0 6:0.0 7:0.0 8:0.0 9:0.0 10:1.0 11:0.0 12:0.0 13:0.0 14:0.0 15:0.0 16:0.0 17:0.0 18:0.0 19:0.0 20:0.0 21:0.0 22:0.0 23:0.0 24:0.0 25:0.0 26:0.05389221556886227 27:0.0 28:0.0 29:1.0 30:0.0 31:1.0 32:0.0 33:2.0589521004029767E-15 34:0.0 35:0.010810810810810811 36:0.0035026269702276708 37:0.0 38:0.0 39:1.0 40:0.0 41:1.0 42:0.0 43:0.0034237555965235715 44:0.026 45:0.0 46:0.13333333333333333 47:0.0 48:1.0 49:0.021283738418154962 50:1.0 51:0.02834467120181406 52:0.11520380300909588 53:0.7497643319905881 54:0.0203273676486069 55:1.261065657661202E-4 56:0.0323802398709473 57:0.591519053853073 58:0.15638962842362736 59:0.09123807671828443 60:0.12775200466529424 61:0.002385158878454248 62:0.01394640368836839 
0.0 8.0 0.0 0.0 0:0.0 1:0.0 2:1.0 3:0.0 4:0.0 5:0.0 6:0.0 7:0.0 8:0.0 9:0.0 10:1.0 11:0.0 12:0.0 13:0.0 14:0.0 15:0.0 16:0.0 17:0.0 18:0.0 19:0.0 20:0.0 21:0.0 22:1.0 23:0.0 24:0.0 25:0.0 26:0.0558882235528942 27:0.0 28:0.0 29:1.0 30:0.0 31:1.0 32:0.0 33:2.0589521004029767E-15 34:0.0 35:0.005405405405405406 36:0.0017513134851138354 37:0.0 38:0.0 39:1.0 40:0.0 41:1.0 42:0.0 43:0.004213853041875165 44:0.064 45:0.0 46:0.058823529411764705 47:0.0 48:1.0 49:0.02236758809875501 50:1.0 51:0.02834467120181406 52:0.1534282555909336 53:0.6789522113980516 54:0.0203273676486069 55:8.285702155031715E-6 56:0.0020490880432339036 57:0.571855156874794 58:0.3785300914190472 59:0.22634302371711632 60:0.13264130472928523 61:0.002297239376449528 62:0.01394640368836839 
0.0 0.0 3.0742230607771206 0.0 0:0.0 1:0.0 2:1.0 3:0.0 4:0.0 5:0.0 6:0.0 7:0.0 8:0.0 9:0.0 10:1.0 11:0.0 12:1.0 13:0.0 14:0.0 15:0.0 16:0.0 17:0.0 18:0.041666666666666664 19:0.0 20:0.0 21:0.014756944444444444 22:0.0 23:0.0 24:0.0 25:0.0 26:0.0558882235528942 27:8.635578583765112E-4 28:0.0 29:0.0 30:0.00539568345323741 31:1.0 32:0.030316461116820848 33:0.014246104754788488 34:0.017699115044247787 35:0.0972972972972973 36:0.04553415061295972 37:0.056147392609237276 38:0.020477815699658702 39:0.4090909090909091 40:0.0034129692832764505 41:0.6136363636363636 42:0.05802047781569966 43:0.06320779562812748 44:0.02263636363636364 45:9.830971406843877E-5 46:0.08873720136518772 47:0.023809523809523808 48:1.0 49:0.09390166701835828 50:1.0 51:0.026077097505668917 52:0.115205152742591 53:0.9999999999999998 54:0.013545984490541944 55:0.01888980477765787 56:0.23647558099538138 57:0.5353059570564714 58:0.6185082288730456 59:0.368628693062951 60:0.5874914411114869 61:0.0022718430277621185 62:0.01433376027045458 
0.0 3.930495486167131 0.0 0.0 0:0.0 1:1.0 2:1.0 3:0.0 4:0.0 5:0.0 6:0.0 7:0.0 8:0.0 9:0.0 10:1.0 11:0.0 12:0.0 13:0.0 14:0.0 15:0.0 16:0.0 17:0.0 18:0.0 19:0.0 20:0.0 21:0.0 22:0.0 23:0.0 24:0.0 25:0.0 26:0.07584830339321356 27:0.0034542314335060447 28:0.0 29:0.0 30:0.010791366906474822 31:0.0 32:0.0 33:2.001758986502894E-15 34:0.0 35:0.032432432432432434 36:0.03502626970227671 37:1.5496683507707638E-16 38:0.0 39:0.8571428571428571 40:0.13793103448275862 41:0.7142857142857143 42:0.0 43:0.0013168290755859891 44:0.012571428571428574 45:0.035979218181313055 46:0.6896551724137931 47:0.11428571428571428 48:1.0 49:0.29062038404726737 50:1.0 51:0.026077097505668945 52:0.11520380300909588 53:0.4622143759905309 54:0.022081831232808147 55:0.0041682526729789025 56:0.3519096250118765 57:0.1301664484757808 58:0.12185086151371088 59:0.21247763934235345 60:0.03910053348582794 61:0.054548669182315074 62:0.012469427096222561 
0.0 2.322501688679892 0.0 0.0 0:0.0 1:1.0 2:1.0 3:0.0 4:0.0 5:0.0 6:0.0 7:0.0 8:0.0 9:0.0 10:1.0 11:0.0 12:1.0 13:0.0 14:0.0 15:0.0 16:0.0 17:0.0 18:0.0 19:0.0 20:0.0 21:0.0 22:0.0 23:0.0 24:0.0 25:0.0 26:0.07584830339321356 27:0.0 28:0.0 29:1.0 30:0.0035971223021582736 31:0.0 32:0.0 33:2.1161452143030595E-15 34:0.0 35:0.016216216216216217 36:0.01576182136602452 37:1.549668350770763E-16 38:0.0 39:1.0 40:0.0 41:0.3333333333333333 42:0.0 43:5.267316302343956E-4 44:0.012 45:0.027588697802350442 46:0.75 47:0.07142857142857142 48:1.0 49:0.12370753323485965 50:1.0 51:0.026077097505668896 52:0.11520380300909588 53:0.4622143759905309 54:0.02837654144882072 55:0.0014327690797481325 56:0.3202110622503414 57:0.18295973710224692 58:0.23645540919366406 59:0.3929827472448089 60:0.03618689351983557 61:0.02399898726312799 62:0.011690753290736272 
0.0 1.2143197809451631 0.0 0.0 0:0.0 1:1.0 2:1.0 3:0.0 4:0.0 5:0.0 6:0.0 7:0.0 8:0.0 9:0.0 10:1.0 11:0.0 12:1.0 13:0.0 14:0.0 15:0.0 16:1.0 17:0.0 18:0.0 19:0.0 20:0.0 21:0.0 22:0.0 23:0.0 24:0.0 25:0.0 26:0.07584830339321356 27:0.0 28:0.0 29:0.0 30:0.01798561151079137 31:0.0 32:0.002312435765673203 33:7.902865834237776E-4 34:0.004424778761061947 35:0.1783783783783784 36:0.07180385288966726 37:0.0021534640068321376 38:0.004464285714285714 39:0.7674418604651163 40:0.0 41:0.8372093023255814 42:0.0 43:0.07558598893863577 44:0.027255813953488372 45:0.48339100124169443 46:0.12202380952380952 47:0.013227513227513227 48:1.0 49:0.45753323485967495 50:1.0 51:0.02607709750566893 52:0.21092690248310472 53:0.63740044536281 54:0.022081831232808147 55:0.11183670234080281 56:0.6205907467654183 57:0.07726629084399797 58:0.12185086151371088 59:0.21247763934235345 60:0.23196086333466853 61:0.00910428522782324 62:0.013071521622516586 
0.0 8.0 0.0 0.0 0:0.0 1:0.0 2:1.0 3:0.0 4:0.0 5:0.0 6:0.0 7:0.0 8:0.0 9:0.0 10:1.0 11:0.0 12:0.0 13:0.0 14:0.0 15:0.0 16:0.0 17:1.0 18:0.0 19:0.0 20:0.0 21:0.0 22:1.0 23:0.0 24:0.0 25:0.0 26:0.011976047904191616 27:0.0 28:0.0 29:1.0 30:0.0 31:1.0 32:0.0 33:2.0589521004029767E-15 34:0.0 35:0.005405405405405406 36:0.0017513134851138354 37:0.0 38:0.0 39:1.0 40:0.0 41:1.0 42:0.0 43:0.0023702923360547803 44:0.036000000000000004 45:0.0 46:0.1 47:0.0 48:1.0 49:0.021283738418154962 50:1.0 51:0.042517006802721094 52:0.07697935042725815 53:0.4045780707776513 54:5.644795879605069E-5 55:0.0 56:0.0 57:0.6069562816710751 58:0.06799889142213736 59:0.0388772633128391 60:0.1298681128481517 61:0.003519441626029123 62:0.01394640368836839 
0.0 8.0 0.0 0.015441905599251954 0:0.0 1:0.0 2:1.0 3:0.0 4:0.0 5:0.0 6:0.0 7:1.0 8:0.0 9:0.0 10:1.0 11:0.0 12:0.0 13:0.0 14:0.0 15:0.0 16:0.0 17:0.0 18:0.0 19:0.0 20:0.0 21:8.680555555555555E-4 22:1.0 23:0.0 24:0.0 25:0.0 26:0.011976047904191616 27:0.0 28:1.0 29:1.0 30:0.0 31:0.0 32:0.0 33:2.0589521004029767E-15 34:0.0 35:0.0 36:0.0 37:0.0 38:0.0 39:0.0 40:0.0 41:0.0 42:1.0 43:0.0 44:0.0 45:0.0 46:0.0 47:0.0 48:1.0 49:0.021283738418154962 50:1.0 51:0.02721088435374149 52:0.19440616450281897 53:0.5955089200906585 54:5.644795879605069E-5 55:0.0 56:0.0 57:0.6127272079581787 58:0.06403002816830683 59:0.036676850445719146 60:0.009565047926042243 61:0.030582227846931636 62:0.01394640368836839 
0.0 0.0 8.0 0.0 0:0.0 1:0.0 2:1.0 3:0.0012987012987012987 4:0.0 5:0.0 6:0.0 7:0.0 8:0.0 9:0.0 10:1.0 11:0.0 12:0.0 13:0.0 14:0.0 15:0.0 16:0.0 17:0.0 18:0.0 19:0.0 20:0.0 21:8.680555555555555E-4 22:0.0 23:0.0 24:0.0 25:0.0 26:0.0279441117764471 27:0.0025906735751295333 28:0.0 29:0.0 30:0.0017985611510791368 31:1.0 32:0.0 33:2.0589521004029767E-15 34:0.0 35:0.043243243243243246 36:0.014010507880910683 37:0.0 38:0.0 39:0.47058823529411764 40:0.023809523809523808 41:0.8235294117647058 42:0.007936507936507936 43:0.03002370292336055 44:0.025647058823529415 45:0.10836508808336673 46:0.06349206349206349 47:0.02112676056338028 48:1.0 49:0.04404458171075601 50:1.0 51:0.03127598261526833 52:0.07697935042725815 53:0.9999999999999998 54:0.031069261645442735 55:0.00871915022530694 56:0.20800861784925403 57:0.5986231709815028 58:0.06535974220736392 59:0.03750630639449981 60:0.5972435338857316 61:0.0010387186268550632 62:0.01311501134279684 
0.0 8.0 0.0 0.0 0:0.0 1:0.0 2:1.0 3:0.0 4:0.0 5:0.0 6:0.0 7:0.0 8:0.0 9:0.0 10:1.0 11:0.0 12:0.0 13:0.0 14:0.0 15:0.0 16:0.0 17:0.0 18:0.0 19:0.0 20:0.0 21:0.0 22:0.0 23:1.0 24:0.0 25:0.0 26:0.03393213572854291 27:0.0 28:0.0 29:0.0 30:0.0035971223021582736 31:0.0 32:0.048561151079136715 33:0.030426033461739485 34:0.004424778761061947 35:0.05405405405405406 36:0.017513134851138354 37:0.13455306785118268 38:0.007425742574257425 39:0.35714285714285715 40:0.0 41:0.75 42:0.0 43:0.05003950487226758 44:0.02485714285714286 45:1.2823006182826634E-4 46:0.04950495049504951 47:0.008733624454148471 48:1.0 49:0.06680542500335704 50:1.0 51:0.02834467120181406 52:0.07697935042725815 53:0.9999999999999998 54:0.012265988884328923 55:0.012301743747870943 56:0.1908264512395902 57:0.5861729318621034 58:0.6681055003037 59:0.3723390604332152 60:0.6236978729155326 61:0.0015978474543686821 62:0.014471422592312216 
0.0 8.0 0.0 0.0 0:0.0 1:0.0 2:1.0 3:0.0 4:0.0 5:0.0 6:0.0 7:0.0 8:0.0 9:0.0 10:1.0 11:0.0 12:1.0 13:0.0 14:0.0 15:0.0 16:0.0 17:0.0 18:0.0 19:0.0 20:0.0 21:0.005208333333333333 22:0.0 23:0.0 24:0.0 25:0.0 26:0.003992015968063872 27:8.635578583765112E-4 28:0.0 29:0.0 30:0.0 31:0.0 32:0.0 33:2.0589521004029767E-15 34:0.0 35:0.02702702702702703 36:0.01576182136602452 37:0.0 38:0.0 39:0.5 40:0.015151515151515152 41:0.3 42:0.09090909090909091 43:0.012641559125625495 44:0.0224 45:0.0 46:0.13636363636363635 47:0.013333333333333334 48:1.0 49:0.01983091863352085 50:1.0 51:0.023526077097505756 52:0.05773754972080763 53:0.9999999999999998 54:0.03339735854065239 55:8.074963060109048E-4 56:0.06766319748978068 57:0.656982553634882 58:0.7295369369839149 59:0.37892987164173003 60:0.47165019850647855 61:5.362201228369963E-4 62:0.01394640368836839 
0.0 0.855436387987522 0.0 0.0 0:0.0 1:0.0 2:1.0 3:0.0 4:0.0 5:0.0 6:0.0 7:0.0 8:0.0 9:0.0 10:1.0 11:0.0 12:0.0 13:0.0 14:0.0 15:0.0 16:0.0 17:0.0 18:0.0 19:0.0 20:0.0 21:8.680555555555555E-4 22:0.0 23:0.0 24:0.0 25:0.0 26:0.007984031936127744 27:0.0 28:1.0 29:0.0 30:0.0 31:1.0 32:0.0 33:2.0589521004029767E-15 34:0.0 35:0.010810810810810811 36:0.0035026269702276708 37:0.0 38:0.0 39:0.5 40:0.0 41:0.75 42:0.041666666666666664 43:0.005530682117461154 44:0.02 45:0.0 46:0.08333333333333333 47:0.0 48:1.0 49:0.01983091863352085 50:1.0 51:0.02607709750566885 52:0.05773754972080763 53:0.9999999999999998 54:0.02032126516657495 55:3.694567275426253E-4 56:0.06436853742365227 57:0.6560207325870315 58:0.571171567874804 59:0.296781523910448 60:0.20465021120014093 61:0.0013698110559982686 62:0.01394640368836839 
4.726509437135202 8.0 0.0 0.0 0:0.0 1:0.0 2:1.0 3:0.0 4:0.0 5:0.0 6:0.0 7:0.0 8:0.0 9:0.0 10:1.0 11:0.0 12:0.0 13:0.0 14:0.0 15:0.0 16:0.0 17:0.0 18:0.0 19:0.0 20:0.0 21:0.0 22:0.0 23:0.0 24:0.0 25:0.0 26:0.00998003992015968 27:0.0 28:0.0 29:0.0 30:0.0 31:0.0 32:0.0 33:2.0589521004029767E-15 34:0.0 35:0.010810810810810811 36:0.0035026269702276708 37:0.0 38:0.0 39:0.6666666666666666 40:0.0 41:0.6666666666666666 42:0.0 43:0.004213853041875165 44:0.02 45:0.0 46:0.1111111111111111 47:0.0 48:1.0 49:0.02981905465288035 50:1.0 51:0.02352607709750562 52:0.31118510650072145 53:0.9999999999999998 54:0.021720259172411934 55:1.9860554910591091E-4 56:0.05706220822929128 57:0.6755269977824683 58:0.37518407896782513 59:0.18957728036224006 60:0.13755449874594075 61:0.001838604550814079 62:0.01394640368836839 
2.3440947185685737 0.0 8.0 0.0 0:0.0 1:0.0 2:1.0 3:0.0 4:0.0 5:0.0 6:0.0 7:0.0 8:0.0 9:0.0 10:1.0 11:0.0 12:0.0 13:0.0 14:0.0 15:0.0 16:0.0 17:1.0 18:0.0 19:0.0 20:0.0 21:0.0 22:0.0 23:0.0 24:0.0 25:0.0 26:0.00998003992015968 27:8.635578583765112E-4 28:0.0 29:0.0 30:0.0 31:1.0 32:0.0 33:2.0589521004029767E-15 34:0.0 35:0.032432432432432434 36:0.010507880910683012 37:0.0 38:0.0 39:0.75 40:0.017543859649122806 41:0.75 42:0.0 43:0.012904924940742692 44:0.0245 45:0.0 46:0.10526315789473684 47:0.015625 48:1.0 49:0.02981905465288035 50:1.0 51:0.02834467120181406 52:0.05770515611692472 53:0.9999999999999998 54:0.01252686999119719 55:9.560425563496244E-4 56:0.05403903162055316 57:0.6737102246920837 58:0.48158630925652857 59:0.24327543025630358 60:0.5803363223174743 61:5.250555866483631E-4 62:0.01394640368836839 
0.0 8.0 0.0 0.0 0:0.0 1:0.0 2:1.0 3:0.0 4:0.0 5:0.0 6:0.0 7:0.0 8:0.0 9:0.0 10:1.0 11:0.0 12:0.0 13:0.0 14:0.0 15:0.0 16:0.0 17:1.0 18:0.0 19:0.0 20:0.0 21:0.0 22:1.0 23:0.0 24:0.0 25:0.0 26:0.011976047904191616 27:0.0 28:0.0 29:1.0 30:0.0 31:1.0 32:0.0 33:2.0589521004029767E-15 34:0.0 35:0.005405405405405406 36:0.0017513134851138354 37:0.0 38:0.0 39:1.0 40:0.0 41:1.0 42:0.0 43:0.0015801948907031868 44:0.024 45:0.0 46:0.14285714285714285 47:0.0 48:1.0 49:0.016092668895281038 50:1.0 51:0.026077097505668917 52:0.6216494553150481 53:0.9999999999999998 54:0.1864528948884494 55:0.0 56:0.0 57:0.6745651767346176 58:0.09680356830741983 59:0.049086631355464136 60:0.053649390592204076 61:0.005225261998690256 62:0.01394640368836839 
1.5659993375528256 1.5370935351569506 0.9417373209036947 0.0 0:0.0 1:0.0 2:1.0 3:0.007792207792207792 4:1.0 5:0.0 6:0.0 7:0.0 8:0.0 9:0.0 10:1.0 11:0.0 12:0.0 13:0.0 14:0.0 15:0.0 16:0.0 17:0.0 18:0.008547008547008548 19:0.0 20:0.0 21:0.012152777777777776 22:0.0 23:1.0 24:0.0 25:0.0 26:0.011976047904191616 27:0.0025906735751295333 28:0.0 29:0.0 30:0.02158273381294964 31:1.0 32:0.76014260020555 33:0.27527913528431125 34:0.022123893805309734 35:0.1783783783783784 36:0.06654991243432574 37:0.8219297684821301 38:0.01126126126126126 39:0.3333333333333333 40:0.0045045045045045045 41:0.696969696969697 42:0.021021021021021023 43:0.15801948907031868 44:0.02290909090909091 45:0.7749455556529156 46:0.057057057057057055 47:0.013089005235602094 48:1.0 49:0.2269299541320065 50:1.0 51:0.026084365370079604 52:0.05770110691643935 53:0.9999999999999997 54:0.01628599892291185 55:0.08525857169469826 56:0.3619394149242698 57:0.5625628968625042 58:0.33029440081269956 59:0.16692274897009016 60:0.46237245238627356 61:0.005125165301897456 62:0.009827787715090443 
0.0 0.039664615148156716 0.0 0.0 0:0.0 1:0.0 2:1.0 3:0.015584415584415584 4:0.0 5:0.0 6:0.07692307692307693 7:0.0 8:0.0 9:0.0 10:1.0 11:0.0 12:0.0 13:0.0 14:0.0 15:0.0 16:0.0 17:0.0 18:0.042735042735042736 19:0.0 20:0.0 21:0.07725694444444443 22:0.0 23:0.0 24:1.0 25:0.026402640264026403 26:0.01397205588822355 27:0.03022452504317789 28:1.0 29:0.04 30:0.02158273381294964 31:0.0 32:0.015178571428571428 33:0.015348615048496278 34:0.0663716814159292 35:0.34594594594594597 36:0.14711033274956217 37:0.05834405785887226 38:0.02475247524752475 39:0.41830065359477125 40:0.03850385038503851 41:0.32679738562091504 42:0.09790979097909791 43:0.16513036607848303 44:0.01976470588235294 45:0.8500883718842768 46:0.0924092409240924 47:0.07728557964184732 48:1.0 49:0.26422090254122327 50:1.0 51:0.021258503401360547 52:0.05770515611692472 53:0.9999999999999998 54:0.015364524136079288 55:0.11451542750849687 56:0.46472996397024746 57:0.5569024018808946 58:0.6005363276523545 59:0.3033060884519975 60:0.5002518342198506 61:0.005365281512060559 62:0.014924163808950279 
7.778739435411134 0.0 1.892257788557008 0.0 0:0.0 1:0.0 2:1.0 3:0.0025974025974025974 4:1.0 5:0.0 6:0.0 7:0.0 8:0.0 9:0.0 10:1.0 11:0.0 12:0.0 13:0.0 14:0.0 15:0.0 16:0.0 17:1.0 18:0.011111111111111112 19:0.0 20:0.0 21:0.005208333333333333 22:0.0 23:0.0 24:0.0 25:0.0 26:0.015968063872255488 27:0.0025906735751295333 28:0.0 29:0.0 30:0.007194244604316546 31:1.0 32:8.564576909880692E-6 33:1.2878744324457474E-5 34:0.017699115044247787 35:0.0972972972972973 36:0.03152364273204904 37:2.2356985121891804E-5 38:0.01639344262295082 39:0.34615384615384615 40:0.00819672131147541 41:0.6346153846153846 42:0.01639344262295082 43:0.08743745061890967 44:0.024153846153846154 45:0.13677232111372087 46:0.04918032786885246 47:0.016786570743405275 48:1.0 49:0.1028434268833087 50:1.0 51:0.026093631897203328 52:0.05769975718294424 53:0.9999999999999998 54:0.016285998922911937 55:0.04506092906634364 56:0.35400844440394735 57:0.6185649273736052 58:0.05126013822459516 59:0.026102170140303263 60:0.6585277890402919 61:0.0027692464327085733 62:0.013554343398047137 
0.0 8.0 0.0 0.0 0:0.0 1:0.0 2:1.0 3:0.0 4:0.0 5:0.0 6:0.0 7:0.0 8:0.0 9:0.0 10:1.0 11:0.0 12:0.0 13:0.0 14:0.0 15:0.0 16:0.0 17:0.0 18:0.0 19:0.0 20:0.0 21:0.0 22:0.0 23:0.0 24:0.0 25:0.0 26:0.00998003992015968 27:0.0 28:0.0 29:0.0 30:0.0017985611510791368 31:1.0 32:0.004809009934909176 33:0.004519634335654285 34:0.0 35:0.010810810810810811 36:0.005253940455341506 37:0.0096120421295866 38:0.0 39:0.2857142857142857 40:0.0 41:0.14285714285714285 42:0.0 43:0.01790887542796945 44:0.040571428571428564 45:0.004537207021023298 46:0.038461538461538464 47:0.0 48:1.0 49:0.042065377946182 50:1.0 51:0.024801587301587304 52:0.15563237038846683 53:0.9999999999999998 54:0.0037728595162867602 55:0.002067271306221 56:0.13019048875101374 57:0.5189318442918593 58:0.06572089910686091 59:0.04484595562421812 60:0.26271326286110663 61:0.0022435200937288547 62:0.014121762245119997 
0.0 8.0 0.0 0.0 0:0.0 1:0.0 2:1.0 3:0.0 4:0.0 5:0.0 6:0.0 7:0.0 8:1.0 9:0.0 10:1.0 11:0.0 12:0.0 13:0.0 14:0.0 15:0.0 16:0.0 17:0.0 18:0.0 19:0.0 20:0.0 21:0.001736111111111111 22:0.0 23:0.0 24:0.0 25:0.0 26:0.011976047904191616 27:0.0 28:1.0 29:1.0 30:0.0017985611510791368 31:0.0 32:5.738266529633451E-4 33:5.392974185037553E-4 34:0.0 35:0.0 36:0.0 37:0.0023389507763769933 38:0.0 39:0.0 40:0.0 41:0.0 42:1.0 43:0.0 44:0.0 45:5.727609428329027E-4 46:0.0 47:0.0 48:1.0 49:0.041138942141487785 50:1.0 51:0.020077475434618294 52:0.05758637956935405 53:0.23480362370877755 54:0.01518450091613512 55:6.540209734066628E-5 56:0.19906803667603393 57:0.5221227746756081 58:0.559329677343971 59:0.3606503759193294 60:0.006092957929469529 61:0.07788793011743714 62:0.01394640368836839 
8.0 1.4783209526414782 8.0 0.0 0:0.0 1:0.0 2:1.0 3:0.0 4:0.0 5:0.0 6:0.0 7:0.0 8:0.0 9:0.0 10:1.0 11:0.0 12:0.0 13:0.0 14:0.0 15:0.0 16:0.0 17:1.0 18:0.0 19:0.0 20:0.0 21:0.0 22:0.0 23:1.0 24:0.0 25:0.0 26:0.01397205588822355 27:0.0 28:0.0 29:0.0 30:0.0035971223021582736 31:1.0 32:0.2500535286056869 33:0.16954598593303988 34:0.0 35:0.02702702702702703 36:0.012259194395796848 37:0.47848091986596425 38:0.0 39:0.3125 40:0.0 41:0.4375 42:0.0 43:0.030813800368712143 44:0.029 45:0.24962759852877378 46:0.05303030303030303 47:0.006802721088435374 48:1.0 49:0.06111521418020679 50:1.0 51:0.024801587301587304 52:0.07890272065780612 53:0.9999999999999998 54:0.012421602176145087 55:0.016522084654375505 56:0.40910080675994215 57:0.5073543687158799 58:0.13396313688908715 59:0.08850644403657121 60:0.30956955293170085 61:0.0021279610779550684 62:0.010622105404994595 
0.0 8.0 0.0 0.0 0:0.0 1:0.0 2:1.0 3:0.0 4:0.0 5:0.0 6:0.0 7:0.0 8:0.0 9:1.0 10:1.0 11:0.0 12:0.0 13:1.0 14:0.0 15:0.0 16:0.0 17:0.0 18:0.0 19:0.0 20:0.0 21:0.0 22:1.0 23:0.0 24:0.0 25:0.0 26:0.02594810379241517 27:0.0 28:0.0 29:1.0 30:0.0 31:0.0 32:0.0 33:2.0589521004029767E-15 34:0.0 35:0.005405405405405406 36:0.0017513134851138354 37:0.0 38:0.0 39:1.0 40:0.0 41:0.0 42:0.0 43:0.004477218856992362 44:0.068 45:0.0 46:0.05555555555555555 47:0.0 48:1.0 49:0.01938700147710487 50:1.0 51:0.02362055933484505 52:0.060812242622694156 53:0.9999999999999998 54:0.00457686152400335 55:0.0 56:0.0 57:0.5309546073899918 58:0.05220648518049635 59:0.03619961089978617 60:0.12717705642930263 61:0.0019966181841477425 62:0.01394640368836839 
0.0 8.0 0.0 0.0 0:0.0 1:0.0 2:1.0 3:0.0 4:0.0 5:0.0 6:0.0 7:0.0 8:1.0 9:0.0 10:1.0 11:0.0 12:0.0 13:0.0 14:0.0 15:0.0 16:0.0 17:0.0 18:0.0 19:0.0 20:0.0 21:0.0 22:1.0 23:0.0 24:0.0 25:0.0 26:0.02594810379241517 27:0.0 28:0.0 29:0.0 30:0.0 31:0.0 32:0.0 33:2.0589521004029767E-15 34:0.0 35:0.0 36:0.0017513134851138354 37:0.0 38:0.0 39:0.0 40:0.0 41:0.0 42:0.0 43:0.0026336581511719782 44:0.048 45:0.0 46:0.07692307692307693 47:0.0 48:1.0 49:0.01938700147710487 50:1.0 51:0.02362055933484505 52:0.060630028600852766 53:0.9999999999999998 54:0.00457686152400335 55:0.0 56:0.0 57:0.5309546073899918 58:0.2876093248007601 59:0.18680725926375 60:0.09171992404709794 61:0.0027684718027321947 62:0.01394640368836839 
8.0 0.0 8.0 0.0 0:0.0 1:0.0 2:1.0 3:0.0 4:0.0 5:0.0 6:0.0 7:0.0 8:0.0 9:0.0 10:1.0 11:0.0 12:0.0 13:0.0 14:0.0 15:0.0 16:0.0 17:1.0 18:0.1111111111111111 19:0.0 20:0.0 21:0.021701388888888888 22:0.0 23:0.0 24:0.0 25:0.0 26:0.02594810379241517 27:8.635578583765112E-4 28:0.0 29:0.0 30:0.0035971223021582736 31:1.0 32:0.0017921377183967033 33:0.002162555817476501 34:0.022123893805309734 35:0.06486486486486487 36:0.0297723292469352 37:0.008321321901714281 38:0.03658536585365854 39:0.46153846153846156 40:0.004878048780487805 41:0.4230769230769231 42:0.12195121951219512 43:0.03871477482222808 44:0.027538461538461543 45:0.12884984046043135 46:0.08292682926829269 47:0.04782608695652174 48:1.0 49:0.06111521418020679 50:1.0 51:0.024801587301587304 52:0.03327093065474223 53:0.9999999999999998 54:0.01105769744199208 55:0.011198701226202906 56:0.22553527071200657 57:0.5073543687158799 58:0.3042650312246212 59:0.19746336171512563 60:0.5045616293485438 61:0.0017307924755778426 62:0.013149324745161665 
0.0 8.0 0.0 0.0 0:0.0 1:0.0 2:1.0 3:0.0 4:0.0 5:0.0 6:0.0 7:0.0 8:0.0 9:0.0 10:1.0 11:0.0 12:0.0 13:0.0 14:0.0 15:0.0 16:0.0 17:0.0 18:0.0 19:0.0 20:0.0 21:0.001736111111111111 22:0.0 23:0.0 24:0.0 25:0.0 26:0.02594810379241517 27:0.0025906735751295333 28:1.0 29:0.0 30:0.0 31:0.0 32:0.0 33:2.0589521004029767E-15 34:0.0 35:0.016216216216216217 36:0.010507880910683012 37:0.0 38:0.0 39:0.375 40:0.06521739130434782 41:0.5 42:0.043478260869565216 43:0.008164340268633132 44:0.019 45:0.0 46:0.13043478260869565 47:0.09433962264150944 48:1.0 49:0.01938700147710487 50:1.0 51:0.020077475434618294 52:0.0336610036348323 53:0.9999999999999998 54:0.004451760642347268 55:6.126051339891976E-4 56:0.09911564448386495 57:0.5322904699564509 58:0.359354977640139 59:0.23270918666575935 60:0.286227152341122 61:7.540703884547258E-4 62:0.01394640368836839 
0.0 4.947392718495608 0.0 0.0 0:0.0 1:0.0 2:1.0 3:0.0 4:0.0 5:0.0 6:0.0 7:0.0 8:0.0 9:0.0 10:1.0 11:0.0 12:0.0 13:0.0 14:0.0 15:0.0 16:0.0 17:0.0 18:0.018518518518518517 19:0.0 20:0.0 21:0.006944444444444444 22:0.0 23:1.0 24:0.0 25:0.0 26:0.02594810379241517 27:8.635578583765112E-4 28:1.0 29:0.0 30:0.0035971223021582736 31:0.0 32:0.03236767728674204 33:0.04033595891067487 34:0.01327433628318584 35:0.02702702702702703 36:0.014010507880910683 37:0.13113068133329883 38:0.021951219512195124 39:0.1724137931034483 40:0.004878048780487805 41:0.4827586206896552 42:0.03902439024390244 43:0.04661574927574401 44:0.024275862068965516 45:0.35654154974578395 46:0.03902439024390244 47:0.017167381974248927 48:1.0 49:0.06111521418020679 50:1.0 51:0.020077475434618245 52:0.03366235336832744 53:0.9999999999999998 54:0.0044502350218392165 55:0.012079510441625169 56:0.32637228965445025 57:0.5144789690703288 58:0.4586605714197425 59:0.2962436027019442 60:0.4110845041992377 61:0.0014156833457888145 62:0.01121529781454898 
0.0 2.3743627601735326 0.0 0.0 0:0.0 1:1.0 2:1.0 3:0.0 4:1.0 5:0.0 6:0.0 7:0.0 8:0.0 9:0.0 10:1.0 11:0.0 12:0.0 13:0.0 14:0.0 15:0.0 16:0.0 17:0.0 18:0.0 19:0.0 20:0.0 21:0.017361111111111112 22:0.0 23:0.0 24:0.0 25:0.0 26:0.049900199600798396 27:0.0025906735751295333 28:0.0 29:0.0 30:0.0035971223021582736 31:0.0 32:0.0 33:2.0589521004029767E-15 34:0.004424778761061947 35:0.05945945945945946 36:0.024518388791593695 37:0.0 38:0.00847457627118644 39:0.3333333333333333 40:0.01694915254237288 41:0.5454545454545454 42:0.11299435028248588 43:0.03371082433500132 44:0.017454545454545455 45:0.5962826105075987 46:0.07909604519774012 47:0.023923444976076555 48:1.0 49:0.05630042040677195 50:1.0 51:0.020077475434618294 52:0.042872934739035785 53:0.9999999999999998 54:0.01777653015922908 55:0.015401042772612426 56:0.421048615411066 57:0.5149251471675262 58:0.5201016647015482 59:0.33583752675719636 60:0.35830176718180534 61:0.001333608567483662 62:0.009543745883297258 
0.0 5.486358277403165 0.0 0.0 0:0.0 1:0.0 2:1.0 3:0.0 4:0.0 5:0.0 6:0.0 7:0.0 8:1.0 9:0.0 10:1.0 11:0.0 12:0.0 13:0.0 14:0.0 15:0.0 16:0.0 17:0.0 18:0.0 19:0.0 20:0.0 21:0.0 22:0.0 23:1.0 24:0.0 25:0.0 26:0.001996007984031936 27:0.0 28:0.0 29:0.0 30:0.010791366906474822 31:0.0 32:0.06539054470709148 33:0.04591502328523165 34:0.004424778761061947 35:0.043243243243243246 36:0.017513134851138354 37:0.1915390573429742 38:0.01764705882352941 39:0.5714285714285714 40:0.0 41:0.7142857142857143 42:0.0 43:0.018698972873321045 44:0.020285714285714285 45:1.2823006182826634E-4 46:0.11764705882352941 47:0.04081632653061224 48:1.0 49:0.1283440013129821 50:1.0 51:0.018849206349206338 52:0.04288508234049188 53:0.31036294127374775 54:0.012946415630897483 55:0.005645016979786256 56:0.3683808103879958 57:0.4630981324641322 58:0.3261922764569156 59:0.2182875765860791 60:0.07150094663787018 61:0.01952148803380257 62:0.011258626344264885 
0.0 8.0 0.0 0.0 0:0.0 1:0.0 2:1.0 3:0.0 4:0.0 5:0.0 6:0.0 7:1.0 8:0.0 9:0.0 10:1.0 11:0.0 12:0.0 13:0.0 14:0.0 15:0.0 16:0.0 17:0.0 18:0.0 19:0.0 20:0.0 21:8.680555555555555E-4 22:1.0 23:0.0 24:0.0 25:0.0 26:0.003992015968063872 27:0.0 28:1.0 29:1.0 30:0.0 31:1.0 32:0.0 33:2.0589521004029767E-15 34:0.0 35:0.0 36:0.0 37:0.0 38:0.0 39:0.0 40:0.0 41:0.0 42:1.0 43:0.0 44:0.0 45:0.0 46:0.0 47:0.0 48:1.0 49:0.01896120338829771 50:1.0 51:0.02834467120181406 52:0.13439701330972204 53:0.34459504541858493 54:0.015741352401555542 55:0.0 56:0.0 57:0.5135492087240732 58:0.2722244271462521 59:0.18251712373462517 60:0.009963778261132523 61:0.03058165488852626 62:0.01394640368836839 
0.0 8.0 0.0 0.0 0:0.0 1:0.0 2:1.0 3:0.0 4:0.0 5:0.0 6:0.0 7:0.0 8:0.0 9:0.0 10:1.0 11:0.0 12:0.0 13:0.0 14:0.0 15:0.0 16:0.0 17:0.0 18:0.0 19:0.0 20:0.0 21:0.0 22:0.0 23:0.0 24:0.0 25:0.0 26:0.003992015968063872 27:0.0 28:0.0 29:1.0 30:0.0 31:1.0 32:0.0 33:2.0589521004029767E-15 34:0.0 35:0.010810810810810811 36:0.0035026269702276708 37:0.0 38:0.0 39:1.0 40:0.0 41:0.5 42:0.0 43:0.004477218856992362 44:0.034 45:0.0 46:0.10526315789473684 47:0.0 48:1.0 49:0.01896120338829771 50:1.0 51:0.02834467120181406 52:0.15732898539183443 53:0.6799919933659317 54:0.015741352401555542 55:1.5096367223120844E-4 56:0.026600352960051442 57:0.5135492087240732 58:0.2722244271462521 59:0.18251712373462517 60:0.1861637586979587 61:0.0016367784487104696 62:0.01394640368836839 
0.0 8.0 0.0 0.0 0:0.0 1:0.0 2:1.0 3:0.0 4:0.0 5:0.0 6:0.0 7:0.0 8:0.0 9:0.0 10:1.0 11:0.0 12:0.0 13:0.0 14:0.0 15:0.0 16:0.0 17:0.0 18:0.0 19:0.0 20:0.0 21:0.0 22:0.0 23:0.0 24:0.0 25:0.0 26:0.003992015968063872 27:0.0 28:0.0 29:0.0 30:0.0035971223021582736 31:0.0 32:0.0 33:2.0589521004029767E-15 34:0.0 35:0.010810810810810811 36:0.0035026269702276708 37:0.0 38:0.0 39:0.4 40:0.0 41:0.4 42:0.0 43:0.010007900974453516 44:0.0304 45:0.0868288491993101 46:0.046511627906976744 47:0.02127659574468085 48:1.0 49:0.0598378199137853 50:1.0 51:0.018849206349206393 52:0.604914109709038 53:0.0 54:0.012741982482825376 55:0.0027819798959061387 56:0.37941463117321295 57:0.49928308708933367 58:0.4426508916423078 59:0.2948034495125479 60:0.07690567339505432 61:0.006906814751178918 62:0.025333752985664745 
0.0 5.587639814643263 0.0 0.0 0:0.0 1:0.0 2:1.0 3:0.0 4:0.0 5:0.0 6:0.0 7:0.0 8:1.0 9:0.0 10:1.0 11:0.0 12:0.0 13:0.0 14:0.0 15:0.0 16:0.0 17:0.0 18:0.0 19:0.0 20:0.0 21:0.0 22:0.0 23:1.0 24:0.0 25:0.0 26:0.005988023952095808 27:0.0 28:0.0 29:1.0 30:0.0017985611510791368 31:0.0 32:0.08568859198355605 33:0.08053239809118802 34:0.0 35:0.010810810810810811 36:0.0035026269702276708 37:0.34525605408819376 38:0.0 39:1.0 40:0.0 41:1.0 42:0.0 43:0.006320779562812747 44:0.048 45:2.1371676971387848E-5 46:0.07692307692307693 47:0.0 48:1.0 49:0.03494024439371558 50:1.0 51:0.018849206349206258 52:0.03187125702030134 53:0.3066295687608722 54:0.012937261907849454 55:0.0017356176395023648 56:0.37665406996848866 57:0.4907852200165648 58:0.5056302815575325 59:0.3481785730959262 60:0.07087991720745401 61:0.004535718339671754 62:0.009809688465292819 
0.0 6.099515489452462 0.0 0.0 0:0.0 1:0.0 2:1.0 3:0.0 4:0.0 5:0.0 6:0.0 7:0.0 8:1.0 9:0.0 10:1.0 11:0.0 12:0.0 13:0.0 14:0.0 15:0.0 16:0.0 17:0.0 18:0.0 19:0.0 20:0.0 21:0.0 22:0.0 23:1.0 24:0.0 25:0.0 26:0.005988023952095808 27:0.0 28:0.0 29:0.0 30:0.0035971223021582736 31:0.0 32:0.07579650565262075 33:0.08129707353533215 34:0.0 35:0.010810810810810811 36:0.0035026269702276708 37:0.22425223702419245 38:0.0 39:0.5 40:0.0 41:1.0 42:0.0 43:0.009217803529101924 44:0.033 45:1.1113272025114392E-4 46:0.05405405405405406 47:0.0 48:1.0 49:0.05314891902779642 50:1.0 51:0.018849206349206348 52:0.03511061740859268 53:0.3066295687608722 54:0.012949466871913479 55:0.0029033030924325524 56:0.4197418332890125 57:0.4818625486476619 58:0.12160751515362203 59:0.08646647995524681 60:0.06696877583066951 61:0.007321626984890404 62:0.02107895271321847 
1.0974360822372364 0.0 0.0 0.0 0:0.0 1:0.0 2:1.0 3:0.0 4:0.0 5:0.0 6:0.0 7:0.0 8:1.0 9:0.0 10:1.0 11:0.0 12:0.0 13:0.0 14:0.0 15:0.0 16:0.0 17:0.0 18:0.0 19:0.0 20:0.0 21:0.0 22:0.0 23:1.0 24:0.0 25:0.0 26:0.005988023952095808 27:0.0 28:0.0 29:0.0 30:0.0035971223021582736 31:0.0 32:0.09879239465570401 33:0.06318633933191704 34:0.0 35:0.016216216216216217 36:0.005253940455341506 37:0.3625378982036891 38:0.0 39:0.6 40:0.0 41:1.0 42:0.0 43:0.009481169344219121 44:0.0272 45:6.411503091413317E-5 46:0.07692307692307693 47:0.0 48:1.0 49:0.05314891902779642 50:1.0 51:0.018849206349206393 52:0.03438176132122713 53:0.3066295687608722 54:0.012955569353945469 55:0.002570886427877521 56:0.368646416856655 57:0.4818625486476619 58:0.36738733884339014 59:0.2539657996230334 60:0.07450383336158295 61:0.007261809406255816 62:0.010766110622672714 
0.0 8.0 0.0 0.0 0:0.0 1:0.0 2:1.0 3:0.0 4:0.0 5:0.0 6:0.0 7:1.0 8:0.0 9:0.0 10:1.0 11:0.0 12:0.0 13:0.0 14:0.0 15:0.0 16:0.0 17:0.0 18:0.0 19:0.0 20:0.0 21:8.680555555555555E-4 22:1.0 23:0.0 24:0.0 25:0.0 26:0.007984031936127744 27:0.0 28:1.0 29:1.0 30:0.0 31:1.0 32:0.0 33:2.0589521004029767E-15 34:0.0 35:0.0 36:0.0 37:0.0 38:0.0 39:0.0 40:0.0 41:0.0 42:1.0 43:0.0 44:0.0 45:0.0 46:0.0 47:0.0 48:1.0 49:0.01778207021929326 50:1.0 51:0.02834467120181406 52:0.13439701330972204 53:0.34457285833432616 54:0.0157260961964755 55:0.0 56:0.0 57:0.5091016769528085 58:0.12158144232932677 59:0.08405770945843749 60:0.009963778261132523 61:0.03058165488852626 62:0.01394640368836839 
0.0 8.0 0.0 0.0 0:0.0 1:0.0 2:1.0 3:0.0 4:0.0 5:0.0 6:0.0 7:1.0 8:0.0 9:0.0 10:1.0 11:0.0 12:0.0 13:0.0 14:0.0 15:0.0 16:0.0 17:0.0 18:0.0 19:0.0 20:0.0 21:8.680555555555555E-4 22:1.0 23:0.0 24:0.0 25:0.0 26:0.007984031936127744 27:0.0 28:1.0 29:1.0 30:0.0 31:1.0 32:0.0 33:2.0589521004029767E-15 34:0.0 35:0.0 36:0.0 37:0.0 38:0.0 39:0.0 40:0.0 41:0.0 42:1.0 43:0.0 44:0.0 45:0.0 46:0.0 47:0.0 48:1.0 49:0.01778207021929326 50:1.0 51:0.02834467120181406 52:0.13439701330972204 53:0.34457285833432616 54:0.0157260961964755 55:0.0 56:0.0 57:0.5091016769528085 58:0.6034651749148529 59:0.40426580113477484 60:0.009963778261132523 61:0.03058165488852626 62:0.01394640368836839 
0.0 8.0 0.0 0.0 0:0.0 1:0.0 2:1.0 3:0.0 4:0.0 5:0.0 6:0.0 7:0.0 8:0.0 9:0.0 10:1.0 11:0.0 12:0.0 13:0.0 14:0.0 15:0.0 16:0.0 17:0.0 18:0.0 19:0.0 20:0.0 21:0.0 22:0.0 23:0.0 24:0.0 25:0.0 26:0.007984031936127744 27:0.0 28:0.0 29:0.0 30:0.00539568345323741 31:0.0 32:0.0 33:2.0589521004029767E-15 34:0.0 35:0.021621621621621623 36:0.0070052539404553416 37:0.0 38:0.0 39:0.5714285714285714 40:0.0 41:0.7142857142857143 42:0.0 43:0.0121148274953911 44:0.024571428571428574 45:0.07857297038526732 46:0.08 47:0.0 48:1.0 49:0.07555959550051129 50:1.0 51:0.01884920634920634 52:0.604914109709038 53:0.0 54:0.012741982482825376 55:0.0036095433303085654 56:0.3949328701991161 57:0.4859119933741217 58:0.18794836808261411 59:0.12815802911825003 60:0.07054988198627438 61:0.010212725590371141 62:0.02479978932683029 
0.0 8.0 0.0 0.0 0:0.0 1:0.0 2:1.0 3:0.0 4:0.0 5:0.0 6:0.0 7:0.0 8:0.0 9:0.0 10:1.0 11:0.0 12:0.0 13:0.0 14:0.0 15:0.0 16:0.0 17:1.0 18:0.0 19:0.0 20:0.0 21:0.0 22:0.0 23:0.0 24:0.0 25:0.0 26:0.007984031936127744 27:0.0 28:0.0 29:0.0 30:0.0035971223021582736 31:0.0 32:0.0 33:2.0589521004029767E-15 34:0.0 35:0.010810810810810811 36:0.0035026269702276708 37:0.0 38:0.0 39:0.4 40:0.0 41:0.6 42:0.0 43:0.011324730050039505 44:0.032799999999999996 45:0.063373433723224 46:0.043478260869565216 47:0.02 48:1.0 49:0.05630042040677195 50:1.0 51:0.018849206349206393 52:0.604914109709038 53:0.0 54:0.012741982482825376 55:0.002188524290526811 56:0.29804100165198516 57:0.49483555531806894 58:0.38413092034172774 59:0.2585198496802977 60:0.08685800247053506 61:0.006896716337914842 62:0.011742430841849356 
0.0 8.0 0.0 0.0 0:0.0 1:0.0 2:1.0 3:0.0 4:0.0 5:0.0 6:0.0 7:0.0 8:1.0 9:0.0 10:1.0 11:0.0 12:0.0 13:0.0 14:0.0 15:0.0 16:0.0 17:0.0 18:0.0 19:0.0 20:0.0 21:0.0 22:0.0 23:1.0 24:0.0 25:0.0 26:0.00998003992015968 27:0.0 28:0.0 29:0.0 30:0.0017985611510791368 31:0.0 32:0.03597122302158273 33:0.03380670384637699 34:0.0 35:0.005405405405405406 36:0.0017513134851138354 37:0.1289107191465679 38:0.0 39:0.5 40:0.0 41:0.5 42:0.0 43:0.0052673163023439565 44:0.039999999999999994 45:4.7017689337010746E-5 46:0.045454545454545456 47:0.043478260869565216 48:1.0 49:0.03494024439371558 50:1.0 51:0.018849206349206393 52:0.059566438606697115 53:0.3104157849418426 54:0.012961671835977502 55:8.700366455057429E-4 56:0.27140831027221607 57:0.5033432187163251 58:0.34623841569931657 59:0.23353490792278603 60:0.05754559824857326 61:0.0065192075561668564 62:0.01144766683837656 
0.0 8.0 0.0 0.0 0:0.0 1:0.0 2:1.0 3:0.0 4:0.0 5:0.0 6:0.0 7:0.0 8:0.0 9:0.0 10:1.0 11:0.0 12:0.0 13:0.0 14:0.0 15:0.0 16:0.0 17:0.0 18:0.0 19:0.0 20:0.0 21:0.0 22:0.0 23:0.0 24:0.0 25:0.0 26:0.011976047904191616 27:0.0 28:0.0 29:0.0 30:0.0035971223021582736 31:0.0 32:0.0 33:2.0589521004029767E-15 34:0.0 35:0.016216216216216217 36:0.005253940455341506 37:0.0 38:0.0 39:0.6 40:0.0 41:0.8 42:0.0 43:0.009744535159336319 44:0.028799999999999996 45:0.054745687729879075 46:0.07317073170731707 47:0.022222222222222223 48:1.0 49:0.05521027842033387 50:1.0 51:0.018849206349206348 52:0.604914109709038 53:0.0 54:0.012824365990257396 55:0.0022806822138185857 56:0.3318897216511187 57:0.49928219651428934 58:0.1702188475618529 59:0.1153104508626665 60:0.07762249197499191 61:0.007369648051028978 62:0.01857305075362572 
0.0 8.0 0.0 0.0 0:0.0 1:0.0 2:1.0 3:0.0 4:0.0 5:0.0 6:0.0 7:0.0 8:0.0 9:0.0 10:1.0 11:0.0 12:0.0 13:0.0 14:0.0 15:0.0 16:0.0 17:0.0 18:0.0 19:0.0 20:0.0 21:0.0 22:0.0 23:0.0 24:0.0 25:0.0 26:0.011976047904191616 27:0.0 28:0.0 29:0.0 30:0.007194244604316546 31:0.0 32:0.0 33:2.2877245560033072E-15 34:0.0 35:0.02702702702702703 36:0.008756567425569177 37:1.476060568454954E-16 38:0.0 39:0.4166666666666667 40:0.0 41:0.9166666666666666 42:0.0 43:0.01580194890703187 44:0.017666666666666667 45:0.05131767074367013 46:0.07692307692307693 47:0.0 48:1.0 49:0.09300186728352051 50:1.0 51:0.018849206349206366 52:0.604914109709038 53:0.0 54:0.012766392410953424 55:0.004246657795107714 56:0.3833283498673388 57:0.4814350726263949 58:0.38639153077414073 59:0.257737142860348 60:0.07197007879777574 61:0.0134488636834804 62:0.011061684846423494 
0.0 0.0 0.7492832087297201 0.0 0:0.0 1:0.0 2:1.0 3:0.0 4:0.0 5:0.0 6:0.0 7:0.0 8:1.0 9:0.0 10:1.0 11:0.0 12:0.0 13:0.0 14:0.0 15:0.0 16:0.0 17:0.0 18:0.0 19:0.0 20:0.0 21:0.0 22:0.0 23:1.0 24:0.0 25:0.0 26:0.01397205588822355 27:0.0 28:0.0 29:0.0 30:0.0035971223021582736 31:0.0 32:0.06282117163412129 33:0.04837578336112424 34:0.0 35:0.010810810810810811 36:0.0035026269702276708 37:0.23052447739503118 38:0.0 39:0.4 40:0.0 41:0.8 42:0.0 43:0.011324730050039505 44:0.032 45:7.907520479407734E-5 46:0.044444444444444446 47:0.0 48:1.0 49:0.057433313059344855 50:1.0 51:0.018849206349206348 52:0.029522720738790136 53:0.3053241527147102 54:0.012993709866645527 55:0.0022931887034885697 56:0.31182511293083487 57:0.5023769447932531 58:0.12415685797360076 59:0.0844087282269309 60:0.08534422101109747 61:0.006886348783759292 62:0.012767410623543644 
0.0 2.675418176384339 0.0 0.0 0:0.0 1:0.0 2:1.0 3:0.0 4:0.0 5:0.0 6:0.0 7:0.0 8:0.0 9:0.0 10:1.0 11:0.0 12:0.0 13:0.0 14:0.0 15:0.0 16:0.0 17:0.0 18:0.0 19:0.0 20:0.0 21:0.003472222222222222 22:0.0 23:1.0 24:0.0 25:0.0 26:0.01397205588822355 27:0.007772020725388601 28:0.0 29:0.0 30:0.019784172661870505 31:0.0 32:0.03635662898252825 33:0.05125337779566682 34:0.004424778761061947 35:0.12972972972972974 36:0.04553415061295972 37:0.05610126882062126 38:0.003191489361702128 39:0.3 40:0.019148936170212766 41:0.5875 42:0.00851063829787234 43:0.11035027653410588 44:0.0195 45:0.7157160900944415 46:0.05531914893617021 47:0.02185792349726776 48:1.0 49:0.23416456686071768 50:1.0 51:0.024801587301587304 52:0.13439701330972204 53:0.9999999999999998 54:0.011442153810008376 55:0.05017881000508919 56:0.36510690599777784 57:0.43248016244088816 58:0.30176204009227847 59:0.20073825183958147 60:0.30569300800721194 61:0.0053240728116942014 62:0.009723689131655494 
0.0 8.0 0.0 0.0 0:0.0 1:0.0 2:1.0 3:0.0 4:0.0 5:0.0 6:0.0 7:1.0 8:0.0 9:0.0 10:1.0 11:0.0 12:0.0 13:0.0 14:0.0 15:0.0 16:0.0 17:0.0 18:0.0 19:0.0 20:0.0 21:8.680555555555555E-4 22:1.0 23:0.0 24:0.0 25:0.0 26:0.015968063872255488 27:0.0 28:1.0 29:1.0 30:0.0 31:1.0 32:0.0 33:2.0589521004029767E-15 34:0.0 35:0.0 36:0.0 37:0.0 38:0.0 39:0.0 40:0.0 41:0.0 42:1.0 43:0.0 44:0.0 45:0.0 46:0.0 47:0.0 48:1.0 49:0.017068767438043655 50:1.0 51:0.02834467120181406 52:0.13439701330972204 53:0.3445720372404688 54:0.0157260961964755 55:0.0 56:0.0 57:0.5128429827139385 58:0.3417519586002177 59:0.22864630366412947 60:0.009963778261132523 61:0.03058165488852626 62:0.01394640368836839 
8.0 8.0 0.0 0.0 0:0.0 1:0.0 2:1.0 3:0.0 4:0.0 5:0.0 6:0.0 7:0.0 8:0.0 9:0.0 10:1.0 11:0.0 12:0.0 13:0.0 14:0.0 15:0.0 16:0.0 17:0.0 18:0.0 19:0.0 20:0.0 21:0.0 22:0.0 23:0.0 24:0.0 25:0.0 26:0.015968063872255488 27:0.0 28:0.0 29:0.0 30:0.0017985611510791368 31:1.0 32:0.0 33:2.0589521004029767E-15 34:0.0 35:0.021621621621621623 36:0.008756567425569177 37:0.0 38:0.0 39:0.5 40:0.0 41:0.625 42:0.0 43:0.0121148274953911 44:0.0225 45:0.5363457424413722 46:0.09433962264150944 47:0.016666666666666666 48:1.0 49:0.035614639750533396 50:1.0 51:0.02834467120181406 52:0.1573154880568832 53:0.6799912308084572 54:0.0157260961964755 55:0.013494740768924268 56:0.48080428135010406 57:0.5012476956370729 58:0.3417519586002177 59:0.22864630366412947 60:0.2541816283878078 61:0.0014387682615497972 62:0.008027977419988955 
0.0 8.0 0.0 0.0 0:0.0 1:0.0 2:1.0 3:0.0 4:0.0 5:0.0 6:0.0 7:0.0 8:0.0 9:0.0 10:1.0 11:0.0 12:0.0 13:0.0 14:0.0 15:0.0 16:0.0 17:0.0 18:0.0 19:0.0 20:0.0 21:0.0 22:0.0 23:0.0 24:0.0 25:0.0 26:0.015968063872255488 27:0.0 28:0.0 29:0.0 30:0.007194244604316546 31:0.0 32:0.0 33:2.2877245560033072E-15 34:0.0 35:0.016216216216216217 36:0.005253940455341506 37:1.476060568454954E-16 38:0.0 39:0.5 40:0.0 41:1.0 42:0.0 43:0.01553858309191467 44:0.03733333333333334 45:0.05666700148960598 46:0.04838709677419355 47:0.0 48:1.0 49:0.0912522566880026 50:1.0 51:0.018849206349206366 52:0.604914109709038 53:0.0 54:0.012728251898253344 55:0.0037873595329542277 56:0.3612264251626102 57:0.4807297371913045 58:0.13597653832077491 59:0.09288725398988329 60:0.06666621865505414 61:0.014210353991339044 62:0.012899079799733324 
0.0 8.0 0.0 0.0 0:0.0 1:0.0 2:1.0 3:0.0 4:0.0 5:0.0 6:0.0 7:0.0 8:0.0 9:0.0 10:1.0 11:0.0 12:0.0 13:0.0 14:0.0 15:0.0 16:0.0 17:0.0 18:0.0 19:0.0 20:0.0 21:0.0 22:0.0 23:0.0 24:0.0 25:0.0 26:0.015968063872255488 27:0.0 28:0.0 29:0.0 30:0.0035971223021582736 31:0.0 32:0.0 33:2.0589521004029767E-15 34:0.0 35:0.016216216216216217 36:0.005253940455341506 37:0.0 38:0.0 39:0.6 40:0.0 41:0.6 42:0.0 43:0.010007900974453516 44:0.0304 45:0.059567138054621646 46:0.06976744186046512 47:0.0 48:1.0 49:0.05416051206302313 50:1.0 51:0.018849206349206303 52:0.604914109709038 53:0.0 54:0.012786225477557317 55:0.0026106568345914904 56:0.3532732145304507 57:0.4985768610791989 58:0.5039500328807284 59:0.3356554711993579 60:0.08069137152034976 61:0.006852967029729849 62:0.018093690705282568 
0.0 8.0 0.0 0.0 0:0.0 1:0.0 2:1.0 3:0.0 4:0.0 5:0.0 6:0.0 7:1.0 8:0.0 9:0.0 10:1.0 11:0.0 12:0.0 13:0.0 14:0.0 15:0.0 16:0.0 17:0.0 18:0.0 19:0.0 20:0.0 21:8.680555555555555E-4 22:1.0 23:0.0 24:0.0 25:0.0 26:0.017964071856287425 27:0.0 28:1.0 29:1.0 30:0.0 31:1.0 32:0.0 33:2.0589521004029767E-15 34:0.0 35:0.0 36:0.0 37:0.0 38:0.0 39:0.0 40:0.0 41:0.0 42:1.0 43:0.0 44:0.0 45:0.0 46:0.0 47:0.0 48:1.0 49:0.018552437223042836 50:1.0 51:0.02834467120181406 52:0.13439701330972204 53:0.34940111296094484 54:0.0157260961964755 55:0.0 56:0.0 57:0.5139749035952516 58:0.29540027096424065 59:0.19761857837390054 60:0.009963778261132523 61:0.03058165488852626 62:0.01394640368836839 
0.0 8.0 0.0 0.0 0:0.0 1:0.0 2:1.0 3:0.0 4:0.0 5:0.0 6:0.0 7:0.0 8:1.0 9:0.0 10:1.0 11:0.0 12:0.0 13:0.0 14:0.0 15:0.0 16:0.0 17:0.0 18:0.0 19:0.0 20:0.0 21:0.0 22:0.0 23:1.0 24:0.0 25:0.0 26:0.017964071856287425 27:0.0 28:0.0 29:0.0 30:0.00539568345323741 31:0.0 32:0.11742034943473795 33:0.08850011498879047 34:0.0 35:0.016216216216216217 36:0.005253940455341506 37:0.32586443415245553 38:0.0 39:0.75 40:0.0 41:1.0 42:0.0 43:0.011588095865156703 44:0.043 45:1.0044688176546518E-4 46:0.06382978723404255 47:0.0 48:1.0 49:0.07864106351550959 50:1.0 51:0.018849206349206327 52:0.03511061740859268 53:0.308367020980981 54:0.012967774318009492 55:0.004166702905232158 56:0.44379872710911417 57:0.4907852200165647 58:0.3743400919887867 59:0.24958627373228323 60:0.06427659938278932 61:0.009941780212877527 62:0.059017859379803986 
0.0 8.0 0.0 0.0 0:0.0 1:0.0 2:1.0 3:0.0 4:0.0 5:0.0 6:0.0 7:1.0 8:0.0 9:0.0 10:1.0 11:0.0 12:0.0 13:0.0 14:0.0 15:0.0 16:0.0 17:0.0 18:0.0 19:0.0 20:0.0 21:8.680555555555555E-4 22:1.0 23:0.0 24:0.0 25:0.0 26:0.01996007984031936 27:0.0 28:1.0 29:1.0 30:0.0 31:1.0 32:0.0 33:2.0589521004029767E-15 34:0.0 35:0.0 36:0.0 37:0.0 38:0.0 39:0.0 40:0.0 41:0.0 42:1.0 43:0.0 44:0.0 45:0.0 46:0.0 47:0.0 48:1.0 49:0.01673156975963475 50:1.0 51:0.02834467120181406 52:0.13439701330972204 53:0.3445769638623121 54:0.0157260961964755 55:0.0 56:0.0 57:0.5118882862664423 58:0.3996915681451889 59:0.26737623339074257 60:0.009963778261132523 61:0.03058165488852626 62:0.01394640368836839 
0.0 8.0 0.0 0.0 0:0.0 1:0.0 2:1.0 3:0.0 4:0.0 5:0.0 6:0.0 7:0.0 8:0.0 9:0.0 10:1.0 11:0.0 12:0.0 13:0.0 14:0.0 15:0.0 16:0.0 17:0.0 18:0.0 19:0.0 20:0.0 21:0.0 22:0.0 23:0.0 24:0.0 25:0.0 26:0.01996007984031936 27:0.0 28:0.0 29:0.0 30:0.0 31:1.0 32:0.0 33:2.0589521004029767E-15 34:0.0 35:0.010810810810810811 36:0.0070052539404553416 37:0.0 38:0.0 39:0.6666666666666666 40:0.0 41:0.3333333333333333 42:0.0 43:0.0034237555965235715 44:0.02 45:0.0 46:0.2222222222222222 47:0.05 48:1.0 49:0.01673156975963475 50:1.0 51:0.02834467120181406 52:0.1573154880568832 53:0.6799866553872914 54:0.0157260961964755 55:3.0921147822508273E-4 56:0.05914933639878834 57:0.5118882862664423 58:0.3996915681451889 59:0.26737623339074257 60:0.17148092478557042 61:0.001776925500890437 62:0.01394640368836839 
0.0 8.0 0.0 0.0 0:0.0 1:0.0 2:1.0 3:0.0 4:0.0 5:0.0 6:0.0 7:0.0 8:0.0 9:0.0 10:1.0 11:0.0 12:0.0 13:0.0 14:0.0 15:0.0 16:0.0 17:0.0 18:0.0 19:0.0 20:0.0 21:0.0 22:0.0 23:0.0 24:0.0 25:0.0 26:0.01996007984031936 27:0.0 28:0.0 29:0.0 30:0.007194244604316546 31:0.0 32:0.0 33:2.2877245560033072E-15 34:0.0 35:0.016216216216216217 36:0.005253940455341506 37:1.476060568454954E-16 38:0.0 39:0.3333333333333333 40:0.0 41:1.0 42:0.0 43:0.015275217276797473 44:0.02311111111111111 45:0.09000468039725681 46:0.04918032786885246 47:0.0 48:1.0 49:0.0895662682959581 50:1.0 51:0.018849206349206366 52:0.604914109709038 53:0.0 54:0.012659598975393269 55:0.0054213802865317965 56:0.4390648630035028 57:0.4797750407438083 58:0.24125280886398767 59:0.16265628570479104 60:0.07091964090375884 61:0.01206648365777668 62:0.025863368189594674 
0.0 8.0 1.5196135093867449 0.0 0:0.0 1:0.0 2:1.0 3:0.0 4:0.0 5:0.0 6:0.0 7:0.0 8:0.0 9:0.0 10:1.0 11:0.0 12:0.0 13:0.0 14:0.0 15:0.0 16:0.0 17:0.0 18:0.0 19:0.0 20:0.0 21:0.0 22:0.0 23:0.0 24:0.0 25:0.0 26:0.01996007984031936 27:0.0 28:0.0 29:0.0 30:0.00539568345323741 31:0.0 32:0.0 33:2.0589521004029767E-15 34:0.0 35:0.02702702702702703 36:0.010507880910683012 37:0.0 38:0.0 39:0.7142857142857143 40:0.0 41:0.42857142857142855 42:0.0 43:0.010271266789570714 44:0.022285714285714284 45:0.11844183377537089 46:0.13043478260869565 47:0.019230769230769232 48:1.0 49:0.07135759366187724 50:1.0 51:0.018849206349206327 52:0.604914109709038 53:0.0 54:0.012482626996465162 55:0.004078006144324693 56:0.4397796940948638 57:0.48869860268775545 58:0.5016324484989294 59:0.3347539615813355 60:0.06650433712575159 61:0.010066023454818879 62:0.01198547242235685 
0.0 8.0 0.0 0.0 0:0.0 1:0.0 2:1.0 3:0.0 4:0.0 5:0.0 6:0.0 7:0.0 8:1.0 9:0.0 10:1.0 11:0.0 12:0.0 13:0.0 14:0.0 15:0.0 16:0.0 17:0.0 18:0.0 19:0.0 20:0.0 21:0.0 22:0.0 23:1.0 24:0.0 25:0.0 26:0.021956087824351295 27:0.0 28:0.0 29:0.0 30:0.00539568345323741 31:0.0 32:0.05344295991778007 33:0.06048985223940857 34:0.0 35:0.021621621621621623 36:0.0070052539404553416 37:0.18766304090264643 38:0.0 39:0.6666666666666666 40:0.0 41:0.6666666666666666 42:0.0 43:0.013431656570977089 44:0.03333333333333334 45:1.6028757728530257E-4 46:0.07142857142857142 47:0.01639344262295082 48:1.0 49:0.08027612817652909 50:1.0 51:0.01884920634920636 52:0.02830796059318088 53:0.3046957817230281 54:0.012943364389881489 55:0.003581052336437346 56:0.35390586573692917 57:0.4916953877118456 58:0.36454829797568655 59:0.24270287961817597 60:0.08220751748551987 61:0.009224604043148286 62:0.017009529563270752 
0.0 8.0 0.0 0.0 0:0.0 1:0.0 2:1.0 3:0.0 4:0.0 5:0.0 6:0.0 7:0.0 8:0.0 9:0.0 10:1.0 11:0.0 12:0.0 13:0.0 14:0.0 15:0.0 16:0.0 17:0.0 18:0.0 19:0.0 20:0.0 21:0.0 22:0.0 23:0.0 24:0.0 25:0.0 26:0.02395209580838323 27:0.0 28:0.0 29:0.0 30:0.0017985611510791368 31:0.0 32:0.0 33:2.0589521004029767E-15 34:0.0 35:0.016216216216216217 36:0.008756567425569177 37:0.0 38:0.0 39:0.75 40:0.0 41:0.75 42:0.0 43:0.004740584672109561 44:0.02 45:0.07166778155581532 46:0.20833333333333334 47:0.037037037037037035 48:1.0 49:0.03366244266500816 50:1.0 51:0.018849206349206327 52:0.604914109709038 53:0.0 54:0.012723675036729363 55:0.0016487816598842009 56:0.37585639860103975 57:0.5092156705584797 58:0.12479419367859543 59:0.08519983166189454 60:0.07089186418378622 61:0.004764488342170848 62:0.021562328344532835 
0.0 8.0 0.0 0.0 0:0.0 1:0.0 2:1.0 3:0.0 4:0.0 5:0.0 6:0.0 7:0.0 8:0.0 9:0.0 10:1.0 11:0.0 12:0.0 13:0.0 14:0.0 15:0.0 16:0.0 17:0.0 18:0.0 19:0.0 20:0.0 21:0.0 22:0.0 23:0.0 24:0.0 25:0.0 26:0.02395209580838323 27:0.0 28:0.0 29:0.0 30:0.0035971223021582736 31:0.0 32:0.0 33:2.0589521004029767E-15 34:0.0 35:0.016216216216216217 36:0.005253940455341506 37:0.0 38:0.0 39:0.75 40:0.0 41:0.75 42:0.0 43:0.008164340268633132 44:0.030000000000000002 45:0.06667749498299887 46:0.08823529411764706 47:0.0 48:1.0 49:0.05123221643473528 50:1.0 51:0.018849206349206348 52:0.604914109709038 53:0.0 54:0.012911326359213398 55:0.0025209557320094583 56:0.40231556004866326 57:0.5002929991895768 58:0.3599710688216338 59:0.2398493644620114 60:0.0625857288887594 61:0.008082009023322576 62:0.02106309532508671 
0.0 8.0 0.0 0.0 0:0.0 1:0.0 2:1.0 3:0.0 4:0.0 5:0.0 6:0.0 7:0.0 8:0.0 9:0.0 10:1.0 11:0.0 12:0.0 13:0.0 14:0.0 15:0.0 16:0.0 17:0.0 18:0.0 19:0.0 20:0.0 21:0.0 22:0.0 23:0.0 24:0.0 25:0.0 26:0.02395209580838323 27:0.0 28:0.0 29:0.0 30:0.0035971223021582736 31:0.0 32:0.0 33:2.0589521004029767E-15 34:0.0 35:0.010810810810810811 36:0.0035026269702276708 37:0.0 38:0.0 39:0.5 40:0.0 41:1.0 42:0.0 43:0.008691071898867527 44:0.031000000000000003 45:0.04538275604871891 46:0.05714285714285714 47:0.0 48:1.0 49:0.05123221643473528 50:1.0 51:0.018849206349206393 52:0.604914109709038 53:0.0 54:0.012796904821113418 55:0.001978956146664824 56:0.347381663651656 57:0.5002929991895768 58:0.5728991338994033 59:0.379868342791755 60:0.06214070402038152 61:0.00888972734562657 62:0.01793503117954994 
0.0 8.0 0.0 0.0 0:0.0 1:0.0 2:1.0 3:0.0 4:0.0 5:0.0 6:0.0 7:0.0 8:1.0 9:0.0 10:1.0 11:0.0 12:0.0 13:0.0 14:0.0 15:0.0 16:0.0 17:0.0 18:0.0 19:0.0 20:0.0 21:0.0 22:0.0 23:1.0 24:0.0 25:0.0 26:0.02594810379241517 27:0.0 28:0.0 29:0.0 30:0.0035971223021582736 31:0.0 32:0.05382622473449813 33:0.04378504762452525 34:0.0 35:0.016216216216216217 36:0.005253940455341506 37:0.19586251644947983 38:0.0 39:0.5 40:0.0 41:0.6666666666666666 42:0.0 43:0.0118514616802739 44:0.028 45:1.517389064968021E-4 46:0.0625 47:0.0 48:1.0 49:0.05217345431525638 50:1.0 51:0.018849206349206348 52:0.02847127834609057 53:0.30475762908976284 54:0.012926582564293482 55:0.0022730765917772498 56:0.3054565842932035 57:0.49852520772662917 58:0.32810428357189964 59:0.21966493079303034 60:0.08822742463262424 61:0.006805391936502857 62:0.0183641480889372 
0.0 8.0 0.0 0.0 0:0.0 1:0.0 2:1.0 3:0.0 4:0.0 5:0.0 6:0.0 7:0.0 8:0.0 9:0.0 10:1.0 11:0.0 12:0.0 13:0.0 14:0.0 15:0.0 16:0.0 17:0.0 18:0.0 19:0.0 20:0.0 21:0.0 22:0.0 23:0.0 24:0.0 25:0.0 26:0.02594810379241517 27:8.635578583765112E-4 28:0.0 29:0.0 30:0.00539568345323741 31:0.0 32:0.0 33:2.0589521004029767E-15 34:0.01327433628318584 35:0.0918918918918919 36:0.03152364273204904 37:0.0 38:0.016129032258064516 39:0.3695652173913043 40:0.0035842293906810036 41:0.6521739130434783 42:0.0 43:0.06689491703976824 44:0.02026086956521739 45:0.1269221151976133 46:0.06451612903225806 47:0.015432098765432098 48:1.0 49:0.07005697404515719 50:1.0 51:0.021258503401360547 52:0.1573154880568832 53:0.9999999999999997 54:0.010813598160711906 55:0.00968163461157652 56:0.2022027436594691 57:0.48869325923748974 58:0.16230429689800982 59:0.11026863059418496 60:0.46034611883806686 61:0.0020553843934444363 62:0.013304999466992436 
0.0 8.0 0.0 0.0 0:0.0 1:0.0 2:1.0 3:0.0 4:0.0 5:0.0 6:0.0 7:0.0 8:0.0 9:0.0 10:1.0 11:0.0 12:0.0 13:0.0 14:0.0 15:0.0 16:0.0 17:0.0 18:0.0 19:0.0 20:0.0 21:0.0 22:0.0 23:0.0 24:0.0 25:0.0 26:0.02594810379241517 27:8.635578583765112E-4 28:0.0 29:0.0 30:0.00539568345323741 31:0.0 32:0.0 33:2.0589521004029767E-15 34:0.0 35:0.05405405405405406 36:0.01926444833625219 37:0.0 38:0.0 39:0.2564102564102564 40:0.003861003861003861 41:0.6666666666666666 42:0.0 43:0.06399789307347907 44:0.022564102564102566 45:0.4179252803429728 46:0.04247104247104247 47:0.010101010101010102 48:1.0 49:0.07005697404515719 50:1.0 51:0.021258503401360547 52:0.1573154880568832 53:0.9999999999999997 54:0.01081359816071195 55:0.013817283577710138 56:0.2885914837363255 57:0.4886923686624455 58:0.24735964371002764 59:0.16638890201293846 60:0.4094859738764428 61:0.002055596058774925 62:0.011836203358710048 
0.0 8.0 0.0 0.0 0:0.0 1:0.0 2:1.0 3:0.0 4:0.0 5:0.0 6:0.0 7:1.0 8:0.0 9:0.0 10:1.0 11:0.0 12:0.0 13:0.0 14:0.0 15:0.0 16:0.0 17:0.0 18:0.0 19:0.0 20:0.0 21:8.680555555555555E-4 22:1.0 23:0.0 24:0.0 25:0.0 26:0.02594810379241517 27:0.0 28:1.0 29:1.0 30:0.0 31:0.0 32:0.0 33:2.0589521004029767E-15 34:0.0 35:0.0 36:0.0 37:0.0 38:0.0 39:0.0 40:0.0 41:0.0 42:1.0 43:0.0 44:0.0 45:0.0 46:0.0 47:0.0 48:1.0 49:0.016406414855454736 50:1.0 51:0.021258503401360547 52:0.13439701330972204 53:0.3453012353167335 54:0.01684285040833236 55:0.0 56:0.0 57:0.5154630544942871 58:0.4386762344275228 59:0.2926212836374099 60:0.006720174186914923 61:0.03400680023604118 62:0.01394640368836839 
0.0 8.0 0.0 0.0 0:0.0 1:0.0 2:1.0 3:0.0 4:0.0 5:0.0 6:0.0 7:1.0 8:0.0 9:0.0 10:1.0 11:0.0 12:0.0 13:0.0 14:0.0 15:0.0 16:0.0 17:0.0 18:0.0 19:0.0 20:0.0 21:8.680555555555555E-4 22:1.0 23:0.0 24:0.0 25:0.0 26:0.02594810379241517 27:0.0 28:1.0 29:1.0 30:0.0 31:0.0 32:0.0 33:2.0589521004029767E-15 34:0.0 35:0.0 36:0.0 37:0.0 38:0.0 39:0.0 40:0.0 41:0.0 42:1.0 43:0.0 44:0.0 45:0.0 46:0.0 47:0.0 48:1.0 49:0.016406414855454736 50:1.0 51:0.021258503401360547 52:0.13439701330972204 53:0.3453012353167335 54:0.01684285040833236 55:0.0 56:0.0 57:0.5154630544942871 58:0.45802806401554325 59:0.305389792257208 60:0.006720174186914923 61:0.03400680023604118 62:0.01394640368836839 
0.0 8.0 0.0 0.0 0:0.0 1:0.0 2:1.0 3:0.0 4:0.0 5:0.0 6:0.0 7:1.0 8:0.0 9:0.0 10:1.0 11:0.0 12:0.0 13:0.0 14:0.0 15:0.0 16:0.0 17:0.0 18:0.0 19:0.0 20:0.0 21:8.680555555555555E-4 22:1.0 23:0.0 24:0.0 25:0.0 26:0.02594810379241517 27:0.0 28:1.0 29:1.0 30:0.0 31:0.0 32:0.0 33:2.0589521004029767E-15 34:0.0 35:0.0 36:0.0 37:0.0 38:0.0 39:0.0 40:0.0 41:0.0 42:1.0 43:0.0 44:0.0 45:0.0 46:0.0 47:0.0 48:1.0 49:0.016406414855454736 50:1.0 51:0.021258503401360547 52:0.1343956635762269 53:0.3453012353167335 54:0.019038218319345955 55:0.0 56:0.0 57:0.5154630544942871 58:0.554784314975168 59:0.3692304239028126 60:0.006720174186914923 61:0.03400680023604118 62:0.01394640368836839 
0.15090842917602676 8.0 0.0 0.0 0:0.0 1:1.0 2:1.0 3:0.0 4:0.0 5:0.0 6:0.0 7:0.0 8:0.0 9:0.0 10:1.0 11:0.0 12:0.0 13:0.0 14:0.0 15:0.0 16:0.0 17:0.0 18:0.0 19:0.0 20:0.0 21:0.005208333333333333 22:0.0 23:0.0 24:0.0 25:0.0 26:0.0279441117764471 27:0.0034542314335060447 28:0.0 29:0.0 30:0.0017985611510791368 31:0.0 32:0.0 33:2.0589521004029767E-15 34:0.0 35:0.021621621621621623 36:0.021015761821366025 37:0.0 38:0.0 39:0.5 40:0.03389830508474576 41:0.375 42:0.05084745762711865 43:0.022386094284961813 44:0.05500000000000001 45:0.2529722659747943 46:0.1016949152542373 47:0.056 48:1.0 49:0.041138942141487785 50:1.0 51:0.021258503401360547 52:0.1573154880568832 53:0.9999999999999997 54:0.029984545464253942 55:0.006210059023153793 56:0.26635826760580444 57:0.500130914531513 58:0.12273250923895354 59:0.08531794612988469 60:0.3941561365270587 61:0.0010008252847838232 62:0.011391930423268337 
0.0 0.3196680401400147 0.0 0.0 0:0.0 1:0.0 2:1.0 3:0.0 4:1.0 5:0.0 6:0.0 7:0.0 8:0.0 9:0.0 10:1.0 11:0.0 12:0.0 13:0.0 14:0.0 15:0.0 16:1.0 17:0.0 18:0.0019157088122605363 19:0.0 20:0.0 21:0.003472222222222222 22:0.0 23:1.0 24:0.0 25:0.0 26:0.005988023952095808 27:0.011226252158894645 28:0.0 29:0.0 30:0.050359712230215826 31:1.0 32:0.024280575539568295 33:0.03934400878673059 34:0.061946902654867256 35:0.3567567567567568 36:0.14185639229422067 37:0.007025835775015777 38:0.012711864406779662 39:0.2548262548262548 40:0.007869249394673124 41:0.6525096525096525 42:0.002421307506053269 43:0.39873584408743745 44:0.021513513513513514 45:0.6746717844709123 46:0.04903147699757869 47:0.020942408376963352 48:1.0 49:0.49077435345367143 50:1.0 51:0.024801587301587304 52:0.5896108313413517 53:0.4623113885686901 54:0.012093593766924862 55:0.1874447918429957 56:0.35835943020029754 57:0.11924532670745501 58:0.034210442455828285 59:0.031118432775881978 60:0.4523305473962941 61:0.017430367505151527 62:0.0118784307802573 
0.0 0.0 0.41856665852144825 0.0 0:0.0 1:0.0 2:1.0 3:0.0 4:0.0 5:0.0 6:0.0 7:0.0 8:0.0 9:0.0 10:1.0 11:0.0 12:1.0 13:0.0 14:0.0 15:0.0 16:0.0 17:0.0 18:0.0 19:0.0 20:0.0 21:0.0 22:0.0 23:0.0 24:0.0 25:0.0 26:0.005988023952095808 27:8.635578583765112E-4 28:0.0 29:0.0 30:0.007194244604316546 31:1.0 32:0.0 33:1.830179644802646E-15 34:0.008849557522123894 35:0.07567567567567568 36:0.0297723292469352 37:1.512060187121933E-16 38:0.009259259259259259 39:0.3111111111111111 40:0.0030864197530864196 41:0.6888888888888889 42:0.0 43:0.07874637872004214 44:0.024800000000000003 45:0.042365075260360416 46:0.05246913580246913 47:0.021739130434782608 48:1.0 49:0.08339383621660865 50:1.0 51:0.024801587301587276 52:0.5896108313413517 53:0.9999999999999998 54:0.013112708266269554 55:0.015315007122016343 56:0.18761122048498902 57:0.39820816301085615 58:0.44941051275588784 59:0.34695910572181066 60:0.4942174394493638 61:0.0031072218353405726 62:0.013973028986318454 
0.0 2.1770425079278906 0.0 0.0 0:0.0 1:0.0 2:1.0 3:0.0 4:0.0 5:0.0 6:0.0 7:0.0 8:0.0 9:0.0 10:1.0 11:0.0 12:0.0 13:0.0 14:0.0 15:0.0 16:0.0 17:1.0 18:0.0 19:0.0 20:0.0 21:0.0 22:1.0 23:0.0 24:0.0 25:0.0 26:0.007984031936127744 27:0.0 28:0.0 29:1.0 30:0.0 31:1.0 32:0.0 33:2.0589521004029767E-15 34:0.0 35:0.005405405405405406 36:0.0017513134851138354 37:0.0 38:0.0 39:1.0 40:0.0 41:1.0 42:0.0 43:0.0018435607058203845 44:0.028 45:0.0 46:0.125 47:0.0 48:1.0 49:0.015497083343764862 50:1.0 51:0.025982615268329554 52:0.5896094816078565 53:0.9999999999999998 54:0.013117285127793622 55:5.049573978181554E-6 56:0.0031196823596152667 57:0.4443203576549378 58:0.24150388050534924 59:0.18877756251108715 60:0.057921928003040496 61:0.004822291581968403 62:0.01394640368836839 
1.6004071657412646 0.0 0.0 0.0 0:0.0 1:0.0 2:1.0 3:0.0 4:0.0 5:0.0 6:0.0 7:0.0 8:0.0 9:0.0 10:1.0 11:0.0 12:0.0 13:0.0 14:0.0 15:1.0 16:0.0 17:0.0 18:0.0 19:0.0 20:0.0 21:0.0 22:0.0 23:0.0 24:0.0 25:0.0 26:0.0 27:0.0 28:0.0 29:0.0 30:0.0 31:0.0 32:0.0 33:2.0589521004029767E-15 34:0.0 35:0.021621621621621623 36:0.008756567425569177 37:0.0 38:0.0 39:0.8 40:0.0 41:0.8 42:0.0 43:0.007900974453515935 44:0.024 45:0.0 46:0.14285714285714285 47:0.0 48:1.0 49:0.022949165976150158 50:1.0 51:0.02590466742252453 52:0.15379943230209198 53:0.7067841982763431 54:0.006305389559568674 55:4.681183351902199E-4 56:0.055556104209049405 57:0.5018328034411821 58:0.3628680492988824 59:0.248452316346395 60:0.3024317323638362 61:9.207978090340099E-4 62:0.01394640368836839 
0.5610075284247683 0.0 0.0 0.0 0:0.0 1:0.0 2:1.0 3:0.0 4:0.0 5:0.0 6:0.0 7:0.0 8:0.0 9:0.0 10:1.0 11:0.0 12:0.0 13:0.0 14:0.0 15:1.0 16:0.0 17:1.0 18:0.018518518518518517 19:0.0 20:0.0 21:0.003472222222222222 22:0.0 23:0.0 24:0.0 25:0.0 26:0.0 27:0.0 28:0.0 29:0.0 30:0.0035971223021582736 31:0.0 32:0.0 33:2.0589521004029767E-15 34:0.004424778761061947 35:0.07027027027027027 36:0.028021015761821366 37:0.0 38:0.010714285714285714 39:0.48148148148148145 40:0.0 41:0.6666666666666666 42:0.02857142857142857 43:0.03107716618382934 44:0.01674074074074074 45:0.6803117700236584 46:0.11428571428571428 47:0.012048192771084338 48:1.0 49:0.07180170767734263 50:1.0 51:0.02590466742252453 52:0.11549669517753722 53:0.9999999999999998 54:0.006305389559568674 55:0.019644216392025852 56:0.4025942611797463 57:0.48048393847907606 58:0.5221266540551449 59:0.3559723421133516 60:0.39121021127978745 61:0.001613861533238582 62:0.009928070220414429 
1.212344855528168 0.0 0.0 0.0 0:0.0 1:0.0 2:1.0 3:0.0 4:0.0 5:0.0 6:0.0 7:0.0 8:0.0 9:0.0 10:1.0 11:0.0 12:0.0 13:0.0 14:0.0 15:1.0 16:0.0 17:0.0 18:0.0 19:0.0 20:0.0 21:0.001736111111111111 22:0.0 23:1.0 24:0.0 25:0.0 26:0.0 27:0.0 28:0.0 29:0.0 30:0.00539568345323741 31:0.0 32:0.06069287427201098 33:0.08556114528833628 34:0.01327433628318584 35:0.032432432432432434 36:0.012259194395796848 37:0.09745675386058528 38:0.020930232558139535 39:0.2 40:0.0 41:0.5 42:0.009302325581395349 43:0.046089017645509614 44:0.02466666666666667 45:0.444656973898771 46:0.03255813953488372 47:0.01639344262295082 48:1.0 49:0.09622797852793888 50:1.0 51:0.024206349206349252 52:0.11549939464452746 53:0.9999999999999997 54:0.009062185817526717 55:0.020303018610133103 56:0.3541856362862315 57:0.47200744520737054 58:0.5625878147207165 59:0.38328882553967114 60:0.38573090481171934 61:0.002224144993811873 62:0.011563442390596023 
0.0 0.45186439481166807 0.0 0.0 0:0.0 1:0.0 2:1.0 3:0.0 4:0.0 5:0.0 6:0.0 7:0.0 8:1.0 9:0.0 10:1.0 11:0.0 12:0.0 13:0.0 14:0.0 15:1.0 16:0.0 17:0.0 18:0.0 19:0.0 20:0.0 21:0.0 22:1.0 23:0.0 24:0.0 25:0.0 26:0.0 27:0.0 28:0.0 29:1.0 30:0.0 31:0.0 32:0.0 33:2.0589521004029767E-15 34:0.0 35:0.0 36:0.0 37:0.0 38:0.0 39:0.0 40:0.0 41:0.0 42:0.0 43:0.0 44:0.0 45:0.0 46:0.0 47:0.0 48:1.0 49:0.022949165976150158 50:1.0 51:0.014155801209372761 52:0.11549939464452746 53:0.3445468908892777 54:0.009522923210942913 55:0.0 56:0.0 57:0.5062625237115607 58:0.6115458191260581 59:0.4163417704855179 60:0.003821539054292283 61:0.039820780346736376 62:0.01394640368836839 
1.8946729820790207 0.0 0.0 0.0 0:0.0 1:0.0 2:1.0 3:0.0 4:0.0 5:0.0 6:0.0 7:0.0 8:0.0 9:0.0 10:1.0 11:0.0 12:0.0 13:0.0 14:0.0 15:1.0 16:0.0 17:0.0 18:0.0 19:0.0 20:0.0 21:0.015625 22:0.0 23:0.0 24:0.0 25:0.0 26:0.0 27:0.0034542314335060447 28:0.0 29:0.09090909090909091 30:0.0035971223021582736 31:0.0 32:2.141144227485387E-6 33:1.3415358689087394E-6 34:0.04424778761061947 35:0.11351351351351352 36:0.050788091068301226 37:3.871416111339867E-6 38:0.06787330316742081 39:0.7241379310344828 40:0.01809954751131222 41:0.3103448275862069 42:0.08144796380090498 43:0.03871477482222808 44:0.026482758620689655 45:0.2027595109305443 46:0.13122171945701358 47:0.08835341365461848 48:1.0 49:0.07180170767734263 50:1.0 51:0.021232520786092206 52:0.15375759056374322 53:0.7180357788612992 54:0.007588436406797452 55:0.008639138227063876 56:0.23108289266779186 57:0.4857686107919885 58:0.6112541897580152 59:0.4161448831825406 60:0.4601377934382726 61:0.0014516287816544384 62:0.012648246634112946 
0.0 6.588195861774997 0.0 0.0 0:0.0 1:0.0 2:1.0 3:0.0 4:0.0 5:0.0 6:0.0 7:0.0 8:1.0 9:0.0 10:1.0 11:0.0 12:0.0 13:0.0 14:0.0 15:0.0 16:0.0 17:0.0 18:0.0 19:0.0 20:0.0 21:0.0 22:1.0 23:0.0 24:0.0 25:0.0 26:0.001996007984031936 27:0.0 28:0.0 29:0.0 30:0.0 31:1.0 32:0.0 33:2.0589521004029767E-15 34:0.0 35:0.0 36:0.0 37:0.0 38:0.0 39:0.0 40:0.0 41:0.0 42:0.0 43:0.0 44:0.0 45:0.0 46:0.0 47:0.0 48:1.0 49:0.01673156975963475 50:1.0 51:0.02363945578231288 52:0.11549939464452746 53:0.36577699107747874 54:0.04324523891979966 55:0.0 56:0.0 57:0.5027207067603553 58:0.2478724092545007 59:0.1708035632515962 60:0.0 61:0.0 62:0.0 
0.0 0.2393951596605884 0.0 0.0 0:0.0 1:0.0 2:1.0 3:0.0 4:0.0 5:0.0 6:0.0 7:0.0 8:0.0 9:0.0 10:1.0 11:0.0 12:0.0 13:0.0 14:0.0 15:0.0 16:0.0 17:1.0 18:0.0 19:0.0 20:0.0 21:8.680555555555555E-4 22:1.0 23:1.0 24:0.0 25:0.0 26:0.001996007984031936 27:8.635578583765112E-4 28:1.0 29:1.0 30:0.0 31:1.0 32:0.0 33:2.0589521004029767E-15 34:0.0 35:0.0 36:0.0 37:0.0 38:0.0 39:0.0 40:0.5 41:0.0 42:0.5 43:0.0 44:0.004 45:0.0 46:0.0 47:0.5 48:1.0 49:0.01673156975963475 50:1.0 51:0.025904667422524598 52:0.11549939464452746 53:0.36572288396084696 54:0.024411453748525876 55:0.0 56:0.0 57:0.5018666452928657 58:0.11981042159756883 59:0.08435098210414677 60:0.011927562495753214 61:0.023347475784942052 62:0.01394640368836839 
0.0 8.0 0.0 0.0 0:0.0 1:0.0 2:1.0 3:0.0 4:0.0 5:0.0 6:0.0 7:0.0 8:0.0 9:0.0 10:1.0 11:0.0 12:0.0 13:0.0 14:0.0 15:0.0 16:0.0 17:1.0 18:0.0 19:0.0 20:0.0 21:0.0 22:0.0 23:0.0 24:0.0 25:0.0 26:0.001996007984031936 27:0.0 28:0.0 29:1.0 30:0.0 31:1.0 32:0.0 33:2.0589521004029767E-15 34:0.0 35:0.010810810810810811 36:0.005253940455341506 37:0.0 38:0.0 39:1.0 40:0.0 41:0.5 42:0.0 43:0.0031603897814063736 44:0.028 45:0.0 46:0.1875 47:0.058823529411764705 48:1.0 49:0.01673156975963475 50:1.0 51:0.025904667422524598 52:0.15373059589384078 53:0.6866785702323256 54:0.024411453748525876 55:1.2053495840779057E-4 56:0.03188246299455149 57:0.5018666452928657 58:0.11981042159756883 59:0.08435098210414677 60:0.13569525055422768 61:0.002052234513776834 62:0.01394640368836839 
0.0 8.0 0.0 0.0 0:0.0 1:0.0 2:1.0 3:0.0 4:0.0 5:0.0 6:0.0 7:0.0 8:0.0 9:0.0 10:1.0 11:0.0 12:0.0 13:0.0 14:0.0 15:0.0 16:0.0 17:0.0 18:0.0 19:0.0 20:0.0 21:0.0 22:1.0 23:0.0 24:0.0 25:0.0 26:0.001996007984031936 27:0.0 28:0.0 29:1.0 30:0.0 31:1.0 32:0.0 33:2.0589521004029767E-15 34:0.0 35:0.005405405405405406 36:0.0017513134851138354 37:0.0 38:0.0 39:1.0 40:0.0 41:1.0 42:0.0 43:0.003687121411640769 44:0.055999999999999994 45:0.0 46:0.06666666666666667 47:0.0 48:1.0 49:0.01673156975963475 50:1.0 51:0.02590466742252453 52:0.15372114775937495 53:0.6754526317959183 54:0.006305389559568631 55:4.784784334454683E-6 56:0.0015435205690914344 57:0.5018666452928657 58:0.14585234476771525 59:0.10193146416049303 60:0.11126368395468808 61:0.0025028694596917196 62:0.01394640368836839 
2.2879422644538936 1.0688942248261444 0.0 0.0 0:0.0 1:0.0 2:1.0 3:0.0 4:1.0 5:0.0 6:0.0 7:0.0 8:0.0 9:0.0 10:1.0 11:0.0 12:0.0 13:0.0 14:0.0 15:0.0 16:0.0 17:0.0 18:0.0 19:0.0 20:0.0 21:0.0 22:0.0 23:0.0 24:0.0 25:0.0 26:0.001996007984031936 27:0.0017271157167530224 28:0.0 29:0.3333333333333333 30:0.0035971223021582736 31:1.0 32:0.0 33:2.001758986502894E-15 34:0.008849557522123894 35:0.04864864864864865 36:0.01576182136602452 37:1.5466813735150337E-16 38:0.015384615384615385 39:0.3 40:0.010256410256410256 41:0.6 42:0.0 43:0.0474058467210956 44:0.022000000000000002 45:0.17713273307416602 46:0.046153846153846156 47:0.026785714285714284 48:1.0 49:0.05314891902779642 50:1.0 51:0.025904667422524577 52:0.11549939464452746 53:0.9999999999999998 54:0.006125366339624463 55:0.010761961804910165 56:0.22051922509241456 57:0.4805177803307597 58:0.16043381316986635 59:0.11177517815674151 60:0.508485215492341 61:0.0016135722306154126 62:0.012903660430612661 
