svm_type c_svc
kernel_type rbf
gamma 0.5
nr_class 5
total_sv 4991
rho -1.967778119060793 -0.32160985282808746 -1.9622522798711837 -1.0065416268614968 1.3580978733744689 -0.10934840874387122 -0.8156886720595808 -1.3372749453015567 -1.9681739726268714 -0.38388094574158205
label 17 22 24 26 20
nr_sv 2090 437 2093 326 45
SV
0.0 8.0 0.0 0.0 0:0.0 1:0.0 2:1.0 3:0.0 4:0.0 5:0.0 6:0.0 7:0.0 8:0.0 9:0.0 10:1.0 11:0.0 12:0.0 13:0.0 14:0.0 15:0.0 16:0.0 17:0.0 18:0.018518518518518517 19:0.0 20:0.0 21:0.004340277777777778 22:0.0 23:0.0 24:0.0 25:0.0 26:0.005988023952095808 27:8.635578583765112E-4 28:0.0 29:0.0 30:0.01652892561983471 31:0.0 32:2.141144227485387E-6 33:1.3415358689087394E-6 34:0.031746031746031744 35:0.05945945945945946 36:0.021015761821366025 37:4.082008664830178E-6 38:0.011538461538461539 39:0.39285714285714285 40:0.0038461538461538464 41:0.6428571428571429 42:0.019230769230769232 43:0.060837503292072694 44:0.03314285714285714 45:1.1326988794829181E-4 46:0.046153846153846156 47:0.017421602787456445 48:1.0 49:0.08688852202624033 50:1.0 51:0.02013888888888887 52:0.14387214244547414 53:0.9999999999999998 54:0.013271372799101733 55:0.008098447517092492 56:0.2147711767954861 57:0.41502132927231117 58:0.44160797867049834 59:0.25556163769189505 60:0.4868591971681683 61:0.001206024710337066 62:0.01394551965272724 
0.0 8.0 0.0 0.0 0:0.0 1:0.0 2:1.0 3:0.0 4:0.0 5:0.0 6:0.0 7:0.0 8:0.0 9:0.0 10:1.0 11:0.0 12:0.0 13:0.0 14:0.0 15:0.0 16:0.0 17:0.0 18:0.0 19:0.0 20:0.0 21:0.0 22:0.0 23:0.0 24:0.0 25:0.0 26:0.005988023952095808 27:0.0 28:0.0 29:0.0 30:0.008264462809917356 31:0.0 32:0.0 33:2.0589521004029767E-15 34:0.015873015873015872 35:0.03783783783783784 36:0.012259194395796848 37:0.0 38:0.011029411764705881 39:0.3333333333333333 40:0.0 41:0.6666666666666666 42:0.0 43:0.03344745851988412 44:0.021904761904761906 45:0.05008025064702751 46:0.051470588235294115 47:0.01282051282051282 48:1.0 49:0.057433313059344855 50:1.0 51:0.023667800453514697 52:0.14387214244547414 53:0.9999999999999998 54:0.01336443565008977 55:0.005916683559028179 56:0.21260113221706764 57:0.42213257100109547 58:0.4795593885826136 59:0.2771807594602893 60:0.46938251306140516 61:8.901472396143325E-4 62:0.013445208882984883 
0.0 8.0 0.0 0.0 0:0.0 1:0.0 2:1.0 3:0.0 4:0.0 5:0.0 6:0.0 7:0.0 8:0.0 9:0.0 10:1.0 11:0.0 12:0.0 13:0.0 14:0.0 15:0.0 16:0.0 17:0.0 18:0.0 19:0.0 20:0.0 21:0.0 22:1.0 23:0.0 24:0.0 25:0.0 26:0.01996007984031936 27:0.0 28:0.0 29:1.0 30:0.0 31:1.0 32:0.0 33:2.0589521004029767E-15 34:0.0 35:0.005405405405405406 36:0.01576182136602452 37:0.0 38:0.0 39:1.0 40:0.0 41:1.0 42:0.0 43:0.0 44:0.032 45:0.0 46:1.0 47:0.0 48:1.0 49:0.01778207021929326 50:1.0 51:0.0211734693877551 52:0.11520245327560075 53:0.9999999999999998 54:0.014235564960158447 55:2.519986137929264E-4 56:0.16264319790135187 57:0.49953333867678373 58:0.23146101485088752 59:0.11748113700834513 60:0.06803803021240977 61:0.0025377628266319836 62:0.01394640368836839 
0.0 0.0 0.0 0.12313463897577634 0:0.0 1:0.0 2:1.0 3:0.0 4:0.0 5:0.0 6:0.0 7:0.0 8:0.0 9:0.0 10:1.0 11:0.0 12:0.0 13:0.0 14:0.0 15:1.0 16:0.0 17:0.0 18:0.0 19:0.0 20:0.0 21:0.0 22:1.0 23:0.0 24:0.0 25:0.0 26:0.0 27:0.0 28:0.0 29:1.0 30:0.0 31:0.0 32:0.0 33:2.0589521004029767E-15 34:0.0 35:0.0 36:0.0 37:0.0 38:0.0 39:0.0 40:0.0 41:0.0 42:0.0 43:0.0 44:0.0 45:0.0 46:0.0 47:0.0 48:1.0 49:0.022949165976150158 50:1.0 51:0.015306122448979368 52:0.11520380300909588 53:0.36138207082828244 54:0.026077431343263072 55:0.0 56:0.0 57:0.4999706110235381 58:0.5313081508477048 59:0.26725566906852605 60:0.004132160438931904 61:0.03020638446615272 62:0.01394640368836839 
0.0 0.0 0.42161531016655923 0.0 0:0.0 1:0.0 2:1.0 3:0.0 4:0.0 5:0.0 6:0.0 7:0.0 8:0.0 9:0.0 10:1.0 11:0.0 12:0.0 13:0.0 14:0.0 15:1.0 16:0.0 17:0.0 18:0.0 19:0.0 20:0.0 21:0.0 22:0.0 23:0.0 24:0.0 25:0.0 26:0.0 27:0.0034542314335060447 28:0.0 29:0.25 30:0.01652892561983471 31:0.0 32:0.0 33:2.0589521004029767E-15 34:0.047619047619047616 35:0.06486486486486487 36:0.02276707530647986 37:0.0 38:0.025568181818181816 39:0.6666666666666666 40:0.022727272727272728 41:0.4444444444444444 42:0.0 43:0.03950487226757967 44:0.03511111111111112 45:0.4358625288250494 46:0.07386363636363637 47:0.05181347150259067 48:1.0 49:0.07180170767734263 50:1.0 51:0.023667800453514697 52:0.14200951022220665 53:0.6849717017716561 54:0.006499143364084744 55:0.014734282721833544 56:0.3424925084469767 57:0.47678003686980697 58:0.5311922716286148 59:0.2671979556443073 60:0.3903550068906675 61:0.0012029088887676002 62:0.010454500024688231 
0.0 0.0 2.2886705726129226 0.0 0:0.0 1:0.0 2:1.0 3:0.0 4:0.0 5:0.0 6:0.0 7:0.0 8:0.0 9:0.0 10:1.0 11:0.0 12:0.0 13:0.0 14:0.0 15:1.0 16:0.0 17:0.0 18:0.0 19:0.0 20:0.0 21:0.006076388888888888 22:0.0 23:0.0 24:0.0 25:0.0 26:0.0 27:0.007772020725388601 28:0.0 29:0.14285714285714285 30:0.024793388429752067 31:0.0 32:0.0 33:2.0589521004029767E-15 34:0.09523809523809523 35:0.12432432432432433 36:0.043782837127845885 37:0.0 38:0.03345724907063197 39:0.6571428571428571 40:0.03345724907063197 41:0.37142857142857144 42:0.026022304832713755 43:0.05557018698972874 44:0.026742857142857145 45:0.2726833636454951 46:0.09293680297397769 47:0.07260726072607261 48:1.0 49:0.09622797852793888 50:1.0 51:0.023667800453514697 52:0.14200951022220665 53:0.9999999999999998 54:0.006499143364084744 55:0.014174603800258355 56:0.24489868924247102 57:0.4667877848726924 58:0.5667092522796822 59:0.2848871201673405 60:0.47320293208666625 61:0.001617493977162619 62:0.0126726815834292 
0.0 0.0 0.14862230535904722 0.0 0:0.0 1:0.0 2:1.0 3:0.0 4:0.0 5:0.0 6:0.0 7:0.0 8:0.0 9:0.0 10:1.0 11:0.0 12:0.0 13:0.0 14:0.0 15:1.0 16:0.0 17:0.0 18:0.0 19:0.0 20:0.0 21:0.0 22:0.0 23:0.0 24:0.0 25:0.0 26:0.0 27:0.0034542314335060447 28:0.0 29:0.3333333333333333 30:0.008264462809917356 31:0.0 32:0.0 33:2.0589521004029767E-15 34:0.031746031746031744 35:0.04864864864864865 36:0.017513134851138354 37:0.0 38:0.022727272727272728 39:0.6 40:0.030303030303030304 41:0.4 42:0.0 43:0.02870687384777456 44:0.031200000000000002 45:0.19738667133994 46:0.07575757575757576 47:0.0684931506849315 48:1.0 49:0.0473754368267464 50:1.0 51:0.023667800453514697 52:0.14200951022220665 53:0.9999999999999998 54:0.006500668984592709 55:0.006627959644842824 56:0.23582690456311795 57:0.48682572336957985 58:0.6130619055758182 59:0.3079729708000246 60:0.45189960657113565 61:7.854745219254279E-4 62:0.012099874616919932 
0.0 8.0 0.0 0.0 0:0.0 1:0.0 2:1.0 3:0.0 4:0.0 5:0.0 6:0.0 7:1.0 8:1.0 9:0.0 10:1.0 11:0.0 12:0.0 13:0.0 14:0.0 15:0.0 16:0.0 17:0.0 18:0.0 19:0.0 20:0.0 21:8.680555555555555E-4 22:1.0 23:0.0 24:0.0 25:0.0 26:0.007984031936127744 27:0.0 28:1.0 29:1.0 30:0.0 31:1.0 32:0.0 33:2.0589521004029767E-15 34:0.0 35:0.0 36:0.0 37:0.0 38:0.0 39:0.0 40:0.0 41:0.0 42:1.0 43:0.0 44:0.0 45:0.0 46:0.0 47:0.0 48:1.0 49:0.024877555780144597 50:1.0 51:0.03392857142857144 52:0.07703468950055811 53:0.2508514814248945 54:0.020778951318975218 55:0.0 56:0.0 57:0.6311540961999164 58:0.10227499876878328 59:0.04061421081419784 60:0.01191710889146247 61:0.023216962727179352 62:0.01394640368836839 
0.0 1.4135384513540774 0.0 0.0 0:0.0 1:0.0 2:1.0 3:0.0 4:0.0 5:0.0 6:0.0 7:1.0 8:1.0 9:0.0 10:1.0 11:0.0 12:0.0 13:0.0 14:0.0 15:0.0 16:0.0 17:1.0 18:0.0 19:0.0 20:0.0 21:8.680555555555555E-4 22:1.0 23:0.0 24:0.0 25:0.0 26:0.00998003992015968 27:0.0 28:1.0 29:1.0 30:0.0 31:1.0 32:0.0 33:2.0589521004029767E-15 34:0.0 35:0.0 36:0.0 37:0.0 38:0.0 39:0.0 40:0.0 41:0.0 42:1.0 43:0.0 44:0.0 45:0.0 46:0.0 47:0.0 48:1.0 49:0.022949165976150158 50:1.0 51:0.029846938775510194 52:0.07703468950055811 53:0.250864445943627 54:0.022245072627164266 55:0.0 56:0.0 57:0.6326930098764774 58:0.06692411166507814 59:0.026786491337612323 60:0.010483471731587297 61:0.023216962727179314 62:0.01394640368836839 
0.0 8.0 0.0 0.0 0:0.0 1:0.0 2:1.0 3:0.0 4:0.0 5:0.0 6:0.0 7:0.0 8:0.0 9:0.0 10:1.0 11:0.0 12:0.0 13:0.0 14:0.0 15:0.0 16:0.0 17:1.0 18:0.0 19:0.0 20:0.0 21:0.0 22:0.0 23:0.0 24:0.0 25:0.0 26:0.01397205588822355 27:8.635578583765112E-4 28:0.0 29:0.0 30:0.0 31:1.0 32:0.0 33:2.0589521004029767E-15 34:0.0 35:0.005405405405405406 36:0.0017513134851138354 37:0.0 38:0.0 39:0.25 40:0.03125 41:0.5 42:0.0 43:0.007900974453515935 44:0.028 45:0.0 46:0.03125 47:0.02857142857142857 48:1.0 49:0.01983091863352085 50:1.0 51:0.024489795918367335 52:0.12562644505842324 53:0.7485837591849973 54:0.017684992928748967 55:3.5731298394020214E-4 56:0.05574134640755425 57:0.6347128340769637 58:0.18979567596693964 59:0.07484846833499591 60:0.24337036149310318 61:8.205937724113044E-4 62:0.01394640368836839 
0.0 8.0 0.0 0.0 0:0.0 1:0.0 2:1.0 3:0.0 4:0.0 5:0.0 6:0.0 7:1.0 8:1.0 9:0.0 10:1.0 11:0.0 12:0.0 13:0.0 14:0.0 15:0.0 16:0.0 17:0.0 18:0.0 19:0.0 20:0.0 21:8.680555555555555E-4 22:1.0 23:0.0 24:0.0 25:0.0 26:0.01996007984031936 27:0.0 28:1.0 29:1.0 30:0.0 31:1.0 32:0.0 33:2.0589521004029767E-15 34:0.0 35:0.0 36:0.0 37:0.0 38:0.0 39:0.0 40:0.0 41:0.0 42:1.0 43:0.0 44:0.0 45:0.0 46:0.0 47:0.0 48:1.0 49:0.022949165976150158 50:1.0 51:0.02984693877551013 52:0.07703468950055811 53:0.2508337857752268 54:0.022245072627164266 55:0.0 56:0.0 57:0.6326939004515216 58:0.5293980750530388 59:0.20768576339825362 60:0.010483471731587297 61:0.023216962727179262 62:0.01394640368836839 
0.0 8.0 0.0 0.0 0:0.0 1:0.0 2:1.0 3:0.0 4:0.0 5:0.0 6:0.0 7:1.0 8:1.0 9:0.0 10:1.0 11:0.0 12:0.0 13:0.0 14:0.0 15:0.0 16:0.0 17:0.0 18:0.0 19:0.0 20:0.0 21:0.001736111111111111 22:1.0 23:0.0 24:0.0 25:0.0 26:0.02395209580838323 27:0.0 28:1.0 29:1.0 30:0.0 31:0.0 32:0.0 33:2.0589521004029767E-15 34:0.0 35:0.0 36:0.0 37:0.0 38:0.0 39:0.0 40:0.0 41:0.0 42:1.0 43:0.0 44:0.004 45:0.0 46:0.0 47:0.0 48:1.0 49:0.021813060355192194 50:1.0 51:0.021173469387754964 52:0.07703468950055811 53:0.26662389064380254 54:0.027918855296420433 55:2.04046797026627E-6 56:0.00598802395209603 57:0.6359623108641251 58:0.6064828629119867 59:0.2378385928835446 60:0.014963587856197245 61:0.011538969499136959 62:0.01394640368836839 
0.0 6.50693690609287 0.0 0.0 0:0.0 1:0.0 2:1.0 3:0.0 4:0.0 5:0.0 6:0.0 7:1.0 8:1.0 9:0.0 10:1.0 11:0.0 12:0.0 13:1.0 14:0.0 15:0.0 16:0.0 17:1.0 18:0.0 19:0.0 20:0.0 21:0.001736111111111111 22:1.0 23:0.0 24:0.0 25:0.0 26:0.02395209580838323 27:0.0 28:1.0 29:1.0 30:0.0 31:0.0 32:0.0 33:2.0589521004029767E-15 34:0.0 35:0.0 36:0.0 37:0.0 38:0.0 39:0.0 40:0.0 41:0.0 42:1.0 43:0.0 44:0.004 45:0.0 46:0.0 47:0.0 48:1.0 49:0.021813060355192194 50:1.0 51:0.021173469387755234 52:0.07703468950055811 53:0.26662389064380254 54:0.027918855296420433 55:2.04046797026627E-6 56:0.0059880239520959545 57:0.635962310864125 58:0.6775158585539625 59:0.2656236295886013 60:0.014963587856197245 61:0.011538969499137106 62:0.01394640368836839 
0.0 8.0 0.0 0.0 0:0.0 1:0.0 2:1.0 3:0.0 4:0.0 5:0.0 6:0.0 7:1.0 8:1.0 9:0.0 10:1.0 11:0.0 12:0.0 13:1.0 14:0.0 15:0.0 16:0.0 17:0.0 18:0.0 19:0.0 20:0.0 21:0.001736111111111111 22:1.0 23:0.0 24:0.0 25:0.0 26:0.02594810379241517 27:0.0 28:1.0 29:1.0 30:0.0 31:0.0 32:0.0 33:2.0589521004029767E-15 34:0.0 35:0.0 36:0.0 37:0.0 38:0.0 39:0.0 40:0.0 41:0.0 42:1.0 43:0.0 44:0.004 45:0.0 46:0.0 47:0.0 48:1.0 49:0.021283738418154962 50:1.0 51:0.021173469387755234 52:0.07703468950055811 53:0.2666828091720775 54:0.026783793638467494 55:2.04046797026627E-6 56:0.0059880239520959545 57:0.6359640920142136 58:0.6632636802660585 59:0.2600480554963155 60:0.014963587856197245 61:0.011538969499137106 62:0.01394640368836839 
0.0 8.0 0.0 0.0 0:0.0 1:0.0 2:1.0 3:0.0 4:0.0 5:0.0 6:0.0 7:1.0 8:1.0 9:0.0 10:1.0 11:0.0 12:0.0 13:1.0 14:0.0 15:0.0 16:0.0 17:0.0 18:0.0 19:0.0 20:0.0 21:0.001736111111111111 22:1.0 23:0.0 24:0.0 25:0.0 26:0.0279441117764471 27:0.0 28:1.0 29:1.0 30:0.0 31:0.0 32:0.0 33:2.0589521004029767E-15 34:0.0 35:0.0 36:0.0 37:0.0 38:0.0 39:0.0 40:0.0 41:0.0 42:1.0 43:0.0 44:0.004 45:0.0 46:0.0 47:0.0 48:1.0 49:0.021283738418154962 50:1.0 51:0.021173469387755234 52:0.07703468950055811 53:0.2666759131054164 54:0.026782268017959528 55:2.04046797026627E-6 56:0.0059880239520959545 57:0.6359632014391693 58:0.6746198437368729 59:0.2644904585833544 60:0.014963587856197245 61:0.011538969499137106 62:0.01394640368836839 
0.0 6.328832754125997 0.0 0.0 0:0.0 1:0.0 2:1.0 3:0.0 4:0.0 5:0.0 6:0.0 7:1.0 8:1.0 9:0.0 10:1.0 11:0.0 12:1.0 13:0.0 14:0.0 15:0.0 16:0.0 17:0.0 18:0.0 19:0.0 20:0.0 21:0.001736111111111111 22:1.0 23:0.0 24:0.0 25:0.0 26:0.0279441117764471 27:0.0 28:1.0 29:1.0 30:0.0 31:0.0 32:0.0 33:2.0589521004029767E-15 34:0.0 35:0.0 36:0.0 37:0.0 38:0.0 39:0.0 40:0.0 41:0.0 42:1.0 43:0.0 44:0.004 45:0.0 46:0.0 47:0.0 48:1.0 49:0.021283738418154962 50:1.0 51:0.021173469387755234 52:0.07703468950055811 53:0.2666759131054164 54:0.026782268017959528 55:2.04046797026627E-6 56:0.0059880239520959545 57:0.6359632014391693 58:0.7002281854955912 59:0.27450732082110496 60:0.014963587856197245 61:0.011538969499137106 62:0.01394640368836839 
8.0 8.0 8.0 0.0 0:0.0 1:0.0 2:1.0 3:0.0 4:0.0 5:0.0 6:0.0 7:0.0 8:0.0 9:0.0 10:1.0 11:0.0 12:0.0 13:0.0 14:0.0 15:0.0 16:0.0 17:0.0 18:0.0 19:0.0 20:0.0 21:8.680555555555555E-4 22:0.0 23:0.0 24:0.0 25:0.0 26:0.02994011976047904 27:0.0 28:0.0 29:0.0 30:0.0 31:1.0 32:0.0 33:2.0589521004029767E-15 34:0.0 35:0.010810810810810811 36:0.0035026269702276708 37:0.0 38:0.0 39:0.6666666666666666 40:0.0 41:0.6666666666666666 42:0.041666666666666664 43:0.0052673163023439565 44:0.028 45:0.0 46:0.08333333333333333 47:0.038461538461538464 48:1.0 49:0.021283738418154962 50:1.0 51:0.02551020408163268 52:0.125768167075411 53:0.7432586805065862 54:0.0183074460960134 55:2.5112506405143955E-4 56:0.043936428740403384 57:0.6343272150827791 58:0.30732810524923204 59:0.12082218597249851 60:0.20832091967823801 61:9.986005173091628E-4 62:0.01394640368836839 
0.0 8.0 0.0 0.0 0:0.0 1:0.0 2:1.0 3:0.0 4:0.0 5:0.0 6:0.0 7:1.0 8:1.0 9:0.0 10:1.0 11:0.0 12:0.0 13:0.0 14:0.0 15:0.0 16:0.0 17:0.0 18:0.0 19:0.0 20:0.0 21:0.001736111111111111 22:1.0 23:0.0 24:0.0 25:0.0 26:0.02994011976047904 27:0.0 28:1.0 29:1.0 30:0.0 31:0.0 32:0.0 33:2.0589521004029767E-15 34:0.0 35:0.0 36:0.0 37:0.0 38:0.0 39:0.0 40:0.0 41:0.0 42:1.0 43:0.0 44:0.004 45:0.0 46:0.0 47:0.0 48:1.0 49:0.021283738418154962 50:1.0 51:0.021173469387754964 52:0.07703468950055811 53:0.2666464521103056 54:0.026783793638467668 55:2.04046797026627E-6 56:0.00598802395209603 57:0.6359623108641251 58:0.577976575015861 59:0.22668816555944726 60:0.014963587856197245 61:0.011538969499136959 62:0.01394640368836839 
0.0 8.0 0.0 0.0 0:0.0 1:0.0 2:1.0 3:0.0 4:0.0 5:0.0 6:0.0 7:1.0 8:1.0 9:0.0 10:1.0 11:0.0 12:0.0 13:0.0 14:0.0 15:0.0 16:0.0 17:0.0 18:0.0 19:0.0 20:0.0 21:0.001736111111111111 22:1.0 23:0.0 24:0.0 25:0.0 26:0.02994011976047904 27:0.0 28:1.0 29:1.0 30:0.0 31:0.0 32:0.0 33:2.0589521004029767E-15 34:0.0 35:0.0 36:0.0 37:0.0 38:0.0 39:0.0 40:0.0 41:0.0 42:1.0 43:0.0 44:0.004 45:0.0 46:0.0 47:0.0 48:1.0 49:0.021283738418154962 50:1.0 51:0.021173469387754964 52:0.07703468950055811 53:0.2666464521103056 54:0.026783793638467668 55:2.04046797026627E-6 56:0.00598802395209603 57:0.6359623108641251 58:0.6035858824347382 59:0.23670541937499812 60:0.014963587856197245 61:0.011538969499136959 62:0.01394640368836839 
0.0 8.0 0.0 0.0 0:0.0 1:0.0 2:1.0 3:0.0 4:0.0 5:0.0 6:0.0 7:0.0 8:0.0 9:0.0 10:1.0 11:0.0 12:0.0 13:0.0 14:0.0 15:0.0 16:0.0 17:0.0 18:0.0 19:0.0 20:0.0 21:8.680555555555555E-4 22:0.0 23:0.0 24:0.0 25:0.0 26:0.031936127744510975 27:0.0 28:0.0 29:0.0 30:0.0 31:1.0 32:0.0 33:2.0589521004029767E-15 34:0.0 35:0.010810810810810811 36:0.012259194395796848 37:0.0 38:0.0 39:0.5 40:0.0 41:0.25 42:0.0196078431372549 43:0.010007900974453516 44:0.047 45:0.0 46:0.13725490196078433 47:0.05555555555555555 48:1.0 49:0.020777941900541604 50:1.0 51:0.02551020408163268 52:0.12567638519774274 53:0.7434058507574955 54:0.0183074460960134 55:3.5118174644882506E-4 56:0.02929385105968451 57:0.6343272150827791 58:0.3997997220830062 59:0.156993084365302 60:0.43694124551708374 61:4.761037789207186E-4 62:0.01394640368836839 
0.0 8.0 0.0 0.0 0:0.0 1:0.0 2:1.0 3:0.0 4:0.0 5:0.0 6:0.0 7:1.0 8:1.0 9:0.0 10:1.0 11:0.0 12:0.0 13:0.0 14:0.0 15:0.0 16:0.0 17:0.0 18:0.0 19:0.0 20:0.0 21:0.001736111111111111 22:1.0 23:0.0 24:0.0 25:0.0 26:0.031936127744510975 27:0.0 28:1.0 29:1.0 30:0.0 31:0.0 32:0.0 33:2.0589521004029767E-15 34:0.0 35:0.0 36:0.0 37:0.0 38:0.0 39:0.0 40:0.0 41:0.0 42:1.0 43:0.0 44:0.004 45:0.0 46:0.0 47:0.0 48:1.0 49:0.020777941900541604 50:1.0 51:0.021173469387754964 52:0.07703468950055811 53:0.26665961472914673 54:0.027918855296420433 55:2.04046797026627E-6 56:0.00598802395209603 57:0.6359623108641251 58:0.5808735554931095 59:0.22782133906799373 60:0.014963587856197245 61:0.011538969499136959 62:0.01394640368836839 
0.0 8.0 0.0 0.0 0:0.0 1:0.0 2:1.0 3:0.0 4:0.0 5:0.0 6:0.0 7:1.0 8:1.0 9:0.0 10:1.0 11:0.0 12:0.0 13:0.0 14:0.0 15:0.0 16:0.0 17:0.0 18:0.0 19:0.0 20:0.0 21:8.680555555555555E-4 22:1.0 23:0.0 24:0.0 25:0.0 26:0.03393213572854291 27:0.0 28:1.0 29:1.0 30:0.0 31:1.0 32:0.0 33:2.0589521004029767E-15 34:0.0 35:0.0 36:0.0 37:0.0 38:0.0 39:0.0 40:0.0 41:0.0 42:1.0 43:0.0 44:0.0 45:0.0 46:0.0 47:0.0 48:1.0 49:0.023559822747415065 50:1.0 51:0.029846938775510264 52:0.07703468950055811 53:0.26020669647685 54:0.028285004218340692 55:0.0 56:0.0 57:0.6326939004515216 58:0.23077732745825685 59:0.0908785612254675 60:0.010483471731587297 61:0.023216962727179366 62:0.01394640368836839 
0.0 6.7922977750165865 0.0 0.0 0:0.0 1:0.0 2:1.0 3:0.0 4:0.0 5:0.0 6:0.0 7:0.0 8:0.0 9:0.0 10:1.0 11:0.0 12:0.0 13:0.0 14:0.0 15:0.0 16:0.0 17:0.0 18:0.0 19:0.0 20:0.0 21:0.0 22:1.0 23:0.0 24:0.0 25:0.0 26:0.03792415169660678 27:0.0 28:0.0 29:0.0 30:0.0 31:1.0 32:0.0 33:2.0589521004029767E-15 34:0.0 35:0.0 36:0.0 37:0.0 38:0.0 39:0.0 40:0.0 41:1.0 42:0.0 43:0.0010534632604687912 44:0.012 45:0.0 46:0.0 47:0.0 48:1.0 49:0.02236758809875501 50:1.0 51:0.024489795918367335 52:0.12481525522785528 53:0.9999999999999998 54:0.01768346730824096 55:1.7700445043262911E-6 56:0.0021934100214454125 57:0.6347128340769637 58:0.10497112193294261 59:0.04166881616763498 60:0.030638020804165913 61:0.006518312795308686 62:0.01394640368836839 
0.0 8.0 0.0 0.0 0:0.0 1:0.0 2:1.0 3:0.0 4:0.0 5:0.0 6:0.0 7:0.0 8:0.0 9:0.0 10:1.0 11:0.0 12:0.0 13:0.0 14:0.0 15:0.0 16:0.0 17:0.0 18:0.0 19:0.0 20:0.0 21:0.0 22:1.0 23:0.0 24:0.0 25:0.0 26:0.03792415169660678 27:0.0 28:0.0 29:0.0 30:0.0 31:1.0 32:0.0 33:2.0589521004029767E-15 34:0.0 35:0.0 36:0.0 37:0.0 38:0.0 39:0.0 40:0.0 41:1.0 42:0.0 43:0.0010534632604687912 44:0.012 45:0.0 46:0.0 47:0.0 48:1.0 49:0.02236758809875501 50:1.0 51:0.024489795918367335 52:0.12481525522785528 53:0.9999999999999998 54:0.017684992928748967 55:1.7700445043262911E-6 56:0.0021934100214454125 57:0.6347128340769637 58:0.1782058227376272 59:0.07031502512154586 60:0.030638020804165913 61:0.006518312795308686 62:0.01394640368836839 
0.0 1.005664338342085 0.0 0.0 0:0.0 1:0.0 2:1.0 3:0.0 4:0.0 5:0.0 6:0.0 7:0.0 8:1.0 9:0.0 10:1.0 11:0.0 12:1.0 13:0.0 14:0.0 15:0.0 16:0.0 17:0.0 18:0.0 19:0.0 20:0.0 21:0.003472222222222222 22:0.0 23:0.0 24:0.0 25:0.0 26:0.03992015968063872 27:0.0 28:1.0 29:1.0 30:0.008264462809917356 31:0.0 32:0.0 33:2.0589521004029767E-15 34:0.0 35:0.0 36:0.0 37:0.0 38:0.0 39:0.0 40:0.0 41:0.0 42:1.0 43:0.0 44:0.004 45:0.0 46:0.0 47:0.0 48:1.0 49:0.0473754368267464 50:1.0 51:0.0211734693877551 52:0.07703468950055811 53:0.2666464521103056 54:0.027918855296420433 55:2.244105034768699E-4 56:0.24883465239475702 57:0.6228192043602554 58:0.6859760072076873 59:0.26893211123006255 60:0.014963587856197245 61:0.03053887911619004 62:0.01394640368836839 
0.7205561838720921 8.0 0.0 0.0 0:0.0 1:0.0 2:1.0 3:0.0 4:0.0 5:0.0 6:0.0 7:0.0 8:0.0 9:0.0 10:1.0 11:0.0 12:1.0 13:0.0 14:0.0 15:0.0 16:0.0 17:0.0 18:0.027777777777777776 19:0.0 20:0.0 21:0.015625 22:0.0 23:0.0 24:0.0 25:0.0 26:0.03992015968063872 27:0.005181347150259067 28:0.0 29:0.0 30:0.008264462809917356 31:0.0 32:0.0 33:2.0589521004029767E-15 34:0.015873015873015872 35:0.04864864864864865 36:0.03502626970227671 37:0.0 38:0.021739130434782608 39:0.5294117647058824 40:0.08695652173913043 41:0.11764705882352941 42:0.2608695652173913 43:0.003950487226757967 44:0.01223529411764706 45:0.09999380221367833 46:0.2898550724637681 47:0.12941176470588237 48:1.0 49:0.0473754368267464 50:1.0 51:0.0211734693877551 52:0.11525914208239585 53:0.7763682434020626 54:0.027918855296420433 55:0.0074387584405242145 56:0.4014058790192278 57:0.6228192043602554 58:0.6888729876849359 59:0.27006528160426496 60:0.2725463710686047 61:0.001486170670643836 62:0.015996948392571084 
0.0 2.078307120312786 0.0 0.0 0:0.0 1:0.0 2:1.0 3:0.0 4:0.0 5:0.0 6:0.0 7:0.0 8:0.0 9:0.0 10:1.0 11:0.0 12:1.0 13:0.0 14:0.0 15:0.0 16:0.0 17:0.0 18:0.05555555555555555 19:0.0 20:0.0 21:0.07899305555555555 22:0.0 23:0.0 24:0.0 25:0.0 26:0.04391217564870259 27:0.020725388601036267 28:0.0 29:0.0 30:0.049586776859504134 31:0.0 32:0.0 33:2.1161452143030595E-15 34:0.1111111111111111 35:0.25405405405405407 36:0.1243432574430823 37:1.5491082675347056E-16 38:0.02408256880733945 39:0.5164835164835165 40:0.05504587155963303 41:0.27472527472527475 42:0.20871559633027523 43:0.05662365025019753 44:0.015164835164835164 45:0.4404937712247467 46:0.1628440366972477 47:0.0817490494296578 48:1.0 49:0.16543574593796156 50:1.0 51:0.021173469387755234 52:0.11525914208239585 53:0.7763798071725057 54:0.027918855296420433 55:0.05839713070565528 56:0.45320285934639004 57:0.5677816666221379 58:0.6291951898536154 59:0.246722322542637 60:0.49915619146181595 61:0.0027776439072041384 62:0.011743309187822746 
0.0 8.0 0.0 0.0 0:0.0 1:0.0 2:1.0 3:0.0 4:0.0 5:0.0 6:0.0 7:0.0 8:0.0 9:0.0 10:1.0 11:0.0 12:0.0 13:0.0 14:0.0 15:0.0 16:0.0 17:0.0 18:0.0 19:0.0 20:0.0 21:0.0 22:1.0 23:0.0 24:0.0 25:0.0 26:0.04590818363273453 27:0.0 28:0.0 29:1.0 30:0.0 31:1.0 32:0.0 33:2.0589521004029767E-15 34:0.0 35:0.005405405405405406 36:0.0035026269702276708 37:0.0 38:0.0 39:1.0 40:0.0 41:0.0 42:0.0 43:0.003687121411640769 44:0.064 45:0.0 46:0.11764705882352941 47:0.058823529411764705 48:1.0 49:0.024877555780144597 50:1.0 51:0.02755102040816337 52:0.11590701416005414 53:0.7618223746535621 54:0.019222818400814082 55:0.0 56:0.0 57:0.6003019049400198 58:0.4162004942248693 59:0.1726783311459956 60:0.14945219380086328 61:0.0015033016424565368 62:0.01394640368836839 
0.0 8.0 0.0 0.0 0:0.0 1:0.0 2:1.0 3:0.0 4:0.0 5:0.0 6:0.0 7:0.0 8:0.0 9:0.0 10:1.0 11:0.0 12:0.0 13:0.0 14:0.0 15:0.0 16:0.0 17:0.0 18:0.0 19:0.0 20:0.0 21:0.0 22:1.0 23:0.0 24:0.0 25:0.0 26:0.049900199600798396 27:0.0 28:0.0 29:1.0 30:0.0 31:1.0 32:0.0 33:2.0589521004029767E-15 34:0.0 35:0.005405405405405406 36:0.0035026269702276708 37:0.0 38:0.0 39:1.0 40:0.0 41:0.0 42:0.0 43:0.003950487226757967 44:0.068 45:0.0 46:0.1111111111111111 47:0.05555555555555555 48:1.0 49:0.022949165976150158 50:1.0 51:0.027551020408163505 52:0.11590701416005414 53:0.7618374907152323 54:0.019222818400814082 55:0.0 56:0.0 57:0.6074648000213737 58:0.4836421997352158 59:0.19809173655974013 60:0.1634256759935217 61:0.0013747639533611452 62:0.01394640368836839 
0.0 3.0595676963966194 0.0 0.0 0:0.0 1:0.0 2:1.0 3:0.0 4:0.0 5:0.0 6:0.0 7:0.0 8:1.0 9:0.0 10:1.0 11:0.0 12:0.0 13:0.0 14:0.0 15:0.0 16:0.0 17:0.0 18:0.0 19:0.0 20:0.0 21:0.0 22:1.0 23:0.0 24:0.0 25:0.0 26:0.049900199600798396 27:0.0 28:0.0 29:0.0 30:0.0 31:0.0 32:0.0 33:2.0589521004029767E-15 34:0.0 35:0.0 36:0.0 37:0.0 38:0.0 39:0.0 40:0.0 41:0.0 42:0.0 43:0.0 44:0.0 45:0.0 46:0.0 47:1.0 48:1.0 49:0.022949165976150158 50:1.0 51:0.017091836734693854 52:0.10132989241274312 53:0.2847038746861983 54:0.02131139287626768 55:0.0 56:0.0 57:0.6114082663175613 58:0.5505054748102719 59:0.22535028760802064 60:0.003997756955193621 61:0.034864471484221386 62:0.01394640368836839 
0.0 4.975656826131619 0.0 0.0 0:0.0 1:0.0 2:1.0 3:0.0 4:0.0 5:0.0 6:0.0 7:0.0 8:1.0 9:0.0 10:1.0 11:0.0 12:0.0 13:0.0 14:0.0 15:0.0 16:0.0 17:0.0 18:0.0 19:0.0 20:0.0 21:0.0 22:1.0 23:0.0 24:0.0 25:0.0 26:0.049900199600798396 27:0.0 28:0.0 29:0.0 30:0.0 31:0.0 32:0.0 33:2.0589521004029767E-15 34:0.0 35:0.0 36:0.0 37:0.0 38:0.0 39:0.0 40:0.0 41:0.0 42:0.0 43:0.0 44:0.0 45:0.0 46:0.0 47:1.0 48:1.0 49:0.022949165976150158 50:1.0 51:0.017091836734693854 52:0.10132989241274312 53:0.28470152411218813 54:0.023375557423593114 55:0.0 56:0.0 57:0.6114082663175613 58:0.6603589745075374 59:0.27013492051702526 60:0.003997756955193621 61:0.034864471484221386 62:0.01394640368836839 
0.0 8.0 0.0 0.0 0:0.0 1:0.0 2:1.0 3:0.0 4:0.0 5:0.0 6:0.0 7:0.0 8:0.0 9:0.0 10:1.0 11:0.0 12:0.0 13:0.0 14:0.0 15:0.0 16:0.0 17:1.0 18:0.0 19:0.0 20:0.0 21:0.0026041666666666665 22:0.0 23:0.0 24:0.0 25:0.0 26:0.049900199600798396 27:0.0025906735751295333 28:0.0 29:0.0 30:0.008264462809917356 31:0.0 32:0.0 33:2.0589521004029767E-15 34:0.0 35:0.02702702702702703 36:0.014010507880910683 37:0.0 38:0.0 39:0.35714285714285715 40:0.02564102564102564 41:0.6428571428571429 42:0.02564102564102564 43:0.02607321569660258 44:0.029428571428571432 45:0.29883588475536904 46:0.06837606837606838 47:0.038461538461538464 48:1.0 49:0.0473754368267464 50:1.0 51:0.024489795918367335 52:0.1256250953249281 53:0.7513139708716866 54:0.01768499292874892 55:0.015694782758313347 56:0.4035788373228732 57:0.594405407571669 58:0.5482101006121319 59:0.224414518687269 60:0.47702633785601056 61:8.722046494296195E-4 62:0.011442059530470115 
0.0 8.0 0.0 0.0 0:0.0 1:0.0 2:1.0 3:0.0 4:0.0 5:0.0 6:0.0 7:0.0 8:0.0 9:0.0 10:1.0 11:0.0 12:0.0 13:0.0 14:0.0 15:0.0 16:0.0 17:0.0 18:0.0 19:0.0 20:0.0 21:8.680555555555555E-4 22:0.0 23:0.0 24:0.0 25:0.0 26:0.05189620758483034 27:0.0 28:0.0 29:0.0 30:0.008264462809917356 31:0.0 32:0.0 33:2.0589521004029767E-15 34:0.047619047619047616 35:0.03783783783783784 36:0.01576182136602452 37:0.0 38:0.025 39:0.2916666666666667 40:0.0 41:0.3333333333333333 42:0.005555555555555556 43:0.03976823808269687 44:0.026 45:0.01580221795263598 46:0.05 47:0.054187192118226604 48:1.0 49:0.038581979320531756 50:1.0 51:0.022831632653061217 52:0.07703468950055811 53:0.9999999999999998 54:0.02131444411728361 55:0.00882385646133664 56:0.2482186474987207 57:0.6143685377648348 58:0.36952434477544055 59:0.14753775304405992 60:0.6296937616623022 61:6.679979331261264E-4 62:0.013825187919845322 
1.9134032630973807 0.0 0.0 0.0 0:0.0 1:0.0 2:1.0 3:0.0 4:0.0 5:0.0 6:0.0 7:0.0 8:0.0 9:0.0 10:1.0 11:0.0 12:0.0 13:0.0 14:0.0 15:0.0 16:0.0 17:0.0 18:0.0 19:0.0 20:0.0 21:0.0 22:0.0 23:0.0 24:0.0 25:0.0 26:0.0558882235528942 27:0.0 28:0.0 29:0.0 30:0.008264462809917356 31:1.0 32:2.2696128811238602E-4 33:2.133042028423278E-4 34:0.0 35:0.021621621621621623 36:0.0070052539404553416 37:5.408764142590154E-4 38:0.0 39:0.5 40:0.0 41:0.875 42:0.0 43:0.016328680537266264 44:0.029500000000000002 45:0.7793096520904705 46:0.05970149253731343 47:0.013513513513513514 48:1.0 49:0.048596750369276215 50:1.0 51:0.02551020408163268 52:0.1256250953249281 53:0.7432460068403793 54:0.01814573032216527 55:0.02140918360093465 56:0.5806585380020137 57:0.6083384541398382 58:0.4306235943609309 59:0.17278133036977028 60:0.30911307887767114 61:8.268361468392724E-4 62:0.007416035810140711 
0.0 8.0 0.0 0.0 0:0.0 1:0.0 2:1.0 3:0.0 4:0.0 5:0.0 6:0.0 7:1.0 8:1.0 9:0.0 10:1.0 11:0.0 12:0.0 13:0.0 14:0.0 15:0.0 16:0.0 17:0.0 18:0.0 19:0.0 20:0.0 21:8.680555555555555E-4 22:1.0 23:0.0 24:0.0 25:0.0 26:0.06187624750499002 27:0.0 28:1.0 29:1.0 30:0.0 31:1.0 32:0.0 33:2.0589521004029767E-15 34:0.0 35:0.0 36:0.0 37:0.0 38:0.0 39:0.0 40:0.0 41:0.0 42:1.0 43:0.0 44:0.0 45:0.0 46:0.0 47:0.0 48:1.0 49:0.024877555780144597 50:1.0 51:0.029846938775510264 52:0.07703468950055811 53:0.2508933441161535 54:0.022245072627164266 55:0.0 56:0.0 57:0.6160009618210478 58:0.2558072387816845 59:0.10352972103777021 60:0.010483471731587297 61:0.023216962727179366 62:0.01394640368836839 
0.0 8.0 0.0 0.0 0:0.0 1:0.0 2:1.0 3:0.0 4:0.0 5:0.0 6:0.0 7:0.0 8:1.0 9:0.0 10:1.0 11:0.0 12:0.0 13:0.0 14:0.0 15:0.0 16:0.0 17:0.0 18:0.0 19:0.0 20:0.0 21:0.0 22:1.0 23:0.0 24:0.0 25:0.0 26:0.06187624750499002 27:0.0 28:0.0 29:1.0 30:0.0 31:1.0 32:0.0 33:2.0589521004029767E-15 34:0.0 35:0.005405405405405406 36:0.0017513134851138354 37:0.0 38:0.0 39:1.0 40:0.0 41:1.0 42:0.0 43:0.0010534632604687912 44:0.016 45:0.0 46:0.2 47:0.0 48:1.0 49:0.024877555780144597 50:1.0 51:0.029846938775510264 52:0.10619028272867523 53:0.7833852099828852 54:0.022245072627164266 55:3.068077140833489E-6 56:0.0021000820344541124 57:0.6160009618210478 58:0.2558072387816845 59:0.10352972103777021 60:0.04551051296582941 61:0.005348091167999979 62:0.01394640368836839 
0.0 0.1518439731396045 0.0 0.0 0:0.0 1:0.0 2:1.0 3:0.0 4:0.0 5:0.0 6:0.0 7:0.0 8:0.0 9:0.0 10:1.0 11:0.0 12:0.0 13:0.0 14:1.0 15:0.0 16:1.0 17:1.0 18:0.006802721088435374 19:0.0 20:0.0 21:0.027777777777777776 22:0.0 23:0.0 24:0.0 25:0.0 26:0.001996007984031936 27:0.012953367875647668 28:0.0 29:0.0 30:0.39669421487603307 31:1.0 32:0.01824254881808835 33:0.0020993667403173626 34:0.31746031746031744 35:0.5243243243243243 36:0.22591943957968477 37:0.004537116780393475 38:0.016129032258064516 39:0.313915857605178 40:0.008064516129032258 41:0.6504854368932039 42:0.017204301075268817 43:0.4311298393468528 44:0.020077669902912623 45:0.23406046902282285 46:0.06935483870967742 47:0.023062730627306273 48:1.0 49:0.5096935007385524 50:1.0 51:0.02362325882734046 52:0.32173327376509514 53:0.3503219643818051 54:0.021483787993671715 55:0.09658342076342374 56:0.23599122361380906 57:0.020899124564731437 58:0.04566124062223276 59:0.02366325476787409 60:0.2738831219076626 61:0.039723800861030466 62:0.013668349263966092 
0.0 8.0 0.0 0.0 0:0.0 1:0.0 2:1.0 3:0.0 4:0.0 5:0.0 6:0.0 7:0.0 8:0.0 9:0.0 10:1.0 11:0.0 12:0.0 13:0.0 14:0.0 15:0.0 16:0.0 17:0.0 18:0.011111111111111112 19:0.0 20:0.0 21:0.005208333333333333 22:0.0 23:0.0 24:0.0 25:0.0 26:0.003992015968063872 27:8.635578583765112E-4 28:0.0 29:0.0 30:0.03305785123966942 31:0.0 32:0.0 33:2.0589521004029767E-15 34:0.047619047619047616 35:0.043243243243243246 36:0.01576182136602452 37:0.0 38:0.023195876288659795 39:0.26666666666666666 40:0.005154639175257732 41:0.6666666666666666 42:0.030927835051546393 43:0.045035554385040824 44:0.021866666666666666 45:0.17794699396677569 46:0.04639175257731959 47:0.026905829596412557 48:1.0 49:0.049618665782413404 50:1.0 51:0.020077475434618294 52:0.08451761199751112 53:0.7297025216401732 54:0.015057874413970987 55:0.009977282501600761 56:0.298658996323587 57:0.4903212304184813 58:0.1674020168778082 59:0.08106306825885196 60:0.24186205573115116 61:0.003560137349869216 62:0.012646441601058647 
0.0 8.0 0.0 0.0 0:0.0 1:0.0 2:1.0 3:0.0 4:0.0 5:0.0 6:0.0 7:0.0 8:0.0 9:0.0 10:1.0 11:0.0 12:0.0 13:0.0 14:0.0 15:0.0 16:0.0 17:0.0 18:0.007936507936507936 19:0.0 20:0.0 21:0.0078125 22:0.0 23:0.0 24:0.0 25:0.0 26:0.011976047904191616 27:0.0025906735751295333 28:0.0 29:0.0 30:0.049586776859504134 31:0.0 32:0.0 33:2.001758986502894E-15 34:0.031746031746031744 35:0.06486486486486487 36:0.02276707530647986 37:1.9382605302752397E-16 38:0.011111111111111112 39:0.2857142857142857 40:0.011111111111111112 41:0.6190476190476191 42:0.03333333333333333 43:0.06268106399789308 44:0.021714285714285717 45:0.23556717224930487 46:0.04814814814814815 47:0.02572347266881029 48:1.0 49:0.07079443877628712 50:1.0 51:0.020077475434618273 52:0.08451761199751112 53:0.7296724628875375 54:0.01501210579873095 55:0.014249697832127435 56:0.3016868516835483 57:0.4721828884910988 58:0.4522621072056595 59:0.21536012607725039 60:0.2432075839405757 61:0.005032987672691741 62:0.012715443679910314 
0.0 8.0 0.0 0.0 0:0.0 1:0.0 2:1.0 3:0.0 4:0.0 5:0.0 6:0.0 7:0.0 8:0.0 9:0.0 10:1.0 11:0.0 12:0.0 13:0.0 14:0.0 15:0.0 16:0.0 17:0.0 18:0.0 19:0.0 20:0.0 21:0.0 22:0.0 23:0.0 24:0.0 25:0.0 26:0.015968063872255488 27:0.0017271157167530224 28:0.0 29:0.0 30:0.03305785123966942 31:0.0 32:0.0 33:2.0589521004029767E-15 34:0.015873015873015872 35:0.05945945945945946 36:0.021015761821366025 37:0.0 38:0.006787330316742082 39:0.3333333333333333 40:0.00904977375565611 41:0.6060606060606061 42:0.0 43:0.052936528838556755 44:0.02278787878787879 45:6.625219861128107E-5 46:0.05429864253393665 47:0.023715415019762844 48:1.0 49:0.049618665782413404 50:1.0 51:0.020077475434618294 52:0.08451761199751112 53:0.7296987641606592 54:0.01418827072441049 55:0.006545558640416527 56:0.195920947853574 57:0.49071308343797604 58:0.5542937596143539 59:0.2632813481416602 60:0.26673028431563606 61:0.003559898180390145 62:0.013945185695939902 
8.0 8.0 8.0 0.0 0:0.0 1:0.0 2:1.0 3:0.0 4:0.0 5:0.0 6:0.0 7:0.0 8:0.0 9:0.0 10:1.0 11:0.0 12:0.0 13:0.0 14:0.0 15:0.0 16:0.0 17:0.0 18:0.027777777777777776 19:0.0 20:0.0 21:0.006076388888888888 22:0.0 23:0.0 24:0.0 25:0.0 26:0.015968063872255488 27:0.0017271157167530224 28:0.0 29:0.0 30:0.008264462809917356 31:0.0 32:0.0 33:2.0589521004029767E-15 34:0.015873015873015872 35:0.021621621621621623 36:0.014010507880910683 37:0.0 38:0.023076923076923078 39:0.3333333333333333 40:0.03076923076923077 41:0.5 42:0.1076923076923077 43:0.011588095865156703 44:0.017666666666666667 45:0.16828272164031893 46:0.12307692307692308 47:0.05263157894736842 48:1.0 49:0.01896120338829771 50:1.0 51:0.020077475434618294 52:0.35617847256059293 53:0.3065525231719876 54:0.026149135507139144 55:0.00442691294577864 56:0.3493688784466865 57:0.5179646797937428 58:0.045236350152236315 59:0.023440726436216953 60:0.2079318962614177 61:0.0013504422901126 62:0.010872185508717493 
0.020848216572642703 0.0 0.0 0.0 0:0.0 1:0.0 2:1.0 3:0.0 4:0.0 5:0.0 6:0.0 7:0.0 8:1.0 9:0.0 10:1.0 11:0.0 12:0.0 13:0.0 14:0.0 15:0.0 16:0.0 17:0.0 18:0.0 19:0.0 20:0.0 21:8.680555555555555E-4 22:0.0 23:1.0 24:0.0 25:0.0 26:0.017964071856287425 27:8.635578583765112E-4 28:1.0 29:1.0 30:0.0 31:1.0 32:0.0 33:2.0589521004029767E-15 34:0.0 35:0.005405405405405406 36:0.0017513134851138354 37:0.0 38:0.0 39:0.5 40:0.14285714285714285 41:0.5 42:0.14285714285714285 43:0.0010534632604687912 44:0.01 45:0.0 46:0.14285714285714285 47:0.125 48:1.0 49:0.008438510025300905 50:1.0 51:0.02362055933484505 52:0.050112905206866905 53:0.6859506472908534 54:0.02095134643637934 55:9.700796891214298E-5 56:0.08061922628243545 57:0.5263271794597773 58:0.10255504021491729 59:0.050380480734421036 60:0.04736528104141792 61:0.004066687462941247 62:0.01394640368836839 
0.0 8.0 0.0 0.0 0:0.0 1:0.0 2:1.0 3:0.0 4:0.0 5:0.0 6:0.0 7:0.0 8:0.0 9:0.0 10:1.0 11:0.0 12:0.0 13:0.0 14:0.0 15:0.0 16:0.0 17:0.0 18:0.0 19:0.0 20:0.0 21:0.0 22:1.0 23:0.0 24:0.0 25:0.0 26:0.017964071856287425 27:0.0 28:0.0 29:1.0 30:0.0 31:0.0 32:0.0 33:2.0589521004029767E-15 34:0.0 35:0.005405405405405406 36:0.01926444833625219 37:0.0 38:0.0 39:1.0 40:0.0 41:1.0 42:0.0 43:0.0 44:0.039999999999999994 45:0.0 46:1.0 47:0.0 48:1.0 49:0.008438510025300905 50:1.0 51:0.020077475434618294 52:0.32173327376509514 53:0.3503996003996002 54:0.01600375912893173 55:1.509181463951851E-5 56:0.006981011053267218 57:0.5276630420262364 58:0.04457004464246914 59:0.023092417679415354 60:0.10011416829257544 61:0.0016354011444501175 62:0.01394640368836839 
0.0 8.0 0.0 0.0 0:0.0 1:0.0 2:1.0 3:0.0 4:0.0 5:0.0 6:0.0 7:0.0 8:0.0 9:0.0 10:1.0 11:0.0 12:0.0 13:0.0 14:0.0 15:0.0 16:0.0 17:0.0 18:0.0 19:0.0 20:0.0 21:0.0 22:1.0 23:0.0 24:0.0 25:0.0 26:0.017964071856287425 27:0.0 28:0.0 29:1.0 30:0.0 31:0.0 32:0.0 33:2.0589521004029767E-15 34:0.0 35:0.005405405405405406 36:0.03502626970227671 37:0.0 38:0.0 39:1.0 40:0.0 41:1.0 42:0.0 43:0.0 44:0.076 45:0.0 46:1.0 47:0.0 48:1.0 49:0.008438510025300905 50:1.0 51:0.020077475434618294 52:0.32173327376509514 53:0.3503275075440023 54:0.0159671442367397 55:0.0 56:0.0 57:0.5276630420262364 58:0.4482024718968752 59:0.21304409426791449 60:0.15189684383285879 61:0.0010778816812119414 62:0.01394640368836839 
0.0 0.7500165619187545 0.0 0.6383322403843051 0:0.0 1:0.0 2:1.0 3:0.0 4:0.0 5:0.0 6:0.0 7:0.0 8:1.0 9:0.0 10:1.0 11:0.0 12:0.0 13:0.0 14:0.0 15:0.0 16:0.0 17:1.0 18:0.0 19:0.0 20:0.0 21:8.680555555555555E-4 22:1.0 23:1.0 24:0.0 25:0.0 26:0.011976047904191616 27:8.635578583765112E-4 28:1.0 29:1.0 30:0.0 31:0.0 32:0.0 33:2.0589521004029767E-15 34:0.0 35:0.0 36:0.0 37:0.0 38:0.0 39:0.0 40:0.5 41:0.0 42:0.5 43:0.0 44:0.004 45:0.0 46:0.0 47:0.5 48:1.0 49:0.022949165976150158 50:1.0 51:0.033163265306122465 52:0.11520380300909588 53:0.35693327523806884 54:0.02263105461568857 55:0.0 56:0.0 57:0.5425703776928764 58:0.09431602773762239 59:0.04459713316674615 60:0.015716247365131702 61:0.01720755504294936 62:0.01394640368836839 
0.0 8.0 0.31717937374807487 0.0 0:0.0 1:0.0 2:1.0 3:0.012658227848101266 4:0.0 5:0.0 6:0.0 7:0.0 8:0.0 9:0.0 10:1.0 11:0.0 12:0.0 13:0.0 14:0.0 15:0.0 16:0.0 17:0.0 18:0.0 19:0.0 20:0.0 21:8.680555555555555E-4 22:1.0 23:0.0 24:0.0 25:0.0 26:0.011976047904191616 27:0.0 28:0.0 29:1.0 30:0.0 31:1.0 32:0.0 33:2.0589521004029767E-15 34:0.0 35:0.005405405405405406 36:0.0017513134851138354 37:0.0 38:0.0 39:1.0 40:0.0 41:0.0 42:0.09090909090909091 43:0.0023702923360547803 44:0.039999999999999994 45:0.0 46:0.09090909090909091 47:0.0 48:1.0 49:0.022949165976150158 50:1.0 51:0.03557256235827665 52:0.1534282555909336 53:0.6878873892139257 54:0.02263105461568857 55:3.338557514067935E-4 56:0.08884831074231249 57:0.5416619911476841 58:0.09333105437535788 59:0.04415016821772932 60:0.09821459905574084 61:0.0029535874853761613 62:0.01394640368836839 
0.0 8.0 0.0 0.0 0:0.0 1:0.0 2:1.0 3:0.0 4:0.0 5:0.0 6:0.0 7:0.0 8:0.0 9:0.0 10:1.0 11:0.0 12:0.0 13:0.0 14:0.0 15:0.0 16:0.0 17:0.0 18:0.0 19:0.0 20:0.0 21:0.001736111111111111 22:1.0 23:1.0 24:0.0 25:0.0 26:0.015968063872255488 27:8.635578583765112E-4 28:1.0 29:0.0 30:0.0 31:0.0 32:0.0 33:2.0589521004029767E-15 34:0.0 35:0.0 36:0.0 37:0.0 38:0.0 39:0.0 40:0.3333333333333333 41:0.0 42:0.6666666666666666 43:0.0 44:0.008 45:0.0 46:0.0 47:0.3333333333333333 48:1.0 49:0.021813060355192194 50:1.0 51:0.02834467120181406 52:0.11520380300909588 53:0.3543637854813866 54:0.0203273676486069 55:0.0 56:0.0 57:0.5861756035872363 58:0.45385158382750984 59:0.19272586725488927 60:0.02239460713488357 61:0.01032140247496194 62:0.01394640368836839 
0.0 8.0 0.0 0.0 0:0.0 1:0.0 2:1.0 3:0.0 4:0.0 5:0.0 6:0.0 7:0.0 8:0.0 9:0.0 10:1.0 11:0.0 12:0.0 13:0.0 14:0.0 15:0.0 16:0.0 17:0.0 18:0.0 19:0.0 20:0.0 21:0.0 22:0.0 23:0.0 24:0.0 25:0.0 26:0.02594810379241517 27:0.0 28:0.0 29:0.0 30:0.0 31:0.0 32:0.0 33:2.0589521004029767E-15 34:0.0 35:0.010810810810810811 36:0.0035026269702276708 37:0.0 38:0.0 39:0.5 40:0.0 41:0.75 42:0.0 43:0.0071108770081643406 44:0.025 45:0.0 46:0.06896551724137931 47:0.0 48:1.0 49:0.02236758809875501 50:1.0 51:0.02834467120181406 52:0.11520380300909588 53:0.7497649576923845 54:0.0203273676486069 55:3.61065405448042E-4 56:0.05073534585884164 57:0.5950457310285252 58:0.4904684513997727 59:0.20503029751668725 60:0.2334454109050506 61:9.90140489854396E-4 62:0.01394640368836839 
0.0 8.0 0.0 0.0 0:0.0 1:0.0 2:1.0 3:0.0 4:0.0 5:0.0 6:0.0 7:0.0 8:0.0 9:0.0 10:1.0 11:0.0 12:0.0 13:0.0 14:0.0 15:0.0 16:0.0 17:0.0 18:0.0 19:0.0 20:0.0 21:0.0 22:0.0 23:0.0 24:0.0 25:0.0 26:0.0279441117764471 27:0.0 28:0.0 29:1.0 30:0.0 31:1.0 32:0.0 33:2.0589521004029767E-15 34:0.0 35:0.010810810810810811 36:0.0035026269702276708 37:0.0 38:0.0 39:1.0 40:0.0 41:0.0 42:0.0 43:0.004740584672109561 44:0.036000000000000004 45:0.0 46:0.1 47:0.0 48:1.0 49:0.02236758809875501 50:1.0 51:0.02834467120181406 52:0.1534282555909336 53:0.6789514086320754 54:0.0203273676486069 55:1.2437658399748876E-4 56:0.025910224675411698 57:0.5953511982687222 58:0.3514143541520007 59:0.14712938153823552 60:0.15746264143166588 61:0.0014679275757487984 62:0.01394640368836839 
0.0 0.8663993913483496 0.0 0.0 0:0.0 1:0.0 2:1.0 3:0.0 4:0.0 5:0.0 6:0.0 7:0.0 8:0.0 9:0.0 10:1.0 11:0.0 12:1.0 13:0.0 14:0.0 15:0.0 16:0.0 17:0.0 18:0.027777777777777776 19:0.0 20:0.0 21:0.006944444444444444 22:0.0 23:1.0 24:0.0 25:0.0 26:0.031936127744510975 27:0.008635578583765112 28:1.0 29:0.3333333333333333 30:0.008264462809917356 31:0.0 32:0.0303186022610483 33:0.02849422181337519 34:0.031746031746031744 35:0.016216216216216217 36:0.010507880910683012 37:0.07266912272915083 38:0.029411764705882353 39:0.375 40:0.09803921568627451 41:0.125 42:0.0784313725490196 43:0.018435607058203848 44:0.047 45:0.726775932927129 46:0.058823529411764705 47:0.11926605504587157 48:1.0 49:0.048596750369276215 50:1.0 51:0.021258503401360547 52:0.11520380300909588 53:0.9999999999999998 54:0.0554456261222847 55:0.016858085962557327 56:0.5587567720549782 57:0.588190974912501 58:0.6758520260998627 59:0.28197326643348936 60:0.32812893176857805 61:6.513577019959455E-4 62:0.007721962298836828 
0.0 8.0 0.0 0.0 0:0.0 1:0.0 2:1.0 3:0.0 4:0.0 5:0.0 6:0.0 7:0.0 8:0.0 9:0.0 10:1.0 11:0.0 12:0.0 13:0.0 14:0.0 15:0.0 16:0.0 17:0.0 18:0.0 19:0.0 20:0.0 21:0.0 22:0.0 23:0.0 24:0.0 25:0.0 26:0.03393213572854291 27:0.0 28:0.0 29:0.0 30:0.0 31:1.0 32:0.0 33:2.0589521004029767E-15 34:0.0 35:0.010810810810810811 36:0.0035026269702276708 37:0.0 38:0.0 39:0.6666666666666666 40:0.0 41:0.6666666666666666 42:0.0 43:0.0057940479325783514 44:0.028 45:0.0 46:0.08333333333333333 47:0.0 48:1.0 49:0.023559822747415065 50:1.0 51:0.02834467120181406 52:0.11520380300909588 53:0.7497649576923845 54:0.0203273676486069 55:2.4010325915180657E-4 56:0.041623916783735594 57:0.5953511982687222 58:0.457675598057478 59:0.19129403990232133 60:0.18921919789494274 61:0.0012215660782798688 62:0.01394640368836839 
0.0 8.0 0.0 0.0 0:0.0 1:0.0 2:1.0 3:0.0 4:0.0 5:0.0 6:0.0 7:0.0 8:0.0 9:0.0 10:1.0 11:0.0 12:0.0 13:0.0 14:0.0 15:0.0 16:0.0 17:0.0 18:0.0 19:0.0 20:0.0 21:0.0 22:1.0 23:0.0 24:0.0 25:0.0 26:0.041916167664670656 27:0.0 28:0.0 29:1.0 30:0.0 31:1.0 32:0.0 33:2.0589521004029767E-15 34:0.0 35:0.005405405405405406 36:0.0017513134851138354 37:0.0 38:0.0 39:1.0 40:0.0 41:1.0 42:0.0 43:0.0023702923360547803 44:0.036000000000000004 45:0.0 46:0.1 47:0.0 48:1.0 49:0.02236758809875501 50:1.0 51:0.02834467120181406 52:0.11520380300909588 53:0.7497649576923845 54:0.0203273676486069 55:4.006273569461377E-6 56:0.0017300357802838458 57:0.5955595928290899 58:0.2702989007890409 59:0.11337457144325233 60:0.0759618622648032 61:0.003042892138452583 62:0.01394640368836839 
0.0 8.0 0.0 0.0 0:0.0 1:0.0 2:1.0 3:0.0 4:0.0 5:0.0 6:0.0 7:0.0 8:0.0 9:0.0 10:1.0 11:0.0 12:0.0 13:0.0 14:0.0 15:0.0 16:0.0 17:0.0 18:0.0 19:0.0 20:0.0 21:0.0 22:0.0 23:0.0 24:0.0 25:0.0 26:0.04391217564870259 27:0.0 28:0.0 29:0.0 30:0.0 31:1.0 32:0.0 33:2.0589521004029767E-15 34:0.0 35:0.010810810810810811 36:0.0035026269702276708 37:0.0 38:0.0 39:0.6666666666666666 40:0.0 41:0.3333333333333333 42:0.0 43:0.005530682117461154 44:0.02666666666666667 45:0.0 46:0.08695652173913043 47:0.0 48:1.0 49:0.021283738418154962 50:1.0 51:0.02834467120181406 52:0.1534282555909336 53:0.6789522113980516 54:0.0203273676486069 55:2.4196981842848902E-4 56:0.04234891040197599 57:0.591519053853073 58:0.36497222278552394 59:0.15377986319247047 60:0.18742565807305725 61:0.0012332556592528506 62:0.01394640368836839 
0.0 8.0 0.0 0.0 0:0.0 1:0.0 2:1.0 3:0.0 4:0.0 5:0.0 6:0.0 7:0.0 8:0.0 9:0.0 10:1.0 11:0.0 12:0.0 13:0.0 14:0.0 15:0.0 16:0.0 17:0.0 18:0.0 19:0.0 20:0.0 21:0.0 22:0.0 23:0.0 24:0.0 25:0.0 26:0.04790419161676646 27:0.0 28:0.0 29:1.0 30:0.0 31:1.0 32:0.0 33:2.0589521004029767E-15 34:0.0 35:0.010810810810810811 36:0.0035026269702276708 37:0.0 38:0.0 39:1.0 40:0.0 41:1.0 42:0.0 43:0.004740584672109561 44:0.036000000000000004 45:0.0 46:0.1 47:0.0 48:1.0 49:0.01896120338829771 50:1.0 51:0.02834467120181406 52:0.1534282555909336 53:0.6789522113980516 54:0.0203273676486069 55:1.2678945330636587E-4 56:0.025563357657533328 57:0.5977174561614436 58:0.09265605792415897 59:0.03940290694013445 60:0.1626954170652103 61:0.001420714594653532 62:0.01394640368836839 
0.0 8.0 0.0 0.0 0:0.0 1:0.0 2:1.0 3:0.0 4:0.0 5:0.0 6:0.0 7:0.0 8:0.0 9:0.0 10:1.0 11:0.0 12:0.0 13:0.0 14:0.0 15:0.0 16:0.0 17:0.0 18:0.0 19:0.0 20:0.0 21:0.0 22:0.0 23:0.0 24:0.0 25:0.0 26:0.05389221556886227 27:0.0 28:0.0 29:1.0 30:0.0 31:1.0 32:0.0 33:2.0589521004029767E-15 34:0.0 35:0.010810810810810811 36:0.0035026269702276708 37:0.0 38:0.0 39:1.0 40:0.0 41:1.0 42:0.0 43:0.0034237555965235715 44:0.026 45:0.0 46:0.13333333333333333 47:0.0 48:1.0 49:0.021283738418154962 50:1.0 51:0.02834467120181406 52:0.11520380300909588 53:0.7497643319905881 54:0.0203273676486069 55:1.261065657661202E-4 56:0.0323802398709473 57:0.591519053853073 58:0.15638962842362736 59:0.06653639405113701 60:0.12775200466529424 61:0.0018093160581970995 62:0.01394640368836839 
0.0 8.0 0.0 0.0 0:0.0 1:0.0 2:1.0 3:0.0 4:0.0 5:0.0 6:0.0 7:0.0 8:0.0 9:0.0 10:1.0 11:0.0 12:0.0 13:0.0 14:0.0 15:0.0 16:0.0 17:0.0 18:0.0 19:0.0 20:0.0 21:0.0 22:1.0 23:0.0 24:0.0 25:0.0 26:0.0558882235528942 27:0.0 28:0.0 29:1.0 30:0.0 31:1.0 32:0.0 33:2.0589521004029767E-15 34:0.0 35:0.005405405405405406 36:0.0017513134851138354 37:0.0 38:0.0 39:1.0 40:0.0 41:1.0 42:0.0 43:0.004213853041875165 44:0.064 45:0.0 46:0.058823529411764705 47:0.0 48:1.0 49:0.02236758809875501 50:1.0 51:0.02834467120181406 52:0.1534282555909336 53:0.6789522113980516 54:0.0203273676486069 55:8.285702155031715E-6 56:0.0020490880432339036 57:0.571855156874794 58:0.3785300914190472 59:0.1650631968412571 60:0.13264130472928523 61:0.0017426227371597507 62:0.01394640368836839 
2.0396898312985767 0.0 0.0 0.0 0:0.0 1:0.0 2:1.0 3:0.0 4:0.0 5:0.0 6:0.0 7:0.0 8:0.0 9:1.0 10:1.0 11:0.0 12:0.0 13:0.0 14:0.0 15:0.0 16:0.0 17:0.0 18:0.0 19:0.0 20:0.0 21:0.0 22:0.0 23:0.0 24:0.0 25:0.0 26:0.057884231536926144 27:0.0 28:0.0 29:0.0 30:0.0 31:1.0 32:0.0 33:2.0589521004029767E-15 34:0.0 35:0.010810810810810811 36:0.0035026269702276708 37:0.0 38:0.0 39:0.6666666666666666 40:0.0 41:1.0 42:0.0 43:0.008164340268633132 44:0.039999999999999994 45:0.0 46:0.06060606060606061 47:0.0 48:1.0 49:0.02236758809875501 50:1.0 51:0.0331632653061225 52:0.11520380300909588 53:0.7609469704546816 54:0.02263105461568857 55:3.008420085317736E-4 56:0.02452432024037956 57:0.5935344251783378 58:0.258516881188071 59:0.10851901894932771 60:0.3439265679099735 61:7.863253869788332E-4 62:0.01394640368836839 
0.0 0.0 1.8183765936897962 0.0 0:0.0 1:0.0 2:1.0 3:0.0 4:1.0 5:0.0 6:0.0 7:0.0 8:0.0 9:0.0 10:1.0 11:0.0 12:0.0 13:0.0 14:0.0 15:0.0 16:0.0 17:0.0 18:0.0 19:0.0 20:0.0 21:0.0 22:0.0 23:0.0 24:0.0 25:0.0 26:0.05988023952095808 27:8.635578583765112E-4 28:0.0 29:0.5 30:0.008264462809917356 31:1.0 32:0.0 33:2.0589521004029767E-15 34:0.015873015873015872 35:0.032432432432432434 36:0.010507880910683012 37:0.0 38:0.017857142857142856 39:0.5 40:0.011904761904761904 41:0.8333333333333334 42:0.0 43:0.020015801948907033 44:0.024 45:0.7235124778535996 46:0.07142857142857142 47:0.021052631578947368 48:1.0 49:0.0473754368267464 50:1.0 51:0.026077097505668934 52:0.11520380300909588 53:0.9999999999999998 54:0.01354751011104991 55:0.020604682439675306 56:0.5455075180953393 57:0.5228022834344136 58:0.09322869439849508 59:0.04503189071932781 60:0.34004678734606125 61:8.148908884618493E-4 62:0.00799966724552107 
0.0 3.467226306127943 0.0 0.0 0:0.0 1:1.0 2:1.0 3:0.0 4:0.0 5:0.0 6:0.0 7:0.0 8:0.0 9:0.0 10:1.0 11:0.0 12:0.0 13:0.0 14:0.0 15:0.0 16:0.0 17:0.0 18:0.0 19:0.0 20:0.0 21:0.0 22:0.0 23:0.0 24:0.0 25:0.0 26:0.07584830339321356 27:0.0034542314335060447 28:0.0 29:0.0 30:0.049586776859504134 31:0.0 32:0.0 33:2.001758986502894E-15 34:0.0 35:0.032432432432432434 36:0.03502626970227671 37:1.5496683507707638E-16 38:0.0 39:0.8571428571428571 40:0.13793103448275862 41:0.7142857142857143 42:0.0 43:0.0013168290755859891 44:0.012571428571428574 45:0.035979218181313055 46:0.6896551724137931 47:0.11428571428571428 48:1.0 49:0.29062038404726737 50:1.0 51:0.026077097505668945 52:0.11520380300909588 53:0.4622143759905309 54:0.022081831232808147 55:0.0041682526729789025 56:0.3519096250118765 57:0.1301664484757808 58:0.12185086151371088 59:0.1549517092736458 60:0.03910053348582794 61:0.04137912320910285 62:0.012469427096222561 
0.0 2.2776845562711845 0.0 0.0 0:0.0 1:1.0 2:1.0 3:0.0 4:0.0 5:0.0 6:0.0 7:0.0 8:0.0 9:0.0 10:1.0 11:0.0 12:1.0 13:0.0 14:0.0 15:0.0 16:0.0 17:0.0 18:0.0 19:0.0 20:0.0 21:0.0 22:0.0 23:0.0 24:0.0 25:0.0 26:0.07584830339321356 27:0.0 28:0.0 29:1.0 30:0.01652892561983471 31:0.0 32:0.0 33:2.1161452143030595E-15 34:0.0 35:0.016216216216216217 36:0.01576182136602452 37:1.549668350770763E-16 38:0.0 39:1.0 40:0.0 41:0.3333333333333333 42:0.0 43:5.267316302343956E-4 44:0.012 45:0.027588697802350442 46:0.75 47:0.07142857142857142 48:1.0 49:0.12370753323485965 50:1.0 51:0.026077097505668896 52:0.11520380300909588 53:0.4622143759905309 54:0.02837654144882072 55:0.0014327690797481325 56:0.3202110622503414 57:0.18295973710224692 58:0.23645540919366406 59:0.28658709024210394 60:0.03618689351983557 61:0.01820497302208459 62:0.011690753290736272 
0.0 1.2894239112075803 0.0 0.0 0:0.0 1:1.0 2:1.0 3:0.0 4:0.0 5:0.0 6:0.0 7:0.0 8:0.0 9:0.0 10:1.0 11:0.0 12:1.0 13:0.0 14:0.0 15:0.0 16:1.0 17:0.0 18:0.0 19:0.0 20:0.0 21:0.0 22:0.0 23:0.0 24:0.0 25:0.0 26:0.07584830339321356 27:0.0 28:0.0 29:0.0 30:0.08264462809917356 31:0.0 32:0.002312435765673203 33:7.902865834237776E-4 34:0.015873015873015872 35:0.1783783783783784 36:0.07180385288966726 37:0.0021534640068321376 38:0.004464285714285714 39:0.7674418604651163 40:0.0 41:0.8372093023255814 42:0.0 43:0.07558598893863577 44:0.027255813953488372 45:0.48339100124169443 46:0.12202380952380952 47:0.013227513227513227 48:1.0 49:0.45753323485967495 50:1.0 51:0.02607709750566893 52:0.21092690248310472 53:0.63740044536281 54:0.022081831232808147 55:0.11183670234080281 56:0.6205907467654183 57:0.07726629084399797 58:0.12185086151371088 59:0.1549517092736458 60:0.23196086333466853 61:0.006906260882622037 62:0.013071521622516586 
0.0 8.0 0.0 0.0 0:0.0 1:0.0 2:1.0 3:0.0 4:0.0 5:0.0 6:0.0 7:0.0 8:0.0 9:0.0 10:1.0 11:0.0 12:0.0 13:0.0 14:0.0 15:0.0 16:0.0 17:1.0 18:0.0 19:0.0 20:0.0 21:0.0 22:1.0 23:0.0 24:0.0 25:0.0 26:0.011976047904191616 27:0.0 28:0.0 29:1.0 30:0.0 31:1.0 32:0.0 33:2.0589521004029767E-15 34:0.0 35:0.005405405405405406 36:0.0017513134851138354 37:0.0 38:0.0 39:1.0 40:0.0 41:1.0 42:0.0 43:0.0023702923360547803 44:0.036000000000000004 45:0.0 46:0.1 47:0.0 48:1.0 49:0.021283738418154962 50:1.0 51:0.042517006802721094 52:0.07697935042725815 53:0.4045780707776513 54:5.644795879605069E-5 55:0.0 56:0.0 57:0.6069562816710751 58:0.06799889142213736 59:0.028351681715080256 60:0.1298681128481517 61:0.0026697518171152506 62:0.01394640368836839 
0.0 8.0 0.0 0.14398967092119186 0:0.0 1:0.0 2:1.0 3:0.0 4:0.0 5:0.0 6:0.0 7:1.0 8:0.0 9:0.0 10:1.0 11:0.0 12:0.0 13:0.0 14:0.0 15:0.0 16:0.0 17:0.0 18:0.0 19:0.0 20:0.0 21:8.680555555555555E-4 22:1.0 23:0.0 24:0.0 25:0.0 26:0.011976047904191616 27:0.0 28:1.0 29:1.0 30:0.0 31:0.0 32:0.0 33:2.0589521004029767E-15 34:0.0 35:0.0 36:0.0 37:0.0 38:0.0 39:0.0 40:0.0 41:0.0 42:1.0 43:0.0 44:0.0 45:0.0 46:0.0 47:0.0 48:1.0 49:0.021283738418154962 50:1.0 51:0.02721088435374149 52:0.19440616450281897 53:0.5955089200906585 54:5.644795879605069E-5 55:0.0 56:0.0 57:0.6127272079581787 58:0.06403002816830683 59:0.02674700587284448 60:0.009565047926042243 61:0.023198838634496146 62:0.01394640368836839 
1.2708283527293216 0.0 0.0 0.0 0:0.0 1:0.0 2:1.0 3:0.012658227848101266 4:0.0 5:0.0 6:0.0 7:0.0 8:0.0 9:0.0 10:1.0 11:0.0 12:0.0 13:0.0 14:0.0 15:0.0 16:0.0 17:0.0 18:0.0 19:0.0 20:0.0 21:8.680555555555555E-4 22:0.0 23:0.0 24:0.0 25:0.0 26:0.0279441117764471 27:0.0025906735751295333 28:0.0 29:0.0 30:0.008264462809917356 31:1.0 32:0.0 33:2.0589521004029767E-15 34:0.0 35:0.043243243243243246 36:0.014010507880910683 37:0.0 38:0.0 39:0.47058823529411764 40:0.023809523809523808 41:0.8235294117647058 42:0.007936507936507936 43:0.03002370292336055 44:0.025647058823529415 45:0.10836508808336673 46:0.06349206349206349 47:0.02112676056338028 48:1.0 49:0.04404458171075601 50:1.0 51:0.03127598261526833 52:0.07697935042725815 53:0.9999999999999998 54:0.031069261645442735 55:0.00871915022530694 56:0.20800861784925403 57:0.5986231709815028 58:0.06535974220736392 59:0.027351895956471924 60:0.5972435338857316 61:7.879434399503281E-4 62:0.01311501134279684 
0.0 0.0 0.2130926014869839 0.0 0:0.0 1:0.0 2:1.0 3:0.0 4:0.0 5:0.0 6:0.0 7:0.0 8:1.0 9:0.0 10:1.0 11:0.0 12:0.0 13:0.0 14:0.0 15:0.0 16:0.0 17:0.0 18:0.0 19:0.0 20:0.0 21:8.680555555555555E-4 22:0.0 23:0.0 24:0.0 25:0.0 26:0.02395209580838323 27:0.0 28:1.0 29:1.0 30:0.0 31:1.0 32:0.0 33:2.0589521004029767E-15 34:0.0 35:0.005405405405405406 36:0.0017513134851138354 37:0.0 38:0.0 39:0.5 40:0.0 41:0.5 42:0.16666666666666666 43:0.0010534632604687912 44:0.008 45:0.0 46:0.16666666666666666 47:0.0 48:1.0 49:0.01983091863352085 50:1.0 51:0.026077097505668983 52:0.05773754972080763 53:0.9999999999999998 54:0.020504339627535006 55:1.252743534837335E-4 56:0.08725458735669071 57:0.6495631729407679 58:0.3086858234329025 59:0.11835016284447993 60:0.05119130021183481 61:0.0041540701710483675 62:0.01394640368836839 
0.0 8.0 4.741894863999704 0.0 0:0.0 1:0.0 2:1.0 3:0.0 4:0.0 5:0.0 6:0.0 7:0.0 8:0.0 9:0.0 10:1.0 11:0.0 12:0.0 13:0.0 14:0.0 15:0.0 16:0.0 17:0.0 18:0.0 19:0.0 20:0.0 21:0.0 22:0.0 23:0.0 24:0.0 25:0.0 26:0.00998003992015968 27:0.0 28:0.0 29:0.0 30:0.0 31:0.0 32:0.0 33:2.0589521004029767E-15 34:0.0 35:0.010810810810810811 36:0.0035026269702276708 37:0.0 38:0.0 39:0.6666666666666666 40:0.0 41:0.6666666666666666 42:0.0 43:0.004213853041875165 44:0.02 45:0.0 46:0.1111111111111111 47:0.0 48:1.0 49:0.02981905465288035 50:1.0 51:0.02352607709750562 52:0.31118510650072145 53:0.9999999999999998 54:0.021720259172411934 55:1.9860554910591091E-4 56:0.05706220822929128 57:0.6755269977824683 58:0.37518407896782513 59:0.13825136481419312 60:0.13755449874594075 61:0.0013947149468793714 62:0.01394640368836839 
8.0 0.0 0.0 0.0 0:0.0 1:0.0 2:1.0 3:0.0 4:0.0 5:0.0 6:0.0 7:0.0 8:0.0 9:0.0 10:1.0 11:0.0 12:0.0 13:0.0 14:0.0 15:0.0 16:0.0 17:1.0 18:0.0 19:0.0 20:0.0 21:0.0 22:0.0 23:0.0 24:0.0 25:0.0 26:0.00998003992015968 27:8.635578583765112E-4 28:0.0 29:0.0 30:0.0 31:1.0 32:0.0 33:2.0589521004029767E-15 34:0.0 35:0.032432432432432434 36:0.010507880910683012 37:0.0 38:0.0 39:0.75 40:0.017543859649122806 41:0.75 42:0.0 43:0.012904924940742692 44:0.0245 45:0.0 46:0.10526315789473684 47:0.015625 48:1.0 49:0.02981905465288035 50:1.0 51:0.02834467120181406 52:0.05770515611692472 53:0.9999999999999998 54:0.01252686999119719 55:9.560425563496244E-4 56:0.05403903162055316 57:0.6737102246920837 58:0.48158630925652857 59:0.1774113448321894 60:0.5803363223174743 61:3.9829275649119175E-4 62:0.01394640368836839 
0.0 8.0 0.0 0.0 0:0.0 1:0.0 2:1.0 3:0.0 4:0.0 5:0.0 6:0.0 7:0.0 8:0.0 9:0.0 10:1.0 11:0.0 12:0.0 13:0.0 14:0.0 15:0.0 16:0.0 17:1.0 18:0.0 19:0.0 20:0.0 21:0.0 22:1.0 23:0.0 24:0.0 25:0.0 26:0.011976047904191616 27:0.0 28:0.0 29:1.0 30:0.0 31:1.0 32:0.0 33:2.0589521004029767E-15 34:0.0 35:0.005405405405405406 36:0.0017513134851138354 37:0.0 38:0.0 39:1.0 40:0.0 41:1.0 42:0.0 43:0.0015801948907031868 44:0.024 45:0.0 46:0.14285714285714285 47:0.0 48:1.0 49:0.016092668895281038 50:1.0 51:0.026077097505668917 52:0.6216494553150481 53:0.9999999999999998 54:0.1864528948884494 55:0.0 56:0.0 57:0.6745651767346176 58:0.09680356830741983 59:0.0357969782352452 60:0.053649390592204076 61:0.0039637403310610105 62:0.01394640368836839 
0.0 0.9219496058351007 0.9236533584582421 0.0 0:0.0 1:0.0 2:1.0 3:0.0759493670886076 4:1.0 5:0.0 6:0.0 7:0.0 8:0.0 9:0.0 10:1.0 11:0.0 12:0.0 13:0.0 14:0.0 15:0.0 16:0.0 17:0.0 18:0.008547008547008548 19:0.0 20:0.0 21:0.012152777777777776 22:0.0 23:1.0 24:0.0 25:0.0 26:0.011976047904191616 27:0.0025906735751295333 28:0.0 29:0.0 30:0.09917355371900827 31:1.0 32:0.76014260020555 33:0.27527913528431125 34:0.07936507936507936 35:0.1783783783783784 36:0.06654991243432574 37:0.8219297684821301 38:0.01126126126126126 39:0.3333333333333333 40:0.0045045045045045045 41:0.696969696969697 42:0.021021021021021023 43:0.15801948907031868 44:0.02290909090909091 45:0.7749455556529156 46:0.057057057057057055 47:0.013089005235602094 48:1.0 49:0.2269299541320065 50:1.0 51:0.026084365370079604 52:0.05770110691643935 53:0.9999999999999997 54:0.01628599892291185 55:0.08525857169469826 56:0.3619394149242698 57:0.5625628968625042 58:0.33029440081269956 59:0.1217302928892973 60:0.46237245238627356 61:0.003887809724292765 62:0.009827787715090443 
0.0 0.4410780121580865 0.0 0.0 0:0.0 1:0.0 2:1.0 3:0.1518987341772152 4:0.0 5:0.0 6:0.07692307692307693 7:0.0 8:0.0 9:0.0 10:1.0 11:0.0 12:0.0 13:0.0 14:0.0 15:0.0 16:0.0 17:0.0 18:0.042735042735042736 19:0.0 20:0.0 21:0.07725694444444443 22:0.0 23:0.0 24:1.0 25:0.026402640264026403 26:0.01397205588822355 27:0.03022452504317789 28:1.0 29:0.04 30:0.09917355371900827 31:0.0 32:0.015178571428571428 33:0.015348615048496278 34:0.23809523809523808 35:0.34594594594594597 36:0.14711033274956217 37:0.05834405785887226 38:0.02475247524752475 39:0.41830065359477125 40:0.03850385038503851 41:0.32679738562091504 42:0.09790979097909791 43:0.16513036607848303 44:0.01976470588235294 45:0.8500883718842768 46:0.0924092409240924 47:0.07728557964184732 48:1.0 49:0.26422090254122327 50:1.0 51:0.021258503401360547 52:0.05770515611692472 53:0.9999999999999998 54:0.015364524136079288 55:0.11451542750849687 56:0.46472996397024746 57:0.5569024018808946 58:0.6005363276523545 59:0.2211893777820812 60:0.5002518342198506 61:0.004069955290697584 62:0.014924163808950279 
3.0868053684491397 0.8529542921717466 0.0 0.0 0:0.0 1:0.0 2:1.0 3:0.02531645569620253 4:1.0 5:0.0 6:0.0 7:0.0 8:0.0 9:0.0 10:1.0 11:0.0 12:0.0 13:0.0 14:0.0 15:0.0 16:0.0 17:1.0 18:0.011111111111111112 19:0.0 20:0.0 21:0.005208333333333333 22:0.0 23:0.0 24:0.0 25:0.0 26:0.015968063872255488 27:0.0025906735751295333 28:0.0 29:0.0 30:0.03305785123966942 31:1.0 32:8.564576909880692E-6 33:1.2878744324457474E-5 34:0.06349206349206349 35:0.0972972972972973 36:0.03152364273204904 37:2.2356985121891804E-5 38:0.01639344262295082 39:0.34615384615384615 40:0.00819672131147541 41:0.6346153846153846 42:0.01639344262295082 43:0.08743745061890967 44:0.024153846153846154 45:0.13677232111372087 46:0.04918032786885246 47:0.016786570743405275 48:1.0 49:0.1028434268833087 50:1.0 51:0.026093631897203328 52:0.05769975718294424 53:0.9999999999999998 54:0.016285998922911937 55:0.04506092906634364 56:0.35400844440394735 57:0.6185649273736052 58:0.05126013822459516 59:0.01903530127457181 60:0.6585277890402919 61:0.0021006743345549275 62:0.013554343398047137 
0.0 4.2495194100362 0.0 0.0 0:0.0 1:0.0 2:1.0 3:0.0759493670886076 4:0.0 5:0.0 6:0.0 7:0.0 8:0.0 9:0.0 10:1.0 11:0.0 12:0.0 13:0.0 14:0.0 15:0.0 16:0.0 17:1.0 18:0.011111111111111112 19:0.0 20:0.0 21:0.013888888888888888 22:0.0 23:0.0 24:0.25 25:0.008130081300813007 26:0.021956087824351295 27:0.0034542314335060447 28:0.0 29:0.0 30:0.0743801652892562 31:1.0 32:0.03032716683795818 33:0.005716955096880061 34:0.07936507936507936 35:0.24864864864864866 36:0.08756567425569177 37:0.04364293015626986 38:0.01016260162601626 39:0.368 40:0.005420054200542005 41:0.688 42:0.02168021680216802 43:0.17224124308664737 44:0.019616 45:4.317078748218098E-4 46:0.06775067750677506 47:0.015081206496519721 48:1.0 49:0.20716395864106352 50:1.0 51:0.02609481292517006 52:0.05769975718294424 53:0.9999999999999998 54:0.04394702435348023 55:0.0973393917552849 56:0.3707188164882169 57:0.5485648383161007 58:0.4351679910695748 59:0.1603276764942421 60:0.675392290168161 61:0.004335413918480364 62:0.014354474451610748 
0.0 0.6909976895982685 0.0 0.0 0:0.0 1:0.0 2:1.0 3:0.22784810126582278 4:0.0 5:0.0 6:0.0 7:0.0 8:0.0 9:0.0 10:1.0 11:0.0 12:0.0 13:0.0 14:1.0 15:0.0 16:0.0 17:0.0 18:0.037037037037037035 19:0.0 20:0.0 21:0.0720486111111111 22:0.0 23:0.0 24:0.25 25:0.008645533141210374 26:0.02594810379241517 27:0.027633851468048358 28:1.0 29:0.0 30:0.09090909090909091 31:0.0 32:0.01515930113052415 33:0.007122549301445105 34:0.1746031746031746 35:0.2864864864864865 36:0.10332749562171628 37:0.045235476729155226 38:0.02377521613832853 39:0.5096153846153846 40:0.04610951008645533 41:0.34615384615384615 42:0.11959654178674352 43:0.12404529892020016 44:0.022692307692307692 45:0.913094212763593 46:0.08501440922190202 47:0.07151819322459223 48:1.0 49:0.27165301463676644 50:1.0 51:0.021258503401360547 52:0.05770515611692472 53:0.9999999999999998 54:0.015364524136079288 55:0.12729761268798517 56:0.560238700754295 57:0.5668412193753507 58:0.6113130950277191 59:0.22515562918426327 60:0.40880350285346057 61:0.003752410065611454 62:0.008419645074317876 
0.0 8.0 0.0 0.0 0:0.0 1:0.0 2:1.0 3:0.0 4:0.0 5:0.0 6:0.0 7:0.0 8:0.0 9:0.0 10:1.0 11:0.0 12:0.0 13:0.0 14:0.0 15:0.0 16:0.0 17:0.0 18:0.0 19:0.0 20:0.0 21:0.0 22:0.0 23:0.0 24:0.0 25:0.0 26:0.00998003992015968 27:0.0 28:0.0 29:0.0 30:0.008264462809917356 31:1.0 32:0.004809009934909176 33:0.004519634335654285 34:0.0 35:0.010810810810810811 36:0.005253940455341506 37:0.0096120421295866 38:0.0 39:0.2857142857142857 40:0.0 41:0.14285714285714285 42:0.0 43:0.01790887542796945 44:0.040571428571428564 45:0.004537207021023298 46:0.038461538461538464 47:0.0 48:1.0 49:0.042065377946182 50:1.0 51:0.024801587301587304 52:0.15563237038846683 53:0.9999999999999998 54:0.0037728595162867602 55:0.002067271306221 56:0.13019048875101374 57:0.5189318442918593 58:0.06572089910686091 59:0.03270441774245335 60:0.26271326286110663 61:0.0017018727637557424 62:0.014121762245119997 
0.0 8.0 0.0 0.0 0:0.0 1:0.0 2:1.0 3:0.0 4:0.0 5:0.0 6:0.0 7:0.0 8:0.0 9:0.0 10:1.0 11:0.0 12:0.0 13:0.0 14:0.0 15:0.0 16:0.0 17:0.0 18:0.037037037037037035 19:0.0 20:0.0 21:0.00954861111111111 22:0.0 23:0.0 24:0.0 25:0.0 26:0.00998003992015968 27:0.0069084628670120895 28:0.0 29:0.0 30:0.01652892561983471 31:0.0 32:8.564576909880692E-6 33:1.073228693737199E-5 34:0.0 35:0.07567567567567568 36:0.024518388791593695 37:3.232641940829429E-5 38:0.0 39:0.4375 40:0.03404255319148936 41:0.59375 42:0.04680851063829787 43:0.05003950487226758 44:0.025375 45:0.10753159268148293 46:0.059574468085106386 47:0.041353383458646614 48:1.0 49:0.06383661935649604 50:1.0 51:0.020094797178130463 52:0.05393130126456532 53:0.8401766432249844 54:0.015681853201743486 55:0.009161116467832724 56:0.24130505040243605 57:0.5132161336575027 58:0.5496730757531424 59:0.2585028468462859 60:0.46965754241238816 61:0.0011536995029657006 62:0.015435048120874945 
0.0 3.9122570173326663 0.0 0.0 0:0.0 1:0.0 2:1.0 3:0.0 4:0.0 5:0.0 6:0.0 7:0.0 8:1.0 9:0.0 10:1.0 11:0.0 12:0.0 13:0.0 14:0.0 15:0.0 16:0.0 17:0.0 18:0.0 19:0.0 20:0.0 21:0.001736111111111111 22:0.0 23:0.0 24:0.0 25:0.0 26:0.011976047904191616 27:0.0 28:1.0 29:1.0 30:0.008264462809917356 31:0.0 32:5.738266529633451E-4 33:5.392974185037553E-4 34:0.0 35:0.0 36:0.0 37:0.0023389507763769933 38:0.0 39:0.0 40:0.0 41:0.0 42:1.0 43:0.0 44:0.0 45:5.727609428329027E-4 46:0.0 47:0.0 48:1.0 49:0.041138942141487785 50:1.0 51:0.020077475434618294 52:0.05758637956935405 53:0.23480362370877755 54:0.01518450091613512 55:6.540209734066628E-5 56:0.19906803667603393 57:0.5221227746756081 58:0.559329677343971 59:0.2630083446514633 60:0.006092957929469529 61:0.059083645946697336 62:0.01394640368836839 
8.0 0.6102392713823355 8.0 0.0 0:0.0 1:0.0 2:1.0 3:0.0 4:0.0 5:0.0 6:0.0 7:0.0 8:0.0 9:0.0 10:1.0 11:0.0 12:0.0 13:0.0 14:0.0 15:0.0 16:0.0 17:1.0 18:0.0 19:0.0 20:0.0 21:0.0 22:0.0 23:1.0 24:0.0 25:0.0 26:0.01397205588822355 27:0.0 28:0.0 29:0.0 30:0.01652892561983471 31:1.0 32:0.2500535286056869 33:0.16954598593303988 34:0.0 35:0.02702702702702703 36:0.012259194395796848 37:0.47848091986596425 38:0.0 39:0.3125 40:0.0 41:0.4375 42:0.0 43:0.030813800368712143 44:0.029 45:0.24962759852877378 46:0.05303030303030303 47:0.006802721088435374 48:1.0 49:0.06111521418020679 50:1.0 51:0.024801587301587304 52:0.07890272065780612 53:0.9999999999999998 54:0.012421602176145087 55:0.016522084654375505 56:0.40910080675994215 57:0.5073543687158799 58:0.13396313688908715 59:0.06454432018186165 60:0.30956955293170085 61:0.0016142128662127897 62:0.010622105404994595 
0.0 8.0 0.0 0.0 0:0.0 1:0.0 2:1.0 3:0.0 4:0.0 5:0.0 6:0.0 7:0.0 8:1.0 9:0.0 10:1.0 11:0.0 12:0.0 13:0.0 14:0.0 15:0.0 16:0.0 17:0.0 18:0.0 19:0.0 20:0.0 21:0.001736111111111111 22:0.0 23:0.0 24:0.0 25:0.0 26:0.01397205588822355 27:0.0 28:1.0 29:1.0 30:0.008264462809917356 31:0.0 32:0.001049160671462834 33:9.860288621879835E-4 34:0.0 35:0.0 36:0.0 37:0.0056460800927739 38:0.0 39:0.0 40:0.0 41:0.0 42:1.0 43:0.0 44:0.0 45:0.001047212171597473 46:0.0 47:0.0 48:1.0 49:0.040251107828655826 50:1.0 51:0.020077475434618294 52:0.03424003930423938 53:0.18597585155406052 54:0.015283666249155189 55:8.21940895015036E-5 56:0.2380137117982378 57:0.5221218841005639 58:0.5386481337168936 59:0.25335892000211485 60:0.006092957929469529 61:0.05621632185751956 62:0.01394640368836839 
0.0 8.0 0.003906346057167566 0.0 0:0.0 1:0.0 2:1.0 3:0.0 4:0.0 5:0.0 6:0.0 7:0.0 8:0.0 9:1.0 10:1.0 11:0.0 12:0.0 13:1.0 14:0.0 15:0.0 16:0.0 17:0.0 18:0.0 19:0.0 20:0.0 21:0.0 22:1.0 23:0.0 24:0.0 25:0.0 26:0.02594810379241517 27:0.0 28:0.0 29:1.0 30:0.0 31:0.0 32:0.0 33:2.0589521004029767E-15 34:0.0 35:0.005405405405405406 36:0.0017513134851138354 37:0.0 38:0.0 39:1.0 40:0.0 41:0.0 42:0.0 43:0.004477218856992362 44:0.068 45:0.0 46:0.05555555555555555 47:0.0 48:1.0 49:0.01938700147710487 50:1.0 51:0.02362055933484505 52:0.060812242622694156 53:0.9999999999999998 54:0.00457686152400335 55:0.0 56:0.0 57:0.5309546073899918 58:0.05220648518049635 59:0.026398973564107545 60:0.12717705642930263 61:0.0015145797520239022 62:0.01394640368836839 
0.0 8.0 0.0 0.0 0:0.0 1:0.0 2:1.0 3:0.0 4:0.0 5:0.0 6:0.0 7:0.0 8:1.0 9:0.0 10:1.0 11:0.0 12:0.0 13:0.0 14:0.0 15:0.0 16:0.0 17:0.0 18:0.0 19:0.0 20:0.0 21:0.0 22:1.0 23:0.0 24:0.0 25:0.0 26:0.02594810379241517 27:0.0 28:0.0 29:0.0 30:0.0 31:0.0 32:0.0 33:2.0589521004029767E-15 34:0.0 35:0.0 36:0.0017513134851138354 37:0.0 38:0.0 39:0.0 40:0.0 41:0.0 42:0.0 43:0.0026336581511719782 44:0.048 45:0.0 46:0.07692307692307693 47:0.0 48:1.0 49:0.01938700147710487 50:1.0 51:0.02362055933484505 52:0.060630028600852766 53:0.9999999999999998 54:0.00457686152400335 55:0.0 56:0.0 57:0.5309546073899918 58:0.2876093248007601 59:0.13623129576003953 60:0.09171992404709794 61:0.0021000867215166166 62:0.01394640368836839 
8.0 2.8495784463607 8.0 0.0 0:0.0 1:0.0 2:1.0 3:0.0 4:0.0 5:0.0 6:0.0 7:0.0 8:0.0 9:0.0 10:1.0 11:0.0 12:0.0 13:0.0 14:0.0 15:0.0 16:0.0 17:1.0 18:0.1111111111111111 19:0.0 20:0.0 21:0.021701388888888888 22:0.0 23:0.0 24:0.0 25:0.0 26:0.02594810379241517 27:8.635578583765112E-4 28:0.0 29:0.0 30:0.01652892561983471 31:1.0 32:0.0017921377183967033 33:0.002162555817476501 34:0.07936507936507936 35:0.06486486486486487 36:0.0297723292469352 37:0.008321321901714281 38:0.03658536585365854 39:0.46153846153846156 40:0.004878048780487805 41:0.4230769230769231 42:0.12195121951219512 43:0.03871477482222808 44:0.027538461538461543 45:0.12884984046043135 46:0.08292682926829269 47:0.04782608695652174 48:1.0 49:0.06111521418020679 50:1.0 51:0.024801587301587304 52:0.03327093065474223 53:0.9999999999999998 54:0.01105769744199208 55:0.011198701226202906 56:0.22553527071200657 57:0.5073543687158799 58:0.3042650312246212 59:0.14400237837440952 60:0.5045616293485438 61:0.001312931665792917 62:0.013149324745161665 
0.0 8.0 0.0 0.0 0:0.0 1:0.0 2:1.0 3:0.0 4:0.0 5:0.0 6:0.0 7:0.0 8:0.0 9:0.0 10:1.0 11:0.0 12:0.0 13:0.0 14:0.0 15:0.0 16:0.0 17:0.0 18:0.0 19:0.0 20:0.0 21:0.001736111111111111 22:0.0 23:0.0 24:0.0 25:0.0 26:0.02594810379241517 27:0.0025906735751295333 28:1.0 29:0.0 30:0.0 31:0.0 32:0.0 33:2.0589521004029767E-15 34:0.0 35:0.016216216216216217 36:0.010507880910683012 37:0.0 38:0.0 39:0.375 40:0.06521739130434782 41:0.5 42:0.043478260869565216 43:0.008164340268633132 44:0.019 45:0.0 46:0.13043478260869565 47:0.09433962264150944 48:1.0 49:0.01938700147710487 50:1.0 51:0.020077475434618294 52:0.0336610036348323 53:0.9999999999999998 54:0.004451760642347268 55:6.126051339891976E-4 56:0.09911564448386495 57:0.5322904699564509 58:0.359354977640139 59:0.1697057928031662 60:0.286227152341122 61:5.720170992241223E-4 62:0.01394640368836839 
0.0 5.598844215033177 0.0 0.0 0:0.0 1:0.0 2:1.0 3:0.0 4:0.0 5:0.0 6:0.0 7:0.0 8:0.0 9:0.0 10:1.0 11:0.0 12:0.0 13:0.0 14:0.0 15:0.0 16:0.0 17:0.0 18:0.018518518518518517 19:0.0 20:0.0 21:0.006944444444444444 22:0.0 23:1.0 24:0.0 25:0.0 26:0.02594810379241517 27:8.635578583765112E-4 28:1.0 29:0.0 30:0.01652892561983471 31:0.0 32:0.03236767728674204 33:0.04033595891067487 34:0.047619047619047616 35:0.02702702702702703 36:0.014010507880910683 37:0.13113068133329883 38:0.021951219512195124 39:0.1724137931034483 40:0.004878048780487805 41:0.4827586206896552 42:0.03902439024390244 43:0.04661574927574401 44:0.024275862068965516 45:0.35654154974578395 46:0.03902439024390244 47:0.017167381974248927 48:1.0 49:0.06111521418020679 50:1.0 51:0.020077475434618245 52:0.03366235336832744 53:0.9999999999999998 54:0.0044502350218392165 55:0.012079510441625169 56:0.32637228965445025 57:0.5144789690703288 58:0.4586605714197425 59:0.2160389805822692 60:0.4110845041992377 61:0.0010738985289390364 62:0.01121529781454898 
0.0 2.4033652250681494 0.0 0.0 0:0.0 1:1.0 2:1.0 3:0.0 4:1.0 5:0.0 6:0.0 7:0.0 8:0.0 9:0.0 10:1.0 11:0.0 12:0.0 13:0.0 14:0.0 15:0.0 16:0.0 17:0.0 18:0.0 19:0.0 20:0.0 21:0.017361111111111112 22:0.0 23:0.0 24:0.0 25:0.0 26:0.049900199600798396 27:0.0025906735751295333 28:0.0 29:0.0 30:0.01652892561983471 31:0.0 32:0.0 33:2.0589521004029767E-15 34:0.015873015873015872 35:0.05945945945945946 36:0.024518388791593695 37:0.0 38:0.00847457627118644 39:0.3333333333333333 40:0.01694915254237288 41:0.5454545454545454 42:0.11299435028248588 43:0.03371082433500132 44:0.017454545454545455 45:0.5962826105075987 46:0.07909604519774012 47:0.023923444976076555 48:1.0 49:0.05630042040677195 50:1.0 51:0.020077475434618294 52:0.042872934739035785 53:0.9999999999999998 54:0.01777653015922908 55:0.015401042772612426 56:0.421048615411066 57:0.5149251471675262 58:0.5201016647015482 59:0.2449132952075697 60:0.35830176718180534 61:0.0010116388548762681 62:0.009543745883297258 
0.0 0.0 0.0 0.8058756930791193 0:0.0 1:0.0 2:1.0 3:0.0 4:0.0 5:0.0 6:0.0 7:0.0 8:1.0 9:0.0 10:1.0 11:0.0 12:0.0 13:0.0 14:0.0 15:0.0 16:0.0 17:0.0 18:0.0 19:0.0 20:0.0 21:0.0 22:0.0 23:1.0 24:0.0 25:0.0 26:0.001996007984031936 27:0.0 28:0.0 29:0.0 30:0.049586776859504134 31:0.0 32:0.06539054470709148 33:0.04591502328523165 34:0.015873015873015872 35:0.043243243243243246 36:0.017513134851138354 37:0.1915390573429742 38:0.01764705882352941 39:0.5714285714285714 40:0.0 41:0.7142857142857143 42:0.0 43:0.018698972873321045 44:0.020285714285714285 45:1.2823006182826634E-4 46:0.11764705882352941 47:0.04081632653061224 48:1.0 49:0.1283440013129821 50:1.0 51:0.018849206349206338 52:0.04288508234049188 53:0.31036294127374775 54:0.012946415630897483 55:0.005645016979786256 56:0.3683808103879958 57:0.4630981324641322 58:0.3261922764569156 59:0.15918867138163198 60:0.07150094663787018 61:0.014808465003535411 62:0.011258626344264885 
0.0 8.0 0.0 0.0 0:0.0 1:0.0 2:1.0 3:0.0 4:0.0 5:0.0 6:0.0 7:1.0 8:0.0 9:0.0 10:1.0 11:0.0 12:0.0 13:0.0 14:0.0 15:0.0 16:0.0 17:0.0 18:0.0 19:0.0 20:0.0 21:8.680555555555555E-4 22:1.0 23:0.0 24:0.0 25:0.0 26:0.003992015968063872 27:0.0 28:1.0 29:1.0 30:0.0 31:1.0 32:0.0 33:2.0589521004029767E-15 34:0.0 35:0.0 36:0.0 37:0.0 38:0.0 39:0.0 40:0.0 41:0.0 42:1.0 43:0.0 44:0.0 45:0.0 46:0.0 47:0.0 48:1.0 49:0.01896120338829771 50:1.0 51:0.02834467120181406 52:0.13439701330972204 53:0.34459504541858493 54:0.015741352401555542 55:0.0 56:0.0 57:0.5135492087240732 58:0.2722244271462521 59:0.13310266615312644 60:0.009963778261132523 61:0.023198404003976186 62:0.01394640368836839 
0.0 8.0 0.0 0.0 0:0.0 1:0.0 2:1.0 3:0.0 4:0.0 5:0.0 6:0.0 7:0.0 8:0.0 9:0.0 10:1.0 11:0.0 12:0.0 13:0.0 14:0.0 15:0.0 16:0.0 17:0.0 18:0.0 19:0.0 20:0.0 21:0.0 22:0.0 23:0.0 24:0.0 25:0.0 26:0.003992015968063872 27:0.0 28:0.0 29:1.0 30:0.0 31:1.0 32:0.0 33:2.0589521004029767E-15 34:0.0 35:0.010810810810810811 36:0.0035026269702276708 37:0.0 38:0.0 39:1.0 40:0.0 41:0.5 42:0.0 43:0.004477218856992362 44:0.034 45:0.0 46:0.10526315789473684 47:0.0 48:1.0 49:0.01896120338829771 50:1.0 51:0.02834467120181406 52:0.15732898539183443 53:0.6799919933659317 54:0.015741352401555542 55:1.5096367223120844E-4 56:0.026600352960051442 57:0.5135492087240732 58:0.2722244271462521 59:0.13310266615312644 60:0.1861637586979587 61:0.001241615205475125 62:0.01394640368836839 
0.0 8.0 0.0 0.16002414317512514 0:0.0 1:0.0 2:1.0 3:0.0 4:0.0 5:0.0 6:0.0 7:0.0 8:0.0 9:0.0 10:1.0 11:0.0 12:0.0 13:0.0 14:0.0 15:0.0 16:0.0 17:0.0 18:0.0 19:0.0 20:0.0 21:0.0 22:0.0 23:0.0 24:0.0 25:0.0 26:0.003992015968063872 27:0.0 28:0.0 29:0.0 30:0.01652892561983471 31:0.0 32:0.0 33:2.0589521004029767E-15 34:0.0 35:0.010810810810810811 36:0.0035026269702276708 37:0.0 38:0.0 39:0.4 40:0.0 41:0.4 42:0.0 43:0.010007900974453516 44:0.0304 45:0.0868288491993101 46:0.046511627906976744 47:0.02127659574468085 48:1.0 49:0.0598378199137853 50:1.0 51:0.018849206349206393 52:0.604914109709038 53:0.0 54:0.012741982482825376 55:0.0027819798959061387 56:0.37941463117321295 57:0.49928308708933367 58:0.4426508916423078 59:0.214988732664401 60:0.07690567339505432 61:0.005239320094432999 62:0.025333752985664745 
0.0 5.695455471846208 0.4208717192345589 0.0 0:0.0 1:0.0 2:1.0 3:0.0 4:0.0 5:0.0 6:0.0 7:0.0 8:1.0 9:0.0 10:1.0 11:0.0 12:0.0 13:0.0 14:0.0 15:0.0 16:0.0 17:0.0 18:0.0 19:0.0 20:0.0 21:0.0 22:0.0 23:1.0 24:0.0 25:0.0 26:0.005988023952095808 27:0.0 28:0.0 29:1.0 30:0.008264462809917356 31:0.0 32:0.08568859198355605 33:0.08053239809118802 34:0.0 35:0.010810810810810811 36:0.0035026269702276708 37:0.34525605408819376 38:0.0 39:1.0 40:0.0 41:1.0 42:0.0 43:0.006320779562812747 44:0.048 45:2.1371676971387848E-5 46:0.07692307692307693 47:0.0 48:1.0 49:0.03494024439371558 50:1.0 51:0.018849206349206258 52:0.03187125702030134 53:0.3066295687608722 54:0.012937261907849454 55:0.0017356176395023648 56:0.37665406996848866 57:0.4907852200165648 58:0.5056302815575325 59:0.2539131421106612 60:0.07087991720745401 61:0.0034406714376803336 62:0.009809688465292819 
0.0 4.818855823370056 0.0 0.0 0:0.0 1:0.0 2:1.0 3:0.0 4:0.0 5:0.0 6:0.0 7:0.0 8:1.0 9:0.0 10:1.0 11:0.0 12:0.0 13:0.0 14:0.0 15:0.0 16:0.0 17:0.0 18:0.0 19:0.0 20:0.0 21:0.0 22:0.0 23:1.0 24:0.0 25:0.0 26:0.005988023952095808 27:0.0 28:0.0 29:0.0 30:0.01652892561983471 31:0.0 32:0.07579650565262075 33:0.08129707353533215 34:0.0 35:0.010810810810810811 36:0.0035026269702276708 37:0.22425223702419245 38:0.0 39:0.5 40:0.0 41:1.0 42:0.0 43:0.009217803529101924 44:0.033 45:1.1113272025114392E-4 46:0.05405405405405406 47:0.0 48:1.0 49:0.05314891902779642 50:1.0 51:0.018849206349206348 52:0.03511061740859268 53:0.3066295687608722 54:0.012949466871913479 55:0.0029033030924325524 56:0.4197418332890125 57:0.4818625486476619 58:0.12160751515362203 59:0.06305665342202556 60:0.06696877583066951 61:0.005553985269306882 62:0.02107895271321847 
0.0 0.0 0.5753387700423092 0.0 0:0.0 1:0.0 2:1.0 3:0.0 4:0.0 5:0.0 6:0.0 7:0.0 8:1.0 9:0.0 10:1.0 11:0.0 12:0.0 13:0.0 14:0.0 15:0.0 16:0.0 17:0.0 18:0.0 19:0.0 20:0.0 21:0.0 22:0.0 23:1.0 24:0.0 25:0.0 26:0.005988023952095808 27:0.0 28:0.0 29:0.0 30:0.01652892561983471 31:0.0 32:0.09879239465570401 33:0.06318633933191704 34:0.0 35:0.016216216216216217 36:0.005253940455341506 37:0.3625378982036891 38:0.0 39:0.6 40:0.0 41:1.0 42:0.0 43:0.009481169344219121 44:0.0272 45:6.411503091413317E-5 46:0.07692307692307693 47:0.0 48:1.0 49:0.05314891902779642 50:1.0 51:0.018849206349206393 52:0.03438176132122713 53:0.3066295687608722 54:0.012955569353945469 55:0.002570886427877521 56:0.368646416856655 57:0.4818625486476619 58:0.36738733884339014 59:0.18520741698015036 60:0.07450383336158295 61:0.0055086092960064505 62:0.010766110622672714 
0.0 8.0 0.0 0.0 0:0.0 1:0.0 2:1.0 3:0.0 4:0.0 5:0.0 6:0.0 7:1.0 8:0.0 9:0.0 10:1.0 11:0.0 12:0.0 13:0.0 14:0.0 15:0.0 16:0.0 17:0.0 18:0.0 19:0.0 20:0.0 21:8.680555555555555E-4 22:1.0 23:0.0 24:0.0 25:0.0 26:0.007984031936127744 27:0.0 28:1.0 29:1.0 30:0.0 31:1.0 32:0.0 33:2.0589521004029767E-15 34:0.0 35:0.0 36:0.0 37:0.0 38:0.0 39:0.0 40:0.0 41:0.0 42:1.0 43:0.0 44:0.0 45:0.0 46:0.0 47:0.0 48:1.0 49:0.01778207021929326 50:1.0 51:0.02834467120181406 52:0.13439701330972204 53:0.34457285833432616 54:0.0157260961964755 55:0.0 56:0.0 57:0.5091016769528085 58:0.12158144232932677 59:0.06130003043391364 60:0.009963778261132523 61:0.023198404003976186 62:0.01394640368836839 
0.0 4.67774765442834 0.0 0.0 0:0.0 1:0.0 2:1.0 3:0.0 4:0.0 5:0.0 6:0.0 7:1.0 8:0.0 9:0.0 10:1.0 11:0.0 12:0.0 13:0.0 14:0.0 15:0.0 16:0.0 17:0.0 18:0.0 19:0.0 20:0.0 21:8.680555555555555E-4 22:1.0 23:0.0 24:0.0 25:0.0 26:0.007984031936127744 27:0.0 28:1.0 29:1.0 30:0.0 31:1.0 32:0.0 33:2.0589521004029767E-15 34:0.0 35:0.0 36:0.0 37:0.0 38:0.0 39:0.0 40:0.0 41:0.0 42:1.0 43:0.0 44:0.0 45:0.0 46:0.0 47:0.0 48:1.0 49:0.01778207021929326 50:1.0 51:0.02834467120181406 52:0.13439701330972204 53:0.34457285833432616 54:0.0157260961964755 55:0.0 56:0.0 57:0.5091016769528085 58:0.6034651749148529 59:0.2948153842474788 60:0.009963778261132523 61:0.023198404003976186 62:0.01394640368836839 
0.0 8.0 0.0 0.0 0:0.0 1:0.0 2:1.0 3:0.0 4:0.0 5:0.0 6:0.0 7:0.0 8:0.0 9:0.0 10:1.0 11:0.0 12:0.0 13:0.0 14:0.0 15:0.0 16:0.0 17:0.0 18:0.0 19:0.0 20:0.0 21:0.0 22:0.0 23:0.0 24:0.0 25:0.0 26:0.007984031936127744 27:0.0 28:0.0 29:0.0 30:0.024793388429752067 31:0.0 32:0.0 33:2.0589521004029767E-15 34:0.0 35:0.021621621621621623 36:0.0070052539404553416 37:0.0 38:0.0 39:0.5714285714285714 40:0.0 41:0.7142857142857143 42:0.0 43:0.0121148274953911 44:0.024571428571428574 45:0.07857297038526732 46:0.08 47:0.0 48:1.0 49:0.07555959550051129 50:1.0 51:0.01884920634920634 52:0.604914109709038 53:0.0 54:0.012741982482825376 55:0.0036095433303085654 56:0.3949328701991161 57:0.4859119933741217 58:0.18794836808261411 59:0.09346068475948155 60:0.07054988198627438 61:0.0077470933175713816 62:0.02479978932683029 
0.0 8.0 0.0 1.041377368085697 0:0.0 1:0.0 2:1.0 3:0.0 4:0.0 5:0.0 6:0.0 7:0.0 8:0.0 9:0.0 10:1.0 11:0.0 12:0.0 13:0.0 14:0.0 15:0.0 16:0.0 17:1.0 18:0.0 19:0.0 20:0.0 21:0.0 22:0.0 23:0.0 24:0.0 25:0.0 26:0.007984031936127744 27:0.0 28:0.0 29:0.0 30:0.01652892561983471 31:0.0 32:0.0 33:2.0589521004029767E-15 34:0.0 35:0.010810810810810811 36:0.0035026269702276708 37:0.0 38:0.0 39:0.4 40:0.0 41:0.6 42:0.0 43:0.011324730050039505 44:0.032799999999999996 45:0.063373433723224 46:0.043478260869565216 47:0.02 48:1.0 49:0.05630042040677195 50:1.0 51:0.018849206349206393 52:0.604914109709038 53:0.0 54:0.012741982482825376 55:0.002188524290526811 56:0.29804100165198516 57:0.49483555531806894 58:0.38413092034172774 59:0.18852850922625658 60:0.08685800247053506 61:0.005231659715308552 62:0.011742430841849356 
0.0 6.303997286988513 0.0 0.0 0:0.0 1:0.0 2:1.0 3:0.0 4:0.0 5:0.0 6:0.0 7:0.0 8:1.0 9:0.0 10:1.0 11:0.0 12:0.0 13:0.0 14:0.0 15:0.0 16:0.0 17:0.0 18:0.0 19:0.0 20:0.0 21:0.0 22:0.0 23:1.0 24:0.0 25:0.0 26:0.00998003992015968 27:8.635578583765112E-4 28:0.0 29:0.0 30:0.04132231404958678 31:0.0 32:0.030577680712572802 33:0.02978343778148495 34:0.0 35:0.021621621621621623 36:0.012259194395796848 37:0.0723389282424862 38:0.0 39:0.4444444444444444 40:0.0136986301369863 41:0.6666666666666666 42:0.0 43:0.01685541216750066 44:0.028444444444444442 45:7.693803709695981E-5 46:0.0958904109589041 47:0.024691358024691357 48:1.0 49:0.10777494293003892 50:1.0 51:0.01884920634920636 52:0.04814769323797017 53:0.3104157849418426 54:0.012960146215469493 55:0.0036842093662056755 56:0.3017808593016358 57:0.4676489709405363 58:0.12282424695406644 59:0.06195730985508872 60:0.07166269305255947 61:0.0135205771760765 62:0.014946587417240234 
0.0 8.0 0.741030519031177 0.0 0:0.0 1:0.0 2:1.0 3:0.0 4:0.0 5:0.0 6:0.0 7:0.0 8:1.0 9:0.0 10:1.0 11:0.0 12:0.0 13:0.0 14:0.0 15:0.0 16:0.0 17:0.0 18:0.0 19:0.0 20:0.0 21:0.0 22:0.0 23:1.0 24:0.0 25:0.0 26:0.00998003992015968 27:0.0 28:0.0 29:0.0 30:0.008264462809917356 31:0.0 32:0.03597122302158273 33:0.03380670384637699 34:0.0 35:0.005405405405405406 36:0.0017513134851138354 37:0.1289107191465679 38:0.0 39:0.5 40:0.0 41:0.5 42:0.0 43:0.0052673163023439565 44:0.039999999999999994 45:4.7017689337010746E-5 46:0.045454545454545456 47:0.043478260869565216 48:1.0 49:0.03494024439371558 50:1.0 51:0.018849206349206393 52:0.059566438606697115 53:0.3104157849418426 54:0.012961671835977502 55:8.700366455057429E-4 56:0.27140831027221607 57:0.5033432187163251 58:0.34623841569931657 59:0.17030795932080958 60:0.05754559824857326 61:0.004945291915202208 62:0.01144766683837656 
0.0 8.0 0.0 0.0 0:0.0 1:0.0 2:1.0 3:0.0 4:0.0 5:0.0 6:0.0 7:0.0 8:0.0 9:0.0 10:1.0 11:0.0 12:0.0 13:0.0 14:0.0 15:0.0 16:0.0 17:0.0 18:0.0 19:0.0 20:0.0 21:0.0 22:0.0 23:0.0 24:0.0 25:0.0 26:0.011976047904191616 27:0.0 28:0.0 29:0.0 30:0.01652892561983471 31:0.0 32:0.0 33:2.0589521004029767E-15 34:0.0 35:0.016216216216216217 36:0.005253940455341506 37:0.0 38:0.0 39:0.6 40:0.0 41:0.8 42:0.0 43:0.009744535159336319 44:0.028799999999999996 45:0.054745687729879075 46:0.07317073170731707 47:0.022222222222222223 48:1.0 49:0.05521027842033387 50:1.0 51:0.018849206349206348 52:0.604914109709038 53:0.0 54:0.012824365990257396 55:0.0022806822138185857 56:0.3318897216511187 57:0.49928219651428934 58:0.1702188475618529 59:0.08409144375656359 60:0.07762249197499191 61:0.005590412732014346 62:0.01857305075362572 
0.0 8.0 0.0 0.0 0:0.0 1:0.0 2:1.0 3:0.0 4:0.0 5:0.0 6:0.0 7:0.0 8:0.0 9:0.0 10:1.0 11:0.0 12:0.0 13:0.0 14:0.0 15:0.0 16:0.0 17:0.0 18:0.0 19:0.0 20:0.0 21:0.0 22:0.0 23:0.0 24:0.0 25:0.0 26:0.011976047904191616 27:0.0 28:0.0 29:0.0 30:0.03305785123966942 31:0.0 32:0.0 33:2.2877245560033072E-15 34:0.0 35:0.02702702702702703 36:0.008756567425569177 37:1.476060568454954E-16 38:0.0 39:0.4166666666666667 40:0.0 41:0.9166666666666666 42:0.0 43:0.01580194890703187 44:0.017666666666666667 45:0.05131767074367013 46:0.07692307692307693 47:0.0 48:1.0 49:0.09300186728352051 50:1.0 51:0.018849206349206366 52:0.604914109709038 53:0.0 54:0.012766392410953424 55:0.004246657795107714 56:0.3833283498673388 57:0.4814350726263949 58:0.38639153077414073 59:0.18795771147084697 60:0.07197007879777574 61:0.010201938850628912 62:0.011061684846423494 
1.6481912504521494 0.0 0.0 0.0 0:0.0 1:0.0 2:1.0 3:0.0 4:0.0 5:0.0 6:0.0 7:0.0 8:1.0 9:0.0 10:1.0 11:0.0 12:0.0 13:0.0 14:0.0 15:0.0 16:0.0 17:0.0 18:0.0 19:0.0 20:0.0 21:0.0 22:0.0 23:1.0 24:0.0 25:0.0 26:0.01397205588822355 27:0.0 28:0.0 29:0.0 30:0.01652892561983471 31:0.0 32:0.06282117163412129 33:0.04837578336112424 34:0.0 35:0.010810810810810811 36:0.0035026269702276708 37:0.23052447739503118 38:0.0 39:0.4 40:0.0 41:0.8 42:0.0 43:0.011324730050039505 44:0.032 45:7.907520479407734E-5 46:0.044444444444444446 47:0.0 48:1.0 49:0.057433313059344855 50:1.0 51:0.018849206349206348 52:0.029522720738790136 53:0.3053241527147102 54:0.012993709866645527 55:0.0022931887034885697 56:0.31182511293083487 57:0.5023769447932531 58:0.12415685797360076 59:0.06155601482047559 60:0.08534422101109747 61:0.005223795173291115 62:0.012767410623543644 
0.0 8.0 0.0 0.0 0:0.0 1:0.0 2:1.0 3:0.0 4:0.0 5:0.0 6:0.0 7:1.0 8:0.0 9:0.0 10:1.0 11:0.0 12:0.0 13:0.0 14:0.0 15:0.0 16:0.0 17:0.0 18:0.0 19:0.0 20:0.0 21:8.680555555555555E-4 22:1.0 23:0.0 24:0.0 25:0.0 26:0.015968063872255488 27:0.0 28:1.0 29:1.0 30:0.0 31:1.0 32:0.0 33:2.0589521004029767E-15 34:0.0 35:0.0 36:0.0 37:0.0 38:0.0 39:0.0 40:0.0 41:0.0 42:1.0 43:0.0 44:0.0 45:0.0 46:0.0 47:0.0 48:1.0 49:0.017068767438043655 50:1.0 51:0.02834467120181406 52:0.13439701330972204 53:0.3445720372404688 54:0.0157260961964755 55:0.0 56:0.0 57:0.5128429827139385 58:0.3417519586002177 59:0.16674288965895803 60:0.009963778261132523 61:0.023198404003976186 62:0.01394640368836839 
0.0 8.0 0.0 0.0 0:0.0 1:0.0 2:1.0 3:0.0 4:0.0 5:0.0 6:0.0 7:0.0 8:0.0 9:0.0 10:1.0 11:0.0 12:0.0 13:0.0 14:0.0 15:0.0 16:0.0 17:0.0 18:0.0 19:0.0 20:0.0 21:0.0 22:0.0 23:0.0 24:0.0 25:0.0 26:0.015968063872255488 27:0.0 28:0.0 29:0.0 30:0.008264462809917356 31:1.0 32:0.0 33:2.0589521004029767E-15 34:0.0 35:0.021621621621621623 36:0.008756567425569177 37:0.0 38:0.0 39:0.5 40:0.0 41:0.625 42:0.0 43:0.0121148274953911 44:0.0225 45:0.5363457424413722 46:0.09433962264150944 47:0.016666666666666666 48:1.0 49:0.035614639750533396 50:1.0 51:0.02834467120181406 52:0.1573154880568832 53:0.6799912308084572 54:0.0157260961964755 55:0.013494740768924268 56:0.48080428135010406 57:0.5012476956370729 58:0.3417519586002177 59:0.16674288965895803 60:0.2541816283878078 61:0.001091410112408705 62:0.008027977419988955 
0.0 8.0 0.0 0.0 0:0.0 1:0.0 2:1.0 3:0.0 4:0.0 5:0.0 6:0.0 7:0.0 8:0.0 9:0.0 10:1.0 11:0.0 12:0.0 13:0.0 14:0.0 15:0.0 16:0.0 17:0.0 18:0.0 19:0.0 20:0.0 21:0.0 22:0.0 23:0.0 24:0.0 25:0.0 26:0.015968063872255488 27:0.0 28:0.0 29:0.0 30:0.03305785123966942 31:0.0 32:0.0 33:2.2877245560033072E-15 34:0.0 35:0.016216216216216217 36:0.005253940455341506 37:1.476060568454954E-16 38:0.0 39:0.5 40:0.0 41:1.0 42:0.0 43:0.01553858309191467 44:0.03733333333333334 45:0.05666700148960598 46:0.04838709677419355 47:0.0 48:1.0 49:0.0912522566880026 50:1.0 51:0.018849206349206366 52:0.604914109709038 53:0.0 54:0.012728251898253344 55:0.0037873595329542277 56:0.3612264251626102 57:0.4807297371913045 58:0.13597653832077491 59:0.06773907513287546 60:0.06666621865505414 61:0.01077958449705352 62:0.012899079799733324 
0.0 8.0 0.0 0.0 0:0.0 1:0.0 2:1.0 3:0.0 4:0.0 5:0.0 6:0.0 7:0.0 8:0.0 9:0.0 10:1.0 11:0.0 12:0.0 13:0.0 14:0.0 15:0.0 16:0.0 17:0.0 18:0.0 19:0.0 20:0.0 21:0.0 22:0.0 23:0.0 24:0.0 25:0.0 26:0.015968063872255488 27:0.0 28:0.0 29:0.0 30:0.01652892561983471 31:0.0 32:0.0 33:2.0589521004029767E-15 34:0.0 35:0.016216216216216217 36:0.005253940455341506 37:0.0 38:0.0 39:0.6 40:0.0 41:0.6 42:0.0 43:0.010007900974453516 44:0.0304 45:0.059567138054621646 46:0.06976744186046512 47:0.0 48:1.0 49:0.05416051206302313 50:1.0 51:0.018849206349206303 52:0.604914109709038 53:0.0 54:0.012786225477557317 55:0.0026106568345914904 56:0.3532732145304507 57:0.4985768610791989 58:0.5039500328807284 59:0.24478052914353984 60:0.08069137152034976 61:0.005198472690934972 62:0.018093690705282568 
0.0 8.0 0.0 0.0 0:0.0 1:0.0 2:1.0 3:0.0 4:0.0 5:0.0 6:0.0 7:1.0 8:0.0 9:0.0 10:1.0 11:0.0 12:0.0 13:0.0 14:0.0 15:0.0 16:0.0 17:0.0 18:0.0 19:0.0 20:0.0 21:8.680555555555555E-4 22:1.0 23:0.0 24:0.0 25:0.0 26:0.017964071856287425 27:0.0 28:1.0 29:1.0 30:0.0 31:1.0 32:0.0 33:2.0589521004029767E-15 34:0.0 35:0.0 36:0.0 37:0.0 38:0.0 39:0.0 40:0.0 41:0.0 42:1.0 43:0.0 44:0.0 45:0.0 46:0.0 47:0.0 48:1.0 49:0.018552437223042836 50:1.0 51:0.02834467120181406 52:0.13439701330972204 53:0.34940111296094484 54:0.0157260961964755 55:0.0 56:0.0 57:0.5139749035952516 58:0.29540027096424065 59:0.14411557186930787 60:0.009963778261132523 61:0.023198404003976186 62:0.01394640368836839 
0.0 4.574186911990056 0.0 0.0 0:0.0 1:0.0 2:1.0 3:0.0 4:0.0 5:0.0 6:0.0 7:0.0 8:1.0 9:0.0 10:1.0 11:0.0 12:0.0 13:0.0 14:0.0 15:0.0 16:0.0 17:0.0 18:0.0 19:0.0 20:0.0 21:0.0 22:0.0 23:1.0 24:0.0 25:0.0 26:0.017964071856287425 27:0.0 28:0.0 29:0.0 30:0.024793388429752067 31:0.0 32:0.11742034943473795 33:0.08850011498879047 34:0.0 35:0.016216216216216217 36:0.005253940455341506 37:0.32586443415245553 38:0.0 39:0.75 40:0.0 41:1.0 42:0.0 43:0.011588095865156703 44:0.043 45:1.0044688176546518E-4 46:0.06382978723404255 47:0.0 48:1.0 49:0.07864106351550959 50:1.0 51:0.018849206349206327 52:0.03511061740859268 53:0.308367020980981 54:0.012967774318009492 55:0.004166702905232158 56:0.44379872710911417 57:0.4907852200165647 58:0.3743400919887867 59:0.182013598446208 60:0.06427659938278932 61:0.00754156159101773 62:0.059017859379803986 
0.0 8.0 0.0 0.0 0:0.0 1:0.0 2:1.0 3:0.0 4:0.0 5:0.0 6:0.0 7:1.0 8:0.0 9:0.0 10:1.0 11:0.0 12:0.0 13:0.0 14:0.0 15:0.0 16:0.0 17:0.0 18:0.0 19:0.0 20:0.0 21:8.680555555555555E-4 22:1.0 23:0.0 24:0.0 25:0.0 26:0.01996007984031936 27:0.0 28:1.0 29:1.0 30:0.0 31:1.0 32:0.0 33:2.0589521004029767E-15 34:0.0 35:0.0 36:0.0 37:0.0 38:0.0 39:0.0 40:0.0 41:0.0 42:1.0 43:0.0 44:0.0 45:0.0 46:0.0 47:0.0 48:1.0 49:0.01673156975963475 50:1.0 51:0.02834467120181406 52:0.13439701330972204 53:0.3445769638623121 54:0.0157260961964755 55:0.0 56:0.0 57:0.5118882862664423 58:0.3996915681451889 59:0.19498712669849597 60:0.009963778261132523 61:0.023198404003976186 62:0.01394640368836839 
0.0 8.0 0.0 0.0 0:0.0 1:0.0 2:1.0 3:0.0 4:0.0 5:0.0 6:0.0 7:0.0 8:0.0 9:0.0 10:1.0 11:0.0 12:0.0 13:0.0 14:0.0 15:0.0 16:0.0 17:0.0 18:0.0 19:0.0 20:0.0 21:0.0 22:0.0 23:0.0 24:0.0 25:0.0 26:0.01996007984031936 27:0.0 28:0.0 29:0.0 30:0.0 31:1.0 32:0.0 33:2.0589521004029767E-15 34:0.0 35:0.010810810810810811 36:0.0070052539404553416 37:0.0 38:0.0 39:0.6666666666666666 40:0.0 41:0.3333333333333333 42:0.0 43:0.0034237555965235715 44:0.02 45:0.0 46:0.2222222222222222 47:0.05 48:1.0 49:0.01673156975963475 50:1.0 51:0.02834467120181406 52:0.1573154880568832 53:0.6799866553872914 54:0.0157260961964755 55:3.0921147822508273E-4 56:0.05914933639878834 57:0.5118882862664423 58:0.3996915681451889 59:0.19498712669849597 60:0.17148092478557042 61:0.0013479269125520697 62:0.01394640368836839 
0.0 8.0 0.0 0.0 0:0.0 1:0.0 2:1.0 3:0.0 4:0.0 5:0.0 6:0.0 7:0.0 8:0.0 9:0.0 10:1.0 11:0.0 12:0.0 13:0.0 14:0.0 15:0.0 16:0.0 17:0.0 18:0.0 19:0.0 20:0.0 21:0.0 22:0.0 23:0.0 24:0.0 25:0.0 26:0.01996007984031936 27:0.0 28:0.0 29:0.0 30:0.03305785123966942 31:0.0 32:0.0 33:2.2877245560033072E-15 34:0.0 35:0.016216216216216217 36:0.005253940455341506 37:1.476060568454954E-16 38:0.0 39:0.3333333333333333 40:0.0 41:1.0 42:0.0 43:0.015275217276797473 44:0.02311111111111111 45:0.09000468039725681 46:0.04918032786885246 47:0.0 48:1.0 49:0.0895662682959581 50:1.0 51:0.018849206349206366 52:0.604914109709038 53:0.0 54:0.012659598975393269 55:0.0054213802865317965 56:0.4390648630035028 57:0.4797750407438083 58:0.24125280886398767 59:0.11861892654713775 60:0.07091964090375884 61:0.009153303306208664 62:0.025863368189594674 
0.4330394728753819 8.0 0.0 0.0 0:0.0 1:0.0 2:1.0 3:0.0 4:0.0 5:0.0 6:0.0 7:0.0 8:0.0 9:0.0 10:1.0 11:0.0 12:0.0 13:0.0 14:0.0 15:0.0 16:0.0 17:0.0 18:0.0 19:0.0 20:0.0 21:0.0 22:0.0 23:0.0 24:0.0 25:0.0 26:0.01996007984031936 27:0.0 28:0.0 29:0.0 30:0.024793388429752067 31:0.0 32:0.0 33:2.0589521004029767E-15 34:0.0 35:0.02702702702702703 36:0.010507880910683012 37:0.0 38:0.0 39:0.7142857142857143 40:0.0 41:0.42857142857142855 42:0.0 43:0.010271266789570714 44:0.022285714285714284 45:0.11844183377537089 46:0.13043478260869565 47:0.019230769230769232 48:1.0 49:0.07135759366187724 50:1.0 51:0.018849206349206327 52:0.604914109709038 53:0.0 54:0.012482626996465162 55:0.004078006144324693 56:0.4397796940948638 57:0.48869860268775545 58:0.5016324484989294 59:0.24412309311087513 60:0.06650433712575159 61:0.007635809104169827 62:0.01198547242235685 
0.0 8.0 0.0 0.0 0:0.0 1:0.0 2:1.0 3:0.0 4:0.0 5:0.0 6:0.0 7:0.0 8:1.0 9:0.0 10:1.0 11:0.0 12:0.0 13:0.0 14:0.0 15:0.0 16:0.0 17:0.0 18:0.0 19:0.0 20:0.0 21:0.0 22:0.0 23:1.0 24:0.0 25:0.0 26:0.021956087824351295 27:0.0 28:0.0 29:0.0 30:0.024793388429752067 31:0.0 32:0.05344295991778007 33:0.06048985223940857 34:0.0 35:0.021621621621621623 36:0.0070052539404553416 37:0.18766304090264643 38:0.0 39:0.6666666666666666 40:0.0 41:0.6666666666666666 42:0.0 43:0.013431656570977089 44:0.03333333333333334 45:1.6028757728530257E-4 46:0.07142857142857142 47:0.01639344262295082 48:1.0 49:0.08027612817652909 50:1.0 51:0.01884920634920636 52:0.02830796059318088 53:0.3046957817230281 54:0.012943364389881489 55:0.003581052336437346 56:0.35390586573692917 57:0.4916953877118456 58:0.36454829797568655 59:0.17699380583703594 60:0.08220751748551987 61:0.006997531433459279 62:0.017009529563270752 
0.0 8.0 1.6247468079868137 0.0 0:0.0 1:0.0 2:1.0 3:0.0 4:0.0 5:0.0 6:0.0 7:0.0 8:0.0 9:0.0 10:1.0 11:0.0 12:0.0 13:0.0 14:0.0 15:0.0 16:0.0 17:0.0 18:0.0 19:0.0 20:0.0 21:0.0 22:0.0 23:0.0 24:0.0 25:0.0 26:0.02395209580838323 27:0.0 28:0.0 29:0.0 30:0.008264462809917356 31:0.0 32:0.0 33:2.0589521004029767E-15 34:0.0 35:0.016216216216216217 36:0.008756567425569177 37:0.0 38:0.0 39:0.75 40:0.0 41:0.75 42:0.0 43:0.004740584672109561 44:0.02 45:0.07166778155581532 46:0.20833333333333334 47:0.037037037037037035 48:1.0 49:0.03366244266500816 50:1.0 51:0.018849206349206327 52:0.604914109709038 53:0.0 54:0.012723675036729363 55:0.0016487816598842009 56:0.37585639860103975 57:0.5092156705584797 58:0.12479419367859543 59:0.06213293590186223 60:0.07089186418378622 61:0.003614210082377935 62:0.021562328344532835 
2.7532988730422487 8.0 0.0 0.0 0:0.0 1:0.0 2:1.0 3:0.0 4:0.0 5:0.0 6:0.0 7:0.0 8:0.0 9:0.0 10:1.0 11:0.0 12:0.0 13:0.0 14:0.0 15:0.0 16:0.0 17:0.0 18:0.0 19:0.0 20:0.0 21:0.0 22:0.0 23:0.0 24:0.0 25:0.0 26:0.02395209580838323 27:0.0 28:0.0 29:0.0 30:0.01652892561983471 31:0.0 32:0.0 33:2.0589521004029767E-15 34:0.0 35:0.016216216216216217 36:0.005253940455341506 37:0.0 38:0.0 39:0.75 40:0.0 41:0.75 42:0.0 43:0.008164340268633132 44:0.030000000000000002 45:0.06667749498299887 46:0.08823529411764706 47:0.0 48:1.0 49:0.05123221643473528 50:1.0 51:0.018849206349206348 52:0.604914109709038 53:0.0 54:0.012911326359213398 55:0.0025209557320094583 56:0.40231556004866326 57:0.5002929991895768 58:0.3599710688216338 59:0.17491284780185404 60:0.0625857288887594 61:0.006130790212963957 62:0.02106309532508671 
0.0 8.0 0.0 0.0 0:0.0 1:0.0 2:1.0 3:0.0 4:0.0 5:0.0 6:0.0 7:0.0 8:0.0 9:0.0 10:1.0 11:0.0 12:0.0 13:0.0 14:0.0 15:0.0 16:0.0 17:0.0 18:0.0 19:0.0 20:0.0 21:0.0 22:0.0 23:0.0 24:0.0 25:0.0 26:0.02395209580838323 27:0.0 28:0.0 29:0.0 30:0.01652892561983471 31:0.0 32:0.0 33:2.0589521004029767E-15 34:0.0 35:0.010810810810810811 36:0.0035026269702276708 37:0.0 38:0.0 39:0.5 40:0.0 41:1.0 42:0.0 43:0.008691071898867527 44:0.031000000000000003 45:0.04538275604871891 46:0.05714285714285714 47:0.0 48:1.0 49:0.05123221643473528 50:1.0 51:0.018849206349206393 52:0.604914109709038 53:0.0 54:0.012796904821113418 55:0.001978956146664824 56:0.347381663651656 57:0.5002929991895768 58:0.5728991338994033 59:0.2770232632323714 60:0.06214070402038152 61:0.006743503162296598 62:0.01793503117954994 
0.0 8.0 0.0 0.0 0:0.0 1:0.0 2:1.0 3:0.0 4:0.0 5:0.0 6:0.0 7:0.0 8:1.0 9:0.0 10:1.0 11:0.0 12:0.0 13:0.0 14:0.0 15:0.0 16:0.0 17:0.0 18:0.0 19:0.0 20:0.0 21:0.0 22:0.0 23:1.0 24:0.0 25:0.0 26:0.02594810379241517 27:0.0 28:0.0 29:0.0 30:0.01652892561983471 31:0.0 32:0.05382622473449813 33:0.04378504762452525 34:0.0 35:0.016216216216216217 36:0.005253940455341506 37:0.19586251644947983 38:0.0 39:0.5 40:0.0 41:0.6666666666666666 42:0.0 43:0.0118514616802739 44:0.028 45:1.517389064968021E-4 46:0.0625 47:0.0 48:1.0 49:0.05217345431525638 50:1.0 51:0.018849206349206348 52:0.02847127834609057 53:0.30475762908976284 54:0.012926582564293482 55:0.0022730765917772498 56:0.3054565842932035 57:0.49852520772662917 58:0.32810428357189964 59:0.1601931224349424 60:0.08822742463262424 61:0.005162383531037327 62:0.0183641480889372 
0.0 8.0 0.0 0.0 0:0.0 1:0.0 2:1.0 3:0.0 4:0.0 5:0.0 6:0.0 7:1.0 8:0.0 9:0.0 10:1.0 11:0.0 12:0.0 13:0.0 14:0.0 15:0.0 16:0.0 17:0.0 18:0.0 19:0.0 20:0.0 21:8.680555555555555E-4 22:1.0 23:0.0 24:0.0 25:0.0 26:0.02594810379241517 27:0.0 28:1.0 29:1.0 30:0.0 31:0.0 32:0.0 33:2.0589521004029767E-15 34:0.0 35:0.0 36:0.0 37:0.0 38:0.0 39:0.0 40:0.0 41:0.0 42:1.0 43:0.0 44:0.0 45:0.0 46:0.0 47:0.0 48:1.0 49:0.016406414855454736 50:1.0 51:0.021258503401360547 52:0.13439701330972204 53:0.3453012353167335 54:0.01684285040833236 55:0.0 56:0.0 57:0.5154630544942871 58:0.4386762344275228 59:0.21339736364638193 60:0.006720174186914923 61:0.025796625252421507 62:0.01394640368836839 
0.0 8.0 0.0 0.0 0:0.0 1:0.0 2:1.0 3:0.0 4:0.0 5:0.0 6:0.0 7:1.0 8:0.0 9:0.0 10:1.0 11:0.0 12:0.0 13:0.0 14:0.0 15:0.0 16:0.0 17:0.0 18:0.0 19:0.0 20:0.0 21:8.680555555555555E-4 22:1.0 23:0.0 24:0.0 25:0.0 26:0.02594810379241517 27:0.0 28:1.0 29:1.0 30:0.0 31:0.0 32:0.0 33:2.0589521004029767E-15 34:0.0 35:0.0 36:0.0 37:0.0 38:0.0 39:0.0 40:0.0 41:0.0 42:1.0 43:0.0 44:0.0 45:0.0 46:0.0 47:0.0 48:1.0 49:0.016406414855454736 50:1.0 51:0.021258503401360547 52:0.13439701330972204 53:0.3453012353167335 54:0.01684285040833236 55:0.0 56:0.0 57:0.5154630544942871 58:0.45802806401554325 59:0.2227089422277175 60:0.006720174186914923 61:0.025796625252421507 62:0.01394640368836839 
0.0 8.0 0.0 0.0 0:0.0 1:0.0 2:1.0 3:0.0 4:0.0 5:0.0 6:0.0 7:1.0 8:0.0 9:0.0 10:1.0 11:0.0 12:0.0 13:0.0 14:0.0 15:0.0 16:0.0 17:0.0 18:0.0 19:0.0 20:0.0 21:8.680555555555555E-4 22:1.0 23:0.0 24:0.0 25:0.0 26:0.02594810379241517 27:0.0 28:1.0 29:1.0 30:0.0 31:0.0 32:0.0 33:2.0589521004029767E-15 34:0.0 35:0.0 36:0.0 37:0.0 38:0.0 39:0.0 40:0.0 41:0.0 42:1.0 43:0.0 44:0.0 45:0.0 46:0.0 47:0.0 48:1.0 49:0.016406414855454736 50:1.0 51:0.021258503401360547 52:0.1343956635762269 53:0.3453012353167335 54:0.019038218319345955 55:0.0 56:0.0 57:0.5154630544942871 58:0.554784314975168 59:0.26926544118550594 60:0.006720174186914923 61:0.025796625252421507 62:0.01394640368836839 
0.0 8.0 1.7794816064631476 0.0 0:0.0 1:1.0 2:1.0 3:0.0 4:0.0 5:0.0 6:0.0 7:0.0 8:0.0 9:0.0 10:1.0 11:0.0 12:0.0 13:0.0 14:0.0 15:0.0 16:0.0 17:0.0 18:0.0 19:0.0 20:0.0 21:0.005208333333333333 22:0.0 23:0.0 24:0.0 25:0.0 26:0.0279441117764471 27:0.0034542314335060447 28:0.0 29:0.0 30:0.008264462809917356 31:0.0 32:0.0 33:2.0589521004029767E-15 34:0.0 35:0.021621621621621623 36:0.021015761821366025 37:0.0 38:0.0 39:0.5 40:0.03389830508474576 41:0.375 42:0.05084745762711865 43:0.022386094284961813 44:0.05500000000000001 45:0.2529722659747943 46:0.1016949152542373 47:0.056 48:1.0 49:0.041138942141487785 50:1.0 51:0.021258503401360547 52:0.1573154880568832 53:0.9999999999999997 54:0.029984545464253942 55:0.006210059023153793 56:0.26635826760580444 57:0.500130914531513 58:0.12273250923895354 59:0.06221907220665961 60:0.3941561365270587 61:7.59198590738152E-4 62:0.011391930423268337 
0.5947026126618069 0.0 0.0 0.0 0:0.0 1:0.0 2:1.0 3:0.0 4:0.0 5:0.0 6:0.0 7:0.0 8:0.0 9:0.0 10:1.0 11:0.0 12:1.0 13:0.0 14:0.0 15:0.0 16:0.0 17:0.0 18:0.0 19:0.0 20:0.0 21:0.0 22:0.0 23:0.0 24:0.0 25:0.0 26:0.005988023952095808 27:8.635578583765112E-4 28:0.0 29:0.0 30:0.03305785123966942 31:1.0 32:0.0 33:1.830179644802646E-15 34:0.031746031746031744 35:0.07567567567567568 36:0.0297723292469352 37:1.512060187121933E-16 38:0.009259259259259259 39:0.3111111111111111 40:0.0030864197530864196 41:0.6888888888888889 42:0.0 43:0.07874637872004214 44:0.024800000000000003 45:0.042365075260360416 46:0.05246913580246913 47:0.021739130434782608 48:1.0 49:0.08339383621660865 50:1.0 51:0.024801587301587276 52:0.5896108313413517 53:0.9999999999999998 54:0.013112708266269554 55:0.015315007122016343 56:0.18761122048498902 57:0.39820816301085615 58:0.44941051275588784 59:0.2530238318067275 60:0.4942174394493638 61:0.0023570531983621067 62:0.013973028986318454 
0.0 5.119679214625234 0.0 0.0 0:0.0 1:0.0 2:1.0 3:0.0 4:0.0 5:0.0 6:0.0 7:0.0 8:0.0 9:0.0 10:1.0 11:0.0 12:0.0 13:0.0 14:0.0 15:0.0 16:0.0 17:1.0 18:0.0 19:0.0 20:0.0 21:0.0 22:1.0 23:0.0 24:0.0 25:0.0 26:0.007984031936127744 27:0.0 28:0.0 29:1.0 30:0.0 31:1.0 32:0.0 33:2.0589521004029767E-15 34:0.0 35:0.005405405405405406 36:0.0017513134851138354 37:0.0 38:0.0 39:1.0 40:0.0 41:1.0 42:0.0 43:0.0018435607058203845 44:0.028 45:0.0 46:0.125 47:0.0 48:1.0 49:0.015497083343764862 50:1.0 51:0.025982615268329554 52:0.5896094816078565 53:0.9999999999999998 54:0.013117285127793622 55:5.049573978181554E-6 56:0.0031196823596152667 57:0.4443203576549378 58:0.24150388050534924 59:0.13766816157287168 60:0.057921928003040496 61:0.0036580580335254546 62:0.01394640368836839 
0.0 8.0 0.0 0.0 0:0.0 1:0.0 2:1.0 3:0.0 4:0.0 5:0.0 6:0.0 7:1.0 8:1.0 9:0.0 10:1.0 11:0.0 12:0.0 13:1.0 14:0.0 15:0.0 16:0.0 17:0.0 18:0.0 19:0.0 20:0.0 21:8.680555555555555E-4 22:1.0 23:0.0 24:0.0 25:0.0 26:0.001996007984031936 27:0.0 28:1.0 29:1.0 30:0.0 31:0.0 32:0.0 33:2.0589521004029767E-15 34:0.0 35:0.0 36:0.0 37:0.0 38:0.0 39:0.0 40:0.0 41:0.0 42:1.0 43:0.0 44:0.0 45:0.0 46:0.0 47:0.0 48:1.0 49:0.016406414855454736 50:1.0 51:0.03068310657596374 52:0.06932636150991986 53:0.2451509429669904 54:0.024420607471573885 55:0.0 56:0.0 57:0.6317213925031394 58:0.1677129594490329 59:0.06628518972662577 60:0.009699451409780548 61:0.025796625252421507 62:0.01394640368836839 
