svm_type c_svc
kernel_type polynomial
degree 3
gamma 0.03125
coef0 0.5
nr_class 10
total_sv 876
rho 0.28942269739708243 5.890392879013936 0.6384609103050709 -0.7289645224239196 -1.5952142654094639 2.8434155530053347 0.3007733241004459 -1.1700273672278092 0.09385855210584257 3.906487886841213 1.8063506988329245 -0.2266266849099587 0.5629340945283893 3.22254627707804 0.37855823296502783 0.22194803643272332 0.034286034642865115 -1.5833984182080978 -3.802742573896007 -5.337032996968568 -2.695404853383777 -1.7397464722844906 -5.69218491981773 -3.2214537118536493 -1.626122574922552 -3.7908454660352238 -2.858784394405396 -0.98309943628633 -1.6005234857114965 -1.378758475572709 1.5507800989592293 1.715755925121726 -0.7335434108963589 -0.9193737311854628 -0.005722802044658584 2.4166122974191757 -0.2118010016435292 -1.4020920169430655 0.43053334927757475 -2.5272958975570416 -1.764619658032427 -0.607748010861619 0.4138956300949286 1.129899096582879 0.613941457330327
label 14 8 9 16 4 5 10 15 13 11
nr_sv 94 94 452 18 97 27 44 16 24 10
SV
0.0 0.0 0.0 0.0 57.4289696285116 0.0 0.0 10.743882820310361 0.0 0:1.0 1:0.0 2:1.0 3:0.0 4:1.0 5:0.25 6:0.0 7:0.0 8:0.0 9:0.0 10:1.0 11:0.0 12:0.0 13:0.0 14:0.05172413793103448 15:0.0 16:0.0029585798816568047 17:0.0 18:1.0 19:0.0 20:0.0 21:6.644415651638168E-16 22:0.0 23:0.010033444816053512 24:0.012552301255230124 25:0.0 26:1.0 27:0.0 28:1.0 29:0.02997565429093122 30:0.0 31:1.0 32:0.5 33:0.0 34:0.9999999999999998 35:0.75 36:0.018556701030927835 37:0.025 38:0.0 39:0.0 40:0.21141999999999986 41:0.075 42:0.9 43:0.019222984914653192 44:0.035044325708911174 45:0.0027276645329120963 46:0.13011572830859333 47:0.6109851067010976 48:0.1172828080361818 49:0.014591624092999415 50:0.5818790818137105 51:0.0013104590845540208 52:0.004868040559824644 
0.0 512.0 0.0 0.0 0.0 0.0 137.07769031549242 0.0 0.0 0:1.0 1:0.0 2:1.0 3:0.0 4:1.0 5:0.0 6:0.0 7:0.0 8:0.0 9:0.0 10:1.0 11:0.0 12:0.0018404907975460125 13:0.0 14:0.028735632183908046 15:0.0 16:0.0 17:0.0 18:1.0 19:0.0 20:0.0 21:6.644415651638168E-16 22:0.0 23:0.010033444816053512 24:0.008368200836820083 25:0.0 26:1.0 27:0.0 28:1.0 29:0.022700471698113206 30:0.09047619047619047 31:1.0 32:0.5 33:0.0 34:0.9999999999999998 35:0.3333333333333333 36:0.013917525773195877 37:0.0 38:0.08003048780487805 39:0.0 40:0.1684799999999998 41:0.08571428571428572 42:0.7714285714285715 43:0.015525763674302463 44:0.024060597059260353 45:9.249456044338162E-4 46:0.0760007092512973 47:0.6494284186545095 48:0.22093776562191753 49:0.025246817183200664 50:0.46816211246765155 51:0.0011752596214386303 52:0.004868040559824644 
0.0 512.0 0.0 0.0 0.0 65.67312262728998 0.0 0.0 0.0 0:1.0 1:0.0 2:0.0 3:0.0 4:1.0 5:0.0 6:0.0 7:0.0 8:0.0 9:0.0 10:1.0 11:0.0 12:0.0 13:0.0 14:0.05172413793103448 15:0.0 16:0.0 17:0.0 18:0.0 19:0.0 20:0.0 21:6.644415651638168E-16 22:0.0 23:0.013377926421404682 24:0.016736401673640166 25:0.0 26:0.0 27:0.0019455252918287938 28:1.0 29:0.08117138364779873 30:0.0 31:1.0 32:0.6666666666666666 33:0.0 34:0.9999999999999998 35:0.6666666666666666 36:0.032474226804123714 37:0.0 38:0.014617440694954895 39:0.03612420777993488 40:0.21333333333333337 41:0.058823529411764705 42:0.9264705882352942 43:0.01901204091173419 44:0.07123818852619923 45:0.005771985334645985 46:0.14539397610263685 47:0.5814861368399447 48:0.21522894934886858 49:0.026270570518918797 50:0.5299597603468206 51:0.0027958872259675393 52:0.00504161711472852 
62.79313399107465 512.0 127.01553009048409 314.9746018772906 79.12201937694228 149.40669166289555 0.0 0.0 71.85854908795207 0:0.0 1:0.0 2:0.0 3:0.0 4:1.0 5:0.0 6:0.0 7:0.0 8:0.0 9:0.0 10:1.0 11:0.0 12:0.0 13:0.0 14:0.034482758620689655 15:0.0 16:0.047337278106508875 17:0.26666666666666666 18:0.0 19:0.0 20:0.058823529411764705 21:6.644415651638168E-16 22:0.0 23:0.04013377926421405 24:0.02092050209205021 25:0.0 26:0.0 27:0.0019455252918287938 28:1.0 29:0.12293632075471697 30:0.0 31:1.0 32:0.6428571428571429 33:0.04918032786885246 34:0.9999999999999998 35:0.35714285714285715 36:0.0443298969072165 37:0.13114754098360656 38:0.031616982836495035 39:0.11213213768450893 40:0.1466666666666667 41:0.09836065573770492 42:0.7049180327868853 43:0.01901204091173419 44:0.07569057530908667 45:0.009471965512009418 46:0.2458717860006808 47:0.5786985532441139 48:0.27433736084151455 49:0.033207278511830245 50:0.4463419408974474 51:0.0032525570340761283 52:0.005608482217069002 
48.44303729103085 0.0 0.0 0.0 0.0 0.0 0.0 0.0 0.0 0:1.0 1:0.0 2:0.0 3:0.0 4:1.0 5:0.0 6:0.0 7:0.0 8:0.0 9:0.0 10:1.0 11:0.0 12:0.0 13:0.0 14:0.040229885057471264 15:0.0 16:0.0 17:0.0 18:0.0 19:0.0 20:0.0 21:6.644415651638168E-16 22:0.0 23:0.006688963210702341 24:0.0041841004184100415 25:0.0 26:1.0 27:0.0 28:1.0 29:0.006136072913335466 30:0.0 31:1.0 32:0.0 33:0.0 34:0.9999999999999998 35:0.3333333333333333 36:0.009278350515463918 37:0.0 38:0.0 39:0.0 40:0.24000000000000005 41:0.09090909090909091 42:0.8181818181818182 43:0.0035247602649912764 44:0.023422586400065587 45:6.944129535048279E-4 46:0.04386194844910433 47:0.9509321932961149 48:0.10580672344633249 49:0.008027614316724729 50:0.4275281563431929 51:0.0018332776560119183 52:0.004868040559824644 
0.0 49.35308735786232 0.0 41.23897128854161 0.0 0.0 0.0 0.0 0.0 0:0.0 1:0.0 2:0.0 3:0.0 4:1.0 5:0.0 6:0.0 7:0.0 8:0.0 9:0.0 10:1.0 11:0.0 12:0.0 13:0.0 14:0.034482758620689655 15:0.0 16:0.0 17:0.0 18:0.0 19:0.0 20:0.0 21:0.7493941212225115 22:0.0 23:0.020066889632107024 24:0.025104602510460247 25:0.0 26:1.0 27:0.0 28:1.0 29:0.023125199872081868 30:0.0 31:1.0 32:0.7857142857142857 33:0.0 34:0.9999999999999998 35:0.42857142857142855 36:0.05670103092783505 37:0.0 38:0.0 39:0.36599385740552426 40:0.1471999999999996 41:0.05172413793103448 42:0.9482758620689655 43:0.0035247602649912764 44:0.03170507320208879 45:0.016758782468679467 46:0.35489110529944373 47:0.9428672071199954 48:0.13073773785719678 49:0.009908819709389595 50:0.4983920049197939 51:0.0011261561445994957 52:0.003114407174679714 
431.224633687422 406.2163416442485 0.0 0.0 215.8933566024158 0.0 0.0 70.36820973794421 0.0 0:0.0 1:0.0 2:0.0 3:0.0 4:1.0 5:0.25 6:0.0 7:0.0 8:0.0 9:0.0 10:1.0 11:0.0 12:0.0 13:0.0 14:0.08045977011494254 15:0.0 16:0.0029585798816568047 17:0.0 18:0.0 19:0.5 20:0.029411764705882353 21:6.644415651638168E-16 22:0.0 23:0.013377926421404682 24:0.016736401673640166 25:0.0 26:1.0 27:0.0 28:1.0 29:0.05839050886220697 30:0.0 31:1.0 32:0.6 33:0.046875 34:0.9999999999999998 35:0.8 36:0.029896907216494847 37:0.015625 38:0.015692252510760403 39:0.33209454254106185 40:0.15875000000000003 41:0.0625 42:0.90625 43:0.01846045085004732 44:0.040783193803301795 45:0.010122272262013274 46:0.3367134707720778 47:0.7456380652142511 48:0.23430867063003993 49:0.02263151830963231 50:0.41629674824587065 51:0.001865392456158222 52:0.0034699215426534477 
0.0 512.0 0.0 512.0 40.80586025809033 0.0 0.0 103.56018824670704 0.0 0:0.0 1:0.0 2:0.0 3:0.0 4:1.0 5:0.0 6:0.0 7:0.0 8:0.0 9:0.0 10:1.0 11:0.0 12:0.0 13:0.0 14:0.028735632183908046 15:0.0 16:0.0 17:0.0 18:0.0 19:0.0 20:0.029411764705882353 21:6.644415651638168E-16 22:0.0 23:0.006688963210702341 24:0.008368200836820083 25:0.0 26:1.0 27:0.0 28:1.0 29:0.05839050886220697 30:0.0 31:1.0 32:0.6923076923076923 33:0.03409090909090909 34:0.9999999999999998 35:0.15384615384615385 36:0.04329896907216495 37:0.0 38:0.021341463414634148 39:0.3705258184134028 40:0.12000000000000002 41:0.022727272727272728 42:0.9545454545454546 43:0.015692523460393827 44:0.03100305140442842 45:0.00913143863140339 46:0.4022019623832719 47:0.7532405659301533 48:0.5656818309128503 49:0.05395320767901421 50:0.3930712671443958 51:0.0014273784450706845 52:0.009292214057609586 
512.0 512.0 0.0 0.0 109.84341049447542 0.0 316.5243718711467 0.0 0.0 0:0.0 1:0.0 2:0.0 3:0.0 4:1.0 5:0.0 6:0.0 7:0.0 8:0.0 9:0.0 10:1.0 11:0.0 12:0.0 13:0.0 14:0.06896551724137931 15:0.0 16:0.0 17:0.0 18:0.0 19:1.0 20:0.0 21:6.644415651638168E-16 22:0.0 23:0.006688963210702341 24:0.008368200836820083 25:0.0 26:1.0 27:0.0 28:1.0 29:0.02208927749654855 30:0.0 31:1.0 32:1.0 33:0.0 34:0.9999999999999998 35:1.0 36:0.007216494845360825 37:0.0 38:0.0 39:0.0 40:0.15981333333333322 41:0.125 42:0.875 43:0.00977611429744246 44:0.020864812171430543 45:1.5413395667979342E-4 46:0.033920446866975866 47:0.7127014979460579 48:0.19657665863762896 49:0.020475816699802866 50:0.1842764437194804 51:0.0028322064867545146 52:0.004868040559824644 
263.85505224502646 236.4436202599527 0.0 0.0 30.026606637643415 0.0 0.0 0.0 0.0 0:1.0 1:0.0 2:0.0 3:0.0 4:1.0 5:0.0 6:0.0 7:0.0 8:0.0 9:0.0 10:1.0 11:0.0 12:0.0 13:0.0 14:0.040229885057471264 15:0.0 16:0.0 17:0.0 18:0.0 19:0.0 20:0.0 21:0.06101647366862583 22:0.0 23:0.013377926421404682 24:0.016736401673640166 25:0.0 26:1.0 27:0.0 28:1.0 29:0.14083557951482478 30:0.0 31:1.0 32:0.5714285714285714 33:0.0 34:0.9999999999999998 35:0.5714285714285714 36:0.025773195876288662 37:0.0 38:0.0 39:0.042474294577465536 40:0.1479999999999999 41:0.07142857142857142 42:0.8928571428571429 43:0.01240008665807686 44:0.04817108171348693 45:0.0054715101582208225 46:0.2467303222705003 47:0.6324279599702998 48:0.28905022735409514 49:0.03281962423298856 50:0.38361629757835725 51:0.00257747900892585 52:0.0043761536926093005 
0.0 512.0 8.396738443151284 24.82961544462701 24.382699547058426 0.0 0.0 0.0 0.0 0:1.0 1:0.0 2:0.0 3:0.0 4:1.0 5:0.0 6:0.0 7:0.0 8:0.0 9:0.0 10:1.0 11:0.0 12:0.0 13:0.0 14:0.06321839080459771 15:0.0 16:0.0 17:0.0 18:1.0 19:0.0 20:0.0 21:6.644415651638168E-16 22:0.0 23:0.006688963210702341 24:0.0 25:0.0 26:0.0 27:0.0038910505836575876 28:1.0 29:0.056603773584905655 30:0.0 31:1.0 32:0.3333333333333333 33:0.0 34:0.9999999999999998 35:0.0 36:0.011855670103092783 37:0.0 38:0.0 39:0.0 40:0.21359999999999998 41:0.06666666666666667 42:0.7666666666666667 43:0.031216861837379282 44:0.02188306357426105 45:6.013388702546447E-4 46:0.03370932987753973 47:0.9072989075206473 48:0.06708589771379442 49:0.005444438401371941 50:0.5412700290331484 51:0.0012887509359950763 52:0.004868040559824644 
0.0 512.0 0.0 0.0 117.35518277065152 5.292776213119206 0.0 0.0 0.0 0:0.0 1:0.0 2:0.0 3:0.0 4:1.0 5:0.0 6:0.0 7:0.0 8:0.0 9:0.0 10:1.0 11:0.0 12:0.0 13:0.0 14:0.0574712643678161 15:0.0 16:0.0 17:0.0 18:0.0 19:0.0 20:0.0 21:0.09766434705359844 22:0.0 23:0.016722408026755852 24:0.02092050209205021 25:0.0 26:0.0 27:0.0038910505836575876 28:1.0 29:0.11556603773584904 30:0.0 31:1.0 32:0.5 33:0.0 34:0.9999999999999998 35:0.625 36:0.031958762886597936 37:0.0 38:0.014227642276422765 39:0.068688176019229 40:0.18640000000000015 41:0.07352941176470588 42:0.9117647058823529 43:0.031216861837379282 44:0.0436841681089181 45:0.010807594932919572 46:0.25143680847039557 47:0.8870762556163476 48:0.11326544777918765 49:0.009102316500479825 50:0.5839522851930943 51:0.002131423961152633 52:0.004351134142891995 
2.2048394341186204 175.72248607930342 0.0 0.0 0.0 0.0 31.932207081967892 0.0 0.0 0:1.0 1:0.0 2:1.0 3:0.0 4:1.0 5:0.0 6:0.0 7:0.0 8:0.0 9:0.0 10:1.0 11:0.0 12:0.0 13:0.0 14:0.034482758620689655 15:0.0 16:0.0 17:0.0 18:1.0 19:0.0 20:0.0 21:6.644415651638168E-16 22:1.0 23:0.010033444816053512 24:0.012552301255230124 25:1.0 26:1.0 27:0.0 28:1.0 29:0.022700471698113206 30:0.0 31:1.0 32:0.8 33:0.0 34:0.9999999999999998 35:0.6 36:0.015463917525773196 37:0.0 38:0.0 39:0.0 40:0.18640000000000004 41:0.09090909090909091 42:0.9090909090909091 43:0.013880970570461006 44:0.02655986989843413 45:8.52562250365964E-4 46:0.06655980317235415 47:0.6492256853020854 48:0.21964086090118437 49:0.025043325544388692 50:0.4453631011304043 51:0.0013668265343019157 52:0.004868040559824644 
0.0 0.0 0.0 0.0 0.0 0.0 0.0 81.76704786115837 0.0 0:0.0 1:0.0 2:1.0 3:0.0 4:1.0 5:0.0 6:0.0 7:0.0 8:0.0 9:0.0 10:1.0 11:0.0 12:0.0 13:0.0 14:0.028735632183908046 15:0.0 16:0.0 17:0.0 18:0.0 19:0.0 20:0.0 21:6.644415651638168E-16 22:0.0 23:0.020066889632107024 24:0.016736401673640166 25:0.0 26:1.0 27:0.0 28:1.0 29:0.022700471698113206 30:0.0 31:1.0 32:0.4444444444444444 33:0.0 34:0.9999999999999998 35:0.4444444444444444 36:0.028350515463917526 37:0.0 38:0.014820460704607047 39:0.0 40:0.14640000000000014 41:0.09375 42:0.859375 43:0.013880970570461006 44:0.02086032700177444 45:0.0010584640933026912 46:0.06552215460779241 47:0.6530269356600364 48:0.248524694770734 49:0.028225379439387254 50:0.7151431008398652 51:6.685437745339077E-4 52:0.004868040559824644 
0.0 512.0 0.0 0.0 0.0 0.0 0.0 12.64887863791075 0.0 0:1.0 1:0.0 2:1.0 3:0.0 4:1.0 5:0.0 6:0.0 7:0.0 8:0.0 9:0.0 10:1.0 11:0.0 12:6.134969325153375E-4 13:0.0 14:0.022988505747126436 15:0.0 16:0.0 17:0.0 18:1.0 19:0.0 20:0.0 21:0.33490972211399134 22:0.0 23:0.023411371237458192 24:0.02928870292887029 25:0.0 26:0.0 27:0.0019455252918287938 28:1.0 29:0.05839050886220697 30:0.018199233716475097 31:1.0 32:0.7272727272727273 33:0.0 34:0.9999999999999998 35:0.6363636363636364 36:0.024742268041237116 37:0.0 38:0.015692252510760403 39:0.23565786365083763 40:0.21359999999999985 41:0.1206896551724138 42:0.8275862068965517 43:0.04476431283565754 44:0.05500173769670322 45:0.02168817782129874 46:0.38251937022558435 47:0.7407483901704736 48:0.11786123971913792 49:0.011513939228370565 50:0.5720163199913668 51:0.001829217259682538 52:0.0034379261108258077 
0.0 512.0 0.0 0.0 27.190276041646346 0.0 28.36191436591501 0.0 0.0 0:0.0 1:0.0 2:1.0 3:0.0 4:1.0 5:0.25 6:0.0 7:0.0 8:0.0 9:0.0 10:1.0 11:0.0 12:0.0 13:0.0 14:0.034482758620689655 15:0.0 16:0.0029585798816568047 17:0.0 18:0.0 19:0.0 20:0.0 21:0.19023814347832924 22:0.0 23:0.016722408026755852 24:0.02092050209205021 25:0.0 26:0.0 27:0.0019455252918287938 28:1.0 29:0.05839050886220697 30:0.0 31:1.0 32:0.7777777777777778 33:0.0 34:0.9999999999999998 35:0.5555555555555556 36:0.027835051546391754 37:0.016666666666666666 38:0.0 39:0.13370106725011044 40:0.1725999999999998 41:0.08333333333333333 42:0.9 43:0.04476431283565754 44:0.04529165016528321 45:0.011127400955032014 46:0.32818254403738134 47:0.7483597604705442 48:0.1975423351104378 49:0.01898280628927982 50:0.4531298315081257 51:0.002074149857069708 52:0.006935582411753873 
0.0 512.0 0.0 0.0 0.0 0.0 0.0 0.0 0.0 0:1.0 1:0.0 2:0.0 3:0.0 4:1.0 5:0.0 6:0.0 7:0.0 8:0.0 9:0.0 10:1.0 11:0.0 12:0.0 13:0.0 14:0.040229885057471264 15:0.0 16:0.0 17:0.0 18:0.0 19:0.0 20:0.0 21:0.040063977681842305 22:0.0 23:0.023411371237458192 24:0.02928870292887029 25:0.0 26:1.0 27:0.0 28:1.0 29:0.10901467505241089 30:0.0 31:1.0 32:0.5625 33:0.0 34:0.9999999999999998 35:0.4375 36:0.06907216494845361 37:0.0 38:0.020133456051541647 39:0.046568672768173565 40:0.16000000000000003 41:0.04861111111111111 42:0.9305555555555556 43:0.020276279631931224 44:0.10077615774079074 45:0.011497841980805881 46:0.20109555519612954 47:0.6139133365601727 48:0.29361070451761234 49:0.03238613560996513 50:0.48335107696585955 51:0.0046193718899834955 52:0.004757193452723038 
0.0 0.0 0.0 0.0 0.0 0.0 0.0 5.670959236559907 0.0 0:1.0 1:0.0 2:0.0 3:0.0 4:1.0 5:0.0 6:0.0 7:0.0 8:0.0 9:0.0 10:1.0 11:0.0 12:0.0 13:0.0 14:0.05172413793103448 15:0.0 16:0.0 17:0.0 18:1.0 19:0.0 20:0.0 21:6.644415651638168E-16 22:0.0 23:0.010033444816053512 24:0.012552301255230124 25:0.0 26:1.0 27:0.0 28:1.0 29:0.06446540880503145 30:0.0 31:1.0 32:0.6 33:0.0 34:0.9999999999999998 35:0.6 36:0.025257731958762887 37:0.0 38:0.018720581942661532 39:0.6159440387045083 40:0.21281333333333355 41:0.05660377358490566 42:0.9245283018867925 43:0.08574161069999205 44:0.06265586090083843 45:0.026818690920274228 46:0.48418460379217027 47:0.6710549990243458 48:0.1866726904745088 49:0.0198303807315992 50:0.4494285720215082 51:0.0020268312373052585 52:0.0028767125211333557 
0.0 195.6107506291378 0.0 0.0 0.0 0.0 0.0 0.0 0.0 0:1.0 1:0.0 2:0.0 3:0.0 4:1.0 5:0.0 6:0.0 7:0.0 8:0.0 9:0.0 10:1.0 11:0.0 12:6.134969325153375E-4 13:0.0 14:0.022988505747126436 15:0.0 16:0.023668639053254437 17:0.4 18:0.0 19:0.5 20:0.029411764705882353 21:6.644415651638168E-16 22:0.0 23:0.020066889632107024 24:0.025104602510460247 25:0.0 26:1.0 27:0.0 28:1.0 29:0.031053459119496855 30:0.015993265993265993 31:1.0 32:0.5714285714285714 33:0.045454545454545456 34:0.9999999999999998 35:0.42857142857142855 36:0.025773195876288662 37:0.12121212121212122 38:0.02701451065143563 39:0.0 40:0.14399999999999957 41:0.09090909090909091 42:0.7575757575757576 43:0.014538032633607376 44:0.014893264934635091 45:0.0017915485322361681 46:0.08925634263555952 47:0.9051537352353102 48:0.14240866259288393 49:0.011535735562146382 50:0.9033854020748635 51:5.205604260638646E-4 52:0.004868040559824644 
0.0 96.63826109644096 0.0 0.0 37.302984430656544 0.0 0.0 0.0 0.0 0:1.0 1:0.0 2:0.0 3:0.0 4:1.0 5:0.25 6:0.0 7:0.0 8:0.0 9:0.0 10:1.0 11:0.0 12:0.0 13:0.0 14:0.0574712643678161 15:0.0 16:0.0029585798816568047 17:0.0 18:0.0 19:0.0 20:0.0 21:6.644415651638168E-16 22:0.0 23:0.013377926421404682 24:0.016736401673640166 25:0.0 26:1.0 27:0.0 28:1.0 29:0.015073831009023788 30:0.0 31:1.0 32:0.5714285714285714 33:0.0 34:0.6551423975778218 35:0.5714285714285714 36:0.03556701030927835 37:0.013157894736842105 38:0.0260261748958953 39:2.054379423336163E-4 40:0.15910947368421083 41:0.05263157894736842 42:0.9078947368421053 43:0.008938039475034494 44:0.035143259571273 45:0.0038819150476608537 46:0.1518005462823567 47:0.9183263348090632 48:0.046656908422695945 49:0.0036858754157108866 50:0.4707748882981262 51:0.002441082655644771 52:0.00486696782689946 
369.40009619485727 512.0 0.0 159.38048996645813 0.0 0.0 0.0 0.0 0.0 0:0.0 1:0.0 2:0.0 3:0.0 4:1.0 5:0.0 6:0.0 7:0.0 8:0.0 9:0.0 10:1.0 11:0.0 12:0.0 13:0.0 14:0.011494252873563218 15:0.0 16:0.0 17:0.0 18:0.0 19:0.0 20:0.0 21:6.644415651638168E-16 22:0.0 23:0.013377926421404682 24:0.012552301255230124 25:0.0 26:0.0 27:0.0019455252918287938 28:1.0 29:0.06446540880503145 30:0.0 31:1.0 32:0.7142857142857143 33:0.0 34:0.9999999999999998 35:0.42857142857142855 36:0.015979381443298968 37:0.0 38:0.04963131026659104 39:0.0 40:0.20000000000000004 41:0.10810810810810811 42:0.8378378378378378 43:0.05005644177375402 44:0.02220807485601765 45:0.001604235325853624 46:0.08487066117802532 47:0.8368199246338762 48:0.26703207312350674 49:0.02320950698159356 50:0.61252887231433 51:0.0010663141115544242 52:0.004868040559824644 
0.0 135.85218282029558 0.0 0.0 0.0 0.0 0.0 0.0 0.0 0:1.0 1:0.0 2:0.0 3:0.0 4:1.0 5:0.0 6:0.0 7:0.0 8:0.0 9:0.0 10:1.0 11:0.0 12:6.134969325153375E-4 13:0.0 14:0.040229885057471264 15:0.0 16:0.0 17:0.0 18:1.0 19:0.0 20:0.0 21:6.644415651638168E-16 22:0.0 23:0.030100334448160536 24:0.03765690376569037 25:0.0 26:1.0 27:0.0 28:1.0 29:0.5990566037735848 30:0.009865005192107996 31:1.0 32:0.8125 33:0.0 34:0.9999999999999998 35:0.5625 36:0.05 37:0.0 38:0.008746501399440224 39:0.30635111398724224 40:0.2535999999999999 41:0.08411214953271028 42:0.9065420560747663 43:0.12151657335720234 44:0.16276974261817845 45:0.06422766938306296 46:0.4479969253082323 47:0.5509836368842926 48:0.28655992674010516 49:0.032873706408043046 50:0.7210099136061493 51:0.004465709679194645 52:0.00425797595106508 
392.21556206939715 512.0 0.0 0.0 34.6078446453502 0.0 103.20954166453717 0.0 0.0 0:0.0 1:0.0 2:0.0 3:0.0 4:1.0 5:0.0 6:0.0 7:0.0 8:0.0 9:0.0 10:1.0 11:0.0 12:0.0 13:0.0 14:0.017241379310344827 15:0.0 16:0.0 17:0.0 18:0.0 19:0.0 20:0.0 21:6.644415651638168E-16 22:0.0 23:0.016722408026755852 24:0.008368200836820083 25:0.0 26:1.0 27:0.0 28:1.0 29:0.06923854447439352 30:0.0 31:1.0 32:1.0 33:0.0 34:0.8307340425307859 35:0.6666666666666666 36:0.005154639175257732 37:0.0 38:0.0 39:0.0 40:0.2933333333333334 41:0.3333333333333333 42:0.6666666666666666 43:0.024844357532981358 44:0.0388290568422093 45:9.326040082736251E-4 46:0.06346477126731424 47:0.6900359091450482 48:0.48388063118465247 49:0.050188226193490816 50:0.3246752707719829 51:0.002950488536246578 52:0.004868040559824644 
0.0 50.33347531135486 6.813837479941817 0.0 0.0 0.0 33.994478977317264 0.0 0.0 0:0.0 1:0.0 2:1.0 3:0.0 4:1.0 5:0.0 6:0.0 7:0.0 8:0.0 9:0.0 10:1.0 11:0.0 12:0.0 13:0.0 14:0.0574712643678161 15:0.0 16:0.0029585798816568047 17:0.0 18:1.0 19:0.0 20:0.0 21:6.644415651638168E-16 22:0.0 23:0.023411371237458192 24:0.016736401673640166 25:0.0 26:1.0 27:0.0 28:1.0 29:0.4272237196765498 30:0.0 31:1.0 32:0.7 33:0.0 34:0.20595650040331995 35:0.4 36:0.03350515463917526 37:0.013333333333333334 38:0.012703252032520325 39:0.17339578646780265 40:0.2666666666666667 41:0.09333333333333334 42:0.8666666666666667 43:0.011688863296883763 44:0.2559187837327431 45:0.03433789399070976 46:0.35277772294924836 47:0.5341846444690541 48:0.26998511908386164 49:0.028297016855084605 50:0.2651465942256063 51:0.019349806665987276 52:0.008540266065684738 
0.0 512.0 52.23408436374954 512.0 277.17897411033925 75.73319175809195 0.0 175.85852795487543 8.085615151682351 0:0.0 1:0.0 2:1.0 3:0.0 4:1.0 5:0.0 6:0.0 7:0.0 8:0.0 9:0.0 10:1.0 11:0.0 12:0.0 13:0.0 14:0.017241379310344827 15:0.0 16:0.011834319526627219 17:0.0 18:0.0 19:0.0 20:0.0 21:3.896326543796506E-6 22:0.0 23:0.023411371237458192 24:0.012552301255230124 25:0.0 26:1.0 27:0.0 28:1.0 29:0.21243261455525603 30:0.0 31:1.0 32:0.42857142857142855 33:0.0 34:0.20595650040331995 35:0.42857142857142855 36:0.01958762886597938 37:0.0784313725490196 38:0.0 39:0.10248271753310116 40:0.16000000000000003 41:0.13725490196078433 42:0.7450980392156863 43:0.011688863296883763 44:0.07059828516765328 45:0.007273523983112847 46:0.3171979265967586 47:0.6672284069973418 48:0.45654577647451366 49:0.04739063113963763 50:0.2230039105167513 51:0.006250554925243209 52:0.003895901997581483 
0.0 218.39738442737112 0.0 0.0 0.0 0.0 0.0 0.0 0.0 0:0.0 1:0.0 2:1.0 3:0.0 4:1.0 5:0.0 6:0.0 7:0.0 8:0.0 9:0.0 10:1.0 11:0.0 12:0.0 13:0.0 14:0.017241379310344827 15:0.0 16:0.0 17:0.0 18:0.0 19:0.5 20:0.029411764705882353 21:2.3377959260619603E-5 22:0.0 23:0.03678929765886287 24:0.03347280334728033 25:1.0 26:1.0 27:0.0 28:1.0 29:0.49882075471698106 30:0.0 31:1.0 32:0.6923076923076923 33:0.0410958904109589 34:0.9999999999999998 35:0.6153846153846154 36:0.030927835051546393 37:0.0 38:0.012553802008608322 39:0.370116996908159 40:0.17301917808219192 41:0.1506849315068493 42:0.821917808219178 43:0.2251670448455548 44:0.09637981537154919 45:0.03279908698101576 46:0.5470531860817449 47:0.4745341567686331 48:0.582922748317677 49:0.08309197157573868 50:0.5426376376687979 51:0.0023839973958139243 52:0.007426331476836591 
0.0 295.3233732378372 0.0 8.53912522747726 0.0 0.0 0.0 0.0 0.0 0:1.0 1:0.0 2:0.0 3:0.0 4:1.0 5:0.0 6:0.0 7:0.0 8:0.0 9:0.0 10:1.0 11:0.0 12:0.0 13:0.0 14:0.017241379310344827 15:0.0 16:0.0 17:0.0 18:1.0 19:0.5 20:0.029411764705882353 21:6.644415651638168E-16 22:0.0 23:0.03678929765886287 24:0.03347280334728033 25:1.0 26:0.0 27:0.0038910505836575876 28:1.0 29:0.06230979914790018 30:0.0 31:1.0 32:0.6923076923076923 33:0.0410958904109589 34:0.9999999999999998 35:0.6153846153846154 36:0.030927835051546393 37:0.0 38:0.012553802008608322 39:0.5546886074389078 40:0.17315999999999968 41:0.1506849315068493 42:0.821917808219178 43:0.042925679296701304 44:0.03972187716514772 45:0.022785650321469206 46:0.4402473155654753 47:0.8903744738435965 48:0.06675466946587008 49:0.0054212174416746715 50:0.5853437595333112 51:0.0014623416109175254 52:0.009337098032842491 
0.0 512.0 0.0 512.0 107.2440567548058 0.0 0.0 52.957865267156684 0.0 0:0.0 1:0.0 2:0.0 3:0.0 4:1.0 5:0.0 6:0.0 7:0.0 8:0.0 9:0.0 10:1.0 11:0.0 12:0.0 13:0.0 14:0.05172413793103448 15:0.0 16:0.0 17:0.0 18:0.0 19:0.0 20:0.0 21:0.01069541636145515 22:0.0 23:0.026755852842809364 24:0.03347280334728033 25:0.0 26:1.0 27:0.0 28:1.0 29:0.1981132075471698 30:0.0 31:1.0 32:0.875 33:0.0 34:0.9999999999999998 35:0.5 36:0.0711340206185567 37:0.0 38:0.006586871424269798 39:0.0073505695766953 40:0.16000000000000003 41:0.05442176870748299 42:0.9387755102040817 43:0.02223463814551719 44:0.048438696886405536 45:0.006197889213698758 46:0.12629094571638805 47:0.6421984404736867 48:0.603042428877258 49:0.06646908618613301 50:0.9171009187258619 51:0.0012150130618959055 52:0.004828498438007315 
47.56694438115134 48.46122590685832 0.0 0.0 0.0 0.0 0.0 0.0 0.0 0:1.0 1:0.0 2:1.0 3:0.0 4:1.0 5:0.0 6:0.0 7:0.0 8:0.0 9:0.0 10:1.0 11:0.0 12:0.0 13:0.0 14:0.04597701149425287 15:0.0 16:0.0 17:0.0 18:0.0 19:1.0 20:0.0 21:6.644415651638168E-16 22:0.0 23:0.0802675585284281 24:0.016736401673640166 25:0.0 26:1.0 27:0.0 28:1.0 29:0.02997565429093122 30:0.0 31:1.0 32:0.75 33:0.0 34:0.9999999999999998 35:1.0 36:0.0 37:0.0 38:0.038109756097560975 39:0.0 40:0.16480000000000003 41:0.96 42:0.0 43:0.012827675853182955 44:0.030550333711478573 45:0.0027129060290118044 46:0.1981421455132248 47:0.6031228538774022 48:0.14347663014225762 49:0.01797441870869502 50:0.4436842006960484 51:0.0014721015065639797 52:0.004868040559824644 
44.94136521057078 288.1064718219479 0.0 0.0 0.0 0.0 191.90289780038972 0.0 1.9580595678784094 0:1.0 1:0.0 2:1.0 3:0.0 4:1.0 5:0.0 6:0.0 7:0.0 8:0.0 9:0.0 10:1.0 11:0.0 12:0.0 13:0.0 14:0.040229885057471264 15:0.0 16:0.0 17:0.0 18:0.0 19:1.0 20:0.0 21:6.644415651638168E-16 22:0.0 23:0.08695652173913043 24:0.016736401673640166 25:0.0 26:1.0 27:0.0 28:1.0 29:0.02997565429093122 30:0.0 31:1.0 32:1.0 33:0.0 34:0.9999999999999998 35:1.0 36:0.0 37:0.0 38:0.0 39:0.0 40:0.16461538461538466 41:1.0 42:0.0 43:0.012827675853182976 44:0.030550333711478573 45:0.0025314641317978927 46:0.19558544115900664 47:0.6031228538774022 48:0.172702652017935 49:0.021426081216783296 50:0.41942211790488165 51:0.0015572573605462834 52:0.004868040559824644 
13.632271727632329 512.0 62.31823623876699 66.22828846169996 0.0 74.77193082438961 189.58811772050456 49.961022585637444 0.0 0:1.0 1:0.0 2:1.0 3:0.0 4:1.0 5:0.0 6:0.0 7:0.0 8:0.0 9:0.0 10:1.0 11:0.0 12:0.0 13:0.0 14:0.028735632183908046 15:0.0 16:0.0 17:0.0 18:0.0 19:0.0 20:0.029411764705882353 21:6.644415651638168E-16 22:0.0 23:0.043478260869565216 24:0.05439330543933054 25:0.0 26:0.0 27:0.05642023346303502 28:1.0 29:0.11792452830188678 30:0.0 31:1.0 32:0.7058823529411765 33:0.03296703296703297 34:0.9999999999999998 35:0.7647058823529411 36:0.039690721649484534 37:0.0 38:0.009972646455436517 39:0.5357718817088328 40:0.1467999999999999 41:0.14285714285714285 42:0.8461538461538461 43:0.029954048414499296 44:0.07614542890309757 45:0.023368234444766958 46:0.5112946403930017 47:0.5677332130448777 48:0.42677298443957884 49:0.052089710032402835 50:0.355074644314532 51:0.0026731115534062385 52:0.004285766702914454 
354.5208945785467 74.74090008471217 0.0 0.0 0.0 0.0 0.0 0.0 0.0 0:1.0 1:0.0 2:1.0 3:0.0 4:1.0 5:0.0 6:0.0 7:0.0 8:0.0 9:0.0 10:1.0 11:0.0 12:0.0 13:0.0 14:0.028735632183908046 15:0.0 16:0.005917159763313609 17:0.0 18:0.0 19:0.0 20:0.0 21:6.644415651638168E-16 22:0.0 23:0.010033444816053512 24:0.012552301255230124 25:0.0 26:1.0 27:0.0 28:1.0 29:0.07474600870827286 30:0.0 31:1.0 32:0.2 33:0.0 34:0.9999999999999998 35:0.6 36:0.01443298969072165 37:0.05405405405405406 38:0.0260261748958953 39:0.0 40:0.14640000000000003 41:0.08108108108108109 42:0.7567567567567568 43:0.002385947708692043 44:0.02222627072326469 45:5.301930508549177E-4 46:0.054122083341307456 47:0.6120393201337027 48:0.28713105191759236 49:0.03471657684118799 50:0.43367513172831273 51:0.001102448429685121 52:0.004868040559824644 
46.69619014050353 0.0 0.0 0.0 0.0 0.0 0.0 0.0 0.0 0:1.0 1:0.0 2:1.0 3:0.0 4:1.0 5:0.0 6:0.0 7:0.0 8:0.0 9:0.0 10:1.0 11:0.0 12:0.0 13:0.0 14:0.06896551724137931 15:0.0 16:0.0 17:0.0 18:0.0 19:0.0 20:0.0 21:6.644415651638168E-16 22:0.0 23:0.006688963210702341 24:0.008368200836820083 25:0.0 26:1.0 27:0.0 28:1.0 29:0.07474600870827286 30:0.0 31:1.0 32:1.0 33:0.0 34:0.9999999999999998 35:0.6666666666666666 36:0.015979381443298968 37:0.0 38:0.0 39:0.0 40:0.14640000000000028 41:0.06060606060606061 42:0.9393939393939394 43:0.0023602923569856758 44:0.02222627072326475 45:2.760660368244626E-4 46:0.03168701472700926 47:0.6120393201337027 48:0.30254777845701214 49:0.03652620918362504 50:0.3856884633184121 51:0.0012396130904560136 52:0.004868040559824644 
0.0 438.689417729583 0.0 0.0 39.35314913635938 0.0 0.0 0.0 0.0 0:1.0 1:0.0 2:0.0 3:0.0 4:1.0 5:0.0 6:0.0 7:0.0 8:0.0 9:0.0 10:1.0 11:0.0 12:0.0 13:0.0 14:0.040229885057471264 15:0.0 16:0.0 17:0.0 18:1.0 19:0.0 20:0.0 21:6.644415651638168E-16 22:0.0 23:0.013377926421404682 24:0.016736401673640166 25:0.0 26:1.0 27:0.0 28:1.0 29:0.003537735849056604 30:0.0 31:1.0 32:0.6666666666666666 33:0.0 34:0.9999999999999998 35:0.6666666666666666 36:0.018041237113402064 37:0.0 38:0.0 39:0.0 40:0.2666666666666667 41:0.10256410256410256 42:0.8974358974358975 43:0.005572912509549488 44:0.026299041136960147 45:9.628400550539164E-4 46:0.028495183414367936 47:0.9382550233523482 48:0.07862895860377551 49:0.006057687549864734 50:0.8212209694456722 51:0.0010604505641953524 52:0.004868040559824644 
0.0 512.0 0.0 0.0 0.0 0.0 0.0 0.0 0.0 0:0.0 1:0.0 2:0.0 3:0.0 4:1.0 5:0.0 6:0.0 7:0.0 8:0.0 9:0.0 10:1.0 11:0.0 12:0.0 13:0.0 14:0.017241379310344827 15:0.0 16:0.011834319526627219 17:0.2 18:0.0 19:0.0 20:0.0 21:6.644415651638168E-16 22:0.0 23:0.010033444816053512 24:0.012552301255230124 25:0.0 26:1.0 27:0.0 28:1.0 29:0.003537735849056604 30:0.0 31:1.0 32:0.7142857142857143 33:0.0 34:0.9999999999999998 35:0.42857142857142855 36:0.023195876288659795 37:0.07547169811320754 38:0.01808598594460521 39:0.0 40:0.16000000000000003 41:0.05660377358490566 42:0.8490566037735849 43:0.005572912509549488 44:0.015779424682176087 45:9.348497242587202E-4 46:0.06160302225163184 47:0.948391690973551 48:0.10774538289741908 49:0.008277835306881203 50:0.6147037643479578 51:8.500330964800385E-4 52:0.004868040559824644 
156.15172826577896 413.49751127571216 0.0 14.115123433997407 185.48818966764537 31.802257974123474 107.44338232910559 108.21715361634641 29.09291122528939 0:0.0 1:0.0 2:1.0 3:0.0 4:1.0 5:0.0 6:0.0 7:0.0 8:0.0 9:0.0 10:1.0 11:0.0 12:0.0 13:0.0 14:0.14942528735632185 15:0.0 16:0.0 17:0.0 18:0.0 19:1.0 20:0.0 21:6.644415651638168E-16 22:0.0 23:0.0033444816053511705 24:0.0041841004184100415 25:0.0 26:1.0 27:0.0 28:1.0 29:0.10901467505241089 30:0.0 31:1.0 32:0.0 33:0.0 34:0.9999999999999998 35:1.0 36:0.013402061855670104 37:0.0 38:0.0 39:0.0 40:0.24000000000000005 41:0.037037037037037035 42:0.9629629629629629 43:0.04790566812237032 44:0.024035893601110993 45:0.0 46:0.0 47:0.9260859538730941 48:0.4787161495690379 49:0.03715753492367705 50:0.5210277610026086 51:0.0015042918535314311 52:0.004868040559824644 
0.0 0.0 0.0 159.84825406589874 0.0 0.0 0.0 0.0 0.0 0:0.0 1:0.0 2:1.0 3:0.0 4:1.0 5:0.0 6:0.0 7:0.0 8:0.0 9:0.0 10:1.0 11:0.0 12:0.0 13:0.0 14:0.08045977011494254 15:0.0 16:0.0 17:0.0 18:0.0 19:0.0 20:0.0 21:6.644415651638168E-16 22:0.0 23:0.0033444816053511705 24:0.0041841004184100415 25:0.0 26:1.0 27:0.0 28:1.0 29:0.10901467505241089 30:0.0 31:1.0 32:1.0 33:0.0 34:0.9999999999999998 35:0.3333333333333333 36:0.020103092783505156 37:0.0 38:0.0 39:0.0 40:0.1866799999999997 41:0.025 42:0.975 43:0.009995610084263626 44:0.01869591923939747 45:4.6535754394357184E-4 46:0.02718862303681372 47:0.931153020600243 48:0.5415654918617706 49:0.042024098773629184 50:0.5942207639930851 51:0.0010259629895456068 52:0.004868040559824644 
0.0 124.30798605487611 0.0 0.0 166.2819095491954 0.0 0.0 207.00359404167557 0.0 0:0.0 1:0.0 2:1.0 3:0.0 4:1.0 5:0.0 6:0.0 7:0.0 8:0.0 9:0.0 10:1.0 11:0.0 12:0.0 13:0.0 14:0.011494252873563218 15:0.0 16:0.0 17:0.0 18:0.0 19:0.0 20:0.0 21:6.644415651638168E-16 22:0.0 23:0.026755852842809364 24:0.016736401673640166 25:0.0 26:1.0 27:0.0 28:1.0 29:0.10901467505241089 30:0.0 31:1.0 32:1.0 33:0.0 34:0.9999999999999998 35:0.5714285714285714 36:0.018041237113402064 37:0.0 38:0.0 39:0.0 40:0.1866799999999997 41:0.18604651162790697 42:0.813953488372093 43:0.009995610084263626 44:0.01869591923939747 45:0.0013958933032974057 46:0.07078465726185346 47:0.931153020600243 48:0.5671553095157491 49:0.04400557506246091 50:0.6846385798453086 51:8.904676561086693E-4 52:0.004868040559824644 
0.0 236.5391754273128 3.6129721226127143 10.303613583769986 0.0 10.017126319717947 10.621328930462154 0.0 0.0 0:1.0 1:0.0 2:1.0 3:0.0 4:1.0 5:0.0 6:0.0 7:1.0 8:0.0 9:0.0 10:1.0 11:0.0 12:0.0 13:0.0 14:0.05172413793103448 15:0.0 16:0.0 17:0.0 18:1.0 19:0.25 20:0.058823529411764705 21:0.2726454498698632 22:0.0 23:0.026755852842809364 24:0.02928870292887029 25:0.0 26:0.0 27:0.0038910505836575876 28:1.0 29:0.9999999999999999 30:0.0 31:1.0 32:0.5 33:0.06593406593406594 34:0.9999999999999998 35:0.7 36:0.041237113402061855 37:0.0 38:0.03201219512195122 39:0.1916427845058703 40:0.176246153846154 41:0.08791208791208792 42:0.8791208791208791 43:0.0 44:1.0 45:0.02442308180393677 46:0.4486433723376093 47:0.0 48:0.0449946784285168 49:0.11342542724253846 50:0.577737863251588 51:0.0019365502388586505 52:0.003646161501790134 
512.0 425.29114527299777 0.0 0.0 22.457358844193745 23.093910075630063 0.0 82.05433845047553 0.0 0:0.0 1:0.0 2:0.0 3:0.0 4:1.0 5:0.0 6:0.0 7:0.0 8:0.0 9:0.0 10:1.0 11:0.0 12:0.0 13:0.0 14:0.06321839080459771 15:0.0 16:0.0 17:0.0 18:0.0 19:0.3333333333333333 20:0.058823529411764705 21:6.644415651638168E-16 22:0.0 23:0.010033444816053512 24:0.012552301255230124 25:1.0 26:0.0 27:0.007782101167315175 28:1.0 29:0.12293632075471697 30:0.0 31:1.0 32:0.3333333333333333 33:0.17142857142857143 34:0.9999999999999998 35:1.0 36:0.015463917525773196 37:0.0 38:0.05767963085036256 39:0.0 40:0.2663999999999997 41:0.08571428571428572 42:0.8571428571428571 43:0.022860343667689145 44:0.029027196652719613 45:9.081362922027127E-4 46:0.03453051666034159 47:0.8468425547443406 48:0.33118684439335305 49:0.028147740182178405 50:0.6398229372248958 51:0.001359740836911475 52:0.004868040559824644 
0.0 348.2303927321269 0.0 0.0 0.0 0.0 0.0 0.0 0.0 0:1.0 1:0.0 2:0.0 3:0.0 4:1.0 5:0.0 6:0.0 7:0.0 8:0.0 9:0.0 10:1.0 11:0.0 12:0.0 13:0.0 14:0.05172413793103448 15:0.0 16:0.0 17:0.0 18:0.0 19:0.0 20:0.0 21:6.644415651638168E-16 22:0.0 23:0.020066889632107024 24:0.02092050209205021 25:1.0 26:0.0 27:0.017509727626459144 28:1.0 29:0.04219077568134172 30:0.0 31:1.0 32:0.2222222222222222 33:0.0 34:0.9999999999999998 35:0.5555555555555556 36:0.040721649484536084 37:0.0 38:0.02223069105691057 39:0.023754789272030626 40:0.22640000000000024 41:0.06818181818181818 42:0.8977272727272727 43:0.02954213748988038 44:0.047940137906745395 45:0.0071796256452465275 46:0.12052782556349294 47:0.9179626818581528 48:0.10534763135270203 49:0.008089019425693914 50:0.7817211531078335 51:0.002001282091807589 52:0.004943922200738597 
0.0 215.15688166407665 0.0 0.0 0.0 0.0 0.0 0.0 0.0 0:1.0 1:0.0 2:1.0 3:0.0 4:1.0 5:0.0 6:0.0 7:0.0 8:0.0 9:0.0 10:1.0 11:0.0 12:0.0 13:0.0 14:0.040229885057471264 15:0.0 16:0.0 17:0.0 18:0.0 19:0.0 20:0.0 21:6.644415651638168E-16 22:0.0 23:0.020066889632107024 24:0.02092050209205021 25:1.0 26:0.0 27:0.048638132295719845 28:1.0 29:0.03773584905660377 30:0.0 31:1.0 32:0.5714285714285714 33:0.0 34:0.9999999999999998 35:0.7142857142857143 36:0.031443298969072164 37:0.0 38:0.01441990771259064 39:0.4475013610263679 40:0.22640000000000024 41:0.08823529411764706 42:0.8970588235294118 43:0.02954213748988038 44:0.047940137906745395 45:0.021798125463042654 46:0.3413681726184947 47:0.9179626818581528 48:0.10534763135270203 49:0.008089019425693914 50:0.6248145219699375 51:0.0018669241222596161 52:0.003574840572671961 
0.0 512.0 0.0 0.0 0.0 0.0 0.0 0.0 0.0 0:1.0 1:0.0 2:0.0 3:0.0 4:1.0 5:0.0 6:0.0 7:0.0 8:0.0 9:0.0 10:1.0 11:0.0 12:0.0 13:0.0 14:0.0574712643678161 15:0.0 16:0.0 17:0.0 18:0.0 19:0.0 20:0.0 21:6.644415651638168E-16 22:0.0 23:0.023411371237458192 24:0.025104602510460247 25:0.0 26:0.0 27:0.10116731517509728 28:1.0 29:0.05778301886792452 30:0.0 31:1.0 32:0.6666666666666666 33:0.0 34:0.9999999999999998 35:0.5 36:0.05309278350515464 37:0.0 38:0.008746501399440224 39:0.02257557548303603 40:0.22640000000000024 41:0.06306306306306306 42:0.9279279279279279 43:0.02954213748988038 44:0.0736369980116933 45:0.01089619831651294 46:0.13874514656178763 47:0.8931861320250276 48:0.10534763135270203 49:0.008089019425693914 50:0.6725881284376125 51:0.0035814523801015086 52:0.004828830270888401 
0.0 512.0 0.0 0.0 0.0 0.0 0.0 0.0 0.0 0:1.0 1:0.0 2:0.0 3:0.0 4:1.0 5:0.0 6:0.0 7:0.0 8:0.0 9:0.0 10:1.0 11:0.0 12:0.0 13:0.0 14:0.06321839080459771 15:0.0 16:0.0 17:0.0 18:0.0 19:0.0 20:0.0 21:6.644415651638168E-16 22:0.0 23:0.010033444816053512 24:0.012552301255230124 25:0.0 26:0.0 27:0.14785992217898833 28:1.0 29:0.0394064465408805 30:0.0 31:1.0 32:1.0 33:0.0 34:0.9999999999999998 35:0.5 36:0.023711340206185566 37:0.0 38:0.0 39:0.13017986091851297 40:0.22640000000000024 41:0.061224489795918366 42:0.9387755102040817 43:0.02954213748988038 44:0.047940137906745395 45:0.00847255119701395 46:0.22405288845582305 47:0.9179626818581528 48:0.10534763135270203 49:0.008089019425693914 50:0.4381151904171932 51:0.0031525293105751674 52:0.004232786279146689 
0.0 181.89244234965778 0.0 0.0 0.0 0.0 0.0 0.0 0.0 0:1.0 1:0.0 2:0.0 3:0.0 4:1.0 5:0.0 6:0.0 7:0.0 8:0.0 9:0.0 10:1.0 11:0.0 12:0.0 13:0.0 14:0.017241379310344827 15:0.0 16:0.0 17:0.0 18:0.0 19:0.0 20:0.0 21:6.644415651638168E-16 22:1.0 23:0.010033444816053512 24:0.012552301255230124 25:1.0 26:0.0 27:0.17315175097276264 28:1.0 29:0.01896828582898434 30:0.0 31:1.0 32:1.0 33:0.0 34:0.9999999999999998 35:0.6 36:0.017010309278350517 37:0.0 38:0.0 39:0.0 40:0.22640000000000024 41:0.08333333333333333 42:0.9166666666666666 43:0.02954213748988038 44:0.022314241821725242 45:0.0012568421045818456 46:0.05700522802748865 47:0.9426708091848347 48:0.10534763135270203 49:0.008089019425693914 50:0.6311544982702552 51:0.0011714465192072397 52:0.004868040559824644 
0.0 512.0 0.0 0.0 0.0 0.0 0.0 0.0 0.0 0:1.0 1:0.0 2:0.0 3:0.0 4:1.0 5:0.0 6:0.0 7:0.0 8:0.0 9:0.0 10:1.0 11:0.0 12:0.0 13:0.0 14:0.05172413793103448 15:0.0 16:0.0 17:0.0 18:0.0 19:0.0 20:0.0 21:6.644415651638168E-16 22:0.0 23:0.016722408026755852 24:0.008368200836820083 25:1.0 26:0.0 27:0.18093385214007782 28:1.0 29:0.036949685534591194 30:0.0 31:1.0 32:0.4 33:0.0 34:0.9999999999999998 35:0.4 36:0.020103092783505156 37:0.0 38:0.020133456051541647 39:0.28238472363460804 40:0.22640000000000024 41:0.10204081632653061 42:0.7959183673469388 43:0.02954213748988038 44:0.04793093886712512 45:0.013923397045235897 46:0.31929400868219193 47:0.9179715514423213 48:0.10534763135270203 49:0.008089019425693914 50:0.4385240203128275 51:0.0027327610768675677 52:0.003673307534158843 
0.0 253.82000315744065 0.0 0.0 0.0 0.0 0.0 0.0 0.0 0:1.0 1:0.0 2:0.0 3:0.0 4:1.0 5:0.0 6:0.0 7:0.0 8:0.0 9:0.0 10:1.0 11:0.0 12:0.0 13:0.0 14:0.05172413793103448 15:0.0 16:0.0 17:0.0 18:0.0 19:0.0 20:0.0 21:6.644415651638168E-16 22:1.0 23:0.010033444816053512 24:0.0041841004184100415 25:1.0 26:0.0 27:0.21595330739299612 28:1.0 29:0.018097805159799765 30:0.0 31:1.0 32:0.3333333333333333 33:0.0 34:0.9999999999999998 35:0.3333333333333333 36:0.015979381443298968 37:0.0 38:0.0 39:0.0 40:0.22640000000000024 41:0.07894736842105263 42:0.8157894736842105 43:0.02954213748988038 44:0.022314241821725242 45:6.447686265300146E-4 46:0.028106522900148232 47:0.9426708091848347 48:0.10534763135270203 49:0.008089019425693914 50:0.6566991032720917 51:0.0011258790158182078 52:0.004868040559824644 
0.0 512.0 0.0 0.0 0.0 0.0 0.0 0.0 0.0 0:1.0 1:0.0 2:0.0 3:0.0 4:1.0 5:0.0 6:0.0 7:0.0 8:0.0 9:0.0 10:1.0 11:0.0 12:0.0 13:0.0 14:0.05172413793103448 15:0.0 16:0.0 17:0.0 18:0.0 19:0.0 20:0.0 21:6.644415651638168E-16 22:0.0 23:0.013377926421404682 24:0.012552301255230124 25:0.0 26:0.0 27:0.29961089494163423 28:1.0 29:0.03773584905660377 30:0.0 31:1.0 32:0.5 33:0.0 34:0.9999999999999998 35:0.5 36:0.026288659793814433 37:0.0 38:0.0 39:0.4890224235514057 40:0.22640000000000024 41:0.07017543859649122 42:0.8947368421052632 43:0.02954213748988038 44:0.047940137906745395 45:0.022300599120624112 46:0.4070334607231008 47:0.9179626818581528 48:0.10534763135270203 49:0.008089019425693914 50:0.483028371134534 51:0.002175887160075099 52:0.0032209790928841757 
0.0 512.0 0.0 0.0 0.0 0.0 0.0 0.0 0.0 0:1.0 1:0.0 2:1.0 3:0.0 4:1.0 5:0.0 6:0.0 7:0.0 8:0.0 9:0.0 10:1.0 11:0.0 12:0.0 13:0.0 14:0.05172413793103448 15:0.0 16:0.0 17:0.0 18:0.0 19:0.3333333333333333 20:0.029411764705882353 21:6.644415651638168E-16 22:0.0 23:0.026755852842809364 24:0.02928870292887029 25:1.0 26:0.0 27:0.3404669260700389 28:1.0 29:0.06162183861902849 30:0.0 31:1.0 32:0.45454545454545453 33:0.02654867256637168 34:0.9999999999999998 35:0.6363636363636364 36:0.05309278350515464 37:0.0 38:0.017350783263930202 39:0.5251897732992308 40:0.22640000000000024 41:0.07079646017699115 42:0.911504424778761 43:0.0295421374898804 44:0.07364356875427917 45:0.03164279085809212 46:0.3192745732786743 47:0.8931797966077644 48:0.13895755650973102 49:0.010650233711157009 50:0.6680204401112626 51:0.002838464287378319 52:0.003988796383965291 
0.0 512.0 21.62402854404037 0.0 0.0 0.0 0.0 0.0 0.0 0:1.0 1:0.0 2:1.0 3:0.0 4:1.0 5:0.0 6:0.0 7:0.0 8:0.0 9:0.0 10:1.0 11:0.0 12:0.0 13:0.0 14:0.06896551724137931 15:0.0 16:0.0 17:0.0 18:1.0 19:0.0 20:0.0 21:0.16306418808347542 22:0.0 23:0.010033444816053512 24:0.012552301255230124 25:0.0 26:0.0 27:0.0019455252918287938 28:1.0 29:0.05839050886220697 30:0.0 31:1.0 32:0.6666666666666666 33:0.0 34:0.9999999999999998 35:0.5 36:0.026288659793814433 37:0.0 38:0.0 39:0.11474325393156863 40:0.20772814814814813 41:0.05555555555555555 42:0.9444444444444444 43:0.04626942680243103 44:0.0606876219252827 45:0.011017543107772138 46:0.26199041237611326 47:0.6491471261280212 48:0.15858404795015985 49:0.017617422584771683 50:0.5017027661389233 51:0.002333832890722016 52:0.00395477685394039 
0.0 512.0 0.0 0.0 0.0 0.0 0.0 0.0 5.49797026252628 0:0.0 1:0.0 2:1.0 3:0.0 4:1.0 5:0.0 6:0.0 7:0.0 8:0.0 9:0.0 10:1.0 11:0.0 12:0.0 13:0.0 14:0.0574712643678161 15:0.0 16:0.0 17:0.0 18:0.0 19:0.0 20:0.0 21:0.008413143088696692 22:0.0 23:0.013377926421404682 24:0.016736401673640166 25:0.0 26:0.0 27:0.0019455252918287938 28:1.0 29:0.05839050886220697 30:0.0 31:1.0 32:1.0 33:0.0 34:0.9999999999999998 35:0.5 36:0.03865979381443299 37:0.0 38:0.0 39:0.005686522243793149 40:0.16882025316455726 41:0.05063291139240506 42:0.9493670886075949 43:0.0443609536949408 44:0.04994719626853629 45:0.0034788620545580444 46:0.11763523555346919 47:0.6565697009936471 48:0.23842345095995301 49:0.02610577354519247 50:0.5218174045319935 51:0.002247974206992631 52:0.0049233251597605495 
0.0 0.0 0.0 144.17235362232515 0.0 0.0 0.0 177.9241443105567 0.0 0:0.0 1:0.0 2:1.0 3:0.0 4:1.0 5:0.0 6:0.0 7:0.0 8:0.0 9:0.0 10:1.0 11:0.0 12:0.0 13:0.0 14:0.06896551724137931 15:0.0 16:0.0 17:0.0 18:0.0 19:0.0 20:0.0 21:6.644415651638168E-16 22:0.0 23:0.020066889632107024 24:0.025104602510460247 25:0.0 26:1.0 27:0.0 28:1.0 29:0.1981132075471698 30:0.0 31:1.0 32:0.7 33:0.0 34:0.9999999999999998 35:0.6 36:0.058762886597938144 37:0.0 38:0.0 39:0.33622179080254333 40:0.16000000000000003 41:0.05 42:0.95 43:0.06726833217409156 44:0.06438945645322926 45:0.021608095623425732 46:0.390776564658902 47:0.7843233901071194 48:0.45589062648413387 49:0.04028321752182131 50:0.4693138921228648 51:0.0029399797849920346 52:0.004703703683897798 
76.04940589832206 376.668031654605 0.0 0.0 0.0 0.0 75.29428116508194 0.0 31.233492179009204 0:0.0 1:0.0 2:1.0 3:0.0 4:1.0 5:0.0 6:0.0 7:0.0 8:0.0 9:0.0 10:1.0 11:0.0 12:0.0 13:0.0 14:0.0 15:0.0 16:0.0 17:0.0 18:0.0 19:0.0 20:0.0 21:6.644415651638168E-16 22:0.0 23:0.030100334448160536 24:0.03765690376569037 25:0.0 26:1.0 27:0.0 28:1.0 29:0.02401936444885799 30:0.0 31:1.0 32:0.0 33:0.0 34:0.9999999999999998 35:0.3 36:0.010309278350515464 37:0.0 38:0.01808598594460521 39:0.0 40:0.16000000000000003 41:0.3 42:0.6666666666666666 43:0.014024925599480058 44:0.023460869225204795 45:0.0015937581642045352 46:0.15379899537238492 47:0.6328955137643276 48:0.23212280774392155 49:0.027235780678718447 50:0.4197541624901683 51:0.0012448203994614804 52:0.004868040559824644 
0.0 512.0 0.0 0.0 0.0 0.0 0.0 0.0 0.0 0:0.0 1:0.0 2:0.0 3:0.0 4:1.0 5:0.0 6:0.0 7:0.0 8:0.0 9:0.0 10:1.0 11:0.0 12:0.0 13:0.0 14:0.028735632183908046 15:0.0 16:0.0 17:0.0 18:0.0 19:0.0 20:0.0 21:6.644415651638168E-16 22:0.0 23:0.020066889632107024 24:0.02092050209205021 25:0.0 26:0.0 27:0.0038910505836575876 28:1.0 29:0.28402964959568733 30:0.0 31:1.0 32:0.7777777777777778 33:0.0 34:0.9999999999999998 35:0.5555555555555556 36:0.03814432989690722 37:0.0 38:0.011989586187996712 39:0.23007816913705786 40:0.24000000000000005 41:0.07407407407407407 42:0.9135802469135802 43:0.06189353599160787 44:0.05594765496922155 45:0.016103152816766067 46:0.23364042374161223 47:0.8274283020828319 48:0.2939346262600678 49:0.024878222845983115 50:0.7494744356798508 51:0.0019465794283402558 52:0.00421455488656668 
0.0 512.0 0.0 427.20335203134135 0.0 0.0 0.0 0.0 0.0 0:0.0 1:0.0 2:0.0 3:0.0 4:1.0 5:0.0 6:0.0 7:0.0 8:0.0 9:0.0 10:1.0 11:0.0 12:0.0 13:0.0 14:0.028735632183908046 15:0.0 16:0.0 17:0.0 18:0.0 19:0.0 20:0.0 21:6.644415651638168E-16 22:0.0 23:0.0033444816053511705 24:0.0041841004184100415 25:0.0 26:1.0 27:0.0 28:1.0 29:0.01216844407984687 30:0.0 31:1.0 32:1.0 33:0.0 34:0.9999999999999998 35:0.125 36:0.024742268041237116 37:0.0 38:0.0 39:0.0 40:0.16000000000000003 41:0.02040816326530612 42:0.9795918367346939 43:0.019140317670266062 44:0.021112673057941976 45:0.0010752795535015124 46:0.07559974065269148 47:0.7049786243021537 48:0.37076009576393165 49:0.03848370160960543 50:0.5761388610455669 51:9.069316089499203E-4 52:0.004868040559824644 
0.0 0.0 0.0 0.0 129.39258607915798 0.0 0.0 0.0 0.0 0:1.0 1:0.0 2:0.0 3:0.0 4:1.0 5:0.0 6:0.0 7:0.0 8:0.0 9:0.0 10:1.0 11:0.0 12:0.0 13:0.0 14:0.06321839080459771 15:0.0 16:0.0 17:0.0 18:0.0 19:0.0 20:0.0 21:6.644415651638168E-16 22:0.0 23:0.010033444816053512 24:0.012552301255230124 25:0.0 26:1.0 27:0.0 28:1.0 29:0.12293632075471697 30:0.0 31:1.0 32:0.5 33:0.0 34:0.9999999999999998 35:0.75 36:0.018556701030927835 37:0.0 38:0.0 39:0.3564882438137499 40:0.2935999999999998 41:0.07692307692307693 42:0.9230769230769231 43:0.023913638384967136 44:0.06366033101917928 45:0.02170574595925345 46:0.34769251410331603 47:0.8811260317227015 48:0.45740429086711165 49:0.03581812623438003 50:0.46177025420088275 51:0.003207526974703042 52:0.003502367503683094 
0.0 512.0 0.0 0.0 0.0 0.0 0.0 0.0 0.0 0:0.0 1:0.0 2:0.0 3:0.0 4:1.0 5:0.0 6:0.0 7:0.0 8:0.0 9:0.0 10:1.0 11:0.0 12:0.0 13:0.0 14:0.028735632183908046 15:0.0 16:0.0 17:0.0 18:0.0 19:0.0 20:0.0 21:6.644415651638168E-16 22:0.0 23:0.010033444816053512 24:0.012552301255230124 25:0.0 26:1.0 27:0.0 28:1.0 29:0.06028891509433962 30:0.0 31:1.0 32:1.0 33:0.0 34:0.9999999999999998 35:0.5 36:0.021134020618556702 37:0.0 38:0.0 39:0.0 40:0.2135999999999998 41:0.06818181818181818 42:0.9318181818181818 43:0.008638727038460274 44:0.02157064453409021 45:0.0014850854060326363 46:0.05884824075931158 47:0.9207337933690991 48:0.535409761004206 49:0.041908719385069966 50:0.7657072653430539 51:9.110038367339083E-4 52:0.004868040559824644 
0.0 512.0 0.0 458.4523093931095 0.0 0.0 0.0 67.32328118742902 0.0 0:0.0 1:0.0 2:0.0 3:0.0 4:1.0 5:0.0 6:0.0 7:0.0 8:0.0 9:0.0 10:1.0 11:0.0 12:0.0 13:0.0 14:0.0574712643678161 15:0.0 16:0.0 17:0.0 18:0.0 19:0.0 20:0.0 21:6.644415651638168E-16 22:0.0 23:0.010033444816053512 24:0.012552301255230124 25:0.0 26:1.0 27:0.0 28:1.0 29:0.06028891509433962 30:0.0 31:1.0 32:0.8333333333333334 33:0.0 34:0.9999999999999998 35:0.5 36:0.024742268041237116 37:0.0 38:0.0 39:0.0 40:0.2135999999999998 41:0.058823529411764705 42:0.9411764705882353 43:0.008638727038460274 44:0.02157064453409021 45:0.0014801608838922238 46:0.051244710601528916 47:0.9207337933690991 48:0.5622989188807407 49:0.044008199338242675 50:0.8764047042416621 51:7.959362303356639E-4 52:0.004868040559824644 
0.0 512.0 0.0 0.0 89.17637243748557 42.33376368808445 0.0 0.0 0.0 0:1.0 1:0.0 2:0.0 3:0.0 4:1.0 5:0.0 6:0.0 7:0.0 8:0.0 9:0.0 10:1.0 11:0.0 12:0.0 13:0.0 14:0.06321839080459771 15:0.0 16:0.0 17:0.0 18:0.0 19:0.0 20:0.0 21:6.644415651638168E-16 22:0.0 23:0.010033444816053512 24:0.012552301255230124 25:0.0 26:0.0 27:0.0019455252918287938 28:1.0 29:0.06923854447439352 30:0.0 31:1.0 32:0.5 33:0.0 34:0.9999999999999998 35:0.75 36:0.018556701030927835 37:0.0 38:0.0 39:0.0 40:0.1864000000000001 41:0.07692307692307693 42:0.9230769230769231 43:0.030070922794494956 44:0.019377454234971718 45:7.20774414409093E-4 46:0.04206522269209075 47:0.8964323998307178 48:0.2346752136543974 49:0.019019637691422047 50:0.5957668465933262 51:0.0010217656580000152 52:0.004868040559824644 
0.0 512.0 30.581261820574355 512.0 0.0 0.0 0.0 0.0 0.0 0:0.0 1:0.0 2:0.0 3:0.0 4:1.0 5:0.0 6:0.0 7:0.0 8:0.0 9:0.0 10:1.0 11:0.0 12:0.0 13:0.0 14:0.034482758620689655 15:0.0 16:0.0 17:0.0 18:0.0 19:0.0 20:0.0 21:6.644415651638168E-16 22:0.0 23:0.020066889632107024 24:0.025104602510460247 25:0.0 26:0.0 27:0.0019455252918287938 28:1.0 29:0.14083557951482478 30:0.0 31:1.0 32:0.9166666666666666 33:0.0 34:0.9999999999999998 35:0.5 36:0.04587628865979382 37:0.0 38:0.0 39:0.23040070670652163 40:0.15999999999999995 41:0.06315789473684211 42:0.9368421052631579 43:0.030070922794494956 44:0.03958655886629414 45:0.014325668529175883 46:0.3329377387123725 47:0.8779583230910756 48:0.2773914801275229 49:0.02245297724078244 50:0.6159478939034538 51:0.0016981563055744205 52:0.004094464965958076 
0.0 152.27672148931262 0.0 0.0 0.0 0.0 13.785587808549975 0.0 0.0 0:0.0 1:0.0 2:0.0 3:0.0 4:1.0 5:0.0 6:0.0 7:0.0 8:0.0 9:0.0 10:1.0 11:0.0 12:0.0 13:0.0 14:0.05172413793103448 15:0.0 16:0.011834319526627219 17:0.1 18:0.0 19:0.0 20:0.0 21:6.644415651638168E-16 22:0.0 23:0.030100334448160536 24:0.012552301255230124 25:0.0 26:1.0 27:0.0 28:1.0 29:0.24823113207547168 30:0.0 31:1.0 32:0.6 33:0.0 34:0.9999999999999998 35:0.6 36:0.018556701030927835 37:0.0784313725490196 38:0.038802660753880266 39:0.06267500744712537 40:0.26640522875816997 41:0.17647058823529413 42:0.7058823529411765 43:0.10303759364203374 44:0.10362216700144791 45:0.016126899256680097 46:0.28449350515337996 47:0.591446679861229 48:0.3197071065507692 49:0.036474954945833686 50:0.47898261539068154 51:0.0046012782158439194 52:0.005212541096589037 
0.0 512.0 0.0 0.0 0.0 0.0 38.46891118108819 0.0 5.524837078446738 0:1.0 1:0.0 2:0.0 3:0.0 4:1.0 5:0.0 6:0.0 7:0.0 8:0.0 9:0.0 10:1.0 11:0.0 12:0.0 13:0.0 14:0.08045977011494254 15:0.0 16:0.011834319526627219 17:0.2 18:1.0 19:1.0 20:0.0 21:6.644415651638168E-16 22:0.0 23:0.0033444816053511705 24:0.0041841004184100415 25:1.0 26:0.0 27:0.0019455252918287938 28:1.0 29:0.08117138364779873 30:0.0 31:1.0 32:0.5 33:0.0 34:0.9999999999999998 35:0.5 36:0.007216494845360825 37:0.21052631578947367 38:0.0 39:0.0 40:0.2935866666666668 41:0.05263157894736842 42:0.7368421052631579 43:0.012693697905383073 44:0.03176836033478044 45:5.794677995815751E-4 46:0.029104851123303233 47:0.8503295684060345 48:0.12386596946367812 49:0.010596427539029977 50:0.4395149658720424 51:0.0021814455931927937 52:0.004868040559824644 
512.0 512.0 0.0 0.0 136.8189460207993 0.0 16.187148953519742 0.0 0.0 0:0.0 1:0.0 2:0.0 3:0.0 4:1.0 5:0.0 6:0.0 7:0.0 8:0.0 9:0.0 10:1.0 11:0.0 12:0.0 13:0.0 14:0.05172413793103448 15:0.0 16:0.0 17:0.0 18:0.0 19:0.0 20:0.0 21:6.644415651638168E-16 22:0.0 23:0.026755852842809364 24:0.008368200836820083 25:0.0 26:0.0 27:0.0019455252918287938 28:1.0 29:0.08117138364779873 30:0.0 31:1.0 32:0.6666666666666666 33:0.0 34:0.9999999999999998 35:0.6666666666666666 36:0.01134020618556701 37:0.0 38:0.06276901004304161 39:0.0 40:0.20000000000000004 41:0.25 42:0.6875 43:0.012693697905383073 44:0.021641555248726393 45:5.216806772217081E-4 46:0.033722331005419444 47:0.8592232271601873 48:0.16152491640139993 49:0.01374707130106268 50:0.5013063879152372 51:0.0013028921953289069 52:0.004868040559824644 
447.12958577885763 512.0 0.0 0.0 0.0 10.488810379064892 26.962674151002986 0.0 0.0 0:0.0 1:0.0 2:0.0 3:0.0 4:1.0 5:0.0 6:0.0 7:0.0 8:0.0 9:0.0 10:1.0 11:0.0 12:0.0 13:0.0 14:0.028735632183908046 15:0.0 16:0.0 17:0.0 18:0.0 19:1.0 20:0.0 21:0.1760331109829658 22:0.0 23:0.14381270903010032 24:0.03347280334728033 25:0.0 26:1.0 27:0.0 28:1.0 29:0.06028891509433962 30:0.0 31:1.0 32:0.75 33:0.0 34:0.9999999999999998 35:1.0 36:0.0 37:0.0 38:0.0 39:0.12395509126580585 40:0.1527813953488372 41:1.0 42:0.0 43:0.018242380360543223 44:0.06047564525362635 45:0.01353311474302453 46:0.45991852812197154 47:0.5905660568616371 48:0.1362992062699559 49:0.01693353871177437 50:0.35163314053994604 51:0.002740108324465407 52:0.003590504922869875 
0.0 300.06008749135725 0.0 0.0 58.91371400643655 0.0 40.92938861520151 0.0 0.0 0:1.0 1:0.0 2:1.0 3:0.0 4:1.0 5:0.0 6:0.0 7:0.0 8:0.0 9:0.0 10:1.0 11:0.0 12:6.134969325153375E-4 13:0.0 14:0.028735632183908046 15:0.0 16:0.0 17:0.0 18:0.0 19:0.0 20:0.0 21:0.43011646120038033 22:0.0 23:0.020066889632107024 24:0.012552301255230124 25:0.0 26:1.0 27:0.0 28:1.0 29:0.28402964959568733 30:0.042222222222222223 31:1.0 32:0.75 33:0.0 34:0.9999999999999998 35:0.75 36:0.009278350515463918 37:0.0 38:0.038109756097560975 39:1.6435035386647264E-5 40:0.22673333333333331 41:0.24 42:0.72 43:0.020196462982178188 44:0.17775310339701164 45:0.015267919992430521 46:0.46124702946809565 47:0.2242572990342291 48:0.5939178212974892 49:0.1645268082442797 50:0.267794995673044 51:0.003961680689504982 52:0.011330093751421308 
0.0 512.0 13.60508789758012 0.0 0.0 50.403455585941614 0.0 0.0 0.0 0:1.0 1:0.0 2:0.0 3:0.0 4:1.0 5:0.0 6:0.0 7:0.0 8:0.0 9:0.0 10:1.0 11:0.0 12:6.134969325153375E-4 13:0.0 14:0.028735632183908046 15:0.0 16:0.0 17:0.0 18:0.0 19:0.0 20:0.0 21:6.644415651638168E-16 22:0.0 23:0.020066889632107024 24:0.012552301255230124 25:0.0 26:0.0 27:0.0019455252918287938 28:1.0 29:0.14083557951482478 30:0.042222222222222223 31:1.0 32:0.75 33:0.0 34:0.9999999999999998 35:0.75 36:0.009278350515463918 37:0.0 38:0.038109756097560975 39:0.0 40:0.30137333333333355 41:0.24 42:0.72 43:0.07787111891540575 44:0.059135016626245686 45:0.0016312655148684656 46:0.05187074047138974 47:0.4556736195759325 48:0.33172874354896453 49:0.052132621753641355 50:0.6763063360332708 51:0.0014552683729617754 52:0.004868040559824644 
0.0 365.15995829398145 0.0 19.39078878482504 0.0 0.0 0.0 0.0 0.0 0:1.0 1:0.0 2:1.0 3:0.0 4:1.0 5:0.0 6:0.0 7:0.0 8:0.0 9:0.0 10:1.0 11:0.0 12:0.0 13:0.0 14:0.034482758620689655 15:0.0 16:0.0 17:0.0 18:1.0 19:0.0 20:0.0 21:1.7533469445755397E-5 22:0.0 23:0.020066889632107024 24:0.02092050209205021 25:0.0 26:1.0 27:0.0 28:1.0 29:0.08355795148247978 30:0.0 31:1.0 32:0.5833333333333334 33:0.0 34:0.5121344837197677 35:0.4166666666666667 36:0.04639175257731959 37:0.0 38:0.0 39:0.11793370517600896 40:0.18640000000000018 41:0.06060606060606061 42:0.9090909090909091 43:0.025488591920274545 44:0.09273370555293163 45:0.009534681169766452 46:0.20703908921127462 47:0.5452146059243755 48:0.20977707851814326 49:0.02677437413244454 50:0.44561974392444875 51:0.003762612562472655 52:0.004952235395850043 
14.651570401324479 219.88159223022592 0.0 0.0 0.0 0.0 0.0 0.0 0.0 0:1.0 1:0.0 2:0.0 3:0.0 4:1.0 5:0.0 6:0.0 7:0.0 8:0.0 9:0.0 10:1.0 11:0.0 12:0.0 13:0.0 14:0.040229885057471264 15:0.0 16:0.0 17:0.0 18:1.0 19:0.5 20:0.0 21:6.644415651638168E-16 22:0.0 23:0.013377926421404682 24:0.016736401673640166 25:0.0 26:1.0 27:0.0 28:1.0 29:0.004414201937786843 30:0.0 31:1.0 32:0.5 33:0.0 34:0.9999999999999998 35:0.6666666666666666 36:0.018041237113402064 37:0.0 38:0.0 39:0.0 40:0.2666666666666667 41:0.10256410256410256 42:0.8974358974358975 43:0.005739672295640873 44:0.026396751087876102 45:9.309047783077171E-4 46:0.026380359191021784 47:0.9346881834331375 48:0.042577442869215984 49:0.003327344122863343 50:0.8576338087796738 51:0.0010154266674921191 52:0.004868040559824644 
512.0 197.67619365090394 0.0 0.0 0.0 0.0 139.6430853559396 0.0 0.0 0:0.0 1:0.0 2:0.0 3:0.0 4:1.0 5:0.0 6:0.0 7:0.0 8:0.0 9:0.0 10:1.0 11:0.0 12:0.0 13:0.0 14:0.05172413793103448 15:0.0 16:0.0 17:0.0 18:0.0 19:0.0 20:0.0 21:6.644415651638168E-16 22:0.0 23:0.006688963210702341 24:0.008368200836820083 25:0.0 26:1.0 27:0.0 28:1.0 29:0.004414201937786843 30:0.0 31:1.0 32:1.0 33:0.0 34:0.9999999999999998 35:0.6666666666666666 36:0.011855670103092783 37:0.0 38:0.0 39:0.0 40:0.16000000000000003 41:0.08 42:0.92 43:0.005739672295640873 44:0.01583805065272566 45:3.070397543422201E-4 46:0.04239380327520966 47:0.9448248510543403 48:0.07183634401950349 49:0.005566644813177783 50:0.2933717674940803 51:0.0017810798519907816 52:0.004868040559824644 
205.52669301482138 512.0 0.0 347.8143583508134 0.0 0.0 0.0 0.0 0.0 0:0.0 1:0.0 2:0.0 3:0.0 4:1.0 5:0.0 6:0.0 7:0.0 8:0.0 9:0.0 10:1.0 11:0.0 12:0.0 13:0.0 14:0.04597701149425287 15:0.0 16:0.0 17:0.0 18:0.0 19:0.0 20:0.0 21:0.003150180010286973 22:0.0 23:0.046822742474916385 24:0.03347280334728033 25:0.0 26:1.0 27:0.0 28:1.0 29:0.013303360849056603 30:0.0 31:1.0 32:0.6428571428571429 33:0.0 34:0.9999999999999998 35:0.5714285714285714 36:0.04690721649484536 37:0.0 38:0.026456359604918364 39:0.30179860918513046 40:0.1466666666666667 41:0.12962962962962962 42:0.8425925925925926 43:0.01564691394624916 44:0.03306741178693882 45:0.012235008708727532 46:0.3170310602215674 47:0.907641020052863 48:0.1559074314467124 49:0.012312556177525512 50:0.6122144675976366 51:0.001392953000315893 52:0.00389189285299321 
0.0 512.0 0.0 0.0 0.0 0.0 6.458997611553551 0.0 0.0 0:1.0 1:0.0 2:0.0 3:0.0 4:1.0 5:0.0 6:0.0 7:0.0 8:0.0 9:0.0 10:1.0 11:0.0 12:0.0 13:0.0 14:0.028735632183908046 15:0.0 16:0.0 17:0.0 18:0.0 19:0.0 20:0.0 21:6.644415651638168E-16 22:0.0 23:0.006688963210702341 24:0.008368200836820083 25:0.0 26:0.0 27:0.019455252918287938 28:1.0 29:0.03619375907111756 30:0.0 31:1.0 32:0.6666666666666666 33:0.0 34:0.9999999999999998 35:0.6666666666666666 36:0.006701030927835052 37:0.0 38:0.0 39:0.0 40:0.32000000000000006 41:0.125 42:0.8125 43:0.004220305355697176 44:0.03709204545630171 45:0.001264739425278174 46:0.06581529273754992 47:0.7894424072558268 48:0.1635451651635561 49:0.015028038596567046 50:0.38919775952916075 51:0.0026851056124205705 52:0.004868040559824644 
150.46345318890977 512.0 0.0 0.0 0.0 0.0 0.0 0.0 0.0 0:0.0 1:0.0 2:0.0 3:0.0 4:1.0 5:0.0 6:0.0 7:0.0 8:0.0 9:0.0 10:1.0 11:0.0 12:0.0 13:0.0 14:0.022988505747126436 15:0.0 16:0.0 17:0.0 18:0.0 19:0.0 20:0.0 21:6.644415651638168E-16 22:0.0 23:0.010033444816053512 24:0.012552301255230124 25:0.0 26:0.0 27:0.019455252918287938 28:1.0 29:0.03619375907111756 30:0.0 31:1.0 32:0.6 33:0.0 34:0.9999999999999998 35:0.6 36:0.01134020618556701 37:0.0 38:0.0 39:0.0 40:0.2672000000000003 41:0.11538461538461539 42:0.8461538461538461 43:0.004220305355697176 44:0.03097185795601196 45:0.0016885967141891632 46:0.07382690926502214 47:0.7944600577283222 48:0.19637694748814516 49:0.01797041292037447 50:0.5547800930970005 51:0.0015728862295459167 52:0.004868040559824644 
0.0 512.0 0.0 0.0 0.0 0.0 0.0 0.0 0.0 0:1.0 1:0.0 2:0.0 3:0.0 4:1.0 5:0.0 6:0.0 7:0.0 8:0.0 9:0.0 10:1.0 11:0.0 12:0.0 13:0.0 14:0.034482758620689655 15:0.0 16:0.0 17:0.0 18:0.0 19:0.0 20:0.0 21:6.644415651638168E-16 22:0.0 23:0.006688963210702341 24:0.008368200836820083 25:0.0 26:0.0 27:0.04669260700389105 28:1.0 29:0.022700471698113206 30:0.0 31:1.0 32:0.6666666666666666 33:0.0 34:0.9999999999999998 35:0.6666666666666666 36:0.009278350515463918 37:0.0 38:0.0 39:0.0 40:0.32000000000000006 41:0.1 42:0.9 43:0.07249204684097105 44:0.03319098090412232 45:0.0012826709977827168 46:0.053367325622540755 47:0.8858028367464339 48:0.1635451651635561 49:0.01326868714279256 50:0.48678358786626075 51:0.002146820711507585 52:0.004868040559824644 
0.0 228.15870242952494 0.0 0.0 0.0 0.0 0.0 0.0 0.0 0:1.0 1:0.0 2:0.0 3:0.0 4:1.0 5:0.0 6:0.0 7:0.0 8:0.0 9:0.0 10:1.0 11:0.0 12:0.0 13:0.0 14:0.028735632183908046 15:0.0 16:0.0 17:0.0 18:0.0 19:0.0 20:0.029411764705882353 21:9.370665336726794E-4 22:0.0 23:0.023411371237458192 24:0.025104602510460247 25:0.0 26:0.0 27:0.11284046692607004 28:1.0 29:0.08355795148247978 30:0.0 31:1.0 32:0.7777777777777778 33:0.030303030303030304 34:0.9999999999999998 35:0.3333333333333333 36:0.04536082474226804 37:0.0 38:0.009198906644238856 39:0.4381724240650005 40:0.2938666666666665 41:0.0707070707070707 42:0.8888888888888888 43:0.07249204684097105 44:0.10804243887154612 45:0.05578438348580459 46:0.38807306480143194 47:0.779113142949821 48:0.1635451651635561 49:0.014000880864996366 50:0.6959986552194295 51:0.0034570446527802667 52:0.005173735488628943 
0.0 512.0 0.0 0.0 0.0 0.0 0.0 0.0 0.0 0:1.0 1:0.0 2:0.0 3:0.0 4:1.0 5:0.0 6:0.0 7:0.0 8:0.0 9:0.0 10:1.0 11:0.0 12:0.0 13:0.0 14:0.034482758620689655 15:0.0 16:0.0 17:0.0 18:0.0 19:0.5 20:0.029411764705882353 21:7.013387778008973E-4 22:0.0 23:0.023411371237458192 24:0.02928870292887029 25:0.0 26:0.0 27:0.19455252918287938 28:1.0 29:0.06230979914790018 30:0.0 31:1.0 32:0.7 33:0.05084745762711865 34:0.9999999999999998 35:0.7 36:0.026288659793814433 37:0.0 38:0.015692252510760403 39:0.09501504832927593 40:0.2940474576271185 41:0.11864406779661017 42:0.864406779661017 43:0.07249204684097105 44:0.0660973044123934 45:0.01225856671343099 46:0.18187820486838294 47:0.8414536488202187 48:0.1635451651635561 49:0.01352129534683153 50:0.6488026679782427 51:0.0029360827327591906 52:0.004534380666073423 
0.0 337.39228078440124 0.0 0.0 0.0 0.0 0.0 0.0 0.0 0:1.0 1:0.0 2:0.0 3:0.0 4:1.0 5:0.0 6:0.0 7:0.0 8:0.0 9:0.0 10:1.0 11:0.0 12:0.0 13:0.0 14:0.028735632183908046 15:0.0 16:0.0 17:0.0 18:0.0 19:0.0 20:0.0 21:4.6755918520084743E-4 22:0.0 23:0.026755852842809364 24:0.03347280334728033 25:0.0 26:0.0 27:0.33852140077821014 28:1.0 29:0.07474600870827286 30:0.0 31:1.0 32:0.6923076923076923 33:0.0 34:0.9999999999999998 35:0.6153846153846154 36:0.04845360824742268 37:0.0 38:0.009278897136797455 39:0.5871478023276118 40:0.2574446601941752 41:0.07766990291262135 42:0.912621359223301 43:0.07249204684097105 44:0.08845570204858094 45:0.05705275341410159 46:0.45957859877369955 47:0.8402968016279488 48:0.1635451651635561 49:0.013177334143100928 50:0.5736921075077355 51:0.002988459735467937 52:0.006363613151615742 
345.99471539129246 512.0 0.0 0.0 3.611002343814088 9.464980584861154 0.0 0.0 0.0 0:1.0 1:0.0 2:0.0 3:0.0 4:1.0 5:0.0 6:0.0 7:0.0 8:0.0 9:0.0 10:1.0 11:0.0 12:0.0 13:0.0 14:0.06896551724137931 15:0.0 16:0.0 17:0.0 18:0.0 19:1.0 20:0.0 21:6.644415651638168E-16 22:0.0 23:0.0033444816053511705 24:0.0041841004184100415 25:0.0 26:0.0 27:0.36575875486381326 28:1.0 29:0.041222313371616075 30:0.0 31:1.0 32:1.0 33:0.0 34:0.9999999999999998 35:1.0 36:0.006185567010309279 37:0.0 38:0.0 39:0.0 40:0.32000000000000006 41:0.07692307692307693 42:0.9230769230769231 43:0.07249204684097105 44:0.032982980781916534 45:3.699027242367366E-5 46:0.0023738755326423665 47:0.8915807372905195 48:0.1635451651635561 49:0.013174880615755323 50:0.3155917760857339 51:0.003311357163405188 52:0.004868040559824644 
0.0 512.0 0.0 0.0 0.0 0.0 0.0 0.0 0.0 0:1.0 1:0.0 2:0.0 3:0.0 4:1.0 5:0.0 6:0.0 7:0.0 8:0.0 9:0.0 10:1.0 11:0.0 12:0.0 13:0.0 14:0.034482758620689655 15:0.0 16:0.0 17:0.0 18:0.0 19:0.0 20:0.029411764705882353 21:7.013387778008973E-4 22:0.0 23:0.016722408026755852 24:0.016736401673640166 25:0.0 26:0.0 27:0.38910505836575876 28:1.0 29:0.05839050886220697 30:0.0 31:1.0 32:0.5 33:0.04285714285714286 34:0.9999999999999998 35:0.4 36:0.031443298969072164 37:0.0 38:0.013507255325717815 39:0.44921676784485315 40:0.2815314285714283 41:0.07142857142857142 42:0.8714285714285714 43:0.07249204684097105 44:0.07097190176489776 45:0.03202741766614873 46:0.35960697452921037 47:0.7795692929927751 48:0.1635451651635561 49:0.01464386257457925 50:0.6939306400366909 51:0.002221946038461541 52:0.007236862322049208 
0.0 450.1074535434939 0.0 0.0 0.0 0.0 0.0 0.0 0.0 0:1.0 1:0.0 2:0.0 3:0.0 4:1.0 5:0.0 6:0.0 7:0.0 8:0.0 9:0.0 10:1.0 11:0.0 12:0.0 13:0.0 14:0.022988505747126436 15:0.0 16:0.0 17:0.0 18:0.0 19:0.0 20:0.0 21:7.013387778008973E-4 22:0.0 23:0.030100334448160536 24:0.03765690376569037 25:0.0 26:0.0 27:0.4163424124513619 28:1.0 29:0.051823049464558894 30:0.0 31:1.0 32:0.7692307692307693 33:0.0 34:0.9999999999999998 35:0.6923076923076923 36:0.042268041237113405 37:0.0 38:0.0 39:0.0037718406212443635 40:0.2927296703296701 41:0.0989010989010989 42:0.9010989010989011 43:0.07249204684097105 44:0.06685318783354764 45:0.00681952604765664 46:0.07495015693674638 47:0.8312662978609099 48:0.1635451651635561 49:0.013695367151172384 50:0.9388290862755597 51:0.0021749319781582933 52:0.004859468571857831 
0.0 231.7341768658029 0.0 0.0 0.0 0.0 0.0 0.0 0.0 0:1.0 1:0.0 2:0.0 3:0.0 4:1.0 5:0.0 6:0.0 7:0.0 8:0.0 9:0.0 10:1.0 11:0.0 12:0.0 13:0.0 14:0.0574712643678161 15:0.0 16:0.0 17:0.0 18:0.0 19:0.0 20:0.0 21:6.644415651638168E-16 22:1.0 23:0.013377926421404682 24:0.008368200836820083 25:1.0 26:0.0 27:0.0019455252918287938 28:1.0 29:0.03773584905660377 30:0.0 31:1.0 32:0.3333333333333333 33:0.0 34:0.9999999999999998 35:0.3333333333333333 36:0.024742268041237116 37:0.0 38:0.0 39:0.245017616303555 40:0.18666666666666676 41:0.07142857142857142 42:0.8571428571428571 43:0.016673128014503817 44:0.04588939761226141 45:0.011040493099815642 46:0.3189433020842898 47:0.811413634324784 48:0.12413631016602814 49:0.011021598813367015 50:0.4225454122852345 51:0.002454932622492373 52:0.0037652687274269906 
43.29046063331511 0.0 0.0 0.0 0.0 0.0 76.0243951937765 0.0 0.0 0:1.0 1:0.0 2:1.0 3:0.0 4:1.0 5:0.0 6:0.0 7:0.0 8:0.0 9:0.0 10:1.0 11:0.0 12:0.0 13:0.0 14:0.034482758620689655 15:0.0 16:0.0 17:0.0 18:1.0 19:0.0 20:0.0 21:6.644415651638168E-16 22:0.0 23:0.013377926421404682 24:0.016736401673640166 25:0.0 26:1.0 27:0.0 28:1.0 29:0.033440026954177894 30:0.0 31:1.0 32:0.8333333333333334 33:0.0 34:0.9999999999999998 35:0.6666666666666666 36:0.015463917525773196 37:0.0 38:0.0 39:0.0 40:0.2111999999999998 41:0.11764705882352941 42:0.8823529411764706 43:0.019114662318559655 44:0.03270058526615673 45:0.0014021239611790332 46:0.07881681638301029 47:0.5936982871565888 48:0.11881839193556634 49:0.015290545187559151 50:0.5459082768338718 51:0.001263443892771469 52:0.004868040559824644 
0.0 385.024644972272 0.0 0.0 0.0 0.0 0.0 0.0 0.0 0:0.0 1:0.0 2:0.0 3:0.0 4:1.0 5:0.0 6:0.0 7:0.0 8:0.0 9:0.0 10:1.0 11:0.0 12:0.0 13:0.0 14:0.022988505747126436 15:0.0 16:0.0 17:0.0 18:0.0 19:0.0 20:0.0 21:6.644415651638168E-16 22:0.0 23:0.013377926421404682 24:0.016736401673640166 25:0.0 26:1.0 27:0.0 28:1.0 29:0.10901467505241089 30:0.0 31:1.0 32:0.8181818181818182 33:0.0 34:0.9999999999999998 35:0.36363636363636365 36:0.03917525773195876 37:0.0 38:0.0 39:0.21546331391944776 40:0.18500000000000003 41:0.05 42:0.95 43:0.02914020364648065 44:0.04912140195820847 45:0.013787462178775358 46:0.28566169905513966 47:0.7612219245983978 48:0.30503320806735623 49:0.028417387317331587 50:0.6471133911505966 51:0.001787657473128551 52:0.004167222333949707 
5.0104864039359756 0.0 0.0 0.0 0.0 0.0 0.0 0.0 0.0 0:1.0 1:0.0 2:0.0 3:0.0 4:1.0 5:0.0 6:0.0 7:0.0 8:0.0 9:0.0 10:1.0 11:0.0 12:0.0 13:0.0 14:0.034482758620689655 15:0.0 16:0.0 17:0.0 18:0.0 19:0.0 20:0.0 21:6.644415651638168E-16 22:0.0 23:0.006688963210702341 24:0.008368200836820083 25:1.0 26:1.0 27:0.0 28:1.0 29:0.014923552374756018 30:0.0 31:1.0 32:0.3333333333333333 33:0.0 34:0.9999999999999998 35:0.6666666666666666 36:0.009278350515463918 37:0.0 38:0.0 39:0.0 40:0.2666666666666667 41:0.09523809523809523 42:0.8571428571428571 43:0.011899807299802766 44:0.03214804704748904 45:9.011930165520755E-4 46:0.05705070282264225 47:0.7637396194188143 48:0.11707457263031759 49:0.011352848383002977 50:0.3835114960061262 51:0.0022731486719662444 52:0.004868040559824644 
0.0 2.7874762034665266 0.0 0.0 0.0 0.0 0.0 0.0 0.0 0:0.0 1:0.0 2:0.0 3:0.0 4:1.0 5:0.0 6:0.0 7:0.0 8:0.0 9:0.0 10:1.0 11:0.0 12:0.0 13:0.0 14:0.034482758620689655 15:0.0 16:0.0 17:0.0 18:0.0 19:0.0 20:0.0 21:6.644415651638168E-16 22:0.0 23:0.03678929765886287 24:0.04184100418410042 25:0.0 26:1.0 27:0.0 28:1.0 29:0.06676968119713728 30:0.0 31:1.0 32:0.7647058823529411 33:0.0 34:0.9999999999999998 35:0.5882352941176471 36:0.06494845360824743 37:0.0 38:0.013768686073957514 39:0.42691647920454423 40:0.2266666666666667 41:0.07913669064748201 42:0.9064748201438849 43:0.011899807299802766 44:0.12556701858616673 45:0.043585628604087386 46:0.34841381919198106 47:0.6900219712270691 48:0.15162216598919123 49:0.014569622379991227 50:0.6095311322927887 51:0.00437903778817959 52:0.004158906506704294 
0.0 512.0 0.0 0.0 0.0 0.0 0.0 0.0 0.0 0:1.0 1:0.0 2:0.0 3:0.0 4:1.0 5:0.0 6:0.0 7:0.0 8:0.0 9:0.0 10:1.0 11:0.0 12:0.0 13:0.0 14:0.034482758620689655 15:0.0 16:0.0 17:0.0 18:0.0 19:0.0 20:0.0 21:6.644415651638168E-16 22:0.0 23:0.013377926421404682 24:0.016736401673640166 25:0.0 26:0.0 27:0.005836575875486381 28:1.0 29:0.02801600914808462 30:0.0 31:1.0 32:0.75 33:0.0 34:0.9999999999999998 35:0.5 36:0.030412371134020618 37:0.0 38:0.015029199587770527 39:0.0 40:0.18640000000000015 41:0.0625 42:0.921875 43:0.014446813605318066 44:0.01974905422090121 45:0.0017271488265780143 46:0.06005233852775647 47:0.8792317419609892 48:0.11850177669857984 49:0.009900422694667524 50:0.9999999999999999 51:6.087341040240241E-4 52:0.004868040559824644 
0.0 512.0 0.0 0.0 0.0 0.0 0.0 0.0 0.0 0:1.0 1:0.0 2:0.0 3:0.0 4:1.0 5:0.0 6:0.0 7:0.0 8:0.0 9:0.0 10:1.0 11:0.0 12:0.0 13:0.0 14:0.034482758620689655 15:0.0 16:0.0 17:0.0 18:0.0 19:0.0 20:0.0 21:6.644415651638168E-16 22:0.0 23:0.006688963210702341 24:0.008368200836820083 25:0.0 26:0.0 27:0.005836575875486381 28:1.0 29:0.02801600914808462 30:0.0 31:1.0 32:0.6 33:0.0 34:0.9999999999999998 35:0.4 36:0.021134020618556702 37:0.0 38:0.0 39:0.0 40:0.1864000000000003 41:0.046511627906976744 42:0.9534883720930233 43:0.013898074138265252 44:0.019749054220901247 45:9.45613534902549E-4 46:0.04957397608758882 47:0.8792317419609892 48:0.14786905767998965 49:0.012306096780830637 50:0.6632237793729753 51:9.178411917008379E-4 52:0.004868040559824644 
0.0 105.19708170331117 0.0 0.0 0.0 0.0 0.0 0.0 0.0 0:1.0 1:0.0 2:0.0 3:0.0 4:1.0 5:0.25 6:0.0 7:0.0 8:0.0 9:0.0 10:1.0 11:0.0 12:0.0 13:0.0 14:0.04597701149425287 15:0.0 16:0.0029585798816568047 17:0.0 18:0.0 19:0.0 20:0.0 21:0.1651652821719688 22:0.0 23:0.5083612040133779 24:0.06694560669456066 25:0.0 26:1.0 27:0.0 28:1.0 29:0.21243261455525603 30:0.0 31:1.0 32:0.6666666666666666 33:0.0 34:0.9999999999999998 35:0.8888888888888888 36:0.0 37:0.00641025641025641 38:0.0 39:0.1676373609441927 40:0.19784615384615364 41:0.9743589743589743 42:0.0 43:0.026534760150967483 44:0.23715081949451966 45:0.06381342982114756 46:0.3942690723309708 47:0.4817666691163614 48:0.11454043298351407 49:0.014314831823049448 50:0.5485404219318215 51:0.00773265626245309 52:0.008168398485913955 
512.0 245.91722770926202 0.0 0.0 0.0 0.0 146.01579759786364 0.0 0.0 0:0.0 1:0.0 2:0.0 3:0.0 4:1.0 5:0.0 6:0.0 7:0.0 8:0.0 9:0.0 10:1.0 11:0.0 12:0.0 13:0.0 14:0.04597701149425287 15:0.0 16:0.0 17:0.0 18:0.0 19:0.5 20:0.0 21:6.644415651638168E-16 22:1.0 23:0.006688963210702341 24:0.008368200836820083 25:1.0 26:1.0 27:0.0 28:1.0 29:0.02997565429093122 30:0.0 31:1.0 32:1.0 33:0.0 34:0.9999999999999998 35:1.0 36:0.007731958762886598 37:0.0 38:0.0 39:0.0 40:0.16000000000000017 41:0.11764705882352941 42:0.8823529411764706 43:0.04005227990558831 44:0.02001364263306156 45:1.7275789281528015E-4 46:0.03370112736867383 47:0.7445268330262769 48:0.12401940607852543 49:0.012529208610100694 50:0.20764408140903118 51:0.0025164143407359597 52:0.004868040559824644 
145.85801581014107 512.0 0.0 0.0 0.0 0.0 0.0 0.0 0.0 0:0.0 1:0.0 2:0.0 3:0.0 4:1.0 5:0.0 6:0.0 7:0.0 8:0.0 9:0.0 10:1.0 11:0.0 12:0.0 13:0.0 14:0.040229885057471264 15:0.0 16:0.0029585798816568047 17:0.0 18:0.0 19:0.0 20:0.0 21:6.644415651638168E-16 22:0.0 23:0.020066889632107024 24:0.025104602510460247 25:0.0 26:1.0 27:0.0 28:1.0 29:0.04775943396226415 30:0.0 31:1.0 32:0.7777777777777778 33:0.0 34:0.9999999999999998 35:0.6666666666666666 36:0.0288659793814433 37:0.015151515151515152 38:0.01441990771259064 39:0.0 40:0.16000000000000003 41:0.09090909090909091 42:0.8484848484848485 43:0.041355001653344894 44:0.016354723039579792 45:0.0013654636296894411 46:0.06001891636265363 47:0.9144959415317013 48:0.11653267347470608 49:0.009336088005289412 50:0.9215482408900453 51:5.670007505217243E-4 52:0.004868040559824644 
0.0 402.41401499121525 0.0 0.0 0.0 0.0 0.0 0.0 0.0 0:0.0 1:0.0 2:0.0 3:0.0 4:1.0 5:0.0 6:0.0 7:0.0 8:0.0 9:0.0 10:1.0 11:0.0 12:0.0 13:0.0 14:0.034482758620689655 15:0.0 16:0.0 17:0.0 18:0.0 19:0.0 20:0.0 21:7.47496760809294E-16 22:0.0 23:0.023411371237458192 24:0.025104602510460247 25:0.0 26:1.0 27:0.0 28:1.0 29:0.37352594339622636 30:0.0 31:1.0 32:0.8 33:0.0 34:0.9999999999999998 35:0.4 36:0.05979381443298969 37:0.0 38:0.0151357896557689 39:0.21759165100202355 40:0.16000000000000003 41:0.05511811023622047 42:0.9133858267716536 43:0.0483218549389403 44:0.06512485409830389 45:0.015809721845128195 46:0.2773282498625979 47:0.7530302300770134 48:0.3080848918515416 49:0.028510985777039387 50:0.5838658152490092 51:0.0026932935598532027 52:0.006322929350865536 
173.86242518503568 100.14030213556487 0.0 0.0 0.0 15.826903882190349 40.223167822665204 0.0 0.0 0:1.0 1:0.0 2:0.0 3:0.0 4:1.0 5:0.0 6:0.0 7:0.0 8:0.0 9:0.0 10:1.0 11:0.0 12:0.0 13:0.0 14:0.0574712643678161 15:0.0 16:0.0029585798816568047 17:0.0 18:0.0 19:0.0 20:0.029411764705882353 21:0.02594953477861136 22:0.0 23:0.13377926421404682 24:0.0041841004184100415 25:0.0 26:1.0 27:0.0 28:1.0 29:0.09787735849056603 30:0.0 31:1.0 32:0.25 33:0.06521739130434782 34:0.9999999999999998 35:0.25 36:0.0010309278350515464 37:0.021739130434782608 38:0.04355400696864111 39:0.01844216408328449 40:0.18719999999999973 41:0.8695652173913043 42:0.043478260869565216 43:0.019425377133670114 44:0.05658686515906133 45:0.0027340063665432547 46:0.1386925535383995 47:0.6362773594994514 48:0.28960552176973303 49:0.03236791097277117 50:0.29959656582887667 51:0.004122652089296047 52:0.004584503150168663 
0.0 512.0 0.0 0.0 61.16311793473379 0.0 0.0 0.0 0.0 0:1.0 1:0.0 2:0.0 3:0.0 4:1.0 5:0.0 6:0.0 7:0.0 8:0.0 9:0.0 10:1.0 11:0.0 12:0.0 13:0.0 14:0.022988505747126436 15:0.0 16:0.0 17:0.0 18:1.0 19:0.0 20:0.0 21:0.0655897869488652 22:0.0 23:0.020066889632107024 24:0.025104602510460247 25:0.0 26:0.0 27:0.0019455252918287938 28:1.0 29:0.04904450895016932 30:0.0 31:1.0 32:0.8461538461538461 33:0.0 34:1.0 35:0.46153846153846156 36:0.042783505154639176 37:0.0 38:0.020719867392848684 39:0.0463447454110299 40:0.2671999999999996 41:0.06593406593406594 42:0.9120879120879121 43:0.04155739387236179 44:0.0624355154704907 45:0.014200023742560674 46:0.17156215054101331 47:0.8198055280316873 48:0.11834955783464401 49:0.010186755341131669 50:0.8870695612653388 51:0.0020091755923793593 52:0.00462458876389006 
0.0 512.0 0.0 134.90852877525305 74.63501563542377 1.19012832733967 0.0 0.0 0.0 0:0.0 1:0.0 2:0.0 3:0.0 4:1.0 5:0.0 6:0.0 7:0.0 8:0.0 9:0.0 10:1.0 11:0.0 12:0.0 13:0.0 14:0.04597701149425287 15:0.0 16:0.0 17:0.0 18:0.0 19:0.5 20:0.029411764705882353 21:0.0033050589903845288 22:0.0 23:0.030100334448160536 24:0.02092050209205021 25:0.0 26:0.0 27:0.0019455252918287938 28:1.0 29:0.15185050798258345 30:0.0 31:1.0 32:0.5555555555555556 33:0.04 34:1.0 35:0.5555555555555556 36:0.031958762886597936 37:0.0 38:0.0514252130473112 39:0.01349521843189222 40:0.2664000000000003 41:0.12 42:0.8266666666666667 43:0.021279688943113547 44:0.06589932163139825 45:0.009050696474812612 46:0.1254647999579032 47:0.771528381402256 48:0.3683185051864011 49:0.03312042675220862 50:0.8082795317341236 51:0.0022915055529509156 52:0.004916641436715252 
0.0 0.0 0.0 287.55971973119455 0.0 0.0 0.0 0.0 0.0 0:0.0 1:0.0 2:0.0 3:0.0 4:1.0 5:0.0 6:0.0 7:0.0 8:0.0 9:0.0 10:1.0 11:0.0 12:6.134969325153375E-4 13:0.0 14:0.05172413793103448 15:0.0 16:0.0 17:0.0 18:0.0 19:0.5 20:0.0 21:6.644415651638168E-16 22:0.0 23:0.023411371237458192 24:0.025104602510460247 25:0.0 26:1.0 27:0.0 28:1.0 29:0.03476589797344514 30:0.009683995922528034 31:1.0 32:0.4 33:0.0 34:0.9999999999999998 35:0.6 36:0.051030927835051546 37:0.0 38:0.009042992972302604 39:0.6902714862407938 40:0.2666666666666667 41:0.06422018348623854 42:0.908256880733945 43:0.04430536709957699 44:0.09070661037899397 45:0.05643829060524665 46:0.4301946382830675 47:0.8752530999196673 48:0.17568005299651965 49:0.013474163663658672 50:0.6165237837310605 51:0.0032421339599564896 52:0.013154425045594916 
-0.0 279.09782957855765 0.0 0.0 0.0 0.0 0.0 9.427957060324594 0.0 0:1.0 1:0.0 2:0.0 3:0.0 4:1.0 5:0.25 6:0.0 7:0.0 8:0.0 9:0.0 10:1.0 11:0.0 12:0.0 13:0.0 14:0.034482758620689655 15:0.0 16:0.0 17:0.0 18:1.0 19:0.3333333333333333 20:0.058823529411764705 21:6.644415651638168E-16 22:0.0 23:0.023411371237458192 24:0.025104602510460247 25:0.0 26:1.0 27:0.0 28:1.0 29:0.02208927749654855 30:0.0 31:1.0 32:0.3333333333333333 33:0.13333333333333333 34:0.9999999999999998 35:1.0 36:0.01752577319587629 37:0.0 38:0.06402439024390244 39:0.0 40:0.18478222222222232 41:0.15555555555555556 42:0.7555555555555555 43:0.010511567713024939 44:0.02716937673671638 45:0.002885516037586972 46:0.1539704608069724 47:0.7000040546670486 48:0.1503764068067405 49:0.016015100584684354 50:0.5904126276555784 51:0.0011378960861780634 52:0.004868040559824644 
-0.0 512.0 3.4410477934497936 0.0 0.0 0.0 0.0 0.0 0.0 0:0.0 1:0.0 2:0.0 3:0.0 4:1.0 5:0.0 6:0.0 7:0.0 8:0.0 9:0.0 10:1.0 11:0.0 12:0.0 13:0.0 14:0.022988505747126436 15:0.0 16:0.0 17:0.0 18:0.0 19:0.0 20:0.0 21:6.644415651638168E-16 22:0.0 23:0.013377926421404682 24:0.016736401673640166 25:0.0 26:0.0 27:0.0019455252918287938 28:1.0 29:0.0394064465408805 30:0.0 31:1.0 32:0.8 33:0.0 34:0.9999999999999998 35:0.8 36:0.010309278350515464 37:0.0 38:0.0 39:0.0 40:0.12000000000000002 41:0.16 42:0.8 43:0.02693241810241619 44:0.018214309566357764 45:2.7665854721307964E-4 46:0.07272066175802207 47:0.614683723299384 48:0.18125856992203956 49:0.022283953444602104 50:0.2054712646540614 51:0.0019072686822158352 52:0.004868040559824644 
-0.0 0.0 0.0 0.0 0.0 0.0 0.0 68.76949032956456 0.0 0:0.0 1:0.0 2:0.0 3:0.0 4:1.0 5:0.0 6:0.0 7:0.0 8:0.0 9:0.0 10:1.0 11:0.0 12:0.0 13:0.0 14:0.028735632183908046 15:0.0 16:0.0 17:0.0 18:1.0 19:0.25 20:0.08823529411764705 21:0.045587020557019374 22:0.0 23:0.026755852842809364 24:0.03347280334728033 25:0.0 26:1.0 27:0.0 28:1.0 29:0.10315292949354517 30:0.0 31:1.0 32:0.5 33:0.19148936170212766 34:0.9999999999999998 35:1.0 36:0.018556701030927835 37:0.0 38:0.05928184281842819 39:0.0322907357759905 40:0.15551999999999985 41:0.1702127659574468 42:0.7659574468085106 43:0.03542433951722328 44:0.050657985166383916 45:0.005265290670285437 46:0.25568745022344946 47:0.6388470047414262 48:0.24570194815790816 49:0.02765048433066914 50:0.3395550187501426 51:0.003148718950715143 52:0.005383238228966939 
-16.065514340842878 512.0 0.0 0.0 1.6620899551184896 0.0 222.0392114036602 0.0 0.0 0:0.0 1:0.0 2:0.0 3:0.0 4:1.0 5:0.0 6:0.0 7:0.0 8:0.0 9:0.0 10:1.0 11:0.0 12:0.0 13:0.0 14:0.034482758620689655 15:0.0 16:0.0 17:0.0 18:1.0 19:0.0 20:0.0 21:6.644415651638168E-16 22:0.0 23:0.010033444816053512 24:0.008368200836820083 25:0.0 26:1.0 27:0.0 28:1.0 29:0.01434748427672956 30:0.0 31:1.0 32:0.6666666666666666 33:0.0 34:0.9999999999999998 35:0.6666666666666666 36:0.008762886597938144 37:0.0 38:0.0 39:0.0 40:0.21333333333333337 41:0.13636363636363635 42:0.7727272727272727 43:0.026682991071937615 44:0.026648101822397064 45:5.921859125407891E-4 46:0.04649229597610245 47:0.7405063772310173 48:0.05786752331384119 49:0.006120763295824227 50:0.38695853385713364 51:0.0018004290675739294 52:0.004868040559824644 
-5.294097378768742 9.99240611391929 0.0 0.0 0.0 0.0 0.0 0.0 0.0 0:0.0 1:0.0 2:0.0 3:0.0 4:1.0 5:0.0 6:0.0 7:1.0 8:0.0 9:0.0 10:1.0 11:0.0 12:0.0 13:0.0 14:0.0574712643678161 15:0.0 16:0.0 17:0.0 18:0.0 19:1.0 20:0.0 21:6.644415651638168E-16 22:0.0 23:0.013377926421404682 24:0.012552301255230124 25:1.0 26:1.0 27:0.0 28:1.0 29:0.1981132075471698 30:0.0 31:1.0 32:0.6666666666666666 33:0.0 34:0.9999999999999998 35:1.0 36:0.01443298969072165 37:0.0 38:0.0 39:0.0 40:0.1866666666666667 41:0.12121212121212122 42:0.8484848484848485 43:0.06764461066578495 44:0.07625521531204724 45:3.5982688825798615E-4 46:0.027804720336242147 47:0.2148897510687849 48:0.5171374085773502 49:0.16893572327228645 50:0.44931858225263194 51:0.001356732154740149 52:0.004868040559824644 
-0.0 0.0 0.0 0.0 0.0 0.0 269.1916879710222 0.0 0.0 0:0.0 1:0.0 2:0.0 3:0.0 4:1.0 5:0.0 6:0.0 7:0.0 8:0.0 9:0.0 10:1.0 11:0.0 12:0.0 13:0.0 14:0.034482758620689655 15:0.0 16:0.0 17:0.0 18:0.0 19:1.0 20:0.0 21:6.644415651638168E-16 22:0.0 23:0.006688963210702341 24:0.008368200836820083 25:0.0 26:1.0 27:0.0 28:1.0 29:0.006136072913335466 30:0.0 31:1.0 32:1.0 33:0.0 34:1.0 35:1.0 36:0.005154639175257732 37:0.0 38:0.0 39:0.0 40:0.18720000000000012 41:0.16666666666666666 42:0.8333333333333334 43:0.005743948187591934 44:0.018269617392051164 45:2.0110770894497327E-4 46:0.04008075884643851 47:0.9559498437686104 48:0.08380196447577039 49:0.006367213718597722 50:0.17371327535004763 51:0.0035192859930436534 52:0.004868040559824644 
-0.0 0.0 0.0 0.0 0.0 0.0 0.0 22.84723011682879 0.0 0:0.0 1:0.0 2:0.0 3:0.0 4:1.0 5:0.0 6:0.0 7:0.0 8:0.0 9:0.0 10:1.0 11:0.0 12:0.0018404907975460125 13:0.0 14:0.022988505747126436 15:0.0 16:0.0 17:0.0 18:0.0 19:0.0 20:0.0 21:6.644415651638168E-16 22:0.0 23:0.026755852842809364 24:0.02928870292887029 25:0.0 26:1.0 27:0.0 28:1.0 29:0.02334300919206579 30:0.0811965811965812 31:1.0 32:0.375 33:0.0 34:0.9999999999999998 35:0.875 36:0.012886597938144331 37:0.0 38:0.06959172852598092 39:0.0 40:0.16000000000000003 41:0.20512820512820512 42:0.6410256410256411 43:0.018416266633219682 44:0.01979567563465761 45:0.0010654940382204478 46:0.08248031886414571 47:0.7528921179806746 48:0.15936097303168828 49:0.015754954132682988 50:0.5232711372319518 51:9.985617532637047E-4 52:0.004868040559824644 
-0.0 512.0 0.0 0.0 0.0 0.0 0.0 0.0 0.0 0:0.0 1:0.0 2:1.0 3:0.0 4:1.0 5:0.0 6:0.0 7:0.0 8:0.0 9:0.0 10:1.0 11:0.0 12:0.0 13:0.0 14:0.05172413793103448 15:0.0 16:0.0 17:0.0 18:1.0 19:1.0 20:0.0 21:6.644415651638168E-16 22:1.0 23:0.006688963210702341 24:0.008368200836820083 25:1.0 26:1.0 27:0.0 28:1.0 29:0.02997565429093122 30:0.0 31:1.0 32:1.0 33:0.0 34:0.9999999999999998 35:1.0 36:0.006185567010309279 37:0.0 38:0.0 39:0.0 40:0.1466666666666667 41:0.14285714285714285 42:0.8571428571428571 43:0.011533505889328513 44:0.02476228209191759 45:7.439040936173126E-5 46:0.020621509379920494 47:0.548930961690999 48:0.11272111312175315 49:0.01603109433528773 50:0.1594083795601654 51:0.003004706110991896 52:0.004868040559824644 
-62.350804802645484 0.0 0.0 0.0 0.0 28.667918337805098 0.0 0.0 0.0 0:1.0 1:0.0 2:0.0 3:0.0 4:1.0 5:0.25 6:0.0 7:0.0 8:0.0 9:0.0 10:1.0 11:0.0 12:0.0 13:0.0 14:0.040229885057471264 15:0.0 16:0.0 17:0.0 18:0.0 19:1.0 20:0.0 21:6.644415651638168E-16 22:0.0 23:0.04013377926421405 24:0.008368200836820083 25:0.0 26:1.0 27:0.0 28:1.0 29:0.02208927749654855 30:0.0 31:1.0 32:0.5 33:0.0 34:0.9999999999999998 35:1.0 36:0.0 37:0.0 38:0.0 39:0.0 40:0.1288943589743589 41:0.9230769230769231 42:0.0 43:0.025053876238583375 44:0.022710023326254207 45:0.0012978470298099138 46:0.26650273295970855 47:0.7113583894862484 48:0.23257824658481754 49:0.024109907579818162 50:0.18144783890856941 51:0.003130733038295537 52:0.004868040559824644 
-0.0 512.0 0.0 0.0 0.0 0.0 512.0 0.0 0.0 0:1.0 1:0.0 2:0.0 3:0.0 4:1.0 5:0.0 6:0.0 7:0.0 8:0.0 9:0.0 10:1.0 11:0.0 12:0.0 13:0.0 14:0.022988505747126436 15:0.0 16:0.0 17:0.0 18:1.0 19:1.0 20:0.0 21:6.644415651638168E-16 22:0.0 23:0.006688963210702341 24:0.008368200836820083 25:0.0 26:1.0 27:0.0 28:1.0 29:0.06923854447439352 30:0.0 31:1.0 32:1.0 33:0.0 34:0.9999999999999998 35:1.0 36:0.0036082474226804126 37:0.0 38:0.0 39:0.0 40:0.14799999999999996 41:0.2222222222222222 42:0.7777777777777778 43:0.04369961573984333 44:0.021167815004738907 45:1.652509680689067E-4 46:0.06211921473616628 47:0.6503698616598288 48:0.2381969492904165 49:0.02719613424019555 50:0.1164936921905189 51:0.004148977033187122 52:0.004868040559824644 
-105.53686495238769 0.0 0.0 0.0 0.0 0.0 0.0 0.0 0.0 0:0.0 1:0.0 2:0.0 3:0.0 4:1.0 5:0.0 6:0.0 7:0.0 8:0.0 9:0.0 10:1.0 11:0.0 12:0.0 13:0.0 14:0.028735632183908046 15:0.0 16:0.0 17:0.0 18:0.0 19:0.5 20:0.0 21:6.644415651638168E-16 22:0.0 23:0.006688963210702341 24:0.008368200836820083 25:1.0 26:1.0 27:0.0 28:1.0 29:0.07474600870827286 30:0.0 31:1.0 32:1.0 33:0.0 34:0.9999999999999998 35:1.0 36:0.004639175257731959 37:0.0 38:0.0 39:0.0 40:0.1864000000000003 41:0.18181818181818182 42:0.8181818181818182 43:0.033570027707779844 44:0.02273606968491518 45:2.429838225455047E-4 46:0.045856988375238085 47:0.7613929808645058 48:0.31144344886542147 49:0.029850675398113164 50:0.1842349381463196 51:0.0033041186983793916 52:0.004868040559824644 
-0.0 512.0 0.0 0.0 0.0 0.0 0.0 0.0 0.0 0:0.0 1:0.0 2:0.0 3:0.0 4:1.0 5:0.0 6:0.0 7:0.0 8:0.0 9:0.0 10:1.0 11:0.0 12:0.0 13:0.0 14:0.028735632183908046 15:0.0 16:0.0 17:0.0 18:0.0 19:0.5 20:0.0 21:6.644415651638168E-16 22:0.0 23:0.006688963210702341 24:0.008368200836820083 25:1.0 26:0.0 27:0.0038910505836575876 28:1.0 29:0.056603773584905655 30:0.0 31:1.0 32:1.0 33:0.0 34:0.9999999999999998 35:1.0 36:0.004639175257731959 37:0.0 38:0.0 39:0.0 40:0.1863999999999999 41:0.18181818181818182 42:0.8181818181818182 43:0.0811621304204057 44:0.01909645622772591 45:2.4280476298576778E-4 46:0.04582422781444937 47:0.9098837577640541 48:0.22155272983221824 49:0.01767974258784519 50:0.1842307875890035 51:0.003304193137262355 52:0.004868040559824644 
-168.34579202330988 0.0 0.0 0.0 0.0 5.748667130472727 0.0 0.0 0.0 0:1.0 1:0.0 2:0.0 3:0.0 4:1.0 5:0.25 6:0.0 7:0.0 8:0.0 9:0.0 10:1.0 11:0.0 12:6.134969325153375E-4 13:0.0 14:0.028735632183908046 15:0.0 16:0.0 17:0.0 18:0.0 19:1.0 20:0.0 21:6.644415651638168E-16 22:0.0 23:0.010033444816053512 24:0.012552301255230124 25:0.0 26:1.0 27:0.0 28:1.0 29:0.02042238421955403 30:0.07037037037037037 31:1.0 32:0.3333333333333333 33:0.0 34:0.9999999999999998 35:1.0 36:0.005154639175257732 37:0.0 38:0.06276901004304161 39:0.0 40:0.23424 41:0.2 42:0.6666666666666666 43:0.020867778018494668 44:0.028363835637146985 45:0.0026352623200671054 46:0.212385008486234 47:0.9121214271414344 48:0.07054552805332774 49:0.005630357269124207 50:0.2870110384071821 51:0.0031880901251844333 52:0.004868040559824644 
-0.0 86.26441631156304 0.0 0.0 0.0 0.0 83.6363206273561 0.0 0.0 0:0.0 1:0.0 2:1.0 3:0.0 4:1.0 5:0.0 6:0.0 7:0.0 8:0.0 9:0.0 10:1.0 11:0.0 12:0.0 13:0.0 14:0.028735632183908046 15:0.0 16:0.0 17:0.0 18:1.0 19:1.0 20:0.0 21:6.644415651638168E-16 22:1.0 23:0.006688963210702341 24:0.008368200836820083 25:1.0 26:1.0 27:0.0 28:1.0 29:0.03619375907111756 30:0.0 31:1.0 32:1.0 33:0.0 34:0.9999999999999998 35:1.0 36:0.004123711340206186 37:0.0 38:0.0 39:0.0 40:0.1466666666666667 41:0.2 42:0.8 43:0.011533505889328513 44:0.02484152237882418 45:9.143821150713246E-5 46:0.033714285714283795 47:0.5471355044385934 48:0.1144466661633296 49:0.016313803610393973 50:0.11984734250191444 51:0.0039965452901059816 52:0.004868040559824644 
-0.0 512.0 0.0 0.0 0.0 0.0 0.0 0.0 0.0 0:0.0 1:0.0 2:1.0 3:0.0 4:1.0 5:0.0 6:0.0 7:0.0 8:0.0 9:0.0 10:1.0 11:0.0 12:0.0 13:0.0 14:0.017241379310344827 15:0.0 16:0.0 17:0.0 18:0.0 19:1.0 20:0.0 21:6.644415651638168E-16 22:0.0 23:0.006688963210702341 24:0.008368200836820083 25:0.0 26:0.0 27:0.0019455252918287938 28:1.0 29:0.02801600914808462 30:0.0 31:1.0 32:1.0 33:0.0 34:0.9999999999999998 35:0.6666666666666666 36:0.008247422680412371 37:0.0 38:0.0 39:0.0 40:0.16000000000000003 41:0.1111111111111111 42:0.8888888888888888 43:0.06697329562946833 44:0.01939754459414679 45:3.455670186948491E-4 46:0.05493342020605018 47:0.7686571702985503 48:0.2888833954792215 49:0.0275446142532228 50:0.25481309002766345 51:0.002050595376281116 52:0.004868040559824644 
-0.0 512.0 0.0 0.0 0.0 0.0 323.4593544234967 0.0 0.0 0:1.0 1:0.0 2:0.0 3:0.0 4:1.0 5:0.0 6:0.0 7:0.0 8:0.0 9:0.0 10:1.0 11:0.0 12:0.0 13:0.0 14:0.04597701149425287 15:0.0 16:0.0 17:0.0 18:1.0 19:1.0 20:0.0 21:6.644415651638168E-16 22:0.0 23:0.006688963210702341 24:0.008368200836820083 25:0.0 26:1.0 27:0.0 28:1.0 29:0.02548480083857442 30:0.0 31:1.0 32:1.0 33:0.0 34:0.9999999999999998 35:1.0 36:0.007731958762886598 37:0.0 38:0.0 39:0.0 40:0.16000000000000003 41:0.11764705882352941 42:0.8823529411764706 43:0.020276279631931224 44:0.02227138424076851 45:1.6046195738359212E-4 46:0.02996899758870248 47:0.6675096995238301 48:0.26167396911296587 49:0.028949049556350723 50:0.21688322199463334 51:0.002409216072230612 52:0.004868040559824644 
-496.0391735978965 0.0 0.6309756949089513 0.0 0.0 0.0 79.05547168795275 0.0 0.0 0:0.0 1:0.0 2:0.0 3:0.0 4:1.0 5:0.0 6:0.0 7:0.0 8:0.0 9:0.0 10:1.0 11:0.0 12:0.0 13:0.0 14:0.022988505747126436 15:0.0 16:0.0 17:0.0 18:0.0 19:0.0 20:0.0 21:6.644415651638168E-16 22:0.0 23:0.013377926421404682 24:0.016736401673640166 25:0.0 26:1.0 27:0.0 28:1.0 29:0.031053459119496855 30:0.0 31:1.0 32:1.0 33:0.0 34:0.9999999999999998 35:0.8 36:0.01134020618556701 37:0.0 38:0.0 39:0.0 40:0.14081333333333307 41:0.15384615384615385 42:0.8461538461538461 43:0.07764877253395057 44:0.018691803818359738 45:4.668102062487005E-4 46:0.06816700356209328 47:0.7025293519881807 48:0.3030385320743413 49:0.03177316554390073 50:0.31518709674741574 51:0.001459005990019873 52:0.004868040559824644 
-0.0 86.82936602312249 0.0 0.0 0.0 0.0 366.12892617407584 0.0 0.0 0:1.0 1:0.0 2:1.0 3:0.0 4:1.0 5:0.0 6:0.0 7:0.0 8:0.0 9:0.0 10:1.0 11:0.0 12:0.0 13:0.0 14:0.028735632183908046 15:0.0 16:0.0 17:0.0 18:1.0 19:1.0 20:0.0 21:6.644415651638168E-16 22:0.0 23:0.010033444816053512 24:0.012552301255230124 25:0.0 26:1.0 27:0.0 28:1.0 29:0.09787735849056603 30:0.0 31:1.0 32:1.0 33:0.0 34:0.9999999999999998 35:1.0 36:0.00979381443298969 37:0.0 38:0.0 39:0.0 40:0.17333333333333337 41:0.13636363636363635 42:0.8636363636363636 43:0.030544121503745695 44:0.04496822821721729 45:3.5849055916420777E-4 46:0.04284321334049713 47:0.34983287169259547 48:0.2254166534743651 49:0.048150859574799525 50:0.312866935207725 51:0.001809273184683722 52:0.004868040559824644 
-493.84442549257926 452.3813418936911 0.0 0.0 0.0 0.0 0.0 0.0 0.0 0:1.0 1:0.0 2:0.0 3:0.0 4:1.0 5:0.0 6:0.0 7:0.0 8:0.0 9:0.0 10:1.0 11:0.0 12:0.0 13:0.0 14:0.028735632183908046 15:0.0 16:0.0 17:0.0 18:0.0 19:0.0 20:0.0 21:6.644415651638168E-16 22:0.0 23:0.013377926421404682 24:0.016736401673640166 25:0.0 26:1.0 27:0.0 28:1.0 29:0.031053459119496855 30:0.0 31:1.0 32:0.8 33:0.0 34:0.9999999999999998 35:0.8 36:0.013402061855670104 37:0.0 38:0.03048780487804878 39:0.0 40:0.1440000000000001 41:0.12903225806451613 42:0.8387096774193549 43:0.014538032633607376 44:0.014893264934635112 45:5.664583754187824E-4 46:0.06694348629252454 47:0.9051537352353102 48:0.11683589345166623 49:0.009490808423853364 50:0.38084061237322636 51:0.001234812345441517 52:0.004868040559824644 
-0.0 134.6297604801521 0.0 2.3137681325663637 0.0 0.0 0.0 0.0 0.0 0:0.0 1:0.0 2:0.0 3:0.0 4:1.0 5:0.0 6:0.0 7:1.0 8:0.0 9:0.0 10:1.0 11:0.0 12:0.0 13:0.0 14:0.04597701149425287 15:0.0 16:0.0 17:0.0 18:0.0 19:1.0 20:0.0 21:6.644415651638168E-16 22:0.0 23:0.006688963210702341 24:0.008368200836820083 25:0.0 26:1.0 27:0.0 28:1.0 29:0.14083557951482478 30:0.0 31:1.0 32:1.0 33:0.0 34:0.9999999999999998 35:1.0 36:0.006701030927835052 37:0.0 38:0.0 39:0.0 40:0.17333333333333337 41:0.13333333333333333 42:0.8666666666666667 43:0.2841871814460497 44:0.02670885295749183 45:3.463355146593204E-5 46:0.007492975335622507 47:0.6002554440240544 48:0.7242378705920461 49:0.08733675367012692 50:0.17282505608440574 51:0.0032753454219569783 52:0.004868040559824644 
-0.0 512.0 41.016850841552625 153.19332285386173 0.0 243.52052924806156 0.0 0.0 0.0 0:0.0 1:0.0 2:0.0 3:0.0 4:1.0 5:0.0 6:0.0 7:0.0 8:0.0 9:0.0 10:1.0 11:0.0 12:0.0 13:0.0 14:0.028735632183908046 15:0.0 16:0.0 17:0.0 18:0.0 19:0.0 20:0.0 21:6.644415651638168E-16 22:0.0 23:0.016722408026755852 24:0.008368200836820083 25:0.0 26:0.0 27:0.0019455252918287938 28:1.0 29:0.06446540880503145 30:0.0 31:1.0 32:0.6666666666666666 33:0.0 34:0.9999999999999998 35:0.6666666666666666 36:0.006701030927835052 37:0.0 38:0.0 39:0.0 40:0.1472000000000003 41:0.25 42:0.65 43:0.10620175368581884 44:0.01634514309402902 45:2.7432231948105383E-4 46:0.053449415913598426 47:0.8418375751063716 48:0.37603539271249137 49:0.03256772801151043 50:0.2259729425168564 51:0.0021273213303076846 52:0.004868040559824644 
-0.0 292.8938844887735 0.0 0.0 0.0 0.0 0.0 0.0 0.0 0:0.0 1:0.0 2:0.0 3:0.0 4:1.0 5:0.0 6:0.0 7:0.0 8:0.0 9:0.0 10:1.0 11:0.0 12:0.0 13:0.0 14:0.034482758620689655 15:0.0 16:0.0 17:0.0 18:0.0 19:1.0 20:0.0 21:6.644415651638168E-16 22:0.0 23:0.006688963210702341 24:0.008368200836820083 25:0.0 26:1.0 27:0.0 28:1.0 29:0.1981132075471698 30:0.0 31:1.0 32:1.0 33:0.0 34:0.9999999999999998 35:1.0 36:0.006185567010309279 37:0.0 38:0.0 39:0.0 40:0.2135999999999998 41:0.14285714285714285 42:0.8571428571428571 43:0.12151657335720234 44:0.0308442308580934 45:2.896576564522721E-4 46:0.03665809724133762 47:0.6378041950598952 48:0.4933303782577881 49:0.055958916437246535 50:0.239750717527596 51:0.002909531465582619 52:0.004868040559824644 
-0.0 0.0 0.0 0.0 0.0 0.0 483.21951192518617 0.0 0.0 0:0.0 1:0.0 2:0.0 3:0.0 4:1.0 5:0.0 6:0.0 7:0.0 8:0.0 9:0.0 10:1.0 11:0.0 12:0.0 13:0.0 14:0.034482758620689655 15:0.0 16:0.0 17:0.0 18:0.0 19:1.0 20:0.0 21:6.644415651638168E-16 22:0.0 23:0.03678929765886287 24:0.008368200836820083 25:0.0 26:1.0 27:0.0 28:1.0 29:0.0040668843734881464 30:0.0 31:1.0 32:1.0 33:0.0 34:0.9999999999999998 35:1.0 36:0.0 37:0.0 38:0.0 39:0.0 40:0.12072727272727249 41:1.0 42:0.0 43:0.03786302322664508 44:0.01577807610029071 45:9.39563166174202E-4 46:0.24258257384357076 47:0.9484740513979734 48:0.13889423346233373 49:0.010651901233914686 50:0.15688899126930264 51:0.003330498462634121 52:0.004868040559824644 
-243.06930462476066 278.76388186177036 0.0 0.0 0.0 0.0 0.0 0.0 0.0 0:0.0 1:0.0 2:0.0 3:0.0 4:1.0 5:0.0 6:0.0 7:0.0 8:0.0 9:0.0 10:1.0 11:0.0 12:0.0 13:0.0 14:0.040229885057471264 15:0.0 16:0.0 17:0.0 18:0.0 19:0.25 20:0.08823529411764705 21:6.644415651638168E-16 22:0.0 23:0.08361204013377926 24:0.02928870292887029 25:0.0 26:1.0 27:0.0 28:1.0 29:0.009574348607367474 30:0.0 31:1.0 32:0.45454545454545453 33:0.12 34:0.9999999999999998 35:0.6363636363636364 36:0.02422680412371134 37:0.0 38:0.03766140602582497 39:0.0 40:0.12223999999999989 41:0.3333333333333333 42:0.6266666666666667 43:0.03113704518762613 44:0.01580900612730729 45:0.006433422980199378 46:0.274043577511141 47:0.9465886312204296 48:0.14618003716575778 49:0.011232704382601924 50:0.9509300361306012 51:5.494815857881551E-4 52:0.004868040559824644 
-0.0 512.0 0.0 0.2859675649002272 88.11140529004307 0.0 0.0 0.0 0.0 0:1.0 1:0.0 2:0.0 3:0.0 4:1.0 5:0.0 6:0.0 7:0.0 8:0.0 9:0.0 10:1.0 11:0.0 12:0.0 13:0.0 14:0.028735632183908046 15:0.0 16:0.0 17:0.0 18:1.0 19:0.5 20:0.0 21:6.644415651638168E-16 22:0.0 23:0.013377926421404682 24:0.016736401673640166 25:0.0 26:1.0 27:0.0 28:1.0 29:0.24823113207547168 30:0.0 31:1.0 32:0.6 33:0.0 34:0.9999999999999998 35:0.8 36:0.01134020618556701 37:0.0 38:0.0 39:0.0 40:0.21280000000000052 41:0.15384615384615385 42:0.8461538461538461 43:0.2251670448455548 44:0.038508495514580715 45:0.0013983685775659498 46:0.09086803280140332 47:0.504925153380452 48:0.3711083725246168 49:0.05345641980952343 50:0.4686892332467942 51:0.0014827515004072764 52:0.004868040559824644 
-262.6394145848029 512.0 0.0 52.83734790240328 0.0 37.24377529727369 0.0 0.0 0.0 0:0.0 1:0.0 2:0.0 3:0.0 4:1.0 5:0.0 6:0.0 7:0.0 8:0.0 9:0.0 10:1.0 11:0.0 12:0.0 13:0.0 14:0.028735632183908046 15:0.0 16:0.0 17:0.0 18:0.0 19:0.5 20:0.0 21:6.644415651638168E-16 22:0.0 23:0.013377926421404682 24:0.016736401673640166 25:0.0 26:0.0 27:0.0038910505836575876 28:1.0 29:0.02997565429093122 30:0.0 31:1.0 32:0.6666666666666666 33:0.0 34:0.9999999999999998 35:0.6666666666666666 36:0.012886597938144331 37:0.0 38:0.0 39:0.0 40:0.14801333333333336 41:0.13793103448275862 42:0.8620689655172413 43:0.042925679296701304 44:0.015170212213517217 45:8.112577141778795E-4 46:0.087137351924536 47:0.9131388951539128 48:0.13882603941129049 49:0.011132402746438815 50:0.40766151374975873 51:0.0011857219293905888 52:0.004868040559824644 
-0.0 512.0 0.0 26.220982884375765 428.8415496637208 0.0 0.0 155.31994181434166 4.651222320199834 0:0.0 1:0.0 2:0.0 3:0.0 4:1.0 5:0.0 6:0.0 7:0.0 8:0.0 9:0.0 10:1.0 11:0.0 12:6.134969325153375E-4 13:0.0 14:0.022988505747126436 15:0.0 16:0.0 17:0.0 18:0.0 19:0.5 20:0.029411764705882353 21:6.644415651638168E-16 22:0.0 23:0.023411371237458192 24:0.02928870292887029 25:0.0 26:1.0 27:0.0 28:1.0 29:0.09787735849056603 30:0.026388888888888892 31:1.0 32:0.625 33:0.07500000000000001 34:0.9999999999999998 35:0.875 36:0.015463917525773196 37:0.0 38:0.0454073689673067 39:0.0 40:0.16000000000000003 41:0.175 42:0.75 43:0.02223463814551719 44:0.02252962645879331 45:0.0011976241110468557 46:0.08964565117349395 47:0.6596841921202616 48:0.6534573166128014 49:0.07195773533594617 50:0.541149662870982 51:9.655712274761346E-4 52:0.004868040559824644 
-70.05512795572591 434.16247975557235 0.0 0.0 0.0 0.0 79.8807974511988 0.0 0.0 0:0.0 1:0.0 2:1.0 3:0.0 4:1.0 5:0.0 6:0.0 7:0.0 8:0.0 9:0.0 10:1.0 11:0.0 12:0.0 13:0.0 14:0.028735632183908046 15:0.0 16:0.0 17:0.0 18:0.0 19:0.5 20:0.029411764705882353 21:6.644415651638168E-16 22:0.0 23:0.12374581939799331 24:0.02928870292887029 25:0.0 26:1.0 27:0.0 28:1.0 29:0.02997565429093122 30:0.0 31:1.0 32:0.8571428571428571 33:0.07894736842105263 34:0.9999999999999998 35:1.0 36:0.0 37:0.0 38:0.02425166297117517 39:0.0 40:0.1250105263157895 41:0.9736842105263158 42:0.0 43:0.014042029167284302 44:0.022485045611648213 45:0.0023217497803813803 46:0.20005058055065236 47:0.6081405043498976 48:0.2080880580039114 49:0.025605181598451182 50:0.5109917134123184 51:9.407531434871035E-4 52:0.004868040559824644 
-0.0 512.0 95.1663024911465 21.045927689574594 512.0 512.0 0.0 0.0 15.552578164110667 0:0.0 1:0.0 2:0.0 3:0.0 4:1.0 5:0.0 6:0.0 7:0.0 8:0.0 9:0.3333333333333333 10:1.0 11:0.0 12:0.0018404907975460125 13:0.13513513513513514 14:0.034482758620689655 15:0.0 16:0.03254437869822485 17:0.0 18:0.0 19:0.0 20:0.0 21:6.644415651638168E-16 22:0.0 23:0.043478260869565216 24:0.046025104602510455 25:0.0 26:0.0 27:0.02529182879377432 28:1.0 29:0.17452830188679244 30:0.02852852852852853 31:1.0 32:0.375 33:0.0 34:0.9999999999999998 35:0.6875 36:0.041237113402061855 37:0.0990990990990991 38:0.0508130081300813 39:0.15943422390681328 40:0.13280000000000017 41:0.11711711711711711 42:0.7207207207207207 43:0.009697722945006372 44:0.13654260012038352 45:0.018990374881238864 46:0.5258227623575956 47:0.5307521153958242 48:0.30027180200344383 49:0.036954988387834675 50:0.15759216485460248 51:0.010882946832760271 52:0.00737875911079803 
-104.5265694868628 181.75564247024113 0.0 163.9816403857799 0.0 0.0 0.0 0.0 0.0 0:0.0 1:0.0 2:0.0 3:0.0 4:1.0 5:0.0 6:0.0 7:0.0 8:0.0 9:0.0 10:1.0 11:0.0 12:0.0 13:0.0 14:0.017241379310344827 15:0.0 16:0.0 17:0.0 18:0.0 19:1.0 20:0.0 21:6.644415651638168E-16 22:0.0 23:0.006688963210702341 24:0.008368200836820083 25:0.0 26:1.0 27:0.0 28:1.0 29:0.033440026954177894 30:0.0 31:1.0 32:1.0 33:0.0 34:0.9999999999999998 35:0.6666666666666666 36:0.006185567010309279 37:0.0 38:0.0 39:0.0 40:0.13320000000000015 41:0.14285714285714285 42:0.8571428571428571 43:0.020696742340452202 44:0.02231753903893843 45:2.1564611560102273E-4 46:0.07522130476828122 47:0.554526402217903 48:0.2860935281410058 49:0.03835540093592469 50:0.13948985500028016 51:0.0031184826170175357 52:0.004868040559824644 
-512.0 139.99150013458242 6.5160979778314605 76.82655111383363 72.68313254785686 0.0 210.88430636877092 102.05049532974981 8.785192162095926 0:1.0 1:0.0 2:1.0 3:0.0 4:1.0 5:0.0 6:0.0 7:0.0 8:0.0 9:0.0 10:1.0 11:0.0 12:0.0 13:0.0 14:0.028735632183908046 15:0.0 16:0.0 17:0.0 18:0.0 19:0.0 20:0.0 21:6.644415651638168E-16 22:0.0 23:0.013377926421404682 24:0.016736401673640166 25:0.0 26:1.0 27:0.0 28:1.0 29:0.07474600870827286 30:0.0 31:1.0 32:0.6 33:0.0 34:0.9999999999999998 35:0.8 36:0.01134020618556701 37:0.0 38:0.0 39:0.0 40:0.1463999999999995 41:0.14814814814814814 42:0.8148148148148148 43:0.0023602923569856758 44:0.022226270723264635 45:5.282241641939284E-4 46:0.07587980982908828 47:0.6120393201337028 48:0.3179352789745563 49:0.03833241094342239 50:0.3081747301618925 51:0.0015514071115311887 52:0.004868040559824644 
